svm_type c_svc
kernel_type rbf
gamma 0.0555556
nr_class 2
total_sv 301
rho -1.52267
label 1 0
probA -1.73873
probB 0.16095
nr_sv 152 149
SV
1 1:-0.399815 2:-0.0835012 3:-0.49312 4:-0.314517 5:0.24323 6:0.223776 7:-0.365773 8:-0.246087 9:0.492965 10:0.131779 11:0.145939 12:0.233194 13:0.0990227 14:-0.0102919 15:0.0534803 16:0.484301 17:-0.649824 18:-0.214137 
1 1:-0.338911 2:-0.354311 3:-0.16115 4:-0.130397 5:-0.142068 6:-0.0430713 7:0.0733321 8:-0.214923 9:-0.0664545 10:0.188013 11:0.423373 12:-0.0755293 13:-0.187137 14:0.186421 15:0.422552 16:0.549422 17:-0.829097 18:-0.621663 
1 1:-0.382512 2:-0.113298 3:-0.275299 4:-0.148031 5:-0.00787658 6:-0.334528 7:-0.351759 8:-0.436766 9:-0.315152 10:0.0717839 11:-0.125004 12:-0.684524 13:0.0724481 14:0.0149322 15:-0.105014 16:-0.344268 17:-0.609894 18:-0.820539 
1 1:0.027501 2:0.0198733 3:-0.162389 4:0.150236 5:0.316771 6:-0.0711577 7:-0.355245 8:0.882225 9:0.196684 10:-0.0381353 11:0.34209 12:-0.162428 13:-0.386897 14:0.0372923 15:0.19928 16:-0.112207 17:-0.578605 18:-0.205344 
1 1:0.010916 2:0.0403913 3:-0.314388 4:-0.0872373 5:0.176191 6:-0.0459036 7:-0.0865352 8:0.160748 9:0.214709 10:0.262443 11:0.463128 12:-0.0668723 13:-0.1808 14:-0.0649542 15:-0.245494 16:0.457836 17:0.173145 18:-0.113153 
1 1:-0.338059 2:0.0584346 3:-0.391173 4:0.162189 5:-0.0446378 6:-0.354987 7:-0.193098 8:0.180285 9:0.0779391 10:0.183484 11:0.210756 12:-0.465418 13:-0.100017 14:-0.104255 15:0.338206 16:-0.250553 17:-0.560337 18:-0.249698 
1 1:-0.510413 2:-0.180938 3:-0.151289 4:-0.567443 5:-0.0895851 6:-0.250434 7:-0.443929 8:-0.500268 9:-0.268444 10:0.0213526 11:0.189208 12:-0.0781669 13:-0.497954 14:0.037838 15:-0.229379 16:-0.125078 17:-0.24056 18:-0.351049 
1 1:0.53962 2:0.207724 3:0.00259598 4:0.235125 5:-0.0837371 6:-0.161721 7:-0.312089 8:0.0417874 9:-0.0236847 10:-0.0175309 11:0.56536 12:-0.284071 13:0.0327282 14:-0.233698 15:0.266353 16:0.128949 17:-0.440079 18:0.154579 
1 1:0.562405 2:0.634834 3:-0.581026 4:0.0367627 5:0.354816 6:-0.0732026 7:-0.156032 8:-0.0210524 9:0.669935 10:-0.467866 11:0.763481 12:0.509765 13:-0.043397 14:-0.355676 15:-0.0731018 16:0.321803 17:-0.207359 18:0.484877 
1 1:-0.245937 2:0.0111035 3:-0.10625 4:0.217228 5:0.302491 6:0.166469 7:-0.209706 8:-0.381178 9:0.0359498 10:0.374342 11:0.614516 12:0.0581468 13:-0.212534 14:-0.387111 15:0.421872 16:-0.0584717 17:-0.0895139 18:0.457372 
1 1:-0.383133 2:0.21991 3:-0.194593 4:0.146363 5:-0.0426689 6:-0.0795786 7:-0.175065 8:0.298767 9:0.172635 10:0.17199 11:-0.104487 12:0.632989 13:-0.336741 14:0.360017 15:-0.0628377 16:0.204875 17:-0.747271 18:-0.851255 
1 1:0.0456397 2:-0.0347531 3:-0.424733 4:0.133543 5:0.253267 6:0.28694 7:-0.187329 8:0.36922 9:-0.0337569 10:0.173974 11:0.0739053 12:0.0296801 13:-0.309696 14:0.00485998 15:0.0702055 16:0.303012 17:0.124337 18:0.361838 
1 1:0.0288935 2:0.162576 3:0.151635 4:0.103202 5:-0.0750619 6:0.140153 7:0.270529 8:-0.0249701 9:-0.0571707 10:0.122906 11:0.0998344 12:0.421427 13:-0.323823 14:0.385447 15:0.120626 16:-0.25694 17:-0.600699 18:-0.0949602 
0.679825325018597 1:-0.721468 2:-0.599902 3:0.0456009 4:-0.29529 5:-0.452385 6:-0.000708872 7:-0.357639 8:-0.526584 9:-0.722625 10:-0.188266 11:-0.0746866 12:-0.201269 13:-0.415328 14:-0.496012 15:0.282571 16:0.210722 17:-0.600699 18:-0.87672 
1 1:-0.326894 2:0.281717 3:-0.196446 4:0.147709 5:0.33274 6:-0.181371 7:0.0659458 8:-0.204569 9:-0.202104 10:0.580627 11:0.30254 12:0.324113 13:-0.369065 14:0.0261766 15:0.121997 16:0.434016 17:-1 18:0.22335 
1 1:-0.101193 2:0.161604 3:0.130022 4:0.187461 5:0.188766 6:0.0764699 7:-0.0715828 8:0.633343 9:0.482577 10:0.566682 11:0.642232 12:-0.321939 13:-0.317887 14:0.403927 15:-0.012369 16:0.365238 17:0.386723 18:0.000676645 
1 1:0.580957 2:0.309114 3:0.138078 4:0.609938 5:0.550659 6:0.394506 7:-0.149044 8:0.573815 9:0.369049 10:0.599758 11:0.339887 12:0.770664 13:0.0201269 14:0.509908 15:-0.179775 16:0.1063 17:0.027309 18:-0.617315 
1 1:-0.508755 2:0.366083 3:-0.363811 4:-0.396402 5:-0.0161488 6:0.3108 7:-0.288851 8:0.839398 9:0.609582 10:0.377684 11:0.387363 12:-0.00103829 13:-0.375102 14:-0.306412 15:0.186719 16:0.264992 17:-0.600699 18:-0.305559 
0.8181900426652503 1:-0.444947 2:-0.138052 3:-0.435104 4:-0.06556 5:0.410304 6:0.24288 7:-0.0536819 8:0.489534 9:0.27035 10:0.0669 11:0.508878 12:-0.230636 13:0.324609 14:0.666916 15:0.293394 16:-0.0636149 17:-0.644333 18:-0.305559 
1 1:-0.501701 2:0.254676 3:-0.371876 4:0.110469 5:0.464119 6:0.247802 7:-0.327608 8:0.455731 9:0.185123 10:0.687449 11:0.314928 12:0.123448 13:-0.0675521 14:-0.40454 15:0.0495217 16:0.00601688 17:0.716859 18:0.175916 
0.6488910152232914 1:0.120004 2:-0.0797455 3:-0.369621 4:-0.0280552 5:0.241642 6:0.291937 7:-0.395582 8:0.404921 9:0.357939 10:0.285247 11:0.298024 12:-0.140395 13:-0.0064602 14:0.39233 15:0.29248 16:0.0410115 17:-0.844924 18:0.0421154 
0.3235737826378614 1:-0.626551 2:-0.27817 3:-0.497388 4:-0.0405462 5:-0.0873301 6:-0.179007 7:-0.621638 8:-0.0667604 9:-0.143676 10:0.190548 11:0.353765 12:-0.406459 13:0.0295154 14:-0.333634 15:0.0205275 16:0.0650197 17:-0.523195 18:-0.0388815 
1 1:-0.435594 2:0.201737 3:-0.41718 4:-0.00447005 5:0.195325 6:0.0227559 7:-0.462753 8:0.147773 9:0.374202 10:0.0542432 11:0.299651 12:0.584291 13:-0.332754 14:0.0135317 15:0.158438 16:-0.346732 17:-0.817804 18:-0.389724 
1 1:-0.236192 2:-0.530876 3:-0.577762 4:-0.122636 5:0.0595393 6:0.0157449 7:-0.220614 8:-0.184501 9:0.280719 10:0.284862 11:-0.192269 12:0.673754 13:-0.35819 14:-0.375 15:-0.218791 16:0.0579815 17:0.254542 18:-0.288306 
1 1:-0.482455 2:-0.138431 3:-0.189732 4:-0.38548 5:0.129519 6:-0.182434 7:-0.142229 8:0.120943 9:-0.0956887 10:0.18815 11:-0.512055 12:-0.475768 13:-0.107593 14:0.00273471 15:0.0956208 16:0.0347835 17:-0.102575 18:0.0160267 
1 1:0.0652091 2:0.0656674 3:-0.0800781 4:0.215476 5:0.339949 6:-0.398509 7:0.0792613 8:-0.0264819 9:-0.210659 10:0.450442 11:-0.447026 12:0.150546 13:0.534568 14:0.550797 15:0.055295 16:0.352708 17:-0.276089 18:-0.256034 
1 1:-0.232646 2:0.233305 3:-0.207273 4:0.229939 5:0.100613 6:0.0651796 7:-0.171734 8:-0.43007 9:0.0433745 10:0.15082 11:0.39056 12:-0.817863 13:-0.358008 14:-0.311265 15:-0.000448841 16:0.0331375 17:-0.410321 18:-0.447539 
1 1:-0.520299 2:0.109739 3:-0.334287 4:0.0477843 5:0.421729 6:0.0255544 7:-0.188628 8:0.19353 9:0.35962 10:0.225445 11:-0.22878 12:-0.0828565 13:0.193761 14:0.342198 15:0.360577 16:-0.436343 17:-0.467533 18:-0.00995062 
1 1:-0.21773 2:0.235539 3:-0.0831122 4:0.283174 5:-0.048845 6:0.0766292 7:-0.228423 8:0.722074 9:-0.383527 10:0.184805 11:0.246889 12:0.324572 13:-0.0304121 14:0.0877113 15:0.288907 16:0.119958 17:-0.385901 18:-0.383998 
1 1:-0.886573 2:0.41404 3:0.0606563 4:0.0162132 5:0.550103 6:0.926087 7:-0.352237 8:0.0260555 9:0.366686 10:0.259491 11:-0.405541 12:0.0428395 13:-0.160421 14:0.655188 15:-0.742286 16:0.22747 17:-0.41703 18:0.264328 
1 1:-0.380641 2:0.369724 3:-0.152916 4:-0.258833 5:-0.0484554 6:-0.164702 7:-0.195122 8:-0.242037 9:-0.114557 10:0.226532 11:0.230017 12:-0.199821 13:-0.276685 14:-0.0323413 15:-0.277313 16:0.126585 17:-0.0302735 18:-0.532833 
1 1:-0.0548993 2:0.312008 3:0.461544 4:0.544671 5:1 6:0.727273 7:0.180894 8:0.173982 9:1 10:0.619311 11:0.877304 12:0.523693 13:0.705874 14:0.439436 15:0.138788 16:-0.114743 17:-0.125622 18:0.796056 
1 1:-0.0690046 2:0.358059 3:-0.0431015 4:0.00497212 5:-0.243711 6:-0.17345 7:-0.0411751 8:0.271103 9:0.00856878 10:0.333373 11:0.20333 12:0.00578944 13:0.0700074 14:0.0782713 15:0.130923 16:-0.175909 17:-0.411392 18:0.343941 
1 1:0.105399 2:0.53442 3:0.122155 4:0.286677 5:0.241013 6:0.465645 7:0.421991 8:-0.202858 9:0.64869 10:0.382176 11:0.535418 12:-0.0903086 13:0.747113 14:0.265195 15:-0.551917 16:0.275378 17:0.0998764 18:0.700089 
1 1:-0.4015 2:-0.542527 3:-0.134745 4:0.697979 5:-0.219 6:-0.402222 7:-0.0135803 8:-0.392751 9:0.395022 10:0.596865 11:0.591283 12:-0.099168 13:-0.0305961 14:0.775891 15:-0.129338 16:0.138664 17:0.145053 18:0.0351564 
1 1:-0.327121 2:0.152615 3:0.0541423 4:-0.170065 5:0.0432392 6:-0.265757 7:-0.203526 8:0.539052 9:0.365071 10:0.0969058 11:0.321651 12:-0.0536851 13:-0.329102 14:-0.411147 15:0.119921 16:-0.0342345 17:0.0431341 18:-0.181158 
1 1:0.28582 2:-0.174068 3:0.715926 4:0.269169 5:0.484316 6:0.508778 7:0.401665 8:-0.242364 9:0.416746 10:0.593864 11:-0.541459 12:0.0126372 13:0.302717 14:0.511315 15:-0.655947 16:0.258662 17:0.26417 18:-0.722115 
1 1:-0.229582 2:0.546901 3:-0.347349 4:-0.0497121 5:0.511734 6:0.464827 7:-0.0241856 8:-0.0245493 9:0.539395 10:0.542812 11:-0.689386 12:0.00567336 13:0.182956 14:0.677831 15:-0.261205 16:0.39072 17:-0.456059 18:-0.105376 
1 1:-0.435694 2:-0.449847 3:-0.110213 4:0.140337 5:0.153148 6:-0.061919 7:-1 8:0.147895 9:0.0155036 10:0.266125 11:-0.256645 12:-0.0204919 13:-0.217374 14:0.543387 15:-0.0766193 16:-1 17:-0.800355 18:-0.305559 
1 1:0.0826397 2:1 3:-0.0503639 4:-0.0730661 5:0.395087 6:-0.0701274 7:-0.367314 8:0.598054 9:0.469305 10:0.327627 11:0.72368 12:-0.198369 13:0.128762 14:0.345157 15:-0.112614 16:0.416946 17:-0.356009 18:-0.204747 
1 1:-0.0622346 2:0.0614165 3:-0.383473 4:0.00417283 5:0.207467 6:-0.00504671 7:-0.217109 8:-0.114717 9:0.336652 10:0.18808 11:-0.306438 12:0.0650535 13:0.172067 14:0.0206532 15:-0.100293 16:-0.44707 17:-0.301357 18:-0.303745 
1 1:-0.00736602 2:-0.0163703 3:-0.120722 4:0.257783 5:-0.575465 6:-0.319056 7:0.204578 8:-0.0760084 9:0.380527 10:0.310773 11:0.1546 12:-0.410394 13:-0.477484 14:0.382864 15:0.0204709 16:1 17:-0.517049 18:-0.0632551 
1 1:-0.404853 2:-0.177158 3:0.00353179 4:-0.190379 5:0.0798118 6:-0.0612335 7:-0.598173 8:0.226962 9:-0.0146512 10:0.0510991 11:0.255475 12:-0.432499 13:-0.237369 14:0.260792 15:0.150912 16:-0.40834 17:-0.593461 18:-0.112112 
1 1:-0.422963 2:0.574077 3:-0.0551966 4:-0.318941 5:-0.400662 6:-0.382813 7:-0.397235 8:0.485944 9:-0.399767 10:-0.0101323 11:0.39992 12:0.0236927 13:-0.321181 14:0.072048 15:0.0495505 16:-0.32688 17:-0.263799 18:-0.305559 
1 1:0.0531048 2:-0.0712287 3:-0.340581 4:-0.261894 5:-0.10852 6:-0.160534 7:-0.196303 8:-0.280572 9:0.0787717 10:0.00994266 11:-0.209686 12:-0.201064 13:-0.10216 14:-0.185668 15:0.264477 16:0.285924 17:-0.510266 18:-0.496087 
1 1:-0.464363 2:-0.500805 3:-0.186723 4:-0.206652 5:0.0673953 6:-0.0369517 7:-0.251958 8:0.291363 9:0.102387 10:-0.15261 11:0.322624 12:0.0601872 13:-0.254065 14:-0.166523 15:0.404822 16:-0.0193556 17:-0.629129 18:-0.25513 
1 1:-0.556431 2:0.227444 3:-0.152482 4:-0.0980407 5:-0.179213 6:-0.538644 7:-0.346324 8:-0.820623 9:0.00781082 10:0.0236389 11:-0.00911604 12:-0.621255 13:-0.312116 14:0.366984 15:-0.500996 16:0.240031 17:-0.138087 18:-0.431969 
1 1:-0.375643 2:0.309271 3:-0.122636 4:0.36606 5:0.779804 6:0.922486 7:0.11844 8:0.489858 9:0.143005 10:0.277352 11:-0.451044 12:0.490074 13:0.902673 14:0.490273 15:0.0625779 16:0.106413 17:-0.462998 18:0.317638 
1 1:0.1375 2:0.246035 3:-0.607572 4:-0.235006 5:0.241929 6:0.57773 7:-0.274966 8:0.670462 9:0.646006 10:0.00927527 11:0.396823 12:-0.31511 13:0.280049 14:0.370242 15:0.336907 16:-0.788377 17:-0.600699 18:-0.305559 
0.9375926887189303 1:0.00214051 2:-0.115616 3:-0.618499 4:0.203042 5:0.162133 6:-0.0654147 7:0.342295 8:-0.160274 9:0.360007 10:0.659813 11:0.320451 12:-0.0248831 13:-0.215688 14:0.299583 15:-0.242563 16:-0.501758 17:-0.60175 18:-0.217238 
1 1:0.0136841 2:0.371637 3:0.153112 4:0.311885 5:0.0174668 6:0.0600029 7:0.0271403 8:-0.117871 9:-0.501017 10:0.232725 11:0.0838292 12:-0.193676 13:0.0283726 14:-0.370365 15:0.169378 16:0.000404966 17:-0.549164 18:-0.093184 
1 1:-0.279636 2:-0.0865144 3:-0.143006 4:-0.27261 5:0.203563 6:0.528143 7:-0.383106 8:0.156434 9:0.16043 10:0.150011 11:0.361714 12:0.0213864 13:-0.112702 14:-0.15436 15:0.433208 16:-0.801844 17:-0.382986 18:-0.653169 
1 1:-0.291474 2:-0.222719 3:-0.368319 4:0.0104588 5:0.224935 6:0.197205 7:0.0227571 8:-0.501802 9:0.36208 10:0.495647 11:0.579516 12:-0.0278935 13:-0.441863 14:0.674036 15:-0.0657904 16:-0.32688 17:0.156935 18:-0.460701 
1 1:-0.0112411 2:0.193645 3:-0.388789 4:-0.0630817 5:0.331028 6:-0.353142 7:-0.291599 8:0.199422 9:0.0591912 10:0.17279 11:-0.00821904 12:-0.251763 13:-0.150297 14:-0.402975 15:-0.86098 16:0.272728 17:0.415701 18:-0.0182378 
1 1:1 2:0.250253 3:-0.115724 4:0.205469 5:0.43869 6:0.0129123 7:0.380686 8:0.229688 9:0.748186 10:0.0794643 11:0.927143 12:0.680301 13:0.203149 14:0.552152 15:0.293391 16:-0.176659 17:-0.300103 18:0.710202 
1 1:-0.401248 2:0.17165 3:-0.286176 4:0.061644 5:0.17704 6:0.260958 7:-0.209449 8:-0.290712 9:-0.0966531 10:-0.0598278 11:0.337538 12:-0.693651 13:-0.0480133 14:0.329897 15:0.235259 16:-0.353282 17:-0.458369 18:0.107735 
1 1:-0.707047 2:-0.195812 3:-0.139828 4:0.0680475 5:-0.0194998 6:-0.534788 7:-0.629327 8:-0.338454 9:-0.180525 10:0.0286612 11:0.459785 12:-0.43471 13:-0.257053 14:-0.381861 15:0.42119 16:-0.0198177 17:0.0397563 18:-0.63998 
1 1:-0.854368 2:-0.179388 3:-0.360015 4:0.261111 5:-0.0826244 6:-0.277633 7:-0.234191 8:-0.47221 9:-0.154613 10:0.46282 11:0.0240879 12:-0.0323662 13:-0.453139 14:0.338789 15:-0.109766 16:0.520997 17:-0.540791 18:-0.292282 
1 1:0.302425 2:-0.0194657 3:0.248899 4:0.36663 5:0.144608 6:0.258901 7:-0.242965 8:0.279197 9:0.129377 10:0.363505 11:0.265882 12:0.266273 13:-0.228736 14:0.679905 15:-0.0445331 16:0.421821 17:-0.163674 18:0.24239 
1 1:-0.0158192 2:0.39872 3:0.0178087 4:0.650162 5:0.70468 6:-1 7:-0.495403 8:0.0394806 9:-0.101197 10:-0.209121 11:0.0377744 12:0.444854 13:0.306828 14:-0.171095 15:-0.817625 16:-0.38364 17:-0.745896 18:0.309532 
1 1:-0.498222 2:-0.410122 3:-0.319903 4:0.500497 5:0.0394729 6:-0.02294 7:-0.281464 8:-0.600769 9:0.0382879 10:0.31368 11:-0.638925 12:0.189929 13:-0.44869 14:-0.308761 15:-0.171556 16:0.756827 17:-0.340215 18:-0.305559 
1 1:-0.977197 2:0.0168642 3:-0.0638943 4:-0.0177578 5:0.173985 6:-0.376888 7:-0.328171 8:-0.341252 9:-0.0389 10:0.423919 11:-0.373841 12:-0.253894 13:-0.672921 14:0.275749 15:-0.660376 16:0.417207 17:-0.129896 18:-0.509292 
1 1:-0.0321583 2:0.218851 3:-0.0177498 4:0.26039 5:0.230386 6:0.28923 7:0.127777 8:-0.244601 9:-0.00596843 10:0.537757 11:0.203934 12:-0.0183558 13:-0.677375 14:-0.00757757 15:-0.283273 16:0.0958037 17:0.132131 18:0.375019 
1 1:-0.396019 2:-0.00173059 3:-0.347873 4:-0.0928216 5:0.144569 6:-0.20227 7:0.140787 8:-0.893185 9:0.245081 10:0.547287 11:-0.245273 12:0.24993 13:0.145949 14:0.615455 15:-0.0686174 16:0.326625 17:-0.176587 18:0.0829427 
1 1:-0.345286 2:0.854495 3:-0.235093 4:-0.338121 5:-0.187828 6:0.172664 7:-0.210011 8:0.50681 9:0.432415 10:-0.143145 11:-0.569189 12:-0.236156 13:-0.151269 14:-0.4826 15:0.0495384 16:-0.11929 17:-0.58235 18:-0.305559 
1 1:0.256357 2:0.0278611 3:0.0530009 4:0.298597 5:0.425721 6:-0.132117 7:-0.601717 8:-0.193436 9:0.521216 10:0.663878 11:-0.210282 12:-0.153717 13:-0.343295 14:-0.182457 15:-0.360885 16:-0.924549 17:-0.512739 18:-0.526664 
1 1:0.141116 2:0.282898 3:0.134369 4:0.813706 5:0.108387 6:-0.682232 7:1 8:-0.373468 9:-0.160076 10:0.634257 11:-0.436363 12:0.370918 13:-0.690927 14:0.644188 15:-0.158841 16:0.134459 17:-0.669326 18:-0.305559 
1 1:0.161934 2:0.35215 3:0.0884146 4:0.139385 5:0.148173 6:-0.913529 7:0.0206346 8:-0.0288699 9:-0.712331 10:0.401125 11:-0.471667 12:-0.413341 13:-0.190046 14:0.381209 15:0.0644686 16:0.391991 17:-0.311983 18:-0.305559 
1 1:0.0199488 2:0.129572 3:-0.166861 4:0.263342 5:0.0836751 6:-0.20063 7:-0.295066 8:0.711231 9:0.0683274 10:-0.0254578 11:0.569642 12:0.0472654 13:0.39369 14:0.930347 15:0.147482 16:-0.566295 17:-0.635878 18:-0.305559 
1 1:-0.595635 2:0.0785998 3:-0.232459 4:0.274093 5:-0.0557742 6:-0.672875 7:-0.0729434 8:-1 9:-0.382408 10:0.569573 11:0.318138 12:0.640139 13:-0.594735 14:0.702494 15:-0.676355 16:-0.276347 17:-0.105102 18:0.290574 
1 1:-0.216224 2:-0.265547 3:-0.297802 4:0.230112 5:0.067613 6:0.112681 7:-0.0329133 8:-0.841301 9:-0.455022 10:0.200802 11:-0.215436 12:0.0980216 13:-0.324396 14:0.104628 15:-0.0156093 16:0.333402 17:-0.316407 18:-0.687556 
1 1:0.18492 2:-0.030494 3:-0.647271 4:0.279663 5:0.135608 6:0.523661 7:-0.194557 8:0.760943 9:0.269329 10:-0.0317203 11:0.777288 12:-0.0330669 13:-0.404932 14:0.794276 15:-0.660128 16:0.03635 17:-0.600699 18:-0.382565 
1 1:-0.397278 2:0.177417 3:-0.162471 4:0.269322 5:0.0488768 6:0.201114 7:-0.169894 8:-0.3179 9:0.27172 10:0.420108 11:0.294687 12:0.00724303 13:-0.543132 14:0.467381 15:-0.157524 16:0.333854 17:-0.072059 18:-0.302713 
1 1:-0.541086 2:-0.228703 3:-0.268122 4:-0.123759 5:-0.137667 6:-0.366837 7:0.0428606 8:-0.40368 9:0.244431 10:-0.0173151 11:0.649427 12:-0.0252665 13:-0.682434 14:-0.127329 15:0.173379 16:0.261869 17:-0.41555 18:0.0772212 
1 1:-0.320704 2:-0.395502 3:0.306945 4:0.334406 5:-0.104296 6:-0.0802185 7:-0.383745 8:-0.368756 9:0.102208 10:0.713182 11:0.784174 12:0.487781 13:-0.0357823 14:0.161434 15:0.45223 16:-0.3643 17:-0.0190766 18:-0.251071 
1 1:-0.299176 2:0.52236 3:-0.137682 4:-0.16223 5:0.34059 6:0.151124 7:0.191242 8:0.43285 9:0.0733626 10:0.610034 11:0.423563 12:0.0206683 13:0.295356 14:0.906001 15:0.2138 16:0.49563 17:-0.56341 18:-0.164174 
1 1:-0.0809678 2:-0.410152 3:-0.14665 4:0.114205 5:0.464634 6:0.144174 7:-0.407026 8:0.133092 9:0.287139 10:0.159671 11:0.594556 12:-0.280096 13:-0.621576 14:0.431837 15:0.124336 16:-0.162683 17:-0.331022 18:0.182431 
0.644993563393206 1:-0.618933 2:-0.556059 3:-0.10306 4:-0.305742 5:-0.332088 6:-0.37972 7:0.0593451 8:-0.0662104 9:-0.273105 10:0.0422963 11:-0.604828 12:-1 13:-1 14:-0.0348544 15:0.189472 16:0.381869 17:-0.600699 18:-0.305559 
1 1:0.105939 2:0.602626 3:-0.0382489 4:0.0733285 5:0.258702 6:-0.341386 7:0.196009 8:0.724281 9:0.35351 10:-0.020795 11:-0.0794892 12:0.124742 13:0.818843 14:0.524219 15:0.0763027 16:-0.231324 17:0.0842027 18:0.340397 
1 1:-0.136909 2:0.182864 3:-0.484041 4:0.368428 5:0.281783 6:0.154297 7:0.0594585 8:0.343972 9:0.146178 10:0.437358 11:0.313339 12:-0.756473 13:-0.282947 14:0.200142 15:-0.0898836 16:-0.0420231 17:-0.918942 18:-0.5297 
1 1:-0.518212 2:0.0273902 3:0.0202997 4:0.198663 5:-0.167817 6:-0.246599 7:-0.158266 8:-0.462532 9:-0.221504 10:0.139077 11:-0.612646 12:-0.12507 13:-0.170602 14:0.286173 15:0.120604 16:0.0932479 17:-0.432912 18:-0.305559 
1 1:0.354019 2:-0.0448567 3:0.302769 4:0.01802 5:0.279359 6:-0.00493186 7:0.13743 8:-0.215341 9:0.120053 10:0.539063 11:-0.13222 12:0.421174 13:-0.427965 14:-0.131879 15:-0.39482 16:-0.319701 17:-0.169137 18:-0.300305 
1 1:-0.404227 2:0.108257 3:-0.465061 4:0.0205535 5:0.485764 6:-0.0448864 7:-0.748059 8:-0.661532 9:0.0741125 10:-1 11:0.107169 12:0.249517 13:0.382114 14:-0.333765 15:-0.908539 16:-0.32688 17:-0.182021 18:-0.271974 
1 1:0.139121 2:0.320063 3:-0.670418 4:-0.30512 5:0.276034 6:-0.193065 7:-0.336459 8:0.125394 9:0.0594095 10:0.104318 11:-0.165174 12:0.0476946 13:-0.361235 14:-0.0569522 15:-0.294909 16:0.226763 17:-0.746698 18:-0.164781 
1 1:0.338931 2:0.807026 3:0.137759 4:-0.266444 5:-0.0645435 6:-0.186642 7:-0.437044 8:-0.0740557 9:-0.13681 10:0.264744 11:-0.527333 12:-0.928811 13:0.0430935 14:0.0787209 15:-0.0325964 16:0.404746 17:-0.0384549 18:-0.0951104 
1 1:-0.416482 2:0.166362 3:-0.11913 4:0.148899 5:0.0301044 6:-0.262363 7:0.189754 8:-0.335937 9:-0.367012 10:0.746108 11:-0.644841 12:0.0671637 13:0.266696 14:0.305202 15:-0.0848657 16:0.534321 17:-0.502483 18:-0.475713 
1 1:0.0256284 2:0.287352 3:-0.172321 4:0.299132 5:0.29246 6:-0.65096 7:-0.578011 8:0.343433 9:-0.067916 10:0.182959 11:-0.192578 12:0.295158 13:0.0924166 14:0.134525 15:-0.613202 16:-0.850087 17:-0.600699 18:-0.472168 
1 1:-0.230213 2:-0.245391 3:-0.419399 4:0.0242827 5:0.448457 6:-0.109794 7:-0.632993 8:0.426109 9:0.326756 10:0.303464 11:0.26829 12:-0.751283 13:-0.342571 14:0.349266 15:-0.406683 16:0.567338 17:-0.337883 18:-0.305559 
1 1:-0.536571 2:-0.0679401 3:-0.292575 4:-0.19949 5:0.238988 6:0.136346 7:-0.4913 8:-0.0379602 9:0.0518591 10:0.471324 11:0.299606 12:0.18032 13:-0.397279 14:-0.0442805 15:0.121101 16:0.203473 17:-0.494587 18:0.483657 
1 1:-0.0988506 2:-0.457562 3:0.012523 4:-0.0547905 5:-0.0422661 6:-0.0615232 7:-0.314589 8:-0.424587 9:0.0814538 10:0.01187 11:0.236168 12:-0.37869 13:-0.35363 14:0.329101 15:0.371151 16:-0.194322 17:0.15741 18:-0.305559 
1 1:0.292676 2:0.347129 3:-0.117996 4:0.0671687 5:0.50959 6:0.157409 7:0.533365 8:0.0165161 9:0.443536 10:0.220053 11:0.49521 12:0.225939 13:-0.120677 14:0.0536542 15:0.0206627 16:0.229902 17:-0.405896 18:-0.21938 
1 1:-0.183545 2:0.0242299 3:-0.417402 4:0.19129 5:0.283069 6:-0.424313 7:0.191763 8:-0.775501 9:0.161107 10:0.374355 11:0.635094 12:0.278719 13:-0.411197 14:-0.100717 15:-0.0827349 16:0.364814 17:0.207595 18:0.537329 
0.1874805959804238 1:-0.253248 2:-0.0172915 3:-0.829114 4:-0.388642 5:0.233581 6:-0.304448 7:-0.284424 8:0.340422 9:-0.518269 10:-0.419079 11:-0.15868 12:-0.0993866 13:-0.468899 14:-0.277198 15:-0.155131 16:0.233596 17:-0.340963 18:-0.487395 
1 1:-0.0974562 2:0.0257691 3:-0.480433 4:0.204662 5:0.433823 6:0.154916 7:-0.555232 8:-0.314797 9:0.294106 10:0.668431 11:0.323584 12:0.225106 13:0.174184 14:0.0360048 15:0.0351879 16:0.380012 17:0.155991 18:0.226654 
1 1:-0.457591 2:-0.474772 3:-0.136941 4:-0.225605 5:-1 6:-0.364293 7:-0.358428 8:-0.45888 9:0.0568319 10:0.106817 11:0.256482 12:-0.883488 13:-0.786565 14:-0.579715 15:0.26422 16:0.613952 17:-0.828982 18:-0.305559 
1 1:-0.593791 2:0.353155 3:-0.289256 4:0.34648 5:0.645453 6:-0.00376955 7:-0.494535 8:0.642489 9:0.364864 10:0.528437 11:0.33127 12:0.220743 13:-0.209266 14:-0.058085 15:0.232616 16:0.0812987 17:-0.325695 18:-0.0764628 
1 1:-0.129928 2:0.434864 3:0.38622 4:0.202719 5:0.232339 6:-0.278753 7:0.197362 8:0.170129 9:0.217762 10:0.310856 11:0.575987 12:-3.66108e-05 13:-0.743395 14:-0.112298 15:0.122487 16:0.199461 17:-0.137252 18:0.154911 
1 1:0.48529 2:0.887884 3:0.133998 4:0.530309 5:0.263723 6:0.389858 7:0.95253 8:0.146458 9:0.339093 10:0.404052 11:-0.16002 12:0.248433 13:-0.0643403 14:0.602165 15:0.446187 16:0.17088 17:-0.237857 18:0.300022 
1 1:-0.605129 2:-0.118155 3:-0.132785 4:0.615577 5:0.0496082 6:-0.202853 7:0.461104 8:0.105603 9:-0.136963 10:0.331649 11:0.60055 12:0.346022 13:-0.532282 14:0.0758413 15:-0.384267 16:-0.0127951 17:-0.163137 18:0.199674 
1 1:-0.367619 2:0.320488 3:0.0528393 4:-0.470239 5:-0.0042039 6:0.321235 7:-0.438758 8:0.0971954 9:0.431008 10:0.237781 11:-0.87443 12:-0.177215 13:0.0404217 14:-0.0903816 15:0.577627 16:0.234477 17:-0.516811 18:-0.305559 
1 1:-0.163775 2:0.769005 3:-0.163437 4:-0.502654 5:0.162565 6:0.123571 7:0.1185 8:0.667144 9:0.425644 10:0.230004 11:-0.155743 12:-0.0760815 13:-0.0216984 14:-0.0591439 15:0.137146 16:0.619116 17:-0.52251 18:-0.756495 
1 1:-0.308251 2:-0.0834232 3:-0.37365 4:-0.565337 5:0.00983176 6:-0.386424 7:-0.244655 8:-0.0309651 9:-0.0109468 10:0.450313 11:-0.0514177 12:0.197372 13:-0.153646 14:0.406376 15:-0.0506441 16:0.050394 17:-0.598598 18:-0.30265 
1 1:-0.0524469 2:-0.531289 3:0.238471 4:-0.139054 5:0.0573484 6:-0.0989365 7:-0.0593123 8:-0.523758 9:0.367158 10:0.0868277 11:-0.515757 12:0.128913 13:-0.316486 14:-0.120914 15:-0.166467 16:0.49616 17:-0.634349 18:-0.305559 
1 1:-0.51926 2:0.319571 3:0.00306641 4:-0.459441 5:-0.225253 6:-0.21219 7:0.0355849 8:-0.271191 9:-0.146057 10:0.295509 11:-0.366738 12:-0.342218 13:-0.189348 14:-0.142521 15:0.107124 16:0.244416 17:-0.481446 18:-0.789439 
1 1:-0.321681 2:0.0375038 3:-0.125558 4:0.0757794 5:-0.236746 6:-0.767268 7:0.0964072 8:-0.15527 9:-0.432426 10:0.509338 11:-1 12:-0.1717 13:0.0727813 14:0.500126 15:-0.125207 16:0.535481 17:-0.430706 18:-0.53966 
1 1:0.121382 2:0.616649 3:-0.244665 4:-0.891415 5:-0.210112 6:0.138761 7:0.200592 8:0.0535816 9:0.0678794 10:0.36729 11:-0.0928387 12:-0.371886 13:0.0616201 14:-0.12449 15:0.269569 16:0.432932 17:-0.265933 18:-0.299837 
1 1:-0.47731 2:0.158183 3:-0.285989 4:-0.276469 5:0.377097 6:0.164838 7:-0.378583 8:0.207626 9:0.507964 10:0.385749 11:-0.219606 12:0.0874385 13:0.465456 14:0.0977035 15:0.472432 16:-0.073403 17:-0.154076 18:-0.120048 
1 1:-0.54673 2:-0.535879 3:-0.266954 4:-0.264237 5:-0.234885 6:-0.314729 7:0.0713087 8:-0.454745 9:-0.0191903 10:0.0215038 11:0.0579948 12:0.0427459 13:-0.346793 14:0.203696 15:0.279484 16:0.0417585 17:-0.984111 18:-0.305559 
1 1:-0.421934 2:-0.410922 3:0.0697307 4:-0.144267 5:-0.168046 6:-0.1232 7:-0.25417 8:-0.27461 9:0.314521 10:0.0632978 11:0.367623 12:-0.552421 13:0.0446527 14:0.602853 15:0.475284 16:-0.308956 17:-0.747513 18:-0.0393762 
1 1:-0.276279 2:0.197345 3:-0.654974 4:0.0226533 5:0.242366 6:-0.0383279 7:0.0767485 8:0.207478 9:0.200991 10:0.245199 11:0.151046 12:0.161425 13:-0.160927 14:-0.183886 15:-0.28584 16:0.0930439 17:-0.268258 18:-0.0720003 
1 1:0.203198 2:-0.22238 3:-0.0753876 4:0.364496 5:0.284248 6:-0.278615 7:-0.342085 8:0.189509 9:0.00163471 10:0.333009 11:-0.382859 12:0.280976 13:-0.219225 14:-0.14809 15:-0.0259914 16:-0.945558 17:0.41154 18:0.0171095 
1 1:0.556735 2:0.0503542 3:0.0736556 4:0.449973 5:0.457867 6:0.659913 7:0.949499 8:-0.179385 9:0.524856 10:0.206182 11:0.319939 12:0.138752 13:-0.410802 14:0.942709 15:-0.0326073 16:0.250959 17:-0.209568 18:-0.305559 
1 1:-0.284776 2:0.190599 3:-0.257093 4:0.0357245 5:0.226777 6:-0.133854 7:-0.0934562 8:0.236306 9:0.212592 10:-0.04652 11:-0.0173765 12:0.19158 13:-0.127762 14:-0.00716109 15:0.013571 16:-0.678691 17:-0.474154 18:0.508598 
1 1:-0.240949 2:-0.36644 3:-0.266234 4:-0.315981 5:-0.0995826 6:-0.232621 7:-0.169576 8:-0.419791 9:0.220419 10:0.41879 11:0.224907 12:-0.303427 13:0.124903 14:0.554781 15:0.186854 16:0.578281 17:-0.600699 18:-0.0428401 
1 1:-0.917711 2:-0.156562 3:-0.194784 4:0.0147963 5:0.112516 6:0.206571 7:0.40893 8:-0.188557 9:0.372542 10:0.329329 11:0.534772 12:-0.138763 13:-0.253353 14:-0.215717 15:0.278115 16:0.429249 17:-0.394815 18:-0.161665 
1 1:-0.670214 2:-0.652172 3:0.168468 4:-0.0737991 5:-0.455599 6:0.138019 7:-0.67335 8:-0.294727 9:0.00823743 10:0.0742088 11:-0.114834 12:-0.263973 13:-0.680299 14:0.383506 15:0.0239918 16:-0.615208 17:-0.596876 18:-0.305559 
1 1:-0.551682 2:0.157029 3:-0.133356 4:0.0844677 5:-0.326018 6:-0.247779 7:-0.528878 8:-0.267611 9:0.204663 10:0.283159 11:0.218458 12:-0.33479 13:-0.422143 14:0.418843 15:-0.160914 16:0.0417587 17:-0.203293 18:-0.567761 
1 1:-0.510947 2:0.383298 3:-0.040256 4:-0.390603 5:0.341542 6:0.149665 7:0.321457 8:-0.390855 9:0.357117 10:0.141328 11:-0.645718 12:-0.446359 13:-0.421083 14:-0.556414 15:-0.255921 16:0.325625 17:0.183114 18:-0.305559 
1 1:0.325126 2:0.177868 3:-0.321844 4:0.474382 5:0.248066 6:0.502305 7:0.236486 8:0.0147302 9:-0.129324 10:0.695755 11:0.654422 12:0.221199 13:-0.26753 14:0.152349 15:-0.0632645 16:0.237233 17:0.61765 18:-0.109013 
1 1:-0.519619 2:0.196986 3:-0.298562 4:-0.266748 5:0.344738 6:0.162676 7:-0.576751 8:-0.0581314 9:0.0591241 10:0.378234 11:-0.138448 12:0.183084 13:-0.509954 14:-0.360744 15:-0.569985 16:-0.0604126 17:-0.147207 18:-0.612795 
1 1:-0.452077 2:-0.458248 3:-0.370808 4:0.243416 5:0.20277 6:0.195552 7:-0.204379 8:-0.504818 9:0.204524 10:0.10896 11:0.506761 12:-0.462476 13:0.144064 14:0.559133 15:0.491775 16:0.159782 17:-0.402509 18:0.0256332 
1 1:-0.485685 2:-0.124793 3:-0.442041 4:-0.0928358 5:-0.165568 6:0.00363452 7:-0.256014 8:-0.0607492 9:0.154195 10:0.0834477 11:0.116683 12:-0.326377 13:-0.187187 14:-0.0929557 15:0.402321 16:-0.0354981 17:-0.694332 18:-0.867766 
1 1:-0.181893 2:0.01292 3:-0.404044 4:0.449356 5:0.163804 6:-0.359353 7:-0.383077 8:0.235921 9:-0.163079 10:0.0062884 11:-0.312736 12:0.527214 13:-0.345519 14:-0.218359 15:-0.000331673 16:0.600462 17:-0.82691 18:-0.305559 
0.4437175288646534 1:-0.00957946 2:0.619262 3:-0.122946 4:-0.157968 5:-0.129691 6:-0.879097 7:0.0884896 8:-0.111122 9:-0.390659 10:1 11:0.504154 12:0.000223769 13:-0.240335 14:0.030323 15:0.357305 16:0.909296 17:-0.908161 18:0.369375 
1 1:-0.342746 2:0.0525199 3:-0.342679 4:-0.0941175 5:0.342549 6:0.347938 7:-0.745483 8:0.108146 9:-0.0535597 10:0.187347 11:-0.360086 12:0.401059 13:0.465906 14:-0.189274 15:0.0907495 16:0.00445553 17:-0.809877 18:-0.595063 
1 1:-0.558741 2:-0.125553 3:-0.379638 4:-0.443743 5:-0.0507137 6:-0.0722954 7:-0.340658 8:-0.0153748 9:0.147941 10:0.115514 11:0.398715 12:-0.13746 13:-0.0967509 14:0.377976 15:0.191561 16:-0.107386 17:-0.600699 18:-0.305559 
1 1:0.154693 2:0.337532 3:0.0842649 4:-0.0488562 5:0.555914 6:0.241718 7:0.240694 8:0.141465 9:0.341667 10:0.449162 11:0.595332 12:0.201623 13:-0.290763 14:0.462421 15:0.295103 16:0.435716 17:-0.0145863 18:0.252559 
1 1:0.201095 2:0.226111 3:-0.711231 4:0.370057 5:0.192528 6:0.069186 7:-0.186886 8:0.337568 9:0.596238 10:0.587512 11:0.315092 12:0.149743 13:-0.158387 14:0.342349 15:-0.678608 16:-0.329302 17:-0.289396 18:0.194921 
1 1:-0.725262 2:-0.525322 3:-0.0275603 4:0.203901 5:0.155128 6:0.0207534 7:0.312822 8:0.158222 9:0.0109008 10:0.0114353 11:0.530927 12:0.0375004 13:-0.0791009 14:0.534199 15:0.349483 16:-0.317482 17:-0.600699 18:-0.305559 
1 1:-0.28987 2:-0.106852 3:-0.0771803 4:0.0841059 5:0.103687 6:0.0971954 7:-0.224093 8:-0.255592 9:0.0046126 10:0.109277 11:-0.0294493 12:0.020154 13:-0.542843 14:0.0159733 15:0.187736 16:-0.0839808 17:0.0231802 18:-0.470631 
1 1:-0.484187 2:0.152089 3:-0.279354 4:-0.432516 5:0.158496 6:0.0758889 7:-0.250196 8:0.389791 9:0.225321 10:0.206028 11:-0.419378 12:-0.358914 13:0.00226659 14:-0.729424 15:0.332569 16:0.494065 17:-0.670215 18:-0.74461 
1 1:-0.0512277 2:0.0633857 3:-0.137886 4:-0.129171 5:0.0208388 6:-0.0538699 7:-0.0711692 8:-0.264111 9:0.413182 10:0.565022 11:-0.0106269 12:0.101798 13:-0.122958 14:-0.460887 15:-0.172923 16:0.83971 17:-0.562151 18:0.365997 
1 1:-0.71377 2:-0.277353 3:0.00611287 4:-0.165688 5:-0.284009 6:0.646207 7:0.221256 8:-0.166912 9:-0.145165 10:0.0495828 11:-0.486103 12:-0.673988 13:-0.38084 14:0.120593 15:0.121387 16:-0.190392 17:-0.185831 18:-0.470082 
1 1:0.140883 2:0.109876 3:-0.167121 4:0.363449 5:0.184579 6:0.298588 7:0.453097 8:0.0426637 9:0.536303 10:0.247013 11:-0.386367 12:-0.0277765 13:0.0255886 14:-0.0806668 15:0.479701 16:0.382058 17:-0.497284 18:0.270185 
0.2182333248553469 1:-0.499849 2:-0.0996854 3:-0.0649589 4:-0.277349 5:0.109386 6:-0.0314904 7:-0.356157 8:-0.0891942 9:-0.503601 10:0.0985213 11:0.258555 12:0.0410459 13:-0.217556 14:0.343859 15:0.240691 16:-0.0633487 17:-0.956776 18:-0.45553 
1 1:0.469935 2:-0.161984 3:0.0728317 4:0.400781 5:0.506326 6:0.917268 7:-0.273114 8:0.344322 9:0.763118 10:0.283448 11:-0.103886 12:0.369596 13:-0.0437891 14:-0.679571 15:0.574909 16:-0.152822 17:0.310362 18:-0.896735 
1 1:-0.373066 2:0.153467 3:-0.144211 4:-0.360727 5:-0.150152 6:-0.185813 7:-0.222664 8:0.394072 9:-0.0122778 10:0.571425 11:-0.161797 12:-0.236857 13:-0.284478 14:-0.406433 15:-0.287091 16:0.387257 17:-0.159423 18:-0.63486 
1 1:-0.269601 2:0.0038336 3:-0.649149 4:-0.39419 5:0.308662 6:0.00520588 7:-0.22365 8:-0.420946 9:0.339799 10:0.120424 11:-0.253175 12:-0.0537027 13:0.38713 14:0.0442422 15:0.297931 16:-0.0911898 17:-0.667115 18:-0.305559 
1 1:-0.801703 2:-0.619993 3:-0.385111 4:-0.266873 5:0.239414 6:-0.610954 7:-0.349542 8:-0.586672 9:-0.252144 10:-0.249363 11:0.267769 12:-0.253261 13:-0.569608 14:0.467973 15:-0.224154 16:-0.0217948 17:-0.318943 18:-0.142867 
1 1:-0.0617888 2:0.469994 3:-0.482157 4:-0.176262 5:0.171831 6:-0.131427 7:-0.0234627 8:0.408772 9:0.235429 10:0.573868 11:0.239044 12:0.182116 13:-0.176893 14:-0.441335 15:-0.285532 16:0.266265 17:0.543979 18:0.148684 
1 1:-0.289868 2:-0.0142558 3:-0.411618 4:-0.252919 5:-0.0723436 6:-0.0243866 7:-0.321993 8:-0.357978 9:-0.0330694 10:0.360623 11:0.246821 12:-0.473085 13:-0.218358 14:0.478318 15:-0.0249039 16:0.0374324 17:-0.614656 18:-0.324876 
1 1:0.138578 2:0.0598256 3:1 4:0.294078 5:0.0709512 6:-0.308014 7:-0.152606 8:-0.294835 9:-0.239399 10:0.0865592 11:0.58647 12:0.0481368 13:-0.470995 14:0.554942 15:-0.574055 16:0.251572 17:-0.317379 18:-0.832305 
1 1:-0.411334 2:0.0891942 3:-0.364118 4:-0.126232 5:0.00564697 6:-0.00377574 7:-0.439085 8:-0.327236 9:0.0569556 10:0.201313 11:0.0977586 12:-0.253606 13:0.0550292 14:0.568558 15:0.40029 16:-0.60497 17:-0.500037 18:-0.509084 
1 1:-0.24223 2:-0.261049 3:0.0176422 4:0.0510327 5:0.038482 6:-0.203508 7:-0.135871 8:-0.446161 9:-0.0303229 10:0.163492 11:0.374251 12:0.260847 13:-0.382076 14:0.0603915 15:-0.321057 16:0.0551751 17:-0.0184156 18:-0.137253 
1 1:-0.10385 2:0.0757484 3:-0.163466 4:-0.336594 5:0.280315 6:-0.296684 7:-0.604507 8:0.290104 9:0.347127 10:0.0501541 11:0.254601 12:-0.34694 13:0.342246 14:-0.164574 15:-0.0556696 16:0.0668614 17:-0.507669 18:-0.233702 
0.661803863695177 1:-0.121301 2:0.051796 3:-0.030642 4:0.0200268 5:0.138677 6:-0.000216173 7:-0.0170519 8:-0.204335 9:-0.250244 10:0.0160651 11:0.261537 12:-0.286255 13:-0.258467 14:-0.122 15:-0.1548 16:-0.312238 17:-0.415174 18:0.137774 
1 1:-0.407637 2:-0.0230076 3:-0.189002 4:-0.376091 5:-0.216801 6:-0.0084897 7:-0.083863 8:0.0883039 9:-0.177209 10:0.416453 11:0.198504 12:-0.0509906 13:-0.198981 14:0.321955 15:0.464006 16:0.236465 17:-0.550517 18:-0.522052 
1 1:-0.144389 2:0.0609472 3:-0.297623 4:0.160274 5:0.113143 6:0.299207 7:-0.677882 8:0.153847 9:0.607902 10:0.624497 11:-0.33844 12:-0.139921 13:-0.808564 14:-0.248734 15:-0.944638 16:-0.0242497 17:-0.284376 18:-0.305559 
1 1:0.391611 2:0.534143 3:0.0478721 4:0.278734 5:0.377557 6:-0.288293 7:0.0202389 8:0.0837514 9:0.120611 10:0.642539 11:-0.646492 12:0.546698 13:1 14:0.828289 15:0.375584 16:-0.144301 17:-0.152818 18:-0.1023 
1 1:-0.15797 2:0.327788 3:-0.3685 4:-0.109282 5:0.145926 6:-0.0161332 7:-0.0808672 8:0.982746 9:0.482213 10:0.262549 11:0.46404 12:-0.323871 13:-0.185354 14:0.530628 15:0.235123 16:0.296663 17:-0.693024 18:-0.305559 
1 1:0.620056 2:0.683839 3:-0.0831858 4:0.190303 5:0.490293 6:0.823421 7:0.460509 8:-0.243293 9:0.633948 10:-0.131308 11:-0.497959 12:0.838157 13:-0.163135 14:-0.115848 15:-0.676355 16:0.255408 17:0.209697 18:0.594886 
1 1:-0.00614632 2:-0.0456928 3:-0.400198 4:0.310802 5:0.572033 6:0.115248 7:-0.32618 8:-0.190849 9:0.548924 10:0.491114 11:0.267913 12:0.278732 13:0.292688 14:0.0130907 15:0.352918 16:0.535431 17:-0.48024 18:0.0293595 
-1 1:-0.511062 2:0.271482 3:-0.287703 4:-0.00521923 5:-0.127904 6:-0.0300804 7:-0.126315 8:-0.0291819 9:0.357434 10:-0.0600226 11:0.101256 12:-0.440088 13:-0.322353 14:-0.10548 15:0.119478 16:-0.025129 17:-0.441132 18:-0.305559 
-1 1:-0.456903 2:0.171651 3:-0.175327 4:0.43755 5:0.502891 6:0.707182 7:0.288368 8:-0.00587801 9:0.629919 10:-0.451215 11:0.550253 12:0.171933 13:-0.0294162 14:0.694188 15:0.105222 16:-0.0775605 17:-0.468858 18:0.399303 
-1 1:0.195679 2:-0.356933 3:-0.375603 4:0.38809 5:0.10083 6:0.0801955 7:-0.209236 8:-0.424429 9:0.417673 10:0.383563 11:-0.557762 12:0.222723 13:-0.279449 14:-0.070569 15:0.344698 16:-0.0317297 17:0.0840293 18:0.14829 
-1 1:-0.326512 2:0.127054 3:0.159398 4:0.137216 5:0.268232 6:0.197201 7:0.199235 8:-0.360299 9:0.252724 10:0.308291 11:0.544773 12:-0.271404 13:-0.57301 14:0.234589 15:-0.336445 16:-0.392719 17:0.21775 18:0.380044 
-1 1:-0.577123 2:0.358803 3:-0.378439 4:0.26663 5:0.244154 6:-0.928084 7:-0.520565 8:0.227836 9:-0.117212 10:0.102129 11:0.310713 12:-0.146816 13:-0.24732 14:0.0205183 15:-0.401252 16:-0.0310599 17:-0.422778 18:-0.00718308 
-1 1:-0.0564293 2:0.373976 3:-0.35556 4:0.313354 5:0.274447 6:-0.406498 7:-0.0069146 8:0.0931415 9:0.460806 10:0.107548 11:0.146163 12:0.271957 13:-0.449446 14:0.0964179 15:-0.65485 16:-0.130865 17:-0.0582794 18:0.054206 
-1 1:-0.518175 2:-0.0533748 3:-0.338802 4:0.383018 5:0.119011 6:-0.124876 7:-0.413977 8:-0.163761 9:0.44096 10:0.0244516 11:0.433697 12:-0.496112 13:-0.311434 14:-0.387782 15:0.371142 16:-0.203124 17:-0.782974 18:-0.557828 
-1 1:-0.633624 2:-0.740993 3:-0.270461 4:-0.155846 5:-0.905513 6:-0.593289 7:-0.0563801 8:-0.388508 9:-0.130902 10:-0.0666801 11:-0.239721 12:-0.46879 13:-0.702077 14:-0.569007 15:-0.295818 16:0.242083 17:-0.600699 18:-0.305559 
-1 1:-0.12882 2:0.214477 3:-0.418548 4:-0.349992 5:0.334592 6:-0.0575845 7:-0.296678 8:0.554567 9:0.0501207 10:0.120463 11:-0.496909 12:0.136384 13:-0.0976408 14:0.669889 15:0.149888 16:0.125953 17:-0.600699 18:-0.0525731 
-1 1:-0.302867 2:0.30194 3:-0.597427 4:0.302393 5:0.428147 6:-0.136637 7:-0.277395 8:-0.0547935 9:-0.10359 10:-0.032523 11:0.108704 12:0.221343 13:-0.309627 14:-0.194001 15:-0.426475 16:0.0150945 17:-0.302319 18:-0.0899893 
-1 1:-0.172591 2:0.484008 3:0.122076 4:0.139877 5:0.158054 6:0.32615 7:-0.107302 8:0.0109459 9:0.190304 10:-0.138072 11:-0.471585 12:0.356055 13:0.58073 14:0.395925 15:0.031202 16:-0.191284 17:-0.0902291 18:-0.765471 
-1 1:0.245529 2:0.365605 3:-0.151469 4:0.609765 5:0.297299 6:0.327175 7:0.0688248 8:0.325891 9:0.357946 10:0.102264 11:-0.490654 12:0.0908294 13:-0.0400639 14:0.228111 15:-0.893497 16:0.203632 17:-0.145823 18:0.172481 
-1 1:-0.520777 2:0.192778 3:-0.132785 4:-0.287721 5:-0.122069 6:0.033808 7:-0.46433 8:0.213771 9:0.119546 10:0.376793 11:0.118007 12:-0.253742 13:-0.070359 14:0.48261 15:0.211046 16:0.158901 17:-0.343817 18:-0.698338 
-1 1:-0.252668 2:0.0457449 3:-0.0312984 4:-0.0430895 5:0.0205932 6:0.53133 7:-0.427941 8:-0.214269 9:0.291502 10:0.222365 11:0.022534 12:0.154063 13:0.389751 14:-0.446768 15:0.213518 16:0.420015 17:1 18:-0.417461 
-1 1:-0.522363 2:0.0952579 3:-0.151209 4:0.135874 5:0.0873112 6:-0.274234 7:-0.0659034 8:-0.730637 9:0.0397093 10:0.307473 11:0.246355 12:-0.171475 13:-0.484442 14:0.311614 15:-0.263117 16:0.240146 17:-0.365721 18:-0.305559 
-1 1:-0.379755 2:0.279623 3:-0.765014 4:0.231599 5:0.706944 6:0.65178 7:-0.00884149 8:0.212168 9:0.196829 10:0.338178 11:-0.385173 12:0.675862 13:-0.618441 14:0.770928 15:-0.43124 16:-0.0633055 17:-0.411005 18:0.605904 
-1 1:0.1253 2:0.0182392 3:-0.531267 4:-0.324441 5:-0.233796 6:-0.321282 7:-0.178528 8:0.544401 9:-0.615416 10:-0.227975 11:0.394576 12:0.463506 13:-0.421169 14:-0.325019 15:-0.297808 16:0.145904 17:-0.633164 18:0.118883 
-1 1:-0.104489 2:0.00643664 3:-0.265056 4:0.187207 5:0.553017 6:0.205013 7:-0.117982 8:0.0588505 9:0.384834 10:0.341764 11:0.140182 12:-0.395912 13:-0.100503 14:0.528715 15:0.311716 16:-0.277059 17:-0.574354 18:-0.701714 
-1 1:-0.350394 2:0.448814 3:-0.062057 4:-0.603486 5:0.0403472 6:-0.500394 7:-0.211206 8:0.240607 9:0.347996 10:0.18883 11:-0.112602 12:-0.307563 13:0.0597041 14:-0.135009 15:0.144739 16:0.0488108 17:-0.290095 18:-0.854167 
-1 1:-0.465314 2:0.381177 3:-0.154051 4:0.04892 5:0.222652 6:-0.031219 7:-0.225342 8:0.202527 9:0.63709 10:0.428252 11:-0.24755 12:0.0691292 13:-0.146871 14:0.278675 15:0.232715 16:0.1451 17:-0.24007 18:0.0670205 
-0.9238695412897185 1:-0.281215 2:0.189162 3:0.731561 4:0.127536 5:0.0397138 6:-0.381358 7:-0.360004 8:-0.639858 9:0.566043 10:0.212139 11:0.195654 12:0.192182 13:-0.584625 14:0.0683559 15:-0.575187 16:-0.140351 17:-0.280903 18:0.155959 
-1 1:-0.295296 2:-0.193274 3:0.166582 4:0.349651 5:0.248966 6:0.00245131 7:-0.809367 8:0.155992 9:0.235103 10:0.367825 11:0.208893 12:0.23366 13:-0.178448 14:-0.163879 15:0.143466 16:0.779543 17:0.210113 18:-0.305559 
-1 1:-0.226733 2:0.37848 3:-0.166682 4:0.283983 5:0.157371 6:-0.571731 7:-0.0237602 8:0.00487208 9:0.216644 10:0.360149 11:-0.0510998 12:-0.0147064 13:-0.787432 14:0.0946841 15:-0.643265 16:0.35004 17:-0.0864501 18:0.0361696 
-1 1:-0.585926 2:-0.082831 3:-0.373333 4:0.0844675 5:0.168178 6:0.218304 7:-0.266022 8:0.270413 9:-0.235246 10:0.535646 11:0.229698 12:-0.116454 13:-0.481392 14:0.293152 15:-0.115384 16:0.19487 17:-0.584704 18:-0.305559 
-1 1:-0.396951 2:0.15482 3:-0.174911 4:0.3806 5:0.0125988 6:-0.253564 7:0.234011 8:-0.403229 9:-0.186359 10:0.421261 11:0.392485 12:-0.190387 13:-0.294634 14:0.00363346 15:-0.227535 16:0.250888 17:-0.658072 18:-0.384964 
-1 1:-0.448259 2:0.244316 3:-0.0315642 4:0.172602 5:-0.13498 6:-0.39439 7:-0.707536 8:-0.218853 9:-0.199708 10:0.125929 11:0.868795 12:-0.0928795 13:-0.415416 14:-0.0828615 15:0.0372191 16:0.293392 17:-0.416101 18:-0.735757 
-1 1:-0.577354 2:0.0216534 3:-0.058156 4:0.186747 5:-0.0851821 6:-0.163919 7:-0.182931 8:-0.623827 9:0.168549 10:0.429269 11:0.6895 12:0.0799981 13:-0.0763148 14:-0.200002 15:0.18157 16:0.0769826 17:0.152261 18:-0.156659 
-1 1:-0.372734 2:-0.39722 3:-0.285975 4:0.481617 5:0.0486278 6:0.224274 7:-0.112796 8:0.13222 9:0.394005 10:0.42184 11:-0.292046 12:0.133441 13:0.294547 14:0.201004 15:0.455144 16:-0.371252 17:-0.936747 18:-0.42781 
-1 1:-0.00707019 2:0.349537 3:-0.158572 4:0.265027 5:-0.0289401 6:0.422031 7:-0.0499913 8:0.0266088 9:0.00269523 10:0.36446 11:0.0822056 12:-0.0631345 13:0.241363 14:0.181702 15:0.395893 16:-0.132104 17:-0.301749 18:-0.0285759 
-1 1:-0.338205 2:0.431158 3:-0.0717229 4:-0.0389144 5:-0.225987 6:-0.543502 7:-0.220277 8:0.38137 9:-0.523975 10:0.426439 11:-0.557011 12:0.420515 13:-0.134025 14:0.649294 15:0.11979 16:0.294681 17:-0.185658 18:-0.695754 
-1 1:0.247206 2:0.0728803 3:0.051826 4:-0.189588 5:0.152147 6:0.03509 7:-0.120741 8:0.727642 9:0.492843 10:0.14252 11:0.268849 12:0.312071 13:-0.152291 14:0.38233 15:0.193978 16:0.270038 17:-0.254938 18:0.056046 
-1 1:-0.131614 2:0.425697 3:0.104998 4:0.276149 5:-0.126709 6:-0.0882293 7:-0.454215 8:-0.290986 9:-0.00755066 10:0.344336 11:0.506139 12:-0.00749688 13:0.0737329 14:0.254076 15:0.017746 16:0.140658 17:0.00593886 18:-0.305559 
-1 1:0.0928355 2:0.518484 3:0.243961 4:0.675468 5:0.321216 6:-0.298743 7:0.245565 8:0.0123427 9:-0.593462 10:0.471106 11:0.673335 12:0.547694 13:-0.386118 14:-0.326687 15:0.118228 16:0.250131 17:0.329593 18:0.79064 
-1 1:-0.820039 2:-0.23419 3:-0.0202162 4:-0.195164 5:-0.301759 6:0.335811 7:-0.242408 8:-0.386087 9:0.012322 10:0.249076 11:-0.827039 12:0.162883 13:0.0832046 14:0.424577 15:0.189777 16:0.175177 17:-0.458445 18:-0.305559 
-1 1:-0.0827022 2:-0.00288496 3:-0.0506952 4:0.1852 5:0.189942 6:-0.121546 7:-0.164834 8:-0.043011 9:0.330083 10:0.321298 11:-0.675102 12:-0.0630412 13:-0.59084 14:-0.103476 15:-0.0494542 16:-0.416774 17:-0.420138 18:-0.305559 
-1 1:-0.00103153 2:0.361314 3:0.395006 4:0.0655707 5:0.118944 6:-0.0714011 7:-0.389448 8:0.168601 9:0.343148 10:0.279077 11:0.4121 12:0.0501537 13:0.106208 14:-0.00414209 15:-0.220353 16:-0.172736 17:-0.107785 18:-0.352158 
-1 1:-0.305084 2:0.274362 3:-0.219491 4:0.469674 5:0.254329 6:0.369175 7:0.368459 8:0.298829 9:-0.109669 10:0.266553 11:-0.6899 12:-0.294599 13:-0.392723 14:0.620398 15:0.173523 16:0.241219 17:-0.330395 18:-0.538712 
-1 1:0.244715 2:-0.104617 3:0.1773 4:0.265028 5:-0.0154926 6:0.309231 7:0.110884 8:0.0736642 9:0.592312 10:0.592336 11:-0.165347 12:0.436538 13:-0.402016 14:0.269428 15:-0.248185 16:-0.162024 17:-0.187269 18:0.0314023 
-1 1:-0.255206 2:0.402615 3:0.0403042 4:0.372871 5:0.0577327 6:-0.525198 7:-0.242321 8:0.179269 9:-0.300257 10:0.412028 11:0.786952 12:0.0226539 13:-0.10618 14:-0.0710099 15:0.0292495 16:-0.0935239 17:-0.396876 18:-0.742029 
-1 1:-0.326801 2:0.0256273 3:-0.280832 4:-0.237033 5:-0.349419 6:-0.227894 7:0.0158444 8:0.17384 9:0.0457236 10:0.341706 11:0.274609 12:0.0662029 13:-0.45403 14:-0.17426 15:-0.014547 16:0.397127 17:-0.524073 18:-0.199509 
-1 1:-0.34923 2:0.100467 3:-0.266328 4:0.10428 5:0.343797 6:-0.259658 7:-0.726722 8:-0.57908 9:0.436967 10:0.0760707 11:0.954284 12:0.130664 13:-0.0334902 14:-0.131423 15:-0.0718429 16:0.0152385 17:-0.56319 18:0.0651784 
-1 1:-0.388968 2:0.183583 3:-0.389352 4:-0.421787 5:-0.203608 6:-0.224098 7:-0.179846 8:0.097762 9:0.139872 10:0.301999 11:-0.297668 12:-0.0101959 13:-0.403611 14:-0.106175 15:0.174283 16:-0.364586 17:-0.464346 18:-0.675996 
-1 1:-0.619122 2:0.0144363 3:-0.135948 4:0.868475 5:0.0237463 6:-0.693637 7:-0.263506 8:-0.417672 9:0.342606 10:0.432546 11:0.0513819 12:-0.586926 13:0.0193948 14:0.183648 15:-0.290239 16:0.220564 17:-0.214828 18:-0.101072 
-1 1:-0.324789 2:0.170579 3:-0.19898 4:-0.213544 5:0.0776185 6:0.0439193 7:-0.417506 8:0.0793476 9:-0.301608 10:-0.00247899 11:-0.0532293 12:-0.328593 13:-0.508529 14:0.624742 15:0.28042 16:0.0280433 17:-0.539198 18:-0.305559 
-1 1:-0.773089 2:0.161195 3:0.592711 4:0.329691 5:0.220939 6:-0.403829 7:-0.53281 8:-0.292808 9:0.487402 10:0.314648 11:0.769935 12:0.177754 13:-0.399158 14:0.104028 15:-0.378024 16:-0.892756 17:-0.808511 18:0.24491 
-1 1:-0.664876 2:0.0377584 3:0.0734077 4:0.296092 5:0.056854 6:-0.813327 7:-0.0985327 8:-0.544319 9:-0.0220597 10:0.198399 11:-0.291908 12:-0.157825 13:-0.320105 14:-0.0452995 15:-0.369584 16:0.339192 17:0.279753 18:-0.35008 
-1 1:-0.464533 2:-0.0548758 3:-0.121196 4:-0.192445 5:0.0415477 6:-0.42536 7:-0.352379 8:-0.456712 9:-0.0405365 10:0.11271 11:0.669566 12:-0.0923393 13:-0.207443 14:0.400082 15:-0.105748 16:0.19563 17:-0.251615 18:-0.370995 
-1 1:0.304991 2:-0.148522 3:-0.0474515 4:0.160861 5:0.39116 6:0.110303 7:-0.358868 8:0.0847326 9:0.304018 10:0.677137 11:-0.140798 12:0.532887 13:-0.700514 14:0.274145 15:-0.212648 16:-0.296701 17:-0.519873 18:0.588197 
-1 1:-0.258571 2:-0.280986 3:0.219089 4:0.299461 5:0.171343 6:0.145954 7:-0.241909 8:-0.130208 9:0.185629 10:0.213382 11:0.664897 12:0.601395 13:0.356959 14:0.475424 15:0.38815 16:-0.109524 17:-0.173177 18:-0.0414817 
-1 1:-0.527858 2:0.00200991 3:-0.371487 4:-0.477692 5:0.112719 6:-0.510284 7:-0.35296 8:0.116255 9:0.300562 10:0.0532672 11:-0.196754 12:-0.264649 13:-0.519346 14:-0.150743 15:0.315106 16:0.296647 17:-0.546915 18:-0.517065 
-1 1:-0.335867 2:0.340456 3:-0.105665 4:0.158806 5:-0.0620344 6:-0.25896 7:-0.165164 8:-0.0945583 9:0.0874852 10:0.2052 11:0.0343318 12:-0.0791604 13:-0.351243 14:0.0543207 15:0.0756491 16:0.124292 17:-0.362118 18:-0.338343 
-1 1:-0.109288 2:0.552408 3:0.0591767 4:0.126406 5:0.261862 6:0.38232 7:-0.223405 8:0.286715 9:0.282348 10:0.169918 11:0.395089 12:-0.0599052 13:-0.0280525 14:0.112549 15:0.309494 16:0.0918728 17:-0.361213 18:-0.774547 
-1 1:-0.137823 2:0.253286 3:-0.259457 4:0.596523 5:0.3221 6:-0.30492 7:-0.0221939 8:-0.0338393 9:-0.236384 10:0.392865 11:-0.194639 12:0.132955 13:-0.57552 14:-0.0565344 15:-0.652247 16:0.63594 17:-0.637305 18:-0.305559 
-1 1:-0.118664 2:0.325356 3:-0.143671 4:0.390679 5:0.673503 6:0.674281 7:0.40616 8:0.325776 9:0.384288 10:0.70697 11:0.270866 12:0.617739 13:0.315947 14:1 15:0.0891378 16:0.723993 17:-0.17909 18:0.463539 
-1 1:-0.1414 2:0.323183 3:-0.706235 4:0.0277874 5:-0.00155575 6:-0.272367 7:-0.528688 8:0.411819 9:0.529633 10:0.0552245 11:0.168328 12:-0.575839 13:0.116246 14:-0.46109 15:-0.0469764 16:0.509665 17:-0.271953 18:-0.901396 
-1 1:-0.442508 2:-0.0660526 3:-0.453004 4:0.00586394 5:-0.398365 6:-0.628324 7:-0.1897 8:0.0922434 9:0.00431269 10:0.202587 11:0.132756 12:0.0640675 13:-0.568322 14:-0.536157 15:-0.321652 16:-0.413913 17:-0.455672 18:-0.152947 
-1 1:-0.632081 2:0.00590746 3:0.063685 4:-0.00264364 5:-0.065527 6:-0.414353 7:-0.169312 8:-0.0239948 9:0.0469811 10:0.139722 11:-0.612263 12:0.133796 13:-0.459657 14:0.274834 15:-0.124188 16:-0.00885259 17:-0.569198 18:-0.47827 
-1 1:-0.11837 2:-0.0153532 3:0.131339 4:0.474303 5:0.107342 6:-0.855651 7:-0.427824 8:-0.548422 9:0.0907787 10:0.307378 11:0.172787 12:0.37696 13:0.0630404 14:-0.397865 15:-0.41698 16:0.210484 17:-0.544637 18:-0.158332 
-1 1:-0.31472 2:0.617084 3:0.119876 4:0.0539398 5:-0.0641997 6:-0.14475 7:0.193418 8:0.065211 9:0.124999 10:0.272244 11:0.233751 12:-0.16386 13:-0.259796 14:0.28714 15:-0.416905 16:0.047257 17:-0.12038 18:0.133851 
-1 1:-0.0626409 2:0.477247 3:-0.316135 4:0.147983 5:0.0322557 6:-0.49909 7:-0.389277 8:0.458177 9:0.0673959 10:0.203122 11:0.17327 12:0.200306 13:-0.135424 14:0.0995069 15:-0.158213 16:0.465684 17:-0.218636 18:-0.0683494 
-1 1:-0.0526272 2:0.424552 3:0.418391 4:0.143689 5:0.591162 6:0.35339 7:-0.12129 8:-0.0447903 9:0.353857 10:0.216073 11:0.80743 12:0.24924 13:0.485636 14:0.193566 15:0.0091939 16:0.0903657 17:0.459536 18:-0.165783 
-1 1:-0.503435 2:0.305901 3:0.163791 4:0.210033 5:-0.0698604 6:-0.096956 7:-0.531919 8:-0.105534 9:0.132199 10:-0.379408 11:0.564281 12:-0.445373 13:-0.246793 14:-0.0419252 15:0.143581 16:-0.28098 17:-0.500559 18:-0.431379 
-1 1:0.0349486 2:0.189742 3:-0.132624 4:0.565391 5:0.476169 6:0.467367 7:-0.173379 8:-0.240671 9:0.613494 10:0.162241 11:0.255027 12:0.394341 13:0.138444 14:0.426339 15:0.500362 16:-0.196874 17:-0.325345 18:0.149301 
-1 1:0.527523 2:0.332243 3:-0.0646035 4:0.473774 5:-0.132806 6:-0.0348773 7:0.332181 8:-0.459529 9:0.270813 10:0.169456 11:-0.253862 12:0.283023 13:0.363573 14:0.265807 15:0.145769 16:0.0499182 17:-0.184351 18:0.0917459 
-1 1:0.346008 2:0.0700977 3:0.0448584 4:0.501459 5:0.0433863 6:0.61384 7:-0.0308826 8:-0.455458 9:0.499943 10:0.474283 11:0.0985326 12:0.100862 13:-0.123643 14:0.182565 15:0.713687 16:0.614775 17:-0.102749 18:0.203207 
-1 1:0.141 2:0.0202362 3:-0.0624547 4:0.00741562 5:0.115857 6:0.536656 7:-0.41913 8:-0.247449 9:0.386691 10:0.216635 11:-0.176162 12:-0.27567 13:-0.180193 14:0.271538 15:0.35169 16:-0.0225231 17:-0.32871 18:-0.0828108 
-1 1:-0.418371 2:-0.282406 3:-0.466194 4:-0.360479 5:-0.198174 6:0.0977686 7:-0.582619 8:0.501176 9:0.395945 10:0.326255 11:0.141489 12:0.0383204 13:-0.197746 14:-0.197861 15:0.154158 16:-0.036622 17:-0.786351 18:-0.562503 
-1 1:-0.0451391 2:0.372881 3:-0.0601178 4:0.209454 5:-0.0729417 6:-0.255163 7:0.228129 8:-0.533972 9:0.0582865 10:0.0532473 11:0.453007 12:0.0189034 13:-0.0927139 14:0.54569 15:0.0869314 16:0.1326 17:-0.414391 18:-0.305559 
-1 1:0.441846 2:-0.543912 3:-0.237112 4:0.220336 5:0.0294807 6:0.481153 7:0.266298 8:-0.349081 9:0.346863 10:0.184222 11:-0.774994 12:0.190203 13:-0.412568 14:0.390996 15:0.446816 16:-0.273837 17:-0.470736 18:-0.0504304 
-1 1:-0.111841 2:-0.0691056 3:-0.301298 4:0.285769 5:0.689848 6:0.722037 7:0.560428 8:-0.101177 9:0.118521 10:0.931207 11:0.11467 12:0.160765 13:0.262526 14:0.922593 15:0.010275 16:0.707016 17:-0.0359235 18:0.829425 
-1 1:-0.626426 2:-0.592471 3:-0.215838 4:0.0790073 5:-0.272335 6:-0.261353 7:-0.174663 8:-0.829843 9:0.174258 10:-0.193481 11:0.520429 12:-0.689517 13:-0.581156 14:0.187735 15:0.142063 16:0.220044 17:-0.380342 18:-0.354774 
-1 1:-0.194025 2:-0.408992 3:-1 4:0.468737 5:0.239415 6:-0.265962 7:-0.269492 8:0.537509 9:0.351496 10:0.289912 11:0.138315 12:-0.0108325 13:-0.714071 14:0.0657711 15:-0.551223 16:-0.0971757 17:-0.685838 18:0.183864 
-1 1:-0.407496 2:0.135538 3:0.0162228 4:-0.0800179 5:-0.247514 6:-0.151341 7:-0.368442 8:0.236524 9:0.0894699 10:-0.0984198 11:0.0973545 12:-0.0151513 13:-0.370013 14:-0.384067 15:-0.0584216 16:-0.0608006 17:-0.226376 18:-0.356877 
-1 1:0.0577809 2:-0.0532506 3:-0.131867 4:0.108216 5:0.250653 6:0.00688218 7:0.644461 8:0.290486 9:0.438078 10:0.376422 11:-0.344443 12:0.299465 13:-0.486933 14:-0.148027 15:-0.300746 16:0.443805 17:0.518317 18:-0.0725845 
-1 1:-0.821772 2:0.251032 3:-0.190398 4:-0.0689027 5:0.0198122 6:0.173349 7:-0.315931 8:-0.0515047 9:-0.0182338 10:0.164396 11:0.387677 12:0.0899697 13:0.0697279 14:0.390581 15:0.0910726 16:-0.178341 17:0.098269 18:-0.323381 
-1 1:0.0469104 2:0.509015 3:-0.0765962 4:0.266264 5:0.0663756 6:-0.418868 7:0.077626 8:-0.0217921 9:0.367779 10:0.19279 11:-0.58667 12:0.142584 13:-0.359277 14:-0.0313007 15:-0.0787198 16:0.0979458 17:-0.508585 18:-0.0730705 
-1 1:0.171451 2:0.247741 3:-0.18618 4:0.511488 5:0.491588 6:0.406112 7:0.078444 8:-0.827826 9:0.905382 10:0.223146 11:-0.483186 12:0.105275 13:-0.319086 14:0.267207 15:-0.169729 16:-0.32688 17:-0.0914598 18:0.435987 
-1 1:0.177257 2:0.395629 3:-0.108539 4:1 5:0.535369 6:0.0108002 7:0.149174 8:0.132891 9:0.560576 10:0.229504 11:0.00343862 12:0.525126 13:-0.347047 14:0.25527 15:-0.640452 16:-0.461163 17:0.307739 18:0.618854 
-1 1:0.140984 2:0.538417 3:-0.194212 4:-0.454628 5:0.172251 6:0.0492887 7:-0.0281971 8:0.127287 9:0.666958 10:-0.39447 11:-0.390927 12:-0.699502 13:0.158774 14:0.762387 15:0.334498 16:0.383074 17:-0.172598 18:-0.272215 
-1 1:-0.318419 2:0.0451329 3:-0.161164 4:0.281361 5:0.0679896 6:0.222744 7:-0.271231 8:-0.236494 9:0.261485 10:0.48141 11:0.158484 12:-0.345609 13:0.00524557 14:0.561882 15:0.281112 16:0.00244589 17:-0.087409 18:-0.337742 
-1 1:-0.586967 2:0.0808222 3:-0.371085 4:0.46279 5:0.145006 6:-0.657256 7:-0.230662 8:-0.29708 9:-0.250303 10:0.384281 11:-0.0367909 12:0.0129731 13:-0.20088 14:0.131688 15:-0.150463 16:0.609173 17:-0.567428 18:-0.00644732 
-1 1:-0.149144 2:0.555519 3:-0.323261 4:0.140443 5:0.113439 6:-0.172363 7:-0.281984 8:0.0798228 9:0.426959 10:0.169926 11:0.352771 12:0.07879 13:-0.0300024 14:-0.145352 15:0.209847 16:0.0798702 17:-0.179002 18:-0.167285 
-1 1:-0.0528029 2:-0.000172825 3:-0.565818 4:0.625972 5:0.169136 6:0.223011 7:-0.396704 8:0.0713641 9:0.261234 10:-0.0635692 11:0.423291 12:0.0756783 13:-0.07296 14:0.345619 15:0.293511 16:-0.279779 17:-0.600699 18:-0.305559 
-1 1:-0.328732 2:0.0118311 3:0.361407 4:0.346388 5:0.311696 6:0.337506 7:0.11045 8:-0.50109 9:0.438157 10:0.412355 11:1 12:0.405366 13:0.231589 14:0.0503616 15:0.461209 16:-0.32688 17:0.0414995 18:0.827521 
-1 1:-0.0630592 2:0.441126 3:-0.0901159 4:-0.0602505 5:0.164677 6:-0.191233 7:-0.47492 8:0.317735 9:0.398948 10:0.262383 11:-0.36942 12:-0.262275 13:-0.18329 14:0.00434095 15:0.0424271 16:0.262346 17:-0.554879 18:-0.172509 
-1 1:0.136534 2:-0.14822 3:0.051206 4:0.267851 5:0.462607 6:0.112482 7:-0.42065 8:-0.0402137 9:0.504022 10:0.472445 11:-0.201924 12:0.253735 13:-0.210414 14:0.275923 15:0.309621 16:0.241845 17:0.18984 18:-0.575011 
-1 1:-0.57288 2:0.264531 3:0.0236036 4:0.0949254 5:0.411822 6:0.487074 7:-0.379101 8:1 9:0.71877 10:0.430763 11:0.75774 12:-0.0135113 13:-0.198461 14:-0.145401 15:-0.0995949 16:-0.260699 17:-0.600699 18:-0.599965 
-1 1:-0.412377 2:-0.239123 3:-0.120466 4:0.332944 5:0.122025 6:0.0261008 7:-0.29428 8:-0.407805 9:0.760277 10:0.300384 11:0.370822 12:0.0696592 13:-0.515509 14:0.664219 15:0.178148 16:-0.58128 17:-0.514068 18:0.15718 
-1 1:-0.522434 2:-9.99e-05 3:-0.321348 4:-0.229139 5:0.0345242 6:-0.322904 7:-0.42091 8:-0.558281 9:0.145332 10:0.201936 11:0.253003 12:-0.180762 13:-0.457941 14:-0.127908 15:-0.271647 16:-0.237474 17:0.181219 18:-0.456434 
-1 1:-0.318659 2:0.309307 3:0.0912381 4:0.0504113 5:-0.072586 6:-0.541773 7:-0.0897012 8:-0.323899 9:-0.145935 10:0.328891 11:0.13928 12:-0.257934 13:0.313135 14:-0.142076 15:0.0319927 16:0.557479 17:0.108317 18:-0.560317 
-1 1:-0.310933 2:0.205267 3:0.263941 4:-0.135764 5:0.123949 6:-0.456512 7:-0.403516 8:-0.457446 9:0.0066224 10:0.22854 11:0.0579961 12:0.190183 13:0.188531 14:-0.231428 15:-0.194962 16:-0.412033 17:-0.374255 18:-0.169408 
-1 1:-0.88931 2:-0.0060553 3:-0.282128 4:0.021833 5:0.120385 6:-0.072457 7:-0.344343 8:0.0984796 9:0.143719 10:0.223836 11:0.168733 12:0.0868747 13:-0.453601 14:0.100059 15:-0.0506382 16:-0.0958312 17:-0.394033 18:-0.45215 
-1 1:-0.368639 2:0.00705717 3:-0.13097 4:0.119585 5:0.118528 6:0.0668371 7:-0.586798 8:-0.325079 9:0.307129 10:0.00258767 11:0.672447 12:-0.0580626 13:0.409236 14:0.405246 15:0.365168 16:-0.534525 17:0.18043 18:-0.673836 
-1 1:-0.389941 2:0.223503 3:-0.578526 4:-0.145141 5:-0.219788 6:-0.122425 7:-0.273598 8:0.354935 9:0.310531 10:-0.177181 11:-0.389274 12:-0.67937 13:-0.128482 14:0.252382 15:0.365711 16:-0.0885467 17:-0.787251 18:-0.90659 
-1 1:-0.101799 2:0.116915 3:-0.279883 4:-0.402666 5:-0.0503085 6:0.0273697 7:-0.0397046 8:-0.411138 9:0.723187 10:0.403633 11:-0.221454 12:0.0331095 13:0.00280854 14:0.291977 15:0.12006 16:0.249461 17:0.253371 18:-0.49101 
-1 1:0.00245638 2:-0.187623 3:-0.138028 4:-0.0234529 5:-0.0320681 6:0.173964 7:-0.0947778 8:-0.0423238 9:0.969211 10:0.118676 11:-0.0866515 12:0.0641644 13:-0.391382 14:-0.0035128 15:0.480349 16:0.243028 17:-0.646672 18:-0.369186 
-1 1:-0.0739144 2:0.487577 3:-0.0984006 4:0.0894598 5:-0.0355439 6:-0.394973 7:-0.0862037 8:-0.175761 9:0.269451 10:0.221916 11:-0.338704 12:-0.246267 13:-0.294821 14:0.282059 15:-0.171025 16:0.302071 17:-0.22193 18:-0.124182 
-1 1:-0.412187 2:0.435895 3:-0.577671 4:0.135162 5:-0.102853 6:-0.171933 7:-0.0497184 8:0.577637 9:-0.0552783 10:0.137475 11:-0.549936 12:0.0495099 13:0.158487 14:0.77916 15:0.19782 16:0.236103 17:-0.810617 18:-0.596086 
-1 1:-0.0878173 2:-0.143234 3:0.0792719 4:-0.356263 5:-0.0611942 6:-0.0878372 7:-0.372391 8:-0.289309 9:0.121528 10:-0.0769162 11:-0.276589 12:-0.413975 13:-0.166186 14:-0.0665604 15:0.0894788 16:0.144131 17:0.0298146 18:-0.0987235 
-1 1:-0.265313 2:0.367221 3:-0.0227112 4:0.148031 5:-0.0940877 6:0.113786 7:0.103302 8:-0.0710318 9:0.17147 10:0.337466 11:0.326166 12:-0.0253031 13:0.501754 14:0.636157 15:0.131022 16:0.0889429 17:-0.251077 18:-0.0379888 
-1 1:-0.521248 2:-0.342638 3:0.0594937 4:-0.0336907 5:-0.258262 6:0.318256 7:-0.0317085 8:-0.265047 9:0.219944 10:0.219675 11:0.314599 12:0.101294 13:-0.851066 14:0.48019 15:0.0758812 16:0.264189 17:-0.379565 18:-0.215817 
-1 1:-0.547546 2:-0.0127597 3:-0.434173 4:0.110659 5:-0.0871151 6:0.131333 7:-0.0735772 8:-0.377302 9:0.0511279 10:-0.162546 11:0.24452 12:0.107425 13:-0.265584 14:-0.104978 15:0.172257 16:-0.314156 17:-0.658838 18:-0.305559 
-0.04097387416861152 1:-0.0413774 2:0.464063 3:-0.0474354 4:0.35069 5:0.223287 6:0.207351 7:-0.260367 8:0.211227 9:0.86247 10:0.0153926 11:0.182018 12:0.244971 13:0.0022426 14:0.111097 15:0.0196948 16:-0.11259 17:-0.280775 18:0.194114 
-1 1:-0.184106 2:0.128925 3:-0.0811421 4:0.253799 5:0.302307 6:0.00161379 7:0.0369422 8:0.0170928 9:0.142954 10:0.42694 11:-0.435666 12:0.387968 13:0.323153 14:0.25511 15:-0.184961 16:0.641997 17:0.29005 18:-0.150376 
-1 1:-0.282457 2:0.0836129 3:-0.327584 4:0.338374 5:0.0595838 6:-0.0707893 7:0.223117 8:-0.234946 9:0.0724278 10:0.453164 11:-0.351701 12:0.0882136 13:-0.422498 14:0.578012 15:0.0549566 16:-0.0945091 17:-0.725538 18:-0.478336 
-1 1:-0.329915 2:-0.707187 3:-0.450984 4:0.053803 5:-0.497158 6:0.262099 7:0.429369 8:-0.996781 9:0.0879058 10:0.483147 11:-0.250584 12:-0.0941805 13:-0.465088 14:0.408243 15:-0.352911 16:0.316479 17:-0.508206 18:-0.393856 
-1 1:-0.682417 2:-0.678419 3:-0.0833676 4:0.280817 5:-0.307493 6:0.0145063 7:-0.114831 8:-0.0103961 9:0.364645 10:0.251242 11:-0.3973 12:-0.598549 13:-0.487066 14:-0.305826 15:0.200971 16:0.249726 17:-0.600699 18:-0.305559 
-1 1:-0.20513 2:0.0548233 3:0.217892 4:0.402803 5:-0.00824051 6:0.827538 7:0.437714 8:-0.100405 9:0.388885 10:0.377647 11:0.638155 12:0.203774 13:0.00220942 14:0.355113 15:0.435947 16:0.342692 17:-0.196313 18:-0.178504 
-1 1:0.122317 2:0.696355 3:-0.26262 4:-1 5:0.166278 6:-0.277155 7:0.172701 8:0.716387 9:0.747626 10:0.449465 11:0.059357 12:-0.144031 13:-0.211982 14:-0.148943 15:0.182764 16:-0.323867 17:-0.160339 18:0.10211 
-1 1:0.011882 2:0.187714 3:0.269061 4:-0.513872 5:0.0472164 6:-0.2454 7:-0.32395 8:0.364291 9:-0.198952 10:0.18703 11:0.514163 12:-0.319258 13:-0.0524632 14:-0.0881166 15:0.457474 16:-0.32688 17:-0.97309 18:-0.82095 
-1 1:-0.0667879 2:0.596589 3:0.107109 4:0.101067 5:-0.231298 6:-0.524127 7:0.027705 8:0.0535839 9:-0.49184 10:0.263756 11:-0.129865 12:-0.310324 13:-0.114637 14:-0.0668263 15:0.0300391 16:0.275913 17:-0.0607813 18:-0.333769 
-1 1:-0.437849 2:-0.0200719 3:-0.133681 4:-0.335716 5:-0.36655 6:-0.494891 7:-0.289485 8:-0.0957863 9:0.138649 10:-0.27545 11:-0.194397 12:-0.312635 13:-0.348302 14:-0.50688 15:0.156958 16:0.385502 17:-0.581179 18:-0.305559 
-1 1:0.0132714 2:-0.299288 3:-0.775356 4:-0.0887007 5:-0.0438464 6:0.100814 7:-0.372878 8:-0.450614 9:0.188777 10:0.249887 11:-0.0302461 12:-0.0207414 13:-0.39217 14:0.0726414 15:-0.00242906 16:0.666416 17:-0.499962 18:-0.340777 
-1 1:-0.431735 2:0.134693 3:-0.371747 4:0.209886 5:-0.0998235 6:-0.502289 7:-0.345932 8:0.101503 9:-0.216243 10:0.116888 11:0.589656 12:0.137393 13:-0.676095 14:-0.556414 15:-0.503576 16:0.918474 17:0.0844058 18:-0.0430527 
-1 1:-0.689206 2:-0.0819675 3:-0.252666 4:-0.200871 5:-0.518873 6:-0.703756 7:-0.370731 8:0.438319 9:-0.428607 10:-0.118032 11:-0.44028 12:-0.207349 13:-0.419779 14:0.270769 15:0.124611 16:-0.263731 17:-0.567306 18:-0.305559 
-1 1:-0.287294 2:0.482437 3:-0.39147 4:0.332292 5:0.413626 6:-0.171612 7:-0.234978 8:0.573521 9:0.186614 10:0.206329 11:0.490424 12:0.236373 13:-0.0769093 14:-0.0895441 15:-0.348228 16:-0.174451 17:-0.175997 18:0.320491 
-1 1:-0.420356 2:0.301571 3:-0.490607 4:0.0718651 5:-0.384542 6:-0.793293 7:0.0200705 8:0.106457 9:-0.454126 10:0.414941 11:-0.25301 12:-0.279238 13:-0.408979 14:0.182798 15:-0.102194 16:0.10935 17:-0.398241 18:-0.184769 
-1 1:-0.299876 2:0.269675 3:-0.0992701 4:-0.491916 5:-0.00139293 6:-0.256591 7:-0.0687596 8:-0.160226 9:0.18897 10:0.238151 11:0.100835 12:-0.0871386 13:-0.0754879 14:-0.202379 15:0.215476 16:0.295914 17:-0.138829 18:-0.135702 
-1 1:-0.2957 2:0.89524 3:0.263269 4:-0.114114 5:-0.383669 6:-0.716098 7:-0.38675 8:0.462223 9:-1 10:0.0174944 11:-0.544434 12:-0.333548 13:-0.107313 14:0.372827 15:-0.0230299 16:0.53408 17:-0.294069 18:-0.726276 
-1 1:0.190083 2:0.275342 3:-0.0344317 4:0.276071 5:0.354958 6:0.392946 7:-0.477034 8:0.343974 9:0.697722 10:-0.249869 11:-0.0841271 12:0.42297 13:-0.207579 14:0.130624 15:0.0842504 16:-0.32688 17:-0.127089 18:-0.0826979 
-1 1:-0.331332 2:0.0201771 3:-0.138967 4:0.0962088 5:0.366778 6:0.289995 7:-0.659339 8:-0.242686 9:0.43481 10:0.294856 11:0.363411 12:0.000633825 13:-0.295035 14:0.0202372 15:0.253862 16:-0.11527 17:-0.488799 18:-0.198795 
-1 1:-0.0559737 2:0.0158009 3:-0.337711 4:-0.328521 5:0.321088 6:-0.424064 7:-0.48723 8:0.0116006 9:-0.106237 10:0.339489 11:0.0255071 12:0.0420665 13:-0.481576 14:0.139335 15:-0.0569592 16:0.121345 17:-0.561078 18:-0.305559 
-1 1:-0.0204852 2:0.139558 3:-0.301991 4:0.0214242 5:0.382869 6:0.389658 7:-0.0117915 8:-0.117405 9:0.793849 10:-0.201907 11:0.425696 12:0.216276 13:0.962629 14:0.776234 15:0.0584935 16:-0.559154 17:0.221163 18:0.575271 
-0.5994583155944071 1:-0.0725186 2:0.355722 3:-0.194479 4:0.295924 5:0.273631 6:0.251735 7:0.0203584 8:0.177515 9:0.706371 10:0.237066 11:0.331779 12:0.217588 13:-0.00238155 14:0.846817 15:0.187939 16:0.233667 17:-0.0976738 18:-0.305559 
-1 1:-0.465377 2:0.0631943 3:-0.156936 4:0.12632 5:0.0704264 6:-0.0636457 7:-0.500671 8:0.394877 9:0.354404 10:0.417898 11:-0.256588 12:0.180592 13:-0.455525 14:0.660781 15:0.00898678 16:0.229767 17:-0.813967 18:-0.600723 
-1 1:-0.108984 2:-0.113887 3:-0.197662 4:-0.100046 5:0.694236 6:0.530027 7:-0.687596 8:-0.005728 9:0.678219 10:0.460828 11:0.717064 12:0.377907 13:0.827291 14:0.411626 15:0.840304 16:-0.0382436 17:0.12779 18:0.0988659 
-1 1:-0.255761 2:-0.0796468 3:0.0558134 4:0.351532 5:-0.218135 6:-0.19801 7:-0.191534 8:-0.00562625 9:-0.212994 10:0.222095 11:0.404638 12:-0.00176607 13:0.100513 14:0.334782 15:-0.0398836 16:-0.0607028 17:-0.0824932 18:0.092274 
-1 1:0.0770901 2:0.376781 3:-0.363823 4:0.52588 5:0.313701 6:0.28262 7:0.0249893 8:0.303859 9:0.685053 10:-0.0468731 11:0.664833 12:-0.300794 13:0.169033 14:0.513669 15:0.167833 16:0.351054 17:0.405912 18:0.654978 
-1 1:0.340312 2:0.308093 3:0.0664697 4:0.00762914 5:0.0862645 6:0.21085 7:-0.0219758 8:-0.314313 9:0.604744 10:-0.758113 11:-0.33569 12:-0.545927 13:-0.180756 14:0.320073 15:0.0567776 16:0.424361 17:-0.188568 18:-0.434421 
-1 1:-0.193285 2:0.316052 3:-0.0982184 4:0.13656 5:-0.0291466 6:-0.108549 7:-0.0292855 8:-0.207507 9:0.203435 10:0.232105 11:0.0714647 12:-0.386657 13:-0.164255 14:0.312581 15:0.0755322 16:0.0276376 17:-0.112211 18:-0.548353 
-1 1:-0.106734 2:0.373875 3:-0.147009 4:0.0974728 5:0.0261646 6:-0.207413 7:0.0536676 8:-0.280675 9:0.313022 10:0.601713 11:-0.247407 12:0.234586 13:-0.41187 14:0.191856 15:-0.668833 16:0.540363 17:-0.29839 18:0.386043 
-1 1:-0.102655 2:0.490254 3:-0.432475 4:-0.35827 5:-0.0596388 6:-0.107801 7:-0.113983 8:0.355443 9:0.352096 10:0.262377 11:0.32136 12:-0.0435671 13:-0.102624 14:0.0724219 15:0.162982 16:0.337045 17:-0.234057 18:-0.516686 
-1 1:-1 2:-0.0499478 3:-0.465724 4:-0.561933 5:-0.268145 6:-0.170952 7:-0.46733 8:-0.226525 9:-0.0409053 10:0.0322332 11:-0.151172 12:-0.334267 13:-0.442158 14:-0.0766232 15:0.193469 16:-0.338848 17:-0.542161 18:-1 
-1 1:0.0925111 2:0.391634 3:0.328833 4:0.307952 5:0.0986664 6:0.514787 7:0.384533 8:-0.494424 9:0.0227303 10:0.465527 11:-0.102371 12:0.0174619 13:0.140723 14:0.421898 15:0.162598 16:0.253844 17:0.195471 18:-0.186632 
-1 1:0.187527 2:-0.107759 3:0.437117 4:0.041075 5:0.412593 6:0.257765 7:-0.177757 8:0.58857 9:0.311718 10:0.37789 11:0.186234 12:0.49956 13:0.0229677 14:0.10098 15:-0.0243402 16:-0.352668 17:-0.0736548 18:-0.0384877 
-1 1:-0.745131 2:-0.0265664 3:-0.268361 4:0.0660518 5:0.109644 6:-0.247379 7:-0.587632 8:-0.219113 9:0.182759 10:0.253658 11:0.0953971 12:0.130988 13:-0.172116 14:-0.434183 15:0.111118 16:0.0885491 17:0.216044 18:-0.305559 
-1 1:-0.132951 2:0.357676 3:-0.595219 4:-0.0664035 5:0.190123 6:0.454488 7:-0.342527 8:0.125533 9:0.448152 10:-0.206793 11:0.481218 12:0.0246751 13:-0.226515 14:0.721292 15:0.0744072 16:-0.125658 17:-0.620476 18:-0.305559 
-1 1:-0.429119 2:0.248833 3:-0.295354 4:-0.744014 5:-0.0976373 6:-0.115377 7:-0.397699 8:0.411154 9:0.207713 10:0.306464 11:-0.437878 12:-0.0608647 13:0.0346676 14:0.292662 15:0.331441 16:0.197295 17:-0.250734 18:-0.439413 
-1 1:-0.0320713 2:0.381681 3:-0.319929 4:-0.243631 5:0.161971 6:0.256949 7:-0.2795 8:-0.0228632 9:0.487179 10:0.275521 11:0.0689885 12:0.0520722 13:0.033361 14:0.450754 15:0.350473 16:0.0960583 17:-0.256622 18:-0.537338 
-1 1:-0.108228 2:-0.179646 3:0.228175 4:-0.0308545 5:0.613826 6:0.99246 7:0.0630419 8:-0.182174 9:0.868178 10:0.0446661 11:0.783983 12:0.36368 13:0.17745 14:0.320662 15:1 16:-0.191302 17:-0.593872 18:-0.169578 
-1 1:-0.241769 2:-0.00118754 3:-0.279752 4:-0.297931 5:-0.10833 6:-0.222025 7:-0.412276 8:0.395715 9:0.207456 10:0.21477 11:0.201442 12:-0.392833 13:-0.187936 14:0.151674 15:-0.218913 16:0.194429 17:-0.572746 18:-0.16187 
-1 1:0.0690439 2:0.240859 3:-0.0894014 4:-0.0540187 5:0.275508 6:-0.247339 7:-0.693185 8:0.331335 9:0.182798 10:-0.215878 11:0.241879 12:0.306087 13:-0.377712 14:-0.503897 15:-0.182158 16:0.0161363 17:-0.914744 18:0.035259 
-1 1:-0.37609 2:0.313103 3:0.0656036 4:0.470866 5:-0.0155001 6:0.318573 7:0.102975 8:0.20056 9:0.352568 10:0.474262 11:-0.527352 12:0.218251 13:0.157166 14:0.265449 15:0.198312 16:0.0964234 17:-0.513527 18:-0.744062 
-1 1:-0.352068 2:0.262066 3:-0.258062 4:-0.0868083 5:-0.244647 6:0.0103495 7:-0.292846 8:-0.151865 9:-0.554702 10:0.297818 11:0.205188 12:0.140072 13:-0.283889 14:0.224175 15:-0.0492867 16:-0.0432945 17:-0.160351 18:-0.404098 
-1 1:-0.368123 2:0.234702 3:-0.310159 4:-0.200657 5:-0.0365519 6:-0.11355 7:-0.203159 8:-0.149538 9:0.496203 10:0.0179554 11:0.281972 12:-0.632296 13:-0.164549 14:0.155408 15:0.0579293 16:0.224081 17:-0.223358 18:-0.599361 
-1 1:0.342422 2:0.247008 3:-0.272347 4:0.928929 5:0.206096 6:-0.111144 7:0.193735 8:-0.118787 9:0.0331187 10:0.372308 11:0.663554 12:0.12237 13:-0.136221 14:-0.0870809 15:0.0251998 16:0.464609 17:-0.303691 18:0.00049927 
-1 1:-0.392438 2:0.795502 3:-0.0419405 4:-0.436368 5:0.155241 6:0.330759 7:-0.138158 8:0.310272 9:0.134897 10:0.168339 11:-0.2461 12:-0.0297184 13:-0.117016 14:0.0022375 15:0.0156535 16:0.270202 17:-0.237314 18:-0.752728 
-1 1:-0.415682 2:0.40964 3:-0.350477 4:-0.0976842 5:-0.17505 6:-0.468634 7:-0.472561 8:-0.362747 9:-0.0113785 10:0.261943 11:0.265393 12:-0.355421 13:-0.437245 14:0.333863 15:-0.296538 16:-0.192146 17:-0.332049 18:-0.423261 
-1 1:-0.315309 2:-0.249353 3:0.0250832 4:0.474596 5:-0.111241 6:0.0208448 7:-0.236929 8:0.333289 9:-0.252214 10:0.554839 11:-0.441216 12:0.407021 13:-0.478727 14:0.621472 15:0.179694 16:0.383644 17:-0.765653 18:-0.305559 
