svm_type c_svc
kernel_type rbf
gamma 0.037037
nr_class 2
total_sv 348
rho -0.41576
label 0 1
probA -1.28529
probB 0.111158
nr_sv 175 173
SV
1 1:0.219427 2:-0.0156249 3:-0.147991 4:-0.501607 5:0.40685 6:-0.0156729 7:-0.171362 8:0.389728 9:0.241703 10:0.300487 11:-0.749662 12:-0.0133898 13:0.0853774 14:0.284389 15:-0.199697 16:0.586494 17:-0.428666 18:-0.418374 19:0.0300665 20:-0.152789 21:-0.506718 22:0.0532339 23:0.0632673 24:0.669911 25:-0.381515 26:-0.246582 27:-0.611839 
1 1:0.0724108 2:0.48099 3:0.591936 4:0.254707 5:0.389183 6:-0.0892309 7:-0.424801 8:0.127568 9:-0.3152 10:-0.328462 11:-0.226474 12:0.2558 13:-0.194497 14:0.0440432 15:0.11293 16:0.183899 17:-0.250181 18:-0.55157 19:0.506008 20:0.0687704 21:-0.439422 22:-0.151019 23:0.429667 24:-0.0251008 25:-0.465795 26:0.00330238 27:0.0440992 
1 1:0.248299 2:-0.165065 3:-0.399936 4:-0.655536 5:0.664065 6:-0.204257 7:0.497156 8:-0.0820537 9:0.208519 10:0.566236 11:-0.328624 12:-0.720662 13:0.222036 14:0.297494 15:-0.17353 16:0.625808 17:-0.893873 18:0.0215942 19:0.482761 20:-0.119698 21:-0.172319 22:0.271913 23:0.358983 24:0.0710939 25:0.541549 26:0.12787 27:-0.298043 
1 1:0.607163 2:0.0490972 3:0.265474 4:0.336781 5:0.254976 6:0.187424 7:-0.0501281 8:0.250332 9:0.200845 10:0.444518 11:0.0231225 12:0.0195606 13:-0.132132 14:0.00320617 15:0.776358 16:-0.740388 17:-0.160967 18:0.0420849 19:0.306103 20:0.941411 21:-0.0346337 22:0.346161 23:0.58022 24:0.0288682 25:0.318154 26:0.434113 27:-0.0819218 
1 1:0.267836 2:0.362153 3:0.0255057 4:0.824451 5:0.642958 6:-0.206643 7:0.293381 8:-0.239926 9:-0.0377942 10:0.423075 11:-0.0645715 12:-0.344524 13:-0.238275 14:0.207174 15:0.00463087 16:0.696861 17:0.0968818 18:-0.18251 19:0.54306 20:0.179276 21:-0.599302 22:0.250276 23:-0.46513 24:-0.23658 25:0.457946 26:0.24755 27:-0.425004 
1 1:0.418141 2:-0.0496199 3:0.113057 4:0.116485 5:0.131427 6:0.00566037 7:0.216461 8:0.239005 9:-0.104214 10:0.403191 11:-0.0654688 12:0.245783 13:-0.385785 14:0.40743 15:0.214931 16:-0.469652 17:-0.692075 18:-0.153795 19:-0.164482 20:0.321092 21:0.00332811 22:0.160756 23:0.127067 24:-0.0205747 25:0.0702622 26:-0.220336 27:-0.219587 
1 1:-0.326288 2:0.19357 3:0.131654 4:-0.129095 5:0.140493 6:-0.358229 7:-0.199457 8:-0.147358 9:-0.215884 10:0.137183 11:-0.602786 12:0.473764 13:-0.125831 14:0.0757249 15:0.0773687 16:0.31359 17:-0.361919 18:0.0549873 19:0.403006 20:0.305898 21:-0.362955 22:0.377428 23:0.531247 24:-0.221387 25:0.0335842 26:0.12787 27:-0.298043 
1 1:-0.00996426 2:0.619795 3:0.210208 4:0.324125 5:0.595231 6:0.135696 7:0.0362472 8:0.477893 9:0.571994 10:0.544669 11:-0.403205 12:0.198256 13:-0.061771 14:0.130028 15:0.0534987 16:0.822455 17:0.196073 18:-0.0228817 19:-0.124588 20:0.416318 21:-0.56242 22:0.436578 23:0.412746 24:0.546851 25:-0.00908772 26:-0.015543 27:-0.298043 
1 1:0.0548496 2:0.837018 3:-0.423346 4:0.465158 5:0.29678 6:0.374834 7:-0.160679 8:0.28251 9:0.0948053 10:0.348867 11:-0.535543 12:-0.0768477 13:0.773737 14:-0.0218012 15:0.0313764 16:-0.203678 17:-0.158607 18:-0.0106443 19:0.676683 20:0.558998 21:-0.0130502 22:0.410066 23:-0.325032 24:0.149691 25:-0.383345 26:-0.248232 27:-0.328942 
1 1:0.0591953 2:-0.191632 3:-0.0120739 4:-0.225549 5:0.0423166 6:-0.129894 7:0.0537333 8:-0.929704 9:0.0661505 10:0.2546 11:-0.577325 12:-0.140356 13:-0.428609 14:0.358234 15:-0.0536262 16:0.436259 17:-0.503603 18:0.227744 19:0.00572587 20:0.135246 21:-0.714757 22:0.330165 23:0.285884 24:-0.931865 25:-0.413024 26:-0.0843594 27:-0.0526033 
1 1:0.511212 2:-0.0413094 3:0.350495 4:0.407507 5:0.249868 6:0.244397 7:-0.296878 8:-0.170566 9:0.775729 10:0.353785 11:0.258277 12:0.404443 13:0.141786 14:0.170735 15:0.43172 16:0.236492 17:-0.343461 18:-0.0373217 19:-0.0999162 20:0.15946 21:-0.292551 22:0.190087 23:0.794146 24:-0.230826 25:0.384141 26:0.12787 27:0.097277 
1 1:-0.370927 2:0.29319 3:0.290183 4:0.401673 5:0.250683 6:-0.303825 7:-0.503717 8:0.0372964 9:0.607177 10:0.602284 11:-0.422683 12:0.197575 13:0.0698762 14:0.488732 15:0.0883319 16:0.972384 17:0.863309 18:-0.0685797 19:0.502745 20:-0.280658 21:-0.435592 22:0.473896 23:0.314077 24:-0.786057 25:-0.608512 26:0.676116 27:-0.33662 
1 1:-0.0156505 2:-0.12252 3:-0.327131 4:-0.565535 5:0.0476886 6:0.227457 7:0.021049 8:0.111801 9:-0.102288 10:0.931946 11:-0.207652 12:0.131986 13:0.550048 14:0.456968 15:0.0358747 16:0.197336 17:0.161332 18:0.0807639 19:0.251176 20:0.539383 21:0.0600984 22:0.183259 23:0.156411 24:0.120569 25:0.361037 26:-0.228565 27:-0.316834 
1 1:0.180788 2:-0.0400883 3:0.189074 4:-0.0726989 5:0.193817 6:-0.26218 7:-0.0838143 8:-0.500272 9:0.0694205 10:0.469054 11:0.159022 12:-0.185708 13:0.215109 14:-0.238372 15:0.558447 16:-0.653329 17:-0.641334 18:0.142607 19:0.59225 20:0.765227 21:0.538897 22:0.226074 23:-0.384431 24:0.354624 25:0.688577 26:0.0115215 27:-0.104438 
1 1:-0.136371 2:-0.11918 3:0.374242 4:0.00346098 5:0.144288 6:-0.280651 7:0.192156 8:-0.0456996 9:0.663122 10:0.717809 11:0.171323 12:-0.0930952 13:0.246386 14:0.427106 15:0.274566 16:0.935419 17:0.262411 18:-0.00118205 19:0.553145 20:0.322149 21:-0.418852 22:0.527517 23:0.567215 24:-0.440539 25:0.506962 26:-0.0969291 27:-0.436435 
1 1:-0.509416 2:-0.027261 3:0.0320578 4:0.229785 5:0.311904 6:0.168216 7:-0.0500132 8:0.270774 9:-0.0146294 10:-0.0289701 11:-0.118558 12:-0.00483444 13:-0.450909 14:0.0162612 15:-0.523083 16:0.483335 17:-0.00286043 18:-0.202714 19:-0.0766773 20:0.275199 21:-0.529571 22:-0.159123 23:-0.0658822 24:-0.20437 25:-0.213324 26:-0.611417 27:0.221537 
1 1:0.0264678 2:0.493983 3:0.177006 4:-0.12266 5:0.302724 6:0.0163483 7:-0.0858426 8:0.634845 9:0.0172345 10:0.635022 11:-0.272325 12:-0.41473 13:0.297637 14:0.162344 15:0.212451 16:0.155722 17:0.289167 18:-0.160086 19:-0.0446435 20:-0.108476 21:0.0664462 22:0.273091 23:0.310042 24:-0.0843298 25:-0.171857 26:0.508643 27:0.0724209 
1 1:0.748364 2:0.285728 3:0.167878 4:0.12953 5:-0.371309 6:0.28165 7:-0.0690672 8:0.607135 9:-0.668989 10:0.402264 11:-0.828603 12:-0.539302 13:-0.224046 14:0.159072 15:0.145472 16:0.492798 17:0.117759 18:-0.0136862 19:0.0388807 20:0.412747 21:-0.290276 22:0.0492219 23:0.816672 24:0.562631 25:-0.450452 26:-0.634679 27:-0.56685 
1 1:-0.153918 2:0.223983 3:-0.142617 4:0.241861 5:0.0777381 6:-0.302875 7:-0.451077 8:-0.157284 9:0.222648 10:0.0435764 11:-0.418813 12:-0.162773 13:0.0636075 14:-0.4164 15:-0.219891 16:0.262057 17:-0.15147 18:-0.322074 19:0.0336166 20:0.277091 21:-0.200998 22:-0.262145 23:0.078882 24:0.128371 25:-0.818557 26:-0.314916 27:-0.771275 
1 1:0.257512 2:0.11898 3:0.430097 4:0.287225 5:0.148325 6:0.0664663 7:-0.0351 8:0.258105 9:0.484358 10:0.300377 11:-0.290383 12:0.0441875 13:-0.00981468 14:0.0135468 15:0.417129 16:0.786735 17:-0.176611 18:-0.246276 19:0.340006 20:0.58882 21:-0.309141 22:0.381225 23:-0.314031 24:-0.576096 25:-0.103504 26:0.00420542 27:-0.639406 
1 1:-0.193522 2:-0.111104 3:0.153373 4:0.281207 5:0.0461425 6:-0.218833 7:-0.0554929 8:-0.259728 9:0.0102917 10:0.0948181 11:0.155102 12:0.309827 13:-0.426794 14:-0.0593675 15:-0.19055 16:0.203954 17:-0.42544 18:-0.48603 19:0.355617 20:0.117882 21:-0.23318 22:0.319586 23:-0.197871 24:-0.869977 25:-0.22634 26:-0.863343 27:-0.389615 
1 1:-0.0631236 2:0.287811 3:0.466708 4:0.291178 5:-0.139841 6:0.166352 7:-0.600611 8:0.0673559 9:-0.386136 10:0.445041 11:-0.409803 12:-0.234237 13:0.337554 14:0.45178 15:0.532253 16:0.849933 17:0.371689 18:0.258464 19:0.676574 20:0.223104 21:-0.254808 22:0.718409 23:0.354287 24:0.467291 25:0.244062 26:-0.334084 27:0.254219 
1 1:0.357762 2:0.810535 3:0.260568 4:0.0644717 5:-0.625297 6:-0.551831 7:0.204976 8:0.00900263 9:-0.0780018 10:0.4312 11:0.0414498 12:0.554008 13:-0.22913 14:0.285752 15:0.375667 16:0.718915 17:0.0181873 18:0.0740727 19:0.520555 20:1 21:-0.286867 22:0.2407 23:0.267675 24:-0.221387 25:0.348465 26:0.0860049 27:-0.298043 
1 1:0.40575 2:0.182319 3:0.644337 4:-0.969619 5:0.518464 6:0.743609 7:0.166494 8:0.600726 9:-0.0668203 10:0.379074 11:-0.0495845 12:-0.359795 13:0.287906 14:0.405679 15:0.460637 16:0.821023 17:0.652094 18:-0.16758 19:0.412815 20:0.717917 21:-0.132363 22:0.194181 23:0.248915 24:-0.28257 25:0.325302 26:0.12787 27:-0.298043 
1 1:-0.000435385 2:-0.226401 3:-0.644227 4:0.516746 5:0.788962 6:0.615969 7:-0.579049 8:-0.236343 9:-0.241698 10:0.269648 11:-0.269034 12:0.6643 13:0.030581 14:-0.4413 15:0.189696 16:0.0259601 17:-0.0214179 18:-0.184861 19:0.358377 20:-0.173904 21:0.105114 22:0.268567 23:0.0448 24:-0.504199 25:0.0335842 26:0.12787 27:0.49807 
1 1:0.479685 2:0.358602 3:0.342509 4:0.0231172 5:0.293466 6:0.275735 7:-0.199117 8:0.395915 9:0.411081 10:0.341143 11:-0.563965 12:-0.306822 13:0.444985 14:-0.382056 15:0.537731 16:0.692806 17:-0.239269 18:-0.0785242 19:-0.00146341 20:0.481338 21:-0.304468 22:-0.940566 23:-0.77067 24:0.277751 25:0.700747 26:-0.0927543 27:-0.233225 
1 1:-0.313433 2:-0.52751 3:0.160258 4:-0.0525947 5:0.82439 6:-0.201884 7:-0.442701 8:-0.184998 9:-1 10:-0.208922 11:0.147244 12:0.622639 13:-0.1837 14:0.312507 15:0.244067 16:-0.827788 17:-0.337121 18:-1 19:-0.0656676 20:-0.117875 21:-0.26907 22:-0.323975 23:0.0962331 24:-0.766077 25:0.0335842 26:-0.24021 27:-0.298043 
1 1:0.0758626 2:-0.214136 3:-0.178768 4:-0.168353 5:0.347094 6:0.28914 7:-0.281283 8:-0.120792 9:0.10325 10:0.486703 11:0.0397885 12:0.131828 13:-0.0793848 14:0.104162 15:0.213891 16:0.350337 17:0.107849 18:0.0180934 19:0.239963 20:0.184838 21:0.148565 22:0.264114 23:0.238857 24:-0.0593394 25:-0.259748 26:-0.462649 27:0.292438 
1 1:0.318497 2:-0.2167 3:0.230781 4:0.34242 5:-0.113101 6:0.0291399 7:0.446778 8:-0.0578071 9:0.00658559 10:0.895145 11:-0.23741 12:-0.170576 13:0.691974 14:0.554133 15:0.589283 16:0.990645 17:-0.228306 18:0.00362912 19:0.143434 20:0.311366 21:-0.0462869 22:0.789957 23:0.380543 24:0.28036 25:0.549213 26:0.474841 27:-0.647705 
0.9941727276517125 1:0.279972 2:0.384171 3:0.0946725 4:-0.122986 5:0.236416 6:0.389293 7:-0.514979 8:-0.0331305 9:-0.189793 10:0.61657 11:-0.541992 12:0.394411 13:0.126 14:-0.00378191 15:0.433697 16:0.485396 17:0.210234 18:-0.0411832 19:-0.0630983 20:-0.101676 21:-0.650011 22:0.0477094 23:0.700335 24:-0.320779 25:-0.290776 26:-0.164728 27:0.17349 
1 1:-0.19631 2:-0.0186979 3:0.0597481 4:-0.165258 5:0.379178 6:0.35367 7:-0.297935 8:0.388821 9:-0.0296927 10:0.745172 11:-0.304394 12:0.0217628 13:-0.0828554 14:0.26448 15:0.202529 16:0.674485 17:-0.0800596 18:-0.010048 19:0.145352 20:-0.0295151 21:-0.12439 22:0.510383 23:0.317478 24:-0.525847 25:0.260007 26:0.246394 27:0.621071 
1 1:0.404726 2:0.324868 3:0.192255 4:0.0216442 5:0.291769 6:0.364158 7:-0.125437 8:0.53232 9:0.399739 10:0.00909937 11:-0.0973349 12:-0.421277 13:-0.863019 14:-0.144645 15:1 16:-0.611081 17:-0.509434 18:0.00172152 19:0.226995 20:0.60941 21:-0.29228 22:-0.00139223 23:0.931939 24:0.0873482 25:-0.337926 26:0.49994 27:0.0589089 
1 1:0.223456 2:0.153995 3:-0.145292 4:0.445104 5:0.324925 6:0.328931 7:-0.0206099 8:1 9:0.383837 10:0.959759 11:-0.0249637 12:0.668199 13:0.76563 14:0.496436 15:0.298173 16:0.836332 17:0.645746 18:0.1177 19:0.703928 20:-0.226691 21:-0.506824 22:0.335764 23:0.455513 24:0.600715 25:0.702153 26:0.540324 27:-0.127397 
1 1:0.47822 2:-0.097382 3:0.519973 4:0.0285198 5:0.106155 6:0.0358486 7:0.441942 8:-0.198299 9:-0.0442798 10:0.447549 11:-0.34799 12:-0.0925826 13:-0.0884989 14:0.0254342 15:0.429902 16:0.836359 17:0.105824 18:0.177968 19:0.619884 20:0.690946 21:-0.157722 22:0.243283 23:0.0389662 24:-0.221387 25:1 26:-0.168728 27:-0.279996 
1 1:-0.103108 2:0.482266 3:0.00728415 4:0.247038 5:0.23179 6:0.176644 7:-0.401013 8:0.825041 9:-0.150075 10:0.19758 11:-0.601872 12:0.413753 13:0.2392 14:0.273699 15:-0.0132924 16:-0.0527413 17:0.580753 18:-0.191163 19:0.271054 20:0.00118279 21:-0.463465 22:0.30936 23:0.422026 24:-0.382745 25:-0.299849 26:0.343644 27:0.0354346 
1 1:0.409809 2:-0.00352493 3:0.29764 4:0.107788 5:0.159068 6:-0.399444 7:-0.293038 8:-0.281854 9:-0.149122 10:-0.0458048 11:-0.679818 12:-0.223258 13:-0.558888 14:0.385249 15:0.217218 16:0.525801 17:-0.788259 18:-0.00760227 19:-0.13019 20:0.806019 21:-0.504659 22:0.153315 23:-0.320403 24:-0.583014 25:-0.0163393 26:0.27348 27:-0.526408 
1 1:0.539308 2:-0.0408235 3:0.0300357 4:0.06073 5:0.0609924 6:0.0666458 7:0.247918 8:0.17747 9:-0.305149 10:0.36799 11:-0.350818 12:0.138566 13:-0.0518259 14:0.0282132 15:0.245448 16:-0.0118922 17:0.132159 18:-0.0841546 19:0.133783 20:0.675945 21:0.115565 22:-0.532625 23:0.0581699 24:-0.0567607 25:0.00944217 26:0.020366 27:-0.830098 
1 1:0.200573 2:-0.075358 3:-0.166027 4:0.227965 5:-0.630546 6:-0.256547 7:0.108536 8:-0.158585 9:0.3503 10:0.338231 11:-0.873657 12:-0.0162609 13:-0.418101 14:0.395205 15:0.174327 16:0.726896 17:0.193373 18:-0.0436684 19:0.445569 20:0.0941043 21:-0.592793 22:0.546164 23:0.658915 24:-0.309346 25:-0.544034 26:0.258635 27:-0.618821 
1 1:0.142915 2:-0.00970022 3:-0.320159 4:0.514383 5:0.537953 6:0.464361 7:0.0818192 8:-0.151351 9:-0.224872 10:0.0896096 11:0.0580779 12:0.471662 13:-0.433265 14:0.170299 15:0.379235 16:-0.779273 17:-0.227188 18:-0.23579 19:-0.057423 20:-0.078588 21:-0.263417 22:0.241234 23:0.381358 24:-0.416602 25:0.253239 26:0.12787 27:1 
1 1:-0.0834053 2:0.00486156 3:-0.25542 4:0.146146 5:0.517558 6:0.423833 7:-0.200339 8:0.190132 9:-0.205195 10:0.829748 11:-0.444426 12:0.644607 13:0.356216 14:0.498247 15:0.122163 16:-0.0444258 17:0.611848 18:-0.0524603 19:0.157203 20:0.199001 21:-0.0201102 22:0.704928 23:0.713187 24:-0.0699839 25:0.0747545 26:0.227794 27:0.714802 
1 1:0.412493 2:-0.37142 3:0.283931 4:-0.150936 5:-0.165595 6:0.122678 7:-0.176283 8:-0.073432 9:0.813416 10:0.535221 11:-0.336572 12:-0.289098 13:0.134298 14:0.582745 15:0.651486 16:0.905416 17:-0.293105 18:0.0992862 19:-0.343985 20:0.817637 21:-0.156605 22:0.699836 23:0.33329 24:0.126769 25:0.429479 26:0.159086 27:-0.479465 
1 1:0.178405 2:0.0107223 3:0.333221 4:-0.240602 5:0.0618481 6:-0.0157826 7:-0.335224 8:-0.0581797 9:0.319518 10:0.478796 11:-0.0820476 12:-0.249906 13:0.114233 14:0.427221 15:0.204895 16:0.73891 17:0.269449 18:0.290697 19:0.200597 20:-0.29747 21:-0.260048 22:-0.568787 23:0.440476 24:-0.122866 25:0.8384 26:0.0382826 27:-0.00468982 
1 1:0.0231109 2:-0.430626 3:0.162211 4:0.183599 5:0.508987 6:-0.0369284 7:-0.193304 8:0.0800472 9:-0.0256029 10:0.557638 11:-0.162071 12:-0.102599 13:-0.110695 14:0.337821 15:0.274361 16:0.591857 17:-0.146318 18:0.209731 19:0.117999 20:0.290382 21:-0.61376 22:0.321834 23:0.147714 24:-0.260587 25:0.138958 26:0.00193381 27:-0.298043 
1 1:0.369675 2:0.422235 3:-0.723493 4:-0.468321 5:0.499723 6:0.726023 7:0.375342 8:0.139617 9:-0.129904 10:0.180587 11:-0.797551 12:1 13:0.155014 14:0.0183552 15:0.228308 16:-0.69262 17:-0.660555 18:-0.132594 19:-0.098988 20:-1 21:-1 22:0.288087 23:0.328828 24:-0.350032 25:-0.0176689 26:-0.0536289 27:-0.261914 
1 1:-0.0465867 2:-0.00303074 3:0.422451 4:0.591757 5:0.324313 6:0.297464 7:-0.436851 8:0.0601136 9:-0.0858642 10:0.497732 11:-0.25608 12:0.281771 13:0.282215 14:0.163795 15:0.619999 16:0.631349 17:0.267374 18:-0.223761 19:0.736292 20:0.604188 21:-0.304552 22:0.441853 23:0.399665 24:-0.754333 25:0.0335842 26:-0.418809 27:0.394546 
1 1:0.218075 2:-0.461981 3:-0.803335 4:-0.137799 5:0.133173 6:0.360886 7:0.0196922 8:-0.170035 9:-0.00225337 10:0.631677 11:0.110759 12:0.536507 13:0.449507 14:-0.151846 15:0.314267 16:-0.401036 17:0.219605 18:0.397907 19:0.600636 20:-0.189017 21:0.575352 22:0.534978 23:0.0126472 24:-0.642989 25:0.56844 26:-0.304596 27:0.400267 
1 1:0.0562918 2:0.295377 3:0.328594 4:-0.258364 5:0.331354 6:0.314077 7:0.0545955 8:-0.0310884 9:0.365296 10:0.710819 11:-0.528161 12:0.187102 13:0.326109 14:-0.0887016 15:0.165959 16:0.579728 17:0.394363 18:-0.00895008 19:0.450447 20:0.28959 21:-0.394067 22:0.40491 23:0.467738 24:0.590477 25:0.458727 26:-0.24536 27:0.0140026 
1 1:0.689078 2:-0.0947354 3:0.374366 4:-0.0373003 5:-0.091379 6:0.197337 7:0.359796 8:0.10226 9:-0.257443 10:0.488968 11:-0.1558 12:-0.216445 13:-0.133686 14:0.149269 15:0.457946 16:0.819339 17:-0.00046318 18:-0.014669 19:0.53357 20:0.750477 21:-0.198368 22:0.0930294 23:-0.380879 24:-0.64868 25:-0.240958 26:0.206122 27:-0.768516 
1 1:-0.553982 2:-0.169975 3:0.275187 4:0.309499 5:0.363795 6:-0.172614 7:0.615058 8:0.0906959 9:0.93694 10:0.650851 11:-0.812596 12:-0.340044 13:-0.204388 14:0.300144 15:-0.605088 16:0.589899 17:0.219575 18:0.0630059 19:0.435297 20:0.0236607 21:-0.673186 22:-1 23:0.141554 24:-0.00484532 25:0.318445 26:0.417275 27:-0.585748 
1 1:0.29204 2:0.0445464 3:0.262547 4:-0.207961 5:0.346791 6:0.267086 7:-0.234983 8:-0.0723917 9:0.707847 10:0.693651 11:0.0972094 12:0.0252432 13:0.388746 14:0.164335 15:0.290999 16:0.639156 17:0.484334 18:0.334485 19:0.177093 20:-0.19556 21:-0.35558 22:0.830752 23:0.0787387 24:-0.335481 25:0.792413 26:0.0108357 27:-0.0074642 
1 1:0.0961188 2:0.157858 3:0.0385228 4:0.633133 5:0.312663 6:-0.108576 7:-0.280269 8:-0.22804 9:-0.273905 10:0.602925 11:-0.484619 12:0.321033 13:0.108578 14:0.409951 15:0.497268 16:0.712171 17:0.837765 18:0.123716 19:0.897688 20:0.341892 21:-0.294559 22:-0.482281 23:0.172053 24:0.0835642 25:0.0335842 26:0.440678 27:-0.506749 
1 1:0.321553 2:0.20332 3:-0.0420991 4:0.165504 5:0.44837 6:0.0803849 7:-0.444772 8:0.225733 9:0.179925 10:0.56642 11:-0.350018 12:0.0714144 13:-0.280764 14:-0.207902 15:0.451943 16:0.523482 17:0.0840454 18:-0.19913 19:0.313255 20:0.350735 21:0.31611 22:0.124463 23:0.3157 24:-0.221387 25:0.407761 26:0.12787 27:0.285848 
1 1:-0.15584 2:-0.19756 3:-0.176237 4:0.257438 5:-0.0696353 6:0.0509994 7:-0.128858 8:0.257526 9:0.382061 10:0.430502 11:0.0853237 12:0.0704311 13:-0.191379 14:0.265826 15:0.124528 16:0.732372 17:0.0459309 18:-0.151258 19:0.0652731 20:0.320954 21:-0.0170287 22:0.572441 23:0.839348 24:-0.780504 25:-0.602198 26:-0.445654 27:0.112788 
1 1:0.0896729 2:0.975064 3:0.486655 4:-0.041856 5:0.161093 6:0.385409 7:-0.745901 8:0.202346 9:-0.472953 10:-0.0640195 11:-0.247229 12:-0.696975 13:-0.18878 14:-0.430818 15:0.161015 16:0.277077 17:0.144805 18:-0.66706 19:0.471348 20:0.724177 21:0.0622572 22:-0.475294 23:-0.274947 24:-0.533658 25:0.0335842 26:0.12787 27:-0.2946 
1 1:0.627823 2:0.27923 3:0.489451 4:-0.319123 5:0.364203 6:-0.0452512 7:-0.237453 8:-0.0337946 9:0.0169223 10:0.6172 11:-0.244046 12:-0.26383 13:0.134158 14:0.147193 15:0.80425 16:0.821919 17:0.536137 18:0.0279739 19:0.200539 20:0.692851 21:-0.198486 22:0.300212 23:0.147799 24:-0.392362 25:0.411796 26:0.12787 27:-0.406012 
1 1:-0.139658 2:-1 3:-0.510203 4:-0.0111939 5:0.202001 6:-0.814898 7:0.520329 8:-0.4692 9:1 10:-0.578135 11:0.411015 12:-0.21094 13:-1 14:-0.361139 15:-0.279199 16:0.11384 17:-0.206556 18:-0.947904 19:-0.610304 20:-0.212721 21:-0.286867 22:-0.26665 23:-0.173475 24:-0.99772 25:-0.487908 26:-0.342556 27:-0.298043 
0.2119122392238586 1:-0.494134 2:0.102638 3:-0.19084 4:0.676153 5:0.440499 6:0.0704731 7:-0.591242 8:-0.202501 9:-0.0899222 10:0.763269 11:-0.448101 12:0.243474 13:0.421312 14:0.0933154 15:-0.284539 16:0.524145 17:-0.433175 18:0.118068 19:0.0693525 20:-0.208608 21:-0.114895 22:0.567349 23:0.0599784 24:-0.673574 25:0.664654 26:0.094861 27:0.158861 
1 1:0.260351 2:0.157863 3:0.149342 4:0.478261 5:0.635768 6:0.181466 7:-0.183301 8:-0.177675 9:-0.256955 10:0.607275 11:0.220625 12:-0.105857 13:-0.289357 14:-0.333649 15:0.554689 16:-0.592911 17:0.672492 18:0.325704 19:0.327605 20:0.219979 21:-0.0285194 22:0.511937 23:0.0653747 24:-0.0618508 25:0.214996 26:0.377242 27:-0.197297 
1 1:0.180582 2:-0.0255929 3:0.164181 4:0.542626 5:0.288017 6:-0.285906 7:0.156637 8:-0.308301 9:0.0353982 10:0.302262 11:-0.134672 12:0.398661 13:-0.396864 14:0.233692 15:0.113786 16:-0.744905 17:-0.0231807 18:-0.0477591 19:0.0906155 20:-0.431203 21:-0.465204 22:0.207072 23:0.268794 24:-0.199777 25:-0.664423 26:-0.501786 27:-0.485037 
1 1:-0.0293151 2:0.131076 3:0.192267 4:-0.132321 5:0.303655 6:-0.0846651 7:-0.263325 8:0.222307 9:0.607937 10:0.293042 11:-0.0075485 12:0.596611 13:-0.338323 14:0.197519 15:0.456395 16:-0.434507 17:-0.477995 18:-0.00844891 19:0.0856047 20:0.329327 21:-0.286867 22:0.268405 23:0.585282 24:0.166232 25:-0.0982784 26:0.00891948 27:0.264743 
1 1:-0.13602 2:0.195439 3:0.269983 4:0.097024 5:0.249699 6:0.123745 7:0.0554388 8:-0.0511077 9:0.58752 10:0.152141 11:-0.45672 12:-0.129675 13:-0.258608 14:0.0243563 15:-0.0295151 16:0.313658 17:-0.472326 18:-0.0643508 19:0.0545129 20:-0.0859131 21:-0.465936 22:-0.811752 23:0.0314294 24:0.283079 25:0.384425 26:-0.0722019 27:-0.0845239 
1 1:0.389668 2:-0.0413691 3:-0.423042 4:0.14346 5:0.591319 6:-0.163686 7:0.41387 8:0.394655 9:0.551683 10:0.609525 11:-0.603238 12:0.397813 13:0.857542 14:-0.279919 15:0.48121 16:-0.974993 17:0.334034 18:0.0645766 19:0.839629 20:0.218977 21:0.0808528 22:0.467469 23:0.755413 24:0.101041 25:0.727873 26:0.237615 27:0.378587 
1 1:0.394451 2:0.0860709 3:0.403204 4:-0.082937 5:0.29802 6:0.206012 7:0.147709 8:-0.1565 9:-0.33678 10:0.358464 11:-0.337625 12:-0.243787 13:0.0484386 14:0.343351 15:0.491254 16:0.485622 17:0.0157819 18:0.196069 19:0.494472 20:0.138144 21:-0.076377 22:-0.586 23:0.445288 24:1 25:0.765563 26:-0.270365 27:-0.141927 
0.3781139884424856 1:0.44923 2:0.359135 3:0.117153 4:0.908677 5:0.32643 6:0.278154 7:-0.261884 8:0.462614 9:-0.577197 10:0.221942 11:-0.874651 12:-0.58977 13:0.023756 14:0.186221 15:0.203348 16:0.769622 17:0.0572863 18:-0.433464 19:-0.46922 20:0.0327104 21:-0.199915 22:-0.475294 23:0.00357104 24:0.170055 25:-0.816511 26:0.12787 27:-0.304266 
1 1:0.0344883 2:0.494835 3:0.419729 4:-0.177567 5:-0.127825 6:0.16334 7:-0.0750696 8:-0.0791463 9:0.111964 10:-0.0318159 11:-0.366991 12:0.0846372 13:-0.518072 14:-0.0713628 15:0.00403762 16:0.586316 17:0.164748 18:-0.42074 19:0.433946 20:0.238178 21:0.141146 22:-0.475294 23:0.355785 24:-0.210218 25:0.0335842 26:-0.100859 27:-0.756862 
1 1:-0.302668 2:0.0474506 3:-0.183583 4:0.283778 5:0.755518 6:0.342397 7:-0.123049 8:0.0618328 9:-0.593084 10:0.107255 11:-0.0967193 12:0.381786 13:0.3895 14:0.129055 15:0.00529684 16:-0.144122 17:0.0796532 18:-0.585802 19:0.400048 20:-0.0329791 21:-0.25305 22:-0.326724 23:0.262775 24:-0.585245 25:-0.380166 26:0.461837 27:0.283652 
1 1:0.147767 2:0.671278 3:0.0696362 4:-0.0114043 5:0.194321 6:0.434076 7:-0.334463 8:0.257832 9:-0.389607 10:0.751771 11:0.1068 12:0.695198 13:0.555143 14:-0.117294 15:0.486577 16:0.0401538 17:0.53404 18:0.0323561 19:0.696674 20:-0.161839 21:0.340591 22:0.743975 23:0.419839 24:0.11846 25:0.586018 26:0.581393 27:-0.298043 
1 1:0.20724 2:-0.281646 3:-0.0385182 4:-0.648949 5:0.124832 6:0.204558 7:0.272683 8:-0.0381074 9:-0.0490335 10:0.132405 11:-0.849107 12:-0.0674476 13:-0.47341 14:0.137423 15:0.380528 16:0.194064 17:-0.311988 18:-0.146043 19:-0.0046155 20:-0.0280945 21:-0.339144 22:0.27412 23:0.0126472 24:-0.30819 25:-0.0651215 26:0.0388295 27:-0.553499 
1 1:-0.330345 2:-0.314703 3:-0.245838 4:-0.137381 5:0.674099 6:0.0659722 7:-0.129487 8:-0.0487801 9:-0.195355 10:0.576844 11:-0.676355 12:0.34249 13:0.264716 14:-0.0344066 15:-0.050235 16:0.60519 17:-0.545542 18:-0.116252 19:0.658876 20:-0.0620811 21:0.207235 22:-0.0264949 23:0.441824 24:-0.221387 25:0.966495 26:-0.236587 27:-0.321773 
1 1:0.435142 2:0.544753 3:0.0853297 4:-0.113683 5:0.69296 6:0.411571 7:0.223792 8:0.72157 9:-0.439275 10:-0.00489954 11:-0.0923908 12:0.0689709 13:0.0311971 14:-0.366021 15:0.202658 16:-0.0901057 17:-0.572418 18:0.11803 19:0.724237 20:-0.448164 21:0.428704 22:-0.927241 23:0.223811 24:-0.0943887 25:-0.544582 26:-0.719591 27:-0.301118 
1 1:0.634292 2:0.288042 3:0.719715 4:-0.0516523 5:0.303973 6:0.0498325 7:-0.264752 8:0.425768 9:-0.52399 10:-0.344006 11:-0.511952 12:-0.158571 13:-0.250721 14:0.181334 15:0.185537 16:0.361625 17:-0.33526 18:-0.897099 19:0.39056 20:0.540623 21:-0.0682031 22:0.0149815 23:0.131381 24:-0.278322 25:-0.753736 26:0.12787 27:0.0286312 
1 1:0.0747218 2:-0.00940039 3:-0.397647 4:-0.584242 5:0.424032 6:-0.0147114 7:-0.251226 8:0.0585968 9:0.194475 10:0.600741 11:-0.135478 12:0.113693 13:-0.324338 14:0.454521 15:-0.547975 16:0.304689 17:-0.0351506 18:-0.00534612 19:0.253366 20:0.075562 21:0.0765269 22:0.346461 23:0.146816 24:-0.146365 25:-0.242397 26:-0.311731 27:-0.00540609 
1 1:0.452521 2:-0.0243719 3:-0.0292791 4:0.461757 5:0.405617 6:-0.0121385 7:-0.0999038 8:0.170593 9:0.138667 10:0.476285 11:-0.371305 12:0.0464392 13:0.389704 14:0.406113 15:0.238462 16:0.636619 17:0.632943 18:-0.166714 19:0.259116 20:0.405104 21:-0.237743 22:-0.570997 23:-0.0542753 24:-0.294052 25:0.195936 26:0.424057 27:-0.809803 
1 1:0.309446 2:0.161006 3:-0.366083 4:0.327768 5:0.584544 6:0.669773 7:0.206918 8:0.608997 9:0.0689501 10:0.316137 11:0.0933027 12:0.284113 13:0.508319 14:0.318386 15:0.307994 16:0.452081 17:-0.0175566 18:-0.194585 19:0.501842 20:-0.159316 21:-0.00474847 22:0.19846 23:0.634872 24:-0.256532 25:-0.448019 26:0.0193384 27:-0.00222958 
0.5888937512835147 1:-0.0180584 2:-0.242112 3:-0.120446 4:-0.253468 5:0.42804 6:0.340537 7:-0.0779534 8:0.103068 9:0.0969182 10:0.586501 11:0.455621 12:0.14196 13:0.176629 14:0.526233 15:0.313471 16:-0.560451 17:-0.138486 18:-0.0473442 19:0.216099 20:0.2745 21:-0.520188 22:-0.86103 23:0.506452 24:-0.422942 25:0.0335842 26:0.0563852 27:0.301895 
1 1:0.464335 2:-0.133304 3:-0.0197158 4:-0.069436 5:0.358296 6:0.0908038 7:-0.260196 8:0.306156 9:0.176045 10:0.630724 11:-0.52586 12:0.159987 13:-0.179996 14:0.519769 15:0.586252 16:0.0127083 17:-0.406993 18:-0.158894 19:-0.0706933 20:0.315694 21:-0.5758 22:-0.475294 23:0.392284 24:0.0365935 25:-0.150661 26:-0.364244 27:0.0930988 
0.6283260571421004 1:-0.0614936 2:0.34948 3:-0.0433502 4:0.952398 5:-0.177535 6:0.0492804 7:-0.401403 8:-0.196857 9:0.467852 10:0.658758 11:-0.815974 12:0.0804385 13:0.60521 14:-0.0732709 15:-0.0158929 16:0.253681 17:-0.805554 18:0.106677 19:0.0634618 20:-0.0749047 21:-0.62484 22:0.47414 23:0.609908 24:-0.782565 25:0.329379 26:0.467178 27:-0.298043 
1 1:0.568384 2:-0.139615 3:0.574873 4:0.491369 5:-0.587783 6:0.0393163 7:0.316442 8:0.14518 9:0.749163 10:0.368087 11:-0.55887 12:-0.224187 13:0.0648189 14:0.0967157 15:0.449981 16:0.876752 17:0.282589 18:0.01551 19:0.024192 20:0.498739 21:-0.286867 22:-0.093049 23:0.64234 24:0.27648 25:0.0525185 26:0.207735 27:-0.850796 
1 1:0.185865 2:0.223269 3:0.202402 4:-0.0155065 5:0.150558 6:0.389023 7:0.264748 8:-0.418818 9:0.990132 10:0.180402 11:0.0547223 12:-0.0476997 13:-0.0904889 14:-0.18039 15:0.519232 16:-0.150347 17:0.367453 18:-0.12463 19:0.334777 20:0.150926 21:-0.17504 22:0.494106 23:0.321031 24:-0.390122 25:0.518939 26:-0.130938 27:-0.103136 
1 1:-0.111509 2:-0.671348 3:-0.0812729 4:0.209069 5:0.794065 6:0.335431 7:-0.472392 8:-0.236417 9:0.0308099 10:0.222244 11:-0.0824258 12:0.731158 13:-0.0602539 14:0.396061 15:0.271908 16:0.415394 17:-0.528923 18:-0.108289 19:-0.276333 20:-0.172703 21:-0.160554 22:0.413376 23:0.476767 24:-0.221387 25:-0.355474 26:-0.22309 27:-0.298043 
1 1:-0.30421 2:0.378401 3:-0.271378 4:0.201862 5:0.25085 6:0.685429 7:-0.314285 8:0.296361 9:0.320335 10:0.607541 11:-0.122718 12:-0.269228 13:0.423801 14:-0.215685 15:-0.525551 16:0.0530051 17:0.400055 18:0.107537 19:0.47928 20:0.0759904 21:0.477222 22:0.531538 23:-0.21026 24:-0.277564 25:0.480943 26:0.468636 27:-0.132878 
1 1:0.393917 2:0.558562 3:0.37003 4:-0.232408 5:0.0517899 6:0.251695 7:-0.064869 8:0.314776 9:0.471656 10:0.701044 11:0.36791 12:0.0595287 13:0.250944 14:0.287037 15:0.463679 16:0.723056 17:0.432775 18:-0.0279752 19:0.264691 20:0.707422 21:-0.401251 22:0.725257 23:0.301515 24:0.409991 25:0.656504 26:0.33144 27:0.171621 
1 1:0.202619 2:0.253266 3:-0.0449178 4:0.079131 5:-0.163885 6:0.09466 7:0.0129938 8:-0.0189213 9:0.164879 10:0.231317 11:-0.552426 12:0.221467 13:-0.271965 14:0.0868185 15:0.056327 16:0.297459 17:-0.243726 18:-0.0514318 19:0.042862 20:0.682595 21:-0.356925 22:0.12988 23:0.584946 24:-0.439998 25:-0.937581 26:-0.0963735 27:-0.0949171 
1 1:-0.628816 2:-0.000166637 3:-0.527278 4:0.0750515 5:0.235465 6:0.124498 7:0.243201 8:-0.324494 9:-0.231571 10:0.271016 11:-0.454991 12:0.765366 13:-0.200743 14:-0.201749 15:-0.263087 16:0.190675 17:0.0482776 18:-0.723403 19:0.0754422 20:-0.252409 21:-0.642937 22:-0.197444 23:0.224542 24:-0.309034 25:-1 26:-0.152681 27:0.385331 
1 1:0.409895 2:0.096299 3:0.129521 4:-0.124208 5:0.484115 6:0.561858 7:0.0751679 8:-0.211734 9:0.502107 10:0.496819 11:0.487356 12:-0.778848 13:-0.0858728 14:0.212964 15:0.751838 16:0.673458 17:0.745166 18:-0.346703 19:0.704667 20:0.468866 21:0.551955 22:0.388289 23:0.383741 24:-0.221387 25:0.641718 26:0.12787 27:-0.298043 
1 1:0.174478 2:0.0433762 3:-0.022023 4:0.452357 5:0.50815 6:0.0432228 7:0.133704 8:-0.357038 9:-0.029018 10:0.212256 11:0.121229 12:0.0481796 13:-0.599066 14:0.296486 15:0.0340823 16:0.314457 17:-0.284278 18:-0.121441 19:-0.222011 20:-0.0140405 21:0.197792 22:0.206922 23:-0.124058 24:-0.221387 25:0.0335842 26:0.12787 27:-0.391778 
1 1:-0.0372828 2:-0.00522455 3:-0.0719912 4:0.123838 5:0.203151 6:-0.0361887 7:-0.654543 8:-0.404264 9:0.0169255 10:0.2281 11:-0.19306 12:-0.000571394 13:-0.118808 14:0.316037 15:-0.0894349 16:-0.252897 17:0.252489 18:-0.0486989 19:-0.468931 20:0.0546798 21:-0.101252 22:-0.710265 23:0.544627 24:-0.0154736 25:0.117783 26:0.0131783 27:-0.368651 
1 1:0.145233 2:0.215584 3:0.473998 4:-0.984133 5:-0.0432013 6:0.330077 7:0.211236 8:0.0815104 9:0.279106 10:0.463234 11:-0.228542 12:0.384478 13:0.495449 14:-0.250958 15:0.353532 16:0.428414 17:0.216847 18:-0.283297 19:0.306924 20:0.627352 21:-0.699601 22:0.0929375 23:0.137893 24:-0.271251 25:0.629861 26:-0.575101 27:-0.730812 
1 1:0.0782128 2:0.126944 3:0.0494251 4:0.415137 5:0.201977 6:0.332806 7:-0.105921 8:0.812988 9:0.0363723 10:0.575335 11:-0.196384 12:0.198711 13:0.669297 14:-0.308985 15:0.718989 16:0.326595 17:0.356004 18:0.0745208 19:1 20:0.765449 21:0.112174 22:0.66224 23:0.853589 24:0.234008 25:0.471074 26:0.762703 27:0.29342 
1 1:0.536755 2:0.491308 3:0.8092 4:0.247331 5:0.117137 6:0.0131164 7:-0.0100724 8:0.321773 9:-0.241591 10:0.0937444 11:0.377445 12:0.510675 13:0.515336 14:-0.639263 15:0.672135 16:0.763499 17:0.343482 18:-0.651661 19:0.467712 20:0.630963 21:0.0110053 22:-0.6322 23:-0.544129 24:-0.825938 25:-0.653862 26:-0.492259 27:-0.679812 
1 1:0.0503288 2:0.220588 3:0.0945268 4:0.302397 5:0.207843 6:0.34977 7:0.695265 8:-0.275044 9:0.611843 10:-0.0290622 11:-0.133387 12:-0.419369 13:0.0318148 14:0.123961 15:0.173266 16:0.706207 17:0.309242 18:-0.0776853 19:0.229168 20:-0.185571 21:-0.53754 22:0.599153 23:-0.6633 24:-0.63761 25:-0.0784213 26:-0.299079 27:-0.298043 
0.9845207944948516 1:0.362163 2:-0.0509826 3:-0.215222 4:-0.181254 5:0.378926 6:0.287858 7:0.000898474 8:0.420084 9:0.00128012 10:0.503073 11:0.00661311 12:-0.215152 13:0.347605 14:-0.00412489 15:0.392087 16:0.777351 17:0.03801 18:-0.000282923 19:0.426597 20:0.430948 21:-0.149225 22:-0.580033 23:0.223129 24:-0.54472 25:0.238547 26:0.12787 27:0.0873761 
1 1:-0.274899 2:-0.839055 3:-0.507559 4:0.28959 5:0.072571 6:-0.399644 7:0.0852113 8:-0.678964 9:0.525424 10:0.605244 11:-0.642485 12:0.461878 13:-0.0905454 14:0.416032 15:0.0630917 16:0.615563 17:-0.387291 18:0.0969161 19:-0.130401 20:0.0762647 21:-0.158964 22:0.157785 23:0.358809 24:-0.900978 25:-0.166561 26:-0.243322 27:-0.409192 
1 1:0.328652 2:-0.0885456 3:0.0220847 4:0.180076 5:0.4013 6:-0.0448063 7:-0.209649 8:-0.217911 9:0.221771 10:0.592474 11:0.060013 12:0.0676963 13:-0.20391 14:0.457232 15:0.249462 16:0.518285 17:0.0388295 18:0.160598 19:0.569947 20:0.721177 21:-0.043676 22:0.570702 23:0.49063 24:-0.391828 25:0.0335842 26:-0.372874 27:-0.140443 
1 1:-0.335791 2:0.288122 3:-0.00311223 4:0.698606 5:0.187924 6:-0.187411 7:-0.215017 8:0.246346 9:0.1273 10:0.183308 11:-0.445313 12:-0.0375782 13:0.0271719 14:0.306102 15:0.388984 16:0.577759 17:0.403645 18:-0.0133099 19:0.582967 20:0.525881 21:0.143133 22:0.190758 23:0.0849738 24:0.0430022 25:0.0335842 26:0.208425 27:-0.44909 
1 1:-0.156961 2:-0.29405 3:0.279776 4:0.0586299 5:0.171952 6:0.0765404 7:-0.214059 8:-0.443131 9:0.39243 10:0.653906 11:-0.398699 12:-0.274313 13:-0.438471 14:0.572206 15:0.17986 16:0.499176 17:0.0950031 18:0.229457 19:0.115196 20:0.371886 21:-0.195398 22:0.648269 23:-0.234295 24:-0.489519 25:0.381665 26:-0.147171 27:-0.349999 
1 1:-0.483787 2:-0.789693 3:-0.269983 4:0.61874 5:0.257144 6:-0.598359 7:0.426127 8:-0.437361 9:0.68612 10:0.433852 11:-0.380707 12:-0.332613 13:-0.284535 14:-0.0527119 15:-0.224801 16:1 17:-0.324382 18:0.223776 19:0.509912 20:-0.184366 21:-0.536406 22:0.0492273 23:0.310482 24:-0.221387 25:-0.437571 26:0.12787 27:-0.559696 
1 1:0.350183 2:-0.31772 3:-0.155511 4:-0.391873 5:1 6:0.0653625 7:-0.206753 8:0.362329 9:0.385116 10:0.449328 11:-0.224352 12:-0.299712 13:-0.231238 14:1 15:-0.0632306 16:0.534821 17:-0.186352 18:-0.031337 19:-0.249082 20:-0.014832 21:-0.839127 22:0.0368774 23:0.793487 24:0.211295 25:0.24072 26:0.102203 27:-0.313844 
1 1:0.189413 2:-0.134083 3:-0.188529 4:-0.030203 5:0.426961 6:0.0460745 7:0.0240738 8:0.264834 9:0.301629 10:0.0841054 11:0.126318 12:-0.458199 13:-0.0430883 14:0.129062 15:0.257191 16:0.450252 17:-0.464315 18:-0.194177 19:0.258377 20:0.563283 21:-0.350182 22:0.0902873 23:-0.376791 24:-0.644241 25:0.125379 26:-0.30588 27:-0.163792 
0.6513007616569886 1:0.800877 2:0.335452 3:0.327059 4:0.210689 5:0.372465 6:0.320115 7:-0.432983 8:0.476402 9:0.177721 10:0.139882 11:-0.113492 12:-0.203532 13:0.273902 14:0.16069 15:0.865692 16:0.720859 17:-0.0664971 18:0.25845 19:0.336773 20:-0.0618431 21:0.157733 22:-0.635971 23:0.824944 24:0.306195 25:0.483559 26:-0.499332 27:0.459571 
1 1:-0.182748 2:-0.277777 3:0.00871031 4:0.0675262 5:0.631001 6:0.248666 7:0.0754546 8:-0.144137 9:0.224084 10:0.348325 11:-0.496186 12:-0.291511 13:0.295845 14:0.105586 15:0.247716 16:0.578265 17:0.0269152 18:0.057697 19:0.580391 20:-0.427554 21:-0.461773 22:0.576539 23:0.330411 24:-0.511805 25:0.425923 26:0.12787 27:-0.48144 
1 1:-0.297518 2:0.164145 3:0.0454912 4:-0.167833 5:0.08697 6:0.321233 7:0.02906 8:0.357725 9:0.138268 10:-0.0502783 11:0.0669236 12:0.0395967 13:-0.095832 14:-0.248634 15:-0.161748 16:0.601224 17:0.114129 18:-0.148367 19:0.342152 20:0.408649 21:0.167339 22:0.049842 23:-0.435996 24:-0.288518 25:-0.520351 26:0.0590081 27:0.508806 
1 1:0.105429 2:0.201762 3:-0.110606 4:-0.227505 5:0.511804 6:0.385222 7:0.254285 8:-0.0366424 9:0.561719 10:0.624913 11:-0.703135 12:0.392781 13:0.25133 14:-0.143396 15:0.205461 16:0.0894152 17:-0.296691 18:0.177372 19:-0.346479 20:0.347491 21:-0.286867 22:0.510506 23:0.0126472 24:-0.193795 25:0.0649598 26:-0.169738 27:-0.280618 
1 1:0.114789 2:0.0978791 3:-0.0675367 4:0.64526 5:0.416478 6:0.0487246 7:-0.0223822 8:0.294859 9:0.201939 10:0.295128 11:-0.78521 12:-0.644385 13:0.263285 14:0.254159 15:0.0580097 16:0.310203 17:-0.109401 18:-0.371631 19:0.136287 20:0.547205 21:0.331516 22:0.129483 23:-0.504798 24:-0.465507 25:0.11728 26:0.0681043 27:-0.652843 
1 1:-0.224983 2:0.277376 3:0.0266118 4:0.582714 5:0.283392 6:0.199215 7:-0.353511 8:0.329705 9:0.823666 10:-0.00573216 11:-0.5639 12:0.0849119 13:0.253335 14:-0.0697011 15:-0.58647 16:-0.644571 17:-0.263093 18:-0.478077 19:0.0914593 20:-0.0342313 21:-0.203895 22:-0.0136622 23:0.0126472 24:-0.5872 25:0.0335842 26:0.595097 27:0.27351 
0.6775259222756923 1:0.275556 2:-0.155889 3:0.34857 4:0.5289 5:0.120049 6:0.223726 7:0.264726 8:0.230271 9:0.421253 10:0.720805 11:-0.0669514 12:0.00951681 13:0.0968041 14:0.469804 15:0.119011 16:0.904244 17:0.281544 18:-0.00174861 19:0.223553 20:0.272933 21:-0.732741 22:0.407517 23:0.343098 24:-0.961725 25:0.39191 26:0.283402 27:-0.447554 
1 1:0.275485 2:0.195027 3:-0.0918042 4:0.0623252 5:0.0629448 6:-0.194583 7:0.146004 8:0.3321 9:-0.00657007 10:0.682083 11:-0.604155 12:-0.647219 13:0.283545 14:-0.0331593 15:0.0657328 16:0.358185 17:0.189352 18:-0.141463 19:0.74687 20:0.26922 21:-0.165333 22:0.683749 23:-0.557903 24:0.112278 25:0.666063 26:-0.5076 27:-0.223384 
1 1:0.147319 2:0.234316 3:0.0456473 4:-0.135961 5:0.451264 6:0.753713 7:-0.202131 8:-0.152254 9:0.0571432 10:0.236201 11:-0.0900952 12:0.428391 13:-0.452111 14:-0.201061 15:0.604952 16:-0.61297 17:-0.190166 18:0.218142 19:0.0417372 20:0.0336908 21:-0.245763 22:-0.667719 23:0.0755036 24:0.248159 25:0.286572 26:0.197878 27:0.603392 
1 1:-0.210571 2:-0.00670051 3:0.16818 4:-0.755803 5:0.466203 6:0.0233799 7:-0.515321 8:-0.342733 9:-0.517412 10:0.328984 11:-0.173326 12:0.247002 13:-0.760263 14:-0.261045 15:-0.117473 16:-0.82332 17:-0.185154 18:-0.52041 19:-0.0796586 20:0.309157 21:-0.328995 22:0.196871 23:0.0251932 24:-0.137105 25:0.410365 26:-0.700624 27:-0.141575 
1 1:-0.0824743 2:0.180075 3:0.239071 4:0.125425 5:0.310291 6:0.19419 7:-0.0437451 8:0.474849 9:0.223193 10:0.739252 11:-0.572997 12:0.147653 13:-0.0416456 14:0.129628 15:0.2676 16:0.648074 17:-0.155089 18:-0.0460007 19:0.473449 20:-0.152036 21:-0.202724 22:0.208043 23:0.879753 24:0.290039 25:0.192453 26:-0.0547293 27:-0.298043 
1 1:0.0896673 2:-0.127538 3:-0.37114 4:-0.0806607 5:0.609545 6:-0.186678 7:-0.0680111 8:-0.169315 9:0.566766 10:0.163776 11:-0.408341 12:-0.229858 13:-0.100154 14:0.186849 15:-0.000857493 16:0.484149 17:-0.70982 18:-0.295335 19:0.141389 20:0.266831 21:-0.36879 22:0.142368 23:0.135506 24:-0.0879855 25:-0.237405 26:-0.116583 27:-0.849815 
1 1:0.415646 2:0.00491406 3:0.220313 4:-0.48275 5:0.289471 6:0.200649 7:-0.085891 8:0.0429648 9:0.135375 10:0.534291 11:0.0750994 12:-0.400442 13:-0.181396 14:-0.0636563 15:0.53981 16:0.601608 17:-0.135058 18:0.168786 19:0.603214 20:0.603599 21:-0.496457 22:0.481444 23:0.569988 24:0.251909 25:0.571778 26:0.527635 27:-0.116527 
1 1:0.489496 2:0.302052 3:-1 4:-0.0917052 5:0.431521 6:0.127023 7:0.70795 8:0.457747 9:-0.0786695 10:0.442938 11:0.0332781 12:-0.568534 13:0.648047 14:0.236972 15:0.298935 16:0.337204 17:0.062349 18:0.116313 19:0.617554 20:-0.499247 21:-0.417247 22:0.0739255 23:-0.0652846 24:0.551989 25:-0.062638 26:-0.0941946 27:-0.75276 
1 1:0.0968086 2:-0.214535 3:0.0431344 4:0.638574 5:0.499132 6:0.129591 7:0.157109 8:-0.266448 9:0.201122 10:0.37808 11:-0.346676 12:0.261131 13:-0.0430927 14:0.154781 15:0.47132 16:0.092941 17:-0.107115 18:-0.0323117 19:0.0322378 20:-0.204738 21:-0.252276 22:0.357169 23:0.821945 24:-0.00971944 25:0.0335842 26:0.733686 27:-0.208997 
1 1:-0.140642 2:0.112303 3:-0.229196 4:0.240944 5:0.208883 6:-0.0143443 7:-0.250722 8:0.0790364 9:0.453001 10:0.807157 11:-0.464875 12:0.659458 13:0.661963 14:0.395729 15:0.201274 16:0.632135 17:0.169407 18:0.223851 19:0.400405 20:-0.0327185 21:-0.140871 22:0.137985 23:0.947826 24:0.104599 25:0.309237 26:0.376529 27:-0.292825 
1 1:0.447264 2:0.267153 3:-0.059638 4:-0.0702405 5:0.567635 6:0.0828361 7:-0.401979 8:0.306127 9:0.731989 10:0.378388 11:-0.848214 12:0.106634 13:-0.452479 14:0.899258 15:0.479536 16:0.411942 17:-0.50534 18:0.269674 19:-0.0492484 20:-0.329676 21:-0.561097 22:-0.236443 23:1 24:0.866771 25:0.449731 26:-0.339201 27:-0.585585 
1 1:-0.231611 2:0.010596 3:0.0654371 4:0.561856 5:0.293 6:0.21275 7:-0.562516 8:-0.0281869 9:0.622824 10:1 11:-0.489841 12:0.41808 13:0.14073 14:0.460857 15:0.103651 16:0.509987 17:0.428959 18:0.114087 19:0.0300004 20:0.235247 21:-0.282895 22:0.559117 23:0.567219 24:-0.221387 25:-0.170259 26:0.134633 27:-0.146014 
1 1:-0.155763 2:-0.0908624 3:0.22461 4:0.857333 5:0.580169 6:0.052481 7:-0.0504637 8:-0.517466 9:0.0742656 10:-0.338897 11:-0.734391 12:0.269749 13:-0.49528 14:0.0061603 15:0.114959 16:0.515844 17:-0.732811 18:-0.510611 19:-0.25468 20:-0.210445 21:-0.701946 22:0.157043 23:0.134306 24:0.0965675 25:-0.750125 26:0.12787 27:-0.298043 
1 1:0.130122 2:0.0407001 3:0.0611777 4:-0.224975 5:0.41458 6:0.457065 7:0.570654 8:0.0356363 9:0.24121 10:0.519581 11:0.120889 12:0.188207 13:-0.320735 14:0.611879 15:0.116302 16:0.600701 17:-0.783927 18:-0.101187 19:0.37724 20:0.157381 21:-0.39066 22:0.135894 23:0.211617 24:-0.393727 25:0.0335842 26:-0.0489124 27:-0.0307808 
1 1:0.2622 2:0.256566 3:0.34062 4:0.326064 5:0.295783 6:0.168182 7:-0.27734 8:0.435611 9:0.0359508 10:0.595271 11:-0.148821 12:0.257816 13:0.0690821 14:0.292679 15:0.575518 16:0.555082 17:0.253611 18:0.00750584 19:0.205865 20:0.455207 21:-0.162319 22:0.653094 23:0.617169 24:-0.332309 25:0.34909 26:-0.176557 27:0.134013 
1 1:-0.149726 2:-0.305331 3:0.0425909 4:-0.020498 5:0.303122 6:0.221925 7:-0.438942 8:-0.237618 9:0.0707498 10:0.52999 11:0.160746 12:0.126867 13:0.203232 14:0.230509 15:0.067346 16:-0.436126 17:-0.180133 18:0.0588457 19:-0.0916248 20:0.242297 21:-0.3266 22:0.365367 23:0.0126472 24:0.21622 25:0.0335842 26:0.386106 27:0.956317 
1 1:-0.0601846 2:0.103369 3:0.00804919 4:0.0787528 5:0.35039 6:0.438437 7:0.218885 8:-0.196967 9:0.805755 10:0.280832 11:-0.463311 12:0.433889 13:-0.859811 14:-0.190538 15:0.0199196 16:-0.691049 17:-0.321632 18:-0.066559 19:-0.132159 20:0.063467 21:-0.0758648 22:0.242684 23:0.104586 24:-0.585255 25:0.272801 26:0.434952 27:-0.262591 
1 1:0.163819 2:-0.0944317 3:-0.532999 4:0.0986434 5:0.351116 6:0.0604183 7:0.039743 8:0.291274 9:-0.271066 10:0.662569 11:-0.57619 12:-0.225122 13:0.365859 14:0.466233 15:0.461701 16:0.256909 17:0.143041 18:0.260252 19:0.206225 20:0.31411 21:-0.00323589 22:0.567192 23:0.446377 24:-0.200032 25:0.630498 26:0.38996 27:-0.136692 
1 1:1 2:0.100961 3:0.452115 4:-0.370684 5:0.18341 6:0.253141 7:0.130623 8:0.448908 9:-0.449515 10:0.668812 11:-0.0180974 12:-0.266556 13:-0.0194792 14:0.18573 15:0.919639 16:0.254413 17:-0.150663 18:0.0258362 19:0.0341782 20:0.441811 21:0.102671 22:0.246214 23:0.608331 24:-0.0781704 25:0.196438 26:0.274776 27:-0.207603 
0.4578582727240987 1:0.248501 2:0.233527 3:-0.281019 4:0.237848 5:-0.0351588 6:0.0136369 7:-0.180636 8:0.565942 9:0.545649 10:0.915582 11:-0.253414 12:-0.454508 13:0.402395 14:0.387004 15:0.412007 16:0.680355 17:0.528628 18:1 19:0.704929 20:-0.102288 21:-0.235368 22:0.733644 23:0.639899 24:0.181847 25:0.933746 26:-0.300974 27:-0.244044 
1 1:0.342932 2:0.20415 3:0.553103 4:0.0922256 5:-0.19106 6:0.331944 7:-0.0794908 8:0.22554 9:0.0769521 10:0.452855 11:-0.619663 12:0.213636 13:0.214025 14:-0.030625 15:0.500994 16:0.534765 17:0.0475112 18:-0.090624 19:-0.0336688 20:0.500304 21:-0.135197 22:0.324214 23:0.863602 24:-0.65899 25:0.258557 26:0.00490279 27:0.178996 
1 1:-0.216445 2:-0.28168 3:-0.194052 4:0.119853 5:0.367896 6:-0.216952 7:0.126397 8:-0.292843 9:0.31936 10:0.493415 11:-0.383939 12:0.282019 13:0.191313 14:0.580586 15:-0.240918 16:0.317261 17:-0.0213207 18:-0.0832818 19:-0.101188 20:0.546617 21:-0.484775 22:0.470471 23:0.173789 24:-0.232274 25:-0.128745 26:0.116702 27:-0.0120973 
1 1:0.281641 2:-0.0717718 3:0.426917 4:-0.0298587 5:0.127177 6:-0.0335775 7:0.252327 8:0.618082 9:-0.218866 10:0.476508 11:-0.0822446 12:0.296685 13:-0.290573 14:0.0256766 15:0.554403 16:-0.256036 17:-0.446948 18:-0.261291 19:0.502123 20:0.366054 21:0.623352 22:-0.00386078 23:-0.242681 24:0.190814 25:-0.642955 26:0.926142 27:-0.355748 
1 1:0.572887 2:0.70571 3:0.64737 4:-0.0511449 5:0.332927 6:0.342312 7:-0.53513 8:0.10049 9:-0.127052 10:0.41888 11:0.0908316 12:0.415232 13:0.0446195 14:-0.460524 15:0.6903 16:0.400045 17:-0.00802547 18:-0.22411 19:0.412476 20:0.659062 21:-0.287084 22:0.203554 23:0.731984 24:-0.539471 25:-0.328115 26:0.12787 27:0.368242 
1 1:0.271497 2:0.199751 3:0.186619 4:0.294944 5:-0.152816 6:-0.605161 7:-0.226311 8:-0.239137 9:-0.0265922 10:0.0931124 11:-0.561425 12:-0.536855 13:-0.474396 14:0.238043 15:0.176172 16:-0.145448 17:-0.334685 18:-0.193962 19:-0.18366 20:0.605527 21:-0.54132 22:0.212223 23:0.379937 24:-0.140305 25:-0.0855579 26:0.53695 27:-0.564848 
1 1:0.162142 2:-0.0937206 3:-0.238169 4:-0.115665 5:0.316069 6:-0.00514152 7:-0.310406 8:-0.672165 9:0.828349 10:0.437696 11:-0.519595 12:0.0418024 13:0.151521 14:0.138716 15:0.290979 16:-0.337045 17:-0.140622 18:0.509103 19:0.320253 20:-0.0791805 21:0.527743 22:0.746634 23:0.323037 24:-0.387943 25:0.205479 26:0.147666 27:-0.0405942 
1 1:-0.261751 2:0.0318778 3:-0.295904 4:0.0296625 5:0.48362 6:-0.352304 7:-0.226099 8:-0.142247 9:0.40981 10:-0.0268879 11:0.0860081 12:-0.435369 13:-0.203222 14:0.0226508 15:-0.165455 16:0.0960737 17:0.153875 18:-0.296051 19:0.172579 20:-0.114385 21:-0.286867 22:-0.475294 23:0.0126472 24:-0.154764 25:0.0335842 26:0.12787 27:-0.298043 
1 1:0.477299 2:0.339234 3:0.323034 4:-0.903209 5:0.329607 6:0.0992241 7:-0.125769 8:-0.280043 9:-0.392256 10:0.524921 11:-0.311131 12:0.187504 13:0.178339 14:0.133983 15:0.469411 16:-0.495658 17:-0.785079 18:0.0366841 19:0.47763 20:0.204515 21:-0.00850615 22:-0.67174 23:-0.0254675 24:-0.580496 25:-0.0134756 26:0.12787 27:-0.298043 
1 1:0.0891547 2:0.149427 3:0.284127 4:0.0802877 5:0.393593 6:0.224821 7:-0.428659 8:-0.329966 9:0.213672 10:0.674328 11:-0.309278 12:0.323258 13:-0.245146 14:0.283513 15:0.438099 16:0.675274 17:-0.00920312 18:0.19563 19:0.0167323 20:0.218974 21:-0.212575 22:0.669164 23:0.341903 24:-0.283887 25:0.535144 26:-0.262152 27:-0.337511 
1 1:0.136335 2:0.286467 3:-0.0484243 4:-0.188603 5:0.130924 6:0.0634164 7:-0.230735 8:0.187684 9:0.621524 10:0.533537 11:0.233016 12:-0.210489 13:-0.0701205 14:-0.165773 15:0.51315 16:0.428697 17:0.215768 18:0.0321347 19:-0.31657 20:0.347541 21:-0.137809 22:0.370526 23:0.598278 24:0.260262 25:0.464967 26:0.191099 27:-0.259117 
1 1:-0.265245 2:1 3:-0.589415 4:-0.781309 5:0.505315 6:0.186614 7:-0.815801 8:0.47299 9:-0.51085 10:0.648195 11:-0.0165811 12:0.0760418 13:-0.330741 14:0.135409 15:0.0160839 16:-0.0098913 17:0.334194 18:0.0189858 19:0.534662 20:-0.376433 21:1 22:0.390436 23:0.575082 24:0.0715838 25:0.271695 26:0.12787 27:-0.431041 
1 1:-0.181082 2:-0.152359 3:-0.0795647 4:0.0670267 5:0.205956 6:0.0497725 7:-0.371782 8:-0.270666 9:0.0928297 10:0.218729 11:-0.173936 12:-0.1133 13:-0.238456 14:0.0296572 15:0.195983 16:0.594681 17:-0.187791 18:-0.249585 19:0.368245 20:0.368141 21:-0.218318 22:0.599787 23:-0.130666 24:-0.611148 25:-0.259671 26:-0.271936 27:0.402611 
1 1:0.135223 2:-0.580982 3:0.0747565 4:0.105331 5:0.531664 6:-0.421604 7:-0.374347 8:-1 9:0.290877 10:0.344101 11:-0.772585 12:0.26681 13:-0.325422 14:0.349314 15:0.213117 16:0.229123 17:-0.315005 18:-0.165392 19:-0.638308 20:-0.0296248 21:-0.470334 22:0.127377 23:0.31732 24:0.163418 25:-0.674109 26:0.12787 27:-0.172409 
1 1:0.514385 2:0.496773 3:0.784005 4:-0.814832 5:-0.10012 6:-0.12656 7:-0.203147 8:0.0357921 9:0.00204939 10:-0.0128728 11:-0.274136 12:0.358915 13:0.117061 14:0.0273953 15:0.582879 16:-0.723706 17:0.292389 18:-0.330715 19:0.723786 20:0.328076 21:-0.498901 22:0.201148 23:0.0460944 24:0.379719 25:-0.578098 26:0.092642 27:0.0428985 
1 1:0.0942899 2:0.0956851 3:0.22015 4:-0.339054 5:0.448251 6:0.337694 7:0.105481 8:0.0188167 9:0.269379 10:0.790924 11:-0.644196 12:0.444611 13:0.542508 14:0.414964 15:0.339578 16:-0.801545 17:0.19486 18:0.447637 19:-0.167855 20:-0.416165 21:-0.339131 22:0.48956 23:0.481223 24:0.287395 25:0.773792 26:0.0388517 27:-0.670852 
1 1:0.0721353 2:-0.0928526 3:0.0462987 4:-0.417061 5:0.559165 6:-0.000383865 7:0.0762608 8:0.297445 9:0.223304 10:0.143451 11:-0.257179 12:-0.433771 13:0.500207 14:0.456848 15:0.0863023 16:0.564642 17:-0.646054 18:-0.102515 19:-0.473633 20:0.0512515 21:-0.0115887 22:-0.0700309 23:-0.0952567 24:0.296898 25:0.622936 26:0.12787 27:-0.298043 
1 1:-0.0642391 2:0.315098 3:-0.390101 4:0.234088 5:0.546775 6:0.160832 7:-0.453738 8:0.517753 9:-0.330127 10:0.476962 11:-0.0226011 12:-0.355544 13:1 14:-0.243748 15:0.418596 16:-0.315398 17:0.567233 18:0.107841 19:0.623335 20:0.800978 21:0.315259 22:0.199715 23:0.0126472 24:-0.145194 25:-0.241065 26:0.396671 27:-0.13256 
1 1:0.0600506 2:0.440988 3:0.386207 4:0.0424293 5:0.442062 6:-0.355146 7:-0.10369 8:0.0928582 9:0.0728656 10:0.263729 11:-0.433445 12:0.118188 13:0.00507844 14:-0.184924 15:0.121566 16:0.388269 17:0.23881 18:-0.360015 19:0.0797372 20:0.723811 21:-0.0148884 22:0.110242 23:0.286514 24:-0.661752 25:0.371725 26:0.00206778 27:-0.57613 
1 1:0.235132 2:-0.214519 3:0.0768883 4:-0.475453 5:-0.227163 6:-1 7:0.0635851 8:0.349835 9:0.2108 10:0.115004 11:-0.510319 12:-0.283559 13:-0.169484 14:0.417994 15:0.187187 16:0.753454 17:-0.024672 18:0.0648594 19:0.365864 20:0.760028 21:-0.140533 22:0.824606 23:0.301497 24:-0.164269 25:0.671165 26:-0.465361 27:-0.298043 
1 1:0.0810588 2:-0.345396 3:0.0137834 4:-0.197289 5:0.308892 6:-0.205682 7:0.0385721 8:0.0650499 9:-0.0117032 10:0.374393 11:-0.504374 12:-0.0766026 13:-0.206574 14:0.317539 15:0.17836 16:0.642666 17:-0.49476 18:-0.0833826 19:0.269431 20:0.399109 21:-0.444119 22:0.106634 23:0.667257 24:-0.24834 25:-0.113374 26:0.321213 27:-0.298043 
1 1:-0.136538 2:0.192336 3:-0.144231 4:-0.500861 5:-0.675813 6:-0.1083 7:0.0297229 8:-0.0131906 9:-0.348188 10:0.160989 11:-0.406607 12:-0.355895 13:-0.18315 14:0.371134 15:-0.2036 16:0.425306 17:-0.0784593 18:-0.319762 19:-0.183352 20:0.150787 21:-0.956326 22:-0.0652148 23:0.364328 24:-0.123284 25:0.181099 26:0.372087 27:-1 
1 1:0.247555 2:0.481836 3:-0.193689 4:0.363337 5:0.385713 6:0.409699 7:0.101959 8:-0.0289109 9:0.195616 10:0.234221 11:-0.181129 12:0.613825 13:-0.136335 14:0.336756 15:0.255553 16:0.187465 17:-0.23171 18:-0.179339 19:0.2569 20:-0.0661451 21:-0.447349 22:0.272228 23:0.63168 24:0.450763 25:0.0222667 26:0.506356 27:-0.666956 
1 1:0.390325 2:0.489592 3:0.420709 4:0.60534 5:-0.144199 6:0.143075 7:0.186151 8:0.273746 9:-0.629684 10:0.362194 11:-0.363399 12:-0.277994 13:-0.0418157 14:0.261857 15:-0.0971269 16:0.698342 17:-0.0620509 18:-0.0822413 19:0.40474 20:0.0216346 21:-0.292388 22:0.0635824 23:-0.581027 24:-0.230555 25:0.0335842 26:0.444376 27:-0.705112 
1 1:0.0462322 2:0.512173 3:0.327894 4:0.177345 5:0.43556 6:0.309011 7:-0.691931 8:-0.173671 9:0.446156 10:0.992516 11:-0.555815 12:-0.102204 13:0.0969178 14:0.322039 15:0.339954 16:0.803825 17:0.247503 18:-0.132128 19:0.221262 20:0.105683 21:-0.263696 22:0.419446 23:0.296217 24:-0.285198 25:0.438622 26:0.388325 27:-0.73962 
1 1:0.233336 2:0.306283 3:-0.134102 4:0.128961 5:0.583875 6:0.175131 7:-0.192178 8:0.67566 9:-0.0554915 10:0.512124 11:0.0176068 12:0.158302 13:0.38037 14:0.29709 15:0.114034 16:-0.0102693 17:0.138793 18:-0.0604177 19:0.251292 20:0.00853131 21:-0.0738519 22:0.441789 23:0.61304 24:0.0487346 25:0.585725 26:0.164766 27:-0.298043 
1 1:-0.199049 2:-0.0487815 3:-0.224637 4:0.228869 5:0.388858 6:-0.0453013 7:-0.0614556 8:-0.373293 9:0.904092 10:0.638061 11:-0.400984 12:-0.164045 13:0.0423731 14:0.191997 15:0.00227089 16:0.591663 17:0.0538796 18:-0.188118 19:0.260045 20:0.498276 21:-0.619809 22:0.573604 23:0.453906 24:-0.588353 25:-0.117442 26:0.149838 27:-0.381915 
1 1:-1 2:0.118092 3:0.311159 4:0.753109 5:-0.128478 6:-0.31477 7:-0.825761 8:-0.0338672 9:0.241471 10:0.484549 11:-0.281717 12:-0.656695 13:0.178498 14:0.154952 15:-0.611907 16:0.409929 17:-0.258728 18:-0.138425 19:0.401366 20:0.423752 21:-0.443497 22:-0.475294 23:0.0126472 24:-0.221387 25:0.0335842 26:-0.138904 27:0.0563706 
1 1:0.441503 2:-0.08249 3:0.387617 4:0.693703 5:0.325197 6:0.453715 7:0.00755042 8:0.142992 9:0.640776 10:0.665728 11:0.659582 12:0.571933 13:0.392387 14:0.34096 15:0.682127 16:0.440604 17:0.53453 18:-0.328134 19:0.126011 20:0.239742 21:-0.199252 22:0.14091 23:0.240829 24:-0.711357 25:-0.52357 26:0.467741 27:-0.141583 
1 1:0.382071 2:-0.223621 3:0.0590738 4:-0.228173 5:0.234432 6:0.0889419 7:0.112871 8:0.217778 9:0.0464362 10:0.205442 11:-0.234151 12:-0.139632 13:0.156947 14:-0.254015 15:0.388611 16:0.34527 17:-0.399382 18:0.0191323 19:0.268504 20:0.165681 21:-0.207285 22:0.346075 23:0.199419 24:-0.592828 25:0.0888103 26:-0.0624972 27:0.00921178 
1 1:-0.24014 2:0.15824 3:-0.31627 4:0.685397 5:0.449731 6:0.114486 7:-0.117713 8:0.234626 9:-0.390761 10:0.153953 11:-0.151591 12:-0.308278 13:-0.0778339 14:0.157074 15:-0.263719 16:-0.303413 17:-0.089767 18:-0.220517 19:0.487894 20:0.326314 21:-0.586792 22:-0.0950948 23:-0.274833 24:-0.299382 25:0.0399263 26:0.0478644 27:-0.495162 
1 1:-0.023669 2:-0.137419 3:0.19223 4:-0.172867 5:0.266286 6:-0.173246 7:-0.461611 8:-0.668164 9:-0.191256 10:0.146705 11:-0.340046 12:-0.436817 13:-0.218917 14:0.112273 15:-0.387061 16:0.470844 17:0.230313 18:-0.129042 19:-0.233044 20:0.127899 21:-0.192475 22:0.168269 23:0.0126472 24:-0.221387 25:0.0335842 26:0.12787 27:-0.298043 
1 1:0.109015 2:0.229636 3:-0.484434 4:-0.297976 5:0.915491 6:0.474327 7:0.076613 8:0.245396 9:-0.142958 10:0.207211 11:-0.532202 12:0.573383 13:-0.0742923 14:0.402779 15:0.0928381 16:-0.696422 17:0.239551 18:-0.250761 19:0.363197 20:-0.113383 21:-0.469667 22:0.344574 23:-0.0187545 24:-0.627197 25:-0.789159 26:-0.614307 27:0.793528 
1 1:-0.225491 2:0.0594233 3:0.105652 4:0.0598663 5:0.424065 6:-0.278418 7:-0.279919 8:-0.611754 9:0.108859 10:-0.62787 11:-0.707708 12:0.73463 13:-0.420086 14:-0.0674408 15:-0.268169 16:-0.0796435 17:-0.435816 18:-0.782228 19:-0.148359 20:-0.306401 21:-0.539213 22:-0.346653 23:0.135021 24:-0.362548 25:-0.654211 26:-0.111283 27:-0.680006 
1 1:-0.0403436 2:-0.418868 3:-0.70713 4:-0.0132207 5:0.571996 6:0.198723 7:-0.0968023 8:-0.224709 9:0.699063 10:0.164665 11:-0.705914 12:0.309062 13:0.333699 14:-0.101349 15:-0.0539287 16:-0.76734 17:-0.56354 18:-0.0743002 19:0.026106 20:-0.14605 21:-0.188332 22:0.093026 23:0.505667 24:-0.639235 25:0.1114 26:-0.251208 27:-0.732054 
1 1:-0.0851833 2:0.203706 3:0.226744 4:-0.411144 5:0.365625 6:-0.0143437 7:-0.095371 8:0.380422 9:0.868812 10:0.328305 11:-0.212958 12:-0.0520181 13:0.201105 14:0.226645 15:-0.059396 16:0.923992 17:-0.0131062 18:-0.112648 19:0.408943 20:0.145251 21:-0.65175 22:0.689291 23:-0.25272 24:-0.323668 25:-0.294062 26:0.0229538 27:-0.362632 
1 1:0.198802 2:0.0767762 3:-0.136747 4:0.0262748 5:0.232637 6:0.153223 7:-0.157267 8:0.166961 9:-0.260328 10:0.518184 11:-0.0208419 12:0.239521 13:0.167743 14:0.0151188 15:-0.0383854 16:0.398038 17:-0.117657 18:-0.375588 19:0.146982 20:0.405019 21:-0.264292 22:-0.326699 23:0.262816 24:-0.183904 25:0.076207 26:-0.0243265 27:0.0741328 
1 1:0.826313 2:0.337237 3:0.659979 4:0.146607 5:0.212522 6:-0.0331384 7:-0.23728 8:-0.219281 9:0.277426 10:0.496653 11:-0.355589 12:-0.304476 13:-0.177596 14:-0.011004 15:0.549151 16:0.66088 17:0.0013272 18:-0.00552968 19:0.380605 20:0.359877 21:0.129792 22:-0.758582 23:-0.000503052 24:-0.0015139 25:0.458985 26:-0.0774225 27:-0.30706 
1 1:-0.207484 2:-0.331098 3:-0.813721 4:-0.157755 5:0.936454 6:0.236435 7:0.0714829 8:0.229805 9:-0.132084 10:0.353023 11:-0.501792 12:0.792115 13:0.192861 14:-0.00635423 15:0.0998991 16:-0.774378 17:-0.231989 18:-0.222234 19:-0.197664 20:-0.496821 21:0.194991 22:0.313037 23:-0.138766 24:-0.703515 25:-0.208281 26:-0.0903109 27:0.469599 
1 1:0.377063 2:-0.0706164 3:-0.0894773 4:-0.48573 5:0.292155 6:0.242529 7:0.296981 8:-0.608436 9:-0.0787429 10:0.486726 11:-0.446028 12:0.0451839 13:-0.0139723 14:0.132473 15:0.215959 16:0.391605 17:0.060522 18:0.0665952 19:-0.0442653 20:0.0987918 21:-0.21184 22:0.218912 23:-0.0146661 24:-0.167472 25:0.306233 26:-0.333381 27:-0.582003 
1 1:0.196423 2:0.529036 3:0.00800598 4:0.178724 5:0.204478 6:0.0327724 7:-0.562904 8:0.691465 9:-0.0935739 10:0.871712 11:-0.228988 12:-0.117436 13:0.31358 14:0.774194 15:0.0562251 16:-0.412163 17:-0.0783879 18:0.0846065 19:0.282739 20:0.529018 21:-0.0627097 22:0.233549 23:0.648045 24:-0.298783 25:0.306865 26:0.0484793 27:0.21635 
1 1:0.343171 2:0.618967 3:0.626669 4:0.580811 5:0.41747 6:0.0836221 7:-0.262902 8:0.652017 9:-0.0734986 10:0.22013 11:-0.269147 12:0.0487674 13:0.249849 14:0.085164 15:0.285905 16:-0.503227 17:0.178189 18:-0.514447 19:0.413768 20:0.718613 21:0.250994 22:0.410471 23:0.128468 24:0.0362393 25:-0.396044 26:0.12787 27:0.247245 
0.5642217138444905 1:0.545766 2:-0.0456157 3:0.242084 4:-0.39113 5:0.250306 6:0.0600349 7:-0.121517 8:-0.282426 9:0.190358 10:0.257747 11:-0.580562 12:-0.500461 13:-0.1529 14:0.181078 15:0.649488 16:0.699608 17:0.355341 18:0.100949 19:-0.088466 20:0.33212 21:0.0185841 22:-0.473327 23:0.893806 24:0.099933 25:0.821645 26:0.12787 27:0.0222353 
1 1:0.157595 2:-0.189051 3:-0.390968 4:0.102831 5:0.556457 6:-0.425802 7:-0.245129 8:-0.533115 9:0.570753 10:0.57248 11:-0.416524 12:-0.472615 13:0.226104 14:0.67496 15:0.0454839 16:0.116228 17:0.103539 18:-0.0637763 19:0.21098 20:0.0779281 21:-0.177858 22:0.550493 23:0.440674 24:-0.614627 25:0.239402 26:0.12787 27:-0.747011 
1 1:0.0509294 2:0.484221 3:0.344409 4:-0.596742 5:0.366966 6:0.155933 7:-0.483094 8:-0.0386945 9:0.227174 10:0.345499 11:-0.401113 12:0.705346 13:-0.0598773 14:-0.299087 15:0.30871 16:-0.478742 17:-0.416466 18:-0.326489 19:0.0125656 20:-0.488118 21:-0.406783 22:0.187037 23:0.479578 24:-0.186346 25:-0.76546 26:0.440184 27:-0.275915 
1 1:0.195597 2:0.109855 3:-0.21994 4:0.459744 5:0.254651 6:0.522363 7:-0.0688163 8:-0.234627 9:-0.00912805 10:0.799203 11:-0.225537 12:0.236229 13:0.302366 14:0.641055 15:0.127251 16:0.518474 17:0.254636 18:0.103132 19:0.369836 20:0.140236 21:-0.212162 22:0.278205 23:0.203854 24:-0.331497 25:-0.0916245 26:0.150186 27:-0.122316 
1 1:0.509474 2:0.477685 3:0.123227 4:0.720488 5:0.215503 6:0.0666494 7:-0.534471 8:-0.0335408 9:0.0501862 10:0.200421 11:-0.63629 12:-0.518087 13:-0.493625 14:0.0371328 15:0.32375 16:0.537432 17:-0.834421 18:-0.0297222 19:0.395887 20:0.397332 21:-0.286867 22:0.266922 23:-0.0614489 24:-0.301841 25:-0.419191 26:0.371253 27:-0.148209 
1 1:0.389713 2:0.127097 3:0.084473 4:0.786567 5:-0.345286 6:-0.106692 7:0.0331174 8:-0.250785 9:-0.418869 10:-0.14484 11:-0.70253 12:0.277936 13:-0.280284 14:0.0207671 15:0.121343 16:-0.782516 17:-0.360678 18:-0.0697095 19:-0.464393 20:0.48528 21:-0.0981403 22:-0.0421373 23:0.333737 24:-0.0848022 25:0.157298 26:-0.547616 27:-0.713893 
1 1:0.122382 2:-0.0164453 3:-0.0201024 4:0.0681463 5:0.267305 6:-0.0372793 7:0.085962 8:-0.296707 9:0.405477 10:0.216615 11:-0.220587 12:0.0956505 13:-0.215177 14:0.348801 15:0.115748 16:0.354158 17:-0.160247 18:-0.113439 19:-0.283808 20:0.63284 21:-0.530565 22:0.0481846 23:0.274936 24:-0.308305 25:-0.0652525 26:-0.287199 27:-0.553571 
1 1:-0.343143 2:-0.366458 3:-0.082484 4:0.48379 5:0.475286 6:-0.251139 7:1 8:0.836372 9:0.793851 10:0.706437 11:-0.180961 12:-0.389891 13:-0.004221 14:0.763648 15:-0.146908 16:0.845564 17:0.224271 18:0.113578 19:0.262723 20:-0.18665 21:-0.538554 22:0.814837 23:0.0126472 24:0.0984377 25:0.642243 26:-0.300806 27:-0.361308 
1 1:-0.095507 2:-0.257762 3:-0.398692 4:0.262187 5:0.28179 6:0.198682 7:-0.216808 8:-0.276514 9:0.151098 10:0.389359 11:-0.334981 12:0.544245 13:-0.145348 14:0.444431 15:0.20431 16:0.451207 17:0.152841 18:-0.070504 19:0.105027 20:0.2697 21:-0.0110183 22:0.347571 23:0.0126472 24:-0.501095 25:-0.0731359 26:-0.159046 27:-0.0733959 
-1 1:0.1829 2:0.301457 3:0.400724 4:0.381297 5:0.0833407 6:0.162133 7:-0.352639 8:0.230839 9:0.266981 10:0.0132521 11:-0.204246 12:-0.412679 13:-0.251582 14:-0.178206 15:0.363177 16:0.739707 17:-0.104159 18:-0.261552 19:0.542727 20:0.613521 21:-0.137966 22:0.0680401 23:0.398526 24:-0.120122 25:-0.362504 26:-0.0941667 27:0.259366 
-1 1:0.471525 2:-0.389505 3:0.147898 4:0.274051 5:0.193103 6:-0.175044 7:0.114154 8:0.220344 9:-0.03619 10:0.576249 11:-0.0962287 12:-0.431187 13:-0.00787671 14:0.0731872 15:0.486166 16:0.74614 17:-0.145436 18:0.329656 19:0.316905 20:0.603442 21:-0.421987 22:0.830523 23:-0.486596 24:-0.763468 25:0.139752 26:0.12787 27:-0.298043 
-1 1:0.229656 2:-0.114628 3:0.190952 4:0.321094 5:-0.110426 6:-0.137579 7:-0.0450604 8:0.655844 9:0.256082 10:0.570112 11:-0.150738 12:-0.177547 13:-0.20111 14:0.156949 15:0.137839 16:0.642049 17:-0.0886874 18:0.102665 19:-0.249234 20:0.193127 21:-0.586278 22:0.360774 23:-0.152599 24:0.698332 25:-0.170443 26:0.374652 27:0.0240259 
-1 1:0.588384 2:0.228076 3:0.591366 4:0.102661 5:0.183787 6:-0.095697 7:0.204458 8:0.365519 9:0.3298 10:0.296292 11:0.253796 12:0.0384243 13:-0.218362 14:0.503432 15:0.581927 16:0.638514 17:-0.0430607 18:-0.29708 19:-0.170075 20:0.483036 21:-0.199634 22:0.258417 23:-0.0696042 24:-0.076544 25:-0.0679707 26:0.36217 27:0.0468398 
-1 1:0.417601 2:0.278566 3:-0.0401429 4:-0.370371 5:0.220961 6:-0.0209399 7:-1 8:-0.352278 9:-0.48891 10:-1 11:-0.559482 12:-0.486509 13:-0.730064 14:-0.461695 15:0.190684 16:-0.363038 17:-0.732811 18:-0.478077 19:0.431833 20:0.397233 21:-0.286867 22:-0.475294 23:0.0126472 24:-0.221387 25:0.0335842 26:0.12787 27:0.0782732 
-1 1:0.339371 2:-0.305125 3:-0.320283 4:-0.110976 5:0.297765 6:-0.359239 7:-0.125789 8:-0.08207 9:0.347056 10:0.59384 11:-0.732801 12:-0.294811 13:0.196902 14:0.482536 15:0.245172 16:0.620537 17:0.285276 18:-0.0289966 19:0.00201503 20:-0.00066256 21:-0.666969 22:0.0980939 23:0.110825 24:0.323201 25:0.249834 26:-0.193612 27:-0.298043 
-1 1:-0.130751 2:0.114279 3:-0.0469717 4:0.410159 5:-0.0269478 6:0.393411 7:-0.19792 8:-0.0241667 9:0.142159 10:0.66928 11:-0.543364 12:0.0327926 13:0.482502 14:0.264674 15:-0.0491929 16:0.605466 17:0.152806 18:0.285779 19:0.481914 20:0.37195 21:-0.500205 22:0.610486 23:0.735426 24:-0.0720376 25:0.414752 26:0.195341 27:-0.086363 
-1 1:0.418356 2:0.368269 3:0.0698354 4:-0.585635 5:-0.0700553 6:0.161953 7:-0.266702 8:-0.101583 9:0.684525 10:0.342041 11:0.132512 12:0.403603 13:0.421613 14:0.304789 15:0.289008 16:-0.528913 17:0.406858 18:0.0216928 19:0.200471 20:-0.0940459 21:-0.172221 22:0.400793 23:0.743384 24:-0.0310274 25:0.561657 26:0.527816 27:-0.871933 
-1 1:-0.0251574 2:-0.00509183 3:0.123425 4:0.313267 5:-0.398349 6:-0.193639 7:-0.467268 8:0.305263 9:0.0897254 10:0.676798 11:-0.60814 12:0.280183 13:0.454237 14:0.247839 15:0.187031 16:-0.0891248 17:0.074612 18:0.122189 19:0.448182 20:0.0783169 21:-0.27038 22:0.360479 23:0.407443 24:-0.11044 25:0.240092 26:0.241676 27:-0.545987 
-1 1:-0.0997915 2:0.135837 3:-0.0307923 4:0.0103839 5:-0.0897788 6:-0.132431 7:-0.288051 8:-0.479878 9:0.39064 10:0.261058 11:-0.132669 12:0.14984 13:-0.135262 14:0.23883 15:-0.231777 16:0.0947878 17:-0.204251 18:-0.558788 19:0.132385 20:-0.0389707 21:-0.286867 22:0.171825 23:-0.281349 24:-0.858333 25:0.0335842 26:-0.199578 27:0.388457 
-1 1:-0.0421086 2:0.20307 3:0.325683 4:0.14261 5:0.294685 6:-0.0724075 7:0.317537 8:-0.233803 9:0.366943 10:-0.170022 11:-1 12:0.482736 13:-0.459109 14:0.314919 15:-0.316677 16:0.470072 17:-0.126341 18:-0.20537 19:-0.0647393 20:-0.30639 21:-0.651135 22:0.632822 23:-0.186705 24:-0.437844 25:-0.292902 26:-0.166645 27:-0.161348 
-1 1:-0.0722099 2:0.00931992 3:-0.230618 4:0.670117 5:0.37183 6:-0.0813632 7:0.284126 8:-0.00243017 9:0.406855 10:0.251253 11:0.243791 12:-0.617977 13:0.164974 14:0.436382 15:0.133415 16:0.465689 17:0.100362 18:-0.37578 19:0.0890836 20:-0.109753 21:-0.333862 22:0.168128 23:0.262523 24:-0.453651 25:0.130762 26:-0.11038 27:-0.34732 
-1 1:0.169753 2:0.527016 3:0.201018 4:0.0748903 5:0.459329 6:1 7:-0.388438 8:0.568699 9:-0.15509 10:0.245412 11:0.231223 12:0.538984 13:0.0478386 14:0.0597875 15:0.150975 16:-0.0152135 17:0.496168 18:-0.0956819 19:0.522436 20:-0.701317 21:0.382035 22:-0.592484 23:0.107965 24:0.199833 25:0.0562402 26:0.369298 27:0.44795 
-1 1:0.414828 2:-0.336781 3:-0.508432 4:0.127249 5:0.418364 6:-0.315889 7:-0.232824 8:-0.123276 9:-0.0335841 10:0.656554 11:-0.255687 12:-0.214603 13:0.059166 14:0.606421 15:0.531453 16:0.614466 17:0.209035 18:0.341951 19:0.563446 20:0.236158 21:-0.444305 22:0.596385 23:0.0645068 24:0.020779 25:0.820194 26:0.12787 27:-0.463124 
-1 1:0.113752 2:0.585699 3:0.0747973 4:0.206668 5:0.256831 6:0.270036 7:-0.380895 8:0.23909 9:-0.433412 10:0.111401 11:-0.522559 12:0.467191 13:-0.275885 14:0.292508 15:0.228415 16:-0.221355 17:0.503459 18:-0.171298 19:0.263806 20:-0.592894 21:-0.0431752 22:-0.0801391 23:0.650671 24:0.122035 25:0.0335842 26:0.542925 27:-0.298043 
-1 1:0.234209 2:-0.192607 3:-0.184671 4:-0.228279 5:0.0917724 6:-0.0900065 7:0.576326 8:0.42085 9:0.554557 10:0.994406 11:-0.677495 12:0.0304566 13:0.624067 14:0.612725 15:0.140826 16:0.759429 17:-0.319542 18:0.415002 19:0.843841 20:0.425565 21:-0.169212 22:0.856571 23:0.0213954 24:0.105836 25:0.828357 26:-0.188297 27:-0.298043 
-1 1:0.455867 2:0.461679 3:0.320523 4:-0.434056 5:0.269391 6:0.132482 7:0.0637734 8:0.956725 9:-0.467357 10:0.169473 11:0.254959 12:-0.330642 13:0.372814 14:0.209902 15:0.394632 16:0.493577 17:-0.0834654 18:-0.289487 19:0.360007 20:0.321209 21:0.0227823 22:-0.855781 23:-0.335312 24:0.0902333 25:0.0335842 26:-0.0690364 27:-0.536631 
-1 1:0.198957 2:-0.0624329 3:-0.214505 4:-0.246486 5:0.187371 6:0.0316124 7:-0.0758921 8:-0.465055 9:0.0746112 10:0.0105494 11:-0.407972 12:0.00765359 13:-0.29744 14:-0.0667526 15:-0.166844 16:0.39092 17:-0.45929 18:-0.0540547 19:0.226837 20:0.550375 21:-0.193297 22:0.235755 23:-0.201958 24:-0.454406 25:-0.442726 26:0.024112 27:-0.297328 
-1 1:-0.125133 2:-0.666638 3:-0.725692 4:-0.355038 5:0.387778 6:-0.534143 7:-0.190891 8:0.139094 9:-0.0115461 10:0.450592 11:-0.227013 12:-0.572886 13:0.276866 14:0.299515 15:0.000341272 16:0.737457 17:0.229336 18:-0.017031 19:0.260098 20:0.406926 21:0.0840327 22:0.509537 23:0.523457 24:-0.221387 25:0.0112978 26:-0.218145 27:-0.298043 
-1 1:0.552705 2:-0.0358516 3:0.516606 4:-0.279444 5:0.015568 6:0.33451 7:0.203238 8:0.277718 9:-0.095076 10:0.157443 11:-0.413911 12:0.0118042 13:-0.332896 14:0.0848355 15:0.544064 16:0.489429 17:-0.21463 18:-0.229773 19:0.21116 20:0.309267 21:-0.0219488 22:0.065659 23:-0.167471 24:0.343136 25:-0.072496 26:0.443813 27:-0.298043 
-1 1:0.0702792 2:0.048774 3:-0.00790129 4:-0.645991 5:0.181605 6:0.12773 7:-0.362932 8:-0.00259609 9:0.543405 10:0.22516 11:-0.748465 12:0.619359 13:-0.218887 14:0.283047 15:0.179589 16:-0.675931 17:-0.595728 18:0.0439873 19:0.0709827 20:0.457915 21:-0.692113 22:0.430001 23:0.423993 24:0.0866954 25:0.10733 26:0.194394 27:-0.0159923 
-1 1:0.189851 2:-0.174322 3:0.492414 4:0.207201 5:0.506884 6:0.105419 7:0.134253 8:0.35944 9:0.725235 10:0.0200712 11:-0.356983 12:0.0953387 13:0.0769676 14:0.0488026 15:0.287655 16:0.878943 17:0.0657158 18:-0.162335 19:0.564955 20:0.282519 21:-0.0280521 22:0.266879 23:0.302334 24:0.300337 25:-0.05038 26:0.0521275 27:-0.144032 
-1 1:-0.670955 2:-0.275302 3:-0.211868 4:-0.175402 5:0.417234 6:-0.195017 7:-0.468496 8:0.321353 9:-0.0678062 10:0.323994 11:-0.243042 12:0.0234283 13:0.276879 14:-0.0684456 15:-0.553438 16:-0.107685 17:-0.0773337 18:-0.43607 19:0.492495 20:0.736051 21:-0.548348 22:0.236086 23:-0.0945965 24:-0.221387 25:0.0335842 26:0.00842328 27:0.029703 
-1 1:0.137455 2:0.421317 3:0.287519 4:0.516297 5:0.119714 6:0.197682 7:0.266153 8:0.497119 9:0.141359 10:0.448499 11:-0.37493 12:0.0650864 13:0.317109 14:0.14995 15:0.232847 16:0.596223 17:0.131268 18:-0.198707 19:0.31387 20:0.839329 21:-0.200201 22:0.402922 23:-0.14744 24:0.294227 25:0.488905 26:0.380398 27:-0.608451 
-1 1:0.162925 2:-0.394999 3:0.259713 4:-0.164858 5:0.366025 6:0.313121 7:0.143507 8:0.309875 9:-0.512674 10:0.60262 11:-0.243996 12:0.369388 13:-0.20747 14:0.27058 15:0.215958 16:0.111611 17:0.326806 18:-0.254528 19:0.00752118 20:0.114131 21:-0.348641 22:0.137406 23:0.597616 24:0.0374554 25:0.161931 26:-0.408173 27:-0.51068 
-1 1:-0.0359092 2:0.270467 3:0.0867802 4:0.344307 5:0.429871 6:0.240393 7:-0.530574 8:0.17135 9:-0.304122 10:-0.0309853 11:0.119142 12:0.107461 13:0.0120888 14:0.0885267 15:0.0363476 16:0.505936 17:-0.292803 18:-0.521416 19:0.403653 20:0.0804282 21:0.226242 22:-0.0870024 23:0.33351 24:-0.293 25:-0.409138 26:0.245057 27:-0.142626 
-1 1:0.152198 2:0.179369 3:0.102387 4:0.0259016 5:0.386054 6:0.376383 7:-0.286066 8:0.371516 9:-0.399477 10:-0.249009 11:-0.382488 12:0.0448582 13:-0.704893 14:-0.385056 15:0.114824 16:-0.366723 17:-0.465381 18:-0.451937 19:0.202393 20:0.572426 21:-0.205456 22:-0.0319156 23:-0.0536678 24:-0.0862117 25:-0.128642 26:-0.104197 27:0.105326 
-1 1:0.138078 2:-0.54109 3:-0.0931023 4:-0.117595 5:-0.0320907 6:-0.331153 7:0.223017 8:-0.364968 9:0.811045 10:0.57317 11:0.0366603 12:0.119784 13:-0.260127 14:0.383927 15:0.389043 16:0.655056 17:0.352457 18:0.350554 19:0.0316044 20:0.435993 21:-0.343397 22:1 23:0.0126472 24:-0.501108 25:0.288138 26:-0.48497 27:-0.298043 
-1 1:-0.0180564 2:0.57507 3:-0.426864 4:-0.751569 5:0.421913 6:0.225689 7:-0.275709 8:0.0701536 9:-0.497752 10:0.359497 11:-0.698573 12:-0.646851 13:0.0956565 14:-0.0816455 15:-0.0621878 16:-0.45614 17:0.360293 18:-0.101478 19:0.365147 20:-0.241528 21:-0.103444 22:0.301541 23:0.0126472 24:-0.0191124 25:0.113645 26:0.0094454 27:-0.370948 
-1 1:0.193491 2:0.1584 3:0.0900068 4:-0.115401 5:0.233911 6:-0.235072 7:-0.0861366 8:0.15267 9:0.364039 10:0.311374 11:-0.47357 12:-0.375021 13:0.0208215 14:0.247768 15:-0.14714 16:0.683706 17:0.512289 18:-0.0541379 19:0.837833 20:0.326229 21:-0.335598 22:0.659091 23:0.230743 24:0.0694123 25:0.594554 26:0.307996 27:-0.75042 
-1 1:-0.909489 2:-0.013252 3:0.00680607 4:0.776147 5:0.549139 6:-0.227257 7:-0.639885 8:-0.301732 9:-0.160697 10:0.0914135 11:-0.573223 12:0.566399 13:0.0101196 14:-0.21069 15:-1 16:0.325907 17:-0.39826 18:-0.764232 19:0.37773 20:0.579737 21:-0.286867 22:-0.182998 23:-0.422824 24:-0.694224 25:0.0335842 26:0.39959 27:-0.298043 
-1 1:0.307324 2:0.181688 3:0.265863 4:-0.608961 5:0.187805 6:0.306781 7:-0.249133 8:0.0655682 9:-0.224931 10:0.0562699 11:-0.119582 12:0.136164 13:-0.154697 14:0.16967 15:0.457546 16:-0.635467 17:-0.0142356 18:0.0293087 19:0.350538 20:-0.0805974 21:-0.154603 22:0.0336565 23:-0.219753 24:-0.2043 25:-0.00837825 26:-0.235894 27:-0.321346 
-1 1:-0.224641 2:0.367382 3:0.308376 4:-0.0173053 5:0.32334 6:0.44164 7:-0.278109 8:0.398224 9:-0.290961 10:0.327792 11:-0.398074 12:0.225421 13:0.213453 14:0.367652 15:0.142955 16:0.571921 17:0.0732496 18:-0.0759692 19:-0.39268 20:0.446509 21:-0.189992 22:0.262209 23:0.689649 24:-0.564115 25:0.427833 26:0.428132 27:-0.151845 
-1 1:0.243825 2:0.455864 3:0.148347 4:0.0396702 5:0.384465 6:0.150824 7:-0.10677 8:0.736954 9:-0.263791 10:-0.119217 11:-0.707017 12:0.16282 13:0.0344077 14:-0.0880407 15:0.279922 16:-0.547926 17:-0.0709179 18:0.143853 19:0.680054 20:0.468908 21:0.0903667 22:0.423819 23:0.373867 24:-0.836334 25:-0.093052 26:0.47481 27:0.0775318 
-1 1:0.40231 2:0.57917 3:0.0276599 4:0.217156 5:0.128505 6:-0.233322 7:-0.36724 8:-0.0896174 9:0.251728 10:0.566402 11:0.143851 12:0.00858695 13:-0.222813 14:0.123826 15:0.151108 16:0.346826 17:0.294161 18:-0.0984467 19:0.234068 20:0.0614893 21:-0.291778 22:0.293691 23:0.525292 24:0.0542115 25:-0.267379 26:0.182288 27:0.000691024 
-1 1:-0.0488559 2:-0.855798 3:-0.167455 4:-0.0186487 5:0.432085 6:0.164018 7:0.142384 8:-0.589664 9:0.81868 10:0.742381 11:-0.0225317 12:0.294048 13:-0.0822303 14:0.471842 15:0.318869 16:0.606741 17:0.238973 18:0.147196 19:0.536843 20:0.594889 21:0.410447 22:0.575587 23:0.0126472 24:-0.221387 25:0.485859 26:0.12787 27:-0.130148 
-1 1:0.0405081 2:0.350176 3:0.361842 4:0.588501 5:0.0114329 6:0.0195217 7:0.318531 8:-0.0448264 9:0.111187 10:0.389276 11:0.202357 12:-0.00593465 13:0.287996 14:0.179542 15:0.246946 16:0.931893 17:0.342753 18:-0.154967 19:0.618073 20:0.99816 21:-0.286867 22:0.525855 23:0.0773029 24:-0.221387 25:0.113414 26:0.199882 27:-0.336983 
-1 1:-0.0996328 2:-0.0822097 3:-0.379403 4:0.223409 5:0.571703 6:0.211105 7:-0.425469 8:-0.42875 9:0.352497 10:-0.00221082 11:-0.166045 12:0.126898 13:0.0681672 14:0.134112 15:-0.204309 16:-0.760367 17:-0.499439 18:-0.215446 19:-0.255826 20:-0.64925 21:-0.670217 22:-0.0130392 23:-0.0653095 24:-0.857908 25:-0.690216 26:-0.389789 27:0.337293 
-1 1:0.198584 2:0.651681 3:0.292529 4:-0.467298 5:0.241859 6:0.382492 7:0.46171 8:0.695482 9:0.214932 10:-0.0312241 11:-0.525448 12:0.21289 13:0.127281 14:-0.563321 15:0.410513 16:-0.409904 17:1 18:-0.216776 19:0.240219 20:-0.406577 21:0.276453 22:0.364693 23:0.239125 24:0.412907 25:0.754852 26:0.841293 27:-0.6614 
-1 1:-0.030236 2:0.267632 3:0.145282 4:-0.543139 5:0.307754 6:0.250035 7:-0.350155 8:0.0115897 9:0.426402 10:0.477335 11:-0.678572 12:0.521936 13:0.39386 14:-0.00767288 15:0.161357 16:-0.551017 17:-0.0299345 18:-0.234609 19:-0.0173319 20:-0.659905 21:-0.680234 22:0.504587 23:0.460124 24:0.132618 25:-0.347841 26:-0.0255603 27:0.109604 
-1 1:-0.361593 2:-0.326739 3:0.0596682 4:0.202735 5:-0.194016 6:0.225668 7:-0.529945 8:-0.257136 9:0.59928 10:0.627231 11:-0.468338 12:-0.3372 13:0.0264007 14:0.203158 15:0.169311 16:0.621714 17:-0.137101 18:0.174041 19:0.412549 20:0.329639 21:-0.0822129 22:0.745477 23:0.325605 24:-0.221387 25:0.0335842 26:0.12787 27:-0.200822 
-1 1:0.706091 2:0.143257 3:0.0864897 4:-0.107291 5:0.253944 6:0.132392 7:-0.0272203 8:0.187741 9:0.180373 10:0.49835 11:-0.122905 12:-0.133787 13:0.170881 14:0.217064 15:-0.0281109 16:0.402561 17:0.183877 18:-0.169196 19:0.193446 20:0.122148 21:0.0999356 22:-0.527524 23:-0.367901 24:0.186715 25:0.347696 26:-0.295979 27:-0.0931045 
-1 1:0.790003 2:-0.0934928 3:0.605801 4:0.142293 5:0.157749 6:-0.962203 7:0.439731 8:0.090768 9:-0.201277 10:0.443065 11:0.301497 12:-0.100067 13:-0.370204 14:0.933345 15:0.481064 16:-0.557758 17:0.0789189 18:-0.0146908 19:0.277461 20:0.212182 21:-0.416516 22:0.0942108 23:0.0126472 24:0.301072 25:-0.572496 26:-0.41886 27:-0.298043 
-1 1:0.57507 2:0.106911 3:0.344136 4:-0.183549 5:0.055854 6:-0.172874 7:-0.220874 8:-0.0208458 9:0.767268 10:0.215091 11:-0.219987 12:-0.223145 13:-0.552969 14:0.0941039 15:0.499997 16:0.625018 17:0.129941 18:-0.121471 19:0.271766 20:0.525771 21:-0.248115 22:0.376874 23:0.574095 24:-0.041847 25:-0.0686299 26:-0.395165 27:0.133343 
-1 1:0.0837844 2:0.0720883 3:0.233896 4:0.198068 5:0.0742297 6:0.0324833 7:0.345767 8:0.402125 9:0.441293 10:0.145589 11:-0.0119901 12:-0.102991 13:0.0602357 14:-0.114996 15:0.0151207 16:0.503269 17:0.213126 18:-0.270942 19:0.688003 20:0.201483 21:0.0177293 22:0.0595522 23:0.327865 24:-0.771086 25:0.553773 26:0.215828 27:-0.298043 
-1 1:0.186821 2:-0.21394 3:0.273533 4:0.0631076 5:-0.0385611 6:-0.140374 7:0.925835 8:0.071625 9:0.249345 10:0.380837 11:-0.870688 12:0.0798476 13:-0.476592 14:0.634482 15:0.343406 16:0.639144 17:-0.395836 18:-0.204125 19:-0.209755 20:0.144882 21:-0.42946 22:0.0904141 23:0.600715 24:0.00554289 25:-0.385595 26:-0.440907 27:-0.0649599 
-1 1:0.137297 2:0.572139 3:0.404092 4:0.483734 5:0.230298 6:0.399827 7:-0.42414 8:0.319314 9:0.32349 10:0.978446 11:-0.410689 12:0.31983 13:0.145944 14:0.26132 15:0.233535 16:0.804649 17:0.28413 18:0.117265 19:0.227091 20:0.824903 21:-0.105211 22:0.749849 23:0.225361 24:-0.308145 25:0.446169 26:0.174141 27:0.249091 
-1 1:0.893758 2:0.550994 3:0.100967 4:0.0686761 5:0.0741989 6:-0.142907 7:-0.0379816 8:-0.383924 9:0.0463991 10:0.636751 11:0.71223 12:-0.241569 13:0.0697991 14:0.622393 15:0.673849 16:0.174323 17:0.335814 18:0.07466 19:0.393184 20:-0.157034 21:-0.0529354 22:0.459953 23:-0.4511 24:-0.221346 25:0.0336306 26:-0.388645 27:0.327073 
-1 1:0.521437 2:0.0171619 3:0.502252 4:0.446347 5:0.463519 6:-0.138615 7:-0.214311 8:-0.31492 9:-0.598743 10:0.132132 11:-0.568691 12:0.235505 13:0.0245905 14:0.293545 15:0.111538 16:-0.0709736 17:-0.315869 18:-0.230612 19:0.198366 20:0.253297 21:-0.246878 22:0.490845 23:-0.0973721 24:-0.424419 25:-0.463544 26:-0.320578 27:-0.373481 
-1 1:-0.450843 2:-0.122777 3:-0.187093 4:0.866408 5:0.610082 6:0.14402 7:-0.655211 8:-0.0518665 9:-0.0394307 10:0.650822 11:-0.185043 12:-0.50557 13:0.267505 14:0.202076 15:0.402502 16:-0.125746 17:0.424977 18:-0.0997102 19:0.45756 20:-0.163622 21:-0.325551 22:0.460274 23:0.417275 24:-0.603344 25:0.171884 26:0.252627 27:-0.338606 
-1 1:-0.41767 2:-0.70803 3:-0.912018 4:0.144633 5:0.364235 6:-0.416247 7:-0.487396 8:-0.331084 9:0.505917 10:0.407574 11:-0.452276 12:-0.333699 13:-0.571373 14:0.552272 15:-0.68338 16:0.855819 17:0.0351708 18:0.0482005 19:-0.31115 20:-0.605125 21:-0.134093 22:0.308237 23:0.124823 24:-0.369015 25:-0.400545 26:-0.0235628 27:-0.293873 
-0.8791765044571098 1:0.292358 2:-0.529802 3:-0.269736 4:-0.471809 5:0.637838 6:0.524452 7:-0.339168 8:-0.244002 9:-0.16527 10:0.577534 11:0.0289695 12:0.825724 13:-0.0950184 14:0.323617 15:0.521931 16:-0.719982 17:0.0082913 18:0.261614 19:0.539658 20:-0.122704 21:0.0665375 22:0.728712 23:-0.495942 24:-0.138168 25:-0.0217345 26:-0.112678 27:0.0725164 
-1 1:-0.145923 2:-0.147797 3:-0.171337 4:0.250544 5:0.255628 6:-0.0965827 7:-0.409304 8:-0.322685 9:-0.104295 10:0.581594 11:-0.519999 12:0.214072 13:-0.508045 14:0.450211 15:0.20194 16:0.336588 17:0.256125 18:0.0421475 19:0.492384 20:-0.121445 21:-0.094544 22:0.777368 23:0.108333 24:-0.0339185 25:0.562695 26:0.510814 27:-0.298043 
-1 1:0.131956 2:0.227171 3:0.0457161 4:-0.157891 5:0.326875 6:0.156247 7:-0.0397931 8:0.158677 9:0.188774 10:0.447614 11:-0.121367 12:0.656969 13:-0.0541178 14:0.142163 15:0.217519 16:-0.780696 17:0.0371595 18:0.0710128 19:0.12873 20:-0.249777 21:-0.364001 22:0.327015 23:0.0452653 24:0.0294698 25:0.530179 26:0.164199 27:0.125603 
-1 1:0.34386 2:0.122045 3:0.107312 4:0.0861278 5:0.144306 6:0.178256 7:0.0407693 8:0.29731 9:0.711642 10:0.618395 11:-0.473029 12:-0.0441064 13:0.072571 14:-0.00644905 15:0.312643 16:0.597115 17:-0.459955 18:0.214247 19:0.799947 20:0.455968 21:-0.390658 22:0.58518 23:0.317713 24:-0.579582 25:0.103874 26:-0.565464 27:-0.72488 
-1 1:0.363344 2:0.587436 3:0.265665 4:-0.249389 5:0.547834 6:0.0919253 7:-0.147297 8:0.239495 9:0.406379 10:-0.0811461 11:-0.534036 12:0.69079 13:0.245779 14:0.0242824 15:0.181154 16:-0.86377 17:-0.234138 18:-0.0838801 19:0.28744 20:0.0566497 21:-0.161002 22:-0.259298 23:0.470491 24:-0.330122 25:-0.0900607 26:-0.635489 27:0.352579 
-1 1:0.0660206 2:0.136598 3:0.187927 4:-0.134446 5:0.0598174 6:0.341291 7:-0.218 8:0.0466968 9:0.434073 10:0.474217 11:-0.690584 12:0.527444 13:-0.264879 14:0.0422746 15:0.363914 16:-0.754751 17:-0.153143 18:0.0205978 19:0.111657 20:0.222199 21:-0.381399 22:0.194168 23:0.331873 24:-0.307691 25:0.455911 26:0.102127 27:-0.352543 
-1 1:0.314207 2:-0.427487 3:-0.149334 4:-0.012254 5:0.42373 6:-0.480164 7:-0.253357 8:-0.27139 9:0.356548 10:0.585626 11:-0.540929 12:0.267137 13:-0.470481 14:0.376902 15:0.0633709 16:0.512087 17:-0.206343 18:0.166365 19:-0.331064 20:0.0254863 21:-0.25968 22:0.356534 23:-0.0672262 24:-0.221387 25:-0.276375 26:-0.151737 27:-0.35281 
-1 1:0.193861 2:0.182438 3:0.0978292 4:0.439448 5:0.203177 6:0.573154 7:-0.0519977 8:0.39593 9:0.375446 10:0.457974 11:-0.201878 12:0.150491 13:-0.0863312 14:0.259875 15:0.188102 16:0.712474 17:0.626809 18:-0.279885 19:0.766615 20:0.715643 21:0.457243 22:-0.54209 23:0.115839 24:0.208384 25:0.522284 26:0.32853 27:-0.227286 
-1 1:0.412297 2:0.506842 3:0.396952 4:0.212779 5:0.390545 6:0.394539 7:-0.423324 8:0.0889875 9:0.447805 10:0.630061 11:-0.046236 12:0.790748 13:0.262104 14:-0.236334 15:0.603482 16:0.155849 17:0.371516 18:-0.355671 19:0.480967 20:0.176013 21:-0.276987 22:-0.36465 23:0.491539 24:-0.221387 25:-0.309053 26:-0.181215 27:-0.0224523 
-1 1:0.704552 2:0.437056 3:0.766313 4:-0.288399 5:0.293743 6:0.317372 7:-0.171564 8:0.239523 9:0.477048 10:0.780728 11:0.0472833 12:0.00956774 13:0.588336 14:0.0670562 15:0.514526 16:0.82819 17:0.618825 18:0.25513 19:0.290279 20:0.725798 21:0.096948 22:0.658777 23:0.0707186 24:-0.476056 25:0.105284 26:0.192548 27:0.22177 
-1 1:0.209815 2:-0.107453 3:-0.398719 4:0.211299 5:0.273404 6:0.0320488 7:-0.218503 8:-0.127343 9:0.371117 10:0.581848 11:0.577554 12:-0.173163 13:0.0669759 14:0.337535 15:0.352141 16:0.843269 17:0.0318824 18:-0.169248 19:0.289365 20:0.0362947 21:-0.687618 22:-0.563824 23:0.412099 24:-0.251356 25:0.0335842 26:0.0971278 27:0.326977 
-1 1:-0.187736 2:0.31599 3:-0.301907 4:0.49439 5:0.507549 6:0.0463793 7:-0.648192 8:0.19599 9:-0.117452 10:0.842418 11:-0.388735 12:0.611526 13:0.481068 14:0.578385 15:0.10163 16:-0.707986 17:0.293858 18:0.0439059 19:0.223664 20:0.0304006 21:-0.241591 22:0.596047 23:0.43087 24:-0.216869 25:-0.322569 26:0.0467773 27:0.00627184 
-1 1:0.00576166 2:-0.0810989 3:-0.400016 4:0.239453 5:0.133225 6:0.246521 7:-0.12542 8:-0.0614455 9:-0.0588796 10:0.681995 11:-0.212782 12:-0.419659 13:0.704955 14:0.317223 15:0.0723043 16:-0.235494 17:0.0610285 18:-0.0650078 19:0.550352 20:-0.126892 21:-0.286867 22:0.9622 23:0.641254 24:-0.546002 25:-0.335542 26:0.551631 27:0.0988855 
-1 1:-0.0801568 2:0.449017 3:0.434994 4:0.376464 5:0.243094 6:-0.276669 7:0.160832 8:-0.0168914 9:0.720115 10:0.253594 11:-0.273897 12:0.115211 13:0.575358 14:0.00269239 15:-0.236311 16:0.310667 17:0.619342 18:-0.252476 19:0.710404 20:0.740791 21:-0.286867 22:0.766525 23:0.450167 24:-0.669915 25:0.0961855 26:0.424526 27:-0.781924 
-1 1:-0.0662561 2:0.143133 3:-0.435286 4:0.429826 5:0.28554 6:-0.638293 7:-0.0114721 8:-0.656309 9:-0.0460129 10:0.106952 11:-0.15037 12:-0.812699 13:-0.0572453 14:0.262579 15:-0.989679 16:0.654081 17:0.356677 18:-0.478077 19:0.666133 20:0.654587 21:-0.286867 22:0.600401 23:0.0126472 24:-0.221387 25:0.0335842 26:0.12787 27:-0.298043 
-1 1:-0.208099 2:0.483896 3:0.200177 4:0.0492345 5:0.300305 6:0.471271 7:-0.28131 8:-0.0913465 9:-0.044191 10:-0.0184757 11:0.364132 12:0.0967372 13:0.232929 14:0.277491 15:-0.224939 16:0.465955 17:-0.413801 18:-0.437691 19:0.409344 20:0.615286 21:0.00627674 22:0.396764 23:0.0126472 24:-0.221387 25:0.0335842 26:0.12787 27:-0.255901 
-1 1:0.4966 2:-0.0799796 3:0.259395 4:0.219694 5:0.181675 6:0.463022 7:-0.0272687 8:0.574679 9:0.234156 10:0.325439 11:-0.511764 12:0.115385 13:-0.177499 14:0.293952 15:0.264792 16:0.525882 17:0.000708251 18:-0.134401 19:0.201527 20:0.412301 21:-0.0607604 22:0.0693818 23:-0.14378 24:-0.461896 25:-0.028562 26:0.57062 27:-0.00402132 
-1 1:0.0881431 2:-0.142404 3:-0.647818 4:-0.0185637 5:0.24461 6:-0.192252 7:-0.0885861 8:0.15981 9:0.481813 10:0.570396 11:-0.361267 12:0.419855 13:0.232222 14:0.774609 15:0.0214361 16:-0.366607 17:-0.936683 18:0.0535769 19:0.208928 20:-0.667495 21:-0.0254033 22:0.136799 23:0.0796273 24:-0.250944 25:0.527252 26:0.0975507 27:0.149164 
-1 1:0.519647 2:0.566032 3:0.623023 4:0.335069 5:0.315172 6:0.228853 7:0.0127754 8:0.260142 9:0.148939 10:0.218008 11:-0.482756 12:0.400233 13:0.0361483 14:-0.475172 15:0.691733 16:0.55903 17:0.163447 18:-0.475932 19:0.190579 20:0.603904 21:0.0739496 22:0.246719 23:0.837386 24:0.231747 25:0.303871 26:-0.385052 27:-0.413173 
-1 1:-0.140545 2:0.354211 3:0.244356 4:-0.861696 5:0.17312 6:0.831517 7:-0.390119 8:0.121566 9:0.139072 10:0.209505 11:-0.642036 12:-0.182337 13:0.166261 14:-0.130271 15:0.0391332 16:0.654444 17:-0.36222 18:-0.12877 19:0.0306494 20:0.661704 21:0.038651 22:-0.475294 23:0.0126472 24:0.319109 25:-0.285729 26:-0.160174 27:-0.676011 
-1 1:-0.588265 2:0.154459 3:-0.277356 4:0.53119 5:0.310012 6:0.107711 7:-0.622017 8:-0.603501 9:0.0871735 10:0.260156 11:-0.194527 12:0.276031 13:0.271199 14:0.0634959 15:-0.918197 16:0.578089 17:-0.421324 18:-0.713383 19:0.451536 20:0.43004 21:-0.329682 22:0.334454 23:0.118343 24:-0.221387 25:0.0335842 26:0.706768 27:-0.142296 
-1 1:0.512396 2:0.111085 3:0.00317443 4:0.350006 5:0.189433 6:0.191925 7:-0.338422 8:0.226674 9:0.244743 10:0.454954 11:0.0651897 12:0.0722236 13:-0.0142525 14:0.465389 15:0.403651 16:0.652879 17:0.0785589 18:-0.0316808 19:-0.280973 20:-0.110568 21:-0.19282 22:0.44963 23:0.311699 24:0.0666358 25:-0.000189309 26:0.0974033 27:0.467081 
-1 1:0.501216 2:0.48385 3:-0.120835 4:0.743323 5:0.280394 6:0.227428 7:-0.0144347 8:-0.897165 9:-0.04754 10:0.466387 11:-0.597256 12:0.283155 13:0.0566562 14:0.130213 15:0.202156 16:0.467471 17:-0.535707 18:-0.191344 19:0.0454646 20:-0.0225106 21:-0.286867 22:0.0375465 23:-0.136236 24:0.120535 25:0.0335842 26:0.287956 27:-0.298043 
-1 1:0.575781 2:-0.177817 3:0.154848 4:-0.638538 5:0.330712 6:-0.0415256 7:-0.104245 8:-0.370036 9:0.189267 10:0.847265 11:0.275127 12:0.440337 13:-0.0790818 14:0.307631 15:0.402513 16:0.0471929 17:0.312591 18:0.352861 19:0.573403 20:0.0399018 21:-0.325545 22:0.306544 23:0.632933 24:0.721552 25:-0.039444 26:0.0619925 27:-0.298043 
-1 1:0.0717322 2:-0.188733 3:-0.104648 4:-0.0520275 5:0.225882 6:-0.616971 7:-0.384602 8:-0.409392 9:0.351577 10:0.546203 11:-0.890618 12:-0.595019 13:-0.398641 14:-0.0503985 15:-0.246534 16:0.190972 17:-0.648298 18:0.266746 19:-0.0916248 20:-0.198665 21:-0.167148 22:0.438063 23:0.431967 24:-0.221387 25:-0.462955 26:0.00586432 27:-0.373152 
-1 1:0.386833 2:-0.272788 3:0.604106 4:0.266433 5:-0.115355 6:-0.00284672 7:0.359926 8:0.672915 9:0.367444 10:0.242996 11:0.22358 12:-0.0528504 13:0.0531006 14:-0.0971265 15:0.523131 16:0.565164 17:-0.755333 18:-0.0716289 19:0.646381 20:0.5957 21:-0.185673 22:0.0923257 23:0.0126472 24:0.0785047 25:0.490906 26:0.435488 27:-0.309304 
-1 1:0.0116398 2:0.353824 3:0.42368 4:0.533934 5:0.228841 6:0.300884 7:-0.176201 8:0.396622 9:-0.0227253 10:0.0699352 11:-0.285026 12:-0.168438 13:0.0685861 14:0.194354 15:-0.0127374 16:0.942679 17:-0.00638735 18:-0.365031 19:0.595605 20:0.387424 21:-0.286867 22:0.413116 23:0.01351 24:0.0972739 25:0.0335842 26:0.645387 27:-0.0322193 
-1 1:0.40212 2:0.0293923 3:-0.268204 4:-0.0878477 5:0.267156 6:0.00273783 7:-0.535558 8:-0.015424 9:-0.109974 10:0.660167 11:-0.585469 12:0.363369 13:-0.0453031 14:0.389169 15:0.0293431 16:0.535952 17:-0.132721 18:-0.132923 19:-0.0589827 20:-0.36771 21:-0.51744 22:0.0105021 23:0.85611 24:0.0312133 25:0.573882 26:0.442359 27:-0.274576 
-1 1:0.38622 2:0.493146 3:0.459116 4:-0.0423059 5:0.174812 6:0.270073 7:0.753031 8:0.397188 9:0.457143 10:0.0487355 11:-0.620237 12:0.30465 13:0.733553 14:0.254045 15:0.301042 16:0.750313 17:0.643745 18:-0.409779 19:0.409559 20:0.311584 21:-0.564739 22:0.0794455 23:-0.412278 24:0.270399 25:0.0335842 26:-0.345405 27:-0.324172 
-1 1:-0.210795 2:-0.604058 3:-0.407187 4:0.181022 5:0.565853 6:-0.434203 7:-0.602855 8:-0.819708 9:0.849637 10:0.150667 11:-0.672881 12:0.0716416 13:-0.301377 14:0.253913 15:-0.240326 16:0.330962 17:-0.344522 18:0.00421076 19:-0.13903 20:0.0464705 21:-0.380971 22:0.336053 23:-0.252703 24:-0.695362 25:-0.144092 26:0.230717 27:-0.396715 
-1 1:0.0227105 2:-0.0342387 3:0.438799 4:-0.254816 5:0.5461 6:0.191813 7:0.145912 8:-0.550349 9:0.035235 10:0.472569 11:-0.783337 12:0.395804 13:-0.107242 14:0.433782 15:-0.104302 16:0.503628 17:0.0990107 18:0.112802 19:-0.0541248 20:-0.214182 21:0.383552 22:0.766011 23:-0.119205 24:-1 25:0.443418 26:0.12787 27:-0.0258228 
-1 1:0.26792 2:0.253053 3:0.324459 4:0.374247 5:-0.0838431 6:-0.0862001 7:0.418536 8:-0.262907 9:0.169761 10:0.675565 11:-0.342998 12:-1 13:-0.187783 14:0.478801 15:0.387871 16:0.724872 17:0.289134 18:0.377196 19:0.56876 20:-0.555086 21:-0.0076266 22:0.673405 23:0.592865 24:0.559992 25:0.410867 26:0.277561 27:-0.298043 
-1 1:0.194613 2:0.40624 3:0.131215 4:-0.480479 5:-0.0992507 6:-0.0579973 7:-0.201048 8:-0.841293 9:0.0438877 10:0.0678638 11:-0.634939 12:0.469454 13:0.105622 14:0.091987 15:-0.0169142 16:0.160954 17:0.244739 18:-0.127515 19:-0.0755444 20:0.631617 21:-0.720146 22:0.149311 23:-0.18614 24:-0.623089 25:-0.784488 26:-0.610094 27:0.0315248 
-1 1:0.872027 2:-0.190722 3:0.661912 4:-0.261749 5:0.320104 6:0.0898832 7:0.165507 8:0.169916 9:0.409954 10:0.151433 11:-0.607426 12:0.388606 13:0.217597 14:0.279541 15:0.642359 16:0.443829 17:0.187673 18:0.0345277 19:0.292511 20:0.827109 21:-0.135428 22:-0.475294 23:0.0730586 24:0.0300648 25:0.399863 26:-0.130756 27:-0.298043 
-1 1:0.122329 2:0.199895 3:0.238787 4:0.227719 5:-0.571612 6:-0.340909 7:-0.091197 8:-0.0529085 9:0.101827 10:0.605811 11:-0.225654 12:-0.0593753 13:-0.0147322 14:0.0159427 15:0.208242 16:0.234752 17:-0.285312 18:-0.0207824 19:-0.14932 20:0.392469 21:-0.21449 22:0.380281 23:0.645431 24:-0.370641 25:0.361906 26:-0.0252301 27:-0.298043 
-1 1:0.04052 2:-0.0591421 3:-0.142281 4:-0.137744 5:0.43074 6:0.250734 7:-0.0165849 8:-0.225209 9:0.660846 10:0.495673 11:-0.219762 12:0.353343 13:0.272295 14:-0.111508 15:0.415794 16:0.414628 17:0.196591 18:-0.112527 19:0.438957 20:0.332114 21:-0.0350208 22:-0.475294 23:0.755462 24:-0.120941 25:-0.424827 26:0.471088 27:-0.0867473 
-1 1:0.0457353 2:-0.246922 3:-0.0164875 4:0.141419 5:0.526428 6:-0.175822 7:-0.0663441 8:-0.517309 9:0.538104 10:-0.000125278 11:-0.666649 12:0.834118 13:-0.0656408 14:0.677773 15:0.060458 16:-0.199214 17:-0.399158 18:-0.336099 19:-0.138655 20:-0.47934 21:-0.701814 22:0.209508 23:-0.0366621 24:-0.724518 25:-0.749877 26:-0.578871 27:-0.415126 
-1 1:0.140526 2:0.0554738 3:0.368663 4:-0.617088 5:0.307247 6:0.353505 7:0.160714 8:0.536834 9:-0.150523 10:0.326187 11:-0.24889 12:-0.210936 13:0.157685 14:0.188438 15:0.147665 16:-0.816923 17:0.036458 18:0.00840975 19:0.393019 20:-0.0381043 21:-0.398888 22:0.0963655 23:0.305128 24:-0.0190062 25:0.183366 26:0.39825 27:-0.0974951 
-1 1:0.558535 2:0.679935 3:0.430526 4:-0.105975 5:0.337888 6:0.333401 7:-0.269325 8:0.567764 9:-0.587642 10:0.0113338 11:-0.0953895 12:0.203686 13:-0.0105184 14:0.200749 15:0.411062 16:-0.414711 17:-0.332284 18:-0.35305 19:0.186949 20:0.323385 21:0.0160636 22:0.0272222 23:-0.22414 24:0.302928 25:-0.620065 26:0.453176 27:0.220232 
-1 1:-0.030403 2:0.0808382 3:0.0884392 4:0.591599 5:-0.407266 6:0.19578 7:-0.359873 8:-0.044091 9:-0.0411872 10:0.140926 11:-0.214689 12:0.214119 13:-0.317172 14:0.230222 15:0.181431 16:0.275345 17:-0.923923 18:-0.377371 19:0.217803 20:0.306678 21:-0.0747158 22:0.0193025 23:0.1659 24:-0.0549836 25:0.0335842 26:0.489206 27:0.20832 
-1 1:0.147589 2:0.0789409 3:-0.029225 4:-0.291716 5:0.472431 6:0.254246 7:0.236814 8:0.0780127 9:0.569766 10:0.380866 11:-0.768814 12:0.540614 13:0.451636 14:0.36736 15:0.135677 16:0.412624 17:0.0283509 18:-0.127213 19:0.168388 20:0.165253 21:-0.566369 22:0.186234 23:-1 24:-0.0796144 25:-0.0714621 26:-1 27:-0.429126 
-1 1:0.592358 2:0.290395 3:0.607983 4:0.423147 5:0.047359 6:0.201084 7:0.210145 8:0.438059 9:-0.0452981 10:0.255197 11:-0.311623 12:0.216784 13:-0.386903 14:-0.0617666 15:0.477551 16:-0.265602 17:0.0352155 18:-0.179767 19:0.484974 20:0.549546 21:0.440833 22:0.049095 23:-0.354862 24:0.085677 25:0.418713 26:-0.281457 27:-0.232029 
-1 1:0.0784349 2:-0.0207071 3:0.356195 4:0.526165 5:0.561245 6:0.167452 7:0.0602971 8:0.443108 9:0.384419 10:0.328125 11:-0.442579 12:-0.291337 13:0.229154 14:-0.107208 15:0.239747 16:0.311145 17:-0.330832 18:-0.119611 19:0.285061 20:0.474773 21:0.0407755 22:-0.301181 23:-0.242721 24:0.239065 25:-0.281716 26:0.169355 27:-0.298043 
-1 1:0.267818 2:0.427382 3:1 4:0.252691 5:0.107882 6:-0.370624 7:-0.804604 8:-0.882454 9:0.19743 10:-0.342223 11:-0.40743 12:0.0537586 13:0.163714 14:-0.1727 15:-0.496179 16:0.682172 17:-0.275147 18:-0.478077 19:0.0634309 20:0.676287 21:-0.180557 22:-0.475294 23:0.0126472 24:-0.221387 25:0.0335842 26:-0.016974 27:-0.387213 
-1 1:-0.0079344 2:-0.830582 3:-0.231597 4:-0.103933 5:-0.0852539 6:0.0406482 7:-0.183857 8:-0.0706258 9:0.124028 10:0.633333 11:-0.399511 12:-0.0716854 13:-0.0291804 14:0.490468 15:0.165004 16:0.242573 17:-0.522907 18:0.0954133 19:0.0543678 20:0.133967 21:-0.266189 22:0.31474 23:0.552531 24:-0.37291 25:-0.138716 26:-0.0275578 27:-0.276361 
-1 1:0.365702 2:-0.0205212 3:0.315767 4:0.0338254 5:0.238408 6:0.214514 7:0.105043 8:-0.272698 9:0.424951 10:0.109381 11:-0.252877 12:-0.189662 13:-0.691179 14:0.100403 15:0.487014 16:0.54967 17:0.339094 18:-0.175859 19:0.211554 20:0.414572 21:0.577902 22:0.423944 23:0.578655 24:0.277991 25:-0.412833 26:0.12787 27:-0.545958 
-1 1:0.107081 2:0.638484 3:0.287908 4:0.0467924 5:0.621882 6:0.327184 7:-0.285813 8:0.446714 9:0.164951 10:0.146876 11:-0.00957689 12:0.215098 13:0.516423 14:-0.0913392 15:0.39231 16:-0.407791 17:-0.135216 18:0.088905 19:0.798591 20:0.384127 21:0.110037 22:0.508311 23:0.15581 24:0.43764 25:0.0335842 26:0.477967 27:0.000760938 
-1 1:0.571628 2:0.0142196 3:0.254557 4:-0.000857381 5:0.536251 6:0.394117 7:0.00257424 8:0.584326 9:0.29635 10:0.301928 11:-0.480506 12:0.364136 13:0.367647 14:0.292274 15:0.689659 16:-0.186753 17:0.136631 18:-0.213068 19:0.164802 20:0.370296 21:-0.493758 22:0.332337 23:0.281499 24:-0.379057 25:0.215584 26:-0.0338631 27:-0.113697 
-1 1:-0.153064 2:-0.133247 3:-0.187804 4:-0.345968 5:0.346848 6:0.134297 7:-0.149858 8:-0.0602533 9:0.297672 10:0.332964 11:-0.0697236 12:0.530411 13:0.0665043 14:0.172141 15:-0.0388062 16:0.247041 17:0.131308 18:-0.603811 19:0.316288 20:0.370867 21:-0.270972 22:0.162234 23:0.235367 24:-0.111424 25:-0.775294 26:-0.0852448 27:-0.145329 
-1 1:-0.2265 2:-0.299684 3:-0.394194 4:-0.367384 5:0.19282 6:0.0992339 7:0.105536 8:-0.382289 9:0.136367 10:0.02575 11:-0.993571 12:0.173785 13:-0.403925 14:-0.306623 15:0.0269577 16:0.184463 17:0.168747 18:0.162074 19:0.580209 20:0.169021 21:-0.0325197 22:0.162071 23:0.351873 24:-0.806225 25:0.344195 26:0.12787 27:-0.466723 
-1 1:0.541513 2:0.212261 3:-0.0739355 4:0.153158 5:0.237928 6:0.393768 7:-0.00629987 8:0.527556 9:-0.169733 10:0.178972 11:0.270911 12:0.240465 13:-0.0969875 14:-0.00296436 15:0.529495 16:0.365772 17:0.208523 18:-0.219287 19:0.701174 20:0.345913 21:0.290197 22:0.252997 23:0.537406 24:-0.155182 25:0.108867 26:0.416772 27:0.36662 
-1 1:-0.0372546 2:-0.368338 3:0.207796 4:0.258753 5:0.189795 6:0.108544 7:-0.0504552 8:0.407055 9:0.494819 10:0.301317 11:-0.173079 12:-0.113883 13:0.460242 14:0.204588 15:0.151124 16:0.84499 17:0.0740345 18:-0.181723 19:0.190459 20:0.183563 21:-0.700033 22:0.26925 23:0.3084 24:0.0457541 25:0.0923748 26:0.0759837 27:-0.167998 
-1 1:0.173641 2:-0.342001 3:-0.551724 4:-0.151736 5:0.33716 6:-0.197055 7:-0.417583 8:-0.215569 9:0.289333 10:0.950229 11:-0.569152 12:0.427401 13:0.548105 14:0.0918816 15:0.0446295 16:0.493377 17:-0.141415 18:0.0942162 19:0.435535 20:-0.467667 21:-0.499488 22:0.436566 23:0.366938 24:-0.221387 25:0.204765 26:0.0916421 27:-0.119705 
-1 1:0.0268479 2:0.5045 3:0.600186 4:0.281629 5:0.435024 6:-0.00357118 7:-0.198942 8:0.18072 9:0.444723 10:0.341894 11:-0.33576 12:-0.112611 13:0.172846 14:0.106382 15:0.0168758 16:0.792479 17:-0.286972 18:-0.0880108 19:-0.108052 20:0.626079 21:-0.186196 22:0.152769 23:-0.126023 24:0.131625 25:-0.71026 26:0.12787 27:-0.298043 
-1 1:-0.112316 2:-0.0978517 3:-0.0221446 4:0.204421 5:0.339472 6:-0.402511 7:-0.439239 8:-0.241301 9:0.279344 10:-0.026151 11:-0.592285 12:-0.0433332 13:-0.622012 14:0.315602 15:-0.0739219 16:0.207527 17:-0.363388 18:-0.0468707 19:-0.339103 20:0.246644 21:0.223633 22:0.431382 23:-0.152621 24:-0.50312 25:-0.64807 26:-0.487035 27:0.243332 
-1 1:0.282467 2:0.261449 3:0.446528 4:0.18224 5:0.270861 6:0.245345 7:-0.160118 8:0.187663 9:0.276304 10:0.187801 11:-0.17985 12:-0.0821983 13:-0.0843325 14:-0.0536979 15:0.378516 16:0.56193 17:0.302951 18:-0.308722 19:0.154188 20:0.756342 21:-0.286867 22:0.452869 23:-0.31486 24:-0.576996 25:0.201845 26:0.519838 27:0.19668 
-1 1:0.10989 2:0.0335074 3:0.15194 4:0.302814 5:-0.247437 6:0.3039 7:0.0065792 8:-0.145626 9:0.184598 10:0.854429 11:-0.818042 12:0.326532 13:0.310949 14:0.404391 15:0.426165 16:0.695077 17:0.842866 18:0.12616 19:-0.00944932 20:-0.0436051 21:-0.0682595 22:0.742387 23:-0.580628 24:-0.865568 25:-0.337636 26:0.118911 27:-0.386831 
-1 1:-0.0459111 2:-0.570745 3:0.234244 4:-0.163478 5:0.171865 6:-0.0274636 7:0.0632606 8:0.0306854 9:-0.143838 10:0.523312 11:-0.353739 12:0.253877 13:-0.0121175 14:0.418746 15:0.213856 16:-0.28345 17:-0.792621 18:-0.12217 19:0.309126 20:0.135172 21:-0.315388 22:0.441923 23:0.432818 24:-0.221387 25:-0.0202661 26:0.12787 27:-0.298043 
-1 1:-0.101149 2:0.239114 3:-0.0687826 4:-0.448385 5:0.0492895 6:0.0275287 7:0.273015 8:0.491872 9:0.229798 10:0.564679 11:-0.404627 12:-0.322634 13:0.206819 14:0.793888 15:0.0663323 16:0.686258 17:0.933128 18:-0.121952 19:0.22979 20:0.536736 21:-0.640552 22:0.250179 23:0.0126472 24:0.198508 25:-0.272916 26:0.652937 27:-0.668897 
-1 1:-0.0152484 2:-0.498537 3:0.217351 4:-0.45164 5:0.396722 6:0.0810751 7:-0.385334 8:-0.407796 9:0.915633 10:0.336936 11:-0.337523 12:0.34861 13:0.0792335 14:0.290256 15:0.427756 16:0.437328 17:-0.42858 18:0.403078 19:0.863184 20:0.62559 21:-0.14179 22:0.715138 23:0.157531 24:-0.48408 25:0.38785 26:-0.141592 27:0.0295295 
-1 1:-0.0320007 2:0.190519 3:0.303264 4:0.098081 5:0.375013 6:0.335765 7:0.0190272 8:0.768593 9:0.0558602 10:0.614144 11:-0.595216 12:0.232227 13:0.0249214 14:0.011445 15:0.373496 16:0.185359 17:0.339341 18:-0.391647 19:0.312916 20:0.217779 21:-0.158301 22:-0.475294 23:0.558238 24:-0.00791333 25:0.100949 26:-0.0515473 27:-0.298043 
-0.3762161763874254 1:0.621142 2:0.236089 3:0.762331 4:-0.257436 5:0.23538 6:0.186001 7:-0.0471752 8:0.137618 9:-0.0823493 10:0.24522 11:-0.730296 12:0.0991891 13:0.117465 14:-0.261579 15:0.346383 16:0.58794 17:0.244026 18:-0.173047 19:0.145433 20:0.190419 21:0.0670171 22:0.0351521 23:-0.495209 24:0.180352 25:0.12912 26:-0.247126 27:-0.28364 
-1 1:-0.412465 2:-0.124448 3:-0.407934 4:-0.422799 5:0.0933303 6:-0.491799 7:-0.0735064 8:-0.479115 9:0.375848 10:0.152557 11:-0.297294 12:-0.0741143 13:-0.646659 14:-0.0273521 15:-0.440495 16:0.568695 17:-0.12561 18:-0.0746372 19:0.330694 20:0.0664326 21:0.294221 22:0.433272 23:-0.129801 24:0.127523 25:0.0335842 26:-0.0307865 27:-0.278349 
-1 1:-0.0284604 2:-0.0628615 3:0.258499 4:0.469972 5:0.110829 6:0.252142 7:-0.275048 8:0.724427 9:0.0224552 10:0.927551 11:-0.277515 12:0.0507548 13:0.309914 14:0.260057 15:0.165128 16:-0.0966422 17:0.278151 18:-0.128323 19:0.505878 20:0.36676 21:0.28506 22:0.946222 23:0.639103 24:-0.278909 25:-0.393115 26:0.394776 27:-0.298043 
-1 1:-0.296154 2:0.571175 3:-0.00752878 4:-0.0882416 5:0.324551 6:0.0284272 7:-0.319763 8:-0.00165939 9:0.465567 10:0.351619 11:-0.292916 12:0.976067 13:0.165159 14:0.0451367 15:0.265386 16:-0.370502 17:0.0945828 18:-0.362227 19:0.0765273 20:-0.203376 21:-0.55428 22:0.45117 23:-0.396284 24:-0.0299593 25:0.0335842 26:-0.001681 27:-0.177158 
-1 1:0.367543 2:0.221736 3:0.406559 4:0.148911 5:-0.05299 6:-0.246336 7:0.479621 8:-0.158123 9:0.633943 10:0.319699 11:-0.797283 12:-0.940296 13:-0.209436 14:0.403696 15:0.267615 16:0.102716 17:0.691023 18:0.52837 19:0.636721 20:0.170541 21:-0.0907806 22:0.355439 23:-0.272729 24:-0.213526 25:0.253864 26:-0.189977 27:-0.298043 
-1 1:0.711587 2:0.0983822 3:0.382904 4:0.117824 5:0.0928765 6:0.07894 7:-0.363903 8:-0.415133 9:-0.0793949 10:0.594746 11:0.394999 12:-0.0897988 13:0.441622 14:0.77401 15:0.532372 16:0.613928 17:0.221468 18:0.134439 19:0.0139102 20:0.242464 21:0.0193972 22:0.361681 23:-0.0478731 24:-0.101244 25:0.43646 26:-0.265448 27:0.0617403 
-1 1:0.47291 2:-0.2889 3:-0.0630935 4:-0.491655 5:0.151567 6:-0.0115572 7:0.442877 8:0.315684 9:0.377271 10:0.508779 11:-0.383672 12:0.572868 13:0.401841 14:0.430524 15:0.393089 16:0.604081 17:-0.367255 18:0.220576 19:0.298104 20:0.147392 21:-0.253566 22:-0.475294 23:0.185017 24:-0.166094 25:0.538097 26:-0.00605842 27:-0.298043 
-1 1:0.721391 2:0.499741 3:0.0755988 4:-0.432344 5:0.3752 6:0.251463 7:-0.234384 8:-0.396638 9:0.267743 10:-0.0196382 11:-0.749399 12:0.0580158 13:-0.34828 14:-0.0775475 15:0.325533 16:0.48501 17:-0.163636 18:-0.651805 19:0.304246 20:0.57323 21:-0.286867 22:0.142752 23:0.3335 24:0.590693 25:0.0684484 26:0.12787 27:-0.278681 
-1 1:0.20412 2:0.0283649 3:0.375536 4:0.293369 5:0.0930276 6:0.017926 7:0.0374465 8:0.16273 9:0.804585 10:0.738682 11:0.254971 12:0.0962854 13:0.49402 14:0.40982 15:0.420272 16:0.872595 17:-0.0732097 18:0.462515 19:0.580794 20:-0.260493 21:-0.22528 22:0.871747 23:-0.478406 24:0.198596 25:0.441554 26:-0.0931469 27:-0.298043 
-1 1:0.182083 2:0.528067 3:0.524809 4:0.27848 5:0.39797 6:0.258063 7:-0.426716 8:0.501076 9:0.475512 10:0.0509149 11:-0.252206 12:0.449991 13:0.0238048 14:0.412959 15:0.330995 16:-1 17:0.0894197 18:-0.400162 19:0.324966 20:-0.124479 21:-0.176814 22:0.08751 23:0.336177 24:-0.153851 25:-0.0649999 26:0.25993 27:-0.300015 
-1 1:0.699708 2:0.47142 3:0.570923 4:-0.159061 5:-0.747799 6:0.252358 7:0.229232 8:0.451971 9:0.636927 10:0.274778 11:-0.0357915 12:0.39764 13:-0.372065 14:-0.0174798 15:0.659174 16:0.569717 17:0.223688 18:-0.342402 19:0.598047 20:0.447106 21:0.257165 22:0.424694 23:0.824945 24:0.0863706 25:0.288509 26:-0.0729991 27:-0.156472 
-1 1:0.783662 2:0.169211 3:0.208295 4:0.402937 5:0.287596 6:-0.124693 7:-0.335621 8:-0.670304 9:0.318871 10:0.642314 11:0.511464 12:-0.401846 13:0.194297 14:0.525954 15:0.606833 16:0.371471 17:0.55964 18:-0.00046064 19:0.0434339 20:0.144943 21:-0.497552 22:0.245464 23:-0.0169186 24:0.0642341 25:0.20842 26:0.0949392 27:0.200332 
-0.387891925578659 1:0.505612 2:-0.052345 3:0.374884 4:-0.0443512 5:-0.170992 6:0.184486 7:0.0259396 8:0.468045 9:0.0526946 10:0.369761 11:-0.478128 12:0.191015 13:-0.568421 14:-0.176211 15:0.466277 16:-0.53417 17:0.124487 18:-0.067273 19:0.419559 20:0.55505 21:0.0468761 22:-0.0504093 23:-0.0622229 24:0.303184 25:0.152484 26:0.370391 27:-0.349379 
