svm_type c_svc
kernel_type rbf
gamma 0.0434783
nr_class 2
total_sv 138
rho 0.0595642
label 0 1
probA -5.0184
probB 3.40669
nr_sv 75 63
SV
1 1:0.461198 2:-0.053085 3:0.895714 4:0.677629 5:-0.181631 6:0.602819 7:-0.219539 8:0.423179 9:-0.312806 10:-0.181554 11:0.312605 12:-0.106126 13:-0.655023 14:0.971582 15:0.166003 16:0.135366 17:-0.522549 18:-0.787654 19:-0.0287515 20:0.24116 21:0.489749 22:-0.0857903 23:0.287333 
1 1:0.566359 2:-0.800732 3:0.895714 4:-0.0338671 5:0.322617 6:0.724661 7:0.0180896 8:-0.115542 9:-0.270685 10:-0.0908946 11:0.601552 12:-0.209264 13:-0.0622985 14:0.219549 15:-0.160721 16:0.135366 17:-0.522549 18:-0.532258 19:0.0308502 20:0.314734 21:-0.000147317 22:-0.0108679 23:-0.157948 
1 1:0.468876 2:-0.526255 3:0.895714 4:-0.397194 5:-0.398606 6:0.345931 7:-0.574531 8:0.0759241 9:-0.35621 10:0.00531043 11:0.588584 12:-0.154657 13:-0.34799 14:0.0751502 15:-0.341587 16:-0.765458 17:-0.522549 18:-0.532258 19:0.0362585 20:0.308738 21:-0.014307 22:0.291447 23:0.287333 
1 1:0.628053 2:-0.819214 3:0.895714 4:-0.638856 5:0.0532845 6:0.0560458 7:0.0333044 8:0.0372635 9:0.0456794 10:0.0684741 11:0.516164 12:0.189328 13:-0.0809258 14:0.26941 15:0.423191 16:0.135366 17:-0.695765 18:-0.699711 19:0.263158 20:0.160712 21:-0.156954 22:0.0711624 23:0.443455 
1 1:-0.316855 2:0.115244 3:-0.352949 4:-0.218564 5:-0.342153 6:0.579957 7:0.188906 8:-0.210041 9:-0.47006 10:0.202506 11:0.305567 12:-0.348714 13:-0.773265 14:0.321487 15:-0.351129 16:-0.599922 17:0.729937 18:0.592589 19:-0.581395 20:-0.734592 21:0.445447 22:-0.223027 23:0.287333 
1 1:0.14657 2:0.0161091 3:-0.00216147 4:-0.388654 5:0.105044 6:0.130693 7:0.265963 8:-0.0606222 9:0.0136472 10:-0.489157 11:-0.151303 12:-0.0298633 13:-0.145738 14:-0.419864 15:0.319948 16:-0.393357 17:-0.751713 18:-0.69484 19:-0.0822543 20:0.252585 21:-0.103025 22:0.146253 23:0.287333 
1 1:0.0486965 2:0.0162725 3:0.895714 4:-0.28999 5:-0.0536407 6:-0.752315 7:0.3949 8:0.0620908 9:-0.786654 10:0.140691 11:-0.329465 12:-0.531027 13:-0.639983 14:-0.371304 15:-0.546013 16:0.135366 17:-0.522549 18:-0.532258 19:-0.44908 20:0.24116 21:0.275881 22:-0.0614826 23:0.521108 
1 1:0.550099 2:-0.0160809 3:-0.659467 4:0.264631 5:0.11321 6:0.764108 7:0.403912 8:-0.227719 9:0.0739489 10:-0.310146 11:0.470885 12:-0.150592 13:-0.352729 14:0.559248 15:0.172528 16:0.135366 17:-0.3927 18:-0.586146 19:-0.141541 20:0.24116 21:0.396301 22:-0.185181 23:0.287333 
1 1:0.239778 2:0.138932 3:0.895714 4:0.404488 5:0.29201 6:0.369679 7:0.323039 8:-0.236855 9:0.056909 10:0.0884371 11:0.856186 12:-0.106361 13:-0.575423 14:0.283721 15:0.207722 16:-0.695677 17:-0.735806 18:-0.532258 19:0.0357891 20:0.301287 21:0.370388 22:-0.0170266 23:-0.654944 
0.3958536336309246 1:0.316499 2:-0.931153 3:0.895714 4:-0.828859 5:0.745018 6:0.226384 7:-0.0269459 8:-0.271054 9:-0.454944 10:0.12318 11:0.557085 12:-0.0341735 13:0.122655 14:0.031661 15:-0.16774 16:0.135366 17:-0.522549 18:-0.532258 19:-0.0113014 20:0.24116 21:0.0412748 22:0.586523 23:-0.11373 
0.1328184649423237 1:-0.25988 2:-0.399532 3:0.895714 4:0.182895 5:0.246632 6:0.168623 7:0.141844 8:0.222072 9:-0.282247 10:-0.630602 11:0.162268 12:-0.268783 13:-0.373059 14:-0.521263 15:-0.0850228 16:-0.512092 17:-0.656235 18:-0.661496 19:-0.196712 20:0.24116 21:0.019999 22:0.33359 23:0.632351 
0.9135759175199093 1:-0.246325 2:-0.189448 3:0.895714 4:-0.309248 5:0.436414 6:0.0233542 7:0.164804 8:-0.0785821 9:-0.452351 10:-0.127588 11:0.0957981 12:-0.756184 13:-0.625282 14:0.222062 15:-0.588343 16:0.135366 17:-0.7671 18:-0.768672 19:-0.325189 20:0.24116 21:-0.182316 22:-0.427647 23:0.256842 
1 1:0.43236 2:-0.0980908 3:0.673365 4:0.628048 5:-0.546264 6:0.172702 7:-0.555694 8:0.265291 9:-0.906285 10:0.220959 11:0.339454 12:0.806057 13:0.148082 14:0.30257 15:-0.60471 16:0.135366 17:-0.385054 18:-0.58712 19:0.974285 20:0.0674085 21:0.277908 22:-0.0337833 23:-0.245521 
0.07177361928817222 1:0.421891 2:0.03544 3:0.895714 4:-0.519793 5:0.368561 6:0.566858 7:0.16587 8:0.0480881 9:0.0837243 10:0.177872 11:0.26591 12:-0.248021 13:-0.58137 14:0.122703 15:-0.147425 16:0.135366 17:-0.522549 18:-0.886378 19:-0.0330317 20:0.24116 21:-0.0594117 22:-0.043806 23:0.287333 
1 1:0.306932 2:-0.13547 3:0.895714 4:0.305842 5:0.501745 6:-0.22102 7:1 8:-0.828386 9:-0.507122 10:0.799166 11:0.532694 12:-0.0458045 13:-0.262419 14:-0.679694 15:0.295544 16:0.135366 17:-0.883585 18:-0.881281 19:0.0292979 20:0.24116 21:0.70178 22:0.0645409 23:0.765302 
1 1:0.621275 2:0.290569 3:-0.432813 4:-0.428052 5:0.430782 6:0.373676 7:0.550838 8:-0.265574 9:-0.0791713 10:-0.387393 11:0.343894 12:-0.0286481 13:0.0301675 14:-0.636431 15:0.280889 16:0.135366 17:-0.522549 18:-0.532258 19:0.0433142 20:0.24116 21:0.19835 22:1 23:-0.215299 
1 1:-0.0833614 2:-0.196743 3:-0.255094 4:-0.34539 5:0.507691 6:-0.445028 7:0.351651 8:-0.211366 9:-0.235684 10:-0.262726 11:0.173437 12:-0.254482 13:-0.385934 14:0.370696 15:-0.306991 16:0.135366 17:-0.522549 18:-0.532258 19:-0.282559 20:0.24116 21:0.22272 22:0.0845195 23:-0.0966412 
1 1:0.623992 2:0.197027 3:-0.150452 4:-0.525579 5:0.18019 6:-0.0748414 7:0.474354 8:0.531632 9:0.146229 10:0.0469233 11:0.381821 12:-0.268864 13:-0.206975 14:-0.111713 15:-0.167172 16:-0.819701 17:-0.522549 18:-0.707291 19:-0.20231 20:-0.576353 21:0.0533637 22:0.0831339 23:0.287333 
0.355149531358581 1:0.0949012 2:-0.359203 3:-0.170795 4:-0.422798 5:0.0292797 6:-0.492886 7:0.61563 8:-0.335183 9:-0.885708 10:0.12247 11:-0.19538 12:-0.685976 13:-0.0916506 14:0.031661 15:-0.595232 16:-0.831676 17:-0.794753 18:-0.532258 19:-0.302415 20:0.24116 21:-0.134157 22:-0.306357 23:0.287333 
1 1:0.167452 2:-0.137231 3:0.711486 4:0.551098 5:0.231933 6:0.592636 7:-0.430201 8:0.035941 9:-0.294012 10:0.309089 11:0.586799 12:0.752154 13:0.139806 14:-0.0609837 15:-0.320296 16:-0.171431 17:0.826248 18:0.848912 19:0.974723 20:-0.615862 21:-0.26898 22:-0.208766 23:0.287333 
1 1:0.639443 2:-0.211359 3:0.895714 4:0.557699 5:-0.328466 6:0.428855 7:-0.213978 8:0.166414 9:-0.579748 10:0.535661 11:0.51706 12:-0.185132 13:-0.333403 14:0.314807 15:-0.283621 16:0.135366 17:-0.522549 18:-0.535385 19:0.124747 20:0.24116 21:0.524975 22:-0.0606694 23:0.287333 
0.006944963240079682 1:-0.574619 2:-0.390391 3:-0.571641 4:-0.0957654 5:0.0471188 6:-0.202184 7:0.206341 8:0.142175 9:-0.429894 10:-0.484779 11:0.315795 12:-0.455281 13:-0.378021 14:-0.247367 15:-0.587284 16:-0.728701 17:-0.522549 18:-0.532258 19:-0.475795 20:-0.905485 21:0.308664 22:-0.508389 23:-0.307992 
1 1:-0.436136 2:-1 3:0.895714 4:0.706357 5:-0.166006 6:-0.901944 7:-0.328983 8:0.168256 9:-0.687033 10:0.152987 11:0.20119 12:-0.913707 13:0.218327 14:-0.70792 15:-0.947879 16:-0.730662 17:-0.522549 18:-0.532258 19:-0.438911 20:-0.908088 21:0.109434 22:0.0622108 23:-0.694612 
1 1:0.638442 2:-0.146313 3:0.895714 4:-0.650949 5:0.0737788 6:0.770348 7:0.443272 8:-0.195827 9:0.0582286 10:-0.332448 11:0.141966 12:-0.113819 13:-0.548238 14:-0.111207 15:-0.0813651 16:-0.261808 17:-0.802986 18:-0.519261 19:-0.106154 20:0.163986 21:-0.190175 22:-0.409214 23:0.287333 
0.1802915080093548 1:0.469972 2:0.0230377 3:-0.566809 4:-0.274262 5:0.0450703 6:0.575912 7:0.254586 8:0.494135 9:0.43193 10:0.326331 11:0.283872 12:-0.299061 13:-0.450989 14:0.334101 15:-0.0325988 16:-0.725856 17:-0.522549 18:-0.532258 19:-0.0789797 20:-0.188653 21:0.283597 22:0.412758 23:0.287333 
1 1:0.484164 2:0.629671 3:0.895714 4:0.804802 5:-0.059579 6:-0.24817 7:0.283368 8:0.411736 9:-0.163591 10:0.757246 11:0.570873 12:-0.0572526 13:-0.549504 14:0.215092 15:0.0546151 16:-0.0642562 17:-0.522549 18:-0.532258 19:-0.0517173 20:0.24116 21:0.3544 22:0.515114 23:0.287333 
0.4071960516856989 1:-0.0419182 2:-0.183383 3:0.895714 4:-0.822903 5:0.647907 6:-0.187005 7:0.339295 8:-0.159264 9:-0.246242 10:0.140691 11:-0.268726 12:-0.357817 13:-0.609324 14:0.031661 15:-0.293321 16:0.135366 17:-0.522549 18:-0.532258 19:-0.481965 20:0.24116 21:0.417726 22:-0.157305 23:0.28813 
0.02100165459163848 1:0.134596 2:0.233734 3:-0.592098 4:-0.823083 5:0.395974 6:-0.508349 7:0.641295 8:-0.0296042 9:-0.711062 10:0.308592 11:-0.354396 12:-0.565076 13:-0.0172087 14:-0.0442894 15:-0.179736 16:0.135366 17:-0.755342 18:-0.899356 19:-0.356353 20:0.24116 21:0.173064 22:-0.437915 23:0.447142 
1 1:0.128686 2:0.246811 3:0.895714 4:-0.222686 5:-0.181211 6:-0.0751211 7:-0.18813 8:-0.321421 9:-0.164453 10:0.140691 11:0.47981 12:-0.213485 13:-0.641339 14:-0.792085 15:-0.228394 16:0.135366 17:-0.522549 18:-0.532258 19:-0.318128 20:0.24116 21:0.144119 22:-0.302383 23:0.287333 
0.5726430866857749 1:-0.449321 2:-0.169944 3:0.895714 4:0.728679 5:0.0720716 6:-0.957684 7:-0.291904 8:-0.0225114 9:-0.850969 10:0.045675 11:-0.726943 12:1 13:-0.43153 14:-0.0364538 15:-0.472432 16:0.135366 17:-0.851001 18:-0.532258 19:0.970064 20:0.24116 21:0.332261 22:0.566568 23:-0.571896 
0.8654101172631914 1:-0.39933 2:-0.527588 3:0.895714 4:0.911214 5:0.522854 6:-0.773668 7:0.254287 8:-0.551538 9:-0.5544 10:0.0732983 11:-0.158542 12:-0.49122 13:-0.561066 14:-0.136813 15:-0.559076 16:-0.599245 17:-0.522549 18:-0.532258 19:-0.311162 20:0.24116 21:0.0579874 22:0.266539 23:0.287333 
1 1:0.494992 2:0.495429 3:-0.336823 4:-0.63388 5:0.0723351 6:-0.183791 7:-0.0986357 8:-0.303439 9:-0.117715 10:0.213818 11:0.451448 12:0.204699 13:-0.0933506 14:-0.29864 15:-0.237408 16:0.135366 17:-0.522549 18:-0.532258 19:0.207508 20:0.24116 21:0.258388 22:0.319535 23:-0.535605 
1 1:-0.447632 2:-0.0819943 3:0.895714 4:0.67955 5:-0.0189026 6:-0.609614 7:0.583794 8:-0.13175 9:-0.728078 10:0.0479708 11:0.34385 12:-0.559282 13:-0.308892 14:-0.248175 15:-0.154607 16:0.135366 17:-0.556284 18:-0.385455 19:-0.37666 20:0.24116 21:0.30766 22:-0.0456409 23:0.525049 
1 1:0.0545449 2:-0.00388724 3:0.895714 4:-0.521414 5:0.241443 6:0.189521 7:0.232967 8:0.193754 9:-0.125619 10:-0.78127 11:-0.0108241 12:0.471127 13:-0.146281 14:-0.170396 15:-0.286474 16:0.135366 17:-0.857995 18:-0.532258 19:0.62518 20:-0.785879 21:0.245751 22:0.184662 23:-0.590193 
1 1:-0.142218 2:-0.136121 3:0.895714 4:-0.693965 5:-0.0348068 6:-0.3798 7:0.222438 8:0.115518 9:-0.346551 10:-0.80281 11:-0.219766 12:-0.378323 13:-0.988234 14:0.317049 15:-0.536505 16:-0.656652 17:-0.522549 18:-0.532258 19:-0.269321 20:0.24116 21:-0.573717 22:0.0722417 23:0.287333 
1 1:-0.633964 2:0.457954 3:0.895714 4:0.145639 5:-0.00472669 6:-0.859077 7:0.581926 8:-0.0754088 9:-0.928601 10:0.307753 11:-0.00314724 12:-0.284988 13:-0.135416 14:0.031661 15:-0.0175316 16:0.135366 17:0.585439 18:0.699811 19:-0.163008 20:0.24116 21:0.267032 22:0.183537 23:0.446343 
1 1:0.570023 2:0.400197 3:0.525718 4:0.361727 5:-0.0941079 6:-0.0626364 7:0.188529 8:-0.356133 9:-0.0491649 10:0.611064 11:0.358418 12:-0.140219 13:-0.683044 14:-0.154403 15:-0.462263 16:0.115805 17:-0.522549 18:-0.532258 19:-0.141195 20:-0.947749 21:0.457389 22:0.698778 23:0.287333 
0.8226431928811252 1:-0.275718 2:-0.404826 3:0.895714 4:-0.395549 5:0.73085 6:-0.232801 7:0.340144 8:-0.204722 9:-0.260079 10:-0.927358 11:-0.294751 12:-0.317509 13:-0.752151 14:-0.154962 15:-0.5769 16:0.135366 17:-0.522549 18:-0.907927 19:-0.302172 20:-0.235557 21:0.216361 22:0.169351 23:0.287333 
1 1:0.431468 2:0.43863 3:0.895714 4:0.46502 5:0.146848 6:0.441473 7:0.21787 8:0.19565 9:-0.187204 10:0.502841 11:0.733445 12:0.88586 13:-0.0633666 14:0.121921 15:0.638774 16:-0.43698 17:-0.522549 18:-0.772075 19:0.889941 20:0.24116 21:0.285072 22:0.231802 23:0.287333 
1 1:0.534629 2:0.558567 3:-0.380699 4:-0.529244 5:0.325002 6:-0.0175864 7:0.238617 8:0.0744425 9:-0.385241 10:0.183039 11:-0.228287 12:-0.396595 13:-0.255958 14:0.031661 15:-0.218795 16:0.135366 17:-0.848327 18:-0.847196 19:-0.293826 20:0.24116 21:0.629535 22:-0.532649 23:-0.180504 
1 1:0.136597 2:0.504332 3:-0.58792 4:0.415842 5:-0.123848 6:-0.392039 7:0.450239 8:0.267818 9:-0.458136 10:0.143906 11:0.604438 12:-0.386844 13:-0.487559 14:-0.714432 15:-0.213729 16:-0.399268 17:-0.522549 18:-0.898325 19:-0.310326 20:0.24116 21:0.734734 22:0.119749 23:0.0655359 
1 1:0.50853 2:0.0692233 3:0.895714 4:0.305083 5:0.0286453 6:0.542148 7:0.339215 8:0.221686 9:0.0629454 10:-0.0454568 11:0.442182 12:-0.262795 13:-0.575865 14:-0.101784 15:-0.0136879 16:0.135366 17:0.401111 18:0.357591 19:-0.25981 20:-0.560926 21:0.251006 22:0.331417 23:0.287333 
1 1:-0.130234 2:-0.931665 3:0.895714 4:-0.391198 5:0.71134 6:-0.33698 7:-0.0121977 8:-0.480764 9:-0.596599 10:0.0237861 11:0.162185 12:-0.296613 13:-0.0361502 14:0.16122 15:-0.0547955 16:0.135366 17:-0.522549 18:-0.532258 19:-0.13587 20:0.24116 21:-0.257987 22:0.0943782 23:0.287333 
1 1:-0.0363243 2:0.0716456 3:0.895714 4:0.426172 5:0.39255 6:-0.279172 7:0.391943 8:0.00321006 9:-0.0329321 10:-0.0403729 11:-0.0773615 12:-0.0944851 13:-0.00181851 14:-0.38766 15:0.00395898 16:0.135366 17:0.634569 18:0.528305 19:-0.139508 20:0.24116 21:0.147669 22:0.507712 23:0.114996 
1 1:0.840297 2:0.116751 3:-0.35741 4:-0.846326 5:0.757336 6:-0.306742 7:0.582522 8:0.0954078 9:-0.315949 10:0.945711 11:-0.326623 12:-0.566384 13:0.417384 14:0.031661 15:-0.367048 16:0.135366 17:-0.842383 18:-0.532258 19:-0.204277 20:0.306535 21:0.541911 22:0.0369942 23:0.287333 
1 1:-0.00346562 2:0.367519 3:0.895714 4:-0.121223 5:-0.645083 6:0.187327 7:0.00338304 8:0.188469 9:-0.516584 10:0.284099 11:0.662365 12:-0.352316 13:-0.740561 14:-0.537776 15:-0.170354 16:-0.531428 17:0.00910153 18:-0.0608514 19:-0.306034 20:0.24116 21:0.27947 22:0.350687 23:0.287333 
1 1:-0.475673 2:-0.374208 3:0.171484 4:0.0678272 5:-0.272784 6:-0.448997 7:0.7328 8:-0.23768 9:-0.981887 10:-0.367347 11:-0.181778 12:-0.461692 13:-0.956231 14:-0.0430213 15:-0.188904 16:0.135366 17:0.275126 18:0.358336 19:-0.596565 20:0.24116 21:0.534732 22:-0.0900887 23:0.413035 
0.9247796701482432 1:-0.767271 2:-0.251762 3:0.895714 4:0.739483 5:0.11445 6:-0.737755 7:0.35784 8:-0.467645 9:-0.54519 10:0.11808 11:-0.365627 12:-0.164247 13:-0.796361 14:0.015452 15:-0.711883 16:0.135366 17:-0.522549 18:-0.532258 19:-0.366006 20:0.24116 21:0.54627 22:0.330269 23:0.287333 
0.7412046916989586 1:0.195404 2:-0.370141 3:-0.322147 4:-0.576135 5:0.260032 6:0.525249 7:0.160776 8:0.139966 9:0.072745 10:-0.713623 11:0.311066 12:-0.0247032 13:-0.459238 14:0.031661 15:0.235809 16:0.135366 17:-0.522549 18:-0.548646 19:0.268679 20:0.24116 21:-0.228823 22:-0.113681 23:-0.141411 
1 1:0.495484 2:-0.0942244 3:0.895714 4:0.532568 5:-0.0285078 6:-0.295154 7:0.50508 8:-0.349033 9:-0.0229624 10:0.0853571 11:-0.0403686 12:-0.446585 13:-0.778608 14:0.281513 15:-0.373327 16:0.135366 17:-0.522549 18:-0.918918 19:-0.101854 20:0.24116 21:-0.0376521 22:0.324158 23:0.287333 
1 1:-0.21913 2:-0.291678 3:0.62511 4:-0.884787 5:0.423871 6:-0.730148 7:0.501847 8:-0.149291 9:-0.48011 10:-0.452995 11:0.529653 12:-0.367915 13:-0.804262 14:0.031661 15:-0.360582 16:-0.363001 17:-0.522549 18:-0.532258 19:-0.562003 20:0.24116 21:0.0982751 22:-0.313585 23:-0.27774 
1 1:0.985541 2:-0.261647 3:-0.52943 4:-0.601055 5:-0.199673 6:0.37659 7:0.0058486 8:-0.656126 9:-0.0310131 10:0.352554 11:0.0686453 12:-0.48885 13:0.352487 14:0.031661 15:-0.0667352 16:0.135366 17:-0.522549 18:-0.532258 19:-0.5081 20:0.24116 21:0.43432 22:-0.351815 23:-0.664205 
0.535335419960236 1:0.316693 2:0.0616656 3:0.895714 4:0.563357 5:0.318889 6:0.107402 7:0.221906 8:0.720364 9:0.0687379 10:-0.536816 11:-0.354461 12:-0.0672194 13:-0.444228 14:-0.164509 15:-0.153593 16:-0.970695 17:-0.522549 18:-0.532258 19:-0.0196882 20:0.0363795 21:-0.397739 22:-0.489693 23:0.496761 
1 1:0.88146 2:0.2129 3:0.895714 4:0.491505 5:0.137405 6:0.302177 7:0.630452 8:-0.0671295 9:0.183551 10:0.58066 11:0.381486 12:0.0530194 13:-0.40153 14:-0.546816 15:0.238704 16:0.135366 17:-0.522549 18:-0.532258 19:0.397866 20:-0.394576 21:0.594791 22:0.0232296 23:0.287333 
0.2555973700023931 1:-0.254097 2:-0.169916 3:-0.556013 4:0.73155 5:0.229661 6:-0.239214 7:0.0756414 8:-0.208637 9:-0.406889 10:-0.237573 11:0.225091 12:-0.170022 13:-0.483976 14:-0.698387 15:-0.140157 16:0.0676802 17:0.503136 18:0.580539 19:0.110353 20:-0.893274 21:0.439802 22:-0.0422662 23:-0.681954 
1 1:0.0351457 2:-0.249712 3:0.895714 4:0.992228 5:0.255762 6:-0.637962 7:0.416174 8:-0.383904 9:-0.532715 10:-0.399824 11:-0.781127 12:-0.698514 13:-0.564888 14:-0.645343 15:-0.607977 16:-0.657386 17:-0.866151 18:-0.864426 19:-0.402104 20:-0.810848 21:0.295136 22:-0.00616567 23:0.287333 
1 1:0.109205 2:-0.0339293 3:0.895714 4:0.311069 5:0.19464 6:0.517935 7:0.040159 8:0.21114 9:-0.131403 10:0.187446 11:0.47516 12:-0.298348 13:-0.0237934 14:-0.224341 15:0.245505 16:0.135366 17:0.761931 18:0.578537 19:-0.0794661 20:0.293243 21:-0.621606 22:0.578237 23:0.287333 
1 1:0.395189 2:-0.223939 3:0.895714 4:0.508654 5:0.0800742 6:0.57741 7:0.250049 8:-0.080618 9:-0.0129563 10:-0.628425 11:0.0988732 12:-0.363482 13:-0.391548 14:-0.350345 15:0.00891573 16:-0.849284 17:-0.655443 18:-0.577636 19:-0.311259 20:-0.165724 21:0.0913092 22:-0.286735 23:0.287333 
0.1959340192955876 1:0.73173 2:-0.418674 3:0.895714 4:-0.781144 5:0.64435 6:1 7:0.157653 8:-0.000175057 9:0.072238 10:0.437807 11:0.2382 12:0.495261 13:-0.607927 14:-0.623902 15:0.118563 16:0.135366 17:-0.522549 18:-0.532258 19:0.780118 20:-0.777531 21:0.321802 22:-0.647787 23:0.287333 
0.7990646653979327 1:0.114416 2:-0.300535 3:0.895714 4:0.727477 5:0.648707 6:-0.291753 7:-0.0460478 8:-0.517622 9:-0.361998 10:0.109822 11:0.119541 12:-0.194762 13:-0.310001 14:0.00953187 15:-0.559911 16:-0.0312522 17:-0.522549 18:-0.532258 19:-0.205424 20:0.24116 21:-0.120087 22:0.369791 23:0.287333 
1 1:0.691862 2:0.533434 3:0.895714 4:0.0799803 5:-0.204727 6:0.470735 7:-0.0228455 8:0.358431 9:-0.316872 10:0.130659 11:0.247926 12:-0.311352 13:-0.278005 14:0.031661 15:-0.0691871 16:0.037772 17:-0.759095 18:-0.902984 19:-0.360702 20:0.24116 21:0.449617 22:0.870711 23:-0.715865 
1 1:0.302409 2:0.0202032 3:0.895714 4:0.415129 5:-0.207065 6:-0.892508 7:0.370158 8:0.0686634 9:-0.0683984 10:-0.276197 11:-0.013153 12:-0.4674 13:-0.437748 14:0.031661 15:-0.208586 16:-0.751921 17:-0.67423 18:-0.678892 19:-0.361965 20:0.24116 21:0.521287 22:-0.492013 23:0.287333 
1 1:-0.645299 2:0.607245 3:1 4:0.503461 5:-0.294054 6:0.16787 7:0.0851202 8:0.102757 9:0.117951 10:0.747722 11:0.379996 12:-0.42964 13:-0.134764 14:0.0841048 15:-0.630752 16:-0.340556 17:-0.728828 18:-0.532258 19:-0.181227 20:0.322653 21:0.663152 22:-0.343282 23:0.287333 
1 1:0.421233 2:-0.551055 3:0.895714 4:-0.278589 5:0.65907 6:0.106863 7:0.362167 8:-0.607276 9:-0.440154 10:-0.749008 11:0.0785385 12:0.0771039 13:-0.418221 14:-0.316626 15:0.281765 16:0.135366 17:-0.699316 18:-0.561092 19:0.256415 20:-0.74994 21:0.099719 22:0.0564887 23:0.287333 
0.7160561461115713 1:-0.802985 2:0.143645 3:0.895714 4:0.805748 5:-0.44103 6:-0.415855 7:0.499607 8:-0.187893 9:-0.558979 10:0.264574 11:-0.355069 12:-0.480854 13:-0.775349 14:0.40999 15:-0.423024 16:-0.0996605 17:-0.0806707 18:0.0205641 19:-0.500406 20:0.24116 21:0.0979743 22:0.9475 23:0.287333 
1 1:-0.0931034 2:-0.364697 3:0.895714 4:-0.651643 5:0.675273 6:0.196639 7:0.186443 8:-0.248243 9:-0.0560249 10:-0.778645 11:0.157581 12:-0.190788 13:-0.314424 14:0.031661 15:0.406713 16:0.135366 17:-0.522549 18:-0.532258 19:-0.13364 20:0.24116 21:-0.286798 22:0.312629 23:0.0215588 
0.9556818849126119 1:-0.960726 2:-0.316823 3:0.895714 4:-0.443386 5:-0.281032 6:-0.548815 7:0.389023 8:0.412849 9:-0.770325 10:-0.226821 11:-0.21686 12:-0.549274 13:-0.346586 14:-0.690678 15:-0.428547 16:-0.710472 17:0.174457 18:0.052958 19:-0.367029 20:0.24116 21:0.169379 22:0.00192506 23:0.321931 
1 1:0.361054 2:-0.583824 3:-0.0697977 4:0.661466 5:0.76093 6:-0.0212022 7:-0.0203367 8:0.000762283 9:-0.425273 10:-0.132743 11:0.145564 12:-0.227599 13:0.181181 14:-0.164358 15:-0.0652763 16:-0.433185 17:-0.768976 18:-0.532258 19:-0.00817083 20:0.24116 21:0.234368 22:0.335722 23:0.535222 
1 1:0.0396369 2:0.108203 3:0.895714 4:-0.556283 5:0.306864 6:-0.117033 7:0.249757 8:-0.042724 9:-0.281551 10:0.233065 11:-0.31793 12:-0.775115 13:-0.274084 14:0.387402 15:-0.37827 16:0.135366 17:0.16391 18:0.345206 19:-0.343407 20:0.24116 21:-0.104917 22:0.600985 23:-0.393539 
0.5303109689816784 1:0.249995 2:-0.283289 3:0.895714 4:0.950378 5:-1 6:-0.0489953 7:-0.22168 8:-0.0167172 9:-0.735055 10:0.117022 11:-0.460277 12:-0.432711 13:-0.63561 14:0.0790807 15:-0.620761 16:0.135366 17:-0.522549 18:-0.532258 19:-0.454075 20:0.314846 21:0.274512 22:0.239561 23:-0.728845 
0.4103131606138141 1:0.135753 2:0.47905 3:0.895714 4:-0.542898 5:0.421921 6:0.121039 7:0.52585 8:0.693177 9:-0.490589 10:0.36412 11:0.0398107 12:0.177465 13:0.309409 14:-0.556564 15:-0.788848 16:0.135366 17:-0.522549 18:-0.532258 19:0.632661 20:0.24116 21:0.437047 22:0.0117064 23:-0.493656 
0.1904202617801988 1:0.517509 2:0.0327569 3:0.895714 4:0.338041 5:-0.353897 6:0.496443 7:0.0156985 8:-0.197793 9:-0.398192 10:0.0992139 11:0.0882238 12:-0.160058 13:-0.475638 14:-0.118234 15:-0.41292 16:0.135366 17:-0.25744 18:-0.29011 19:0.148877 20:0.24116 21:-0.0494636 22:-0.572925 23:-0.520938 
1 1:0.0902322 2:0.0711821 3:0.895714 4:0.711321 5:0.381326 6:-0.181532 7:0.0459435 8:-0.281727 9:-0.254556 10:-0.752514 11:0.212974 12:-0.395638 13:-0.57749 14:-0.0296207 15:-0.381052 16:0.135366 17:-0.700592 18:-0.846428 19:-0.380529 20:0.24116 21:-0.263499 22:0.119498 23:0.205969 
1 1:-0.00603683 2:0.244524 3:0.895714 4:-0.0928172 5:-0.35287 6:0.113102 7:0.0165024 8:0.0642009 9:-0.597477 10:0.0301572 11:-0.199513 12:-0.333174 13:-0.224373 14:0.12178 15:-0.642017 16:0.135366 17:-0.522549 18:-0.855239 19:-0.303468 20:-0.0686927 21:-0.401758 22:-0.192786 23:0.287333 
1 1:0.968546 2:0.158673 3:0.895714 4:-0.467481 5:0.0435879 6:-0.423688 7:0.0389711 8:0.355127 9:-0.218251 10:0.715802 11:0.123258 12:-0.0793087 13:0.420295 14:0.031661 15:-0.105913 16:-0.456526 17:-0.522549 18:-0.532258 19:0.176831 20:-0.5443 21:-0.211702 22:0.546508 23:-0.383783 
-1 1:0.57416 2:-0.204649 3:0.895714 4:-0.630831 5:0.0784941 6:-0.679486 7:-0.250633 8:0.190858 9:-0.433831 10:0.514989 11:0.398557 12:-0.12075 13:-0.0720182 14:-0.242708 15:-0.175115 16:0.135366 17:-0.522549 18:-0.892022 19:-0.0195946 20:0.24116 21:0.60126 22:0.308692 23:0.287333 
-1 1:-0.611627 2:-0.441607 3:0.895714 4:0.531637 5:0.724437 6:-0.428037 7:0.4671 8:-0.336181 9:-0.236441 10:-0.143325 11:0.302873 12:-0.128728 13:-0.938352 14:-0.00258583 15:-0.504949 16:0.0952643 17:-0.522549 18:-0.532258 19:-0.141877 20:0.24116 21:-0.916529 22:0.518095 23:0.287333 
-1 1:-0.322402 2:-0.29541 3:0.895714 4:0.695692 5:0.44761 6:-0.709277 7:0.379543 8:0.19333 9:-0.620821 10:-0.279451 11:0.0415459 12:-0.645773 13:-0.267169 14:0.031661 15:-0.630792 16:0.135366 17:-0.522549 18:-0.532258 19:-0.218937 20:0.24116 21:0.333092 22:0.322091 23:0.287333 
-1 1:0.416285 2:-0.11586 3:0.895714 4:-0.776283 5:-0.296622 6:-0.20241 7:0.496678 8:-0.258446 9:-0.271775 10:-0.652571 11:-0.099234 12:0.0367984 13:0.197748 14:0.031661 15:-0.0717078 16:-0.869554 17:-0.95811 18:-0.953326 19:0.334946 20:0.24116 21:0.640511 22:0.37352 23:0.287333 
-1 1:0.474172 2:0.584401 3:0.895714 4:0.77197 5:-0.500829 6:0.0830061 7:0.72342 8:0.34264 9:-0.499582 10:-0.0482914 11:0.0551088 12:-0.544493 13:-0.378896 14:0.031661 15:-0.221794 16:0.135366 17:0.622039 18:0.502862 19:-0.336545 20:0.24116 21:0.774006 22:0.0810093 23:1 
-1 1:1 2:0.107977 3:-0.31523 4:-0.794524 5:-0.123049 6:-0.184248 7:-0.00593856 8:-0.452181 9:0.201898 10:0.228965 11:0.596328 12:-0.0390527 13:-0.262265 14:-0.287781 15:0.122389 16:0.135366 17:-0.522549 18:-0.532258 19:0.146563 20:0.24116 21:0.160941 22:-1 23:-0.905587 
-1 1:0.571155 2:-0.313505 3:0.895714 4:-0.259867 5:0.844997 6:0.235155 7:0.585563 8:-0.490878 9:0.00104105 10:0.0859424 11:0.287435 12:0.140017 13:-0.581317 14:0.0685667 15:1 16:-0.697771 17:-0.522549 18:-0.532258 19:0.179137 20:0.24116 21:0.417677 22:0.346484 23:0.111475 
-1 1:0.0771675 2:0.782921 3:0.895714 4:0.36033 5:-0.570043 6:-0.0383511 7:-0.150426 8:0.362597 9:-0.491205 10:0.140691 11:0.696057 12:-0.485333 13:-0.145974 14:0.994555 15:-0.283273 16:0.135366 17:-0.689121 18:-0.532258 19:-0.085914 20:-0.268835 21:0.36887 22:-0.231586 23:0.287333 
-1 1:0.764802 2:0.618673 3:0.895714 4:0.685419 5:-0.0896522 6:-0.0957919 7:0.423752 8:0.120314 9:-0.585579 10:-0.225461 11:-0.142086 12:-0.0757987 13:-0.247951 14:0.481228 15:0.52602 16:0.135366 17:-0.214947 18:-0.331213 19:-0.0832803 20:0.24116 21:0.616038 22:0.406747 23:0.287333 
-1 1:-0.648674 2:0.846356 3:0.895714 4:-0.196206 5:-0.436974 6:0.0556478 7:-0.292214 8:0.740398 9:-0.457566 10:0.232959 11:0.00599237 12:-0.421266 13:-0.297667 14:-0.0223549 15:-0.327575 16:1 17:-0.522549 18:-0.532258 19:-0.194544 20:-0.555836 21:0.304593 22:0.701657 23:0.287333 
-1 1:0.742345 2:0.0577024 3:0.895714 4:-0.339915 5:0.117581 6:0.426475 7:0.202378 8:-0.523336 9:-0.110321 10:0.340231 11:0.923436 12:0.328925 13:-0.183803 14:-0.638078 15:0.0234392 16:-0.648879 17:-0.629568 18:-0.860862 19:0.478592 20:1 21:0.36536 22:0.132375 23:0.287333 
-1 1:-0.0638129 2:0.252802 3:-0.516723 4:-0.620437 5:0.437662 6:-0.0495802 7:0.633269 8:0.478357 9:-0.0342521 10:0.193848 11:0.31206 12:-0.283667 13:-0.522929 14:-0.678628 15:-0.244159 16:-0.696362 17:-0.522549 18:-0.532258 19:-0.203701 20:0.24116 21:0.104284 22:-0.203784 23:-0.271326 
-1 1:0.432667 2:0.0177844 3:0.439958 4:0.467399 5:0.944338 6:0.558774 7:0.248446 8:-0.0680398 9:0.016776 10:-0.819121 11:0.591708 12:-0.0504918 13:-0.250405 14:0.526994 15:0.52915 16:-0.331323 17:-0.236699 18:-0.0808188 19:0.0429931 20:0.24116 21:0.131922 22:0.298374 23:0.837316 
-1 1:0.772472 2:-0.663741 3:0.688186 4:-0.579112 5:0.408383 6:0.295581 7:0.468007 8:-0.686558 9:0.209628 10:-0.408749 11:0.180178 12:-0.452036 13:-0.425353 14:0.031661 15:0.48517 16:-0.863191 17:-0.522549 18:-0.532258 19:-0.472673 20:0.24116 21:-0.433004 22:-0.720949 23:0.287333 
-1 1:-0.555971 2:-0.0244278 3:-0.785355 4:-0.105849 5:-0.199766 6:-0.373791 7:-0.0628228 8:0.162515 9:-0.752924 10:-0.230836 11:0.129574 12:-0.447526 13:-0.682411 14:0.547152 15:-0.555734 16:0.162509 17:-0.522549 18:-0.532258 19:-0.638616 20:-0.6226 21:0.412281 22:-0.19977 23:0.287333 
-1 1:-0.483299 2:-0.519998 3:0.298205 4:0.0826646 5:0.308303 6:-0.623813 7:0.100683 8:-0.0599495 9:-0.847542 10:0.125407 11:-0.404301 12:-0.822285 13:-0.901983 14:0.443239 15:-1 16:0.135366 17:-0.522549 18:-0.532258 19:-0.658693 20:-0.675646 21:-0.200908 22:0.16121 23:0.287333 
-1 1:-0.0253308 2:-0.560842 3:0.895714 4:-0.279729 5:0.743378 6:0.331414 7:0.14557 8:-0.372639 9:-0.384437 10:0.144072 11:-0.0606685 12:-0.374316 13:-0.698423 14:-0.638159 15:-0.338185 16:-0.648974 17:-0.522549 18:-0.532258 19:-0.210646 20:0.24116 21:-0.125391 22:-0.356738 23:0.287333 
-1 1:-0.406342 2:-0.459803 3:0.895714 4:0.790202 5:0.679901 6:-0.233039 7:0.299893 8:-0.593719 9:-0.344869 10:-0.354523 11:-0.431523 12:-0.32477 13:-0.774494 14:-0.0338277 15:-0.508139 16:-0.280339 17:0.237823 18:0.238349 19:-0.195771 20:0.24116 21:-0.534106 22:-0.221413 23:-0.56841 
-1 1:0.858871 2:0.47579 3:0.895714 4:0.464512 5:-0.371942 6:0.462478 7:-0.022496 8:-0.117209 9:0.0713512 10:-0.00602329 11:0.744759 12:-0.525974 13:-0.276704 14:0.0670252 15:0.193253 16:-0.237637 17:0.359286 18:0.276606 19:-0.328752 20:0.24116 21:0.44207 22:0.241683 23:0.287333 
-1 1:-0.141695 2:0.872131 3:0.239171 4:0.0699878 5:-0.0726167 6:-0.0576169 7:0.177861 8:0.465264 9:-0.0389153 10:0.21401 11:0.528616 12:0.0191805 13:0.0653503 14:-0.129144 15:-0.267517 16:0.135366 17:-0.690118 18:-0.5522 19:0.306074 20:0.178002 21:0.758014 22:0.0687988 23:-0.151027 
-1 1:0.15077 2:0.233122 3:0.895714 4:0.0854414 5:-0.0739619 6:-0.441425 7:0.564417 8:0.0319415 9:-0.391628 10:-0.721303 11:-0.0617392 12:0.279284 13:-0.452434 14:-0.586285 15:-0.150305 16:0.135366 17:-0.836177 18:-0.532258 19:0.69236 20:0.24116 21:0.457865 22:0.45053 23:0.287333 
-1 1:-0.0221317 2:-0.167039 3:0.895714 4:0.779687 5:0.387776 6:-0.612997 7:0.0216489 8:-0.0210005 9:-0.518642 10:-0.378263 11:-0.0751439 12:-0.689067 13:-0.292666 14:-0.0508474 15:-0.38888 16:0.0387514 17:-0.564425 18:-0.2645 19:-0.22273 20:-0.33694 21:0.070191 22:0.489704 23:0.287333 
-1 1:-0.658407 2:-0.306725 3:0.895714 4:1 5:-0.184905 6:-0.710318 7:0.00521486 8:-0.648566 9:-0.881905 10:-0.785656 11:-0.108144 12:-0.233211 13:-0.834886 14:-0.342897 15:-0.845645 16:-0.104918 17:-0.522549 18:-0.532258 19:-0.432372 20:-0.790764 21:0.372399 22:0.651974 23:0.287333 
-1 1:0.469804 2:-0.182962 3:0.895714 4:-0.800709 5:0.105861 6:0.296851 7:0.0793872 8:-0.513638 9:0.198761 10:-0.727827 11:0.412999 12:-0.0205055 13:-0.444479 14:0.031661 15:-0.00371841 16:0.135366 17:-0.985492 18:-0.979797 19:-0.0725947 20:-0.463176 21:0.614993 22:-0.230025 23:0.287333 
-1 1:0.56274 2:0.852389 3:0.895714 4:0.447529 5:0.544755 6:0.0954961 7:0.826143 8:0.27927 9:-0.0651088 10:0.944804 11:0.244502 12:-0.0478139 13:0.0838431 14:-0.103941 15:0.213506 16:0.135366 17:-0.522549 18:-0.532258 19:0.256894 20:0.24116 21:1 22:0.566501 23:-0.277102 
-1 1:-0.142581 2:-0.208065 3:0.895714 4:0.100934 5:-0.872711 6:-0.0922429 7:0.258774 8:-0.0786803 9:-0.66351 10:-0.817336 11:0.284247 12:-0.527547 13:-0.144267 14:0.57473 15:-0.291314 16:-0.668845 17:-0.522549 18:-0.869228 19:-0.320237 20:0.24116 21:0.0387956 22:0.581103 23:0.287333 
-1 1:0.491101 2:-0.0894981 3:-0.442349 4:0.643406 5:0.170734 6:0.373372 7:0.460908 8:-0.954244 9:-0.307469 10:0.139792 11:-0.292208 12:-0.0616474 13:-0.741906 14:0.320536 15:0.511042 16:-0.652566 17:0.411308 18:0.363921 19:0.0574424 20:-0.804452 21:0.416177 22:0.391319 23:-0.606063 
-1 1:0.672433 2:0.104486 3:0.895714 4:0.323358 5:0.929171 6:-0.353942 7:0.41961 8:-0.10814 9:-0.322893 10:0.761539 11:0.616985 12:-0.236217 13:0.375559 14:1 15:-0.243594 16:-0.219817 17:-0.522549 18:-0.532258 19:0.0629849 20:0.24116 21:0.250358 22:0.697627 23:0.653402 
-1 1:0.175794 2:-0.525486 3:0.895714 4:-0.660109 5:-0.460804 6:-0.477122 7:0.0751477 8:-0.514268 9:0.200369 10:0.0431924 11:0.520655 12:-0.315007 13:-0.0435767 14:-1 15:-0.175861 16:0.135366 17:-0.522549 18:-0.566552 19:-0.182507 20:0.24116 21:0.106254 22:-0.572964 23:0.287333 
-1 1:0.280061 2:0.398141 3:0.895714 4:0.746388 5:-0.262003 6:-0.214335 7:0.587866 8:-0.722975 9:-0.264108 10:0.140691 11:-0.112152 12:-0.498242 13:0.117043 14:-0.0281413 15:-0.298315 16:-0.471993 17:-0.785796 18:-0.502643 19:-0.138701 20:0.24116 21:0.384181 22:-0.134337 23:0.287333 
-1 1:-0.183236 2:-0.612522 3:0.895714 4:0.234151 5:-0.00633423 6:0.229149 7:0.146248 8:-0.501203 9:-0.288171 10:0.100146 11:0.430812 12:-0.406017 13:-0.592576 14:0.00259531 15:-0.315679 16:0.135366 17:-0.522549 18:-0.532258 19:-0.158493 20:-0.517065 21:0.0207366 22:0.0500737 23:0.287333 
-1 1:-0.764814 2:0.0940676 3:0.895714 4:0.704509 5:-0.700191 6:-0.00710033 7:0.102295 8:-0.0636205 9:-0.356916 10:-0.241412 11:0.261595 12:-0.629107 13:0.128357 14:0.031661 15:-0.426729 16:0.135366 17:-0.320387 18:-0.666657 19:-0.472792 20:0.24116 21:0.436378 22:-0.32901 23:0.287333 
-1 1:0.558586 2:-0.633278 3:-0.306718 4:-0.965866 5:0.00403181 6:0.186423 7:0.0585913 8:0.0723671 9:0.0165405 10:-0.7028 11:0.477032 12:0.368687 13:0.00451567 14:0.0992238 15:0.0170221 16:0.135366 17:-0.522549 18:-0.532258 19:0.961451 20:0.464483 21:-0.335095 22:0.132021 23:0.287333 
-1 1:0.391022 2:0.0383611 3:-0.400924 4:-0.619324 5:-0.228051 6:0.0694118 7:0.139124 8:0.201032 9:0.234 10:-0.038965 11:0.261913 12:0.0362189 13:-0.456862 14:-0.909915 15:0.100614 16:0.135366 17:-0.853489 18:-0.994237 19:0.0216068 20:-0.772081 21:0.237901 22:0.0839408 23:0.287333 
-1 1:0.445349 2:-0.556804 3:0.895714 4:-0.931276 5:0.433108 6:0.104373 7:0.187774 8:-0.0848972 9:-0.165656 10:0.043876 11:-0.0941226 12:-0.0612989 13:-0.465814 14:0.0824182 15:-0.00753911 16:0.135366 17:-0.522549 18:-0.532258 19:-0.0333108 20:-0.129857 21:-0.0294343 22:-0.496339 23:-0.414069 
-1 1:0.233546 2:-0.0944965 3:0.895714 4:-0.644075 5:-0.00796898 6:0.0347016 7:0.273101 8:-0.0461034 9:-0.0180913 10:0.288638 11:0.471435 12:-0.03052 13:-0.663527 14:0.137721 15:0.100065 16:-0.527619 17:-0.522549 18:-0.532258 19:0.0513407 20:-0.188753 21:0.325099 22:-0.0148688 23:0.287333 
-1 1:-0.06888 2:0.0608667 3:0.895714 4:0.323807 5:-0.314444 6:-0.0169727 7:-0.236314 8:0.417526 9:-0.254494 10:0.114135 11:0.618898 12:-0.342923 13:0.0461681 14:0.22599 15:-0.377201 16:0.135366 17:-0.618166 18:-0.766745 19:-0.197385 20:-0.501481 21:0.298585 22:0.557035 23:0.287333 
-1 1:0.382512 2:-0.39148 3:0.895714 4:-0.362766 5:-0.156637 6:-0.75641 7:-0.872078 8:0.0773681 9:-0.540271 10:1 11:0.811764 12:-1 13:-0.0506183 14:-0.390234 15:-0.926073 16:0.135366 17:-0.557056 18:-0.565617 19:-1 20:0.961733 21:0.0416955 22:-0.464513 23:0.287333 
-1 1:0.513611 2:-0.024906 3:0.975178 4:-0.351616 5:0.257939 6:0.0171788 7:0.795615 8:-0.855749 9:-0.11401 10:0.028816 11:0.177763 12:-0.29441 13:-0.556791 14:0.0716221 15:0.296669 16:0.135366 17:-0.522549 18:-0.532258 19:-0.188569 20:-0.146634 21:0.433152 22:0.0994668 23:0.287333 
-1 1:-0.26922 2:-0.633859 3:0.895714 4:0.828131 5:0.366939 6:-0.801275 7:0.366829 8:-0.420881 9:-0.638443 10:0.0634632 11:-0.0370385 12:-0.906388 13:-0.315435 14:-0.0237018 15:-0.772524 16:0.135366 17:-0.522549 18:-0.532258 19:-0.344244 20:0.24116 21:0.124329 22:-0.625523 23:0.287333 
-1 1:0.860191 2:-0.134799 3:0.405718 4:-0.368215 5:0.474142 6:0.78216 7:-0.081934 8:0.141817 9:-0.0343075 10:0.200826 11:0.795826 12:0.770339 13:0.312556 14:0.244129 15:0.539044 16:0.135366 17:0.979338 18:0.903003 19:0.882533 20:0.24116 21:-0.303204 22:0.193822 23:0.287333 
-1 1:-0.0604218 2:-0.269979 3:0.895714 4:0.86352 5:-0.0607764 6:-0.689517 7:0.316414 8:-0.483523 9:-0.750089 10:-0.328975 11:-0.40028 12:-0.153104 13:-0.643599 14:-0.305033 15:-0.233892 16:-0.597912 17:-0.522549 18:-0.532258 19:-0.15425 20:0.24116 21:0.208855 22:0.225545 23:-0.544093 
-1 1:0.442379 2:-0.328706 3:-0.038591 4:0.218031 5:-0.0101557 6:0.726571 7:0.232339 8:-0.489037 9:-0.292536 10:0.140691 11:0.475418 12:-0.468395 13:-0.561483 14:0.140856 15:-0.104602 16:-0.414809 17:-0.522549 18:-0.762785 19:-0.218522 20:0.24116 21:0.48342 22:-0.0769869 23:-0.336482 
-1 1:0.689139 2:0.755769 3:0.0497735 4:-0.137479 5:-0.28509 6:-0.225849 7:0.589069 8:-0.389141 9:-0.4428 10:0.48501 11:0.378656 12:-0.0873409 13:-0.172659 14:-0.393747 15:0.154683 16:0.135366 17:0.0588821 18:0.0946548 19:0.218855 20:0.24116 21:0.669246 22:0.631215 23:0.287333 
-1 1:0.505689 2:0.157864 3:-0.154665 4:-0.0632199 5:0.286013 6:0.182357 7:0.444384 8:-0.0841022 9:-0.453319 10:-1 11:-0.518888 12:0.147419 13:0.133354 14:-0.0376784 15:-0.354382 16:-0.483161 17:-0.596392 18:-0.708331 19:0.35417 20:0.133412 21:0.526742 22:0.547544 23:0.287333 
-1 1:0.477072 2:0.12648 3:0.895714 4:-0.692094 5:0.748915 6:0.0754186 7:-0.410663 8:0.50207 9:-0.0884605 10:0.235575 11:0.00809075 12:-0.774015 13:0.459618 14:0.031661 15:-0.172076 16:0.135366 17:1 18:1 19:-0.782526 20:0.24116 21:0.533074 22:0.0529736 23:0.287333 
-1 1:0.61291 2:0.637989 3:0.895714 4:0.326597 5:-0.0829239 6:0.467992 7:0.0655394 8:0.844847 9:-0.0874454 10:-0.0517395 11:0.611219 12:-0.0316361 13:0.118014 14:0.605766 15:0.232405 16:-0.365188 17:-0.739504 18:-0.599942 19:0.246579 20:0.24116 21:0.361327 22:0.315705 23:-0.28022 
-1 1:-0.0819522 2:1 3:0.559033 4:0.72639 5:-0.163815 6:-0.504881 7:-0.126088 8:0.246565 9:1 10:0.438389 11:0.350891 12:0.837107 13:1 14:0.644182 15:-0.0288117 16:0.135423 17:-0.522549 18:-0.757381 19:1 20:-0.471823 21:-0.303144 22:-0.226681 23:0.287333 
-1 1:0.0256775 2:2.83203e-05 3:-0.119863 4:-1 5:-0.0388314 6:-0.0901264 7:-0.192532 8:-0.145994 9:0.666217 10:-0.274091 11:1 12:-0.161691 13:-0.695718 14:-0.125147 15:-0.202089 16:-1 17:-0.522549 18:-0.532258 19:-0.0305378 20:0.24116 21:0.119757 22:-0.316383 23:-1 
-1 1:-0.549512 2:-0.48878 3:0.895714 4:0.227105 5:-0.190705 6:-1 7:-1 8:-0.209632 9:-0.701173 10:-0.234931 11:-0.304053 12:-0.461692 13:-0.401416 14:-0.237615 15:-0.182227 16:0.135366 17:-0.659215 18:-0.532258 19:-0.129491 20:0.535786 21:0.197989 22:0.198649 23:-0.0701858 
-1 1:-0.618925 2:-0.589689 3:0.895714 4:-0.59749 5:-0.451526 6:-0.179109 7:-0.245002 8:-0.142482 9:-0.694579 10:-0.297756 11:0.653022 12:-0.653794 13:0.0760097 14:0.176226 15:-0.334084 16:0.135366 17:0.217049 18:0.0391984 19:-0.297329 20:0.24116 21:0.141974 22:-0.177458 23:0.287333 
-1 1:0.505694 2:-0.240004 3:0.895714 4:-0.344953 5:-0.109877 6:0.114045 7:0.0611896 8:-0.0257043 9:0.0644183 10:0.272496 11:-0.178264 12:0.433613 13:-0.472069 14:0.0329451 15:0.357753 16:0.135366 17:0.186384 18:0.160214 19:0.686063 20:-0.656624 21:0.349206 22:-0.721159 23:0.287333 
-1 1:0.142978 2:-0.751452 3:0.895714 4:-0.718474 5:0.319014 6:-0.762325 7:0.171794 8:-0.0818126 9:-0.170832 10:0.0594126 11:0.0323155 12:-0.674251 13:-0.373905 14:-0.316125 15:-0.520929 16:0.135366 17:-0.522549 18:-0.532258 19:-0.208472 20:0.24116 21:0.509946 22:-0.255641 23:0.43483 
-1 1:0.00879945 2:-0.0973453 3:0.895714 4:-0.415034 5:-0.568705 6:0.298496 7:0.0803309 8:-0.0473465 9:-0.216829 10:-0.543331 11:-0.375691 12:-0.303987 13:-1 14:0.213544 15:-0.423165 16:-0.777852 17:-0.522549 18:-0.532258 19:-0.330199 20:0.24116 21:-0.702452 22:-0.243102 23:0.287333 
-1 1:0.0598744 2:0.443159 3:0.895714 4:0.411917 5:-0.044974 6:0.0952623 7:-0.0169426 8:0.221229 9:-0.32511 10:-0.118204 11:0.406082 12:-0.398177 13:-0.120416 14:-0.153936 15:-0.148029 16:0.135366 17:-0.522549 18:-0.62332 19:-0.420842 20:0.24116 21:0.937819 22:0.450247 23:0.287333 
-1 1:0.62111 2:0.27194 3:0.895714 4:-0.738469 5:0.675143 6:0.605278 7:0.144311 8:-0.111881 9:-0.114884 10:-0.406052 11:0.708205 12:-0.317279 13:0.0545158 14:0.0224363 15:0.0561636 16:-0.662615 17:-0.522549 18:-0.866618 19:-0.252653 20:0.0819933 21:0.478112 22:0.352171 23:0.287333 
-1 1:0.505625 2:-0.156871 3:0.895714 4:0.523107 5:-0.194505 6:0.40551 7:0.111169 8:-0.31987 9:-0.032327 10:-0.670906 11:0.102543 12:-0.0281996 13:-0.35284 14:0.031661 15:-0.153987 16:0.135366 17:0.116343 18:0.0408901 19:0.0820709 20:0.0501213 21:0.0534317 22:-0.344325 23:0.287333 
-1 1:0.468054 2:-0.394341 3:0.107321 4:-0.255457 5:0.674766 6:0.034327 7:0.112946 8:-0.145935 9:-0.247778 10:-0.412357 11:0.0246173 12:-0.527057 13:-0.192324 14:-0.0752883 15:-0.164754 16:0.135366 17:-0.522549 18:-0.532258 19:-0.0850275 20:0.24116 21:-0.225582 22:-0.124776 23:0.287333 
-1 1:0.481038 2:-0.163291 3:0.895714 4:0.926515 5:-0.241192 6:-0.885561 7:0.0991805 8:-0.651631 9:-0.939696 10:0.337392 11:-0.060546 12:-0.552457 13:0.614436 14:0.0965187 15:-0.670321 16:-0.575867 17:-0.522549 18:-0.532258 19:-0.361158 20:-0.252779 21:0.0828195 22:0.565674 23:0.287333 
-1 1:0.646194 2:0.130611 3:0.424777 4:0.763558 5:-0.722626 6:-0.805482 7:0.141667 8:0.440264 9:-0.602284 10:0.450439 11:0.348751 12:-0.429487 13:0.21919 14:0.031661 15:-0.717812 16:0.135366 17:-0.522549 18:-0.532258 19:0.074772 20:0.24116 21:-0.121742 22:0.185169 23:0.287333 
-1 1:0.0815504 2:0.436389 3:0.32311 4:0.566618 5:-0.0108172 6:-0.510704 7:-0.189224 8:1 9:-0.31764 10:-0.260984 11:-0.55701 12:-0.283787 13:-0.52287 14:0.031661 15:-0.313242 16:0.135366 17:-0.668694 18:-0.532258 19:-0.11154 20:0.24116 21:0.480117 22:0.0164014 23:0.287333 
-1 1:-0.332919 2:0.0151554 3:0.895714 4:0.279941 5:0.334161 6:-0.452707 7:0.493617 8:-0.342685 9:-0.158474 10:-0.144443 11:0.290474 12:-0.379606 13:-0.545729 14:-0.751786 15:-0.328867 16:-0.782028 17:-0.376428 18:-0.165854 19:-0.162012 20:0.24116 21:-0.0319067 22:0.0979653 23:-0.368456 
-1 1:0.610112 2:0.422743 3:0.895714 4:-0.0995252 5:0.766362 6:0.229432 7:0.4239 8:-0.11705 9:-0.15854 10:0.360126 11:0.669633 12:-0.308585 13:-0.424014 14:-0.39007 15:-0.600709 16:0.135366 17:-0.522549 18:-0.532258 19:-0.289833 20:0.24116 21:0.612631 22:0.0391553 23:0.287333 
