svm_type c_svc
kernel_type rbf
gamma 0.0909091
nr_class 2
total_sv 54
rho -0.53602
label 0 1
probA -2.72559
probB -0.512137
nr_sv 26 28
SV
1 1:0.827884 2:0.280336 3:0.166057 4:-0.555085 5:0.999842 6:-0.86777 7:-0.664267 8:0.78596 9:-0.9758 10:-0.129117 11:0.562708 
1 1:0.402206 2:0.00180925 3:-0.179153 4:0.111321 5:-0.293251 6:-0.206365 7:-0.587351 8:-0.790409 9:-0.736492 10:-0.296958 11:0.378279 
1 1:0.375261 2:0.0523583 3:-0.884207 4:0.482609 5:-0.128166 6:0.0965093 7:0.0418876 8:-0.00918657 9:-0.258123 10:0.0369937 11:1 
1 1:0.523219 2:0.50173 3:-0.574821 4:0.118223 5:-0.00191422 6:0.269116 7:0.556877 8:-0.280769 9:0.161969 10:-0.129117 11:0.487147 
1 1:0.517337 2:-0.45277 3:-0.297449 4:0.710242 5:0.206512 6:-0.0421297 7:-0.212095 8:-0.111452 9:-0.255804 10:0.325487 11:-0.52078 
1 1:0.689134 2:0.63787 3:-0.78978 4:-0.701994 5:-0.445506 6:-0.0295404 7:0.043436 8:0.0138732 9:0.343221 10:0.8603 11:0.562708 
1 1:0.48825 2:0.737587 3:1 4:-0.60403 5:0.561683 6:-0.121299 7:0.371012 8:0.0680932 9:0.171773 10:-0.351655 11:0.631351 
1 1:0.0616505 2:-0.154319 3:0.377748 4:0.127901 5:0.291852 6:-0.437564 7:-0.273845 8:-0.828681 9:-0.367014 10:-0.592875 11:-0.345344 
1 1:0.44835 2:0.427571 3:-0.587533 4:-0.895271 5:1 6:0.465681 7:0.966736 8:-0.484779 9:0.136637 10:1 11:0.445863 
1 1:0.182633 2:0.783949 3:0.251131 4:-0.644513 5:0.395518 6:-0.316792 7:-0.0667104 8:0.110917 9:-0.37261 10:-0.668591 11:0.130082 
1 1:0.305759 2:0.031852 3:-0.19483 4:-0.376465 5:0.538931 6:0.216427 7:0.217197 8:0.424225 9:-0.182322 10:-0.668503 11:0.932284 
1 1:0.0980799 2:0.382788 3:0.430213 4:0.0343949 5:0.338672 6:0.467416 7:-0.431677 8:0.0561748 9:-0.791763 10:0.384766 11:0.249038 
1 1:-0.0482549 2:0.108341 3:-0.285943 4:1 5:0.330366 6:0.741399 7:-0.449474 8:0.0393112 9:-0.0446493 10:-0.25208 11:0.122187 
1 1:0.991102 2:0.520911 3:0.0154704 4:-0.69986 5:-0.447147 6:0.264668 7:0.307166 8:-0.257141 9:-0.277958 10:0.116383 11:0.562708 
1 1:-0.370879 2:0.440169 3:0.593165 4:-0.477407 5:0.0820923 6:-0.131097 7:-0.749208 8:-0.278147 9:-0.0410016 10:-0.171329 11:-0.765891 
1 1:0.417237 2:0.564798 3:0.228315 4:-0.366291 5:0.53361 6:-0.28898 7:-0.226368 8:0.103582 9:-0.289517 10:-0.848911 11:-0.575724 
1 1:0.514783 2:0.433142 3:-0.857186 4:0.443423 5:0.554014 6:0.523897 7:-0.260618 8:0.613411 9:-0.196737 10:-0.125006 11:0.562708 
1 1:-1 2:0.53009 3:0.372499 4:-0.00183726 5:0.706182 6:0.212913 7:0.998216 8:-0.699573 9:-0.958506 10:0.853702 11:0.562708 
1 1:0.037547 2:0.304533 3:-0.182045 4:-0.0748521 5:0.417875 6:-0.69901 7:0.25075 8:-0.46451 9:-0.581588 10:0.0360723 11:0.0355477 
1 1:-0.0455252 2:0.687023 3:-0.260393 4:0.142039 5:-0.0544227 6:1 7:0.221339 8:0.118774 9:-0.109679 10:-0.113003 11:0.384018 
1 1:0.0736768 2:0.508643 3:0.34215 4:0.994604 5:0.515612 6:-0.715578 7:-0.0109134 8:0.280669 9:-0.0247522 10:0.563568 11:0.522426 
1 1:-0.0527004 2:0.500972 3:-0.647282 4:-0.611807 5:0.123222 6:0.471877 7:0.419239 8:-0.388553 9:0.563315 10:-0.346446 11:-0.201634 
1 1:1 2:0.492075 3:-1 4:0.70143 5:0.0986683 6:0.196673 7:0.0603793 8:-1 9:-0.393814 10:-0.129117 11:-0.325086 
1 1:0.55763 2:0.212251 3:0.62509 4:-0.393314 5:0.387307 6:-0.39171 7:-1 8:0.159838 9:-0.329028 10:-1 11:0.272581 
0.6784354412004714 1:0.0974498 2:0.158917 3:-0.461804 4:-1 5:-0.00789101 6:0.252789 7:-0.115544 8:0.391369 9:-0.567042 10:-0.55781 11:0.562708 
1 1:0.307088 2:0.245694 3:0.746739 4:0.0393499 5:-0.410156 6:-0.117869 7:-0.264091 8:-0.582174 9:0.398673 10:-0.601711 11:0.791882 
-0.803766060097546 1:0.537495 2:0.674032 3:0.524727 4:0.237061 5:0.477305 6:0.256336 7:0.211245 8:0.624349 9:0.0296991 10:0.127038 11:0.30119 
-1 1:0.644252 2:0.825258 3:-0.0830827 4:-0.331404 5:0.159204 6:-0.19497 7:0.612299 8:0.0108135 9:0.0938619 10:0.403094 11:-0.196964 
-1 1:0.296552 2:0.584406 3:0.054157 4:0.210926 5:0.364211 6:-0.359595 7:0.455627 8:0.0984532 9:-0.258123 10:0.281422 11:-0.574711 
-1 1:0.188357 2:0.396082 3:0.290625 4:-0.718122 5:0.123469 6:-0.412603 7:0.78112 8:0.633946 9:-0.258123 10:-0.035126 11:0.885935 
-1 1:0.557026 2:0.331257 3:0.0621998 4:0.129376 5:-0.449784 6:0.404967 7:-0.167442 8:0.164413 9:0.163003 10:-0.632234 11:-0.653639 
-1 1:0.452069 2:-0.358622 3:0.0954561 4:-0.0518307 5:0.049334 6:-0.213068 7:0.0365923 8:-0.504425 9:-0.258123 10:-0.824863 11:-0.53769 
-0.5301916404494171 1:0.492602 2:0.957046 3:0.00437879 4:0.754468 5:-1 6:0.186725 7:0.148611 8:1 9:-0.14935 10:0.412902 11:0.562708 
-1 1:0.132951 2:-0.67827 3:-0.706447 4:0.0144008 5:0.142315 6:-0.25018 7:-0.494421 8:-0.830946 9:-0.28366 10:-0.176175 11:-0.598989 
-0.7694068253526296 1:0.0183978 2:0.673749 3:0.519345 4:-0.909521 5:0.39832 6:0.336739 7:0.517672 8:0.921634 9:0.14566 10:0.745916 11:0.0849249 
-1 1:-0.238578 2:0.722512 3:0.902426 4:-0.32167 5:0.307857 6:0.115609 7:0.316282 8:-0.136275 9:0.55939 10:0.188839 11:-0.0702487 
-1 1:-0.180994 2:-0.0740728 3:0.547158 4:0.248924 5:0.49232 6:0.167421 7:0.387393 8:0.111185 9:-0.239737 10:-0.110172 11:0.0366518 
-1 1:0.501487 2:0.368032 3:-0.699196 4:-0.270612 5:-0.253067 6:0.0579712 7:0.572395 8:0.63223 9:-7.81068e-05 10:0.0963547 11:0.427231 
-0.05867393317852362 1:0.348223 2:-0.163031 3:-0.335591 4:0.149051 5:-0.388835 6:-0.64097 7:-0.321596 8:-0.184825 9:-0.140795 10:-0.129117 11:-1 
-1 1:0.689516 2:0.064572 3:0.145229 4:0.195785 5:-0.000817184 6:-0.403851 7:-0.46936 8:-0.054213 9:-0.134528 10:-0.0204817 11:0.42455 
-1 1:0.16755 2:0.836926 3:0.7535 4:0.458433 5:0.734631 6:0.565775 7:0.57642 8:0.241111 9:0.281569 10:0.194438 11:0.562708 
-1 1:-0.021801 2:-0.847569 3:-0.70417 4:0.960188 5:-0.135771 6:-0.261764 7:-0.20102 8:0.149674 9:-0.511661 10:-0.390369 11:0.0141038 
-1 1:0.462456 2:0.533811 3:0.677473 4:-0.00232914 5:0.702431 6:-0.0641227 7:-0.12427 8:0.281221 9:0.260431 10:0.316768 11:0.723039 
-1 1:0.536188 2:-0.0728696 3:-0.119408 4:0.0425892 5:-0.394426 6:-0.176575 7:-0.15378 8:0.59619 9:-0.18883 10:-0.127667 11:0.255024 
-1 1:0.307555 2:0.209771 3:0.452209 4:-0.905639 5:0.364098 6:-0.4037 7:0.0652176 8:0.376169 9:1 10:-0.160913 11:0.43139 
-1 1:0.305367 2:-0.25974 3:-0.347582 4:-0.0183835 5:0.247998 6:0.497023 7:-0.112037 8:0.117846 9:-0.1972 10:-0.33228 11:0.0372075 
-1 1:0.686791 2:0.252821 3:-0.531584 4:-0.0873227 5:-0.364846 6:-1 7:-0.277773 8:-0.279284 9:-0.19075 10:0.31662 11:-0.129555 
-1 1:0.0919079 2:0.664883 3:0.514698 4:0.604622 5:0.226147 6:0.19981 7:0.106884 8:0.116904 9:0.118213 10:0.258668 11:0.509377 
-1 1:0.331758 2:-0.0798903 3:0.274462 4:0.265025 5:0.678842 6:-0.409263 7:0.0597626 8:-0.0833326 9:-0.4544 10:0.270464 11:0.402035 
-0.5163969821223551 1:0.227137 2:0.226718 3:0.081279 4:0.56114 5:0.323427 6:0.659063 7:-0.0827317 8:0.778809 9:-0.296809 10:-0.192239 11:-0.378354 
-1 1:0.150866 2:-1 3:0.130878 4:0.874783 5:0.103437 6:-0.0272088 7:-0.197706 8:-0.469052 9:-1 10:-0.129117 11:0.194876 
-1 1:0.780847 2:0.620306 3:-0.0854855 4:-0.696582 5:0.07431 6:-0.149179 7:-0.309932 8:-0.0842129 9:0.262802 10:0.192949 11:-0.856401 
-1 1:0.140602 2:-0.187532 3:-0.16757 4:0.791131 5:-0.257599 6:0.656819 7:0.275636 8:0.192818 9:-0.287243 10:-0.288218 11:0.42171 
-1 1:0.334779 2:-0.560233 3:0.177098 4:0.122645 5:0.0724236 6:-0.482391 7:0.262455 8:-0.499361 9:-0.356035 10:-0.160057 11:0.0931607 
