svm_type c_svc
kernel_type rbf
gamma 0.0555556
nr_class 2
total_sv 209
rho 0.631737
label 1 0
probA -1.83686
probB 0.066951
nr_sv 104 105
SV
1 1:-0.203638 2:0.121105 3:0.252479 4:0.0925169 5:0.184936 6:0.187303 7:-0.14973 8:0.786715 9:0.233028 10:0.375418 11:0.132629 12:-0.452084 13:-0.167165 14:-0.613346 15:-0.642242 16:-0.327877 17:-0.440989 18:0.495004 
1 1:0.301698 2:-0.0142092 3:0.622384 4:0.23442 5:0.413493 6:0.704672 7:0.112882 8:0.479039 9:0.356589 10:0.107288 11:0.171831 12:0.296348 13:-0.316278 14:0.139404 15:-0.243989 16:0.124 17:0.122345 18:-0.372279 
1 1:-0.117496 2:0.365275 3:0.493662 4:-0.0591022 5:0.374384 6:0.205805 7:0.003967 8:0.487588 9:0.429798 10:0.569072 11:0.682585 12:0.334884 13:-0.318634 14:-0.1774 15:0.394942 16:0.362079 17:-0.440989 18:-0.169294 
1 1:-0.0819421 2:0.58347 3:0.714702 4:-0.897577 5:0.400393 6:0.192458 7:-0.731469 8:0.437329 9:0.350356 10:0.209261 11:0.0227689 12:0.495586 13:0.260987 14:0.119092 15:1 16:0.561011 17:-0.440989 18:0.121085 
1 1:-0.290805 2:0.0419507 3:-0.253544 4:-0.614794 5:-0.0242256 6:-0.226001 7:-0.639061 8:-0.583615 9:-0.185917 10:-0.617607 11:-0.184203 12:-0.125061 13:-0.498464 14:-0.329988 15:-0.320495 16:-0.0148169 17:-0.410871 18:-0.174788 
1 1:-0.283713 2:0.180097 3:0.011095 4:-0.275556 5:0.172764 6:-0.0958641 7:-0.0567729 8:0.664838 9:0.19053 10:0.296306 11:0.109988 12:-0.0764909 13:-0.463901 14:-0.382905 15:-0.221316 16:0.0472117 17:-0.178208 18:0.284342 
1 1:-0.126529 2:0.120695 3:0.487051 4:0.206312 5:-0.0468982 6:0.289545 7:0.430129 8:0.426352 9:0.245181 10:0.421211 11:0.0326746 12:-0.410117 13:-0.146027 14:-0.408804 15:0.0752564 16:0.40848 17:-0.330875 18:0.662472 
1 1:-0.122221 2:0.47674 3:0.357978 4:0.317711 5:0.159833 6:0.428997 7:-0.218257 8:0.546293 9:0.0834161 10:0.443691 11:0.00543957 12:0.277182 13:0.0186366 14:-0.165914 15:-0.658402 16:-0.342278 17:-0.108223 18:-0.0878054 
1 1:0.0530503 2:0.516965 3:0.583135 4:-0.145822 5:0.14676 6:0.151254 7:-0.361813 8:0.561321 9:0.267702 10:0.355995 11:0.0337796 12:0.160231 13:-0.136267 14:-0.507567 15:-0.0119252 16:-0.419968 17:-0.789106 18:0.390716 
1 1:-0.165155 2:0.16203 3:0.260018 4:-0.089089 5:0.0366233 6:0.172017 7:-0.473541 8:-0.167627 9:0.117622 10:0.120405 11:-0.27656 12:0.71721 13:-0.0979134 14:-0.287679 15:-0.458108 16:-0.0668027 17:0.350279 18:0.1586 
1 1:-0.239458 2:-0.141176 3:0.305927 4:0.35532 5:0.121847 6:-0.0263293 7:-0.328191 8:0.543065 9:-0.0234519 10:0.474211 11:0.0966648 12:0.0942782 13:-0.500812 14:-0.0672903 15:-0.500251 16:-0.201349 17:-0.615313 18:0.0969509 
1 1:-0.134598 2:0.182928 3:-0.272818 4:0.0686078 5:0.162927 6:0.0559427 7:0.142445 8:-0.295745 9:-0.0172339 10:-0.596646 11:-0.0731757 12:-0.82648 13:-0.672085 14:-0.564335 15:-0.136611 16:0.0848716 17:-0.304448 18:-0.637521 
1 1:-0.159084 2:0.340058 3:0.64132 4:0.259928 5:0.390127 6:0.61165 7:-0.0628391 8:0.444954 9:-0.052605 10:0.159859 11:0.212999 12:-0.167514 13:-0.183579 14:-0.18102 15:0.0510327 16:-0.011384 17:-0.897178 18:-0.169294 
0.547119065141059 1:0.685278 2:0.684904 3:0.883625 4:-0.205591 5:0.10909 6:0.465248 7:-0.373966 8:0.326426 9:0.482661 10:0.540494 11:-0.0243732 12:0.893291 13:-0.189405 14:1 15:0.234478 16:0.374122 17:-0.181678 18:-0.530243 
1 1:0.0966796 2:0.00448689 3:0.398461 4:0.0215392 5:0.0697828 6:0.0442389 7:-0.157823 8:0.449555 9:0.218364 10:0.407521 11:0.247591 12:-0.151851 13:-0.124217 14:-0.286176 15:-0.793802 16:0.0145933 17:-0.0276279 18:-0.294041 
1 1:-0.400828 2:-0.0397075 3:-0.261436 4:0.0278534 5:-0.0884361 6:-0.220327 7:-0.193613 8:-0.0231178 9:-0.236799 10:-0.257273 11:-0.201293 12:0.00705124 13:-0.810519 14:-1 15:-0.477225 16:-0.226627 17:-0.915616 18:0.540889 
1 1:-0.0521819 2:-0.0522019 3:-0.102407 4:0.11283 5:0.400702 6:-0.00858242 7:0.0927516 8:0.581771 9:0.145306 10:0.142305 11:-0.657673 12:0.410457 13:-0.563243 14:-0.273999 15:-0.206913 16:-0.241241 17:-0.787129 18:-0.471753 
1 1:-0.364284 2:0.179956 3:0.274038 4:-0.0468812 5:0.128295 6:0.455481 7:-0.216108 8:0.400898 9:0.195906 10:0.319112 11:0.0198755 12:0.594006 13:-0.1539 14:0.08951 15:-0.254166 16:0.111731 17:-0.267023 18:-0.226566 
1 1:-0.14264 2:0.447565 3:-0.0990939 4:-0.297163 5:0.150969 6:-0.132834 7:-0.132563 8:0.432299 9:-0.0227101 10:-0.415984 11:-0.139495 12:0.0330888 13:-0.574536 14:-0.805233 15:-0.471521 16:0.453176 17:-0.0752426 18:0.00160216 
1 1:-0.00511726 2:0.205673 3:0.178802 4:0.220903 5:0.510404 6:0.121528 7:-0.0619379 8:0.207044 9:0.25165 10:0.291311 11:-0.486922 12:0.0384431 13:0.187282 14:-0.285922 15:0.178475 16:0.0149562 17:-0.290689 18:0.358234 
1 1:-0.0742507 2:0.569161 3:0.196762 4:0.260865 5:0.327682 6:0.308229 7:-0.31805 8:0.589996 9:-0.0471195 10:0.504405 11:0.364771 12:-0.0439265 13:-0.0993479 14:-0.0842084 15:0.0323005 16:-0.174329 17:-0.530834 18:-0.0935646 
1 1:-0.367247 2:0.564173 3:0.582578 4:0.19535 5:0.349811 6:0.344529 7:-0.533319 8:0.587492 9:0.26405 10:0.164001 11:-0.0765942 12:0.532182 13:0.106132 14:0.0263663 15:0.43499 16:0.175728 17:0.268988 18:-0.10623 
1 1:-0.0708269 2:0.00562442 3:0.181004 4:0.251205 5:0.453078 6:0.42632 7:-0.161504 8:0.194797 9:0.188855 10:0.429107 11:-0.1906 12:0.0883733 13:-0.329614 14:-0.0973802 15:0.2276 16:-0.283348 17:-0.718834 18:-0.0803673 
1 1:-0.31641 2:0.490981 3:-0.00500037 4:-0.171316 5:0.0701884 6:-0.205043 7:-0.106945 8:0.442743 9:-0.200532 10:-0.378359 11:0.264986 12:-0.162495 13:-0.360462 14:-0.693402 15:-0.29219 16:0.122474 17:-0.228416 18:0.0164541 
1 1:-0.221536 2:0.404456 3:0.375211 4:-0.301827 5:0.146662 6:0.245341 7:-0.180829 8:0.667632 9:-0.252246 10:0.384747 11:0.0752446 12:0.415525 13:-0.611039 14:-0.538544 15:-0.184186 16:0.131493 17:-0.440989 18:-0.335262 
1 1:0.102797 2:-0.0997512 3:1 4:0.233246 5:0.257803 6:0.717245 7:-0.876624 8:0.187347 9:0.47669 10:0.427082 11:0.388707 12:0.459702 13:0.39352 14:0.259259 15:0.343767 16:0.249472 17:1 18:-0.169294 
1 1:0.278832 2:0.0150208 3:0.454436 4:0.625937 5:0.314205 6:0.512161 7:0.61774 8:0.233802 9:0.0559078 10:0.24299 11:-0.0831201 12:-0.611189 13:-0.311169 14:-0.0426113 15:0.324378 16:0.0101574 17:-0.587279 18:0.243872 
1 1:-0.681588 2:-0.238209 3:-0.263266 4:0.0723151 5:-0.0854067 6:-0.225925 7:0.144622 8:0.102105 9:-0.499569 10:-0.804147 11:-0.531968 12:0.0655264 13:-0.480013 14:0.621264 15:-0.260958 16:-0.210152 17:-0.329536 18:-0.327734 
1 1:0.0662073 2:0.520719 3:0.551839 4:0.531504 5:0.416861 6:0.111353 7:-0.125393 8:0.657999 9:0.0137233 10:0.466477 11:0.123373 12:0.280217 13:-0.198992 14:-0.123434 15:-0.0858803 16:-0.0541393 17:-0.638391 18:0.382222 
1 1:-0.0237634 2:0.212085 3:0.312895 4:-0.672317 5:0.602475 6:-0.225842 7:-0.492319 8:0.141109 9:0.173529 10:-0.317673 11:0.419381 12:-0.320383 13:-0.396812 14:-0.866718 15:-0.0342354 16:0.155878 17:-0.524702 18:-0.169294 
1 1:-0.161361 2:0.32203 3:0.265826 4:-0.314927 5:0.313467 6:-0.0772893 7:-0.0593099 8:0.645381 9:-0.0728383 10:-0.601001 11:-0.0956991 12:0.247388 13:-0.170955 14:-0.630223 15:-0.528981 16:0.250577 17:-0.495561 18:0.638466 
1 1:0.360822 2:0.398839 3:0.357071 4:0.298141 5:0.289041 6:0.231929 7:0.107138 8:0.318291 9:0.493981 10:0.222038 11:0.0149811 12:0.0904014 13:0.658091 14:-0.348386 15:0.229595 16:0.490448 17:-0.414911 18:0.185202 
1 1:0.402531 2:0.789576 3:0.630196 4:0.198272 5:0.357551 6:0.374949 7:-0.238005 8:0.194684 9:0.225316 10:0.12336 11:-0.115842 12:-0.236984 13:-0.104504 14:0.151151 15:0.781478 16:0.287037 17:-0.227067 18:0.835286 
1 1:0.366043 2:0.317479 3:0.469079 4:0.0131401 5:0.324213 6:0.278277 7:-0.127003 8:0.231777 9:0.019619 10:0.210302 11:-0.399673 12:0.104775 13:-0.167876 14:-0.482533 15:0.706681 16:-0.0739463 17:-0.707403 18:0.782091 
1 1:0.38159 2:0.621675 3:0.849008 4:0.392858 5:0.406302 6:0.525117 7:0.192543 8:0.223806 9:0.256741 10:0.719384 11:1 12:0.398685 13:-0.262562 14:0.00297625 15:0.312435 16:0.33079 17:-0.472493 18:0.513139 
1 1:0.265159 2:0.359971 3:0.236867 4:0.208798 5:0.161495 6:0.171309 7:-0.198267 8:0.350259 9:0.318251 10:0.261475 11:0.129364 12:0.220418 13:-0.234107 14:-0.435929 15:-0.0196325 16:0.0506907 17:-0.0983377 18:0.130117 
1 1:0.226355 2:0.727717 3:0.240895 4:-0.530356 5:0.361765 6:0.0808654 7:-0.647492 8:-0.579896 9:0.0828503 10:0.235672 11:-0.360209 12:-0.155577 13:-0.21566 14:-0.261204 15:0.0964306 16:-0.670494 17:0.109879 18:-0.169294 
1 1:0.331495 2:-0.0745211 3:0.59563 4:0.233532 5:0.412384 6:0.495268 7:0.663697 8:-0.135028 9:0.169001 10:0.469496 11:0.469051 12:-0.110349 13:-0.559285 14:-0.0226129 15:0.0320841 16:-0.0282691 17:-0.717231 18:-0.410676 
1 1:0.0376926 2:-0.362799 3:0.143386 4:-0.320199 5:-0.0418228 6:0.556094 7:-0.20686 8:0.0362655 9:0.395974 10:0.0945892 11:-0.0198985 12:-0.0886174 13:0.174162 14:0.0497786 15:0.290287 16:0.087776 17:-0.322471 18:-0.606726 
1 1:-0.847553 2:-0.492438 3:0.178769 4:0.283173 5:-0.109235 6:-0.45762 7:0.060985 8:-0.132205 9:-0.346426 10:-0.347602 11:0.0213187 12:-0.023562 13:-0.177809 14:-0.391049 15:-0.699064 16:0.516195 17:0.050814 18:-0.776393 
1 1:-0.365863 2:0.43185 3:-0.187126 4:-0.344633 5:-0.18301 6:0.0550761 7:0.010933 8:0.091096 9:-0.170539 10:-0.456713 11:-0.13529 12:0.0997436 13:-0.540401 14:-0.274779 15:-0.88437 16:0.00089089 17:-0.408401 18:0.589975 
1 1:0.566744 2:0.128109 3:0.0912906 4:0.141675 5:0.285306 6:-0.0404833 7:0.498638 8:0.161919 9:0.400387 10:0.0664554 11:0.0872919 12:0.1429 13:-0.28446 14:-0.643516 15:0.183363 16:-0.148953 17:-0.217886 18:-0.169294 
1 1:-0.0864864 2:0.00112037 3:0.366909 4:-0.00707179 5:0.284654 6:0.100932 7:0.374719 8:0.205576 9:0.00429424 10:0.2614 11:-0.179266 12:0.169743 13:-0.411141 14:-0.355166 15:0.307657 16:-0.283348 17:-0.183104 18:-0.362522 
1 1:-0.127388 2:0.224269 3:0.354461 4:0.0979998 5:0.243928 6:0.192762 7:0.123353 8:0.675673 9:0.418078 10:0.449593 11:-0.00532279 12:-0.0786045 13:-0.728243 14:-0.384202 15:-0.07701 16:-0.301724 17:-0.455597 18:-0.391344 
1 1:0.265726 2:0.176052 3:0.37535 4:-0.231889 5:0.264042 6:0.0189927 7:0.00249836 8:0.543457 9:0.114263 10:0.41863 11:0.279128 12:-0.0889225 13:-0.275889 14:-0.322656 15:0.16201 16:-0.134529 17:-0.462789 18:-0.169294 
1 1:0.10147 2:0.359567 3:0.199615 4:0.256875 5:0.360281 6:0.86433 7:0.276698 8:-0.296055 9:-0.0944371 10:0.320272 11:-0.696392 12:-0.442703 13:-0.270269 14:-0.226525 15:0.438752 16:0.157874 17:0.0498675 18:0.291432 
1 1:0.110352 2:0.485895 3:0.703427 4:0.210501 5:0.534784 6:0.239743 7:-0.280282 8:0.434726 9:0.31439 10:0.546732 11:0.283862 12:0.564313 13:-0.273206 14:-0.0920956 15:0.193632 16:0.115687 17:-0.0607739 18:-0.168768 
1 1:-0.0427827 2:0.467378 3:0.430363 4:0.318096 5:0.145054 6:0.353401 7:-0.396832 8:0.53391 9:-0.0118971 10:0.628529 11:-0.080826 12:0.556152 13:-0.0846493 14:-0.252486 15:0.151949 16:-0.465988 17:-0.030056 18:0.244831 
1 1:-0.486416 2:-0.0150397 3:0.422224 4:0.0349173 5:0.00333451 6:-0.00232011 7:-0.189308 8:0.48093 9:0.126572 10:0.565918 11:0.130931 12:-0.0919794 13:-0.271527 14:-0.650139 15:-0.560917 16:-0.079168 17:-0.278675 18:-0.236747 
0.5064122362041087 1:-0.400126 2:-0.173174 3:0.13421 4:0.319624 5:-0.0342971 6:-0.0864206 7:-0.0104041 8:0.468232 9:0.276529 10:0.399714 11:-0.444378 12:-0.636294 13:-0.539004 14:-0.198735 15:-0.34505 16:0.312934 17:-0.50537 18:-0.169294 
1 1:-0.333738 2:-0.0238403 3:0.366674 4:0.27249 5:0.135719 6:0.306486 7:0.253976 8:0.528139 9:0.427853 10:0.468531 11:0.320678 12:0.0262839 13:-0.348341 14:-0.284021 15:0.223965 16:0.142717 17:-0.4819 18:-0.0508058 
1 1:-0.388554 2:0.0645209 3:0.11807 4:0.101356 5:0.0288722 6:-0.160272 7:0.154569 8:0.355734 9:0.00882529 10:0.242985 11:-0.120327 12:0.0685062 13:-0.789583 14:-0.812494 15:-0.0124165 16:-0.134927 17:-0.562511 18:-0.188619 
1 1:-0.126411 2:-0.295008 3:0.118234 4:-0.0364161 5:0.0832365 6:-0.0572529 7:-0.31062 8:-0.0185966 9:0.096626 10:0.301772 11:0.1777 12:0.199972 13:-0.452963 14:-0.0493326 15:0.064428 16:-0.283348 17:0.263719 18:0.0952896 
1 1:-0.0864196 2:-0.0563972 3:0.247288 4:0.38532 5:0.391674 6:0.205366 7:-0.189326 8:0.42905 9:0.136343 10:0.482092 11:-0.084589 12:0.0271934 13:-0.0855439 14:-0.582184 15:-0.368475 16:-0.385209 17:-0.282455 18:-0.169294 
1 1:-0.0810727 2:0.0776763 3:0.400168 4:0.229011 5:0.33389 6:-0.155863 7:-0.156514 8:0.589647 9:0.0674591 10:0.326678 11:0.282372 12:0.123771 13:-0.321754 14:-0.470878 15:-0.0756773 16:0.139169 17:-0.933672 18:0.71174 
1 1:0.0773861 2:0.204971 3:0.0513568 4:-0.337029 5:0.175441 6:-0.284337 7:-0.103995 8:0.505094 9:0.20025 10:0.388743 11:-0.222124 12:-0.0607198 13:-0.308849 14:-0.276362 15:-0.595296 16:0.288476 17:-0.203623 18:-0.589737 
1 1:-0.0383391 2:0.650724 3:0.336578 4:-0.364499 5:0.15109 6:0.264844 7:-0.0193775 8:0.447354 9:-0.123734 10:-0.480835 11:0.06643 12:0.169688 13:-0.1183 14:-0.465248 15:-0.105693 16:0.451529 17:-0.715426 18:0.83458 
1 1:-0.0899631 2:-0.127014 3:0.486222 4:0.247161 5:0.183546 6:0.131098 7:0.0381939 8:0.612248 9:0.23117 10:-0.0154548 11:-0.0392463 12:-0.431185 13:-0.296223 14:-0.811365 15:0.054528 16:-0.283348 17:-0.222313 18:0.731748 
1 1:-0.165214 2:0.272618 3:0.556191 4:-0.146356 5:0.334625 6:0.283354 7:-0.357279 8:0.515881 9:0.0788516 10:0.548744 11:0.440184 12:0.557118 13:-0.0617961 14:-0.462735 15:0.0777074 16:-0.112659 17:-0.445403 18:-0.169294 
1 1:-0.120496 2:0.649844 3:0.502996 4:0.19717 5:0.318993 6:0.427275 7:-0.159023 8:0.698933 9:-0.0492778 10:0.145551 11:-0.201338 12:0.0641891 13:-0.0557979 14:-0.132641 15:-0.0691643 16:0.0577491 17:-0.309936 18:-0.473348 
1 1:0.0915679 2:-0.319927 3:-0.270072 4:0.208869 5:0.136211 6:0.182601 7:-0.243519 8:0.707218 9:0.0653237 10:0.1234 11:-0.421627 12:0.311997 13:-0.162749 14:-0.584676 15:-0.149319 16:-0.286911 17:-0.922841 18:-0.590339 
1 1:-0.502609 2:0.129266 3:0.15779 4:0.0573642 5:-0.105629 6:-0.0482318 7:0.0899753 8:0.529092 9:0.0507226 10:0.387805 11:-0.25558 12:-0.221346 13:-0.536965 14:-0.403903 15:-0.217448 16:-0.250628 17:-0.238468 18:-0.169294 
1 1:-0.481387 2:0.0860189 3:0.24877 4:-0.0260709 5:0.0102063 6:-0.00225176 7:-0.496277 8:0.190514 9:-0.118852 10:0.158502 11:-0.364661 12:-0.429809 13:-0.466605 14:-0.333379 15:-0.193289 16:0.106977 17:-0.637374 18:0.469972 
1 1:-0.31371 2:0.263914 3:-0.054995 4:-0.299236 5:0.19161 6:-0.386153 7:-0.0498171 8:-0.0790068 9:0.00313168 10:-0.0250496 11:-0.00191022 12:-0.169594 13:-0.653685 14:-0.691486 15:-0.842739 16:0.0167814 17:-0.681418 18:-0.533618 
1 1:0.0627751 2:-0.0475992 3:0.468714 4:0.118428 5:0.209739 6:-0.05866 7:0.262309 8:0.575824 9:0.25363 10:0.541538 11:0.139616 12:0.199821 13:-0.314374 14:-0.157919 15:0.0880784 16:0.322914 17:-0.198546 18:0.0890976 
1 1:-0.560318 2:0.28194 3:0.45126 4:0.137487 5:0.0751061 6:0.497576 7:-0.0210752 8:0.723699 9:0.108162 10:0.551223 11:-0.117573 12:0.433384 13:-0.265937 14:-0.141139 15:0.0311616 16:0.109329 17:-0.40127 18:-0.169294 
1 1:0.11858 2:0.290119 3:0.397144 4:0.523524 5:0.398742 6:0.660004 7:0.00900678 8:0.41977 9:0.630616 10:0.610623 11:0.447127 12:0.381588 13:-0.166053 14:-0.101856 15:0.02902 16:0.0270419 17:-0.000873052 18:-0.249831 
1 1:-0.154219 2:-0.497279 3:0.205728 4:0.120666 5:0.179314 6:-0.164866 7:-0.204381 8:0.454651 9:0.25478 10:0.309478 11:0.0246567 12:0.387115 13:-0.380297 14:-0.718044 15:-0.669809 16:-0.109198 17:-0.974936 18:-0.169294 
1 1:0.465407 2:0.0890006 3:0.316101 4:0.168988 5:0.479759 6:0.22786 7:0.357624 8:-0.209456 9:0.264053 10:0.489252 11:-0.123601 12:0.0271995 13:-0.300166 14:-0.149063 15:0.167413 16:0.0923231 17:-0.621366 18:-0.169294 
1 1:0.0821612 2:-0.113948 3:0.246007 4:-0.413057 5:-0.141388 6:0.268542 7:-0.901157 8:-0.284393 9:0.193333 10:-0.048988 11:-0.828802 12:0.399084 13:0.0939059 14:-0.322949 15:0.463496 16:-0.758726 17:-0.0596679 18:-0.169294 
1 1:0.223963 2:0.173626 3:0.503608 4:0.377234 5:0.210599 6:0.394942 7:-0.551613 8:0.13611 9:0.292813 10:0.199139 11:0.106553 12:0.185303 13:0.0306735 14:0.158781 15:-0.353242 16:-0.283348 17:0.10795 18:-0.169294 
1 1:0.0825985 2:1 3:0.82546 4:0.0834282 5:0.535595 6:0.76372 7:0.305711 8:0.546915 9:0.111147 10:0.0995605 11:-0.0512806 12:0.126499 13:-0.111264 14:-0.217745 15:0.528023 16:0.237423 17:-0.189403 18:0.620315 
1 1:-0.122076 2:0.249512 3:0.497116 4:0.512223 5:0.582943 6:0.682767 7:-0.380263 8:0.0347218 9:-0.194027 10:0.473 11:0.160535 12:0.239194 13:0.00427959 14:-0.18922 15:0.662699 16:0.0561472 17:-0.0716995 18:0.50927 
1 1:0.242713 2:0.176706 3:0.318358 4:-0.0602849 5:0.309415 6:0.0559458 7:0.623821 8:0.342448 9:0.299099 10:0.467566 11:0.380972 12:-0.0462581 13:-0.329539 14:-0.487691 15:-0.102638 16:0.0949244 17:-0.812667 18:0.698948 
1 1:-0.395554 2:0.242916 3:0.436382 4:0.107397 5:0.263159 6:0.230094 7:-0.246265 8:0.759118 9:0.201877 10:0.504845 11:0.256006 12:0.155781 13:-0.144669 14:-0.451239 15:-0.241962 16:0.0800089 17:-0.152136 18:-0.169294 
0.2241121295198481 1:0.365568 2:-0.0748281 3:0.0291168 4:0.465847 5:0.12643 6:0.323137 7:0.804125 8:-0.181815 9:0.328049 10:0.474206 11:-0.208672 12:-0.414572 13:-1 14:-0.466996 15:0.492802 16:0.217328 17:-0.37314 18:-0.169294 
1 1:0.20963 2:-0.250115 3:0.448892 4:0.481316 5:0.16727 6:0.328207 7:0.449148 8:0.497543 9:0.212982 10:0.44416 11:-0.443168 12:0.503745 13:-0.0307242 14:-0.33064 15:0.214341 16:0.0760996 17:-0.348613 18:0.0338491 
1 1:0.0048113 2:0.355873 3:0.268889 4:-0.13206 5:0.148341 6:0.141334 7:-0.359116 8:0.535145 9:0.0203455 10:0.0649626 11:-0.175516 12:0.00267856 13:-0.311868 14:-0.133802 15:0.073486 16:0.0988774 17:-0.183276 18:0.00935387 
1 1:-0.441903 2:0.0254504 3:0.586244 4:0.456225 5:-0.0253329 6:0.303714 7:-0.201429 8:0.828146 9:-0.032169 10:0.661268 11:0.260747 12:-0.20729 13:-0.215707 14:-0.252314 15:-0.172138 16:-0.283348 17:-0.622391 18:-0.169294 
1 1:-0.218378 2:0.0358167 3:0.134589 4:-0.107761 5:0.325215 6:-0.14341 7:-0.283388 8:0.202578 9:0.185499 10:0.437016 11:0.132171 12:-0.627023 13:-0.260468 14:-0.386501 15:-0.13815 16:-0.30501 17:-0.358804 18:-0.169294 
1 1:-0.329576 2:0.455263 3:0.182095 4:-0.127697 5:-0.0453624 6:-0.419815 7:-0.0555398 8:0.408133 9:-0.274291 10:-0.272325 11:0.533933 12:0.0261177 13:-0.462654 14:-0.591832 15:-0.665195 16:0.465273 17:-0.538789 18:0.516358 
1 1:-0.246329 2:0.00706607 3:0.961813 4:0.86617 5:0.514311 6:0.689606 7:-0.21465 8:0.429233 9:0.227657 10:1 11:0.906834 12:1 13:-0.210268 14:0.128652 15:0.398663 16:0.231387 17:-0.440989 18:-0.352733 
1 1:0.0210556 2:0.428346 3:0.0709632 4:-0.300753 5:0.433486 6:-0.310163 7:-0.0607083 8:0.089496 9:-0.12792 10:-0.390379 11:0.492881 12:-0.00633396 13:-0.836759 14:-0.884878 15:-0.0633575 16:0.284961 17:-0.405228 18:-0.469754 
1 1:0.245786 2:0.0404114 3:0.277188 4:0.241207 5:0.41467 6:0.438482 7:0.0854461 8:0.337115 9:0.341539 10:0.0984107 11:-0.732142 12:0.236655 13:-0.0902004 14:-0.302633 15:0.136667 16:0.00688424 17:-0.0540881 18:0.481614 
1 1:0.0215852 2:-0.0615909 3:0.207265 4:-0.0203605 5:0.290993 6:-0.510868 7:0.0713797 8:-0.868373 9:-0.658643 10:-0.342333 11:-0.395367 12:-0.846787 13:-0.485759 14:-0.855511 15:0.0925809 16:0.406174 17:-0.751481 18:-0.108895 
1 1:-0.204641 2:0.173423 3:0.275537 4:0.313401 5:0.157802 6:0.248465 7:-0.448493 8:0.668687 9:0.0649824 10:0.596534 11:0.066264 12:0.358649 13:-0.496368 14:-0.083882 15:0.206803 16:-0.0946134 17:-0.670567 18:0.293517 
1 1:-0.162088 2:-0.25918 3:0.149874 4:0.342432 5:0.121986 6:-0.0791926 7:0.128755 8:0.364809 9:0.199674 10:0.3494 11:-0.0434376 12:0.042584 13:-0.213632 14:-0.52069 15:-0.155555 16:0.316844 17:-0.440989 18:-0.169294 
1 1:0.0152055 2:-0.0706428 3:0.504518 4:0.107553 5:0.215151 6:-0.231251 7:-0.385844 8:0.287987 9:-0.0141666 10:0.273079 11:-0.095211 12:-0.0959251 13:-0.101043 14:-0.394829 15:-0.29183 16:-0.140669 17:-0.440989 18:0.348387 
1 1:0.26723 2:0.0978859 3:0.125364 4:0.194467 5:0.233611 6:-0.178825 7:-0.269163 8:0.33126 9:0.188325 10:-0.252046 11:0.113345 12:-0.160518 13:0.41026 14:-0.6453 15:0.12305 16:0.405273 17:-0.173773 18:0.420078 
1 1:-0.581113 2:0.45444 3:0.364223 4:0.0265065 5:0.281064 6:0.125142 7:-0.258088 8:0.629753 9:-0.104825 10:0.0318962 11:-0.371588 12:0.32202 13:-0.384678 14:-0.391758 15:-0.39575 16:0.165006 17:-0.541285 18:0.1972 
1 1:0.423685 2:0.0360021 3:0.444278 4:0.317639 5:0.348125 6:0.617518 7:0.639147 8:0.173753 9:0.418165 10:0.127913 11:-0.209071 12:0.543832 13:-0.0772771 14:-0.559747 15:0.566866 16:0.101195 17:0.0173764 18:0.0622617 
1 1:0.308779 2:0.00318917 3:0.39046 4:-0.0582047 5:0.328208 6:0.299844 7:0.324576 8:0.878465 9:0.34723 10:0.129924 11:0.086784 12:0.699773 13:-0.0175472 14:-0.277506 15:0.304215 16:0.037987 17:-0.741666 18:0.589837 
1 1:-0.173655 2:-0.0981735 3:0.172889 4:0.379552 5:0.40314 6:-0.227544 7:0.171174 8:-0.134137 9:0.0704685 10:0.399076 11:-0.0191681 12:-0.417393 13:-0.407234 14:-0.468727 15:-0.072228 16:0.00382292 17:-0.45221 18:-0.388384 
1 1:0.01655 2:0.0571352 3:0.217179 4:0.866841 5:0.252405 6:0.514262 7:-0.19657 8:0.704347 9:0.173008 10:0.477802 11:-0.0614257 12:0.212538 13:-0.0590949 14:-0.503923 15:-0.128669 16:-0.649043 17:-0.0593133 18:-0.0916114 
1 1:-0.169653 2:0.658472 3:0.450285 4:0.259859 5:0.3188 6:0.224444 7:-0.0876222 8:0.837464 9:0.226222 10:0.587809 11:0.558541 12:0.33293 13:-0.325 14:-0.208155 15:0.270433 16:0.184125 17:-0.308878 18:-0.385563 
1 1:-0.484806 2:0.361327 3:0.159689 4:0.328472 5:0.131472 6:0.151599 7:-0.558099 8:0.467494 9:0.285778 10:0.0527548 11:0.10086 12:-0.0901161 13:-0.122323 14:-0.53423 15:-0.962322 16:-0.613102 17:-0.323516 18:-0.398354 
1 1:-0.380176 2:0.0261646 3:-0.273827 4:-0.0733527 5:0.148437 6:-0.523999 7:-0.312667 8:-0.32804 9:-0.372769 10:-0.311631 11:-0.125703 12:-1 13:-0.959265 14:-0.459953 15:-0.396264 16:-0.108685 17:-0.718159 18:-0.169294 
1 1:0.024462 2:-0.0603907 3:0.0126208 4:0.140953 5:0.599594 6:0.305193 7:-0.26716 8:0.388732 9:-0.0457602 10:0.166987 11:-0.510558 12:0.351152 13:-0.121765 14:-0.482377 15:0.126352 16:-0.0314909 17:-1 18:-0.0299066 
1 1:0.0218881 2:0.354297 3:0.336366 4:-0.142352 5:0.299514 6:0.127883 7:0.047942 8:-0.0788828 9:0.158513 10:0.214059 11:0.358701 12:-0.00537109 13:-0.69896 14:-0.550112 15:0.135368 16:-0.538804 17:-0.264452 18:0.0718263 
1 1:-0.127612 2:0.620831 3:0.622814 4:0.553895 5:0.41731 6:0.418743 7:-0.137856 8:0.426401 9:0.0212396 10:0.357592 11:-0.146414 12:0.0699222 13:-0.411274 14:-0.416409 15:-0.326436 16:-0.649033 17:-0.17557 18:0.797423 
1 1:-0.241166 2:0.0844676 3:0.440901 4:0.124999 5:0.280954 6:-0.0933163 7:-0.345605 8:0.571619 9:0.125841 10:0.224242 11:-0.0653809 12:-0.00923115 13:-0.276242 14:-0.341639 15:0.13157 16:0.157376 17:-0.440989 18:-0.139809 
1 1:-0.464158 2:-0.559614 3:0.319125 4:0.435916 5:0.138628 6:0.0904756 7:-0.150174 8:0.294797 9:0.215401 10:0.470152 11:0.0268339 12:-0.0662258 13:-0.228143 14:-0.456413 15:-0.837535 16:0.0426269 17:-0.298117 18:0.0105978 
0.8556783178099908 1:-0.354877 2:-0.0439167 3:0.211411 4:0.446066 5:0.169141 6:0.802023 7:-0.117406 8:0.0403243 9:0.119855 10:0.319951 11:-1 12:0.0602196 13:-0.317522 14:-0.0881867 15:-0.335982 16:-0.283348 17:-0.119333 18:-0.169294 
1 1:-0.540637 2:0.00606893 3:-0.268487 4:-0.250374 5:-0.130648 6:0.0531376 7:0.012904 8:-0.548326 9:-0.348813 10:-0.142876 11:-0.253756 12:-0.62844 13:-0.694164 14:-0.367739 15:-0.726819 16:0.0494371 17:-0.396198 18:-0.461864 
-0.5218671594024991 1:0.170149 2:0.407515 3:0.136919 4:-0.222897 5:0.417622 6:1 7:0.115293 8:0.487092 9:0.00123282 10:-0.0629534 11:0.109773 12:0.983018 13:-0.212021 14:-0.213597 15:-0.254166 16:-0.124939 17:0.133893 18:0.426688 
-1 1:0.184692 2:0.636523 3:0.64401 4:0.179569 5:0.429375 6:0.497709 7:0.0134592 8:0.83192 9:0.551103 10:0.785579 11:0.533687 12:0.258064 13:-0.172566 14:0.0954926 15:0.512187 16:0.0312628 17:-0.137622 18:-0.282462 
-1 1:-0.0391521 2:-0.164769 3:0.182147 4:-0.0806094 5:0.219951 6:-0.067724 7:0.463381 8:0.625909 9:0.188571 10:0.344712 11:0.152263 12:0.0818845 13:-0.217758 14:-0.584084 15:0.330061 16:-0.0640265 17:-0.443148 18:0.221118 
-0.6465482001825568 1:0.169555 2:0.745629 3:0.815233 4:-0.0550767 5:0.718512 6:0.661047 7:0.445245 8:0.43036 9:0.207244 10:0.128543 11:-0.153691 12:0.623882 13:0.593999 14:0.0468006 15:0.120704 16:-0.125541 17:-0.315539 18:0.603743 
-1 1:-0.484361 2:0.49133 3:0.262831 4:-0.0940733 5:0.235984 6:0.227729 7:-0.19819 8:0.36373 9:-0.0268491 10:0.0488511 11:-0.182376 12:0.187845 13:0.0368664 14:-0.431566 15:-0.176762 16:-0.612651 17:0.0367058 18:-0.188756 
-1 1:-0.527793 2:0.212157 3:0.552214 4:0.0888224 5:0.00494104 6:0.297752 7:0.076432 8:0.619806 9:-0.346831 10:0.57098 11:0.633723 12:0.404815 13:-0.296256 14:-0.21094 15:0.200832 16:0.247148 17:-0.118673 18:0.112348 
-1 1:-0.291701 2:0.1055 3:-0.100695 4:-0.218484 5:0.132136 6:-0.0681764 7:0.162887 8:0.673145 9:-0.0555394 10:0.447144 11:-0.373004 12:-0.0857333 13:-0.242175 14:-0.213561 15:-0.47958 16:-0.182929 17:-0.121651 18:-0.0995388 
-1 1:-0.534405 2:0.268682 3:0.330623 4:0.350495 5:0.408588 6:0.180447 7:-0.71579 8:0.756627 9:-0.275813 10:0.589615 11:0.491002 12:0.196143 13:-0.375771 14:-0.28351 15:-0.789527 16:-0.0608454 17:-0.440989 18:-0.169294 
-1 1:0.0700774 2:0.172885 3:0.288507 4:0.147204 5:0.696662 6:0.24649 7:0.258715 8:0.597742 9:0.0469258 10:0.36491 11:0.324696 12:-0.479027 13:0.0840947 14:-0.208193 15:0.280428 16:0.302269 17:-0.0622876 18:-0.169294 
-1 1:-0.173079 2:0.287203 3:0.0998725 4:-0.431337 5:0.0464443 6:0.00488435 7:0.539879 8:0.0421084 9:-0.0939668 10:-0.175231 11:0.155474 12:0.0121232 13:-0.201087 14:-0.312935 15:-0.114014 16:0.434122 17:0.22676 18:-0.387977 
-1 1:0.381314 2:0.272882 3:0.683732 4:0.231219 5:0.343627 6:0.196565 7:0.193588 8:0.478453 9:0.310358 10:0.258284 11:0.269771 12:0.641074 13:-0.255243 14:-0.153493 15:0.0486848 16:0.190817 17:-0.163453 18:-0.049205 
-1 1:0.152806 2:0.591869 3:0.477996 4:0.305382 5:0.362743 6:0.510432 7:0.42421 8:0.541755 9:-0.0608254 10:0.619942 11:0.0150068 12:0.240615 13:-0.325769 14:-0.0743742 15:-0.0072088 16:0.14101 17:-0.203048 18:0.579615 
-1 1:-0.30932 2:-0.348224 3:-0.202287 4:0.535769 5:0.285059 6:0.193016 7:0.315294 8:-0.148957 9:-0.47494 10:0.091124 11:-0.999306 12:-0.775387 13:-0.247849 14:0.62084 15:-0.0863424 16:-0.133799 17:-0.440989 18:0.420533 
-1 1:-0.299336 2:0.358896 3:0.303884 4:-0.487009 5:0.261953 6:-0.353763 7:-0.431812 8:-0.228805 9:-0.102574 10:-0.198374 11:0.3544 12:0.235114 13:-0.010896 14:-0.470441 15:-0.413081 16:0.252312 17:-0.053595 18:0.273333 
-1 1:0.377853 2:0.593103 3:0.873039 4:0.953478 5:0.221347 6:0.805141 7:0.427987 8:0.141074 9:0.380049 10:0.792012 11:0.230039 12:-0.167339 13:-0.364278 14:0.142201 15:0.974839 16:0.165011 17:-0.277932 18:0.278624 
-1 1:-0.0441385 2:-0.273635 3:-0.432327 4:0.0137801 5:-0.0278674 6:-1 7:-0.329452 8:-0.186388 9:-0.161461 10:0.383546 11:-0.684231 12:-0.267533 13:-0.719862 14:-0.500117 15:-0.254166 16:-0.283348 17:-0.440989 18:0.845459 
-1 1:0.018086 2:-0.540155 3:0.0417953 4:0.119932 5:0.109016 6:-0.270108 7:-0.100403 8:0.820493 9:0.354741 10:0.296714 11:-0.0244363 12:-0.00977035 13:-0.29265 14:-0.368437 15:-0.207065 16:-0.174372 17:-0.440989 18:-0.349423 
-1 1:-0.578856 2:0.132233 3:0.129687 4:-0.0276287 5:0.13321 6:0.188587 7:-0.253397 8:0.502703 9:-0.170815 10:0.277677 11:0.0927861 12:0.414224 13:-0.250054 14:-0.323634 15:-0.252853 16:-0.0187131 17:-0.0417632 18:0.526748 
-1 1:-0.185157 2:0.311429 3:0.648745 4:0.00616742 5:0.0314979 6:0.390324 7:-0.516137 8:0.460231 9:0.163199 10:0.80296 11:0.428495 12:0.406461 13:-0.00384321 14:-0.706175 15:-0.650776 16:0.0627964 17:-0.961453 18:-0.169294 
-1 1:-0.383116 2:0.340507 3:0.0303586 4:-0.416045 5:0.205065 6:-0.122455 7:-0.126074 8:0.481152 9:-0.325567 10:0.0140944 11:-0.486771 12:0.268251 13:-0.115563 14:-0.406582 15:-0.508454 16:-0.509945 17:-0.621125 18:0.301158 
-1 1:-0.456723 2:-0.124951 3:0.192632 4:-0.241491 5:0.558724 6:-0.0525674 7:-0.168278 8:-0.280143 9:-0.153831 10:-0.48733 11:-0.22083 12:0.227631 13:-0.456357 14:-0.310289 15:-0.987805 16:0.105182 17:-0.581078 18:0.371713 
-1 1:1 2:0.220504 3:0.447527 4:-0.191306 5:0.559275 6:0.740722 7:0.652673 8:0.739302 9:0.62692 10:0.163739 11:0.201154 12:0.328439 13:0.200938 14:-0.345307 15:0.859349 16:-0.0699031 17:-0.171904 18:0.0658345 
-1 1:-0.596359 2:0.306817 3:0.0142108 4:-0.346133 5:0.026144 6:-0.0786773 7:-0.370621 8:0.26846 9:-0.273592 10:-0.422371 11:-0.0752749 12:0.0772047 13:-0.363405 14:-0.356483 15:-0.230338 16:0.312405 17:-0.663619 18:0.468556 
-1 1:0.169687 2:0.503453 3:0.526785 4:0.202244 5:0.367258 6:0.467045 7:0.419126 8:0.425184 9:0.013869 10:0.562434 11:0.685399 12:0.524547 13:-0.43003 14:-0.0406128 15:0.51641 16:-0.551738 17:-0.0982237 18:0.516975 
-1 1:0.0282328 2:-0.234273 3:0.409283 4:0.0858301 5:0.150243 6:0.0729575 7:0.263515 8:0.732304 9:0.195809 10:0.0637374 11:0.0197118 12:0.125648 13:-0.158722 14:-0.218268 15:-0.00869664 16:-0.189654 17:-0.74612 18:0.227498 
-1 1:-0.417141 2:-0.0598057 3:0.308483 4:0.23567 5:0.0339401 6:-0.0891668 7:-0.43746 8:0.197868 9:-0.159356 10:0.448505 11:-0.111621 12:0.0785673 13:-0.299466 14:-0.132388 15:0.0201741 16:0.204362 17:-0.440989 18:-0.169294 
-1 1:-0.225616 2:0.221808 3:0.0280722 4:-0.295667 5:0.52226 6:-0.436446 7:-0.565751 8:-0.368498 9:0.0558915 10:-0.513368 11:-0.0438908 12:-0.434376 13:-0.719862 14:-0.514974 15:-0.14639 16:-0.312352 17:-0.843661 18:-0.169294 
-1 1:-0.16009 2:0.451455 3:0.437276 4:-0.0512976 5:0.202507 6:0.0886117 7:0.0981042 8:0.778095 9:0.0487527 10:0.191582 11:-0.102869 12:0.407128 13:-0.0329529 14:-0.448034 15:-0.0390449 16:0.0175847 17:-0.132421 18:0.458316 
-1 1:-0.376738 2:-0.0537567 3:0.494945 4:0.196851 5:0.161553 6:0.0139946 7:0.425554 8:0.635831 9:0.0981446 10:0.390176 11:-0.404984 12:0.267944 13:-0.314842 14:-0.212199 15:0.263947 16:-0.299182 17:-0.693086 18:-0.180292 
-1 1:-0.0791239 2:0.0665742 3:0.357941 4:-0.365415 5:0.323465 6:0.0424525 7:-0.108435 8:0.787957 9:0.111457 10:0.306245 11:-0.0287499 12:0.422422 13:-0.055551 14:-0.16431 15:-0.254166 16:-0.0387017 17:-0.440989 18:0.356524 
-1 1:-0.0798092 2:-0.238407 3:0.0735575 4:0.312718 5:0.469624 6:-0.0557156 7:-0.49945 8:0.256761 9:0.0126803 10:0.134729 11:-0.405105 12:-0.189243 13:-0.0750682 14:-0.148351 15:0.128442 16:0.0990233 17:-0.726077 18:-0.169294 
-1 1:-0.183702 2:-0.13509 3:0.378692 4:0.130597 5:0.343001 6:0.179729 7:-0.080586 8:0.435203 9:0.0857783 10:0.203209 11:0.121308 12:-0.362814 13:-0.567062 14:-0.769417 15:-0.01853 16:-0.550898 17:-0.414171 18:-0.169294 
-1 1:-0.458324 2:0.296476 3:-0.136726 4:-0.0866468 5:0.322125 6:-0.443256 7:-0.17228 8:0.279179 9:-0.313535 10:-0.745854 11:0.29472 12:-0.697968 13:-0.529596 14:-0.342522 15:-0.239431 16:0.302366 17:-0.348869 18:-0.20338 
-1 1:-0.0756702 2:-0.464965 3:-0.246899 4:0.0392831 5:-0.164754 6:-0.499506 7:-0.468807 8:0.142963 9:0.170665 10:0.122706 11:-0.0503848 12:-0.036794 13:-0.322632 14:-0.29751 15:-0.431431 16:-0.283348 17:0.166073 18:0.41621 
-1 1:0.183822 2:0.322791 3:0.477111 4:0.0755341 5:0.304206 6:0.0402468 7:0.317959 8:0.238047 9:0.187352 10:0.249621 11:0.0684038 12:0.138858 13:0.0621277 14:-0.214953 15:0.136944 16:-0.236114 17:0.0455136 18:0.119345 
-1 1:-0.364375 2:0.132396 3:0.308723 4:0.284592 5:0.0959466 6:-0.0326714 7:-0.49025 8:0.609982 9:0.0756659 10:0.181295 11:0.314371 12:0.153993 13:-0.402298 14:-0.678019 15:-0.854796 16:-0.517286 17:-0.19408 18:-0.750366 
-1 1:-0.410513 2:0.230993 3:-0.422089 4:0.290465 5:0.32573 6:-0.0166072 7:-0.523457 8:-0.437887 9:-0.302305 10:-0.210697 11:-0.185462 12:-0.257412 13:-0.444532 14:-0.4064 15:0.0667628 16:0.119238 17:-0.543813 18:0.47565 
-1 1:-0.5038 2:-0.470873 3:0.224699 4:-0.103011 5:0.564336 6:-0.131432 7:-0.683113 8:-0.720646 9:-0.134988 10:0.0340378 11:0.318708 12:-0.656764 13:-0.329393 14:-0.249366 15:0.170693 16:-0.507326 17:-0.619042 18:-0.169294 
-1 1:0.203559 2:-0.0796822 3:0.375353 4:0.24818 5:0.520624 6:0.686981 7:0.335783 8:0.485219 9:0.095308 10:0.282756 11:0.0438806 12:0.645582 13:0.244599 14:0.0465925 15:-0.217734 16:-0.125838 17:0.0914961 18:-0.478451 
-1 1:-0.896754 2:0.0451776 3:0.300549 4:-0.0431214 5:-0.0609543 6:0.276211 7:-0.165982 8:0.563207 9:-0.495881 10:0.218433 11:-0.0184521 12:0.494237 13:-0.270055 14:-0.894549 15:-0.078865 16:-0.428422 17:-0.0365991 18:0.108184 
-1 1:-0.21006 2:-0.345244 3:0.209152 4:0.0375215 5:0.1347 6:-0.116707 7:0.0269192 8:0.30554 9:0.122673 10:0.400529 11:0.204483 12:-0.0129226 13:-0.0599222 14:-0.486869 15:-0.210166 16:-0.0678978 17:-0.440989 18:0.512854 
-1 1:0.164036 2:0.159921 3:0.186725 4:0.0910878 5:0.236443 6:0.15406 7:-0.0427377 8:0.326855 9:0.330679 10:0.295808 11:0.395619 12:0.115965 13:0.0788743 14:0.116239 15:0.203353 16:0.12435 17:-0.31999 18:-0.130939 
-1 1:-0.421851 2:0.292526 3:0.419097 4:0.180818 5:-0.0055253 6:0.367123 7:-0.66858 8:0.35954 9:0.118938 10:0.411874 11:0.124063 12:-0.451313 13:0.0901197 14:-0.223239 15:-0.552551 16:0.120336 17:0.0938253 18:0.435554 
-1 1:0.194393 2:0.357148 3:-0.230357 4:0.106024 5:0.218219 6:-0.324959 7:-0.228764 8:0.876666 9:0.528291 10:0.451337 11:-0.235883 12:-0.314086 13:-0.394295 14:-0.394282 15:-0.366144 16:-0.684417 17:-0.520313 18:-0.361031 
-1 1:-0.0492217 2:0.40962 3:0.300202 4:-0.398037 5:0.379928 6:0.470865 7:0.329539 8:0.543901 9:0.286851 10:0.0639115 11:-0.66776 12:0.678669 13:0.151335 14:-0.243449 15:0.289027 16:-0.100593 17:0.0344605 18:0.195718 
-1 1:-0.33802 2:0.152314 3:0.172198 4:-0.13884 5:0.106209 6:0.455608 7:-0.513916 8:0.541994 9:-0.0540546 10:0.348706 11:-0.166795 12:0.651199 13:0.728179 14:-0.0518726 15:-0.457118 16:-0.0378681 17:-0.485353 18:0.684915 
-1 1:0.0981042 2:0.504518 3:0.197818 4:0.150547 5:0.463876 6:-0.146264 7:0.0568227 8:0.326193 9:-0.0445186 10:-0.45597 11:-0.375858 12:0.150307 13:-0.250939 14:-0.141408 15:-0.0495695 16:0.103263 17:-0.056545 18:-0.528594 
-0.667545228256587 1:-0.229771 2:0.388567 3:0.0594274 4:-0.0677349 5:0.169018 6:-0.0695931 7:0.126722 8:0.780481 9:0.178504 10:0.26668 11:-0.365065 12:0.42906 13:-0.326343 14:-0.257105 15:-0.268754 16:-0.597633 17:-0.211813 18:0.409214 
-0.5558141902376579 1:-0.752533 2:0.169698 3:0.106794 4:-0.252363 5:-0.0687074 6:-0.278785 7:-0.315033 8:0.089641 9:-0.504429 10:-0.531414 11:0.11452 12:-0.0562445 13:-0.295041 14:-0.45799 15:-0.252789 16:0.26241 17:-0.246644 18:0.317504 
-1 1:-0.0107482 2:0.172255 3:0.311642 4:0.32588 5:0.289892 6:-0.0755839 7:0.222035 8:0.386622 9:0.0467215 10:-0.583016 11:0.434364 12:-0.0733934 13:-0.484449 14:-0.0885628 15:0.253551 16:0.788481 17:-0.339519 18:0.53872 
-1 1:-1 2:-0.255197 3:-0.182728 4:-0.27612 5:-0.518026 6:-0.404694 7:-0.62239 8:-0.630639 9:-0.520833 10:-0.466335 11:0.0790457 12:-0.34258 13:-0.216555 14:-0.0417611 15:-0.254166 16:0.280446 17:-0.206699 18:-0.552107 
-1 1:-0.0784596 2:-0.000628925 3:0.439646 4:-0.0253029 5:0.300954 6:0.0666189 7:0.189363 8:0.250014 9:0.324455 10:0.115955 11:0.327253 12:-0.187682 13:-0.352661 14:-0.342632 15:-0.119193 16:-0.6406 17:-0.168865 18:-0.295031 
-1 1:-0.187099 2:0.211377 3:0.372116 4:-0.204141 5:0.241145 6:-0.200106 7:0.0416095 8:0.251014 9:0.0571173 10:-0.212626 11:0.44415 12:0.330774 13:-0.200113 14:-0.192868 15:-0.210118 16:0.373728 17:-0.286541 18:0.335164 
-1 1:-0.15431 2:0.526548 3:0.620665 4:0.41647 5:0.144188 6:0.587494 7:-0.318312 8:0.885303 9:0.109477 10:0.550134 11:0.192168 12:0.455154 13:-0.144343 14:0.243145 15:-0.305436 16:-0.0857895 17:-0.0205891 18:0.707236 
-1 1:-0.443377 2:0.06048 3:0.108995 4:-0.142961 5:0.197376 6:0.31296 7:-0.110754 8:0.658429 9:-0.0837535 10:0.16541 11:-0.387794 12:0.335674 13:0.699158 14:-0.268963 15:-0.314144 16:0.115889 17:-0.430211 18:0.451355 
-1 1:0.0296466 2:-0.375827 3:0.395474 4:0.410961 5:0.141775 6:0.106006 7:0.295214 8:0.564598 9:0.129192 10:0.0423028 11:-0.0360328 12:-0.383181 13:-0.219995 14:-0.447737 15:0.497314 16:-0.267469 17:-0.428366 18:0.0510217 
-1 1:-0.147874 2:0.0782149 3:-0.209406 4:-0.492747 5:0.195364 6:-0.0168363 7:-0.206249 8:0.434113 9:-0.0239218 10:-0.0481555 11:-0.276914 12:0.136869 13:-0.341471 14:-0.287828 15:-0.598673 16:-0.164008 17:-0.585628 18:0.122889 
-1 1:0.0291367 2:0.345087 3:0.453064 4:-0.0109565 5:0.313853 6:0.133053 7:0.403381 8:0.311255 9:0.0707564 10:0.146862 11:0.326254 12:-0.340632 13:-0.37654 14:-0.123283 15:0.00329395 16:-0.531451 17:-0.440989 18:-0.341636 
-1 1:0.0138695 2:0.294237 3:0.239328 4:-0.0232701 5:0.312707 6:0.338769 7:-0.0353077 8:0.432495 9:0.244369 10:0.170134 11:-0.558219 12:0.719901 13:0.0708834 14:0.141539 15:-0.165374 16:-0.204225 17:-0.13858 18:0.45083 
-1 1:-0.126637 2:0.480527 3:0.0379229 4:0.917235 5:0.27785 6:0.274747 7:-0.705887 8:-0.108234 9:-0.168303 10:-0.447092 11:-0.44696 12:-0.104541 13:-0.795646 14:-0.487622 15:0.0952508 16:0.489142 17:-0.33357 18:0.873464 
-1 1:-0.126129 2:-0.0387615 3:0.047626 4:0.614337 5:0.525724 6:-0.0580676 7:-0.285533 8:0.373583 9:0.129655 10:-0.0483681 11:-0.100163 12:-0.473032 13:-0.611134 14:-0.13664 15:-0.324748 16:-0.346244 17:-0.440989 18:0.205586 
-1 1:0.0437858 2:0.525874 3:0.152778 4:-0.0885075 5:0.225569 6:0.0952836 7:0.203866 8:0.0929901 9:-0.139737 10:-0.572413 11:-0.171602 12:0.0110329 13:-0.0772229 14:-0.423549 15:0.291833 16:0.157398 17:-0.0542084 18:0.426655 
-1 1:0.498009 2:0.361473 3:0.436219 4:0.052343 5:0.197862 6:0.262349 7:-0.466459 8:0.506345 9:0.307043 10:0.244965 11:-0.454573 12:0.402903 13:-0.377402 14:-0.75713 15:0.141499 16:-0.283348 17:-0.160704 18:0.474705 
-1 1:-0.65941 2:0.168749 3:0.323394 4:0.254246 5:0.487392 6:0.3152 7:-0.0370333 8:0.215878 9:0.0880515 10:0.548743 11:0.588941 12:0.252526 13:-0.401389 14:-0.0691864 15:-0.00645204 16:-0.187654 17:-0.265511 18:-0.169294 
-0.3158160762113432 1:0.0275039 2:0.602203 3:0.102227 4:-0.306408 5:0.20103 6:-0.00949186 7:0.213636 8:0.493951 9:0.00999768 10:-0.337206 11:-0.138332 12:0.255638 13:-0.195143 14:-0.41644 15:0.0540613 16:0.292601 17:0.184628 18:0.396134 
-1 1:0.273306 2:0.0435687 3:0.181462 4:-0.0882604 5:0.422394 6:-0.0301955 7:0.589256 8:0.101573 9:0.0988178 10:-0.0133951 11:-0.204037 12:0.142909 13:-0.458016 14:-0.514595 15:0.356447 16:-0.107517 17:-0.920335 18:0.383741 
-1 1:-0.248694 2:0.303327 3:0.467059 4:0.407052 5:0.101752 6:0.224429 7:-0.276919 8:0.5316 9:0.00793351 10:0.41969 11:0.615499 12:0.416098 13:-0.159349 14:-0.0806828 15:0.320779 16:-0.470576 17:-0.110809 18:-0.29935 
-1 1:0.16242 2:-0.097075 3:0.511796 4:0.19744 5:0.662572 6:0.292356 7:0.409682 8:-0.387308 9:0.454137 10:0.480185 11:0.907029 12:-0.0127917 13:-0.175234 14:-0.0807084 15:0.598815 16:0.233503 17:-0.649238 18:-0.228839 
-1 1:-0.155647 2:-1 3:0.449136 4:0.61671 5:0.528277 6:0.0860426 7:0.197461 8:-0.155098 9:-0.0841866 10:0.314855 11:0.175035 12:-0.253928 13:-0.719862 14:0.455299 15:-0.447283 16:-0.154149 17:-0.440989 18:-0.169294 
-1 1:-0.0868987 2:-0.034026 3:0.379641 4:0.415187 5:0.310858 6:-0.0592783 7:0.242752 8:-0.284368 9:-0.00392334 10:0.394643 11:0.0832072 12:-0.0839913 13:-0.126831 14:0.415241 15:0.255795 16:0.17108 17:-0.0797379 18:-0.169294 
-1 1:-0.415686 2:-0.109781 3:0.576014 4:0.666927 5:1 6:-0.35129 7:-0.0124358 8:-0.0467291 9:0.276839 10:0.348492 11:0.842325 12:0.586766 13:0.0304414 14:-0.676372 15:0.130676 16:0.360873 17:-0.440989 18:-0.169294 
-1 1:-0.22378 2:-0.137883 3:0.323622 4:0.158397 5:0.202789 6:0.102068 7:0.144869 8:0.422123 9:0.213024 10:0.357087 11:0.513949 12:0.61395 13:-0.394281 14:-0.582184 15:-0.254166 16:-0.047025 17:-0.440989 18:-0.169294 
-1 1:-0.382309 2:0.608336 3:0.169113 4:-0.00810459 5:0.385853 6:0.0921975 7:-0.111177 8:1 9:-0.0458675 10:0.356208 11:-0.3566 12:-0.172543 13:-0.182081 14:-0.652678 15:-0.0291068 16:0.21849 17:-0.0420493 18:-0.169294 
-1 1:-0.177725 2:-0.518945 3:0.104652 4:0.310959 5:0.137003 6:-0.143214 7:0.292852 8:0.655608 9:0.249741 10:0.250765 11:0.0800804 12:0.36814 13:-0.308458 14:-0.361566 15:0.273593 16:0.141144 17:-0.144234 18:0.00315138 
-1 1:-0.306677 2:-0.120506 3:0.0552116 4:0.274925 5:0.482225 6:0.2604 7:-0.0359072 8:0.530153 9:0.00751921 10:0.224078 11:-0.245724 12:0.144328 13:-0.324489 14:-0.247424 15:-0.591334 16:-0.0604762 17:-0.58043 18:-0.169294 
-1 1:-0.0887307 2:0.363789 3:0.593783 4:-0.128744 5:0.411453 6:0.230186 7:-0.0513637 8:0.649809 9:0.166797 10:0.381991 11:0.533797 12:0.315932 13:0.362969 14:0.192037 15:0.0559308 16:0.391259 17:-0.0279501 18:-0.18663 
-0.7869396456792219 1:-0.328152 2:-0.104959 3:-0.706786 4:-0.202539 5:-0.240285 6:-0.14405 7:-0.170459 8:-0.469447 9:-0.368433 10:-0.371609 11:-0.795461 12:0.163825 13:-0.227107 14:0.707897 15:-0.594843 16:0.221874 17:0.192386 18:-0.54914 
-0.7592961957719626 1:0.0336097 2:-0.0542216 3:0.317031 4:-0.0711981 5:0.0282672 6:0.24101 7:0.485628 8:0.623963 9:-0.0472204 10:0.250732 11:-0.0662651 12:0.118822 13:-0.281294 14:-0.0842805 15:0.257557 16:-0.225627 17:-0.634613 18:0.435963 
-1 1:-0.0767256 2:-0.15995 3:0.535018 4:0.387375 5:0.239221 6:0.139675 7:0.181474 8:0.666175 9:0.247877 10:0.458141 11:0.244203 12:0.352002 13:-0.143815 14:-0.33085 15:-0.0803875 16:0.0177589 17:0.224132 18:-0.54767 
-1 1:0.324825 2:0.176686 3:0.163858 4:0.167831 5:0.373739 6:0.166387 7:0.506215 8:0.649777 9:0.29239 10:0.248763 11:0.0163051 12:0.0741802 13:-0.556208 14:-0.433428 15:0.411414 16:-0.167774 17:-0.448518 18:-0.0890113 
-1 1:-0.394069 2:0.278431 3:0.411954 4:-0.250411 5:0.245915 6:0.0753172 7:-0.379168 8:0.613151 9:-0.0140227 10:0.149634 11:-0.333307 12:0.405774 13:-0.310841 14:0.0792303 15:-0.254166 16:-0.0154766 17:-0.150938 18:-0.40179 
-1 1:0.356488 2:0.385685 3:0.36379 4:-0.216502 5:0.623554 6:-0.110717 7:0.134367 8:0.104747 9:0.377335 10:-0.445946 11:0.226494 12:0.304438 13:-0.206189 14:-0.149191 15:0.589138 16:0.569668 17:0.277821 18:0.0512177 
-1 1:-0.228221 2:0.231701 3:0.485422 4:-0.0819298 5:0.133816 6:0.480967 7:0.48208 8:0.67186 9:-0.165037 10:0.489228 11:0.171373 12:0.130343 13:-0.289482 14:-0.466846 15:-0.266989 16:-0.294775 17:-0.309969 18:0.585373 
-1 1:-0.0834175 2:0.264411 3:0.336324 4:-0.0881817 5:0.357546 6:0.459067 7:-0.102902 8:0.40116 9:0.23428 10:0.214538 11:-0.0246922 12:0.484945 13:0.0383214 14:-0.0188113 15:-0.0269536 16:-0.205923 17:0.127238 18:0.757191 
-1 1:-0.0629029 2:0.399912 3:0.757651 4:0.225353 5:0.362384 6:0.505395 7:0.145366 8:0.869259 9:-0.0576769 10:0.536496 11:0.150862 12:0.398052 13:-0.0527946 14:-0.203609 15:-0.380747 16:-0.697431 17:-0.770168 18:-0.247647 
-1 1:-0.791655 2:-0.827742 3:-0.253876 4:-0.353875 5:-0.35341 6:-0.449827 7:0.0599274 8:-0.278359 9:-0.674477 10:-0.2712 11:-0.355259 12:-0.268329 13:-0.905377 14:-0.866829 15:-0.710622 16:0.088715 17:-0.384724 18:-0.364977 
-1 1:-0.135848 2:-0.0940079 3:0.168132 4:-0.344728 5:0.449268 6:0.100795 7:0.212167 8:0.53475 9:0.146728 10:0.181006 11:0.0515549 12:0.112629 13:-0.527156 14:-0.477714 15:-0.0291871 16:-0.0828681 17:-0.368456 18:0.462548 
-1 1:0.132019 2:0.181171 3:0.257426 4:-0.220564 5:0.376947 6:-0.417747 7:0.311656 8:0.348533 9:0.079083 10:-0.302798 11:0.203066 12:0.279941 13:-0.554313 14:-0.287555 15:0.0779728 16:0.410901 17:-0.824828 18:0.637882 
-1 1:0.0830569 2:0.275824 3:0.492621 4:0.24626 5:0.239352 6:0.372487 7:0.537609 8:0.984253 9:0.236812 10:0.678774 11:0.397413 12:0.481737 13:-0.270516 14:-0.215425 15:0.333965 16:-0.236789 17:-0.304571 18:-0.0500907 
-1 1:0.110031 2:-0.108802 3:0.395731 4:0.0596695 5:0.300854 6:0.0860006 7:0.137638 8:0.220499 9:0.114068 10:0.529212 11:0.207282 12:0.103097 13:-0.447463 14:-0.164228 15:0.166895 16:0.091861 17:-0.142714 18:0.300626 
-1 1:-0.0625235 2:-0.228825 3:0.477412 4:-0.398265 5:0.140228 6:0.247102 7:0.50392 8:0.510186 9:0.410199 10:0.45791 11:0.197721 12:-0.0215824 13:-0.086735 14:-0.683392 15:0.119418 16:-0.126686 17:-0.555959 18:0.689808 
-0.8794950529331785 1:0.369662 2:-0.0616853 3:0.246495 4:-0.326043 5:0.401653 6:0.0752417 7:0.599332 8:0.645896 9:0.429377 10:0.102482 11:0.0417285 12:0.323083 13:-0.225545 14:-0.37294 15:0.0389325 16:-0.109391 17:-0.3027 18:0.0625725 
-1 1:-0.0430791 2:0.323863 3:-0.33424 4:-0.742295 5:0.0839898 6:-0.277836 7:-0.796402 8:-0.336199 9:-0.418341 10:-1 11:-0.644116 12:-0.566818 13:-0.123106 14:0.178067 15:-0.41702 16:0.0490591 17:-0.379843 18:0.122199 
-1 1:-0.271178 2:0.0337925 3:0.228397 4:-0.114669 5:0.228063 6:-0.1514 7:-0.0969366 8:0.609882 9:0.152858 10:0.259815 11:0.113901 12:-0.186584 13:-0.213672 14:-0.450451 15:-0.578804 16:-0.271347 17:-0.114835 18:-0.169294 
-1 1:-0.128944 2:0.231561 3:0.277638 4:0.0762555 5:0.275264 6:0.243237 7:-0.0539772 8:0.0986924 9:0.212253 10:0.302242 11:-0.298514 12:-0.476289 13:-0.119812 14:0.127662 15:-0.327952 16:0.253473 17:-0.440989 18:-0.00568186 
-1 1:-0.322135 2:0.28058 3:-0.238397 4:-0.321 5:-0.00846656 6:-0.0175921 7:0.394771 8:-0.263118 9:-1 10:-0.374721 11:0.121155 12:0.0981043 13:-0.439787 14:-0.642008 15:-0.547879 16:0.154487 17:-0.888562 18:-0.141816 
-1 1:0.141219 2:0.0105082 3:0.625872 4:0.0289884 5:0.364085 6:0.271186 7:0.368941 8:0.54883 9:0.222626 10:0.349604 11:0.401353 12:0.290586 13:-0.338007 14:-0.368531 15:-0.358503 16:-0.200082 17:-0.374796 18:-0.169294 
-1 1:0.376458 2:0.26362 3:0.393444 4:0.144566 5:0.347513 6:0.381575 7:0.551576 8:0.830902 9:0.301079 10:-0.06563 11:0.0929874 12:-0.325547 13:-0.214199 14:-0.412376 15:0.35624 16:-0.0406985 17:0.0446818 18:0.662678 
-1 1:0.00711255 2:0.420379 3:0.529749 4:0.363256 5:0.350406 6:0.683115 7:0.276386 8:0.481333 9:0.150336 10:0.55018 11:0.320366 12:0.550011 13:0.0518889 14:0.0211088 15:0.742842 16:0.277452 17:-0.713705 18:-0.407595 
-1 1:-0.263761 2:0.335491 3:0.516887 4:0.0721809 5:0.333777 6:0.522924 7:-0.0481153 8:0.535659 9:0.00626869 10:0.0877691 11:0.0427251 12:0.389731 13:0.0547171 14:0.187338 15:0.303626 16:-0.283348 17:0.110324 18:0.406094 
-1 1:-0.0987794 2:0.168007 3:0.531181 4:0.140606 5:0.37474 6:0.342201 7:0.150318 8:0.625701 9:0.0136365 10:0.249 11:0.181775 12:0.137489 13:-0.131655 14:-0.0766062 15:0.153337 16:-0.766037 17:-0.268582 18:-0.0186437 
-1 1:-0.695531 2:-0.0119368 3:-0.239204 4:-0.414897 5:-0.0254796 6:-0.274553 7:-0.048603 8:-0.318278 9:-0.41846 10:-0.241322 11:-0.0640547 12:-0.0222866 13:-0.669579 14:-0.505032 15:-0.417156 16:-0.127304 17:-0.633555 18:-0.270184 
-1 1:-0.210519 2:0.151553 3:-0.251389 4:0.0177442 5:0.0201036 6:-0.208824 7:0.201418 8:0.20163 9:-0.240516 10:-0.391701 11:-0.106833 12:-0.67129 13:-0.494422 14:-0.484722 15:-0.998237 16:0.276495 17:-0.264259 18:0.778182 
-1 1:0.271897 2:-0.173568 3:0.233285 4:0.273888 5:0.665431 6:0.0228123 7:0.210163 8:0.584638 9:0.302889 10:0.303935 11:-0.16516 12:0.418724 13:0.324907 14:-0.670979 15:0.190718 16:0.0160977 17:-0.541858 18:0.492845 
-1 1:-0.120079 2:0.139746 3:0.655203 4:-0.225016 5:-0.115651 6:0.153299 7:-0.22633 8:0.652219 9:0.287442 10:0.165027 11:0.26027 12:0.398098 13:-0.0811455 14:-0.390076 15:-0.143881 16:-0.6626 17:-0.263458 18:-0.642022 
