svm_type c_svc
kernel_type rbf
gamma 0.05
nr_class 2
total_sv 342
rho 0.779494
label 1 0
probA -1.10506
probB 0.170071
nr_sv 171 171
SV
1 1:0.714957 2:0.199598 3:0.229494 4:0.472262 5:-0.128803 6:0.244681 7:-0.0983928 8:0.312472 9:0.143403 10:0.295776 11:0.560898 12:0.197842 13:0.0709122 14:0.00296607 15:0.142282 16:-0.498996 17:-0.403689 18:0.590813 19:0.464813 20:0.167677 
1 1:-0.466164 2:-0.492797 3:0.078042 4:0.438059 5:0.885918 6:-0.726276 7:0.317378 8:-0.463748 9:-0.495567 10:-0.0246645 11:0.232667 12:-0.60647 13:-0.134758 14:0.120911 15:0.160452 16:-0.0959427 17:-0.176428 18:0.0247162 19:-0.106589 20:-0.222468 
1 1:0.208069 2:0.342762 3:-0.660269 4:0.664725 5:0.140952 6:-0.897412 7:0.404764 8:-0.15173 9:-0.0691639 10:-0.282735 11:0.271587 12:0.678484 13:0.495752 14:-0.272454 15:0.0386579 16:-0.230657 17:0.40895 18:-0.327277 19:0.13214 20:0.123809 
1 1:0.071252 2:0.28081 3:0.0290552 4:0.384398 5:0.0989515 6:-0.394126 7:0.237897 8:0.0728695 9:0.0528702 10:0.276405 11:0.129888 12:0.713901 13:0.324535 14:0.352241 15:0.207677 16:0.156224 17:0.400817 18:0.139886 19:0.302723 20:0.00381454 
0.6517855916983197 1:0.0207123 2:0.102244 3:-0.0714395 4:0.150844 5:0.156268 6:0.0233311 7:-0.063626 8:-0.0512466 9:0.0358839 10:0.208928 11:0.0254502 12:-0.231524 13:0.138905 14:-0.353449 15:0.326425 16:0.185615 17:0.122057 18:-0.44172 19:-0.637506 20:0.102701 
0.9148965884161658 1:0.211853 2:0.478585 3:0.0962708 4:0.376642 5:0.468143 6:0.2029 7:0.287337 8:0.456275 9:0.0729557 10:0.243038 11:-0.178162 12:0.423279 13:0.438555 14:0.18487 15:0.0272041 16:-0.533803 17:-0.445117 18:0.123386 19:-0.236237 20:-0.189006 
1 1:0.260782 2:0.255344 3:-0.0328278 4:0.305476 5:0.549208 6:-0.330438 7:-0.0614204 8:-0.211983 9:-0.147287 10:-0.309974 11:-0.277371 12:0.238123 13:0.228695 14:-0.127427 15:0.145306 16:0.459485 17:-0.168381 18:-0.0459358 19:-0.684911 20:-0.0628247 
1 1:0.356084 2:0.552839 3:-0.525434 4:0.451174 5:-0.418728 6:0.149579 7:0.525518 8:-0.0349982 9:0.567774 10:0.389472 11:0.21752 12:0.179976 13:0.150186 14:-0.241329 15:0.0787271 16:0.27793 17:-0.144808 18:0.412445 19:-0.0309824 20:0.518274 
1 1:-0.11466 2:0.431453 3:0.0223229 4:0.550691 5:-0.346956 6:-0.37959 7:0.357338 8:-0.365926 9:-0.0133502 10:-0.148441 11:0.28992 12:0.0247038 13:0.0521514 14:0.151203 15:-0.139603 16:0.0404434 17:0.374417 18:-0.633314 19:-0.359105 20:0.185772 
1 1:0.312068 2:0.452397 3:-0.176419 4:0.275879 5:0.263342 6:0.127716 7:0.241786 8:0.224101 9:0.119826 10:-0.286359 11:-0.0633296 12:0.253518 13:0.212762 14:0.132281 15:0.137168 16:-0.129438 17:-0.185777 18:0.343265 19:-0.201324 20:-0.138366 
1 1:0.171997 2:0.0463774 3:0.04971 4:0.60121 5:0.0805654 6:-0.119699 7:0.163516 8:0.173482 9:-0.131595 10:0.293542 11:0.321939 12:0.373981 13:0.220789 14:-0.128342 15:0.19968 16:0.0231074 17:0.500858 18:0.0471026 19:-0.0592506 20:-0.267577 
1 1:0.0311307 2:0.213006 3:-0.258581 4:0.421208 5:-0.206732 6:-0.245772 7:0.0414828 8:-0.0291877 9:0.0134611 10:0.0516981 11:0.347815 12:0.444488 13:0.409345 14:-0.0832616 15:0.278271 16:-0.0718342 17:0.548626 18:0.213115 19:0.00868818 20:0.642663 
1 1:0.200909 2:0.221315 3:-0.0818607 4:0.0538014 5:0.387656 6:-0.0237291 7:0.308774 8:0.102892 9:0.0415926 10:0.291295 11:0.174429 12:0.224587 13:0.376018 14:0.108659 15:0.0593728 16:0.0959901 17:-0.139412 18:0.354639 19:-0.3063 20:-0.0755747 
1 1:-0.0620695 2:0.317148 3:-0.202278 4:0.169504 5:0.217869 6:-0.0725433 7:0.344272 8:-0.559751 9:-0.218807 10:-0.119723 11:0.0512824 12:0.328713 13:-0.026153 14:-0.260213 15:0.389734 16:-0.589061 17:-0.15911 18:0.158028 19:-0.3063 20:-0.278077 
1 1:0.265326 2:-0.0518331 3:-0.110329 4:0.0770578 5:0.664427 6:0.180802 7:0.264038 8:-0.562256 9:-0.339609 10:-0.419193 11:-0.341687 12:-0.252257 13:-0.217601 14:0.0920049 15:0.0746228 16:-0.178474 17:-0.315592 18:0.0667651 19:-0.3063 20:-0.31417 
1 1:-0.434166 2:-0.0916069 3:-0.0983629 4:0.250083 5:0.523361 6:-0.794004 7:0.00949981 8:-0.167711 9:-0.426759 10:-0.222166 11:-0.148001 12:0.0601699 13:-0.0835707 14:-0.0736646 15:-0.768878 16:-0.206495 17:-0.206041 18:0.116862 19:-0.0797309 20:-0.563151 
1 1:-0.11777 2:-0.381701 3:-0.422972 4:-0.015576 5:0.821193 6:-0.231507 7:-0.269887 8:-0.530291 9:-0.505573 10:-0.729249 11:-0.254125 12:-0.17995 13:-0.540316 14:-0.693495 15:0.181129 16:-0.755675 17:-0.168381 18:-0.68639 19:-0.81124 20:-0.546644 
1 1:0.0645219 2:-0.335714 3:-0.386784 4:-0.0994154 5:0.718673 6:0.18057 7:-0.541504 8:-0.769077 9:-0.528962 10:-0.696629 11:-0.512854 12:-0.598089 13:-0.179938 14:0.0176792 15:-0.0707269 16:-0.212641 17:-0.11222 18:-0.655816 19:-0.78953 20:-0.214575 
1 1:0.0161779 2:0.16585 3:0.140449 4:0.107592 5:0.613011 6:-0.0275766 7:-0.090974 8:0.304838 9:-0.0713941 10:0.170181 11:0.336354 12:0.357832 13:0.188823 14:0.557928 15:0.510458 16:0.473575 17:-0.335175 18:-0.194597 19:0.159642 20:-0.0401136 
1 1:0.462741 2:0.0258901 3:-0.33263 4:0.367275 5:-0.0970524 6:-0.647756 7:-0.188912 8:-0.204925 9:-0.158104 10:0.541391 11:-0.230067 12:-0.0588805 13:-0.211898 14:0.00381423 15:0.595386 16:-0.301296 17:0.262794 18:0.420947 19:-0.024946 20:-0.00728027 
1 1:-0.639002 2:-0.324983 3:-0.330273 4:-0.258759 5:0.975951 6:-0.618595 7:-0.486398 8:-0.729973 9:-0.818338 10:-0.826286 11:-0.259289 12:-0.420152 13:-0.500191 14:-0.715364 15:-0.493092 16:-0.583117 17:-0.373981 18:-1 19:-0.826703 20:-0.869652 
1 1:-0.00981294 2:-0.0954956 3:-0.288669 4:-0.217941 5:0.754204 6:-0.11737 7:0.046729 8:-0.28301 9:-0.413376 10:-0.403689 11:-0.0481581 12:-0.0979 13:-0.270383 14:0.0623259 15:-0.0278675 16:-0.412177 17:-0.430185 18:-0.0276911 19:-0.3063 20:0.185772 
1 1:0.055562 2:0.509388 3:-0.104952 4:0.419341 5:-0.0669024 6:0.0340847 7:-0.088576 8:0.10622 9:0.208488 10:0.474948 11:0.0923584 12:0.343068 13:0.349349 14:0.201508 15:-0.175588 16:0.186756 17:0.483965 18:-0.0869769 19:0.150055 20:0.547137 
1 1:0.303369 2:0.235511 3:-0.196816 4:0.324596 5:0.533391 6:-0.219964 7:-0.308605 8:-0.00101327 9:-0.123118 10:-0.365476 11:-0.226913 12:0.16144 13:0.0629884 14:0.0347119 15:0.110191 16:-0.292323 17:-0.601594 18:-0.544905 19:-0.503551 20:-0.400919 
1 1:0.339222 2:0.154171 3:0.294333 4:0.388484 5:-0.104852 6:0.379474 7:0.183156 8:0.560973 9:0.27776 10:0.687068 11:0.290307 12:0.216489 13:0.356088 14:0.6334 15:0.413856 16:-0.710497 17:0.319437 18:0.39389 19:0.370289 20:-0.173243 
1 1:-0.409879 2:0.253971 3:-0.663979 4:0.426608 5:-0.476068 6:-0.498254 7:0.537168 8:0.0618968 9:0.131725 10:0.109838 11:0.0516569 12:0.464836 13:0.452961 14:-0.565857 15:0.377656 16:0.662543 17:0.232499 18:-0.267455 19:-0.3063 20:0.36125 
1 1:0.613281 2:0.200068 3:0.116835 4:0.389662 5:-0.152931 6:-0.225274 7:-0.492164 8:0.289895 9:0.00127346 10:0.277187 11:0.238463 12:0.40001 13:0.224713 14:-0.272454 15:0.601838 16:0.065242 17:-0.168381 18:0.42764 19:-0.3063 20:0.185772 
1 1:0.321924 2:0.253664 3:0.21118 4:0.414227 5:-0.61761 6:-0.126004 7:0.623679 8:-0.487004 9:0.453993 10:0.0585908 11:-0.167013 12:0.409819 13:0.326645 14:-0.09543 15:0.524721 16:-0.297737 17:0.43521 18:0.265899 19:-0.388351 20:0.191509 
1 1:0.0824612 2:-0.00483539 3:0.47012 4:0.550893 5:0.484514 6:0.734463 7:0.316693 8:0.238859 9:0.0601906 10:0.362618 11:0.456182 12:0.128388 13:0.294163 14:0.468853 15:0.673792 16:0.286283 17:0.292604 18:0.360617 19:0.951026 20:-0.466761 
1 1:-0.381168 2:-0.242275 3:-0.086028 4:0.293066 5:0.569352 6:-0.359897 7:0.0160262 8:-0.48618 9:-0.465847 10:-0.476153 11:-0.23861 12:-0.131764 13:-0.182396 14:0.0176609 15:0.00909537 16:-0.400803 17:-0.0454573 18:-0.187232 19:-0.416879 20:-0.178436 
1 1:0.0654688 2:0.166804 3:0.216404 4:0.575879 5:0.10006 6:0.122101 7:-0.853292 8:0.772136 9:0.25795 10:-0.241426 11:-0.207334 12:0.288583 13:-0.459326 14:-0.434654 15:-0.0590532 16:-0.108949 17:0.282504 18:-0.136803 19:0.0601675 20:-0.281165 
1 1:0.399677 2:-0.139612 3:0.0902603 4:0.237083 5:-0.0946684 6:0.150119 7:0.113292 8:0.0209825 9:-0.18526 10:-0.0299414 11:0.0904361 12:-0.141512 13:0.307015 14:0.445344 15:0.70691 16:-0.0156635 17:-0.18019 18:0.00918934 19:-0.438543 20:0.185772 
1 1:-0.0544579 2:0.673418 3:-0.360693 4:0.25626 5:-0.0368535 6:-0.205216 7:0.524956 8:0.0725446 9:0.124697 10:0.201375 11:0.426911 12:0.627687 13:0.213459 14:-0.00161026 15:0.192086 16:0.842467 17:-0.168381 18:0.294423 19:-0.322011 20:0.162983 
0.9661424971752233 1:0.505446 2:0.136517 3:0.803763 4:-1 5:-0.663928 6:0.67967 7:0.856745 8:0.673575 9:0.361528 10:0.363225 11:0.354961 12:0.51225 13:0.0739589 14:0.591057 15:0.774785 16:0.581169 17:-0.37068 18:0.221262 19:-0.3063 20:-0.388777 
1 1:-0.0644017 2:0.0666883 3:-0.451474 4:0.183556 5:0.732514 6:-0.314224 7:-0.361984 8:-0.270805 9:-0.158779 10:-0.481969 11:0.0453431 12:-0.388422 13:-0.174622 14:-0.298817 15:-0.00265367 16:-0.16752 17:-0.116895 18:0.339887 19:-0.3063 20:0.0339824 
1 1:-0.160679 2:0.24626 3:0.0317065 4:0.180463 5:0.612831 6:-0.431293 7:0.243453 8:-0.0971541 9:-0.318416 10:0.154731 11:-0.2342 12:0.278706 13:0.259478 14:0.35413 15:-0.439658 16:0.120803 17:0.253543 18:-0.531617 19:0.118064 20:0.0101099 
1 1:0.553523 2:0.0891155 3:-0.0845145 4:0.586162 5:0.167561 6:-0.068982 7:-0.564626 8:0.0556494 9:0.312389 10:-0.317479 11:-0.0161907 12:0.0210712 13:0.346904 14:0.0772367 15:0.665869 16:0.708575 17:-0.168381 18:0.58801 19:-0.3063 20:0.185772 
1 1:0.170851 2:0.165068 3:-0.0657507 4:0.355608 5:0.0414852 6:-0.263459 7:-0.0604691 8:-0.00829505 9:-0.33709 10:0.270698 11:0.224829 12:0.250565 13:0.513148 14:0.116559 15:0.470091 16:0.700403 17:-0.317661 18:0.0247162 19:-0.0312304 20:-0.0163954 
1 1:-0.258074 2:0.156555 3:-0.280925 4:-0.00647045 5:0.634623 6:-0.673277 7:-0.114667 8:-0.592004 9:-0.487227 10:-0.619182 11:-0.245295 12:0.0914353 13:0.103878 14:-0.478113 15:-0.26534 16:0.0181855 17:0.0613806 18:-0.642624 19:-0.123279 20:0.185772 
1 1:0.596801 2:-0.0154465 3:0.256373 4:0.413324 5:0.0358554 6:0.174326 7:0.305796 8:-0.267901 9:-0.151535 10:0.0825008 11:0.254867 12:0.162814 13:0.159332 14:0.30175 15:0.661176 16:0.263665 17:-0.470808 18:0.154508 19:-0.260223 20:0.553185 
1 1:-0.108982 2:0.29818 3:-0.263276 4:0.229045 5:-0.506397 6:-0.631414 7:0.0452197 8:-0.243409 9:0.151661 10:-0.212568 11:0.574957 12:0.640188 13:0.171785 14:0.059669 15:0.203107 16:-0.0616241 17:0.87882 18:0.249635 19:-0.247182 20:-0.426399 
1 1:0.146464 2:0.365896 3:0.47347 4:0.213037 5:0.369791 6:0.538131 7:0.29751 8:-0.116479 9:-0.255835 10:-0.0607227 11:0.0779066 12:0.365111 13:0.126484 14:0.437729 15:0.571072 16:0.247437 17:-0.367827 18:0.119204 19:-0.820957 20:-0.26016 
1 1:-0.197617 2:0.116974 3:-0.0494494 4:0.11751 5:-0.00585468 6:-0.307182 7:-0.0456148 8:-0.315129 9:-0.261133 10:0.138207 11:0.1539 12:0.365562 13:-0.0508582 14:-0.115445 15:0.199571 16:-0.310473 17:0.221834 18:0.181067 19:-0.3063 20:0.185772 
1 1:0.0571974 2:-0.0518166 3:0.273551 4:0.62428 5:0.422917 6:0.138556 7:-0.0219859 8:0.102165 9:0.0966221 10:-0.0432329 11:-0.0776817 12:0.317765 13:0.221288 14:0.141482 15:0.572095 16:-0.310057 17:-0.0489779 18:-0.280827 19:-0.249325 20:-0.128927 
1 1:0.62888 2:0.662902 3:0.160027 4:0.368001 5:0.136606 6:0.429468 7:0.490246 8:0.415091 9:0.286009 10:0.248676 11:0.582963 12:0.563949 13:0.374126 14:0.464854 15:0.49511 16:0.3106 17:-0.125336 18:0.316927 19:0.062331 20:-0.35709 
0.2355637864686776 1:0.10349 2:0.202815 3:0.223506 4:0.273387 5:-0.0737138 6:0.16049 7:0.173843 8:0.603526 9:-0.0952716 10:0.30474 11:0.216807 12:0.144455 13:0.391502 14:0.325187 15:0.0952176 16:-0.379642 17:-0.0396825 18:-0.0978945 19:0.349527 20:-0.241091 
1 1:0.461956 2:0.217481 3:0.259991 4:0.605347 5:-0.0126839 6:0.631104 7:0.522072 8:0.280129 9:0.239972 10:0.133876 11:0.440968 12:0.15268 13:0.687456 14:0.417902 15:0.48168 16:-0.309956 17:0.105428 18:0.271795 19:0.40481 20:-0.371439 
1 1:0.529408 2:0.280234 3:0.328871 4:0.489509 5:0.0744389 6:0.773093 7:-0.331522 8:0.143051 9:0.351413 10:0.303771 11:0.403268 12:0.049281 13:0.487584 14:0.478295 15:0.230079 16:0.466626 17:-0.285065 18:0.548906 19:-0.3063 20:0.185772 
1 1:-0.384529 2:0.129772 3:-0.401785 4:0.693696 5:0.155156 6:-0.479688 7:-0.318249 8:0.292185 9:-0.305704 10:0.0441362 11:0.166495 12:-0.261755 13:-0.15836 14:0.0387364 15:-0.262886 16:-0.301296 17:-0.10025 18:0.0268781 19:0.65385 20:-0.0225386 
1 1:-0.011017 2:0.291136 3:0.0738074 4:0.282982 5:0.269423 6:-0.0266088 7:0.188546 8:-0.339316 9:-0.0449348 10:0.222674 11:0.199174 12:0.252702 13:0.348518 14:-0.760668 15:0.190645 16:0.0331504 17:0.369078 18:0.292929 19:-0.651514 20:-0.0143832 
1 1:-0.0629937 2:0.1796 3:-0.2676 4:0.0507562 5:0.762751 6:-0.107404 7:-0.139372 8:-0.460632 9:-0.38152 10:-0.601625 11:-0.298194 12:0.143549 13:-0.21274 14:-0.339956 15:-0.249476 16:-0.0486931 17:-0.148051 18:-0.163624 19:-0.35403 20:-0.484616 
1 1:-0.198887 2:-0.081342 3:-0.172012 4:0.134884 5:0.551035 6:-0.172214 7:-0.335734 8:-0.126529 9:-0.225001 10:-0.122685 11:-0.505235 12:0.0865077 13:-0.119545 14:0.0666992 15:0.176213 16:-0.171168 17:-0.235445 18:0.030485 19:-0.783363 20:-0.0298017 
1 1:0.594156 2:0.34653 3:0.423074 4:0.621589 5:0.06607 6:-0.106444 7:0.867811 8:0.37659 9:0.256575 10:0.188856 11:0.120853 12:0.275856 13:0.590728 14:-0.153279 15:0.211057 16:0.798621 17:-0.0781252 18:0.670837 19:0.259127 20:0.308003 
1 1:-0.0195257 2:0.049304 3:-0.103011 4:0.0121562 5:0.418626 6:0.103562 7:0.0887009 8:-0.180844 9:-0.322345 10:0.249109 11:-0.291524 12:0.400017 13:0.224718 14:0.197349 15:0.320514 16:0.430615 17:-0.435666 18:0.492547 19:-0.227413 20:-0.176207 
1 1:0.402565 2:0.559849 3:0.52667 4:0.495717 5:0.592627 6:0.46347 7:0.349344 8:0.556666 9:-0.0155369 10:0.68948 11:0.413916 12:0.288151 13:0.614778 14:0.714859 15:0.58899 16:-0.251954 17:0.142814 18:0.243601 19:-0.404184 20:0.185772 
1 1:0.228401 2:-0.0106227 3:0.0757201 4:0.324726 5:-0.222956 6:0.224322 7:-0.175101 8:0.250667 9:-0.180851 10:0.0806837 11:-0.43716 12:-0.123124 13:0.551109 14:0.237879 15:-0.257434 16:-0.131362 17:-0.15433 18:-0.0507581 19:-0.445898 20:0.204801 
1 1:0.258768 2:0.506783 3:-0.34894 4:0.272771 5:-0.194892 6:0.0297011 7:0.748338 8:-0.755131 9:-0.16128 10:0.426241 11:0.360171 12:0.490259 13:0.214088 14:0.413764 15:0.3095 16:0.490925 17:-0.168381 18:0.943667 19:-0.3063 20:0.185772 
1 1:0.286551 2:-0.030465 3:0.784838 4:0.791181 5:-0.370306 6:0.290777 7:0.261172 8:0.740322 9:0.173557 10:0.429509 11:-0.300807 12:0.491179 13:0.256146 14:0.337524 15:0.565447 16:0.72259 17:0.143081 18:0.340301 19:0.453455 20:0.607578 
1 1:-0.264695 2:-0.0522831 3:-0.206515 4:0.132484 5:0.692968 6:-0.431761 7:0.0246712 8:-0.24628 9:-0.519691 10:-0.312233 11:-0.150915 12:0.0612118 13:0.0491292 14:-0.0770004 15:-0.107419 16:-0.0103936 17:-0.0203565 18:-0.308095 19:-0.0929622 20:0.0188135 
1 1:0.0309951 2:0.165724 3:0.211968 4:0.266903 5:0.436771 6:-0.034733 7:0.342722 8:-0.0274723 9:-0.143992 10:-0.101854 11:0.207614 12:0.00831006 13:0.1316 14:0.247653 15:0.365407 16:-0.131189 17:-0.218379 18:0.0357364 19:-0.626917 20:-0.103456 
1 1:0.19683 2:0.239366 3:0.415537 4:0.350263 5:-0.163049 6:0.187015 7:-0.362192 8:0.286395 9:-0.291515 10:0.096937 11:-0.0318894 12:0.188176 13:0.449885 14:-0.0178215 15:0.313089 16:-0.572254 17:-0.268937 18:0.0632094 19:-0.192961 20:0.35017 
1 1:-0.133132 2:0.604735 3:0.0669093 4:0.293051 5:-0.186658 6:-0.485238 7:0.368344 8:0.0408907 9:0.0698694 10:-0.081508 11:0.345598 12:0.390288 13:0.7522 14:-0.125277 15:0.147369 16:0.358416 17:0.294859 18:0.418749 19:-0.3063 20:0.239958 
1 1:0.297645 2:0.435662 3:0.0611799 4:0.341586 5:0.234347 6:0.162169 7:0.456529 8:-0.307277 9:0.177056 10:-0.0670046 11:0.331343 12:0.154792 13:-0.176872 14:0.394328 15:-0.0602371 16:0.345811 17:0.238813 18:0.396867 19:-0.507869 20:-0.70776 
1 1:0.0165484 2:0.229842 3:0.231296 4:0.107423 5:0.255929 6:0.140252 7:0.157932 8:-0.296331 9:-0.219444 10:0.245624 11:0.373195 12:0.649289 13:0.221921 14:0.300587 15:0.0943673 16:0.372333 17:0.0673858 18:-0.484559 19:-0.3063 20:0.185772 
1 1:0.418588 2:-0.147875 3:-0.832951 4:0.823211 5:-1 6:-0.251196 7:0.0510432 8:0.643422 9:0.0296842 10:-0.0291692 11:0.159329 12:0.178403 13:-0.0703831 14:-0.307948 15:-0.101987 16:0.267227 17:0.0266855 18:0.0247162 19:-0.3063 20:-0.15121 
1 1:0.0567023 2:-0.0127632 3:-0.190285 4:0.395526 5:-0.204845 6:-0.0887359 7:-0.117265 8:-0.0449841 9:-0.16551 10:-0.163198 11:0.136828 12:0.577032 13:0.356226 14:0.17976 15:0.413999 16:0.744663 17:0.13134 18:0.0247162 19:-0.608212 20:0.224253 
1 1:0.204006 2:0.159505 3:-0.00880912 4:0.312997 5:-0.154786 6:0.0894449 7:-0.00633518 8:-0.235798 9:-0.190153 10:0.247351 11:-0.0183368 12:0.228686 13:0.216916 14:-0.0543359 15:0.286236 16:0.325849 17:0.316539 18:-0.285526 19:-0.73382 20:0.0420593 
0.817232369544138 1:-0.0584799 2:0.385401 3:-0.111636 4:0.438539 5:-0.357496 6:0.0624476 7:-0.0232146 8:-0.00854593 9:0.243964 10:0.389355 11:0.148018 12:-0.214134 13:1 14:0.0599563 15:0.341755 16:-0.462734 17:0.407282 18:-0.519767 19:-0.485701 20:-0.375028 
1 1:-0.0682272 2:0.13543 3:0.392642 4:0.407442 5:0.301162 6:-0.262384 7:0.573019 8:-0.0234886 9:0.141823 10:-0.305632 11:-0.039967 12:0.465465 13:0.121566 14:0.090314 15:0.378211 16:0.342196 17:0.393879 18:0.0540007 19:-0.766665 20:-0.181408 
1 1:0.454337 2:0.137441 3:-0.306721 4:-0.530797 5:-0.260181 6:-0.198743 7:0.234508 8:0.962297 9:0.153689 10:-0.309148 11:-0.392219 12:0.574016 13:-0.040937 14:0.0820697 15:0.20985 16:-0.301296 17:-0.522971 18:0.312851 19:-0.3063 20:0.306714 
1 1:-1 2:-0.927995 3:-0.12827 4:-0.693489 5:1 6:-0.808024 7:0.247999 8:-0.322573 9:-0.727245 10:-0.506781 11:-0.314793 12:-0.124444 13:-0.108844 14:0.0990796 15:-0.306403 16:-0.568454 17:-0.708307 18:-0.68522 19:-0.32925 20:0.185772 
1 1:0.464774 2:0.847943 3:-0.23265 4:0.358613 5:0.221953 6:-0.182629 7:-0.106351 8:0.11144 9:0.0370233 10:-0.318743 11:0.0841226 12:0.175839 13:0.0943544 14:0.0206483 15:0.213453 16:0.142259 17:-0.168381 18:-0.0691935 19:-0.372983 20:-0.211531 
1 1:-0.133088 2:0.217885 3:0.320464 4:0.257389 5:-0.112141 6:-0.666874 7:0.341993 8:-0.20927 9:0.10369 10:0.303011 11:0.284651 12:0.334635 13:0.281784 14:0.421651 15:0.407639 16:-0.23259 17:0.558571 18:0.302954 19:0.0439866 20:-0.00405774 
1 1:0.154148 2:-0.178773 3:-0.188073 4:0.655047 5:-0.516168 6:-0.160713 7:0.380307 8:-0.413225 9:-0.281306 10:-0.0694641 11:-0.000936219 12:-0.652386 13:-0.55807 14:-0.0115554 15:0.236736 16:-0.176759 17:-0.37193 18:0.142856 19:-0.121819 20:-0.0898901 
0.01526516390739013 1:-0.235118 2:-0.312996 3:-0.178109 4:-0.239695 5:0.714222 6:-0.043549 7:-0.278223 8:-0.484245 9:-0.5139 10:-0.55463 11:-0.534487 12:-0.24831 13:-0.170669 14:-0.12312 15:-0.18507 16:-0.625455 17:-0.230289 18:-0.603719 19:-0.666531 20:-0.336741 
1 1:0.0836446 2:-0.287487 3:-0.0146144 4:0.325008 5:0.24284 6:0.237694 7:-0.0975995 8:-0.482315 9:-0.211302 10:-0.112127 11:-0.134795 12:-0.0485646 13:-0.228404 14:0.306351 15:0.461523 16:-0.220283 17:-0.324422 18:-0.395529 19:-0.451989 20:0.185772 
1 1:0.0837516 2:0.0519306 3:0.284915 4:0.573675 5:0.157068 6:0.0275694 7:0.273744 8:-0.771266 9:0.237829 10:0.370391 11:0.200549 12:0.726095 13:0.456035 14:-0.0328706 15:0.607975 16:0.866116 17:0.0130645 18:0.263294 19:-0.191398 20:-0.0449051 
1 1:-0.443852 2:-0.550209 3:-0.361504 4:-0.251914 5:0.915562 6:-0.506872 7:-0.645807 8:-0.86276 9:-0.754206 10:-1 11:-0.837906 12:-0.26233 13:-0.58513 14:-0.333824 15:-0.35396 16:-0.430865 17:-0.615996 18:-0.563841 19:-0.724221 20:0.185772 
0.6914534873696234 1:-0.645614 2:0.207864 3:0.356453 4:0.305209 5:-0.270634 6:-0.0552212 7:0.152114 8:0.355033 9:-0.167909 10:-0.0716774 11:0.224809 12:-0.0655841 13:-0.137374 14:0.271052 15:0.109936 16:-0.0123146 17:0.175574 18:0.0384958 19:0.164017 20:0.0241372 
1 1:-0.459946 2:-0.313894 3:0.117663 4:-0.232565 5:0.892641 6:-0.550308 7:0.251756 8:-0.278612 9:-0.693404 10:-0.694285 11:-0.210391 12:-0.353474 13:-0.000828375 14:-0.0507456 15:-0.50831 16:-0.593203 17:-0.29387 18:-0.432121 19:-0.302247 20:-0.409506 
1 1:-0.239139 2:0.0257053 3:-0.0148656 4:0.152309 5:0.116659 6:0.210084 7:0.256681 8:-0.120044 9:-0.336196 10:0.37797 11:-0.13407 12:-0.383528 13:-0.60084 14:0.235347 15:-0.0679146 16:0.166817 17:-0.168381 18:0.0247162 19:-0.528986 20:0.185772 
1 1:0.174462 2:0.52866 3:0.103212 4:0.372699 5:0.322188 6:0.0846475 7:0.208016 8:-0.164139 9:0.233117 10:-0.17467 11:-0.214324 12:0.499444 13:0.363876 14:0.33776 15:0.645174 16:-0.518675 17:-0.427112 18:0.147061 19:-0.755091 20:0.48761 
1 1:0.0675264 2:0.39322 3:0.0509327 4:0.449001 5:0.324871 6:0.0313458 7:0.438061 8:0.21068 9:0.153171 10:-0.016611 11:-0.0339352 12:-0.825972 13:0.196268 14:0.228353 15:0.455605 16:-0.387271 17:-0.492657 18:0.35271 19:-0.401841 20:1 
1 1:0.3668 2:0.256114 3:0.451423 4:0.429186 5:0.444342 6:0.298533 7:0.580621 8:0.18775 9:0.387268 10:0.542465 11:0.360061 12:0.521171 13:0.114214 14:0.432859 15:0.163263 16:0.322514 17:-0.078116 18:0.749833 19:-0.16203 20:-0.168389 
1 1:0.0801797 2:-0.0538063 3:-0.608877 4:0.583894 5:-0.0296584 6:-0.391296 7:0.0799302 8:-0.602031 9:-0.422839 10:-0.523359 11:-0.350697 12:-0.110935 13:0.00774363 14:-0.447979 15:-0.0456506 16:0.165896 17:-0.594711 18:-0.827688 19:-0.430414 20:0.00574521 
1 1:-0.0826767 2:0.376585 3:-0.368145 4:0.543498 5:-0.449448 6:-0.201472 7:0.49145 8:0.355506 9:0.482503 10:-0.198601 11:0.247811 12:0.723536 13:0.566558 14:-0.206651 15:0.276584 16:0.299995 17:-0.168381 18:0.0902434 19:-0.259771 20:0.185772 
1 1:0.226387 2:-0.165173 3:0.491904 4:0.0167236 5:0.471825 6:0.552845 7:0.505774 8:-0.475957 9:-0.417521 10:0.116297 11:0.174886 12:0.0867673 13:-0.106191 14:0.713974 15:0.771589 16:0.270981 17:-0.625667 18:-0.114014 19:-0.526028 20:0.185772 
1 1:0.0301895 2:0.31496 3:-0.247594 4:0.390006 5:0.259885 6:-0.158582 7:-0.0925501 8:0.334002 9:0.0951054 10:-0.226716 11:0.164675 12:-0.143548 13:0.20683 14:0.142038 15:0.403982 16:-0.284063 17:-0.369817 18:0.0516866 19:-0.494373 20:-0.0870279 
1 1:0.106967 2:0.302178 3:0.374442 4:0.290544 5:0.253129 6:0.238684 7:0.406721 8:0.977433 9:0.0802928 10:0.652754 11:0.353503 12:0.486395 13:0.543805 14:0.712328 15:0.454743 16:-0.141337 17:0.185575 18:0.0599826 19:0.285906 20:-0.25431 
1 1:0.0888196 2:0.300195 3:-0.642125 4:0.560272 5:-0.568724 6:-0.594334 7:-0.180738 8:-0.0753251 9:0.494427 10:0.0797951 11:-0.110795 12:0.151286 13:0.363228 14:-0.56074 15:0.10124 16:-0.238225 17:1 18:-0.262359 19:-0.3063 20:0.3665 
1 1:0.0217849 2:-0.0255358 3:0.62699 4:0.503335 5:0.301231 6:0.345119 7:0.680061 8:0.694942 9:0.212382 10:0.519888 11:0.304509 12:0.460927 13:0.589363 14:0.575518 15:0.0188814 16:0.142308 17:0.0505902 18:0.256416 19:-0.242367 20:-0.419415 
1 1:0.100152 2:0.333279 3:-0.0383339 4:0.47684 5:0.442274 6:0.217793 7:-0.32562 8:0.252967 9:0.0814137 10:-0.466878 11:0.367836 12:-0.0168188 13:-0.20514 14:0.207107 15:0.0072406 16:0.172377 17:-0.460867 18:0.196627 19:-0.0315137 20:-0.510915 
1 1:-0.0661874 2:0.142462 3:-0.205457 4:0.609298 5:0.451184 6:-0.528822 7:-0.390009 8:0.545238 9:0.179258 10:0.113159 11:0.39301 12:0.600041 13:0.436193 14:-0.613125 15:0.167714 16:0.171973 17:-0.0746049 18:0.269141 19:-0.3063 20:0.437522 
1 1:-0.223303 2:0.206358 3:-0.320965 4:0.344089 5:-0.579016 6:-0.432182 7:0.202172 8:0.131207 9:0.111313 10:0.344759 11:0.373944 12:0.411832 13:0.104962 14:-0.355312 15:0.0171124 16:0.303034 17:-0.231132 18:-0.0577937 19:-0.24367 20:0.10079 
1 1:0.252523 2:0.211937 3:0.68349 4:0.226252 5:0.64188 6:0.583237 7:0.959527 8:-0.00356896 9:-0.179857 10:0.32883 11:0.376357 12:0.019636 13:-0.0176043 14:0.75963 15:0.531922 16:0.0152884 17:0.119184 18:0.167216 19:-0.552851 20:-0.268615 
1 1:-0.121074 2:-0.0316475 3:0.342494 4:-0.0375199 5:-0.136992 6:0.561975 7:0.593437 8:-0.437865 9:-0.0665224 10:0.730643 11:0.715803 12:0.338777 13:-0.213377 14:0.578156 15:0.312523 16:-0.277075 17:-0.0901925 18:0.183745 19:-0.33389 20:0.0489881 
1 1:0.267637 2:0.568116 3:0.558917 4:0.787933 5:-0.3507 6:-0.225429 7:0.547178 8:0.217552 9:0.0248918 10:1 11:-0.176592 12:0.27268 13:0.419266 14:0.47973 15:-0.0730726 16:-0.00916121 17:0.373413 18:0.190077 19:0.104348 20:0.185772 
1 1:-0.0390063 2:0.244685 3:0.255926 4:0.610248 5:-0.275387 6:-0.265171 7:0.178416 8:-0.0386861 9:0.343354 10:-0.0671566 11:0.507406 12:0.0576646 13:0.507851 14:0.160641 15:0.347841 16:-0.243882 17:-0.192161 18:-0.00655108 19:0.0859453 20:0.185772 
1 1:-0.142452 2:0.369407 3:0.542956 4:0.528415 5:-0.249159 6:-0.292422 7:0.159526 8:0.294647 9:0.423918 10:0.680697 11:0.463314 12:0.673068 13:0.539607 14:0.45476 15:0.232093 16:0.0349821 17:0.713477 18:0.506635 19:-0.139826 20:0.205727 
1 1:-0.291032 2:-0.119563 3:-0.165882 4:-0.0979338 5:0.808688 6:0.352464 7:0.00401343 8:-0.168855 9:-0.384739 10:-0.601573 11:-0.333511 12:-0.147778 13:-0.446383 14:0.00701972 15:0.352449 16:-0.286535 17:-0.058695 18:-0.244015 19:-0.618338 20:-0.567418 
1 1:0.304176 2:0.107787 3:0.44765 4:0.300948 5:0.539731 6:0.315754 7:0.285451 8:0.233094 9:-0.0483115 10:0.204939 11:0.46042 12:0.42246 13:0.356515 14:0.644565 15:0.32373 16:0.0520006 17:-0.303298 18:0.0623875 19:-0.27955 20:0.185772 
1 1:-0.0551474 2:-0.327956 3:-0.361779 4:0.101011 5:0.69695 6:-0.287372 7:-0.409739 8:-0.601643 9:-0.389293 10:-0.412101 11:-0.543212 12:-0.378289 13:-0.185113 14:0.0600089 15:-0.311421 16:0.270279 17:-0.168381 18:-0.349002 19:-0.692888 20:0.0223691 
1 1:-0.403562 2:0.0109252 3:-0.0334097 4:0.26433 5:-0.516145 6:-0.0916037 7:0.265307 8:0.218159 9:0.332911 10:0.138871 11:0.137221 12:-0.330329 13:0.530592 14:-0.0740368 15:0.403889 16:0.62636 17:0.517898 18:0.0515898 19:-0.166 20:-0.0871271 
1 1:0.0794786 2:-0.271822 3:0.180708 4:0.0469284 5:0.470116 6:0.55568 7:-0.193255 8:0.29653 9:0.333462 10:-0.124761 11:0.327843 12:-0.0119607 13:0.379913 14:0.230955 15:-0.171925 16:0.2926 17:0.968464 18:0.444268 19:-0.468919 20:-0.526512 
1 1:-0.308129 2:-0.720005 3:-0.417697 4:-0.267381 5:0.964688 6:0.0887006 7:-0.159354 8:-0.402936 9:-0.637337 10:-0.787729 11:-0.535764 12:-1 13:-0.363082 14:0.0913965 15:-0.260472 16:-0.488961 17:-0.483861 18:-0.0333668 19:-0.722071 20:0.185772 
1 1:0.00998878 2:-0.096923 3:-0.118166 4:0.353161 5:0.520339 6:-0.181202 7:-0.0738103 8:-0.265876 9:-0.127744 10:-0.011324 11:-0.352909 12:0.136817 13:0.35972 14:-0.015187 15:0.179053 16:-0.275024 17:0.0848364 18:-0.104879 19:-0.398322 20:-0.248284 
1 1:0.0400682 2:-0.175754 3:-0.217635 4:0.835696 5:-0.318917 6:-0.445099 7:-0.508523 8:-0.269874 9:-0.595316 10:0.364246 11:-0.152619 12:-0.570864 13:0.0543802 14:-0.173297 15:0.47317 16:-0.238203 17:-0.315233 18:0.0247162 19:-0.3063 20:-0.0131061 
1 1:0.186476 2:-0.014388 3:-0.110876 4:0.536104 5:-0.286888 6:0.527975 7:-0.747022 8:0.0362945 9:-0.0875547 10:-0.0711221 11:0.103303 12:-0.316167 13:-0.000440426 14:0.353664 15:-0.0295235 16:0.0197044 17:-0.168381 18:-0.227292 19:-0.3063 20:-0.374366 
1 1:0.169202 2:-0.00304993 3:0.414232 4:-0.192041 5:-0.0728421 6:0.696878 7:0.419558 8:-0.0728938 9:-0.282569 10:0.000207945 11:-0.046187 12:0.116125 13:0.150606 14:0.688113 15:0.909127 16:-0.347147 17:-0.173594 18:-0.0470392 19:-0.311167 20:-0.188712 
1 1:0.392661 2:0.159426 3:-0.504087 4:0.480257 5:0.2802 6:-0.161121 7:0.194382 8:-0.46806 9:-0.0739246 10:-0.22057 11:-0.0145546 12:-0.456372 13:0.183158 14:-0.361218 15:-0.317691 16:0.279039 17:-0.168381 18:0.34928 19:0.505916 20:0.219484 
1 1:-0.234138 2:-0.175333 3:-0.425511 4:-0.110568 5:0.857532 6:-0.499388 7:-0.697996 8:-0.343187 9:-0.58077 10:-0.801551 11:-0.489123 12:0.316293 13:0.0723796 14:-0.342561 15:0.0919183 16:0.0511508 17:-0.887317 18:-0.920596 19:-0.210725 20:-0.487288 
1 1:-0.342521 2:0.177485 3:0.121791 4:0.380114 5:0.182805 6:0.509264 7:0.409326 8:0.0906544 9:0.170857 10:-0.0642263 11:0.321119 12:0.643346 13:0.544467 14:0.369056 15:0.760284 16:-0.45253 17:-0.218553 18:0.542412 19:-0.14592 20:-0.35858 
1 1:0.136071 2:0.0169676 3:-0.150801 4:0.46835 5:-0.243916 6:-0.299274 7:-0.0217724 8:-0.0664482 9:0.0730718 10:0.0597486 11:0.275932 12:0.469183 13:0.37388 14:-0.268802 15:0.142922 16:-0.594527 17:-0.517393 18:0.320186 19:0.317954 20:0.411034 
1 1:0.680145 2:0.0987111 3:0.050184 4:0.734607 5:0.30729 6:0.522841 7:-0.252757 8:0.596828 9:0.323518 10:0.161774 11:0.367428 12:0.278511 13:0.234029 14:0.202725 15:0.494727 16:0.796001 17:0.0772817 18:0.789734 19:-0.123019 20:0.185772 
1 1:0.175325 2:-0.105043 3:-0.381351 4:0.632285 5:-0.478041 6:-0.486416 7:-0.185117 8:-0.0459873 9:0.48015 10:-0.0485842 11:0.299495 12:0.61935 13:0.149725 14:-0.336171 15:0.281501 16:0.532071 17:-0.0868053 18:-0.0387332 19:-0.558578 20:-0.180157 
1 1:-0.112334 2:0.421293 3:-0.482751 4:0.104153 5:0.335453 6:-0.0542313 7:-0.118034 8:-0.276225 9:-0.0187616 10:-0.732783 11:-0.188951 12:-0.248525 13:0.103258 14:-0.075999 15:0.311438 16:-0.609272 17:0.33218 18:0.297109 19:-0.3063 20:0.466328 
1 1:0.120973 2:0.315325 3:-0.269989 4:0.609273 5:-0.522852 6:-0.471996 7:0.220053 8:0.0632573 9:0.30022 10:0.375037 11:0.29672 12:0.36265 13:0.40165 14:-0.0735721 15:0.0490057 16:0.239669 17:0.229816 18:0.0520521 19:0.0876375 20:0.652601 
1 1:-0.163198 2:-0.383826 3:-0.128771 4:0.0921365 5:0.681197 6:-0.292416 7:-0.193283 8:-0.293399 9:-0.322703 10:-0.603442 11:-0.164667 12:-0.310641 13:0.0504035 14:0.200318 15:-0.141414 16:-0.212589 17:-0.13425 18:-0.0515275 19:-0.688881 20:0.185772 
1 1:0.0483901 2:0.129041 3:0.140329 4:0.556112 5:-0.0947928 6:-0.302462 7:-0.213314 8:-0.0114697 9:0.144374 10:-0.127179 11:-0.142085 12:-0.0222201 13:0.346769 14:0.0101937 15:0.339982 16:-0.0440559 17:-0.306099 18:0.0415173 19:-0.587599 20:0.0783254 
1 1:0.139148 2:0.248204 3:-0.715476 4:0.675067 5:0.481059 6:-0.654482 7:-0.133205 8:-0.0549372 9:-0.0600344 10:-0.531733 11:-0.0606174 12:0.86883 13:0.193247 14:-0.272454 15:0.398279 16:0.390099 17:0.371997 18:0.15158 19:-0.544659 20:-0.159967 
0.5691493711180577 1:-0.147567 2:-0.0753722 3:-0.363758 4:0.732111 5:-0.523239 6:-0.489633 7:0.0977501 8:-0.593328 9:0.314241 10:-0.0676538 11:-0.163675 12:-0.349464 13:0.0839275 14:-0.141408 15:-0.0588769 16:-0.59086 17:-0.0691345 18:-0.428453 19:-0.3063 20:0.195428 
1 1:0.134576 2:0.307506 3:-0.424429 4:0.432936 5:0.106947 6:-0.73658 7:-0.106575 8:-0.211914 9:-0.179839 10:0.237629 11:0.362745 12:-0.066558 13:0.529635 14:-0.296299 15:0.281093 16:0.165559 17:0.0355073 18:0.0247162 19:0.0912867 20:0.185772 
1 1:-0.013822 2:-0.149918 3:-0.262176 4:0.669707 5:0.39032 6:-0.218395 7:0.321332 8:-0.149205 9:0.348496 10:-0.167334 11:-0.252029 12:0.00230948 13:0.183134 14:0.170934 15:0.251236 16:0.308835 17:0.141783 18:-0.613665 19:-0.223935 20:-0.47174 
1 1:0.430209 2:0.32587 3:0.383967 4:0.529478 5:-0.000387237 6:0.524962 7:0.193705 8:0.772084 9:0.202064 10:0.494071 11:0.507677 12:0.367991 13:0.438859 14:0.582634 15:0.690373 16:0.270172 17:-0.143877 18:0.734551 19:-0.283421 20:-0.0816204 
1 1:0.0484981 2:0.556724 3:0.0695924 4:0.170471 5:0.348465 6:-0.0572025 7:0.56391 8:-0.345418 9:0.127796 10:0.243572 11:0.191045 12:0.644621 13:0.115168 14:0.120197 15:0.0276867 16:-0.160535 17:0.422386 18:0.415719 19:-0.564323 20:-0.188491 
1 1:-0.191715 2:0.164062 3:0.420783 4:0.316629 5:0.0972459 6:0.373653 7:0.290889 8:-0.103829 9:-0.130377 10:0.0301377 11:0.478594 12:-0.0713286 13:0.366734 14:0.350621 15:0.584412 16:-0.132783 17:0.0321894 18:0.288441 19:-0.3063 20:-0.0190049 
1 1:0.186562 2:0.0406948 3:-0.285301 4:0.230164 5:0.491132 6:0.0920341 7:-0.229284 8:0.0452108 9:-0.0133923 10:-0.230233 11:-0.0739622 12:-0.472807 13:-0.133725 14:0.243658 15:-0.167613 16:0.329467 17:-0.598813 18:0.213129 19:-0.3063 20:-0.0965741 
1 1:-0.122676 2:0.191495 3:-0.151307 4:0.395873 5:-0.433763 6:-0.277717 7:0.70088 8:0.175656 9:-0.0995098 10:0.418102 11:0.432464 12:0.0102371 13:0.714155 14:-0.441752 15:0.215462 16:0.0239591 17:0.172927 18:0.212863 19:-0.132781 20:0.710053 
1 1:-0.381896 2:-0.201227 3:-0.337141 4:-0.134602 5:0.933145 6:-0.616326 7:-0.205362 8:-0.595914 9:-0.628627 10:-0.921804 11:-0.451042 12:-0.564912 13:-0.0279721 14:0.0308871 15:-0.24881 16:-0.854178 17:-0.47466 18:-0.548714 19:-0.3063 20:-0.70542 
1 1:0.520629 2:0.217991 3:0.284636 4:0.620367 5:-0.445567 6:-0.196823 7:0.488154 8:0.100143 9:0.173813 10:0.368313 11:0.296298 12:0.0075686 13:0.0749091 14:0.0648366 15:0.446634 16:-0.333186 17:0.237558 18:-0.0251904 19:0.477666 20:-0.166208 
1 1:0.121607 2:0.242351 3:0.0443929 4:0.521341 5:0.0556197 6:-0.246406 7:0.0138291 8:-0.0226506 9:-0.0370833 10:0.269879 11:0.0908847 12:-0.0321194 13:0.169831 14:0.0935649 15:0.385452 16:0.053194 17:0.18929 18:0.153587 19:-0.62924 20:0.193753 
1 1:-0.378238 2:0.205975 3:-0.0557803 4:0.0362389 5:0.209314 6:-0.202359 7:0.215556 8:-0.475499 9:-0.32034 10:-0.00803655 11:0.151614 12:0.291741 13:-0.026255 14:-0.260323 15:0.108299 16:0.00197681 17:-0.159194 18:-0.255036 19:-0.3063 20:0.374042 
1 1:-0.260596 2:0.192586 3:0.0919908 4:0.212696 5:0.185109 6:-0.0131153 7:-0.0725555 8:0.132989 9:0.00395484 10:0.148074 11:0.159896 12:0.596563 13:0.130335 14:0.344002 15:0.296728 16:-0.0596001 17:0.0271772 18:0.281851 19:-0.3063 20:0.185772 
1 1:0.0845164 2:0.244537 3:-0.178464 4:0.303156 5:0.645327 6:-0.985039 7:0.0874343 8:-0.58429 9:-0.413471 10:-0.582438 11:-0.267248 12:-0.217083 13:0.186652 14:-0.650509 15:0.057826 16:-0.246296 17:-0.291129 18:-0.814295 19:-0.487616 20:0.0195375 
1 1:-0.0139391 2:0.25583 3:-0.426099 4:0.67353 5:-0.635695 6:-0.669235 7:0.443979 8:-0.224039 9:0.125271 10:0.0430875 11:0.225971 12:-0.0503916 13:0.313125 14:-0.403086 15:0.15058 16:-0.0114682 17:-0.61909 18:0.0247162 19:0.344221 20:0.176542 
1 1:0.282627 2:0.0870153 3:0.546286 4:0.578654 5:0.0875823 6:0.0285266 7:0.680489 8:-0.0440588 9:-0.258888 10:0.745405 11:0.159079 12:0.23957 13:0.332707 14:0.277892 15:0.534397 16:-0.384094 17:-0.168381 18:-0.104863 19:-0.069869 20:0.89614 
1 1:0.115372 2:0.676122 3:-0.642025 4:0.308044 5:-0.404509 6:-1 7:-0.107741 8:0.333904 9:0.101394 10:-0.372475 11:-0.272843 12:-0.0236395 13:-0.110487 14:-0.937357 15:-0.260299 16:0.663545 17:0.56763 18:-0.345562 19:-0.059574 20:-0.195603 
1 1:0.020673 2:0.285641 3:-0.0246207 4:0.503841 5:-0.0543795 6:0.176276 7:0.166388 8:0.0221151 9:-0.00979432 10:0.729031 11:0.0159038 12:0.215992 13:0.32056 14:0.700106 15:0.303048 16:-0.192836 17:0.182659 18:-0.268087 19:0.067538 20:-0.115805 
1 1:0.430026 2:1 3:0.663704 4:0.655035 5:0.000921097 6:-0.370587 7:-0.178059 8:0.153996 9:0.298918 10:0.383593 11:0.613374 12:0.629583 13:0.853329 14:0.171562 15:0.358325 16:-0.451751 17:-0.347457 18:0.0247162 19:-0.3063 20:0.54441 
1 1:0.235522 2:0.615936 3:0.0196419 4:0.651395 5:-0.41668 6:0.100292 7:0.107639 8:0.255969 9:-0.0702101 10:0.492644 11:0.290578 12:0.124438 13:0.102928 14:0.172162 15:0.358901 16:0.354558 17:-0.183435 18:0.00492255 19:-0.320355 20:0.185772 
1 1:0.275226 2:0.295402 3:-0.0691736 4:0.225961 5:0.239905 6:-0.30501 7:0.0892087 8:-0.787533 9:-0.503383 10:-0.238815 11:0.0444029 12:0.00232269 13:-0.178045 14:-0.367686 15:0.286564 16:-0.548366 17:-0.168381 18:-0.361949 19:0.0760219 20:0.439752 
1 1:-0.194809 2:0.280656 3:-0.0464185 4:0.362814 5:0.273319 6:-0.0771273 7:-0.00967613 8:-0.017655 9:-0.0815325 10:-0.256447 11:0.155308 12:0.576455 13:0.155618 14:0.0575975 15:0.456254 16:0.0951869 17:-0.140368 18:-0.400994 19:-0.19414 20:-0.252695 
1 1:-0.164715 2:-0.837402 3:-0.265166 4:0.575905 5:-0.576095 6:-0.831411 7:0.682372 8:-0.51834 9:-0.199658 10:0.208511 11:0.189462 12:0.419012 13:0.0582892 14:0.417048 15:0.0313231 16:-0.301296 17:0.261687 18:0.0247162 19:0.119168 20:-0.309357 
1 1:0.26005 2:0.686003 3:-0.0725701 4:0.206226 5:0.197153 6:-0.117344 7:0.356241 8:-0.24174 9:-0.343909 10:-0.0119799 11:0.0471287 12:0.0356612 13:0.0647267 14:-0.16213 15:-0.0912596 16:-0.0702651 17:0.406339 18:-0.583166 19:-0.53072 20:-0.440327 
1 1:0.110901 2:0.313299 3:-0.155402 4:0.491125 5:0.436202 6:0.235989 7:-0.228441 8:0.130869 9:0.0939564 10:-0.038768 11:0.179049 12:-0.0915099 13:0.40995 14:0.189826 15:0.512423 16:-0.331049 17:-0.0402265 18:0.561818 19:-0.667805 20:0.137813 
1 1:-0.0538829 2:0.521341 3:-0.331739 4:0.533332 5:-0.0100398 6:-0.881651 7:-0.129591 8:-0.00508897 9:0.298387 10:0.106699 11:0.135089 12:0.779577 13:0.531693 14:-0.294078 15:0.686359 16:0.0405297 17:0.259137 18:0.00318248 19:-0.32159 20:0.0388424 
1 1:-0.0951019 2:0.505132 3:-0.128991 4:0.198034 5:0.252626 6:-0.520545 7:0.280719 8:0.21894 9:0.0108623 10:0.226131 11:0.00920005 12:0.497045 13:0.672407 14:0.277736 15:0.0143506 16:-0.301296 17:-0.547375 18:0.345665 19:-0.0784013 20:0.148915 
1 1:0.283483 2:0.0799678 3:0.321652 4:0.185456 5:0.14648 6:-0.0402375 7:-0.389077 8:0.517685 9:-0.401482 10:0.2337 11:0.123885 12:0.29843 13:0.322403 14:0.372243 15:-0.14094 16:-0.199149 17:-0.225992 18:-0.342868 19:0.0350634 20:0.10775 
1 1:-0.051084 2:-0.237757 3:0.0305844 4:0.339209 5:-0.430003 6:0.143281 7:0.342372 8:-0.673682 9:-0.0536422 10:0.0300355 11:-0.0773294 12:0.184857 13:0.00755232 14:0.0692271 15:0.32789 16:-0.542507 17:0.411646 18:-0.182069 19:-0.781575 20:0.185772 
1 1:0.288065 2:0.260526 3:-0.403617 4:0.68075 5:0.344369 6:-0.416111 7:-0.128195 8:0.229738 9:0.143214 10:-0.126199 11:-0.0760038 12:-0.630263 13:0.275379 14:-0.520908 15:0.139476 16:-0.163832 17:-0.134597 18:0.239849 19:-0.000822191 20:-0.0690529 
0.765253369849091 1:-0.127233 2:-0.243292 3:-0.0528849 4:-0.373131 5:0.526661 6:0.1094 7:-0.0634791 8:-0.802718 9:-0.595621 10:-0.236592 11:-0.328049 12:0.0128975 13:-0.806606 14:0.119529 15:0.5419 16:-0.456514 17:-0.168381 18:0.0247162 19:-0.150348 20:0.185772 
1 1:-0.279731 2:0.0894474 3:-0.666799 4:0.193087 5:0.829896 6:-0.520924 7:-0.0361597 8:-0.474065 9:-0.605694 10:-0.633928 11:-0.104125 12:0.40308 13:0.464779 14:-0.279708 15:0.269017 16:0.127067 17:-0.303705 18:0.0247162 19:-0.639871 20:0.185772 
1 1:1 2:0.286204 3:0.24015 4:0.779393 5:0.0256124 6:0.742535 7:0.420364 8:0.0491319 9:0.108321 10:0.422384 11:0.302592 12:0.129068 13:0.194285 14:0.495109 15:0.308786 16:0.482653 17:-0.494278 18:0.763533 19:-0.3063 20:0.185772 
1 1:-0.229541 2:-0.332455 3:-0.221552 4:-0.00434001 5:0.806971 6:-0.253512 7:0.124713 8:-0.732697 9:-0.575302 10:-0.424243 11:-0.10691 12:-0.513881 13:-0.640332 14:-0.0806701 15:0.0775073 16:-0.528804 17:-0.347053 18:-0.331336 19:-0.887566 20:-0.657354 
1 1:0.0633509 2:-0.411001 3:0.149164 4:0.109472 5:0.688858 6:0.271051 7:-0.0303076 8:0.173143 9:-0.0410429 10:-0.27912 11:0.277594 12:-0.247079 13:-0.334698 14:0.313863 15:0.167947 16:-0.318919 17:-0.0693782 18:0.154893 19:-0.253785 20:0.185772 
1 1:0.381566 2:0.347462 3:-0.570153 4:0.795354 5:0.0461759 6:-0.488324 7:0.678004 8:0.551915 9:0.175652 10:0.310146 11:-0.235337 12:-0.035736 13:-0.146063 14:0.318131 15:0.100934 16:-0.111985 17:-0.0351727 18:0.556603 19:-0.3063 20:-0.110232 
1 1:0.385088 2:0.0545704 3:-0.453156 4:0.465063 5:0.518876 6:-0.048017 7:-0.296101 8:0.0112653 9:0.0448933 10:-0.435611 11:0.0688028 12:-0.58219 13:-0.0266817 14:0.072577 15:-0.0567107 16:-0.203351 17:-0.674887 18:-0.178732 19:-0.3063 20:0.276805 
1 1:0.424495 2:0.269033 3:-0.291834 4:0.533791 5:-0.291161 6:-0.480363 7:0.394321 8:-0.0842834 9:-0.131336 10:0.0906504 11:-0.317387 12:0.0882202 13:-0.0984261 14:-0.0451506 15:0.185604 16:-0.801758 17:0.536115 18:-0.466677 19:-0.2807 20:-0.620925 
1 1:-0.463006 2:0.274628 3:0.114495 4:-0.249161 5:0.621035 6:-0.539777 7:-0.264959 8:-0.590933 9:-0.179447 10:-0.096225 11:0.158402 12:0.415055 13:0.112759 14:0.247947 15:0.369086 16:0.484934 17:-0.1754 18:0.186198 19:-0.520077 20:0.185772 
1 1:0.0826173 2:0.111995 3:0.000719533 4:-0.0594425 5:0.623047 6:0.0270462 7:0.359325 8:-0.376055 9:-0.422685 10:-0.425516 11:-0.485264 12:0.0482375 13:-0.0670035 14:0.14921 15:0.150356 16:-0.0965886 17:-0.440076 18:-0.795073 19:-0.68119 20:0.185772 
1 1:0.129814 2:0.539373 3:-0.0667755 4:0.508621 5:-0.249564 6:-0.021525 7:0.592833 8:-0.154523 9:-0.0133121 10:-0.10568 11:0.306989 12:-0.0732331 13:-0.0652696 14:-0.115622 15:0.46597 16:-0.165582 17:0.172341 18:0.18089 19:-0.295997 20:-0.196625 
1 1:-0.268724 2:0.0868948 3:0.0420345 4:0.0130188 5:0.7246 6:0.142311 7:0.0759336 8:-0.42002 9:-0.306182 10:-0.106565 11:0.0739368 12:0.192643 13:-0.395866 14:0.360059 15:0.0933775 16:-0.0528549 17:-0.640489 18:-0.0123813 19:-0.747089 20:-0.277766 
1 1:0.421308 2:0.476463 3:-0.0757123 4:0.507224 5:-0.19598 6:0.177209 7:0.1386 8:0.62146 9:0.402938 10:0.0377691 11:0.400143 12:-0.03668 13:0.0785333 14:0.280476 15:-0.510363 16:-0.221617 17:0.0562872 18:0.441248 19:1 20:0.189457 
1 1:0.0816331 2:0.289008 3:0.600842 4:0.195994 5:-0.290896 6:0.362622 7:0.159822 8:0.261093 9:-0.189304 10:0.422784 11:0.328366 12:0.34249 13:0.593135 14:0.828529 15:0.500329 16:0.178387 17:0.0786369 18:0.151631 19:0.0195365 20:-0.381431 
1 1:-0.342118 2:0.12388 3:-0.283775 4:0.104628 5:0.723663 6:-0.235426 7:0.194029 8:-0.32734 9:-0.400463 10:-0.0583967 11:0.221683 12:-0.0348048 13:0.0702102 14:0.0259234 15:-0.0679146 16:-0.207395 17:0.0238543 18:0.106771 19:0.126492 20:0.185772 
1 1:-0.327807 2:-0.0282005 3:0.302474 4:0.4726 5:-0.195374 6:0.00628414 7:0.0643737 8:0.0656451 9:0.076982 10:0.13471 11:0.0380766 12:0.300291 13:0.23138 14:-0.230785 15:-0.0279131 16:-0.707762 17:0.536925 18:-0.14886 19:-0.222329 20:0.307573 
1 1:-0.0599459 2:0.233439 3:0.0920086 4:0.341372 5:0.164056 6:-0.316688 7:-0.0227923 8:-0.284453 9:-0.492089 10:-0.0393073 11:0.108992 12:0.251952 13:-0.0601111 14:-0.0037992 15:-0.0679146 16:-0.301296 17:0.315408 18:0.0247162 19:-0.0618279 20:0.185772 
1 1:-0.0337668 2:0.206437 3:0.0837743 4:0.669281 5:-0.367231 6:-0.201571 7:-0.321397 8:-0.289465 9:0.146467 10:0.514213 11:0.305633 12:0.364645 13:0.280292 14:0.126977 15:0.480093 16:0.0128902 17:0.335405 18:0.422471 19:0.671901 20:-0.0057095 
1 1:0.492693 2:0.0377516 3:0.116262 4:0.533768 5:-0.540739 6:0.0554727 7:-0.113158 8:0.455267 9:-0.18934 10:0.262239 11:-0.0974961 12:0.00365306 13:0.303051 14:0.501568 15:-0.474807 16:0.377682 17:-0.26744 18:-0.105534 19:-0.3063 20:-0.248959 
1 1:-0.269591 2:0.122144 3:-0.314624 4:0.551406 5:-0.615048 6:-0.210416 7:-0.138525 8:-0.268193 9:-0.234105 10:-0.226803 11:0.227046 12:0.0717408 13:-0.316235 14:-0.960694 15:-0.16594 16:0.666638 17:0.131693 18:-0.660634 19:-0.3063 20:-0.219538 
1 1:-0.204159 2:0.026669 3:0.491971 4:0.650033 5:0.229541 6:-0.0774936 7:0.377503 8:0.363928 9:0.127331 10:0.235401 11:0.254769 12:0.35886 13:0.455981 14:0.0403297 15:0.474993 16:0.410533 17:-0.076225 18:0.00422606 19:0.53654 20:0.310577 
-1 1:0.303749 2:-0.250481 3:-0.289447 4:0.174865 5:-0.221364 6:-0.193295 7:-0.628752 8:-0.6364 9:0.089692 10:-0.433406 11:0.176225 12:0.379649 13:0.241473 14:-0.314237 15:-0.224786 16:-0.327882 17:-0.168381 18:0.0247162 19:-0.750291 20:0.443497 
-1 1:-0.287493 2:0.440293 3:-0.0864061 4:0.229107 5:0.0579317 6:-0.425912 7:0.0111719 8:-0.120911 9:0.138184 10:0.172173 11:-0.103395 12:0.231482 13:0.419411 14:-0.0723973 15:0.214701 16:0.7646 17:0.384267 18:0.317883 19:-0.3063 20:-0.210197 
-1 1:0.0461181 2:0.371885 3:0.235769 4:0.30971 5:-0.125718 6:-0.475948 7:0.32164 8:0.179043 9:-0.0965997 10:0.595398 11:-0.091057 12:0.280983 13:0.430612 14:0.28459 15:-0.0115565 16:-0.341334 17:0.169479 18:-0.208654 19:0.513314 20:-0.35517 
-0.154657849154366 1:0.365159 2:0.35299 3:-0.735727 4:0.375409 5:-0.299729 6:-0.163802 7:-0.130385 8:0.144882 9:0.0337286 10:-0.262152 11:0.092043 12:0.0235515 13:0.217201 14:-0.384979 15:-0.175935 16:0.470631 17:0.292263 18:0.204496 19:-0.59309 20:0.0703614 
-1 1:0.0524552 2:-0.0483694 3:-0.358547 4:-0.145638 5:0.761241 6:-0.536805 7:-0.306135 8:-0.660216 9:-0.773048 10:-0.552313 11:-0.487303 12:-0.18123 13:0.0102883 14:-0.169047 15:-0.356464 16:-0.62998 17:-0.288284 18:0.0247162 19:-1 20:-0.219284 
-1 1:0.719206 2:0.111225 3:-0.0211986 4:0.537893 5:0.209962 6:0.253035 7:0.374855 8:-0.0369923 9:0.107232 10:0.090086 11:0.210286 12:0.383179 13:0.222086 14:0.187342 15:0.266987 16:-0.139345 17:0.333399 18:0.278171 19:-0.373472 20:0.185772 
-1 1:0.247742 2:0.38726 3:-0.177577 4:0.220932 5:0.23086 6:0.065943 7:-0.367552 8:-0.109091 9:-0.0580536 10:-0.388219 11:0.0376202 12:0.557101 13:0.343596 14:0.27643 15:0.356993 16:-0.0196551 17:0.166837 18:-0.0619587 19:-0.3063 20:0.572905 
-1 1:0.316485 2:0.212697 3:0.296281 4:0.569364 5:0.0167459 6:0.597128 7:0.41347 8:0.188846 9:0.144197 10:0.108853 11:0.469781 12:0.385189 13:-0.00712918 14:0.431289 15:0.948905 16:0.540029 17:-0.00208494 18:0.663781 19:-0.3063 20:0.0435584 
-1 1:0.0500646 2:0.301412 3:-0.450931 4:0.913872 5:-0.432238 6:-0.131524 7:0.268177 8:0.125502 9:0.0139268 10:0.00687412 11:-0.0202138 12:-0.200333 13:-0.173418 14:-0.513495 15:0.209158 16:0.202383 17:0.369938 18:0.368353 19:-0.3063 20:0.335893 
-1 1:0.446834 2:0.165041 3:-0.704033 4:0.750824 5:-0.0779314 6:-0.561523 7:0.231326 8:-0.381795 9:-0.379408 10:0.0248688 11:-0.12538 12:0.10134 13:0.170692 14:-0.142112 15:0.0572092 16:-0.0318866 17:-0.168381 18:0.0247162 19:-0.421359 20:0.319457 
-1 1:-0.0367354 2:-0.223902 3:-0.0414081 4:0.475382 5:0.0591549 6:-0.239193 7:0.184788 8:0.407455 9:0.179124 10:0.0960985 11:0.322684 12:0.203522 13:0.190315 14:0.36082 15:0.0775399 16:-0.764307 17:0.323779 18:-0.408065 19:0.289381 20:0.185772 
-1 1:0.154475 2:0.479728 3:-0.1682 4:0.292824 5:-0.0315416 6:0.141029 7:-0.0703078 8:-0.414055 9:0.445594 10:-0.263317 11:0.106756 12:0.493465 13:0.0906392 14:-0.134164 15:0.584736 16:0.230227 17:-0.227216 18:-0.515189 19:-0.689674 20:-0.370312 
-0.4063595233657327 1:0.878033 2:0.380033 3:-0.13949 4:0.573617 5:0.0954844 6:0.0455132 7:0.812436 8:0.0691697 9:-0.0352233 10:0.0523049 11:0.127684 12:0.129461 13:0.809127 14:-0.287719 15:0.198762 16:0.874508 17:-0.168381 18:0.301349 19:-0.317093 20:0.170116 
-1 1:0.13982 2:0.152271 3:0.179303 4:0.381228 5:0.218659 6:0.187337 7:0.579624 8:-0.36261 9:-0.0985812 10:0.0796064 11:0.251634 12:0.386002 13:0.207073 14:0.202472 15:0.723524 16:0.690931 17:0.114077 18:-0.0297963 19:-0.3063 20:0.185772 
-1 1:0.532105 2:0.356353 3:-0.362987 4:0.408036 5:0.413984 6:0.261432 7:0.129195 8:0.292557 9:0.197612 10:0.0856613 11:-0.0687441 12:0.119768 13:0.098955 14:-0.512597 15:0.354785 16:0.0694007 17:-0.168381 18:0.248125 19:-0.3063 20:0.240049 
-1 1:0.347398 2:0.349829 3:-0.32776 4:0.472451 5:0.466656 6:-0.47268 7:0.309173 8:-0.120754 9:-0.0488545 10:-0.0481602 11:0.0981501 12:0.016998 13:-0.101192 14:-0.219567 15:-0.181713 16:0.408228 17:-0.0789681 18:-0.676995 19:-0.390122 20:0.185772 
-1 1:-0.596354 2:-1 3:-0.456291 4:-0.790134 5:0.894438 6:-0.782184 7:-1 8:-0.663367 9:-0.883514 10:-0.823783 11:-0.617395 12:-0.728413 13:-0.510062 14:-0.0617064 15:-0.838845 16:-0.439345 17:-0.776584 18:0.0247162 19:-0.392998 20:0.185772 
-1 1:0.0143474 2:0.335722 3:-0.420824 4:0.454783 5:0.129657 6:-0.103813 7:-0.190377 8:0.118824 9:-0.0622281 10:0.0427947 11:0.0668033 12:0.365437 13:0.12676 14:-1 15:-0.485003 16:-0.119135 17:0.101924 18:0.269672 19:-0.3063 20:0.13749 
-1 1:0.265796 2:0.172862 3:0.28459 4:0.645332 5:-0.264262 6:0.285936 7:0.173725 8:0.610111 9:-0.156411 10:0.0631236 11:0.233519 12:-0.360105 13:-0.0791019 14:0.097337 15:0.287072 16:0.171384 17:0.223204 18:0.0243603 19:-0.459269 20:0.185406 
-1 1:0.439071 2:0.181793 3:-0.314632 4:0.472183 5:0.341577 6:-0.324068 7:0.25195 8:-0.207468 9:0.0269595 10:-0.548937 11:-0.12761 12:0.0805028 13:0.136969 14:-0.548657 15:0.601499 16:0.455327 17:-0.377559 18:0.333339 19:-0.3063 20:0.29983 
-1 1:0.549684 2:0.343846 3:-0.433236 4:0.595946 5:-0.215899 6:0.302364 7:-0.785824 8:-0.0710747 9:-0.00549061 10:0.352034 11:0.3 12:0.157601 13:0.402688 14:0.202617 15:0.669467 16:0.110068 17:-0.0305395 18:0.0247162 19:-0.3063 20:0.185772 
-1 1:0.302543 2:0.205073 3:-0.31332 4:0.693957 5:0.1291 6:-0.680624 7:0.787013 8:0.0028982 9:0.141739 10:0.040741 11:0.172079 12:0.490959 13:0.35874 14:-0.272454 15:0.798778 16:0.508696 17:0.259687 18:-0.0456825 19:-0.149065 20:0.113264 
-1 1:0.223897 2:0.114135 3:0.290871 4:0.331567 5:0.494768 6:0.372349 7:-0.0219437 8:0.199028 9:-0.0176351 10:0.203491 11:0.409385 12:-0.0535005 13:0.0955776 14:0.545082 15:0.244799 16:-0.0683797 17:0.136705 18:0.661479 19:-0.228676 20:-0.478619 
-1 1:0.422859 2:0.422267 3:0.186271 4:0.414711 5:0.418882 6:0.0833014 7:0.542912 8:-0.297026 9:-0.467632 10:0.136652 11:0.071877 12:-0.355344 13:0.261515 14:0.290399 15:0.381836 16:-0.0265962 17:0.380523 18:-0.0924078 19:-0.717909 20:-0.411267 
-1 1:-0.254649 2:0.261856 3:-0.0903532 4:0.0636015 5:0.356807 6:0.0615886 7:-0.110477 8:-0.312471 9:-0.224034 10:-0.4382 11:0.104565 12:-0.0258984 13:0.260296 14:0.261991 15:-0.191526 16:-0.520655 17:-0.207521 18:0.0381538 19:-0.550067 20:-0.0430613 
-1 1:0.010076 2:0.0207801 3:-0.109782 4:0.568355 5:0.226925 6:-0.0924008 7:0.359883 8:0.170922 9:0.355787 10:0.464098 11:0.666062 12:0.0951799 13:0.557449 14:0.326017 15:0.488555 16:0.0675479 17:0.147994 18:0.540236 19:0.746564 20:0.137827 
-1 1:-0.418617 2:0.176646 3:-0.225652 4:0.198557 5:0.4999 6:-0.34674 7:-0.294281 8:-0.240162 9:-0.159509 10:-0.474477 11:-0.369121 12:0.290312 13:-0.134001 14:-0.669672 15:0.161235 16:-0.217019 17:-0.247261 18:-0.200123 19:-0.379947 20:-0.0458043 
-1 1:0.258027 2:0.134385 3:0.2995 4:0.642064 5:0.0442744 6:0.214474 7:0.0942558 8:0.418196 9:0.268825 10:0.68858 11:0.88552 12:0.513754 13:0.516977 14:0.692744 15:0.341978 16:0.758444 17:-0.246145 18:0.600081 19:0.675338 20:0.185772 
-1 1:-0.460218 2:0.329266 3:0.548922 4:0.282445 5:-0.50307 6:-0.579605 7:-0.272534 8:0.0605469 9:0.526731 10:0.529115 11:0.409373 12:0.727925 13:0.378979 14:-0.287464 15:0.570904 16:-0.124373 17:0.763066 18:0.829047 19:0.0975338 20:0.771533 
-1 1:0.23946 2:-0.0970974 3:-0.247815 4:0.0361482 5:0.7931 6:0.0737901 7:0.0312797 8:-0.626323 9:-0.338091 10:-0.0721368 11:0.122407 12:-0.591009 13:0.320835 14:0.39433 15:0.264649 16:-0.809395 17:-0.257792 18:0.154625 19:-0.542496 20:-0.0320797 
-1 1:0.260974 2:-0.0185 3:-0.0561885 4:0.809477 5:0.338032 6:-0.617998 7:-0.593827 8:-0.325801 9:-0.305521 10:0.0131741 11:0.153127 12:-0.322157 13:0.231917 14:0.176732 15:-0.0348042 16:-0.574904 17:0.605532 18:-0.403481 19:0.951939 20:0.185772 
-1 1:-0.514411 2:0.0145461 3:0.0609612 4:-0.443067 5:0.66605 6:-0.468339 7:-0.220966 8:-0.0741795 9:-0.49538 10:-0.152307 11:-0.127029 12:-0.117104 13:-0.1026 14:0.0719768 15:0.145965 16:-0.455085 17:-0.0580269 18:0.0247162 19:-0.355983 20:-0.362699 
-1 1:0.532998 2:0.625608 3:0.225403 4:0.827159 5:-0.080345 6:-0.0358947 7:0.429258 8:0.568224 9:0.316217 10:0.362411 11:0.330709 12:-0.0673644 13:0.690681 14:0.431346 15:0.527869 16:-0.563445 17:0.375869 18:0.402529 19:0.862146 20:-0.537364 
-1 1:0.154581 2:0.265434 3:0.534161 4:0.00662277 5:-0.0455161 6:0.4123 7:0.602039 8:0.0315618 9:-0.250289 10:0.415632 11:0.0435918 12:-0.020106 13:0.032247 14:0.560373 15:0.37624 16:0.135855 17:-0.333323 18:0.0247162 19:-0.460301 20:0.185772 
-1 1:0.270879 2:0.0771898 3:-0.230428 4:0.385915 5:-0.0431267 6:0.131861 7:0.260855 8:-0.197854 9:-0.145298 10:-0.2937 11:0.131994 12:-0.0384966 13:-0.394671 14:0.164794 15:0.570592 16:0.580545 17:-0.168381 18:0.0247162 19:-0.3063 20:-0.209597 
-1 1:-0.57813 2:-0.381269 3:0.186144 4:-0.0945049 5:0.735528 6:-0.483781 7:0.0940167 8:-0.605266 9:-0.770271 10:-0.255393 11:-0.165328 12:-0.411401 13:-0.0654816 14:0.248214 15:-0.113478 16:-1 17:-1 18:-0.485093 19:-0.46108 20:-0.940472 
-1 1:0.26783 2:0.208483 3:0.0347355 4:0.513169 5:0.42063 6:0.102839 7:0.246503 8:0.065843 9:-0.166177 10:0.293786 11:0.140657 12:0.300544 13:0.365477 14:0.399063 15:0.576717 16:0.125985 17:0.0688763 18:-0.125864 19:-0.0847817 20:0.0306793 
-1 1:-0.102862 2:0.390393 3:-0.209753 4:0.496214 5:-0.0814375 6:-0.4446 7:0.166192 8:0.166251 9:0.277825 10:-0.290601 11:0.211741 12:0.624344 13:0.132001 14:-0.382587 15:-0.2904 16:-0.371373 17:0.371296 18:0.340956 19:-0.262956 20:0.373394 
-1 1:-0.0474049 2:0.81499 3:-0.556941 4:0.378564 5:0.404971 6:-0.518228 7:0.371844 8:-0.565054 9:-0.245176 10:-0.576425 11:-0.260063 12:-0.180215 13:0.0951468 14:-0.258415 15:0.0903279 16:0.257275 17:-0.157748 18:-0.0262036 19:-0.342458 20:0.0542638 
-1 1:-0.574097 2:-0.0951803 3:0.0860831 4:0.504524 5:-0.212546 6:-0.148395 7:-0.269091 8:-0.153753 9:-0.236492 10:-0.252188 11:0.534561 12:0.188117 13:0.632316 14:0.190344 15:-0.393635 16:-0.00682131 17:0.511799 18:-0.483876 19:-0.0276438 20:0.314171 
-1 1:0.368458 2:-0.0261662 3:0.263316 4:0.638009 5:0.338543 6:0.409197 7:0.286477 8:0.441646 9:0.222788 10:0.350823 11:0.501562 12:0.143014 13:-0.130415 14:0.653715 15:0.644491 16:0.434774 17:-0.102854 18:0.66334 19:0.968056 20:0.207668 
-1 1:0.0807029 2:0.249627 3:-0.0929045 4:0.292217 5:0.184365 6:-0.109452 7:0.295189 8:0.186984 9:0.0703962 10:-0.24413 11:0.0260952 12:0.144757 13:0.259946 14:-0.338847 15:0.521579 16:-0.234461 17:-0.440609 18:-0.0413976 19:-0.3063 20:-0.182901 
-1 1:0.0774522 2:-0.225784 3:0.0346159 4:0.135649 5:0.510338 6:0.0934406 7:-0.0532148 8:-0.298943 9:-0.697653 10:-0.300235 11:-0.286422 12:-0.418545 13:0.374187 14:0.309445 15:0.252121 16:-0.522146 17:-0.168381 18:0.0247162 19:-0.0160591 20:0.43094 
-1 1:0.0773328 2:0.45706 3:-0.705829 4:0.436214 5:-0.0599809 6:-0.540898 7:-0.0349306 8:-0.262123 9:-0.235079 10:-0.785859 11:-0.0883575 12:0.216109 13:0.521378 14:-0.36362 15:0.548597 16:-0.359305 17:0.114354 18:0.0247162 19:-0.491981 20:-0.0835593 
-1 1:-0.100895 2:0.0830046 3:-0.149405 4:0.0813427 5:0.650668 6:0.132813 7:0.0390346 8:-0.0563988 9:-0.11845 10:-0.317364 11:-0.371 12:0.0135794 13:0.121299 14:0.191989 15:-0.184726 16:0.157291 17:-0.0385886 18:0.0247162 19:-0.392341 20:0.185772 
-1 1:0.416792 2:0.566878 3:-0.554482 4:0.449453 5:0.342754 6:-0.22327 7:-0.364055 8:-0.111975 9:0.0792329 10:-0.452571 11:-0.139367 12:0.102697 13:-0.54607 14:-0.235211 15:-0.106162 16:-0.464073 17:0.641869 18:0.317001 19:-0.3063 20:0.185772 
-1 1:0.0834916 2:0.260591 3:-0.0869296 4:0.571322 5:-0.106645 6:0.318044 7:0.170936 8:0.434936 9:0.331429 10:-0.125566 11:0.356326 12:0.50593 13:0.260088 14:0.590294 15:0.638488 16:0.618109 17:0.166968 18:0.505787 19:-0.3063 20:-0.358571 
-1 1:-0.00421425 2:0.216835 3:0.258879 4:1 5:-0.586894 6:-0.0329384 7:0.238684 8:0.823262 9:-0.378255 10:0.441557 11:0.227609 12:-0.00828947 13:0.730734 14:0.393135 15:-0.320767 16:0.106836 17:-0.589808 18:0.289869 19:-0.0428879 20:0.0914464 
-1 1:-0.0257315 2:-0.266277 3:0.21298 4:-0.0238607 5:0.845875 6:0.124097 7:0.302927 8:0.165915 9:-0.285971 10:-0.283621 11:0.105579 12:-0.0545708 13:-0.343323 14:0.572829 15:0.113333 16:-0.101457 17:-0.025391 18:0.0119329 19:-0.369884 20:-0.780205 
-1 1:0.0400841 2:0.525494 3:-0.133641 4:0.390837 5:0.336263 6:-0.14154 7:0.0632958 8:-0.778829 9:-0.147656 10:-0.368621 11:-0.0061355 12:0.141162 13:-0.313224 14:-0.0403674 15:0.549333 16:0.426594 17:0.381256 18:-0.100906 19:-0.723943 20:-0.244192 
-1 1:0.373613 2:0.32413 3:-0.221717 4:0.221873 5:0.551365 6:0.155351 7:-0.269961 8:-0.0409314 9:-0.152119 10:-0.356948 11:-0.333049 12:-0.289997 13:-0.0495967 14:0.340909 15:-0.00645247 16:0.0633412 17:-0.168381 18:0.209595 19:-0.3063 20:0.185772 
-1 1:0.471402 2:-0.0751914 3:-0.138356 4:0.834366 5:0.0518198 6:-0.553384 7:0.52023 8:0.123133 9:0.0532883 10:0.211943 11:0.398141 12:-0.0521459 13:0.454481 14:-0.670473 15:-0.00410046 16:-0.554553 17:0.597164 18:0.0909128 19:-0.3063 20:0.185772 
-1 1:0.450038 2:0.308308 3:-0.0878773 4:0.490163 5:-0.452885 6:-0.0462718 7:0.466364 8:0.248078 9:-0.161549 10:0.208937 11:0.484613 12:0.0472055 13:0.421453 14:-0.070194 15:0.290816 16:0.687923 17:-0.168381 18:0.0247162 19:-0.370506 20:0.0926408 
-1 1:0.150035 2:-0.0005675 3:-0.246425 4:0.134362 5:0.53567 6:0.100719 7:0.156591 8:-0.510809 9:-0.332122 10:-0.0763019 11:-0.320528 12:-0.262731 13:-0.226513 14:0.135306 15:0.428166 16:-0.0940746 17:-0.0632147 18:0.0247162 19:-0.450546 20:-0.624613 
-1 1:0.194285 2:-0.0571769 3:-0.92908 4:0.447149 5:-0.588672 6:-0.699826 7:0.383205 8:0.299371 9:0.0254163 10:-0.160778 11:0.131586 12:0.205296 13:0.643388 14:-0.218077 15:-0.0157144 16:0.352756 17:-0.127199 18:0.0247162 19:-0.3063 20:0.185772 
-1 1:0.103974 2:-0.298649 3:0.121437 4:0.201221 5:0.667861 6:0.351859 7:0.115205 8:-0.167853 9:-0.246633 10:-0.144854 11:0.261957 12:-0.178747 13:0.212517 14:0.513704 15:0.298952 16:-0.600185 17:-0.394297 18:-0.443045 19:-0.128795 20:-0.296008 
-1 1:0.784634 2:0.191485 3:0.169011 4:0.299707 5:-0.291238 6:0.211297 7:0.307721 8:0.108178 9:-0.0407137 10:-0.20513 11:0.178103 12:0.422049 13:0.515006 14:0.323837 15:0.339936 16:0.106464 17:0.347467 18:0.155961 19:-0.334324 20:0.445701 
-1 1:0.196623 2:0.142744 3:0.29442 4:0.351842 5:0.676791 6:0.622903 7:0.0187104 8:0.363488 9:0.0402894 10:-0.23237 11:0.437804 12:0.165181 13:-0.243131 14:0.384801 15:0.201857 16:-0.188427 17:0.0711469 18:0.266258 19:-0.107589 20:-0.284525 
-1 1:0.315399 2:0.173355 3:0.385464 4:0.216902 5:0.381055 6:0.165512 7:-0.0459794 8:-0.104227 9:-0.38801 10:0.0919919 11:-0.123042 12:0.206989 13:0.379269 14:0.541035 15:0.0438594 16:-0.287241 17:-0.0802001 18:0.046714 19:-0.0834561 20:0.305194 
-1 1:-0.511236 2:-0.449132 3:-0.475078 4:-0.608226 5:0.973902 6:-0.476873 7:0.106823 8:-0.221213 9:-0.755928 10:-0.751909 11:-0.595531 12:-0.279299 13:-0.328028 14:-0.464381 15:-0.204352 16:-0.796366 17:-0.46423 18:-0.579359 19:-0.73524 20:-0.612233 
-1 1:-0.0451738 2:-0.0752847 3:0.236067 4:0.369018 5:0.583604 6:0.380056 7:0.0847554 8:-0.16919 9:-0.0103584 10:0.121258 11:0.358893 12:-0.0575118 13:-0.0518925 14:0.400852 15:0.237183 16:0.040791 17:0.230009 18:0.119706 19:-0.288793 20:0.185772 
-1 1:0.236977 2:0.174249 3:-0.124484 4:0.415152 5:-0.251409 6:0.244184 7:-0.260904 8:0.411223 9:0.344838 10:0.0380246 11:0.699961 12:0.575302 13:-0.130651 14:0.42911 15:0.783438 16:0.664731 17:0.0695409 18:0.573166 19:0.0110437 20:0.185772 
-1 1:0.164941 2:0.315354 3:-0.175027 4:0.46577 5:-0.236618 6:-0.203805 7:0.151901 8:0.237057 9:0.153952 10:0.309173 11:0.0525354 12:0.612546 13:0.0878759 14:-0.0155141 15:0.741399 16:-0.324281 17:0.319607 18:-0.0112549 19:0.434977 20:0.148723 
-1 1:0.158388 2:0.213725 3:-0.165585 4:0.352334 5:0.37531 6:-0.654395 7:0.087032 8:-0.168849 9:-0.34918 10:-0.349222 11:-0.422538 12:0.0688084 13:0.187407 14:-0.266333 15:-0.178801 16:0.107233 17:-0.255861 18:-0.552854 19:-0.180753 20:-0.409106 
-1 1:0.202054 2:0.234439 3:0.519405 4:0.504075 5:0.44139 6:0.350444 7:-0.138286 8:0.133478 9:0.32126 10:0.259353 11:0.139903 12:0.264171 13:-0.208556 14:0.499202 15:-0.0543793 16:-0.0741644 17:0.0642445 18:0.501301 19:0.184828 20:-0.400922 
-1 1:0.335031 2:0.0505007 3:0.547292 4:0.0734514 5:0.56988 6:0.813007 7:0.378507 8:-0.252138 9:-0.0892377 10:0.105032 11:0.349102 12:0.058623 13:0.151016 14:0.820627 15:0.758375 16:0.182546 17:-0.14413 18:1 19:-0.0917686 20:-0.779884 
-1 1:0.284256 2:0.0895605 3:0.197318 4:0.660551 5:-0.0795563 6:0.487709 7:0.33805 8:0.278866 9:-0.186054 10:0.334406 11:0.439096 12:0.295842 13:0.361475 14:0.0810523 15:0.768137 16:0.180694 17:0.099342 18:0.28279 19:-0.537496 20:0.548344 
-1 1:0.33782 2:0.410256 3:-0.428601 4:0.659269 5:-0.535118 6:-0.439252 7:0.254689 8:-0.0572699 9:0.199304 10:-0.358647 11:-0.1743 12:0.435897 13:0.197412 14:-0.153571 15:-0.516451 16:0.642983 17:-0.522241 18:0.378713 19:-0.3063 20:0.404468 
-1 1:0.277919 2:-0.247362 3:0.521492 4:0.349117 5:-0.103611 6:0.705029 7:0.194658 8:0.324503 9:0.471525 10:0.319322 11:0.326985 12:0.352333 13:-0.220956 14:0.605797 15:0.715253 16:0.480913 17:0.144972 18:0.354992 19:-0.532312 20:0.15852 
-1 1:0.202014 2:0.315331 3:-0.0476372 4:0.438674 5:0.297982 6:-0.244704 7:0.237949 8:-0.0496941 9:-0.100464 10:-0.0297785 11:0.664986 12:0.261719 13:0.746151 14:0.126802 15:-0.247303 16:0.434775 17:-0.309904 18:-0.161369 19:-0.438435 20:0.595267 
-1 1:0.50029 2:0.29694 3:-0.204034 4:0.399362 5:-0.257339 6:0.0361705 7:-0.111336 8:-0.0414832 9:0.146677 10:-0.210855 11:0.027973 12:0.262803 13:0.0618212 14:-0.0709208 15:0.364117 16:-0.233093 17:-0.531098 18:0.302166 19:-0.3063 20:0.295709 
-1 1:0.42734 2:0.020997 3:0.368589 4:0.364664 5:0.143581 6:0.728108 7:0.421249 8:0.82447 9:0.212583 10:0.632465 11:1 12:0.431823 13:0.277065 14:0.608617 15:0.859329 16:0.396747 17:0.258636 18:0.362783 19:-0.218964 20:0.233391 
-1 1:-0.0988681 2:0.199397 3:-0.0674491 4:0.185473 5:0.681205 6:0.149422 7:-0.0261651 8:-0.460192 9:-0.115511 10:-0.260112 11:0.295078 12:0.269942 13:0.377821 14:0.15852 15:0.378292 16:0.110354 17:-0.415714 18:-0.00866279 19:0.309794 20:-0.449764 
-1 1:0.586438 2:0.0241729 3:-0.150747 4:0.70322 5:-0.306958 6:0.389682 7:0.0445703 8:0.181321 9:0.154301 10:0.383008 11:0.462828 12:0.112436 13:0.236772 14:0.454203 15:0.527649 16:0.63807 17:-0.168381 18:0.285779 19:-0.328149 20:-0.0217471 
-1 1:0.228936 2:0.0684999 3:0.0539352 4:0.137009 5:0.660289 6:0.451746 7:0.107128 8:-0.116339 9:-0.211611 10:-0.0968883 11:0.188691 12:0.340405 13:-0.0309889 14:0.264237 15:0.0555891 16:0.177621 17:-0.221442 18:0.0966106 19:-0.355841 20:-0.584009 
-1 1:0.0788885 2:0.519476 3:-0.185865 4:0.583374 5:0.403298 6:0.0510062 7:0.157909 8:0.181504 9:0.0845647 10:-0.245984 11:0.175463 12:0.172033 13:0.143427 14:0.215871 15:0.40086 16:-0.487152 17:0.325608 18:0.146805 19:-0.36012 20:0.408284 
-1 1:0.123754 2:-0.0241269 3:-0.0392207 4:0.234946 5:0.286654 6:-0.0840086 7:0.147753 8:-0.342782 9:-0.377785 10:-0.00915076 11:-0.19226 12:0.324118 13:0.00129475 14:0.118931 15:-0.0902917 16:-0.425209 17:-0.537812 18:-0.46104 19:-0.322783 20:0.161864 
-1 1:-0.00883928 2:0.377662 3:-0.723302 4:0.366947 5:0.458565 6:-0.706874 7:0.0144389 8:-0.448397 9:-0.0367699 10:-0.453982 11:-0.0325775 12:0.381244 13:0.250019 14:-0.272454 15:0.229965 16:0.0225894 17:-0.318893 18:-0.3439 19:-0.0323794 20:0.106689 
-1 1:0.379691 2:0.136201 3:-0.271417 4:0.502911 5:0.298571 6:-0.37268 7:0.377454 8:0.187327 9:-0.0268973 10:-0.279144 11:-0.0457994 12:0.160489 13:0.347713 14:-0.128091 15:-0.301229 16:0.149709 17:-0.574394 18:-0.0465976 19:-0.478156 20:-0.063506 
-1 1:-0.338537 2:-0.171328 3:-0.849884 4:-0.0938708 5:0.825986 6:-0.262891 7:-0.158056 8:-1 9:-0.492626 10:-0.563181 11:-0.326283 12:0.17001 13:0.107618 14:-0.156136 15:0.150233 16:-0.255629 17:-0.595634 18:-0.537069 19:-0.255551 20:-0.693426 
-1 1:0.265229 2:0.20999 3:-0.432306 4:0.495419 5:0.0736175 6:-0.0910481 7:0.511018 8:-0.210255 9:-0.0631425 10:-0.196454 11:0.130812 12:-0.0694716 13:0.296889 14:-0.592038 15:-0.210136 16:0.53114 17:0.342502 18:0.290139 19:-0.7395 20:0.0338199 
-1 1:0.284383 2:0.000560338 3:-0.827329 4:0.607556 5:-0.817952 6:-0.287859 7:0.649683 8:0.257399 9:0.0503605 10:-0.0191916 11:-0.484283 12:-0.00816438 13:0.393452 14:-0.630083 15:-0.411225 16:0.0905999 17:-0.439225 18:0.252255 19:-0.3063 20:-0.181027 
-1 1:0.226421 2:0.280311 3:-0.326256 4:0.181646 5:-0.522601 6:-0.538545 7:-0.393225 8:0.224321 9:-0.353655 10:0.0645484 11:0.344392 12:0.24283 13:0.442545 14:0.00440597 15:0.165374 16:0.360323 17:0.349141 18:0.266714 19:-0.54891 20:0.134444 
-1 1:0.108582 2:-0.295238 3:-0.0171144 4:0.277654 5:0.658488 6:0.419944 7:0.0342528 8:-0.227113 9:-0.203858 10:-0.409256 11:-1 12:0.173845 13:-0.757073 14:-0.0755287 15:0.0305586 16:0.323396 17:-0.534588 18:0.00574432 19:-0.3063 20:-0.00959508 
-1 1:0.503344 2:0.374858 3:0.62238 4:0.413107 5:0.277582 6:0.472836 7:0.516089 8:0.371933 9:0.266754 10:0.484366 11:0.713354 12:0.392988 13:0.349661 14:0.8181 15:0.857174 16:0.538862 17:0.268043 18:0.786458 19:0.119297 20:-0.124923 
-1 1:-0.0580565 2:-0.202599 3:0.187763 4:0.61661 5:0.0928217 6:-0.230125 7:0.137713 8:0.229555 9:-0.0882093 10:0.325501 11:0.296624 12:0.119273 13:0.338718 14:0.198752 15:-0.405366 16:0.034452 17:0.386698 18:0.0604485 19:-0.762086 20:0.185772 
-1 1:-0.1463 2:-0.350091 3:-0.343564 4:0.192574 5:0.534037 6:-0.335483 7:-0.499756 8:-0.495903 9:-0.878848 10:-0.619265 11:-0.0718656 12:-0.563628 13:-0.534856 14:-0.116852 15:-0.64577 16:-0.97987 17:0.171409 18:-0.745424 19:-0.317493 20:-0.431618 
-1 1:-0.0507458 2:0.442346 3:-0.358266 4:0.471195 5:-0.568692 6:-0.38311 7:-0.0616995 8:0.412584 9:0.453837 10:-0.129113 11:0.229052 12:0.559733 13:0.152745 14:-0.625975 15:0.101182 16:-0.712713 17:-0.436114 18:-0.32732 19:0.0254779 20:-0.000987039 
-1 1:-0.0993037 2:0.299253 3:-0.352761 4:0.369411 5:-0.36077 6:-0.735817 7:-0.229164 8:-0.469407 9:0.0467142 10:-0.0972176 11:0.0399244 12:-0.0714115 13:0.0176234 14:-0.163168 15:0.0797592 16:-0.822866 17:-0.123329 18:-0.499711 19:-0.143018 20:0.246785 
-1 1:-0.13464 2:0.276657 3:-0.563659 4:0.452604 5:-0.733416 6:-0.951486 7:0.10692 8:0.126275 9:0.178978 10:-0.0680132 11:0.172494 12:0.0696176 13:0.47461 14:0.0815215 15:0.127124 16:-0.262538 17:-0.0638697 18:-0.00857575 19:-0.537164 20:0.0267312 
-1 1:-0.0359675 2:0.0695009 3:-0.153337 4:0.281045 5:0.579628 6:-0.0856763 7:0.530026 8:-0.14442 9:-0.100614 10:-0.320521 11:-0.217749 12:0.120688 13:0.148771 14:0.0743739 15:0.229712 16:-0.56264 17:-0.186043 18:-0.213577 19:-0.389501 20:0.065089 
-1 1:0.219101 2:0.0206545 3:0.218197 4:0.111907 5:0.352853 6:0.275391 7:0.0149749 8:0.0538215 9:-0.348303 10:-0.0123856 11:-0.0338621 12:0.0443629 13:0.00950956 14:0.287317 15:0.312915 16:-0.378097 17:-0.423359 18:0.0461862 19:-0.33714 20:-0.335366 
-1 1:0.00925467 2:-0.596712 3:0.3706 4:0.488932 5:-0.233007 6:0.320997 7:0.217767 8:0.219206 9:0.458549 10:0.489364 11:0.656514 12:0.196552 13:-0.266093 14:-0.0101296 15:0.656 16:-0.085332 17:0.545632 18:-0.099842 19:0.0864127 20:0.533886 
-1 1:0.668271 2:0.098846 3:-0.0536374 4:0.834115 5:-0.195124 6:-0.162746 7:0.251766 8:0.085781 9:-0.0423723 10:0.163483 11:0.201072 12:0.375859 13:0.588404 14:0.231621 15:0.41598 16:0.424077 17:-0.168381 18:0.0247162 19:-0.157094 20:0.185772 
-1 1:0.342244 2:0.58809 3:0.132533 4:0.601294 5:-0.115877 6:0.0958991 7:0.429119 8:0.384831 9:0.0738773 10:0.678193 11:0.568154 12:-0.0353234 13:0.821485 14:0.347681 15:0.469312 16:0.0332597 17:-0.565853 18:0.548299 19:-0.262958 20:0.491313 
-0.006441841297568491 1:0.280351 2:0.236523 3:-0.798062 4:0.350103 5:-0.554059 6:-0.238464 7:-0.545412 8:0.324415 9:0.136308 10:-0.167199 11:0.51987 12:0.675178 13:0.546269 14:0.091802 15:0.000428314 16:0.472536 17:-0.336411 18:0.266322 19:-0.3063 20:0.258791 
-1 1:-0.0263901 2:0.553299 3:-0.365213 4:0.187249 5:0.441405 6:-0.00630673 7:-0.0204844 8:-0.876586 9:-0.0360464 10:-0.367145 11:0.00572202 12:0.421739 13:0.0382181 14:0.102323 15:0.42111 16:0.445858 17:0.023335 18:-0.185746 19:-0.3063 20:-0.0309968 
-1 1:0.304284 2:0.130073 3:0.542653 4:0.373372 5:0.13839 6:0.507732 7:0.56109 8:0.402597 9:-0.153795 10:0.255671 11:0.321704 12:0.594347 13:0.583606 14:0.653496 15:0.568638 16:-0.0752847 17:0.100625 18:-0.149019 19:-0.101224 20:-0.117921 
-1 1:-0.242556 2:-0.239845 3:-0.281753 4:0.00101146 5:0.87399 6:-0.226878 7:-0.111833 8:-0.425212 9:-0.581767 10:-0.56915 11:-0.211163 12:-0.021569 13:-0.4293 14:-0.145974 15:-0.192513 16:-0.120016 17:-0.266679 18:-0.567077 19:-0.605301 20:-0.423756 
-1 1:0.488784 2:0.253636 3:-0.145871 4:0.245498 5:-0.119152 6:0.130469 7:0.0697208 8:-0.0384379 9:-0.257161 10:-0.210226 11:0.37648 12:0.544709 13:0.128606 14:0.415852 15:-0.0679146 16:0.750686 17:-0.168381 18:0.0247162 19:-0.3063 20:0.193808 
-1 1:-0.694823 2:-0.231599 3:-0.147196 4:0.0842235 5:0.888437 6:-0.446491 7:-0.280066 8:-0.700031 9:-0.774663 10:-0.795032 11:-0.117867 12:-0.186663 13:-0.351985 14:0.0892303 15:0.193525 16:-0.594657 17:0.240409 18:-0.434395 19:-0.3063 20:-0.763501 
-1 1:-0.745947 2:-0.0269248 3:-0.166765 4:-0.284736 5:0.867185 6:-0.865396 7:-0.414917 8:-0.916919 9:-0.759374 10:-0.294595 11:-0.546641 12:-0.134411 13:-0.085969 14:-0.142634 15:-0.877849 16:-0.838145 17:-0.363461 18:-0.523624 19:-0.695664 20:-0.203173 
-1 1:0.0923975 2:0.261225 3:-0.561393 4:0.329017 5:0.326145 6:-0.227035 7:0.338809 8:0.169696 9:0.0335313 10:-0.234231 11:-0.0016494 12:-0.0317719 13:0.513093 14:0.0287089 15:0.667089 16:-0.405223 17:0.0597007 18:0.153904 19:-0.3063 20:0.018253 
-1 1:0.262588 2:0.268036 3:0.0023072 4:0.543234 5:-0.0156032 6:0.266901 7:0.077614 8:0.163907 9:0.130541 10:0.236262 11:0.0913934 12:0.00857412 13:0.322023 14:0.237191 15:0.702657 16:0.0644577 17:0.217592 18:0.24039 19:-0.481597 20:-0.0684968 
-1 1:0.42485 2:0.0162932 3:-0.0499076 4:0.814399 5:-0.482526 6:0.524052 7:-0.0211183 8:0.45429 9:0.186307 10:0.181887 11:0.374926 12:-0.0937001 13:-0.282802 14:0.170556 15:0.554414 16:0.252733 17:0.238577 18:0.344745 19:-0.614721 20:0.038986 
-1 1:0.426864 2:0.155832 3:-0.0521075 4:0.639484 5:-0.279849 6:0.375667 7:0.277649 8:0.0834188 9:-0.0499775 10:0.37587 11:0.940606 12:0.139579 13:0.115812 14:0.12961 15:0.782831 16:0.523396 17:-0.26502 18:0.283429 19:-0.3063 20:0.185772 
-1 1:-0.0868136 2:-0.624725 3:1 4:0.301465 5:-0.591931 6:-0.176199 7:-0.209366 8:0.777127 9:0.0427572 10:0.426402 11:0.279068 12:-0.0327051 13:0.328174 14:0.293628 15:-0.0609618 16:0.245371 17:0.423901 18:0.786306 19:0.194566 20:0.544855 
-1 1:0.362708 2:0.613087 3:-0.265899 4:0.457792 5:-0.115818 6:0.372919 7:1 8:0.199087 9:0.103714 10:0.32789 11:0.301197 12:0.0361383 13:0.862862 14:0.241875 15:-0.227404 16:-0.593485 17:0.723413 18:0.151105 19:-0.0953361 20:0.01537 
-1 1:0.266718 2:-0.531613 3:-0.0369663 4:0.701529 5:-0.160052 6:0.746774 7:-0.725408 8:0.0287173 9:-0.405546 10:-0.186699 11:-0.161565 12:0.00914145 13:-1 14:-0.195449 15:0.10801 16:0.0557707 17:-0.067305 18:0.291696 19:-0.8336 20:-0.102672 
-1 1:0.267184 2:-0.00676838 3:-0.0866618 4:0.578141 5:0.323771 6:0.0581388 7:-0.0199851 8:-0.226047 9:-0.262208 10:-0.059562 11:-0.0177823 12:0.111475 13:0.0132855 14:0.119961 15:-0.344438 16:0.490454 17:0.128809 18:-0.262131 19:-0.3063 20:0.0661565 
-1 1:0.464431 2:-0.0633601 3:-0.544933 4:0.621033 5:-0.826511 6:0.12543 7:-0.386561 8:0.265652 9:-0.000285991 10:0.304197 11:0.101717 12:-0.0800931 13:0.105959 14:-0.0156663 15:0.678687 16:-0.288455 17:-0.153096 18:0.470724 19:-0.706477 20:-0.0941064 
-1 1:0.278121 2:0.309657 3:0.378745 4:0.362774 5:-0.0558027 6:0.157736 7:0.686172 8:0.199693 9:-0.157076 10:0.126042 11:0.480179 12:0.428297 13:0.745723 14:0.158145 15:0.388208 16:0.508704 17:0.249843 18:0.347698 19:-0.3063 20:0.451586 
-1 1:-0.0086768 2:0.202473 3:-0.20935 4:0.463401 5:-0.499771 6:0.239212 7:-0.0480792 8:0.18047 9:1 10:0.1574 11:0.826571 12:0.627963 13:-0.120892 14:0.374467 15:0.609833 16:-0.322644 17:0.749026 18:0.745684 19:0.0651303 20:0.151362 
-1 1:0.253774 2:0.173019 3:0.476958 4:0.543186 5:-0.291409 6:0.63287 7:0.884375 8:0.840164 9:0.030097 10:0.297484 11:0.622686 12:0.694012 13:0.100555 14:0.527839 15:0.149112 16:0.243847 17:0.62592 18:-0.0915778 19:-0.596102 20:0.185772 
-1 1:-0.517357 2:-0.316568 3:0.04956 4:-0.210509 5:0.665887 6:-0.392034 7:0.122216 8:-0.701803 9:-0.608074 10:-0.247081 11:0.00648864 12:-0.177391 13:-0.153897 14:0.206839 15:-0.434527 16:-0.406873 17:-0.457609 18:0.0247162 19:-0.216401 20:-0.381751 
-1 1:0.539691 2:0.369544 3:-0.110304 4:0.733654 5:-0.0476787 6:-0.193722 7:0.193347 8:0.181059 9:-0.262197 10:0.0945158 11:0.578522 12:-0.359716 13:0.415557 14:0.12216 15:0.0295712 16:0.196299 17:-0.168381 18:0.125842 19:-0.0272695 20:0.185772 
-1 1:-0.0150694 2:-0.0404886 3:-0.56985 4:0.694715 5:-0.649617 6:-0.608632 7:-0.0910625 8:0.0959688 9:-0.28899 10:0.116832 11:0.431409 12:-0.123526 13:0.472357 14:-0.0555524 15:-0.231595 16:-0.300708 17:0.184097 18:0.382371 19:-0.0523374 20:0.18672 
-1 1:-0.656892 2:-0.420638 3:-0.345764 4:0.0144638 5:0.848556 6:-0.532589 7:-0.383975 8:-0.447105 9:-0.58347 10:-0.842031 11:-0.334435 12:-0.0164811 13:-0.288521 14:-0.185137 15:-0.773885 16:-0.336257 17:-0.725336 18:0.0247162 19:-0.497867 20:0.185772 
-1 1:-0.175166 2:0.178915 3:0.214574 4:0.507097 5:0.372198 6:-0.0421736 7:0.0719642 8:-0.167096 9:0.0675277 10:-0.0566204 11:0.0146806 12:0.477717 13:0.269183 14:0.242584 15:-0.160762 16:-0.440232 17:0.181598 18:-0.36343 19:0.639632 20:0.183336 
-1 1:0.386867 2:-0.260258 3:0.353082 4:0.536372 5:-0.48715 6:0.346622 7:0.335844 8:-0.0880074 9:0.0343285 10:0.542557 11:0.0680908 12:-0.00630825 13:-0.00832336 14:0.378998 15:0.306205 16:0.537789 17:0.559019 18:-0.114643 19:-0.284037 20:0.218064 
-1 1:-0.457899 2:0.447246 3:-0.726927 4:0.224628 5:0.529725 6:-0.424903 7:-0.398109 8:-0.194216 9:-0.335067 10:0.0415782 11:-0.136437 12:0.220004 13:0.814745 14:-0.912329 15:0.358874 16:-0.708444 17:-0.431033 18:-0.149928 19:-0.177002 20:0.227411 
-1 1:0.231975 2:0.470876 3:0.480116 4:0.819509 5:-0.21906 6:0.047861 7:0.648229 8:1 9:0.225928 10:0.585696 11:0.265821 12:0.174306 13:0.250454 14:0.420722 15:0.577707 16:-0.492812 17:0.470794 18:0.753284 19:-0.311903 20:0.720897 
-1 1:-0.576789 2:0.299056 3:-0.628455 4:0.308502 5:0.76374 6:-0.66968 7:0.248119 8:-0.33319 9:-0.0846063 10:-0.0277417 11:0.017464 12:0.343761 13:0.736606 14:-0.194557 15:-0.157704 16:-0.251731 17:-0.683112 18:0.167188 19:-0.0439953 20:0.265667 
-1 1:0.226502 2:0.118018 3:-0.269292 4:0.0939425 5:-0.382296 6:-0.588267 7:0.344743 8:0.224514 9:-0.0234367 10:-0.125901 11:0.123299 12:-0.124159 13:0.480622 14:-0.349197 15:-0.141585 16:0.0828517 17:-0.00455386 18:0.240128 19:-0.3063 20:0.107062 
-1 1:0.00555436 2:-0.12283 3:0.31794 4:0.34796 5:-0.0801373 6:-0.0104941 7:0.392644 8:0.36976 9:-0.436057 10:0.220862 11:0.209336 12:-0.0472689 13:-0.00908994 14:0.326335 15:-0.319814 16:-0.468263 17:0.298731 18:-0.236588 19:-0.163404 20:-0.0833625 
-1 1:0.195462 2:-0.10012 3:0.650914 4:0.786109 5:0.347529 6:0.00950556 7:0.5979 8:0.26801 9:0.0865538 10:0.112122 11:0.00457025 12:-0.0557819 13:0.108421 14:0.471153 15:0.708487 16:0.661255 17:0.172833 18:0.47337 19:0.0122784 20:0.185772 
-1 1:-0.98454 2:-0.409249 3:-0.228309 4:-0.21199 5:0.928639 6:-0.881249 7:-0.557978 8:-0.854729 9:-1 10:-0.950746 11:-0.478485 12:-0.313031 13:-0.30665 14:-0.562942 15:-1 16:-0.486131 17:-0.551945 18:-0.650334 19:-0.578414 20:0.185772 
-1 1:0.629825 2:0.30821 3:-0.0735011 4:0.718299 5:-0.36712 6:0.0973622 7:0.202861 8:-0.335189 9:0.599065 10:0.538647 11:0.324372 12:0.393846 13:-0.0459049 14:0.525825 15:0.683087 16:0.612382 17:0.202153 18:0.307511 19:-0.3063 20:0.0517123 
-1 1:0.0436013 2:0.15504 3:-0.159474 4:0.333 5:-0.188108 6:0.203463 7:-0.0568355 8:0.176091 9:0.343072 10:-0.154306 11:0.548666 12:0.759363 13:-0.119129 14:0.275368 15:0.293407 16:0.49762 17:-0.235104 18:0.785309 19:-0.575821 20:0.395988 
-1 1:0.47473 2:0.252912 3:-0.152583 4:0.294701 5:0.239802 6:0.271122 7:0.23993 8:0.0240931 9:-0.0880085 10:-0.621911 11:-0.333815 12:-0.242444 13:-0.309037 14:0.128304 15:0.0354687 16:0.537232 17:-0.168381 18:0.30267 19:-0.3063 20:-0.0043494 
-1 1:0.392568 2:0.213779 3:-0.338713 4:0.33506 5:0.0830587 6:0.127112 7:0.401799 8:-0.0327848 9:-0.0501018 10:-0.24826 11:0.00551946 12:-0.138539 13:0.309544 14:-0.456748 15:0.482397 16:0.556477 17:0.337223 18:0.133029 19:-0.315395 20:0.172579 
-1 1:-0.368246 2:0.489035 3:0.34155 4:-0.0542719 5:0.551678 6:0.295766 7:-0.151916 8:-0.750452 9:-0.122893 10:0.197047 11:0.836988 12:1 13:-0.699964 14:0.356256 15:0.742955 16:-0.0103329 17:-0.265961 18:0.282192 19:-0.604631 20:0.185772 
-1 1:-0.304149 2:-0.0194659 3:-0.365531 4:0.147144 5:0.713241 6:-0.390765 7:0.0962826 8:-0.229634 9:-0.177024 10:-0.673323 11:-0.0631681 12:0.632518 13:0.176295 14:-0.506213 15:0.497478 16:-0.450036 17:-0.123468 18:0.0247162 19:-0.3063 20:0.422423 
-1 1:-0.213678 2:0.143809 3:-0.200033 4:0.50543 5:0.422114 6:0.127556 7:0.169072 8:-0.0621328 9:0.258373 10:-0.660643 11:0.349453 12:0.697691 13:0.160326 14:-0.124129 15:0.0744719 16:-0.315999 17:0.534988 18:0.172418 19:-0.322638 20:-0.138505 
-1 1:0.158093 2:0.515233 3:-0.080729 4:0.549914 5:-0.103346 6:-0.700138 7:0.345745 8:-0.159326 9:-0.0875267 10:-0.238557 11:-0.0315973 12:0.19579 13:0.138359 14:-0.177007 15:-0.140856 16:0.307408 17:-0.00397905 18:-0.342781 19:-0.567252 20:0.204604 
-1 1:-0.162328 2:-0.0568034 3:0.171267 4:0.191229 5:0.764887 6:-0.262718 7:0.221596 8:-0.225791 9:-0.523935 10:-0.205115 11:0.0469644 12:0.295418 13:0.417175 14:0.295338 15:-0.0427517 16:-0.422042 17:-0.0407903 18:0.161281 19:0.0305413 20:0.185772 
-0.05928301172901944 1:-0.163249 2:-0.0294438 3:-0.870399 4:0.367677 5:0.624396 6:-0.434732 7:-0.356748 8:0.0021808 9:-0.254454 10:-0.450324 11:0.31923 12:0.769438 13:0.160986 14:-0.351305 15:0.254484 16:0.471821 17:0.0859664 18:0.161268 19:-0.154831 20:0.185772 
-1 1:-0.118796 2:0.0319218 3:-1 4:0.401994 5:0.482536 6:-0.993249 7:-0.64697 8:-0.697049 9:-0.383042 10:-0.33844 11:0.135957 12:0.300133 13:0.577717 14:-0.571312 15:0.653751 16:0.262717 17:-0.172769 18:-0.272887 19:-0.3063 20:-0.120749 
-1 1:0.10411 2:0.259973 3:-0.0999743 4:0.300732 5:-0.432413 6:0.18873 7:0.171588 8:-0.208377 9:-0.394386 10:0.170522 11:0.0655711 12:0.0829387 13:-0.057138 14:0.236016 15:0.655531 16:0.487757 17:-0.406383 18:0.0975554 19:-0.407296 20:0.0392779 
-1 1:0.150365 2:0.123454 3:-0.106953 4:0.368203 5:-0.119234 6:-0.233619 7:0.138661 8:-0.0338113 9:0.0476559 10:0.149926 11:0.0101715 12:0.302088 13:0.39054 14:0.40048 15:0.0696153 16:-0.301296 17:0.539474 18:-0.416285 19:-0.0837794 20:0.20796 
-1 1:0.275924 2:-0.146437 3:0.0494296 4:0.538946 5:0.281144 6:0.114449 7:-0.591546 8:-0.0427383 9:-0.103238 10:-0.322624 11:-0.00445548 12:-0.133599 13:-0.0753592 14:0.25112 15:0.606324 16:-0.573803 17:0.106627 18:0.0607848 19:-0.3063 20:-0.0776562 
-1 1:0.129135 2:0.659974 3:-0.535974 4:0.456845 5:-0.188407 6:-0.647985 7:0.645563 8:0.194688 9:0.0627658 10:-0.264226 11:0.255156 12:0.546018 13:0.510683 14:0.000476296 15:-0.0872415 16:0.517461 17:0.038319 18:0.00466785 19:-0.3063 20:0.165123 
-1 1:-0.946823 2:0.030247 3:-0.492955 4:-0.0824203 5:0.916312 6:-0.0675913 7:-0.697352 8:-0.225807 9:-0.524468 10:-0.940909 11:-0.0471473 12:0.323021 13:-0.237095 14:-0.271895 15:0.00662158 16:-0.547445 17:-0.683302 18:0.0247162 19:-0.458621 20:-0.511575 
-1 1:-0.0934536 2:-0.399258 3:-0.416248 4:0.130937 5:0.457543 6:-0.457733 7:0.764556 8:-0.292192 9:0.0646838 10:-0.204515 11:0.140225 12:0.230682 13:-0.349752 14:1 15:0.721007 16:-0.178706 17:0.40978 18:-0.310874 19:-0.544595 20:-0.460453 
-1 1:0.0385002 2:0.490191 3:-0.0185569 4:0.161909 5:0.59134 6:-0.235515 7:0.165459 8:-0.375714 9:-0.356781 10:-0.195946 11:-0.166051 12:0.356791 13:0.477703 14:0.283578 15:-0.226056 16:-0.592591 17:-0.0711946 18:0.0247162 19:-0.630008 20:0.0168116 
-1 1:-0.0656566 2:0.274241 3:-0.485519 4:0.468514 5:0.303827 6:-0.393573 7:-0.0711526 8:-0.129821 9:-0.301145 10:-0.368867 11:0.549374 12:-0.169766 13:0.0527079 14:-0.0980159 15:0.216303 16:-0.299383 17:-0.168381 18:0.555157 19:-0.511397 20:0.185772 
-1 1:0.202337 2:0.435922 3:-0.665696 4:0.467838 5:0.212988 6:-0.0364375 7:-0.421519 8:0.0259124 9:0.0858819 10:-0.275225 11:-0.0142443 12:0.308502 13:0.0170386 14:-0.0627953 15:0.324112 16:1 17:0.362844 18:0.565456 19:-0.3063 20:-0.297113 
-1 1:0.261666 2:-0.0554484 3:-0.365868 4:0.527556 5:-0.757917 6:-0.779068 7:0.488742 8:0.295949 9:0.124704 10:0.380772 11:0.295987 12:0.363384 13:0.211772 14:-0.138074 15:-0.501574 16:-0.301296 17:0.826143 18:0.394146 19:-0.625728 20:-0.277558 
-1 1:-0.484323 2:0.143828 3:-0.279375 4:0.305803 5:0.703658 6:0.0213614 7:0.224855 8:-0.323945 9:-0.302666 10:0.0121957 11:-0.191203 12:-0.10151 13:0.156928 14:0.0144648 15:0.105515 16:-0.276861 17:0.50158 18:0.13972 19:-0.3063 20:0.371068 
-1 1:0.253021 2:-0.0768486 3:-0.399581 4:0.555476 5:-0.211083 6:-0.117864 7:0.240385 8:0.325103 9:-0.149402 10:-0.169697 11:0.249143 12:-0.271783 13:0.433623 14:0.236003 15:0.174172 16:0.123033 17:-0.329171 18:0.0247162 19:-0.2492 20:-0.031983 
-1 1:0.770598 2:0.0623338 3:0.866558 4:0.793983 5:-0.01053 6:-0.437491 7:0.607613 8:0.337484 9:-0.0322294 10:0.598763 11:0.1853 12:0.723829 13:0.601913 14:0.136479 15:0.406094 16:0.805018 17:0.670588 18:0.0905107 19:0.135572 20:0.350303 
-1 1:-0.251784 2:-0.197707 3:0.102173 4:0.252256 5:0.110786 6:-0.188205 7:0.246107 8:-0.203874 9:-0.352309 10:-0.295963 11:0.158414 12:0.117948 13:0.0099891 14:0.266147 15:-0.464615 16:0.0414119 17:0.529531 18:-0.216083 19:-0.0888518 20:0.185772 
-1 1:0.0251895 2:0.550143 3:0.0269719 4:0.319312 5:-0.18384 6:-0.175283 7:0.328214 8:0.515034 9:0.271608 10:0.182018 11:0.482199 12:0.25229 13:0.683375 14:0.411206 15:0.16228 16:0.446628 17:0.519287 18:0.369314 19:-0.390051 20:0.489621 
-1 1:0.0464255 2:-0.267901 3:-0.150028 4:0.106395 5:0.648373 6:0.381678 7:0.139227 8:-0.460386 9:-0.343532 10:-0.252109 11:-0.0532015 12:-0.150266 13:-0.454669 14:0.262754 15:0.141337 16:0.148333 17:-0.0433757 18:-0.025988 19:-0.518029 20:-0.342858 
-1 1:0.692139 2:0.342483 3:0.0575512 4:0.609986 5:-0.177559 6:0.138818 7:0.00373803 8:-0.000303299 9:-0.04254 10:0.149171 11:0.277748 12:0.519955 13:0.52689 14:0.336663 15:0.426248 16:0.508277 17:0.376935 18:0.124372 19:-0.3063 20:0.413166 
-1 1:-0.217147 2:0.201131 3:0.256303 4:0.130193 5:-0.021533 6:0.112949 7:-0.0722834 8:0.199958 9:-0.0277798 10:0.264762 11:0.245428 12:0.126422 13:0.445063 14:0.433205 15:0.469531 16:-0.520792 17:-0.136234 18:0.208649 19:-0.342997 20:0.229308 
-1 1:0.37439 2:0.241174 3:0.304042 4:0.513501 5:0.459413 6:0.242231 7:0.588816 8:0.403696 9:-0.2998 10:0.300717 11:0.0117463 12:0.249824 13:0.42885 14:0.593383 15:-0.0932217 16:-0.395464 17:-0.280463 18:-0.293368 19:-0.410946 20:0.185772 
-1 1:0.593638 2:0.204917 3:-0.108202 4:0.361804 5:0.405959 6:-0.449662 7:0.277431 8:-0.368647 9:-0.243973 10:-0.357391 11:-0.3606 12:-0.0891594 13:-0.191521 14:-0.610118 15:-0.11073 16:0.46944 17:-0.424106 18:0.151014 19:-0.216619 20:0.185772 
-1 1:-0.335945 2:-0.0709929 3:-0.299305 4:0.327149 5:-0.0299436 6:-0.122796 7:-0.0420971 8:-0.164805 9:0.218801 10:0.107217 11:0.252143 12:0.206515 13:-0.122524 14:0.194618 15:0.21589 16:0.133323 17:0.515036 18:0.517 19:0.331781 20:0.0916517 
-1 1:0.0428926 2:0.0403994 3:0.9615 4:0.279317 5:-0.0567427 6:-0.0773624 7:0.645623 8:0.714255 9:-0.109324 10:0.727164 11:0.0713696 12:0.64977 13:0.668351 14:0.865568 15:0.399321 16:0.0857947 17:0.585745 18:-0.244982 19:0.159077 20:0.185772 
-1 1:-0.882921 2:-0.00964274 3:-0.903552 4:0.399248 5:0.938826 6:-0.700079 7:-0.012263 8:-0.357005 9:-0.951844 10:-0.787155 11:-0.190834 12:-0.00387278 13:0.26529 14:-0.311392 15:-0.386624 16:-0.699019 17:-0.641765 18:-0.889558 19:-0.3063 20:-0.45532 
-1 1:-0.0676671 2:0.117506 3:-0.195717 4:0.332407 5:0.403157 6:-0.147283 7:0.46218 8:-0.0365273 9:-0.235479 10:-0.0913005 11:-0.104241 12:-0.054577 13:0.298207 14:0.0077661 15:-0.307376 16:0.0634796 17:0.158048 18:-0.0529741 19:-0.361466 20:0.185772 
-1 1:0.137155 2:0.445122 3:-0.114919 4:0.510742 5:-0.557298 6:-0.503885 7:0.45041 8:0.27621 9:-0.259703 10:0.45042 11:0.33926 12:-0.245027 13:0.634533 14:0.191107 15:0.658417 16:-0.23428 17:0.426729 18:0.129597 19:-0.0246026 20:0.770201 
-1 1:-0.186088 2:0.0555146 3:-0.250501 4:0.102463 5:0.275698 6:-0.0811615 7:-0.0623855 8:-0.457561 9:-0.190108 10:-0.668032 11:-0.371734 12:-0.0106516 13:-0.136774 14:-0.142995 15:0.158363 16:-0.555947 17:-0.341644 18:-0.0819811 19:-0.3063 20:0.514551 
-1 1:-0.144071 2:0.188387 3:-0.790765 4:0.371609 5:0.34535 6:-0.377647 7:-0.31803 8:-0.870885 9:-0.181065 10:-0.138969 11:0.147095 12:0.224629 13:0.483472 14:-0.615018 15:0.330465 16:0.341256 17:-0.168381 18:-0.316409 19:-0.3063 20:-0.466154 
-1 1:0.314445 2:0.313127 3:-0.467158 4:0.479477 5:-0.654109 6:-0.732321 7:-0.0677649 8:0.260857 9:-0.21952 10:-0.00372433 11:0.100323 12:0.214829 13:0.79435 14:0.160827 15:0.0666894 16:0.711751 17:-0.168381 18:0.456178 19:-0.0859344 20:0.0290074 
-1 1:0.483391 2:0.0927597 3:0.253871 4:0.471981 5:0.273319 6:0.301204 7:0.454554 8:0.519826 9:0.0375387 10:0.641634 11:0.486806 12:0.407225 13:0.459299 14:0.526201 15:0.242593 16:-0.352539 17:-0.121633 18:0.0861841 19:-0.101514 20:-0.118342 
-1 1:-0.00884707 2:0.275378 3:-0.642339 4:0.318856 5:0.510297 6:-0.430745 7:0.0316373 8:-0.262453 9:-0.529329 10:0.0303003 11:-0.133343 12:0.402241 13:0.47366 14:-0.293489 15:-0.20487 16:-0.0681756 17:-0.628205 18:-0.288063 19:-0.254462 20:0.0394469 
-1 1:0.17717 2:-0.151618 3:0.504635 4:0.0707154 5:0.349914 6:0.159639 7:0.364927 8:0.0271774 9:-0.501869 10:0.330316 11:-0.144803 12:0.0300373 13:0.34362 14:0.87687 15:0.333761 16:0.146899 17:0.00225462 18:-0.312989 19:-0.238281 20:0.179856 
-1 1:0.429908 2:0.110392 3:0.0729439 4:0.437281 5:0.0688064 6:0.711846 7:0.00605359 8:0.175042 9:-0.108501 10:-0.135783 11:0.12212 12:0.213089 13:0.209719 14:0.0821435 15:0.527622 16:0.110805 17:0.00805217 18:0.377826 19:-0.348795 20:-0.0516937 
-1 1:0.0401439 2:0.134941 3:-0.359118 4:0.30487 5:0.560939 6:0.0541941 7:-0.0698495 8:-0.133723 9:-0.161533 10:-0.548172 11:-0.257473 12:0.274586 13:-0.0408526 14:0.215704 15:0.00260686 16:0.618485 17:-0.464523 18:-0.0728408 19:-0.3063 20:0.0852916 
