svm_type c_svc
kernel_type rbf
gamma 0.047619
nr_class 2
total_sv 186
rho 0.591484
label 1 0
probA -1.38298
probB -0.608927
nr_sv 91 95
SV
1 1:-0.655449 2:-0.828954 3:0.68863 4:-0.192844 5:-0.551563 6:-0.611306 7:-0.078079 8:-0.592628 9:-0.383775 10:-0.216419 11:-0.57692 12:-0.46646 13:-0.278279 14:-0.554473 15:-0.550135 16:0.219936 17:0.310659 18:-0.878342 19:-0.529445 20:-1 21:0.441262 
1 1:0.551014 2:0.69154 3:-0.247616 4:-0.0518225 5:0.0783711 6:0.045662 7:0.474596 8:0.321256 9:0.765297 10:0.985706 11:0.718834 12:0.307753 13:0.75356 14:0.0554771 15:-0.153967 16:-0.511182 17:-0.40727 18:0.497535 19:0.56925 20:0.547733 21:0.336796 
1 1:0.46915 2:0.574519 3:-0.0991705 4:-0.352092 5:0.0298832 6:-0.623404 7:0.350451 8:0.217925 9:0.471574 10:0.635217 11:0.768278 12:0.0535507 13:0.686076 14:0.719647 15:0.551494 16:-0.393736 17:-0.56352 18:-0.00919168 19:0.267143 20:-0.0406092 21:-0.232398 
1 1:0.370075 2:-0.0597032 3:0.00744027 4:-0.781182 5:-0.224077 6:-0.568136 7:-0.179746 8:-0.42396 9:-0.765208 10:-0.414853 11:-0.728625 12:-0.252875 13:-0.225991 14:0.294872 15:-0.0310527 16:0.356967 17:-0.145769 18:-0.31358 19:0.122269 20:0.0184976 21:-0.633372 
1 1:-0.141009 2:0.765547 3:0.110024 4:-0.352685 5:0.0153094 6:-0.23224 7:0.00541338 8:-0.302984 9:-0.347452 10:-0.211465 11:0.115095 12:0.0512672 13:0.882155 14:0.00444113 15:0.0286177 16:0.198025 17:-0.108319 18:0.647355 19:-0.0420633 20:-0.193105 21:0.297826 
1 1:1 2:-0.216326 3:0.355713 4:-0.375991 5:-0.318486 6:0.369009 7:-0.169154 8:1 9:0.264208 10:-0.820925 11:-0.215018 12:-0.294026 13:0.846298 14:-0.032819 15:0.0964311 16:0.162276 17:0.0895982 18:0.483661 19:0.680078 20:0.215274 21:0.690218 
1 1:-0.185614 2:0.0840374 3:0.421529 4:-0.0360147 5:-0.045542 6:-0.0926613 7:-0.0477712 8:-0.0265192 9:0.278177 10:0.180211 11:-0.0765255 12:0.449772 13:-0.0886273 14:0.732185 15:-0.0773792 16:0.0397985 17:-0.810158 18:-0.204124 19:-0.167429 20:0.19446 21:0.240166 
1 1:0.0992958 2:0.0199877 3:0.204404 4:0.0290686 5:-0.602573 6:0.154678 7:-0.448781 8:-0.190553 9:-0.576207 10:-0.141397 11:0.061781 12:0.144117 13:-0.0510369 14:-0.389179 15:0.0634138 16:0.131255 17:0.434267 18:0.0575848 19:0.107342 20:-0.0908606 21:0.00346488 
1 1:0.0628675 2:0.601018 3:0.632494 4:0.338145 5:-0.114176 6:0.0839712 7:0.115318 8:0.136135 9:0.208478 10:0.543471 11:-0.582675 12:0.16947 13:-0.0171236 14:0.0911974 15:0.305923 16:-0.0165383 17:0.360272 18:-0.0539469 19:-0.121094 20:-0.247189 21:-0.0191579 
1 1:-0.127392 2:0.162412 3:0.21719 4:-0.432321 5:-0.078549 6:0.231242 7:-0.369491 8:-0.171221 9:-0.278026 10:0.173085 11:-0.247051 12:0.110088 13:0.240759 14:-0.411239 15:0.137722 16:0.350862 17:0.116571 18:0.173241 19:0.026462 20:-0.00776226 21:-0.0665636 
1 1:-0.867961 2:-0.478678 3:0.30625 4:-0.415718 5:-0.899912 6:-0.132974 7:-0.447804 8:-0.503441 9:-0.654507 10:-0.565771 11:-0.373891 12:-0.286198 13:-0.0800178 14:-0.139937 15:-0.450464 16:0.0577648 17:0.304981 18:-0.67609 19:-0.865256 20:-0.618004 21:-0.364023 
1 1:0.191803 2:0.253334 3:-0.153715 4:-0.201005 5:0.0860931 6:0.354195 7:0.0916422 8:0.155091 9:0.220776 10:0.241336 11:0.148987 12:0.33809 13:0.317326 14:0.353636 15:0.427108 16:-0.892204 17:-0.376133 18:0.466147 19:0.679836 20:0.255326 21:0.374857 
1 1:-0.182651 2:-0.331961 3:0.211403 4:-0.0613806 5:-0.297695 6:0.128675 7:-0.706382 8:-0.319561 9:-0.224861 10:-0.413319 11:-0.332856 12:0.263706 13:0.0881435 14:-0.14814 15:0.306541 16:0.333548 17:0.0588598 18:-0.504545 19:0.411162 20:-0.25807 21:-0.208084 
1 1:0.21 2:0.0906509 3:-0.0221326 4:-0.276447 5:-0.0926638 6:0.0960199 7:-0.287672 8:-0.0746527 9:0.174623 10:-0.396188 11:-0.208059 12:0.447182 13:0.361654 14:0.502011 15:0.0328993 16:0.200828 17:0.205619 18:-0.155861 19:0.633709 20:0.0184976 21:-0.190562 
1 1:0.427215 2:0.0225146 3:-0.130092 4:0.0481217 5:-0.0741183 6:-0.308469 7:-0.45224 8:-0.221003 9:0.729277 10:0.741586 11:0.041369 12:0.444297 13:0.527355 14:-0.393725 15:0.405186 16:0.235421 17:-0.700373 18:-0.0564975 19:0.333415 20:0.376722 21:0.441262 
1 1:-0.115568 2:0.259029 3:-0.157388 4:-0.533385 5:0.0912967 6:0.175176 7:-0.353441 8:0.184639 9:0.219697 10:-0.116615 11:-0.33512 12:0.296343 13:0.401089 14:-1 15:0.146498 16:0.446447 17:-0.397016 18:0.209789 19:0.122564 20:0.218489 21:0.316084 
1 1:-0.367227 2:-0.143836 3:0.423573 4:0.0157853 5:-0.617138 6:-0.511404 7:-0.508666 8:-0.490035 9:0.104844 10:0.324308 11:-0.687853 12:-0.0189129 13:-0.111347 14:-0.148988 15:-0.266092 16:-0.470865 17:0.152491 18:-0.0673984 19:-0.994797 20:-0.469974 21:-0.351901 
1 1:0.41251 2:0.106066 3:-0.00829106 4:-0.0498995 5:-0.162175 6:-0.278723 7:-0.100513 8:0.244255 9:-0.0157124 10:0.0940556 11:-0.0483049 12:0.577468 13:0.114332 14:-0.0474143 15:0.0723083 16:-0.103561 17:-0.0774249 18:0.0663772 19:0.267143 20:-0.0845433 21:0.441262 
1 1:0.249235 2:0.352117 3:-0.0119374 4:-0.194657 5:0.32366 6:0.00406946 7:-0.218847 8:0.0730955 9:0.354547 10:0.212286 11:-0.0601548 12:0.424528 13:0.6442 14:0.690631 15:-0.432087 16:-0.298473 17:-1 18:0.528823 19:0.256251 20:0.202128 21:0.52823 
1 1:0.464596 2:0.155438 3:0.0455513 4:-0.169707 5:-0.206903 6:-0.0102073 7:-0.619115 8:-0.186265 9:0.418037 10:0.376841 11:-0.28756 12:0.184306 13:0.123176 14:0.267068 15:-0.224313 16:0.070771 17:-0.135151 18:-0.254009 19:-0.219802 20:-0.00186733 21:0.19482 
1 1:-0.617261 2:0.0523437 3:0.579755 4:-0.744795 5:-0.496048 6:0.0696302 7:0.171235 8:-0.098673 9:-0.64978 10:-0.704816 11:-0.0610852 12:-0.034941 13:-0.0588385 14:-0.00174475 15:0.11823 16:0.51657 17:-0.0312199 18:-0.832553 19:0.269093 20:-0.730422 21:-0.506252 
1 1:-0.123656 2:0.429506 3:0.18239 4:-0.458018 5:-0.0361815 6:-0.040741 7:0.0331671 8:-0.286229 9:-0.588796 10:-0.229523 11:-0.228305 12:-0.120688 13:0.417564 14:-0.024404 15:-0.289001 16:0.371643 17:0.0351269 18:-0.049064 19:-0.755092 20:-0.36819 21:-0.268642 
1 1:0.0461445 2:0.488093 3:-0.372313 4:-0.327575 5:0.235444 6:0.189618 7:-0.0684709 8:0.72817 9:0.319218 10:0.467074 11:-0.100925 12:0.279801 13:0.50412 14:0.73241 15:1 16:0.136232 17:-0.46944 18:0.527466 19:0.111286 20:0.437831 21:0.56817 
1 1:0.195674 2:0.337402 3:0.150417 4:-0.249362 5:0.214143 6:-0.44574 7:0.293659 8:0.278409 9:0.146869 10:-0.12271 11:-0.280286 12:0.359266 13:-0.111649 14:0.823246 15:0.202035 16:0.286919 17:-0.970922 18:0.101799 19:0.297303 20:0.0184976 21:-0.131504 
1 1:0.362831 2:0.353054 3:-0.0459634 4:-0.603992 5:0.0973889 6:0.364989 7:-0.56392 8:0.193187 9:0.720067 10:0.888764 11:-0.644762 12:0.228999 13:0.904337 14:0.246968 15:0.872729 16:-0.599297 17:-0.535585 18:0.494497 19:0.220212 20:0.820333 21:0.441262 
1 1:0.343342 2:-0.161806 3:0.017067 4:0.000751168 5:0.0366712 6:0.247368 7:0.420217 8:0.536322 9:-0.120806 10:0.207745 11:0.0882445 12:0.298541 13:0.222795 14:-0.163801 15:0.187369 16:-0.486408 17:-0.125587 18:0.163635 19:-0.238501 20:-0.327535 21:0.178631 
1 1:0.0894711 2:0.416786 3:0.195378 4:-0.431784 5:-0.117547 6:-0.00448255 7:-0.215106 8:-0.0387245 9:0.585264 10:0.474417 11:0.23859 12:0.00485332 13:0.570067 14:0.601275 15:0.665798 16:0.555693 17:-0.163113 18:0.514604 19:-0.104526 20:0.191912 21:0.294628 
1 1:0.462088 2:-0.0145402 3:0.304469 4:-0.0825447 5:-0.200994 6:0.151631 7:0.0033146 8:-0.0177524 9:-0.123429 10:0.0511674 11:-0.0620723 12:0.250485 13:0.0670239 14:-0.0388163 15:0.342364 16:-0.00513433 17:0.111456 18:0.209789 19:-0.077635 20:0.0184976 21:0.441262 
1 1:-0.37533 2:0.00438579 3:0.115673 4:-0.536998 5:-0.304466 6:0.198842 7:-0.187549 8:-0.111903 9:-0.0848432 10:-0.17326 11:-0.214304 12:-0.459198 13:-0.0382658 14:-0.276365 15:-0.166016 16:-0.115161 17:0.31537 18:-0.0417273 19:0.267143 20:-0.10958 21:-0.561412 
1 1:0.110212 2:0.609078 3:0.253737 4:-0.141625 5:0.0443568 6:0.232489 7:-0.0027605 8:0.0253601 9:-0.102347 10:0.127184 11:0.276009 12:0.0528631 13:0.590864 14:-0.12359 15:0.0251874 16:0.702979 17:0.274132 18:-0.033062 19:0.21448 20:-0.392669 21:0.441262 
1 1:0.3892 2:0.311396 3:0.195507 4:-0.203021 5:0.0548709 6:-0.0591641 7:-0.598131 8:0.0833001 9:0.314705 10:0.462683 11:-0.658512 12:0.233901 13:0.602627 14:-0.0989069 15:0.220115 16:0.495845 17:-0.0598866 18:0.457408 19:0.0503641 20:-0.206047 21:-0.142266 
1 1:0.312291 2:0.596203 3:0.143494 4:-0.177212 5:0.158792 6:0.653391 7:-0.0701627 8:0.314134 9:-0.210972 10:0.322496 11:-0.344809 12:0.391804 13:0.777714 14:0.468795 15:0.213825 16:0.822958 17:0.233853 18:0.209789 19:0.368309 20:0.00191724 21:0.054252 
1 1:0.322262 2:0.00135362 3:-0.0738932 4:-0.566207 5:-0.00576628 6:0.34857 7:0.254066 8:-0.390016 9:-0.713684 10:-0.564772 11:-0.251221 12:0.0270144 13:0.0465542 14:0.509714 15:0.0320644 16:0.256582 17:0.0345959 18:-0.258914 19:-0.368493 20:-0.318264 21:-0.583679 
1 1:0.318386 2:0.346612 3:0.160272 4:-0.51707 5:0.0811285 6:0.167892 7:-0.0108814 8:0.538226 9:0.0514963 10:-0.336064 11:-0.344289 12:-0.0308001 13:0.213896 14:0.427512 15:0.0175188 16:0.193403 17:0.162986 18:-0.00156034 19:-0.300603 20:0.21206 21:0.345538 
1 1:-0.22592 2:0.276511 3:0.487155 4:-0.0787556 5:0.0328235 6:0.0507591 7:0.00455036 8:0.0426285 9:-0.377692 10:0.0152239 11:-0.0649076 12:0.0804573 13:0.320221 14:-0.0300315 15:-0.0317771 16:0.38892 17:0.299358 18:-0.488454 19:-0.00876089 20:-0.246509 21:0.441262 
1 1:-0.23942 2:0.256093 3:0.342949 4:-0.0911329 5:0.131981 6:0.287596 7:-0.137062 8:0.110207 9:-0.214521 10:-0.222236 11:-0.122746 12:0.106355 13:0.286659 14:0.00833992 15:0.358093 16:0.316461 17:0.164281 18:-0.033379 19:-0.131702 20:0.0184976 21:-0.378663 
1 1:-0.805702 2:0.132931 3:-0.085527 4:-1 5:0.0194938 6:-0.0483876 7:0.469077 8:0.113916 9:-0.874953 10:-0.394677 11:0.0393325 12:-1 13:0.472154 14:-0.564783 15:-0.430541 16:0.894924 17:-0.125332 18:0.367939 19:0.230878 20:-0.479677 21:-0.0138554 
1 1:0.21828 2:0.0689228 3:-0.0990991 4:-0.382842 5:-0.124902 6:0.271268 7:-0.375729 8:0.158731 9:0.0545121 10:-0.0773535 11:-0.373177 12:0.423753 13:0.231227 14:0.251011 15:0.285537 16:0.343202 17:0.422062 18:-0.0705263 19:-0.0271628 20:0.192219 21:-0.288153 
1 1:0.163152 2:0.76577 3:-0.0308216 4:-0.120816 5:0.588634 6:0.107407 7:0.0819291 8:0.370564 9:0.396507 10:0.420588 11:-0.0453471 12:0.581395 13:0.797426 14:0.50728 15:0.559127 16:0.308105 17:-0.605102 18:-0.00164635 19:0.502341 20:0.427329 21:0.37334 
1 1:0.218156 2:0.323152 3:0.385096 4:-0.0731086 5:0.320155 6:-0.00891458 7:-0.20122 8:0.0476448 9:0.0248314 10:-0.224457 11:-0.542153 12:-0.0063211 13:0.252068 14:0.28635 15:0.541982 16:-0.0766853 17:0.16509 18:0.209789 19:0.288437 20:-0.342057 21:-0.0149023 
1 1:0.196463 2:0.0570988 3:0.263082 4:-0.0409746 5:-0.0151085 6:0.0898687 7:-0.405211 8:-0.0036734 9:0.0177539 10:-0.171135 11:-0.54381 12:0.0337194 13:0.0980981 14:0.373051 15:-0.135663 16:-0.367331 17:0.256127 18:-0.095311 19:-0.196725 20:-0.674073 21:-0.135521 
1 1:0.105665 2:-0.0980474 3:-0.0426465 4:-0.271681 5:-0.237914 6:-0.0661517 7:-0.527248 8:-0.576262 9:0.0136388 10:-0.327094 11:-0.602189 12:0.206026 13:-0.0547208 14:0.426743 15:0.497537 16:-0.806752 17:-0.184878 18:0.209789 19:-0.635854 20:-0.362784 21:-0.340564 
1 1:0.295557 2:0.402801 3:-0.0855284 4:-0.550638 5:0.198447 6:0.301117 7:-0.494517 8:-0.178089 9:-0.330743 10:-0.527748 11:-0.107768 12:-0.267668 13:0.0742697 14:0.122917 15:0.216372 16:0.0887513 17:0.0955272 18:0.2182 19:-0.0698739 20:-0.212137 21:0.149469 
1 1:0.206942 2:0.489996 3:-0.106714 4:-0.333851 5:0.20573 6:0.510731 7:-0.00457789 8:0.269501 9:0.1517 10:0.272504 11:-0.276055 12:0.266641 13:0.722034 14:0.604345 15:0.516881 16:0.282617 17:-0.142317 18:0.085165 19:0.227269 20:-0.147238 21:0.441262 
1 1:0.270601 2:0.127694 3:0.313161 4:0.000452324 5:-0.096254 6:0.161415 7:0.331175 8:-0.119038 9:0.0622135 10:-0.0475437 11:0.0271325 12:0.360718 13:0.0203471 14:0.61298 15:0.338247 16:0.187108 17:-0.158681 18:0.149805 19:0.204165 20:-0.337473 21:-0.308543 
1 1:-0.71008 2:-0.0758272 3:0.447477 4:-0.33187 5:-0.381369 6:-0.529367 7:-0.343867 8:-0.42826 9:-0.346295 10:-0.14368 11:-0.23944 12:-0.324183 13:0.0874015 14:-0.305835 15:-0.139799 16:0.0437606 17:0.144397 18:-0.965995 19:-0.967323 20:0.0184976 21:-0.627554 
1 1:0.207672 2:0.656383 3:0.0684336 4:-0.255873 5:0.164817 6:-0.279531 7:0.348183 8:0.582654 9:0.0488578 10:0.142235 11:0.0689362 12:0.271429 13:-0.227247 14:0.706112 15:-0.00181547 16:0.288919 17:-0.152118 18:0.449999 19:0.375802 20:-0.282269 21:0.441262 
1 1:0.0284874 2:0.145774 3:0.146744 4:-0.073388 5:0.229787 6:-0.0517984 7:0.298024 8:0.0717618 9:0.151402 10:-0.149691 11:-0.0423419 12:0.354569 13:0.200518 14:0.470225 15:0.155558 16:-0.838212 17:-0.281396 18:0.314201 19:0.376766 20:-0.379841 21:0.441262 
1 1:-0.353184 2:0.231671 3:0.255319 4:-0.489403 5:-0.176882 6:0.0919643 7:0.0471846 8:-0.336199 9:-0.242411 10:-0.283177 11:-0.0444073 12:0.25124 13:0.398917 14:0.217144 15:-0.016848 16:0.472806 17:0.138471 18:-0.165411 19:0.267143 20:-0.112635 21:0.275356 
1 1:0.156737 2:-0.00647273 3:-0.05857 4:-0.372311 5:-0.390603 6:-0.109674 7:-1 8:-0.217099 9:0.0387857 10:-0.192167 11:-0.223597 12:0.0361989 13:-0.0542437 14:0.488243 15:-0.112376 16:-0.169061 17:0.39042 18:0.0236423 19:-0.130602 20:0.197624 21:-0.027389 
1 1:-0.0646985 2:0.582026 3:-0.161718 4:-0.202272 5:0.021912 6:-0.0516196 7:0.267592 8:0.362483 9:-0.125115 10:-0.247243 11:0.082082 12:0.239002 13:-0.114995 14:-0.738787 15:0.104688 16:0.762347 17:-0.387412 18:-0.231022 19:-0.541517 20:-0.298224 21:0.441262 
1 1:-0.529388 2:-0.0688138 3:1 4:1 5:0.150282 6:0.306224 7:1 8:0.609379 9:0.30601 10:0.690744 11:-0.957465 12:0.969922 13:-0.3287 14:0.701227 15:-0.811443 16:0.710931 17:1 18:0.209789 19:0.267143 20:-0.0132305 21:1 
1 1:0.355512 2:0.64438 3:-0.0979576 4:-0.295807 5:0.523302 6:-0.249078 7:0.284783 8:0.390822 9:0.0882764 10:0.589869 11:-0.0949147 12:0.564157 13:0.998713 14:0.489502 15:0.0589327 16:0.0755484 17:-0.725659 18:0.504857 19:0.409054 20:-0.433938 21:0.343453 
1 1:0.68351 2:0.389504 3:0.256082 4:0.0716334 5:0.306641 6:0.286974 7:0.510885 8:0.326597 9:0.518 10:0.51301 11:-0.247125 12:0.194844 13:-0.00715354 14:-0.490209 15:0.00669735 16:-0.54191 17:-0.503378 18:0.209789 19:0.722868 20:0.0184976 21:0.439996 
1 1:-0.150123 2:-0.701062 3:0.62281 4:0.477626 5:-0.0282433 6:-0.141188 7:0.349727 8:-0.0694864 9:0.269225 10:0.232166 11:-0.157851 12:0.244959 13:0.136554 14:-0.24926 15:-0.271155 16:-0.166485 17:0.238884 18:0.162304 19:0.267143 20:-0.565171 21:0.00225875 
1 1:0.0829878 2:0.530294 3:0.323528 4:-0.306156 5:0.23343 6:-0.521018 7:0.086703 8:0.188994 9:0.205585 10:0.167436 11:0.163372 12:0.21275 13:0.391502 14:-0.675766 15:-0.206535 16:0.252322 17:-0.367053 18:-0.373151 19:0.000957394 20:-0.163664 21:0.210795 
1 1:0.634615 2:0.273042 3:0.0163677 4:-0.15252 5:-0.172562 6:0.122253 7:-0.134996 8:-0.069787 9:0.171095 10:0.535402 11:-0.0243542 12:0.4384 13:0.282149 14:0.730584 15:-0.0368058 16:-0.150837 17:-0.0761686 18:-0.261341 19:0.229685 20:0.193567 21:0.188154 
1 1:0.562914 2:0.599626 3:-0.200574 4:-0.301322 5:0.263611 6:-0.204949 7:0.140627 8:0.643956 9:0.516342 10:0.959242 11:0.279293 12:0.727672 13:0.561608 14:0.440657 15:-0.604968 16:0.0263847 17:-0.502343 18:-0.0215554 19:0.267143 20:0.401828 21:0.626802 
1 1:0.0929321 2:0.568013 3:0.24441 4:-0.0418493 5:0.0758726 6:0.278483 7:0.277518 8:0.336784 9:0.292211 10:0.607566 11:0.302292 12:0.596243 13:0.770266 14:-0.134671 15:0.188221 16:-0.264755 17:-0.0745755 18:0.965346 19:0.139427 20:0.22041 21:0.441262 
1 1:-0.119499 2:-0.302112 3:0.328588 4:-0.475678 5:-0.625794 6:-0.545181 7:-0.617766 8:-0.427121 9:0.0932885 10:-0.134218 11:-0.0934043 12:-0.0417321 13:0.158033 14:-0.311503 15:-0.37964 16:-0.378635 17:-0.0478596 18:0.00220435 19:0.0491978 20:-0.680201 21:0.0318859 
1 1:-0.419537 2:0.132829 3:0.152257 4:-0.268897 5:-0.0851085 6:-0.0832957 7:-0.338823 8:0.0173841 9:-0.429885 10:-0.160657 11:-0.194405 12:-0.0408046 13:0.268154 14:0.638599 15:0.196126 16:0.0972667 17:0.177085 18:0.17559 19:-0.36231 20:-0.257931 21:0.00484208 
1 1:0.309887 2:0.573718 3:-0.127238 4:-0.0768546 5:-0.164905 6:0.414262 7:-0.305649 8:-0.10739 9:0.143313 10:0.533746 11:-0.499535 12:0.355161 13:0.331929 14:0.364592 15:0.314954 16:0.476834 17:-0.0333194 18:-0.0842895 19:0.267143 20:0.471644 21:0.173937 
1 1:0.108297 2:0.842961 3:0.149809 4:-0.184932 5:0.231363 6:-0.529559 7:0.394115 8:0.433053 9:-0.0159518 10:0.212027 11:-0.0198001 12:0.204388 13:0.385435 14:0.311675 15:-0.294079 16:0.465928 17:-0.284411 18:0.0867844 19:-0.116879 20:-0.382753 21:0.441262 
1 1:0.458881 2:0.365633 3:-0.182052 4:-0.370845 5:-0.0482096 6:0.10918 7:-0.000696228 8:0.30774 9:0.32191 10:0.340618 11:-0.267417 12:0.197548 13:0.202144 14:-0.0740804 15:0.168039 16:-0.103561 17:-0.0405873 18:0.706018 19:0.187411 20:0.138358 21:0.197068 
1 1:-0.441978 2:-0.0416187 3:0.375397 4:-0.125093 5:-0.471509 6:-0.283685 7:-0.388459 8:-0.0476805 9:-0.386528 10:-0.27026 11:-0.268136 12:0.217991 13:-0.682252 14:0.155274 15:0.114788 16:-0.400319 17:0.499181 18:-0.0141599 19:0.267143 20:-0.615767 21:0.441262 
1 1:0.400974 2:-0.0110129 3:-0.0172356 4:0.217745 5:-0.230706 6:0.561585 7:0.0301176 8:-0.11913 9:-0.264621 10:0.333076 11:0.00860574 12:0.551493 13:0.387397 14:-0.149959 15:0.18825 16:0.287415 17:0.116936 18:-0.260022 19:-0.226117 20:-0.0823819 21:0.014192 
1 1:-0.0514112 2:-0.181785 3:0.254168 4:-0.487525 5:-0.394958 6:-0.639459 7:0.0437888 8:-0.427051 9:-0.0778158 10:0.182965 11:-0.324514 12:-0.365596 13:0.211043 14:0.210761 15:-0.401268 16:0.0813265 17:0.0986478 18:-0.11681 19:-0.623912 20:-0.591289 21:-0.0307846 
1 1:0.515614 2:0.384539 3:0.0776592 4:-0.0469852 5:-0.121661 6:0.211198 7:-0.235702 8:-0.345517 9:0.0883879 10:-0.00849449 11:-0.0288102 12:0.197775 13:0.586727 14:0.512781 15:0.633211 16:-0.19117 17:0.295951 18:-0.29178 19:0.491007 20:0.240217 21:0.160485 
1 1:-0.186644 2:0.324544 3:0.250889 4:-0.282298 5:-0.102139 6:-0.187682 7:-0.424923 8:-0.134287 9:-0.215845 10:-0.223278 11:-0.061645 12:0.33035 13:-0.0813379 14:0.4931 15:-0.0280267 16:0.0655966 17:0.108092 18:0.167938 19:-0.199558 20:-0.0642072 21:-0.437414 
1 1:0.0810289 2:-0.0412151 3:-0.057057 4:-0.625537 5:0.0165861 6:-0.0166648 7:-0.65347 8:0.0289618 9:-0.695797 10:-0.584894 11:-0.466294 12:0.0470937 13:0.317205 14:0.698012 15:0.232057 16:0.451193 17:0.218323 18:-0.112052 19:-0.0119919 20:-0.310974 21:0.148702 
1 1:-0.266562 2:-0.169524 3:0.249237 4:-0.134783 5:-0.159141 6:0.398263 7:-0.0378626 8:-0.293774 9:-0.395268 10:-0.29354 11:-0.265055 12:-0.0921117 13:0.0719109 14:-0.0421035 15:-0.129002 16:0.330983 17:0.400025 18:-0.177072 19:-0.229996 20:-0.259462 21:-0.085565 
1 1:0.182049 2:0.367236 3:0.351656 4:-0.0396383 5:-0.055965 6:0.0137638 7:-0.180208 8:-0.138737 9:0.170864 10:0.480029 11:-0.116813 12:0.362353 13:-0.0237061 14:0.290041 15:0.122423 16:-0.308948 17:-0.127665 18:-0.467306 19:0.527175 20:-0.231313 21:0.125206 
1 1:0.723391 2:0.541194 3:0.088524 4:-0.515704 5:-0.272967 6:-0.35056 7:-0.183875 8:0.34212 9:-0.0932105 10:0.175607 11:-0.16026 12:0.161527 13:0.52302 14:0.327209 15:0.373998 16:0.800889 17:0.0324447 18:0.214117 19:0.0693779 20:-0.590199 21:-0.0294044 
1 1:-0.0201303 2:0.484943 3:0.0848946 4:-0.151978 5:0.47359 6:0.741609 7:0.139213 8:0.270735 9:0.198262 10:0.75435 11:0.134266 12:0.473659 13:0.742183 14:0.663618 15:0.615292 16:0.396852 17:0.158249 18:-0.144647 19:0.543299 20:0.356125 21:0.119071 
1 1:-0.474771 2:-0.301214 3:0.411601 4:0.173237 5:-0.375163 6:-0.222602 7:0.142698 8:-0.103762 9:-0.224856 10:-0.390899 11:-0.35287 12:-0.0821644 13:-0.554619 14:0.310121 15:-0.109094 16:0.567522 17:0.574031 18:0.209789 19:0.0918018 20:-0.811532 21:-0.13427 
1 1:0.331468 2:0.29598 3:0.0513118 4:-0.510486 5:0.207357 6:-0.1012 7:-0.287498 8:0.301336 9:-0.205777 10:-0.686239 11:-0.151124 12:0.169795 13:0.0165245 14:0.399355 15:0.230889 16:-0.0733991 17:-0.185964 18:0.232551 19:0.713804 20:0.209276 21:-0.012648 
1 1:0.295374 2:0.0743732 3:0.249293 4:-0.321426 5:-0.109783 6:-0.296738 7:-0.309901 8:-0.0396075 9:-0.134506 10:0.0494851 11:-0.49104 12:0.115957 13:0.292371 14:0.355352 15:0.0490526 16:-0.426406 17:-0.336884 18:0.295561 19:-0.536809 20:0.0184976 21:0.0446307 
1 1:-0.0941992 2:0.307226 3:0.140634 4:-0.430002 5:0.0692279 6:0.220502 7:0.0164545 8:0.154802 9:-0.154868 10:0.173404 11:0.00376211 12:0.0665272 13:0.0782289 14:0.600447 15:-0.0726391 16:0.636875 17:0.165771 18:-0.392131 19:-0.0189687 20:-0.101107 21:-0.405337 
1 1:0.265128 2:0.163583 3:0.171605 4:-0.0461038 5:0.319766 6:-0.489358 7:-0.171885 8:0.357656 9:0.149486 10:0.119309 11:-0.180401 12:0.455126 13:0.114777 14:0.0128316 15:-0.204694 16:-0.322292 17:-0.325647 18:0.181439 19:0.583227 20:-0.23855 21:0.291213 
1 1:0.542816 2:0.501704 3:-0.348717 4:-0.466952 5:0.587571 6:-0.186226 7:-0.337519 8:0.464371 9:0.0550994 10:0.315312 11:-0.359018 12:0.457414 13:0.637732 14:0.636705 15:-0.156885 16:-0.144851 17:-0.913787 18:-0.150779 19:0.691615 20:0.454935 21:0.113496 
1 1:0.0886062 2:0.000718192 3:0.272656 4:-0.533597 5:-0.117149 6:-0.0457358 7:-0.0401381 8:0.113566 9:-0.242499 10:-0.0475003 11:-0.0923941 12:0.17056 13:0.320353 14:-0.127375 15:-0.382401 16:0.647443 17:0.201337 18:0.209789 19:0.0207391 20:0.225 21:0.441262 
1 1:0.316316 2:0.0572634 3:-0.159523 4:-0.282905 5:-0.206525 6:-0.138234 7:-0.532992 8:-0.185683 9:-0.143203 10:0.0527142 11:-0.00102798 12:0.43775 13:0.453849 14:0.707546 15:-0.142197 16:-0.033553 17:-0.398618 18:0.209789 19:0.211273 20:0.216942 21:0.0934487 
1 1:0.430224 2:0.504715 3:0.209687 4:-0.708094 5:0.386561 6:-0.73906 7:0.29938 8:0.987735 9:-0.314972 10:-0.342216 11:-0.94144 12:0.0832683 13:0.769449 14:0.259098 15:-0.322711 16:0.355478 17:-0.544176 18:-0.1258 19:0.630846 20:-0.107732 21:-0.559073 
1 1:-0.549305 2:-0.127522 3:0.14966 4:-0.299477 5:-0.57359 6:-0.137759 7:-0.526084 8:-0.31717 9:-0.678509 10:-0.29696 11:-0.305185 12:0.0535568 13:-0.336977 14:-0.201219 15:-0.63357 16:-0.263613 17:0.165556 18:-0.346449 19:-0.316857 20:-0.617834 21:-0.363812 
1 1:-0.107532 2:0.108581 3:0.0386961 4:-0.499626 5:-0.130822 6:-0.0432898 7:0.0633103 8:-0.0798099 9:-0.317343 10:-0.145869 11:-0.194221 12:0.0827015 13:0.155651 14:-0.318919 15:-0.0878985 16:0.0404967 17:0.0684462 18:-0.533005 19:0.112347 20:-0.515198 21:-0.233956 
1 1:-0.321089 2:0.608131 3:0.0203848 4:-0.490914 5:0.109241 6:-0.171417 7:0.0632617 8:-0.0243144 9:-0.201491 10:-0.118989 11:0.0298127 12:-0.162113 13:0.0637643 14:0.0408903 15:0.0696882 16:0.292467 17:-0.0107327 18:-0.0867054 19:-0.0441503 20:-0.256787 21:-0.1277 
1 1:0.25385 2:0.243969 3:0.217611 4:-0.111509 5:0.111882 6:0.13751 7:-0.214891 8:-0.505612 9:0.161826 10:0.244678 11:0.139194 12:0.36871 13:0.037355 14:0.169033 15:0.245932 16:-0.992422 17:-0.021297 18:0.463775 19:0.111043 20:-0.463455 21:0.441262 
1 1:-0.188584 2:0.738598 3:0.254963 4:-0.0766534 5:-0.104658 6:-0.708292 7:0.0165926 8:0.287534 9:-0.140334 10:0.347311 11:0.205601 12:0.425982 13:-0.189929 14:-0.163006 15:-0.580589 16:-0.237662 17:-0.0331794 18:0.10859 19:-0.0414156 20:0.0184976 21:0.473548 
1 1:0.384078 2:0.21379 3:0.0459356 4:-0.119909 5:-0.0728704 6:0.403867 7:-0.328255 8:-0.0442278 9:0.112536 10:0.230365 11:-0.163023 12:0.37126 13:0.264689 14:-0.128443 15:0.293428 16:-0.0161764 17:-0.0922308 18:0.0830427 19:-0.211778 20:0.386256 21:0.150886 
1 1:0.130482 2:-0.0356253 3:0.140882 4:-0.265392 5:-0.1446 6:0.311135 7:0.000623219 8:-0.0750241 9:-0.440132 10:0.18754 11:-0.0879394 12:0.322749 13:0.239123 14:0.24531 15:-0.109543 16:0.208126 17:0.360301 18:0.171571 19:-0.523448 20:0.116599 21:-0.243241 
1 1:0.14408 2:0.296279 3:0.246816 4:-0.101824 5:-0.228751 6:0.160001 7:-0.128188 8:-0.216269 9:-0.14045 10:-0.119557 11:-0.24073 12:0.176765 13:0.105909 14:-0.218192 15:-0.388943 16:0.139751 17:0.0116017 18:-0.224061 19:-0.390669 20:-0.118798 21:-0.128279 
-1 1:0.0591925 2:0.673 3:-0.340965 4:-0.325525 5:0.515948 6:0.13962 7:0.209875 8:-0.291991 9:0.214342 10:0.425787 11:0.178836 12:0.054924 13:0.452839 14:0.291301 15:0.661516 16:0.134691 17:-0.502343 18:0.196895 19:0.364944 20:0.245912 21:-0.169339 
-1 1:0.210747 2:0.281207 3:0.126282 4:0.0333963 5:0.488913 6:0.0371744 7:0.481432 8:0.302953 9:0.125303 10:0.277975 11:0.38323 12:0.266293 13:0.896251 14:-0.00271752 15:0.420579 16:0.443947 17:-0.786689 18:-0.03585 19:-0.134296 20:-0.019545 21:-0.380909 
-1 1:-0.164076 2:0.153109 3:0.0328604 4:-0.091948 5:0.0936726 6:0.267699 7:-0.0684228 8:-0.253821 9:-0.0696872 10:-0.218519 11:0.200684 12:0.257335 13:0.0488861 14:0.172 15:-0.165037 16:0.132712 17:0.128142 18:-0.0926552 19:-0.0503962 20:0.146609 21:-0.432547 
-1 1:0.39159 2:0.398113 3:-0.218091 4:-0.452615 5:0.2655 6:-0.65863 7:0.551182 8:0.0843597 9:-0.182552 10:0.206456 11:0.0714555 12:0.0233153 13:0.731605 14:0.438763 15:-0.167613 16:0.671044 17:0.663874 18:-0.424609 19:0.0582691 20:-0.673995 21:0.405773 
-1 1:-0.112294 2:0.108357 3:0.142248 4:-0.428199 5:-0.0454433 6:0.191601 7:-0.33067 8:0.0589301 9:-0.0822353 10:0.278082 11:-0.215294 12:0.165238 13:0.35246 14:0.77135 15:0.0204436 16:0.0201724 17:0.0570399 18:0.382554 19:-0.485411 20:0.191491 21:0.0891297 
-1 1:0.040518 2:0.548132 3:0.323393 4:-0.333238 5:0.167202 6:0.453077 7:-0.093873 8:0.168227 9:-0.159703 10:0.160275 11:-0.220487 12:0.380038 13:0.604636 14:0.597651 15:0.290011 16:0.14457 17:0.364384 18:0.782423 19:0.261432 20:0.327462 21:0.312038 
-1 1:0.0617192 2:0.33677 3:0.0178565 4:-0.133574 5:0.259576 6:0.395406 7:-0.357141 8:0.50213 9:-0.20576 10:-0.688976 11:0.447511 12:-0.186184 13:0.0507949 14:-0.154614 15:0.353904 16:0.103686 17:0.0567169 18:-0.0999364 19:0.287808 20:-0.579167 21:-0.314888 
-1 1:-0.236526 2:0.22567 3:-0.000177458 4:-0.437373 5:0.0452889 6:0.342798 7:-0.21269 8:0.0861256 9:-0.212577 10:-0.168358 11:-0.287162 12:-0.0955946 13:-0.0778737 14:0.162994 15:0.195364 16:-0.0336798 17:0.380027 18:-0.0362119 19:0.0676335 20:-0.203848 21:0.0145993 
-1 1:0.218968 2:0.034658 3:-0.133734 4:-0.804591 5:-0.06553 6:-0.254627 7:-0.733268 8:-0.453713 9:-0.128428 10:-0.0551562 11:-0.710454 12:-0.306041 13:0.523753 14:-0.424129 15:0.0102506 16:-0.205953 17:-0.1343 18:-0.0601728 19:0.440895 20:-0.175468 21:0.441262 
-1 1:0.434424 2:-0.0161865 3:0.0812138 4:-0.295253 5:-0.125492 6:0.624274 7:-0.388027 8:0.198042 9:0.112861 10:0.148243 11:-0.213767 12:0.00777922 13:0.180116 14:0.641235 15:0.351513 16:-0.158006 17:0.202016 18:0.0319862 19:0.080466 20:0.180061 21:0.104474 
-1 1:-0.1683 2:0.177145 3:0.261229 4:-0.307631 5:0.193842 6:0.434001 7:0.05589 8:0.0816997 9:-0.184847 10:-0.0631948 11:-0.0526107 12:0.117327 13:0.191974 14:0.0649541 15:0.21839 16:-0.625146 17:0.0831494 18:0.581035 19:0.704473 20:-0.264314 21:-0.215983 
-1 1:0.0821808 2:0.0111313 3:0.344612 4:-0.0790556 5:-0.228125 6:0.495549 7:-0.459162 8:0.0183183 9:0.0227554 10:0.122527 11:-0.361259 12:-0.178514 13:-0.0461892 14:0.144547 15:0.390708 16:-0.0558281 17:-0.0131652 18:-0.848461 19:-0.152224 20:-0.366724 21:-0.221271 
-1 1:0.16208 2:0.453018 3:-0.171436 4:-0.270372 5:0.449955 6:0.644958 7:0.519922 8:0.979962 9:0.545512 10:0.790143 11:-0.184241 12:0.459624 13:0.472795 14:0.185329 15:0.140999 16:0.472546 17:0.231001 18:0.291954 19:0.175444 20:0.542245 21:0.216511 
-1 1:-0.116503 2:0.38861 3:0.243954 4:-0.00192849 5:0.181156 6:-0.363633 7:0.373072 8:0.249553 9:-0.0218355 10:-0.297789 11:-0.0242386 12:0.405328 13:-0.0667958 14:0.169033 15:-0.31522 16:0.250475 17:-0.11612 18:-0.617308 19:0.436312 20:-0.200642 21:0.288291 
-1 1:-0.0456459 2:-0.189759 3:0.131913 4:-0.143798 5:-0.57558 6:-0.0184803 7:-0.214974 8:-0.225659 9:-0.495247 10:-0.156539 11:0.163025 12:0.0276258 13:-0.0855455 14:-0.0303623 15:-0.0323686 16:-0.593083 17:0.129433 18:-0.35232 19:0.427444 20:-0.385377 21:-0.36915 
-1 1:0.152332 2:0.193766 3:0.0580429 4:-0.319318 5:-0.252058 6:0.250032 7:-0.676088 8:-0.40861 9:0.227696 10:0.153526 11:-0.607454 12:0.119241 13:0.322197 14:0.595169 15:0.218133 16:0.147491 17:0.074013 18:-0.00342043 19:0.466054 20:-0.273141 21:-0.227151 
-0.7665261129432089 1:0.200313 2:0.443445 3:0.268971 4:0.0598207 5:-0.0218337 6:-0.069212 7:0.0617012 8:0.2769 9:-0.111817 10:-0.0458888 11:0.641911 12:0.0127273 13:0.288888 14:-0.364282 15:0.0677386 16:0.0632043 17:0.261726 18:0.279664 19:1 20:-0.0295277 21:-0.393539 
-1 1:-0.215175 2:0.0987909 3:0.378315 4:0.105277 5:-0.385551 6:0.52438 7:-0.054265 8:0.0564074 9:-0.27245 10:-1 11:-0.452428 12:-0.0129115 13:-0.329571 14:0.0605735 15:0.187339 16:0.512931 17:0.487757 18:-0.3132 19:0.267143 20:-0.120589 21:-0.0341461 
-1 1:-0.223457 2:0.344428 3:0.0619031 4:-0.177805 5:0.101255 6:0.602618 7:0.16701 8:-0.157615 9:-0.203267 10:-0.00572457 11:0.244353 12:0.297804 13:0.231472 14:0.345621 15:0.386625 16:-0.0722248 17:-0.430277 18:0.426128 19:-0.0538771 20:-0.576317 21:0.529352 
-1 1:0.589254 2:-0.0467405 3:0.106837 4:-0.0621502 5:-0.0975788 6:-0.339446 7:-0.322736 8:0.950939 9:0.358198 10:0.511676 11:-0.681817 12:-0.0149292 13:-0.654447 14:0.456962 15:-0.147915 16:0.147945 17:-0.361195 18:0.209789 19:-0.0817425 20:-0.220259 21:0.441262 
-1 1:-0.427052 2:0.0235383 3:0.390371 4:0.0774106 5:-0.207897 6:0.555215 7:-0.220825 8:-0.532737 9:-0.366527 10:-0.771002 11:-0.424581 12:-0.030387 13:-0.237624 14:0.249018 15:-0.0370682 16:0.209912 17:0.408496 18:-0.38493 19:-0.500797 20:-0.217722 21:-0.22363 
-0.1094135699144681 1:0.315467 2:-0.00383699 3:0.0114593 4:0.258936 5:0.14358 6:0.605596 7:-0.00266135 8:0.306848 9:0.147274 10:0.0660595 11:0.587427 12:0.68739 13:0.451627 14:-0.0107888 15:0.170594 16:-0.868923 17:0.2196 18:-0.0383828 19:0.208893 20:0.267949 21:0.215668 
-1 1:-0.588764 2:0.199821 3:0.0193576 4:-0.6303 5:-0.315116 6:0.0226046 7:-0.127441 8:-0.423842 9:-0.452309 10:-0.0968978 11:-0.0154422 12:-0.119689 13:0.192087 14:-0.650659 15:0.0467201 16:-0.256638 17:0.0142387 18:-1 19:-0.10902 20:-0.475605 21:0.441262 
-1 1:-0.0586605 2:0.086569 3:0.106773 4:-0.338315 5:0.00985714 6:0.0533497 7:-0.256199 8:-0.485051 9:0.149267 10:0.184218 11:-0.6029 12:0.105942 13:0.519755 14:0.387426 15:0.0505735 16:0.236703 17:0.360858 18:0.137161 19:-0.612145 20:-0.208109 21:0.154565 
-1 1:-0.224497 2:-0.0494748 3:0.22033 4:-0.314911 5:-0.138367 6:-0.444112 7:-0.238744 8:-0.331113 9:-0.318334 10:0.0939722 11:-0.447835 12:0.0227762 13:-0.0915932 14:0.387125 15:-0.337483 16:-0.153199 17:0.114629 18:0.332233 19:0.0498491 20:-0.321289 21:0.186534 
-1 1:0.265905 2:-0.290469 3:0.091435 4:-0.362597 5:-0.184106 6:-0.0971306 7:-0.612769 8:-0.0675887 9:0.109055 10:0.416213 11:-0.164524 12:0.448331 13:0.397877 14:0.507272 15:-0.191596 16:-0.283786 17:0.249288 18:0.0737822 19:-0.42381 20:0.314365 21:0.238865 
-1 1:0.235068 2:0.258788 3:0.0780397 4:-0.588263 5:0.295219 6:0.311607 7:0.0900088 8:0.418512 9:0.242957 10:-0.104048 11:-0.392794 12:0.217301 13:0.445926 14:-0.0971388 15:0.079778 16:0.794697 17:0.120686 18:1 19:0.723967 20:0.0542254 21:0.187024 
-1 1:-0.183172 2:0.161619 3:0.162132 4:-0.160337 5:-0.0268236 6:0.674455 7:0.213945 8:-0.0540862 9:-0.173598 10:0.0549948 11:-0.0890024 12:0.317653 13:0.498111 14:0.603644 15:0.0417813 16:0.285206 17:0.257958 18:0.12847 19:0.0704262 20:-0.0399303 21:0.367341 
-1 1:0.169316 2:0.0943814 3:-0.0249069 4:-0.161114 5:-0.234076 6:-0.520868 7:-0.106529 8:-0.262127 9:-0.132624 10:0.173401 11:-0.00746322 12:0.145759 13:0.311478 14:-0.324264 15:-0.235372 16:-0.272363 17:-0.00546161 18:-0.439696 19:0.042428 20:-0.448155 21:0.246702 
-1 1:0.126636 2:-0.0509773 3:-0.013618 4:-0.144895 5:-0.123918 6:-0.747184 7:-0.207389 8:0.104436 9:0.11305 10:-0.0819637 11:-0.379289 12:0.0738099 13:0.0372511 14:0.263443 15:-0.2955 16:0.276307 17:-0.502343 18:0.0610034 19:0.659088 20:0.0184976 21:0.306012 
-0.7804486327225375 1:-0.271532 2:0.629906 3:-0.0495981 4:-0.543781 5:0.391459 6:1 7:0.396873 8:0.312769 9:0.489316 10:0.565506 11:0.117044 12:-0.0499557 13:0.86564 14:0.241245 15:0.82539 16:0.459781 17:0.120946 18:0.0747776 19:0.404615 20:0.32395 21:0.493694 
-1 1:0.478834 2:0.488005 3:-0.323354 4:0.0304271 5:0.180979 6:-0.0318348 7:-0.0149587 8:0.136071 9:0.0310938 10:0.356825 11:0.332691 12:0.708492 13:0.466389 14:0.00843525 15:0.461418 16:0.534717 17:-0.191326 18:0.468104 19:0.427011 20:0.266351 21:0.280239 
-1 1:0.348611 2:-0.284608 3:0.225996 4:-0.343321 5:-0.0114049 6:-0.315694 7:0.289749 8:0.344763 9:0.323232 10:0.519842 11:-0.348834 12:0.211873 13:0.0721957 14:0.00319863 15:-1 16:-0.787062 17:0.0939536 18:0.216084 19:0.0714443 20:0.0184976 21:0.271823 
-0.9455025322486945 1:-0.311342 2:-0.247878 3:0.455264 4:-0.023837 5:0.154154 6:0.0531916 7:0.19458 8:-0.0354455 9:0.161902 10:0.575806 11:-0.299686 12:0.338922 13:0.407756 14:0.346248 15:-0.458795 16:-0.333459 17:0.409256 18:0.228988 19:0.0849912 20:-0.342835 21:-0.0158869 
-1 1:0.0807886 2:-0.0126127 3:-0.125162 4:-0.308996 5:-0.0555699 6:0.349263 7:-0.557362 8:-0.107639 9:0.0522891 10:0.0705233 11:-0.404155 12:0.0390855 13:0.150582 14:-0.173809 15:0.310497 16:-0.509851 17:-0.0971167 18:0.0398974 19:0.200111 20:0.0348791 21:-0.0126134 
-1 1:-0.0790679 2:-0.704125 3:0.603965 4:-0.0105136 5:-0.514084 6:-0.420471 7:-0.105292 8:-0.524348 9:-0.0844022 10:-0.342505 11:-0.47163 12:0.195292 13:-0.335078 14:-0.206868 15:-0.274109 16:-0.336796 17:0.236459 18:-0.368887 19:0.00543295 20:0.0184976 21:0.441262 
-0.6568298096727587 1:0.191913 2:0.262431 3:-0.283487 4:0.0849261 5:0.346424 6:-0.405808 7:-0.160807 8:0.0136982 9:0.0857947 10:-0.0477309 11:-0.593878 12:0.522484 13:0.48286 14:-0.461342 15:-0.00143603 16:-0.13486 17:-0.908179 18:-0.00652237 19:0.731733 20:0.00152703 21:0.441262 
-1 1:0.237506 2:0.411347 3:0.147048 4:-0.164833 5:0.198425 6:0.524289 7:0.0362963 8:-0.0730835 9:0.0671886 10:0.397807 11:0.238414 12:0.189096 13:0.149512 14:0.520633 15:-0.247475 16:0.138672 17:-0.445262 18:-0.17958 19:0.281104 20:0.331026 21:-0.0878438 
-1 1:0.476355 2:0.0534565 3:-0.146375 4:-0.0165931 5:-0.147451 6:-0.541707 7:-0.1981 8:0.00150276 9:0.284049 10:0.620848 11:0.069095 12:0.584156 13:0.43471 14:-0.758356 15:-0.0236459 16:0.139481 17:-0.467617 18:0.778583 19:0.267143 20:-0.0864008 21:0.308548 
-0.1468489144145483 1:0.348722 2:0.24632 3:-0.468409 4:-0.17295 5:0.0984263 6:-0.84687 7:-0.358551 8:-0.219485 9:0.286688 10:0.113029 11:0.540408 12:0.178996 13:0.301423 14:-0.804806 15:0.0525896 16:0.0306751 17:-0.502343 18:-0.677133 19:0.373499 20:-0.618753 21:0.233907 
-1 1:0.231724 2:0.0297278 3:0.407478 4:0.0787921 5:0.143441 6:-0.378098 7:0.123791 8:-0.00868217 9:0.356386 10:0.466804 11:-0.388207 12:0.285224 13:0.144677 14:0.482869 15:-0.45191 16:0.572334 17:0.150237 18:-0.131654 19:0.052199 20:-0.601955 21:-0.343719 
-1 1:0.132578 2:-0.258228 3:0.336447 4:0.012309 5:-0.0138881 6:-0.105827 7:0.0777872 8:0.135011 9:-0.204902 10:-0.149437 11:-0.00586732 12:0.25228 13:0.230865 14:-0.106521 15:0.181841 16:0.652846 17:-0.17951 18:-0.207612 19:0.631945 20:-0.281404 21:0.441262 
-1 1:0.243042 2:0.762287 3:-0.0251981 4:-0.452078 5:0.699186 6:0.284303 7:-0.103202 8:0.971129 9:0.134907 10:0.269035 11:-0.193343 12:0.296963 13:0.727506 14:0.15305 15:-0.0760923 16:-0.103561 17:-0.175971 18:-0.202852 19:0.267143 20:0.195374 21:0.0661609 
-1 1:-0.251377 2:0.380372 3:-0.0309618 4:-0.254265 5:0.231423 6:-0.244837 7:-0.0569451 8:0.0710232 9:-0.365941 10:-0.0205117 11:-0.0532905 12:-0.00015309 13:-0.0838549 14:-0.326609 15:-0.225549 16:0.482753 17:0.24627 18:-0.199257 19:0.0925606 20:0.0595095 21:-0.105732 
-1 1:0.246067 2:0.560866 3:-0.601006 4:-0.258179 5:0.0931598 6:-0.135779 7:0.00600317 8:0.499714 9:-0.240158 10:0.384502 11:0.591866 12:0.166369 13:0.340168 14:0.643619 15:-0.0753875 16:0.223573 17:-0.808694 18:-0.202155 19:0.180487 20:-0.277483 21:0.0667945 
-1 1:-0.155893 2:0.133478 3:0.0622565 4:-0.351727 5:-0.421078 6:-0.447788 7:0.104313 8:-0.354549 9:-0.420306 10:-0.0333614 11:0.195366 12:0.0654285 13:-0.188479 14:0.0222475 15:-0.186705 16:-0.350518 17:-0.0621762 18:-0.242527 19:0.24944 20:-0.779847 21:-0.269344 
-1 1:0.444416 2:0.406845 3:-0.159684 4:0.248363 5:0.158628 6:-0.488314 7:0.207613 8:0.0799476 9:-0.125081 10:0.28296 11:0.731639 12:0.462394 13:0.363239 14:-0.985944 15:0.252698 16:-0.830139 17:-0.910107 18:-0.338524 19:0.383161 20:-0.000336555 21:-0.0571674 
-0.9269341993500007 1:0.177844 2:0.095005 3:-0.0648208 4:-0.190527 5:-0.224735 6:0.0366593 7:-0.165684 8:-0.511251 9:0.237357 10:0.375021 11:0.203708 12:0.371271 13:0.0478001 14:0.342702 15:0.0249263 16:-0.196342 17:-0.101707 18:-0.295683 19:0.284601 20:0.294454 21:0.156937 
-1 1:0.0980405 2:-0.220677 3:0.223499 4:-0.0570174 5:-0.431172 6:-0.439353 7:-0.0502895 8:-0.40872 9:-0.30342 10:-0.117626 11:-0.0519546 12:0.184152 13:0.0469965 14:-0.2595 15:-0.168648 16:-0.17273 17:-0.183643 18:0.209789 19:0.0687991 20:0.0184976 21:0.441262 
-0.4950351808351626 1:0.250049 2:0.271696 3:-0.127781 4:-0.0117618 5:0.120098 6:-0.259216 7:0.525695 8:0.239125 9:0.0641461 10:0.304523 11:0.712861 12:0.202257 13:0.544792 14:-0.0521466 15:0.20863 16:-0.0768494 17:-0.732324 18:0.0932304 19:0.399645 20:-0.440377 21:0.459586 
-1 1:-0.189206 2:0.0468522 3:0.115206 4:-0.576007 5:-0.188255 6:-0.0772893 7:-0.169323 8:-0.379159 9:-0.165911 10:-0.318239 11:-0.406512 12:0.028799 13:0.270846 14:0.132253 15:-0.157117 16:-0.908367 17:0.00306741 18:-0.397558 19:0.254556 20:-0.27943 21:-0.410271 
-1 1:0.400738 2:0.452613 3:0.0116966 4:-0.178377 5:0.0270832 6:-0.682039 7:0.172898 8:0.186078 9:0.405692 10:0.427552 11:-0.0794091 12:0.223673 13:0.410384 14:0.688151 15:0.0831859 16:0.927818 17:-0.247355 18:0.415949 19:0.267143 20:-0.445182 21:-0.145374 
-0.4507962863558 1:0.130776 2:0.556137 3:0.190823 4:-0.0237098 5:0.453408 6:0.408605 7:0.18014 8:0.368037 9:0.350492 10:0.448055 11:0.868563 12:0.435687 13:0.785977 14:-0.319589 15:0.491938 16:-0.0874435 17:-0.248326 18:0.464714 19:0.534791 20:0.316551 21:0.672995 
-1 1:0.306626 2:-0.178526 3:0.032203 4:-0.123646 5:-0.0543677 6:0.299304 7:-0.0763887 8:-0.161485 9:0.0936132 10:0.202114 11:-0.740253 12:0.221157 13:0.405476 14:0.30942 15:0.792494 16:0.038774 17:0.318707 18:-0.278155 19:0.212033 20:-0.19364 21:0.29715 
-1 1:-0.280111 2:0.0526148 3:-0.182966 4:-0.134802 5:0.0744766 6:-0.731771 7:-0.48974 8:-0.551609 9:0.177038 10:-0.697775 11:0.00724402 12:0.477825 13:0.0756126 14:-0.346559 15:-0.555972 16:0.231089 17:-0.638368 18:0.0268789 19:0.0751038 20:-0.349601 21:0.441262 
-1 1:-0.696944 2:0.0616064 3:0.0473064 4:-0.488084 5:-0.659715 6:-0.614859 7:-0.26602 8:-0.563634 9:-0.631212 10:-0.555089 11:-0.31664 12:-0.200352 13:-0.325425 14:0.221441 15:-0.450178 16:0.0479827 17:0.0296377 18:-0.856762 19:-0.852639 20:-0.234242 21:0.441262 
-1 1:0.486759 2:0.191235 3:-0.0403553 4:0.00219202 5:0.318985 6:0.169007 7:0.242165 8:0.213957 9:0.254349 10:0.529295 11:0.107289 12:0.184288 13:0.14483 14:0.0598408 15:0.0845486 16:0.536546 17:0.0193003 18:0.276793 19:-0.119697 20:-0.107785 21:0.405772 
-1 1:0.11725 2:1 3:0.222534 4:0.0248958 5:0.326955 6:0.274702 7:0.0364841 8:0.587546 9:0.0119953 10:0.283954 11:0.220326 12:0.497604 13:0.431654 14:0.075715 15:0.211023 16:0.643222 17:-0.0225043 18:0.829324 19:0.624319 20:0.186735 21:0.354672 
-1 1:0.373281 2:0.689017 3:-0.122326 4:0.0838956 5:0.396252 6:-0.317414 7:0.401967 8:0.200496 9:0.0461853 10:0.164574 11:1 12:0.461355 13:0.585482 14:-0.398108 15:-0.227276 16:-0.285523 17:-0.317865 18:0.700616 19:0.234309 20:-0.178396 21:0.0169971 
-1 1:0.0624774 2:0.0417258 3:0.0441906 4:-0.0297835 5:-0.317246 6:0.841034 7:-0.0382186 8:0.195245 9:-0.0752441 10:0.0738148 11:-0.210356 12:0.111027 13:0.0201923 14:0.533293 15:0.076747 16:-0.0136458 17:0.128513 18:0.0849518 19:0.338384 20:-0.0711971 21:0.0283422 
-0.8892132311861245 1:0.316928 2:0.00423058 3:-0.0110869 4:0.0883875 5:-0.0619363 6:0.300684 7:-0.0582563 8:0.27709 9:0.377076 10:0.136047 11:-0.0393216 12:0.177193 13:0.251101 14:0.847727 15:-0.111535 16:0.0243526 17:0.113866 18:-0.0230889 19:0.27752 20:0.294822 21:0.450247 
-1 1:0.119895 2:-0.172817 3:0.732667 4:0.793403 5:-0.256411 6:0.295305 7:0.285762 8:0.100623 9:0.0841668 10:0.222416 11:-0.626264 12:0.852394 13:-0.161533 14:0.135881 15:-0.0950206 16:0.334302 17:0.769085 18:0.209789 19:-0.154543 20:-0.408528 21:0.076162 
-1 1:-0.459743 2:-0.301115 3:0.151505 4:-0.489584 5:-0.421372 6:-0.0816056 7:-0.391797 8:-0.519554 9:-0.306215 10:-0.512313 11:-0.16044 12:-0.0108584 13:-0.27824 14:0.285958 15:-0.0563878 16:-0.227662 17:0.0934026 18:-0.373174 19:-0.0516376 20:-0.28547 21:-0.00990303 
-1 1:-0.017292 2:0.119094 3:-0.463608 4:-0.421309 5:-0.212868 6:-0.248581 7:0.363229 8:-0.209534 9:-0.201141 10:-0.127545 11:-0.0869874 12:0.0145209 13:0.263258 14:-0.249838 15:0.034773 16:0.662585 17:-0.246423 18:-0.585645 19:-0.222142 20:-0.177892 21:0.0176333 
-1 1:0.071963 2:0.425814 3:0.11388 4:-0.195013 5:0.185514 6:0.0185042 7:0.310699 8:0.226156 9:-0.0843192 10:-0.078465 11:-0.0544955 12:0.128179 13:0.126047 14:0.551286 15:-0.0808286 16:-0.295503 17:0.0347673 18:-0.370514 19:-0.342122 20:-0.0855759 21:0.441262 
-1 1:0.0343032 2:0.0163525 3:0.332696 4:0.0121552 5:-0.0675079 6:0.164824 7:-0.129864 8:0.420867 9:0.0674932 10:0.165833 11:-0.246683 12:0.256531 13:0.151759 14:0.455176 15:0.319792 16:0.309952 17:0.298531 18:0.851255 19:0.594775 20:-0.339385 21:-0.310961 
-1 1:0.133695 2:0.434537 3:0.0131124 4:-0.341354 5:0.47381 6:0.232582 7:-0.542454 8:0.267402 9:0.18731 10:0.339163 11:-0.522422 12:0.728528 13:0.930119 14:0.49271 15:-0.223468 16:0.155968 17:-0.070094 18:0.70438 19:0.406145 20:-0.00126729 21:0.561612 
-1 1:0.180046 2:-0.00749294 3:0.162098 4:-0.0974694 5:0.145657 6:0.0929865 7:-0.211102 8:-0.114621 9:-0.0866279 10:-0.299171 11:-0.553857 12:0.14394 13:0.182777 14:0.612503 15:0.0394794 16:-0.104 17:0.232324 18:-0.449358 19:-0.222593 20:-0.455097 21:0.141521 
-1 1:-0.136326 2:0.0591321 3:0.0155145 4:-0.643819 5:-0.350327 6:-0.51165 7:-0.513855 8:-0.441216 9:-0.122464 10:0.0595767 11:-0.619372 12:-0.0267015 13:-0.0269313 14:0.594892 15:-0.118959 16:0.31884 17:0.0353102 18:0.0478061 19:-0.190004 20:-0.294347 21:0.169737 
-1 1:0.0638127 2:0.35069 3:-0.0617255 4:-0.079802 5:0.0357063 6:0.557562 7:0.139707 8:-0.0798003 9:0.619001 10:0.812644 11:-0.105953 12:0.269341 13:0.814756 14:0.320312 15:0.255855 16:0.0196858 17:0.15527 18:0.22954 19:-0.0579699 20:0.46045 21:0.380452 
-1 1:-1 2:-0.475436 3:0.286848 4:-0.548007 5:-1 6:-1 7:-0.373861 8:-0.779023 9:-1 10:-0.638785 11:-0.495141 12:-0.883751 13:-0.464606 14:-0.211659 15:-0.56439 16:-0.458524 17:0.00160511 18:-0.331517 19:0.267143 20:0.0184976 21:-1 
-1 1:0.319959 2:0.214283 3:-0.143746 4:-0.355337 5:0.525159 6:0.451438 7:-0.27787 8:0.351161 9:-0.19812 10:0.0350891 11:-0.0243949 12:0.256811 13:0.469451 14:0.486686 15:0.488932 16:0.31032 17:-0.126769 18:-0.136692 19:0.528441 20:0.0824247 21:0.667497 
-1 1:0.0341467 2:0.36579 3:0.312721 4:-0.337811 5:-0.18532 6:-0.83273 7:-0.244476 8:-0.146421 9:-0.268562 10:-0.129311 11:-0.380166 12:-0.0361739 13:-0.163332 14:0.00533642 15:-0.0385326 16:-0.219449 17:0.082302 18:-0.802431 19:0.267143 20:-0.70878 21:0.441262 
-1 1:0.266517 2:0.265243 3:0.149978 4:-0.0462616 5:0.0235412 6:-0.502575 7:0.159861 8:-0.181588 9:-0.0110607 10:0.0554224 11:-0.188329 12:0.159611 13:-0.0549661 14:0.223343 15:-0.139114 16:-0.351202 17:0.148071 18:-0.169785 19:-0.477224 20:-0.115778 21:0.27138 
-1 1:0.646576 2:0.509945 3:-0.0998132 4:-0.0743027 5:-0.0658517 6:0.164158 7:-0.139445 8:-0.438887 9:-0.105756 10:0.167308 11:0.124438 12:0.29054 13:0.368407 14:0.534318 15:0.339615 16:0.201724 17:-0.0646157 18:-0.0259515 19:0.163177 20:0.224245 21:0.747084 
-1 1:0.509831 2:0.897024 3:0.0213194 4:-0.202851 5:0.529722 6:-0.481331 7:0.164783 8:0.432674 9:0.0167272 10:0.76567 11:0.00492091 12:0.508398 13:1 14:-0.607599 15:-0.330325 16:0.237284 17:-0.620464 18:0.834455 19:0.446229 20:-0.171818 21:0.442233 
-1 1:-0.205246 2:0.417211 3:0.0468825 4:-0.34384 5:0.127346 6:0.105266 7:-0.3177 8:0.0359347 9:0.194824 10:0.139698 11:-0.0927371 12:0.523693 13:0.475329 14:0.442468 15:0.219564 16:0.33993 17:0.282455 18:0.488495 19:0.493133 20:0.258965 21:0.570334 
-1 1:0.0883884 2:0.212774 3:0.144887 4:-0.185003 5:-0.0807702 6:0.267822 7:-0.545708 8:-0.60093 9:-0.141506 10:0.271215 11:-0.542423 12:0.109263 13:0.133982 14:0.433201 15:-0.0649485 16:-0.0294384 17:0.093634 18:0.15968 19:0.373427 20:0.0227121 21:-0.0280069 
-1 1:0.598425 2:0.0939308 3:-0.541237 4:-0.136622 5:-0.147648 6:-0.12679 7:-0.227307 8:-0.354771 9:-0.164636 10:0.270378 11:0.191029 12:0.0849735 13:0.486491 14:-0.584666 15:-0.36596 16:-0.326667 17:-0.263666 18:0.128067 19:0.324882 20:-0.652025 21:0.067535 
-1 1:-0.00838177 2:0.0790799 3:0.0165679 4:-0.672604 5:-0.181618 6:0.245867 7:0.192901 8:-0.226844 9:0.046493 10:0.0527497 11:0.0263373 12:0.122966 13:0.457513 14:0.161352 15:0.410404 16:0.56519 17:0.261239 18:0.36393 19:0.64618 20:0.0607271 21:-0.155071 
-1 1:-0.103551 2:0.228724 3:0.0384962 4:-0.319198 5:-0.0761484 6:0.308648 7:-0.0638997 8:-0.0453963 9:-0.347022 10:-0.163189 11:-0.457025 12:0.00959916 13:-0.0178208 14:0.692204 15:0.088171 16:-0.0357352 17:0.143526 18:0.00482303 19:-0.115937 20:-0.24366 21:0.0131889 
-1 1:-0.0508458 2:0.198634 3:0.422835 4:-0.192442 5:0.121224 6:0.444592 7:0.00749111 8:0.328664 9:-0.0365101 10:-0.0711081 11:-0.723055 12:0.264855 13:-0.105142 14:0.523134 15:0.232522 16:0.612242 17:0.579535 18:0.277941 19:0.286127 20:-0.245407 21:-0.491503 
-1 1:0.175227 2:0.124691 3:-0.118429 4:-0.435344 5:0.0635493 6:0.517659 7:0.0857445 8:0.237452 9:-0.122462 10:-0.061411 11:-0.159375 12:0.566335 13:0.331588 14:0.31604 15:0.0380415 16:0.366974 17:0.24763 18:-0.0525863 19:0.48106 20:0.257744 21:0.123994 
-1 1:0.0191324 2:0.0849036 3:0.194445 4:-0.338126 5:0.346987 6:0.312347 7:-0.0474404 8:0.0476264 9:-0.333076 10:-0.412277 11:-0.320387 12:0.0571171 13:-0.044727 14:0.704003 15:0.0241055 16:-0.101402 17:0.151219 18:0.211418 19:0.523732 20:-0.11878 21:-0.331298 
-1 1:0.111117 2:-0.145324 3:0.183126 4:-0.173893 5:-0.230009 6:-0.322491 7:-0.362351 8:-0.0834707 9:0.43247 10:0.23024 11:-0.514567 12:-0.235758 13:-0.130174 14:-0.13533 15:-0.0587975 16:0.238975 17:0.0365359 18:-0.246507 19:-0.00961773 20:-0.0726709 21:0.441262 
-1 1:0.398608 2:0.796419 3:-0.181673 4:-0.554773 5:0.491561 6:-0.167392 7:0.640321 8:0.286659 9:-0.156994 10:-0.0697499 11:-0.0999314 12:0.00675642 13:0.0807895 14:-0.475358 15:-0.0265003 16:0.5905 17:-0.19169 18:-0.0312987 19:0.0140226 20:0.273039 21:0.222107 
-1 1:0.352613 2:0.901911 3:-0.238956 4:0.097244 5:1 6:-0.24794 7:0.376498 8:0.921997 9:1 10:1 11:-0.0853525 12:0.248249 13:0.810555 14:0.439972 15:0.946432 16:0.788063 17:-0.570759 18:0.553245 19:0.372863 20:1 21:0.0581946 
-1 1:-0.0948217 2:0.282272 3:0.17734 4:0.068116 5:-0.100513 6:0.137703 7:-0.377377 8:0.236312 9:0.284244 10:0.440101 11:-0.635993 12:0.241777 13:0.218393 14:0.728442 15:-0.0175946 16:-0.311193 17:0.0812537 18:0.159144 19:-0.589064 20:-0.0940846 21:-0.300052 
-1 1:0.454803 2:0.236554 3:-0.0749351 4:-0.22764 5:0.222806 6:-0.262375 7:0.068598 8:-0.361103 9:0.260893 10:0.0634458 11:0.0375474 12:0.208044 13:-0.0461163 14:0.171642 15:0.253897 16:-0.158074 17:-0.634609 18:0.434599 19:0.426259 20:-0.484418 21:0.104426 
-0.9704445040184768 1:0.115113 2:0.405107 3:0.0725782 4:-0.20959 5:0.593754 6:-0.21016 7:0.754827 8:0.0993713 9:0.598006 10:0.295806 11:-0.444872 12:0.423134 13:0.762528 14:0.874965 15:-0.244534 16:0.202546 17:-0.409415 18:0.815496 19:0.0524891 20:0.0184976 21:0.65125 
-0.8620070263382192 1:0.692028 2:0.375212 3:0.273833 4:0.231834 5:0.470426 6:-0.405821 7:0.227967 8:0.212729 9:0.383481 10:0.184276 11:-0.312339 12:0.342394 13:0.142038 14:-0.0183094 15:0.0533793 16:1 17:0.164181 18:0.689997 19:0.425469 20:-0.186025 21:-0.116934 
-1 1:0.479048 2:0.443533 3:0.168582 4:-0.0582686 5:0.0662164 6:-0.28513 7:0.416721 8:-0.422203 9:-0.0896118 10:-0.00946636 11:0.120706 12:0.44301 13:0.147285 14:0.0178023 15:0.2079 16:-0.769647 17:-0.631187 18:-0.292874 19:0.28755 20:0.130694 21:-0.0156704 
-1 1:-0.56251 2:-0.402306 3:0.324583 4:-0.40036 5:-0.745032 6:-0.796203 7:-0.33636 8:-0.615844 9:-0.61052 10:-0.851063 11:-0.536406 12:-0.171004 13:-1 14:-0.410486 15:-0.33706 16:-0.252817 17:0.238117 18:-0.0723521 19:-1 20:0.0184976 21:0.441262 
-1 1:-0.0519671 2:-0.155774 3:0.258791 4:-0.227625 5:-0.201281 6:0.1405 7:-0.476219 8:-0.197341 9:-0.13479 10:-0.328984 11:-0.496982 12:-0.220732 13:-0.169504 14:0.199361 15:0.226706 16:0.143938 17:0.0843198 18:-0.262253 19:-0.137487 20:-0.396855 21:0.441262 
-1 1:-0.477341 2:-0.269484 3:0.602321 4:0.238771 5:-0.365799 6:0.288814 7:-0.114626 8:-0.525414 9:-0.258084 10:-0.0571193 11:-0.146641 12:0.239585 13:-0.280985 14:0.0494723 15:0.186825 16:0.25692 17:0.374832 18:-0.506398 19:-0.138939 20:-0.259401 21:-0.20977 
