svm_type c_svc
kernel_type rbf
gamma 0.0384615
nr_class 2
total_sv 433
rho 1.73467
label 0 1
probA -1.80592
probB 0.711242
nr_sv 221 212
SV
0.2536207857642481 1:0.181407 2:-0.177822 3:-0.128146 4:0.139756 5:0.483649 6:0.243128 7:0.326483 8:0.329939 9:0.263682 10:-0.319273 11:-0.238421 12:-0.43699 13:-0.523234 14:0.517499 15:0.185211 16:0.0213811 17:0.0662176 18:0.0583426 19:-0.356249 20:0.231006 21:-0.0491392 22:-0.489473 23:-0.446939 24:0.126504 25:-0.198064 26:-0.24977 
1 1:-0.230296 2:0.227443 3:0.28027 4:-0.476291 5:0.128474 6:-0.134988 7:0.131642 8:0.202928 9:-0.306026 10:-0.208049 11:0.117653 12:-0.0775861 13:-0.494199 14:0.020971 15:0.446146 16:0.155629 17:0.678221 18:0.681586 19:-0.378658 20:-0.0468457 21:0.0987652 22:0.108452 23:0.101518 24:0.359991 25:0.262554 26:-0.333491 
0.02915418554577654 1:0.14013 2:0.0567148 3:-0.0471245 4:0.174159 5:0.328634 6:0.251032 7:0.669092 8:0.688589 9:0.0158808 10:0.0454062 11:-0.0943398 12:-0.550281 13:-0.0180802 14:0.516789 15:0.217934 16:0.239278 17:0.0982797 18:0.339065 19:-0.351728 20:-0.235782 21:-0.205794 22:-0.114408 23:-0.0608081 24:-0.224976 25:-0.116968 26:-0.0570483 
1 1:1 2:-0.336565 3:-0.00749089 4:0.335427 5:0.719457 6:0.508826 7:-0.140425 8:0.188404 9:0.0387553 10:0.333659 11:0.685552 12:0.337703 13:-0.78356 14:0.343023 15:0.237456 16:0.0966347 17:0.199268 18:0.464219 19:0.217261 20:0.580351 21:0.589107 22:-0.176479 23:0.324331 24:0.675389 25:0.236536 26:-0.249885 
1 1:-0.082329 2:0.0176056 3:0.0240785 4:0.0238881 5:0.116708 6:0.11824 7:0.260236 8:0.383945 9:0.0654693 10:-0.273343 11:-0.0634969 12:-0.65047 13:-0.904461 14:0.165838 15:-0.012089 16:-0.179171 17:0.0965962 18:0.350819 19:-0.5006 20:0.0285739 21:-0.141753 22:-0.160603 23:-0.380341 24:0.0128862 25:0.0364727 26:-0.556279 
1 1:0.297872 2:0.0118043 3:0.2443 4:0.139316 5:-0.139532 6:-0.746175 7:0.0965738 8:0.67931 9:0.0960636 10:-0.292468 11:-0.318368 12:-0.604014 13:-0.270799 14:0.220545 15:0.328102 16:0.167192 17:-0.342454 18:-0.290917 19:-0.878727 20:-0.148416 21:-0.49237 22:-0.0541014 23:-0.0739589 24:-0.0587057 25:-0.336269 26:-0.249885 
1 1:0.353965 2:0.0375465 3:0.0584235 4:0.6956 5:0.357438 6:0.520352 7:0.345596 8:0.435969 9:0.328994 10:0.213553 11:-0.274259 12:-0.646307 13:-0.662923 14:-0.094678 15:0.149796 16:-0.240358 17:-0.0455024 18:-0.672962 19:-0.381184 20:0.356322 21:0.190971 22:-0.168426 23:0.0866519 24:-0.00221528 25:-0.336269 26:-0.619099 
1 1:-0.01976 2:0.379011 3:0.158592 4:0.112924 5:0.301398 6:0.153917 7:0.237529 8:0.193265 9:-0.104961 10:0.210961 11:0.0297284 12:-0.181956 13:-0.260283 14:0.307123 15:0.218905 16:-0.0153566 17:0.113962 18:0.704305 19:0.0190729 20:0.0658568 21:0.128204 22:0.174046 23:0.0934569 24:0.250331 25:0.502535 26:0.366504 
1 1:0.304023 2:-0.170215 3:0.372667 4:-0.0897615 5:0.218929 6:0.382662 7:-0.476923 8:0.312248 9:0.0610637 10:-0.29817 11:-0.673554 12:-0.556177 13:-0.326523 14:-0.815167 15:-0.235029 16:0.249505 17:0.20119 18:0.166843 19:-0.471941 20:0.0208531 21:-0.4239 22:-0.160603 23:-0.118478 24:-0.626505 25:-0.040287 26:-0.468678 
1 1:0.400071 2:-0.0419245 3:0.357784 4:0.0920161 5:-0.341912 6:-0.340366 7:0.0563275 8:0.519351 9:0.284343 10:-0.325867 11:-0.185218 12:-0.614969 13:-0.406025 14:0.0913025 15:0.197226 16:-0.27193 17:0.126297 18:-0.1297 19:-0.332837 20:-0.240851 21:0.0738248 22:-0.608864 23:-0.44951 24:-0.811804 25:-0.554863 26:-0.312162 
1 1:-0.216986 2:0.134682 3:0.265061 4:0.088064 5:0.366413 6:0.294934 7:0.134011 8:0.406178 9:0.234706 10:-0.0126875 11:-0.398344 12:-0.241917 13:-0.0286821 14:-0.247179 15:0.161445 16:0.0334679 17:0.131442 18:-0.349893 19:0.087547 20:0.396755 21:0.230819 22:-0.115661 23:-0.0350782 24:-0.0587057 25:-0.336269 26:-0.627059 
1 1:0.0457004 2:0.205914 3:-0.307195 4:0.146303 5:0.510241 6:0.29842 7:0.290915 8:0.493903 9:0.246684 10:-0.412234 11:-0.234916 12:-0.40131 13:-0.200823 14:0.271222 15:0.225763 16:-0.25781 17:0.0286549 18:0.527873 19:-0.013416 20:0.552147 21:-0.310525 22:-0.250169 23:0.166295 24:0.58922 25:0.449944 26:0.157851 
1 1:0.72176 2:-0.233583 3:0.33584 4:0.361513 5:0.770585 6:0.951791 7:-0.0178665 8:0.369108 9:0.0728963 10:-0.00697987 11:-0.56262 12:-0.285172 13:-0.201872 14:-0.557815 15:-0.18903 16:0.305187 17:-0.0157889 18:-0.450721 19:0.0696195 20:0.678004 21:0.534074 22:-0.135264 23:-0.0181406 24:-0.322874 25:-0.316749 26:-0.458189 
1 1:0.139767 2:0.0483554 3:0.275631 4:0.242672 5:0.0362788 6:0.136192 7:0.533112 8:0.736785 9:0.326093 10:-0.0828463 11:-0.107509 12:-0.37875 13:-0.259814 14:-0.168879 15:0.188859 16:0.0795273 17:0.04938 18:0.409797 19:-0.354877 20:0.481586 21:-0.0674007 22:-0.343758 23:-0.465021 24:-0.0779589 25:-0.044076 26:-0.170052 
1 1:-0.476611 2:-0.502221 3:-0.332813 4:-0.400723 5:-0.0786853 6:0.212061 7:-0.288531 8:-0.511798 9:-0.331509 10:-0.73159 11:-0.858972 12:-0.675785 13:-0.19265 14:-0.346986 15:-0.489611 16:-0.213701 17:-0.222748 18:-0.455512 19:-0.435325 20:0.0129159 21:-0.0173598 22:-0.292265 23:-0.415469 24:-0.130063 25:-0.494682 26:-0.719911 
1 1:-0.153363 2:0.633642 3:0.959906 4:0.36049 5:-0.237967 6:-0.74706 7:-0.0214061 8:0.479272 9:-0.0479749 10:-0.112297 11:-0.205237 12:-0.28094 13:0.803302 14:0.195665 15:-0.469227 16:-0.00350254 17:0.14723 18:0.101406 19:0.384179 20:0.37761 21:0.152153 22:-0.0438647 23:-0.176428 24:-0.688674 25:-0.462983 26:-0.215071 
1 1:0.250433 2:0.177463 3:0.110368 4:0.206425 5:0.24453 6:0.514266 7:0.14353 8:0.737046 9:0.162978 10:0.138548 11:-0.0992761 12:-0.542431 13:-0.434835 14:-0.199057 15:0.242909 16:0.0684293 17:0.198457 18:0.322432 19:-0.0275056 20:0.37146 21:0.260361 22:0.24855 23:0.130165 24:0.560554 25:-0.118012 26:-0.58229 
1 1:0.530446 2:0.00788363 3:0.54731 4:-0.0575672 5:0.23625 6:0.0637187 7:-0.0340044 8:0.367484 9:-0.0913212 10:-0.11835 11:-0.276054 12:-0.260174 13:0.0845584 14:-0.674666 15:-0.232803 16:0.00930208 17:0.116541 18:-0.633612 19:-0.144683 20:0.316684 21:0.196867 22:0.293643 23:-0.234586 24:-0.170411 25:0.0834093 26:0.0757912 
1 1:0.385817 2:-0.159008 3:0.150215 4:0.207897 5:0.415736 6:0.196223 7:0.0814579 8:0.420067 9:0.176511 10:0.226318 11:-0.483245 12:-0.824509 13:-0.424492 14:-0.104887 15:-0.0268854 16:0.0480138 17:-0.29048 18:-0.406608 19:0.167916 20:-0.337658 21:-0.181646 22:0.265636 23:-0.0368964 24:-0.0587057 25:-0.336269 26:-0.265751 
1 1:0.283092 2:0.448943 3:0.617484 4:0.446429 5:0.0761006 6:0.557672 7:0.529884 8:0.274197 9:0.139099 10:0.268674 11:-0.341755 12:-0.207255 13:0.134822 14:-0.0797621 15:0.138422 16:0.160812 17:0.173214 18:0.58183 19:0.229823 20:0.0480435 21:0.165995 22:-0.0608456 23:-0.550519 24:-0.339512 25:0.32077 26:0.146905 
1 1:0.0206036 2:0.20717 3:0.27699 4:-0.0457076 5:-0.356362 6:-0.175161 7:0.46908 8:0.183791 9:0.227249 10:0.0604786 11:0.223179 12:-0.237155 13:-0.613541 14:0.0226377 15:0.364939 16:0.201538 17:0.00834938 18:-0.216231 19:0.0411136 20:-0.230626 21:0.161396 22:-0.108325 23:0.215672 24:0.615839 25:-0.295996 26:-0.509958 
0.01985487316104938 1:-0.122687 2:-0.230841 3:-0.805761 4:-0.710188 5:0.672476 6:0.306014 7:0.868785 8:-0.703132 9:-0.612083 10:0.590084 11:-0.318748 12:-0.316929 13:-0.35153 14:0.159816 15:0.359791 16:0.171104 17:0.353064 18:-0.0390126 19:0.238135 20:-0.337658 21:0.627372 22:0.433709 23:0.222965 24:-0.0587057 25:-0.703276 26:-0.249885 
1 1:-0.28204 2:0.32234 3:0.190434 4:-0.0172936 5:0.241322 6:0.00642805 7:0.351992 8:0.0145676 9:-0.259505 10:-0.0967504 11:0.0676442 12:-0.304021 13:-0.24887 14:0.0484633 15:0.129938 16:-0.131913 17:0.101077 18:0.469071 19:-0.317101 20:0.0733258 21:-0.196647 22:-0.121558 23:-0.409501 24:0.195564 25:0.000370137 26:-0.249885 
1 1:0.353029 2:0.219399 3:0.23477 4:0.379002 5:0.157332 6:0.0520093 7:0.163189 8:0.494738 9:0.333286 10:-0.0306965 11:-0.0120777 12:-0.349281 13:-0.489829 14:0.0500656 15:0.121845 16:-0.217559 17:-0.171309 18:0.516004 19:-0.268843 20:0.229731 21:-0.306753 22:-0.0276049 23:-0.273102 24:0.394317 25:-0.134279 26:-0.599479 
1 1:0.0405977 2:0.269195 3:0.0864619 4:0.048888 5:0.125943 6:0.192511 7:0.555454 8:0.501254 9:0.00504735 10:0.215294 11:0.150331 12:-0.411823 13:-0.132888 14:0.287694 15:0.214708 16:-0.35636 17:0.0940657 18:-0.0434597 19:0.0263669 20:-0.0312808 21:-0.756957 22:0.326619 23:-0.065334 24:0.47132 25:-0.0876599 26:-0.518738 
1 1:-0.455779 2:0.257978 3:0.39328 4:0.171085 5:-0.0985568 6:0.00759024 7:0.00810859 8:0.407948 9:-0.129155 10:-0.1053 11:-0.094894 12:-0.335902 13:-0.359907 14:0.176527 15:0.405801 16:-0.23896 17:-0.0375076 18:0.591649 19:-0.152652 20:0.0633553 21:-0.363046 22:-0.159503 23:-0.104204 24:0.139292 25:0.191666 26:-0.0548575 
1 1:-0.000209166 2:0.00888338 3:0.146546 4:0.519341 5:0.526334 6:0.00177016 7:0.295721 8:0.601539 9:0.0397433 10:-0.318314 11:-0.221348 12:-0.562185 13:-0.305159 14:0.250674 15:0.304998 16:-0.309398 17:0.015722 18:0.271879 19:-0.480981 20:0.056028 21:-0.241237 22:-0.687142 23:-0.0959052 24:-0.0216346 25:-0.0730133 26:-0.264756 
1 1:0.013215 2:0.149028 3:0.639688 4:0.386796 5:0.162759 6:0.337352 7:0.294463 8:0.766691 9:0.0394614 10:0.297752 11:-0.530837 12:-0.804351 13:0.0267232 14:0.21425 15:-0.0878539 16:0.272634 17:0.137163 18:0.386596 19:0.397271 20:0.00424388 21:0.342644 22:0.359405 23:0.0122023 24:-0.0587057 25:-0.0054183 26:-0.0903016 
1 1:0.208348 2:0.503593 3:0.224406 4:0.69201 5:0.160924 6:0.277767 7:0.237073 8:0.702566 9:0.0615023 10:0.310197 11:-0.35212 12:-0.60589 13:-0.0188276 14:0.186424 15:0.074128 16:-0.220347 17:0.0124042 18:-0.359792 19:0.109003 20:0.081569 21:-0.00584572 22:0.0986505 23:0.0999742 24:-0.22232 25:-0.744748 26:-0.681528 
1 1:-0.138644 2:0.010199 3:0.245559 4:-0.380125 5:-0.0432604 6:-0.215993 7:-0.03077 8:0.226242 9:-0.164821 10:-0.447898 11:-0.044423 12:-0.163032 13:-0.576141 14:0.120777 15:0.391942 16:-0.180908 17:0.332491 18:0.46776 19:-0.574582 20:-0.0587881 21:-0.276202 22:-0.367926 23:0.0529749 24:-0.179276 25:0.00704973 26:-0.233829 
1 1:0.0441099 2:0.158163 3:-0.322074 4:0.134915 5:0.538489 6:0.418824 7:0.218011 8:0.416061 9:0.137637 10:-0.312027 11:-0.261106 12:-0.441823 13:-0.304063 14:0.503963 15:0.441366 16:-0.491536 17:0.178665 18:0.512719 19:-0.150839 20:-0.208947 21:-0.288461 22:-0.633772 23:-0.361159 24:-0.00298204 25:0.165797 26:-0.150772 
1 1:-0.173237 2:0.14676 3:0.0150115 4:0.237943 5:-0.126155 6:0.00576319 7:0.241778 8:0.509455 9:0.0433648 10:-0.171702 11:0.123937 12:-0.271853 13:-0.210836 14:0.119195 15:0.477957 16:-0.552995 17:0.107226 18:0.373755 19:-0.541251 20:0.227826 21:-0.0318661 22:-0.088511 23:0.051235 24:0.229681 25:-0.0640873 26:-0.325113 
0.03679731191984729 1:0.30912 2:0.247302 3:0.363883 4:0.389631 5:0.072557 6:-0.428061 7:0.252226 8:0.36723 9:-0.0965466 10:0.218417 11:-0.737729 12:-0.722386 13:-0.0319714 14:-0.342875 15:0.0272784 16:0.115917 17:0.0569095 18:-0.127421 19:0.224959 20:-0.584761 21:0.43471 22:0.25169 23:-0.727562 24:-0.239114 25:-0.344162 26:-0.487157 
1 1:0.362873 2:0.434686 3:0.192753 4:0.360344 5:-0.0695584 6:0.203158 7:0.174521 8:0.483179 9:-0.178052 10:-0.45272 11:-0.154447 12:-0.401648 13:-0.0174091 14:0.00273559 15:0.452389 16:-0.719326 17:0.00222784 18:0.503741 19:-0.311641 20:-0.227709 21:-0.309968 22:-0.428856 23:-0.0181406 24:-0.0453152 25:-0.0614522 26:-0.602172 
1 1:0.0925534 2:0.0869762 3:0.361816 4:-0.00935325 5:0.665092 6:0.382204 7:0.261184 8:0.544955 9:0.104116 10:-0.175775 11:-0.0380922 12:-0.311534 13:-0.305046 14:0.323005 15:0.376648 16:-0.0592336 17:0.292468 18:0.37513 19:-0.123801 20:-0.0531993 21:0.145842 22:-0.162999 23:0.110923 24:0.37008 25:-0.308326 26:-0.783395 
0.1157661016043597 1:0.0848203 2:0.0439135 3:0.0103625 4:0.242343 5:-0.0913386 6:-0.131706 7:0.664426 8:0.575384 9:-0.0705234 10:-0.256936 11:0.119386 12:-0.508166 13:-0.693579 14:0.496604 15:0.184911 16:-0.57134 17:0.0470302 18:0.290735 19:-0.284386 20:0.0974106 21:-0.343246 22:-0.436914 23:-0.28404 24:-0.109565 25:-0.0024133 26:-0.140708 
1 1:0.156791 2:-0.10466 3:-0.0695854 4:0.349299 5:0.564056 6:0.480128 7:0.00119172 8:0.853077 9:0.296045 10:-0.584603 11:-0.317021 12:-0.436556 13:-0.354986 14:-0.299155 15:0.249518 16:-0.00638533 17:0.263924 18:0.52983 19:-0.236794 20:-0.303985 21:-0.397402 22:-0.285389 23:-0.138225 24:0.19626 25:-0.215755 26:-0.446482 
1 1:0.039074 2:1 3:-0.121408 4:-0.547627 5:-0.0111701 6:0.0723437 7:0.43037 8:0.542949 9:0.596803 10:0.153694 11:-0.591416 12:-0.426692 13:0.119264 14:0.421302 15:0.170992 16:0.154778 17:0.326263 18:0.902343 19:-0.318922 20:0.218341 21:0.262117 22:-0.23173 23:0.112855 24:0.513086 25:0.575049 26:0.357689 
0.5707206494552224 1:0.296099 2:0.0548514 3:0.307481 4:0.144587 5:-0.0393784 6:-0.242685 7:0.117664 8:0.233584 9:0.182938 10:-0.335109 11:-0.0922126 12:-0.113871 13:-0.680324 14:-0.40766 15:0.0893309 16:-0.279291 17:0.300215 18:0.258999 19:-0.260799 20:0.108235 21:-0.023966 22:-0.361605 23:-0.640502 24:0.277995 25:-0.226289 26:-0.318496 
1 1:-0.0281238 2:0.216598 3:-0.213151 4:-0.0556315 5:0.283343 6:-0.189866 7:0.235942 8:0.143665 9:-0.0164684 10:-0.511385 11:-0.204198 12:-0.605558 13:-0.655793 14:-0.123053 15:0.0570604 16:-0.209197 17:0.177428 18:0.293783 19:-1 20:0.187057 21:-0.0319699 22:-0.514553 23:-0.0279402 24:0.0801758 25:-0.105905 26:-0.538018 
0.5797900790400958 1:0.226732 2:0.0675041 3:0.0665865 4:-0.0316374 5:0.0434647 6:-0.270075 7:0.302778 8:0.527571 9:0.178123 10:-0.289157 11:-0.216538 12:-0.23138 13:-0.55933 14:-0.0530022 15:0.206679 16:-0.161912 17:-0.0839475 18:-0.197654 19:-0.643846 20:0.0247493 21:-0.212003 22:-0.160603 23:0.020165 24:0.413648 25:-0.591993 26:-0.520111 
1 1:0.347852 2:0.201273 3:0.42564 4:0.263301 5:0.544445 6:0.384338 7:-0.070076 8:0.402129 9:-0.111101 10:0.00198881 11:-0.471981 12:-0.275103 13:-0.0661798 14:-0.215396 15:-0.0101099 16:0.132194 17:0.016585 18:0.904854 19:-0.28815 20:0.131317 21:0.185792 22:-0.115697 23:-0.0461107 24:0.617642 25:0.334957 26:0.0545021 
1 1:-0.250967 2:0.258195 3:-0.159704 4:0.0504689 5:0.74259 6:0.167399 7:0.140965 8:0.176388 9:-0.0502947 10:-0.431937 11:-0.158772 12:-0.636422 13:-0.348508 14:-0.0328851 15:-0.144138 16:-0.354934 17:0.269761 18:0.881434 19:-0.515688 20:-0.0990255 21:-0.101679 22:-0.606078 23:-0.0890805 24:-0.228274 25:0.575882 26:0.476013 
1 1:-0.418402 2:0.297116 3:-0.0520787 4:-0.0603834 5:0.371362 6:0.248446 7:0.249508 8:0.334212 9:-0.0657913 10:-0.12162 11:0.00986662 12:-0.449798 13:-0.442265 14:0.823908 15:-0.360965 16:-0.0276621 17:0.279738 18:0.641816 19:-0.166406 20:0.326028 21:-0.0740782 22:-0.515135 23:-0.00156411 24:-0.0409221 25:0.319022 26:-0.175646 
1 1:0.18952 2:0.0322397 3:0.402075 4:-0.0660714 5:-0.0475609 6:-0.208898 7:0.110407 8:0.116832 9:-0.266443 10:-0.0883177 11:0.0409723 12:-0.388779 13:-0.410888 14:-0.0972404 15:0.265844 16:-0.164532 17:0.0676441 18:0.63465 19:-0.453203 20:-0.122994 21:-0.0358215 22:0.0358982 23:0.0838333 24:0.378553 25:0.178653 26:-0.029707 
1 1:0.143826 2:-0.0664551 3:0.110222 4:0.201746 5:0.508924 6:0.432284 7:0.275535 8:0.452054 9:0.204592 10:0.0658854 11:-0.224931 12:-0.368937 13:-0.418008 14:0.196347 15:0.125294 16:0.0179835 17:0.167583 18:0.536055 19:-0.0449033 20:0.229115 21:0.240891 22:-0.191029 23:0.0237639 24:0.276576 25:0.167379 26:-0.0805216 
1 1:-0.222741 2:0.166466 3:0.00125995 4:0.00281476 5:0.413657 6:0.527247 7:0.140829 8:0.242393 9:-0.100282 10:-0.213791 11:-0.256747 12:-0.346441 13:0.381764 14:0.124606 15:0.0502202 16:-0.0583841 17:0.168195 18:0.042075 19:-0.0212284 20:0.202998 21:-0.135985 22:-0.175855 23:-0.890684 24:-0.994766 25:-0.426568 26:-0.456433 
1 1:0.805749 2:0.0392426 3:0.408818 4:0.425693 5:-0.129387 6:-0.521416 7:0.476673 8:0.454583 9:0.65455 10:0.0394946 11:0.294172 12:-0.527108 13:-0.384738 14:-0.436844 15:0.258369 16:-0.31084 17:-0.109251 18:-0.594011 19:-0.315005 20:0.116198 21:-0.0917116 22:-0.649999 23:-0.218467 24:-0.103785 25:-0.336269 26:-0.249885 
1 1:-0.613317 2:0.10932 3:-0.0130338 4:-0.215076 5:0.477148 6:0.381025 7:-0.746734 8:-0.2837 9:-0.598086 10:-1 11:-0.0500788 12:0.0894599 13:0.189903 14:0.165885 15:-0.0821817 16:0.252255 17:0.598668 18:0.642431 19:-0.821109 20:0.0543062 21:-0.724716 22:-0.457692 23:0.185085 24:-0.365411 25:-0.00511687 26:-0.2628 
1 1:0.145302 2:0.248795 3:0.451441 4:0.293886 5:-0.0241293 6:-0.352031 7:0.325529 8:0.392054 9:0.262315 10:0.0894943 11:0.138901 12:-0.263244 13:-0.266876 14:0.166304 15:0.225837 16:-0.0137976 17:0.15295 18:0.51436 19:-0.0177721 20:0.122406 21:0.226114 22:-0.0636655 23:0.153492 24:0.434367 25:0.0032325 26:-0.0250465 
1 1:-0.482042 2:0.486323 3:0.378843 4:0.078465 5:0.669332 6:0.243304 7:-0.290654 8:0.0699359 9:-0.355936 10:0.155775 11:-0.66269 12:-0.611683 13:0.561358 14:0.400098 15:-0.0216665 16:0.111474 17:-0.00702966 18:0.301104 19:-0.0369645 20:0.452619 21:0.191156 22:0.368027 23:-0.036485 24:-0.603111 25:-0.157472 26:-0.116123 
1 1:0.125999 2:0.0118404 3:0.478412 4:-0.0510223 5:0.196596 6:-0.0284162 7:0.0102062 8:0.695263 9:0.0838326 10:0.0839391 11:0.0550562 12:-0.212476 13:-0.3841 14:0.0621372 15:0.0181239 16:0.190792 17:0.409885 18:0.537325 19:0.299314 20:0.199567 21:0.00385427 22:-0.105931 23:-0.236156 24:-0.00226397 25:-0.0775072 26:-0.110365 
1 1:0.200939 2:0.109863 3:0.284249 4:-0.0488957 5:0.342339 6:0.0344789 7:-0.181899 8:0.418239 9:-0.187742 10:-0.32287 11:-0.231952 12:0.144775 13:-0.398568 14:-0.188895 15:0.296194 16:0.256608 17:0.492483 18:0.654011 19:-0.823553 20:0.025259 21:0.213844 22:-0.240797 23:0.175314 24:0.318662 25:0.282857 26:0.276609 
1 1:-0.362387 2:-0.0549219 3:-0.0782236 4:-0.0509672 5:-0.181523 6:0.12446 7:-1 8:-0.452899 9:-0.719544 10:0.327221 11:-0.186634 12:-0.509476 13:0.577315 14:0.0621294 15:0.48632 16:-0.156483 17:0.219655 18:-0.325109 19:-0.352617 20:0.161788 21:0.349028 22:0.465425 23:0.259103 24:0.145255 25:-0.834006 26:-0.413001 
1 1:0.189008 2:0.24417 3:-0.123569 4:-0.263324 5:0.137465 6:0.0155662 7:-0.032948 8:0.162584 9:0.01607 10:-0.417269 11:-0.254326 12:-0.47147 13:-0.280403 14:0.255751 15:0.141885 16:-0.204564 17:0.160215 18:0.670844 19:-0.470387 20:-0.00476898 21:-0.239727 22:0.0800343 23:-0.09441 24:0.226166 25:0.413827 26:0.159571 
1 1:-0.181883 2:0.43822 3:-0.0644068 4:0.276272 5:0.177311 6:0.0553143 7:0.367127 8:0.682216 9:-0.0985384 10:-0.429939 11:0.143453 12:-0.424795 13:0.0116629 14:0.177298 15:0.0900403 16:-0.0233584 17:0.337589 18:0.557993 19:-0.299602 20:0.588541 21:-0.574708 22:-0.160603 23:-0.426119 24:-0.496382 25:0.0568104 26:-0.0634448 
1 1:0.316275 2:0.284691 3:-0.00238029 4:0.138339 5:0.21113 6:0.284911 7:0.245111 8:0.258718 9:0.102616 10:-0.00103484 11:-0.271603 12:-0.534731 13:-0.340469 14:-0.201888 15:0.280369 16:0.133676 17:0.121782 18:0.206587 19:-0.395249 20:0.241599 21:0.162132 22:0.134987 23:0.179188 24:0.492649 25:0.0383431 26:-0.54082 
0.2768287188220674 1:0.168219 2:-0.0131387 3:0.367663 4:-0.00185469 5:0.184719 6:-0.0594727 7:0.484582 8:0.444791 9:-0.124411 10:0.132711 11:0.208697 12:-0.399373 13:-0.810151 14:-0.272356 15:0.0809244 16:0.218628 17:0.00375917 18:0.357919 19:-0.114711 20:0.34459 21:0.0798644 22:0.0589357 23:-0.0485671 24:0.198979 25:-0.102246 26:-0.555466 
1 1:0.080856 2:-0.0422292 3:0.0913756 4:0.354724 5:-0.258248 6:-0.1596 7:0.180519 8:0.320917 9:0.0435891 10:-0.110979 11:-0.0393735 12:-0.307672 13:-0.304207 14:-0.326913 15:0.342245 16:-0.302408 17:0.0497927 18:0.422201 19:-0.318444 20:-0.0157093 21:-0.428232 22:-0.598336 23:-0.0181406 24:-0.340779 25:0.0898775 26:-0.192464 
1 1:0.170529 2:0.36518 3:0.549587 4:0.517925 5:0.0452858 6:0.0226421 7:0.500416 8:0.168398 9:0.361956 10:-0.0649191 11:0.24343 12:-0.093738 13:-0.29399 14:-0.248025 15:0.178001 16:-0.0615191 17:0.196857 18:0.248006 19:-0.215346 20:0.150967 21:0.0925481 22:-0.17917 23:0.346939 24:0.502781 25:-0.133928 26:-0.398915 
1 1:0.0937267 2:0.191494 3:0.0909759 4:0.0932376 5:0.550182 6:0.369423 7:0.300372 8:0.0264945 9:0.2336 10:-0.0843614 11:-0.43837 12:-0.294291 13:-0.493504 14:-0.0891478 15:0.211123 16:-0.0571872 17:0.0963765 18:0.604566 19:-0.416947 20:-0.0175639 21:0.0300101 22:-0.126803 23:0.0143853 24:0.35998 25:0.0958625 26:-0.127356 
1 1:-0.161701 2:0.175772 3:0.21962 4:-0.449921 5:0.159253 6:0.0799477 7:0.0669129 8:0.15565 9:-0.276214 10:-0.22058 11:-0.0696072 12:0.182532 13:-0.360778 14:0.221191 15:0.180895 16:0.0437765 17:0.677343 18:0.69177 19:-0.346523 20:0.161906 21:0.333391 22:0.0686592 23:0.300604 24:0.638135 25:0.324989 26:0.0545467 
1 1:-0.23616 2:0.221971 3:0.161354 4:0.0859091 5:-0.558363 6:0.00335289 7:0.638299 8:0.357451 9:-0.00964125 10:-0.0938481 11:0.104637 12:-0.55598 13:0.0678742 14:0.115764 15:0.271606 16:-0.261153 17:0.0297901 18:-0.347885 19:-0.220535 20:-0.392856 21:-0.385847 22:-0.0612065 23:0.155859 24:-0.41625 25:-0.338246 26:-0.894663 
1 1:0.271425 2:0.340135 3:0.387511 4:0.404514 5:0.349167 6:0.213129 7:0.331016 8:0.761256 9:0.272112 10:-0.196209 11:-0.0382642 12:-0.220903 13:-0.325588 14:-0.19333 15:0.144504 16:-0.117566 17:0.186585 18:0.565479 19:-0.296362 20:-0.201454 21:0.194835 22:-0.164449 23:0.19665 24:0.0307877 25:-0.122587 26:-0.249885 
1 1:0.242433 2:0.0781426 3:0.802759 4:-0.17026 5:-0.322396 6:-0.602273 7:-0.295112 8:0.0714417 9:-0.355175 10:-0.166578 11:-0.314916 12:-0.731903 13:-0.0366425 14:-0.359598 15:-0.164448 16:-0.33774 17:0.230008 18:0.000175894 19:0.19883 20:-0.124129 21:0.30271 22:0.0912645 23:-0.0181406 24:-0.0587057 25:-0.232155 26:-0.273783 
1 1:-0.0209789 2:0.102991 3:-0.284958 4:-0.0579443 5:0.0540186 6:0.101831 7:0.467239 8:0.256784 9:0.159834 10:-0.195538 11:-0.135734 12:-0.672282 13:-0.772228 14:-0.223108 15:0.193798 16:-0.0393505 17:-0.0433343 18:0.294692 19:-0.241751 20:0.107064 21:-0.199515 22:-0.362986 23:-0.212898 24:0.313014 25:0.0678406 26:-0.414635 
1 1:-0.221818 2:0.286164 3:-0.178436 4:0.319568 5:0.456904 6:1 7:0.539274 8:0.072501 9:-0.273163 10:0.522365 11:-0.176263 12:-0.583045 13:0.0515884 14:0.373359 15:-0.0928393 16:0.042696 17:0.190992 18:0.0188482 19:-0.154861 20:0.642793 21:0.447466 22:0.355922 23:0.0288778 24:-0.468423 25:-0.355615 26:-0.801887 
0.8593040859773965 1:0.518304 2:-0.153296 3:0.0508856 4:0.164735 5:-0.497383 6:-0.344783 7:-0.1921 8:0.506663 9:0.059402 10:-0.204377 11:-0.239138 12:-0.511657 13:-0.273706 14:0.668672 15:0.827013 16:-0.203076 17:0.161624 18:-0.168803 19:0.0298981 20:0.0370774 21:-0.0783303 22:-0.445539 23:-0.29234 24:0.107292 25:-0.164219 26:-0.710767 
1 1:-0.0281724 2:0.236971 3:0.0167317 4:-0.230525 5:0.0448791 6:0.10878 7:0.0942271 8:0.377614 9:-0.269256 10:-0.23693 11:0.1429 12:-0.430544 13:-0.399078 14:-0.0950763 15:0.39698 16:-0.0233454 17:-0.106641 18:0.204129 19:-0.769624 20:-0.273255 21:-0.362177 22:-0.275327 23:-0.215665 24:0.113183 25:-0.208004 26:-0.645906 
1 1:0.371985 2:0.151326 3:0.166993 4:0.233744 5:0.370622 6:0.00566817 7:0.266785 8:0.54848 9:-0.177231 10:0.132411 11:-0.242187 12:-0.734695 13:-0.198076 14:0.425708 15:-0.293046 16:-0.0164495 17:0.222638 18:0.221211 19:-0.101928 20:0.270511 21:0.514213 22:-0.658669 23:-0.497439 24:0.298087 25:-0.0332136 26:-0.29249 
1 1:0.140241 2:0.0921847 3:-0.231597 4:0.131115 5:0.920182 6:0.41256 7:0.0666045 8:0.351519 9:-0.129199 10:-0.174486 11:-0.23148 12:-0.252093 13:-0.737931 14:0.0277774 15:-0.0172252 16:-0.0942729 17:0.331881 18:0.645766 19:-0.20717 20:0.384872 21:0.151008 22:-0.400238 23:-0.0904393 24:-0.0157707 25:0.56478 26:0.31553 
1 1:0.449927 2:0.230045 3:0.00931172 4:0.10742 5:0.45569 6:0.224675 7:0.120515 8:0.912624 9:0.0436432 10:-0.275311 11:-0.273865 12:-0.52477 13:-0.495961 14:0.339907 15:0.337006 16:-0.0436182 17:0.228655 18:0.617543 19:-0.18947 20:-0.284332 21:-0.322225 22:-0.0977033 23:0.0945241 24:0.265517 25:0.156444 26:-0.154579 
1 1:0.302284 2:-0.12055 3:0.254592 4:0.102402 5:0.250759 6:-0.136068 7:-0.0264251 8:0.343635 9:0.0633957 10:-0.286754 11:-0.479082 12:-0.745363 13:-0.135884 14:-0.39057 15:0.0927868 16:-0.0460487 17:0.0799865 18:-0.0892467 19:-0.278499 20:-0.315802 21:0.047663 22:-0.50658 23:-0.351081 24:-0.246052 25:-0.336269 26:-0.249885 
1 1:-0.283437 2:0.0422279 3:-0.218183 4:-1 5:0.290632 6:0.127738 7:0.973255 8:-0.310948 9:-1 10:0.55204 11:-0.652193 12:-0.461498 13:-0.249366 14:-0.169184 15:0.0355493 16:0.378195 17:0.186229 18:0.470813 19:-0.38242 20:-0.337658 21:1 22:-0.418079 23:-0.265914 24:-0.324516 25:0.267061 26:0.361223 
1 1:-0.36525 2:0.368394 3:-0.199849 4:0.30773 5:-0.248182 6:0.0778151 7:0.521471 8:0.740572 9:0.169037 10:0.0628482 11:0.138735 12:-0.784407 13:-0.0252184 14:-0.117223 15:0.288759 16:-0.145699 17:-0.0257707 18:-0.0946303 19:-0.0426616 20:0.264207 21:-0.308775 22:-0.103658 23:0.168029 24:0.0764489 25:-0.45206 26:-0.277227 
1 1:0.0803557 2:0.129511 3:0.519828 4:0.176 5:0.336464 6:0.198113 7:0.179865 8:0.181556 9:0.416449 10:-0.10186 11:0.0937564 12:-0.216306 13:-0.152182 14:-0.263182 15:0.353391 16:0.247271 17:0.328739 18:0.462481 19:-0.0794382 20:-0.507548 21:-0.0841536 22:0.0107608 23:0.33027 24:0.518424 25:0.012388 26:-0.249885 
0.4603845481438089 1:-0.692339 2:0.00991609 3:0.215133 4:-0.529735 5:-0.0851013 6:0.11193 7:-0.0722296 8:0.14346 9:-0.598158 10:-0.529187 11:-0.00917763 12:-0.185838 13:-0.569462 14:-0.0818501 15:0.455272 16:0.158555 17:0.237357 18:0.298259 19:-0.603409 20:0.0222896 21:0.0756943 22:-0.0797943 23:0.33025 24:-0.435439 25:-0.147288 26:-0.775878 
1 1:0.264378 2:0.0226116 3:0.0622724 4:0.231795 5:0.401129 6:0.115025 7:0.277604 8:0.3795 9:-0.0547316 10:-0.150737 11:0.0609234 12:-0.570705 13:-0.342686 14:0.12021 15:0.273758 16:-0.181521 17:-0.143722 18:0.330654 19:-0.314733 20:-0.374508 21:-0.204946 22:-0.368575 23:-0.488903 24:-0.103579 25:-0.0631938 26:-0.249885 
1 1:0.100902 2:0.32294 3:0.109023 4:-0.289712 5:0.337101 6:0.072651 7:0.178451 8:0.246 9:0.140417 10:-0.358418 11:-0.0185 12:-0.14847 13:-0.40404 14:0.373333 15:0.134463 16:-0.0526861 17:0.248043 18:0.734651 19:-0.128502 20:0.203156 21:-0.0118056 22:-0.232374 23:-8.50728e-05 24:0.250992 25:0.397863 26:-0.234612 
1 1:0.407431 2:0.191462 3:0.875449 4:0.631335 5:-0.155863 6:-0.267302 7:0.219313 8:0.393783 9:0.232321 10:-0.0290374 11:0.112655 12:-0.140341 13:-0.364575 14:-0.124962 15:-0.0668356 16:-0.395311 17:-0.223917 18:0.130911 19:-0.313318 20:0.0404908 21:0.182784 22:-0.36754 23:-0.0589741 24:0.542709 25:-0.152313 26:-0.115713 
1 1:-0.285175 2:0.0219241 3:0.0263466 4:0.0202226 5:0.0837366 6:-0.139388 7:-0.0572503 8:0.256135 9:-0.0971043 10:-0.232305 11:-0.235569 12:-0.130679 13:-0.357017 14:0.163012 15:0.0313057 16:-0.130299 17:0.234537 18:0.801077 19:-0.433248 20:0.327231 21:-0.236531 22:-0.338533 23:-0.012897 24:0.016891 25:0.250771 26:0.127256 
1 1:0.168203 2:0.320369 3:0.253541 4:0.658368 5:0.449622 6:0.512966 7:0.240905 8:0.536768 9:0.352482 10:-0.137783 11:-0.303465 12:-0.479773 13:-0.418039 14:0.139692 15:0.114828 16:-0.0317421 17:-0.00419418 18:0.410936 19:-0.121059 20:0.714092 21:0.0461335 22:-0.20374 23:-0.488587 24:0.0172563 25:-0.152856 26:-0.189987 
1 1:0.151533 2:0.763201 3:0.104629 4:0.214048 5:0.0922023 6:0.155753 7:0.563073 8:0.50114 9:0.30386 10:-0.0276749 11:-0.0887873 12:-0.546893 13:-0.108056 14:-0.326503 15:0.328206 16:-0.10592 17:0.243118 18:0.367034 19:-0.0187927 20:0.313349 21:0.278686 22:-0.433362 23:-0.280622 24:0.373746 25:0.12249 26:-0.169295 
1 1:-0.261712 2:0.214856 3:0.395976 4:0.224997 5:-0.138109 6:0.192724 7:0.227983 8:0.481035 9:-0.128809 10:-0.291712 11:0.0685603 12:-0.309622 13:-0.375994 14:0.316569 15:0.0799783 16:-0.18402 17:-0.0723121 18:0.361264 19:-0.268633 20:-0.0447958 21:-0.260163 22:-0.260888 23:-0.114647 24:0.297921 25:0.194673 26:-0.00757718 
1 1:0.348124 2:0.400168 3:0.0494796 4:0.387673 5:-0.18067 6:0.2022 7:0.0466046 8:0.360807 9:0.0716866 10:0.348515 11:0.656961 12:-0.605001 13:-0.379401 14:0.454991 15:-0.388905 16:0.396717 17:0.135715 18:-0.227007 19:0.101685 20:0.0125642 21:0.326735 22:0.135782 23:-0.0495378 24:0.621652 25:0.0908345 26:0.112837 
1 1:0.00338995 2:0.366948 3:0.149215 4:0.140882 5:0.165725 6:0.103893 7:0.176931 8:0.376467 9:0.07447 10:-0.192023 11:-0.0405647 12:-0.393085 13:-0.235205 14:0.0116955 15:0.22516 16:0.0473029 17:0.239927 18:0.740098 19:-0.295169 20:0.389113 21:-0.325464 22:-0.237549 23:0.0913174 24:0.00279021 25:0.269638 26:0.268056 
1 1:0.0358168 2:-0.0242278 3:0.0776863 4:0.415288 5:0.0633725 6:0.0160201 7:0.296017 8:0.405196 9:0.200808 10:0.345047 11:-0.0890016 12:-0.471287 13:-0.0578729 14:-0.206385 15:-0.118291 16:0.143812 17:-0.0787712 18:-0.37684 19:-0.0918301 20:-0.056041 21:0.138794 22:-0.0148642 23:-0.577455 24:-0.0587057 25:0.299208 26:0.333424 
1 1:-0.290387 2:0.00565348 3:0.077326 4:0.0978737 5:0.328369 6:0.272001 7:0.242963 8:0.408365 9:-0.161839 10:-0.526124 11:0.0317647 12:-0.233878 13:-0.40301 14:0.0793888 15:-0.19521 16:-0.0592292 17:0.183554 18:0.762464 19:-0.052444 20:0.548103 21:-0.117617 22:-0.341255 23:0.0265069 24:0.138586 25:0.251959 26:0.0609161 
1 1:0.0530565 2:0.0621067 3:0.52429 4:-0.0109956 5:-0.443988 6:-0.490429 7:-0.412053 8:0.373067 9:-0.190426 10:0.169969 11:-0.0378167 12:-0.345295 13:-0.287943 14:0.281374 15:0.195837 16:0.343356 17:0.000922175 18:-0.432974 19:0.334098 20:0.162979 21:0.259112 22:0.194677 23:-0.0782453 24:-0.337147 25:-0.384384 26:-0.374428 
1 1:0.15516 2:0.117327 3:0.324203 4:0.521496 5:0.373329 6:0.0959293 7:0.308523 8:0.800079 9:0.170555 10:-0.0607923 11:-0.0304815 12:-0.497138 13:-0.202771 14:0.0350614 15:0.0505824 16:-0.11796 17:-0.0172311 18:0.21878 19:0.178741 20:0.491245 21:0.0202234 22:-0.0201554 23:-0.153612 24:0.47008 25:-0.269809 26:-0.593414 
1 1:0.15899 2:0.0421384 3:0.19139 4:-0.706686 5:0.636455 6:0.407053 7:0.262491 8:-0.138957 9:-0.153731 10:-0.180082 11:-0.0922904 12:0.00306066 13:-0.35231 14:0.628351 15:-0.108802 16:0.222995 17:0.522408 18:0.821283 19:0.0565023 20:0.443524 21:0.38485 22:0.567341 23:0.182255 24:0.35314 25:0.413961 26:0.28248 
1 1:0.10171 2:0.442806 3:0.0546511 4:0.777915 5:0.202771 6:0.498291 7:0.434807 8:0.311944 9:0.223094 10:0.298089 11:-0.285712 12:-0.646829 13:-0.613278 14:0.156672 15:0.0851408 16:0.081811 17:-0.00846979 18:0.447987 19:0.192111 20:0.774191 21:0.382143 22:-0.0645541 23:-0.144203 24:0.330779 25:0.0150519 26:-0.127594 
1 1:0.00797288 2:0.113547 3:0.115432 4:-0.0822278 5:0.364714 6:0.151245 7:0.250114 8:0.234171 9:-0.164482 10:-0.373761 11:-0.214693 12:-0.202314 13:-0.399149 14:0.394254 15:0.31872 16:-0.231197 17:0.302954 18:0.841883 19:-0.460617 20:0.179849 21:-0.153661 22:0.0393932 23:0.174319 24:-0.142564 25:0.312921 26:0.180753 
1 1:0.247228 2:0.332435 3:0.479175 4:0.419359 5:0.259087 6:0.17312 7:0.236282 8:0.401666 9:0.225408 10:-0.132262 11:-0.181426 12:-0.204952 13:-0.185433 14:-0.353771 15:0.3532 16:0.0986166 17:0.0885711 18:0.393799 19:-0.445928 20:0.235667 21:-0.184764 22:-0.0467877 23:0.0312004 24:0.31808 25:-0.353755 26:-0.437076 
1 1:-0.00805771 2:0.433775 3:0.206687 4:0.24495 5:0.426146 6:0.315647 7:0.379405 8:0.440025 9:0.00088623 10:-0.321063 11:-0.00750691 12:-0.345151 13:-0.340886 14:-0.0414078 15:0.319169 16:-0.286262 17:0.242387 18:0.617764 19:-0.0162709 20:0.512817 21:-0.199127 22:-0.0335754 23:0.1041 24:-0.678051 25:0.104962 26:-0.0125629 
1 1:0.735712 2:0.0155882 3:-0.358934 4:0.175703 5:0.490489 6:0.532638 7:0.260026 8:-0.122493 9:-0.138844 10:0.311055 11:-0.269279 12:-0.744395 13:0.165404 14:0.0847561 15:-0.247144 16:0.0102744 17:0.300484 18:-0.563197 19:0.0314626 20:-0.408858 21:0.276825 22:0.291677 23:-0.640214 24:-0.0587057 25:-0.617612 26:-0.413267 
1 1:0.276564 2:-0.0428625 3:-0.107764 4:0.480863 5:0.00536458 6:0.639586 7:0.375206 8:-0.137689 9:0.301955 10:0.243346 11:0.177806 12:-0.0930625 13:-0.128512 14:-0.21559 15:-0.00866654 16:0.498401 17:-0.0647344 18:-0.357064 19:0.154522 20:-0.0835559 21:0.128571 22:0.397156 23:-0.158643 24:-0.0889396 25:-0.0154562 26:-0.273725 
1 1:0.165922 2:0.195869 3:-0.152695 4:-0.1852 5:0.120818 6:0.234629 7:0.386881 8:0.396006 9:-0.175928 10:-0.816854 11:-0.307972 12:-0.658429 13:-0.636136 14:-0.271935 15:0.178607 16:-0.594627 17:0.195836 18:-0.0695085 19:-0.702573 20:0.261934 21:-0.181856 22:-0.18031 23:-0.307732 24:0.26061 25:-0.176541 26:-0.494858 
1 1:0.065474 2:0.0979351 3:-0.130646 4:-0.107099 5:0.491376 6:0.300306 7:0.22326 8:0.346379 9:0.0440946 10:-0.155513 11:-0.20404 12:-0.310313 13:-0.31431 14:0.594448 15:-0.0450039 16:-0.382263 17:-0.0350554 18:0.488997 19:0.0724548 20:-0.0245679 21:0.11432 22:-0.0247357 23:-0.316326 24:0.394533 25:0.249867 26:0.184662 
1 1:-0.28649 2:-0.0102704 3:-0.196469 4:-0.922485 5:0.708782 6:0.23385 7:-0.430413 8:0.190655 9:-0.474016 10:-0.985267 11:-0.324675 12:-0.0383923 13:-0.8161 14:0.238556 15:0.297803 16:-0.316389 17:0.169112 18:0.510392 19:-0.799417 20:-0.757531 21:-0.00943002 22:-0.00288197 23:0.535634 24:0.0106561 25:0.148779 26:0.138916 
1 1:-0.18422 2:0.338633 3:0.293981 4:0.367494 5:0.20266 6:0.15859 7:0.171202 8:0.386556 9:-0.0486969 10:0.0157313 11:0.018684 12:-0.70802 13:-0.131334 14:0.343929 15:0.282032 16:-0.0272755 17:0.176734 18:0.365802 19:-0.124735 20:0.450258 21:-0.72372 22:-0.0849096 23:0.125885 24:-0.65468 25:-0.131057 26:-0.35698 
1 1:-0.173097 2:0.2739 3:0.0264592 4:-0.306818 5:0.357807 6:0.132058 7:0.0689827 8:0.396199 9:-0.164488 10:-0.21312 11:-0.0196963 12:-0.332867 13:-0.422308 14:0.0562739 15:0.103507 16:-0.177455 17:0.109075 18:0.521469 19:-0.128005 20:0.158993 21:-0.211876 22:0.143996 23:0.241008 24:0.255752 25:0.325091 26:-0.00192664 
1 1:-0.0191661 2:0.305164 3:-0.0208809 4:-0.0297464 5:0.525251 6:0.347813 7:0.504758 8:0.314299 9:-0.165266 10:-0.0585204 11:-0.197633 12:-0.293605 13:-0.366023 14:0.47986 15:0.293541 16:-0.112537 17:0.325031 18:0.663726 19:-0.469622 20:0.369149 21:0.100913 22:-0.233105 23:0.242902 24:0.370734 25:0.347728 26:0.104853 
1 1:0.0289675 2:0.678788 3:0.484979 4:0.45873 5:0.08622 6:0.02802 7:0.62575 8:0.327072 9:0.0765766 10:0.288659 11:0.067591 12:-0.290898 13:0.162088 14:0.0833401 15:0.371338 16:0.0651647 17:0.00310805 18:0.201506 19:-0.0322248 20:0.26285 21:-0.0760434 22:0.248466 23:0.375514 24:0.230218 25:-0.427231 26:-0.250991 
1 1:0.114128 2:0.141236 3:0.508656 4:0.0253372 5:-0.476663 6:-0.61054 7:-0.783662 8:0.0717438 9:-0.899342 10:0.0142315 11:-0.000615577 12:-0.277087 13:1 14:0.301306 15:-0.00564623 16:0.0407262 17:0.359992 18:-0.365944 19:-0.0675503 20:-0.199049 21:0.357461 22:0.00289304 23:-0.0181406 24:-0.0587057 25:-0.336269 26:-0.249885 
1 1:0.215982 2:0.214923 3:0.105023 4:0.453391 5:0.723468 6:0.634327 7:0.14395 8:0.511172 9:0.0774097 10:-0.0393207 11:-0.138982 12:-0.307802 13:-0.481425 14:0.2702 15:0.271046 16:-0.116567 17:0.0549689 18:0.850151 19:-0.0699849 20:0.247647 21:-0.111742 22:-0.0728592 23:-0.0920104 24:0.492036 25:0.409268 26:0.135002 
1 1:0.170755 2:0.146026 3:0.412586 4:0.594304 5:-0.202111 6:-0.221689 7:0.329142 8:0.53879 9:0.154745 10:-0.1457 11:0.0671068 12:-0.312029 13:-0.273557 14:-0.400751 15:0.385429 16:-0.116213 17:0.243906 18:-0.067062 19:-0.0694741 20:-0.123488 21:-0.510237 22:-0.35371 23:0.126842 24:0.286146 25:-0.61176 26:-0.249885 
1 1:-0.214089 2:0.272107 3:-0.207736 4:0.270547 5:0.529329 6:0.447095 7:0.315014 8:0.277356 9:-0.143807 10:-0.388387 11:-0.00491185 12:-0.333568 13:-0.0729185 14:0.323948 15:0.173033 16:0.0150161 17:-0.0281322 18:0.788068 19:-0.0730057 20:0.579883 21:-0.512746 22:-0.356292 23:0.0641706 24:-0.0467684 25:0.271777 26:0.248867 
1 1:0.155188 2:0.197262 3:-0.0764988 4:-0.051257 5:-0.177077 6:-0.413997 7:0.187051 8:0.426107 9:-0.0462845 10:-0.304675 11:-0.0714377 12:-0.4524 13:-0.346089 14:-0.0504462 15:0.00151514 16:-0.451642 17:0.139025 18:0.557728 19:-0.48026 20:-0.238723 21:-0.369033 22:-0.20841 23:-0.493079 24:0.145822 25:0.276836 26:-0.154887 
1 1:0.107504 2:0.173309 3:0.420484 4:0.394747 5:0.302293 6:-0.143539 7:0.565355 8:0.109523 9:0.0407246 10:0.0131892 11:0.223872 12:-0.173896 13:-0.479272 14:-0.217543 15:0.33786 16:-0.391031 17:0.16179 18:0.21043 19:-0.00812161 20:0.0135038 21:0.0129738 22:-0.218306 23:-0.073669 24:0.659241 25:-0.197007 26:-0.249885 
1 1:0.150353 2:0.47031 3:0.333226 4:0.174784 5:0.197195 6:-0.116981 7:0.477481 8:0.372708 9:0.0885146 10:0.110771 11:0.0613486 12:-0.433765 13:-0.158873 14:0.254955 15:0.423073 16:-0.0290651 17:0.237043 18:0.713637 19:-0.0161895 20:0.449095 21:0.0326862 22:0.278933 23:0.212554 24:0.532653 25:0.565232 26:0.265436 
0.8687910443593945 1:-0.13903 2:-0.0332444 3:-0.172329 4:0.304304 5:0.223193 6:0.378956 7:0.368303 8:0.726698 9:0.0268703 10:-0.390033 11:-0.177969 12:-0.555793 13:-0.316962 14:0.105485 15:-0.126624 16:-0.489221 17:0.0865157 18:-0.00112945 19:-0.497334 20:0.471114 21:-0.346861 22:-0.3501 23:-0.0181406 24:-0.254338 25:-0.412507 26:-0.404145 
1 1:0.304962 2:0.0430301 3:0.0521948 4:0.0944363 5:0.709907 6:0.27733 7:-0.0889596 8:0.312255 9:0.239256 10:-0.322492 11:-0.260051 12:-0.107254 13:-0.546683 14:0.341784 15:0.261473 16:-0.0463558 17:0.335161 18:0.670466 19:-0.41836 20:-0.501472 21:0.154566 22:-0.444363 23:0.137725 24:0.448167 25:0.22824 26:-0.0443351 
1 1:0.426877 2:-0.187101 3:0.661446 4:0.282145 5:0.372171 6:0.276474 7:0.0897612 8:0.259831 9:-0.0926379 10:0.400416 11:-0.125756 12:-0.511301 13:0.227015 14:-0.0424711 15:-0.629651 16:0.100435 17:0.164565 18:-0.555332 19:0.236245 20:0.464983 21:0.503618 22:0.281302 23:-0.270131 24:-0.789198 25:-0.378335 26:-0.46305 
1 1:0.372894 2:-0.150103 3:0.208799 4:-0.0408611 5:-0.042308 6:0.132523 7:0.130035 8:0.538807 9:0.0376497 10:-0.386125 11:0.0377811 12:-0.219007 13:-0.585044 14:-0.458653 15:0.180561 16:-0.0847342 17:0.280437 18:0.176378 19:-0.416595 20:0.48051 21:0.131918 22:-0.377135 23:0.0813256 24:0.0480008 25:0.0240099 26:-0.426154 
1 1:-0.0854489 2:0.0144135 3:0.102658 4:-0.0833375 5:0.181144 6:0.180811 7:0.146658 8:0.359599 9:-0.183276 10:-0.304155 11:-0.338703 12:-0.508648 13:-0.473266 14:-0.178372 15:0.472227 16:-0.222927 17:0.033108 18:0.159023 19:-0.416953 20:-0.338935 21:-0.757203 22:-0.491121 23:-0.0655777 24:0.0237895 25:-0.247514 26:-0.445244 
1 1:0.182229 2:0.178824 3:0.354144 4:0.549295 5:0.33483 6:0.360635 7:0.327892 8:0.391412 9:0.225334 10:-0.119071 11:-0.0870295 12:-0.387064 13:-0.30407 14:0.217482 15:0.306538 16:-0.321854 17:0.022168 18:0.419049 19:-0.141796 20:0.196571 21:-0.288342 22:0.0391272 23:0.174063 24:0.388483 25:-0.0924888 26:-0.450141 
0.2930504245246209 1:0.624398 2:0.0421774 3:0.0413644 4:0.0483317 5:0.197084 6:0.23937 7:0.199392 8:0.915343 9:0.132367 10:-0.159002 11:-0.170725 12:-0.412903 13:-0.572268 14:-0.404426 15:-0.186011 16:0.218455 17:-0.110704 18:0.406788 19:-0.34842 20:-0.213493 21:-0.35445 22:-0.35791 23:-0.0181406 24:0.0279273 25:0.0717508 26:-0.241789 
1 1:0.33516 2:-0.781249 3:0.146968 4:0.249614 5:0.611183 6:0.282186 7:-0.364529 8:0.241141 9:0.100799 10:-0.181214 11:-0.726023 12:-0.687594 13:-0.12519 14:-0.467599 15:-0.136273 16:-0.0944049 17:-0.119353 18:-0.488401 19:-0.340416 20:-0.467185 21:-0.584479 22:-0.106134 23:-0.864728 24:-0.0587057 25:-0.405788 26:-0.205545 
1 1:-0.178123 2:-1 3:-0.266263 4:0.55394 5:0.455872 6:0.191069 7:0.277492 8:-0.252718 9:-0.547949 10:0.832584 11:0.870477 12:1 13:-0.161919 14:0.762928 15:0.208541 16:1 17:0.0975199 18:0.699673 19:0.946235 20:-0.487899 21:0.610525 22:0.224628 23:1 24:0.218499 25:0.493321 26:0.426558 
1 1:0.4797 2:0.0754083 3:0.636532 4:0.0800189 5:-0.0712433 6:-0.0333781 7:0.359037 8:0.413698 9:0.324489 10:-0.0387538 11:-0.0838933 12:-0.170403 13:-0.175195 14:-0.403718 15:-0.013186 16:0.0361876 17:0.00579216 18:-0.414279 19:-0.10582 20:0.0256105 21:0.0795011 22:-0.149849 23:-0.636168 24:-0.431394 25:-0.831018 26:-0.77269 
1 1:-0.0225704 2:-0.333154 3:-0.860956 4:-0.337542 5:0.919055 6:0.838159 7:-0.652918 8:-0.140516 9:-0.13254 10:-0.367635 11:-0.913831 12:-0.679317 13:-0.984517 14:-0.292014 15:-0.621454 16:-0.154275 17:-0.0767135 18:-0.233161 19:-0.0886901 20:-0.0586498 21:0.366339 22:-0.484482 23:-0.329815 24:-0.0587057 25:0.477278 26:0.522041 
1 1:-0.19015 2:0.0347953 3:-0.12614 4:0.342337 5:0.0403314 6:0.0976169 7:0.354733 8:0.765301 9:0.24644 10:-0.0756216 11:-0.382111 12:-0.589528 13:0.343216 14:-0.460888 15:-0.0994743 16:-0.156454 17:0.316806 18:0.365556 19:-0.0623021 20:-0.0828014 21:0.242864 22:-0.0244934 23:-0.244909 24:-0.0116544 25:0.160138 26:0.0161463 
1 1:0.094344 2:0.330579 3:0.0481145 4:0.25033 5:0.333974 6:-0.183658 7:0.397676 8:0.393101 9:0.0679017 10:0.0822025 11:0.198004 12:-0.63763 13:-0.130247 14:0.143701 15:0.256598 16:-0.138273 17:0.13232 18:-0.218817 19:0.0324236 20:-0.0770908 21:0.173561 22:-0.341728 23:-0.192441 24:-0.0587057 25:-0.60253 26:-0.760176 
1 1:0.489899 2:0.100971 3:1 4:0.282961 5:0.123642 6:0.504503 7:-0.0234936 8:0.265243 9:0.254642 10:0.391463 11:-0.294385 12:-0.189686 13:0.284279 14:-0.641143 15:-0.206526 16:0.266353 17:0.550258 18:-0.00204928 19:0.471846 20:0.840431 21:0.441527 22:0.513021 23:-0.356025 24:0.208801 25:-0.606756 26:-0.172865 
1 1:-0.0446763 2:0.175759 3:0.150322 4:0.158472 5:-0.094162 6:-0.0827643 7:0.560335 8:0.682652 9:0.117259 10:-0.19097 11:0.118917 12:-0.207089 13:-0.208351 14:0.236025 15:0.358693 16:-0.164541 17:-0.121087 18:0.00503504 19:-0.271591 20:0.137783 21:0.0210134 22:-0.369498 23:-0.219164 24:0.0159644 25:-0.280549 26:-0.782781 
1 1:-0.507693 2:-0.118165 3:0.117371 4:-0.37346 5:0.698853 6:0.721801 7:0.11552 8:0.20337 9:0.296105 10:0.0205038 11:-0.594807 12:-0.794274 13:-0.0705148 14:-0.0608407 15:-0.0165724 16:0.1656 17:0.345718 18:-0.532219 19:0.0646855 20:0.386102 21:0.599181 22:0.342159 23:-0.075578 24:-0.87081 25:-0.0567403 26:0.0822303 
1 1:0.0384675 2:0.384128 3:0.0611243 4:0.351195 5:0.537184 6:0.59537 7:0.300303 8:0.607961 9:0.195408 10:-0.21002 11:-0.297353 12:-0.340175 13:-0.168873 14:0.0878332 15:0.235157 16:-0.0953033 17:0.15565 18:0.825046 19:0.255119 20:0.580574 21:0.153629 22:-0.331603 23:-0.0513288 24:0.421778 25:0.112188 26:0.0848861 
1 1:0.191377 2:0.601879 3:0.701919 4:0.756762 5:-0.332755 6:-0.122564 7:0.332279 8:0.595218 9:0.108233 10:0.506113 11:0.161774 12:-0.965141 13:-0.0326658 14:0.072453 15:0.0904314 16:-0.222336 17:0.125642 18:-0.282243 19:0.321243 20:-0.497531 21:-0.345967 22:-0.0679572 23:-0.47024 24:-0.253388 25:-0.336269 26:-0.632327 
0.4663098180704561 1:0.0171132 2:0.215608 3:0.488913 4:-0.476718 5:-0.350747 6:0.0863265 7:0.383488 8:0.419515 9:-0.255753 10:0.00762682 11:0.254544 12:-0.238788 13:-0.394369 14:-0.00950167 15:-0.360176 16:0.0870162 17:0.279448 18:-0.167147 19:-0.177302 20:0.0258737 21:0.0941416 22:-0.549288 23:0.307381 24:0.214146 25:-0.852343 26:-0.432379 
0.07108825030622749 1:0.307123 2:-0.280952 3:0.0109996 4:0.20919 5:0.565891 6:0.318535 7:0.516633 8:0.253176 9:0.34457 10:-0.0480344 11:0.215237 12:-0.142226 13:-0.353509 14:0.512678 15:-0.0335742 16:0.204913 17:-0.130976 18:0.267085 19:-0.00500968 20:-0.600865 21:0.142953 22:-0.471069 23:0.284532 24:0.0809363 25:0.303897 26:0.155433 
1 1:-0.108302 2:-0.223984 3:0.210941 4:0.0299101 5:0.29795 6:0.243376 7:0.244038 8:0.317646 9:0.10775 10:-0.36036 11:-0.0952181 12:-0.326163 13:-0.478875 14:0.489314 15:0.280978 16:0.0291996 17:0.195945 18:0.623123 19:-0.112667 20:0.615407 21:-0.0683093 22:-0.199983 23:0.127468 24:0.230888 25:0.275415 26:0.00720445 
1 1:-0.232992 2:0.287211 3:0.349265 4:-0.348971 5:-0.256739 6:0.136605 7:0.297736 8:0.425915 9:-0.401412 10:-0.363416 11:0.0124173 12:-0.322304 13:-0.677326 14:-0.087629 15:0.294297 16:0.0666704 17:0.213702 18:0.585593 19:-0.462843 20:-0.128972 21:-0.162479 22:-0.324876 23:-0.176223 24:0.00610146 25:0.264577 26:0.131007 
1 1:-0.104847 2:0.238701 3:0.315614 4:0.00109372 5:0.177404 6:0.029597 7:0.463797 8:0.340032 9:-0.144493 10:-0.0202285 11:0.185455 12:-0.388328 13:-0.330707 14:0.0188907 15:0.386372 16:-0.148306 17:0.122817 18:0.141746 19:-0.0675942 20:0.116094 21:-0.0149565 22:-0.235616 23:0.226286 24:0.247644 25:-0.050683 26:-0.53988 
1 1:-0.0138875 2:0.104495 3:0.655437 4:0.493093 5:-0.0702072 6:-0.217448 7:0.194517 8:-0.0220372 9:-0.0677567 10:0.00127825 11:-0.427629 12:-0.480258 13:-0.22562 14:0.0323618 15:-0.147024 16:0.0463774 17:-0.693411 18:0.161222 19:-0.136915 20:0.609057 21:0.0724428 22:-0.329061 23:-0.180252 24:-0.353114 25:0.00405934 26:-0.387018 
1 1:0.390603 2:0.484504 3:0.180264 4:0.874782 5:-0.0754081 6:0.0882482 7:0.317458 8:0.62496 9:0.295174 10:0.357172 11:-0.617359 12:-0.494038 13:0.00468131 14:-0.32322 15:0.465021 16:-0.523995 17:-0.0938284 18:-0.605111 19:0.555867 20:0.069178 21:-0.0374046 22:-0.148387 23:-0.277012 24:-0.506252 25:-0.336269 26:-0.249885 
1 1:-0.238492 2:0.227548 3:-0.0162649 4:0.217382 5:0.799995 6:0.316902 7:-0.166553 8:0.121414 9:-0.366689 10:0.132329 11:-0.584504 12:-0.754384 13:0.369019 14:0.173279 15:-0.245362 16:0.159716 17:0.208111 18:0.0619782 19:-0.231805 20:0.0673004 21:0.0808499 22:0.535746 23:-0.318218 24:-0.380627 25:-0.106387 26:-0.274798 
1 1:0.16609 2:0.330918 3:0.375034 4:0.222034 5:0.141871 6:0.0704021 7:0.0853078 8:0.269789 9:-0.17218 10:-0.197579 11:-0.093336 12:-0.432069 13:0.247019 14:0.0366188 15:-0.188914 16:-0.331045 17:0.317472 18:0.443079 19:-0.220421 20:-0.455497 21:-0.0244869 22:0.14613 23:-0.422526 24:-0.202201 25:-0.156958 26:-0.229119 
1 1:0.219145 2:0.00626179 3:0.0280197 4:0.330988 5:0.812075 6:0.326645 7:0.131008 8:0.301745 9:0.209468 10:-0.474455 11:-0.437968 12:-0.11978 13:-0.641015 14:-0.279556 15:0.240667 16:-0.140807 17:0.0732061 18:0.390676 19:-0.395298 20:-0.158512 21:-0.334093 22:-0.427496 23:-0.187855 24:0.46558 25:-0.366965 26:-0.333234 
1 1:0.0620073 2:-0.435161 3:0.924684 4:0.0195397 5:0.215387 6:0.367276 7:0.168626 8:0.255244 9:-0.257023 10:0.306149 11:-0.554669 12:-0.043635 13:-0.17586 14:0.128019 15:-0.20948 16:0.125273 17:-0.35053 18:0.372969 19:-0.313302 20:0.385869 21:0.592057 22:0.194919 23:-0.240939 24:-0.297723 25:0.220302 26:0.0395274 
1 1:-0.109181 2:0.21242 3:0.146507 4:-0.517275 5:0.430926 6:0.19581 7:-0.140619 8:0.178491 9:-0.192131 10:-0.437433 11:-0.172221 12:-0.226677 13:-0.434592 14:-0.439323 15:0.300302 16:-0.0242385 17:0.357535 18:0.626251 19:-0.65369 20:-0.538742 21:-0.553076 22:0.164657 23:0.0242353 24:0.370547 25:0.239807 26:-0.0138456 
1 1:-0.103494 2:0.135943 3:-0.0709561 4:-0.606721 5:0.323573 6:-0.0885055 7:-0.425054 8:-0.00685257 9:-0.319639 10:0.0387222 11:0.116337 12:-0.134182 13:-0.507708 14:-0.110936 15:0.509893 16:-0.0689309 17:0.337239 18:0.676457 19:-0.196066 20:0.102154 21:0.26612 22:0.184753 23:0.406495 24:0.588156 25:0.452985 26:0.225383 
1 1:-0.00308761 2:0.254726 3:0.253509 4:0.135839 5:0.158664 6:-0.029968 7:0.629201 8:0.51692 9:0.123904 10:-0.228118 11:0.0454179 12:-0.377342 13:-0.219468 14:0.0913898 15:0.332612 16:-0.186198 17:-0.0258309 18:-0.0602496 19:-0.294426 20:0.133513 21:0.0827827 22:-0.146472 23:-0.0916643 24:0.515053 25:-0.611772 26:-0.249885 
1 1:0.0648416 2:0.0577497 3:0.346988 4:-0.0464583 5:0.88994 6:0.421253 7:-0.545923 8:0.262069 9:0.153101 10:-0.248821 11:-0.642133 12:-0.591842 13:-0.0736485 14:0.154223 15:-0.13655 16:0.142589 17:-0.0191485 18:0.36752 19:-0.0554571 20:0.0285985 21:-0.255153 22:-0.0098105 23:0.0897576 24:0.0129166 25:0.0237363 26:-0.127132 
1 1:0.32295 2:-0.200715 3:0.134611 4:-0.0699552 5:0.737202 6:0.36533 7:-0.173528 8:0.398721 9:0.01275 10:-0.398568 11:-0.499371 12:-0.483602 13:-0.369654 14:-0.450871 15:0.176314 16:-0.326003 17:0.388529 18:0.38225 19:0.0117993 20:0.16532 21:-0.0193074 22:0.358712 23:-0.146771 24:-0.0587057 25:-0.222596 26:-0.358697 
1 1:0.197254 2:0.194103 3:-0.0180725 4:0.58471 5:0.261195 6:0.250215 7:0.294778 8:0.359094 9:0.142427 10:-0.292 11:-0.0788882 12:-0.375268 13:-0.538169 14:-0.233572 15:0.249193 16:0.12367 17:0.180025 18:0.884664 19:-0.80222 20:0.257243 21:-0.437994 22:-0.327158 23:0.386504 24:0.109008 25:0.331034 26:0.00381245 
1 1:0.0996856 2:-0.00810517 3:0.197406 4:0.308241 5:0.279167 6:0.117929 7:0.6625 8:0.441765 9:0.163209 10:-0.319798 11:-0.210277 12:-0.433874 13:-0.649379 14:0.373527 15:0.23161 16:-0.239646 17:0.0345577 18:0.258253 19:-0.0500304 20:0.266449 21:0.26515 22:-0.546742 23:-0.277409 24:0.430736 25:-0.0568192 26:-0.135099 
1 1:-0.176057 2:0.400699 3:0.724807 4:0.35653 5:0.194995 6:0.276929 7:0.147635 8:0.54482 9:-0.0778645 10:-0.161232 11:0.280585 12:-0.431025 13:-0.152852 14:-0.081837 15:0.505895 16:-0.056199 17:0.0973127 18:0.333074 19:-0.154783 20:0.357912 21:-0.103397 22:-0.00904016 23:-0.0717316 24:-0.116198 25:-0.219511 26:0.133903 
1 1:-0.484438 2:-0.396858 3:-0.570294 4:0.132099 5:-0.127613 6:0.463574 7:-0.437097 8:0.23018 9:-0.0513573 10:-0.737088 11:0.0777249 12:-0.748001 13:-0.0476747 14:-0.0754582 15:-0.283997 16:0.381076 17:0.112139 18:0.595525 19:-0.541102 20:0.290631 21:0.0927757 22:-0.116394 23:0.234844 24:-0.153998 25:-0.0438316 26:-0.00944246 
1 1:0.12129 2:0.0291142 3:0.226131 4:0.503077 5:0.177151 6:-0.108103 7:0.208293 8:0.803598 9:0.0734282 10:0.257189 11:-0.104021 12:-0.786087 13:-0.318388 14:-0.81017 15:-0.118277 16:0.205846 17:0.328627 18:0.377418 19:-0.0413354 20:0.0256935 21:0.128242 22:-0.0519061 23:-0.271289 24:-0.160452 25:-0.412193 26:-0.249885 
1 1:-0.0542074 2:0.259376 3:0.0658211 4:0.0126596 5:-0.0652809 6:-0.0512092 7:-0.0353984 8:0.330619 9:0.10047 10:-0.540061 11:-0.102173 12:-0.498766 13:-0.337251 14:0.315342 15:0.31185 16:-0.0663159 17:0.210051 18:0.471331 19:-0.420146 20:0.0529675 21:-0.162705 22:-0.226988 23:-0.240331 24:0.0867218 25:0.0186842 26:-0.208911 
1 1:0.265743 2:0.50267 3:0.292437 4:0.798558 5:-0.563215 6:-0.285302 7:0.52897 8:0.556466 9:0.146162 10:0.0457211 11:0.0151544 12:-0.51701 13:0.154496 14:-0.116942 15:0.204382 16:-0.341439 17:-0.264248 18:-0.436724 19:0.0096625 20:-0.266909 21:-0.46833 22:-0.193869 23:0.108153 24:0.0274475 25:-0.336269 26:-0.249885 
1 1:-0.390335 2:-0.0249542 3:0.886841 4:0.102936 5:-0.147593 6:0.00325228 7:-0.238786 8:-0.239985 9:-0.317242 10:-0.219352 11:-0.965778 12:-0.611664 13:0.0918767 14:-0.426268 15:-0.21671 16:0.255889 17:0.0143326 18:-0.358471 19:0.0946476 20:0.673083 21:0.55461 22:0.179576 23:-0.0181406 24:-0.167673 25:-0.634225 26:-0.249885 
0.8512651599829234 1:-0.308661 2:0.424321 3:-0.931694 4:-0.761523 5:0.829594 6:0.483819 7:-0.193813 8:-0.43822 9:-0.339513 10:0.0547317 11:-0.612333 12:-0.83994 13:-0.687377 14:0.130156 15:-1 16:0.449631 17:0.346975 18:-0.0771128 19:0.804537 20:0.089764 21:0.478255 22:0.0885218 23:0.267583 24:-0.0918441 25:0.0305566 26:-0.1421 
1 1:-0.027419 2:-0.0979095 3:0.128849 4:0.128506 5:-0.176942 6:0.212179 7:0.0203529 8:0.410114 9:0.0586802 10:-0.332802 11:0.149401 12:-0.359109 13:-0.643863 14:-0.370022 15:0.367305 16:-0.0349594 17:0.117432 18:-0.508771 19:-0.325775 20:0.12097 21:0.0704849 22:-0.0111829 23:-0.057856 24:-0.101312 25:-0.336269 26:-0.249885 
1 1:-0.575478 2:0.217473 3:-0.337063 4:-0.0565197 5:0.319546 6:0.372222 7:0.325851 8:0.0948818 9:-0.22055 10:-0.0211661 11:0.0432706 12:-0.192907 13:-0.158518 14:0.709472 15:0.0762043 16:-0.0510637 17:0.102177 18:0.41663 19:-0.200233 20:-0.267275 21:0.14973 22:0.160894 23:-0.137692 24:0.0270023 25:0.144944 26:0.180543 
1 1:0.440156 2:0.0222802 3:0.444332 4:0.497202 5:0.391717 6:0.137804 7:0.215704 8:0.672715 9:0.206157 10:0.140424 11:-0.456037 12:-0.582322 13:-0.353109 14:-0.245451 15:0.243702 16:-0.584723 17:0.025149 18:0.00346854 19:0.215569 20:-0.682856 21:-0.197127 22:-0.196023 23:-0.409976 24:0.485382 25:-0.179841 26:-0.0497888 
1 1:0.117379 2:0.312619 3:0.251686 4:-0.38095 5:0.617439 6:0.62242 7:-0.0181906 8:0.337748 9:0.0471211 10:-0.312912 11:-0.259451 12:-0.16629 13:-0.455342 14:0.238807 15:0.402899 16:-0.401756 17:0.0440049 18:0.585318 19:-0.322634 20:0.124959 21:0.123514 22:-0.0931292 23:-0.00534459 24:0.326672 25:0.185813 26:0.0728729 
1 1:0.0835035 2:-0.00257853 3:-0.0503966 4:-0.247973 5:0.432057 6:0.347145 7:0.269444 8:0.58593 9:-0.0725003 10:-0.304064 11:-0.0410727 12:-0.482487 13:-0.928666 14:-0.736842 15:0.132096 16:-0.235458 17:0.145912 18:0.352952 19:-0.615595 20:0.59626 21:0.36955 22:-0.13261 23:-0.0323392 24:0.216389 25:-0.0682706 26:-0.261896 
1 1:0.0152832 2:0.101339 3:0.744534 4:0.26499 5:-0.0109618 6:-0.103974 7:-0.478568 8:0.553941 9:-0.362517 10:0.211935 11:-0.0958142 12:-0.424214 13:-0.0930629 14:-0.275305 15:-0.291267 16:0.0598323 17:-0.125883 18:0.463121 19:-0.163722 20:-0.227855 21:0.289108 22:-0.539356 23:-0.111995 24:-0.44972 25:-0.236493 26:-0.424294 
1 1:0.70041 2:0.0300596 3:0.296685 4:0.71681 5:0.0397238 6:-0.189503 7:0.191523 8:0.449721 9:0.226265 10:-0.0251899 11:-0.328868 12:-0.816976 13:-0.382344 14:-0.0274548 15:0.189545 16:-0.40031 17:0.0579842 18:0.257904 19:-0.2194 20:0.512845 21:-0.0237614 22:-0.0176291 23:-0.580116 24:0.153462 25:-0.352856 26:-0.496343 
1 1:0.375278 2:-0.0296848 3:0.305868 4:0.337776 5:-0.379147 6:-0.428124 7:0.346019 8:0.673303 9:0.198162 10:-0.160649 11:-0.828549 12:-0.786537 13:-0.149009 14:-0.245802 15:0.202304 16:-0.525942 17:-0.495063 18:-0.214123 19:-0.550415 20:-0.338735 21:-0.111291 22:-0.161874 23:-0.350176 24:-0.124585 25:-0.336269 26:-0.893609 
1 1:0.426635 2:-0.093398 3:0.185152 4:0.564674 5:-0.415959 6:-0.466243 7:0.32933 8:0.481204 9:0.58491 10:-0.216755 11:-0.489778 12:-0.414653 13:-0.324689 14:-0.199887 15:0.461884 16:-0.708929 17:0.00501713 18:-0.278998 19:-0.382128 20:0.14857 21:-0.252846 22:-0.417865 23:-0.178586 24:-0.324295 25:-0.534454 26:-0.554323 
1 1:0.27898 2:0.653639 3:0.261389 4:0.295569 5:0.136595 6:0.345604 7:0.230979 8:0.52883 9:0.154787 10:0.090089 11:-0.142292 12:-0.481246 13:0.195127 14:0.477687 15:0.365404 16:-0.259529 17:-0.039255 18:0.395307 19:0.452486 20:0.32385 21:-0.22431 22:0.147763 23:-0.150329 24:-0.874635 25:0.107333 26:-0.250577 
1 1:0.101396 2:0.16009 3:0.117987 4:-0.200938 5:0.147065 6:-0.0484948 7:-0.0745615 8:0.00819466 9:0.231419 10:0.328783 11:0.248532 12:-0.48797 13:-0.43618 14:-0.135801 15:-0.337647 16:0.0776507 17:0.151152 18:0.196222 19:-0.105323 20:0.0396786 21:0.574691 22:0.0658009 23:-0.289387 24:-0.470194 25:-0.3785 26:-0.574353 
1 1:0.389218 2:-0.0565847 3:-0.267455 4:0.149064 5:0.498703 6:0.532383 7:0.0580505 8:0.709415 9:0.233404 10:-0.343968 11:-0.38345 12:-0.516542 13:-0.931235 14:-0.384021 15:0.37339 16:-0.253737 17:0.309581 18:-0.328844 19:0.0151172 20:-0.337658 21:0.214805 22:-0.160603 23:0.197375 24:0.172499 25:-0.336269 26:-0.249885 
1 1:0.227043 2:-0.220099 3:-0.535334 4:0.476524 5:0.79128 6:0.686832 7:0.283682 8:0.386553 9:-0.118147 10:0.0691037 11:-0.273232 12:-0.760211 13:-0.146536 14:-0.560365 15:-0.170903 16:-0.218788 17:0.016249 18:0.00703331 19:-0.331357 20:-0.0175178 21:0.0683054 22:-0.509936 23:-0.0376973 24:-1 25:-0.351925 26:-0.30533 
1 1:0.359635 2:-0.0563785 3:0.169103 4:-0.0937861 5:-0.0680079 6:-0.213254 7:0.397434 8:0.381257 9:0.0781856 10:-0.276093 11:0.111912 12:-0.200974 13:-0.536307 14:-0.152668 15:0.179291 16:-0.465698 17:-0.0095054 18:0.379503 19:-0.639994 20:0.153112 21:0.110471 22:-0.441951 23:-0.176567 24:0.655206 25:-0.0715398 26:-0.612831 
1 1:0.381358 2:0.224923 3:0.661347 4:0.468703 5:-0.0451351 6:-0.536055 7:0.133517 8:0.427301 9:0.288675 10:0.049193 11:-0.295881 12:-0.541433 13:-0.0574957 14:-0.191187 15:-0.0859707 16:0.232545 17:0.107657 18:-0.411574 19:0.00945136 20:0.231526 21:0.55453 22:0.754054 23:-0.0446839 24:0.243067 25:-0.860551 26:-0.249885 
1 1:0.490995 2:0.470411 3:0.107116 4:0.0854806 5:-0.153506 6:-0.212825 7:0.147354 8:0.575845 9:-0.128091 10:-0.0656745 11:-0.106235 12:-0.555549 13:-0.171997 14:-0.0101587 15:0.237349 16:-0.271206 17:0.0701454 18:0.431258 19:0.0673986 20:0.313384 21:-0.236307 22:0.0926711 23:-0.36165 24:-0.257391 25:0.178163 26:-0.0826081 
1 1:-0.243774 2:0.223911 3:0.421725 4:-0.545901 5:-0.204777 6:-0.0203546 7:0.305275 8:0.27263 9:-0.251339 10:-0.249694 11:0.324386 12:-0.428353 13:-0.510494 14:-0.160818 15:0.72517 16:-0.0595012 17:0.190778 18:0.197128 19:-0.487829 20:0.0110024 21:-0.0739133 22:-0.276487 23:-0.400286 24:0.0755404 25:-0.139154 26:-0.707067 
1 1:-0.0969264 2:-0.177675 3:0.103229 4:0.0878645 5:0.458798 6:0.686436 7:0.460303 8:0.525168 9:0.213657 10:-0.348062 11:-0.20162 12:-0.115252 13:-0.732932 14:-0.114119 15:0.00696324 16:-0.018229 17:-0.100059 18:-0.240513 19:-0.152771 20:0.128998 21:-0.0968119 22:-0.155341 23:-0.171384 24:0.27058 25:0.126091 26:-0.111686 
1 1:0.382602 2:0.0132014 3:0.296263 4:0.168057 5:0.319632 6:0.304515 7:0.306781 8:0.880444 9:0.179518 10:0.133579 11:0.0747164 12:-0.288274 13:-0.515102 14:0.0230519 15:-0.110927 16:-0.159383 17:0.173914 18:0.250069 19:0.00595813 20:-0.468642 21:0.280182 22:0.130625 23:-0.708075 24:0.275475 25:-0.00305367 26:-0.604588 
0.535819757350897 1:-0.618522 2:0.188846 3:0.53431 4:-0.360251 5:0.111491 6:0.000209116 7:0.157157 8:0.317845 9:-0.2316 10:-0.225811 11:-0.173544 12:0.11707 13:-0.237034 14:0.160437 15:0.159842 16:0.184829 17:0.5531 18:0.71 19:0.14075 20:0.160961 21:0.0364746 22:0.146317 23:0.231228 24:0.208816 25:0.306265 26:0.0347614 
1 1:-0.19934 2:-0.277058 3:-0.641786 4:-0.652364 5:0.465447 6:-0.162024 7:-0.951616 8:0.223856 9:-0.340015 10:-0.581733 11:-0.217682 12:-0.296944 13:-1 14:-0.362333 15:0.170673 16:-0.0266485 17:0.0798031 18:0.680396 19:-0.843833 20:0.304124 21:0.0374816 22:-0.283621 23:0.471827 24:0.658244 25:0.404773 26:0.127855 
1 1:-0.22611 2:0.327342 3:0.246365 4:-0.088597 5:0.00326354 6:0.00432846 7:0.244747 8:0.578909 9:-0.232074 10:-0.294601 11:-0.0378546 12:-0.319198 13:-0.501038 14:-0.040628 15:0.370867 16:-0.328913 17:-0.199323 18:0.251865 19:-0.725654 20:0.225424 21:-0.223707 22:0.199165 23:-0.236854 24:-0.0589428 25:0.157527 26:-0.4349 
1 1:-0.0723307 2:0.445276 3:0.16169 4:0.686116 5:0.0818874 6:0.418151 7:0.538135 8:0.4868 9:0.03396 10:-0.550671 11:-0.0626543 12:-0.215274 13:0.00387306 14:-0.0775039 15:0.289562 16:-0.124287 17:-0.062565 18:0.133114 19:-0.125549 20:-0.0593044 21:-0.550091 22:-0.840449 23:-0.401742 24:-0.760559 25:-0.29998 26:-0.160625 
1 1:0.126258 2:-0.339308 3:0.347369 4:0.949363 5:0.466552 6:0.509119 7:0.488825 8:0.592585 9:0.192098 10:0.34047 11:0.258658 12:0.107535 13:-0.350027 14:0.0510018 15:0.37172 16:0.106127 17:-0.0259896 18:0.469425 19:0.112503 20:-0.279898 21:-0.0500549 22:-0.65492 23:-0.0648976 24:0.641618 25:0.194883 26:0.0345068 
1 1:0.196397 2:0.193053 3:0.125102 4:-0.00668736 5:0.360373 6:0.265535 7:0.152666 8:0.404335 9:0.0407668 10:-0.146727 11:-0.0077562 12:-0.172472 13:-0.423601 14:-0.12167 15:0.241474 16:-0.0805346 17:0.457123 18:0.604262 19:-0.0561746 20:-0.132024 21:0.0314701 22:-0.00858245 23:0.015831 24:0.413956 25:0.161029 26:-0.126133 
1 1:0.462338 2:0.219054 3:-0.149159 4:0.107431 5:0.475347 6:-0.0253212 7:-0.0441324 8:0.223976 9:0.151266 10:-0.703054 11:-0.297304 12:-0.42494 13:-0.47182 14:0.0868418 15:0.274514 16:-0.131112 17:0.339803 18:0.653788 19:-0.730462 20:0.141417 21:-0.0345752 22:-0.34865 23:0.173961 24:0.404181 25:0.0682888 26:-0.0629055 
1 1:0.318394 2:0.0884838 3:0.260525 4:0.386791 5:0.00920355 6:-0.163867 7:0.170994 8:0.517414 9:0.151747 10:-0.00806401 11:-0.00613389 12:-0.265442 13:-0.436827 14:-0.0927622 15:0.18909 16:0.0206861 17:0.289568 18:0.727113 19:-0.235936 20:0.0354484 21:-0.0355141 22:-0.25677 23:-0.223004 24:0.899925 25:0.372755 26:0.290042 
1 1:0.117803 2:0.112091 3:0.118606 4:0.164069 5:0.0783567 6:0.0795804 7:0.239848 8:0.0417481 9:0.163595 10:-0.126504 11:-0.0146056 12:-0.57635 13:-0.466256 14:-0.212384 15:0.0575296 16:-0.430657 17:0.158903 18:0.360127 19:-0.405522 20:0.369912 21:-0.347473 22:0.127473 23:-0.313425 24:0.495497 25:-0.0304989 26:-0.499673 
1 1:0.22611 2:-0.108453 3:0.257893 4:0.213751 5:0.0954725 6:-0.0381755 7:0.181768 8:0.423612 9:-0.090583 10:-0.23371 11:0.139683 12:-0.496372 13:-0.689712 14:0.398232 15:0.251161 16:-0.0257699 17:0.0215533 18:0.505833 19:-0.264814 20:-0.181893 21:-0.144021 22:-0.422601 23:-0.270266 24:0.300804 25:-0.0198198 26:-0.129056 
1 1:-0.221434 2:0.0972832 3:-0.0688387 4:0.341479 5:0.770396 6:0.824632 7:0.207358 8:-0.0492031 9:-0.178946 10:-0.0960271 11:-0.354888 12:-0.827354 13:0.0655068 14:-0.0555605 15:0.0117804 16:-0.164678 17:0.16542 18:-0.567216 19:-0.177804 20:0.0936908 21:0.331748 22:-0.0497495 23:-0.0181406 24:-0.0587057 25:-0.336269 26:-0.249885 
1 1:0.301308 2:0.327665 3:0.264443 4:-0.102132 5:0.33225 6:0.132714 7:0.288935 8:0.417949 9:-0.0822812 10:-0.240117 11:0.0830815 12:-0.266516 13:-0.411569 14:0.193494 15:0.563106 16:-0.0245741 17:0.391177 18:0.455399 19:-0.00234968 20:0.189331 21:0.202391 22:-0.347365 23:0.0727619 24:-0.131017 25:0.0228896 26:-0.0779738 
1 1:-0.177838 2:-0.17253 3:-0.0593481 4:-0.12311 5:0.528326 6:0.327953 7:0.153641 8:0.39247 9:0.082312 10:-0.278574 11:-0.156074 12:-0.558376 13:-0.441968 14:0.348538 15:0.0413176 16:-0.130737 17:0.251751 18:-0.129092 19:-0.175983 20:0.407111 21:0.280393 22:-0.596111 23:-0.166611 24:0.165808 25:-0.238479 26:-0.0728504 
1 1:0.251429 2:-0.189418 3:-0.0103367 4:0.101241 5:0.399843 6:0.111376 7:-0.0997757 8:0.458806 9:-0.152664 10:-0.358987 11:-0.413088 12:-0.493365 13:-0.316966 14:0.0871215 15:0.105665 16:-0.346421 17:-0.0822249 18:0.621358 19:-0.481625 20:0.110781 21:-0.0402842 22:-0.406389 23:-0.254666 24:-0.022121 25:0.402796 26:0.370739 
1 1:-0.213501 2:0.203957 3:0.280107 4:0.0189064 5:-0.159781 6:0.0226666 7:0.034305 8:0.303919 9:-0.279807 10:-0.189146 11:-0.109691 12:-0.393857 13:-0.409162 14:-0.142872 15:0.293766 16:-0.115265 17:-0.167807 18:0.201826 19:-0.197702 20:-0.738937 21:-0.349394 22:-0.188202 23:-0.115884 24:-0.163564 25:-0.35753 26:-0.406267 
1 1:-0.118639 2:0.0276292 3:-0.404463 4:-0.226779 5:0.468095 6:0.452881 7:0.451174 8:0.771147 9:0.0970772 10:-0.271851 11:-0.0406224 12:-0.56623 13:-0.236879 14:0.00395633 15:0.00207458 16:-0.341585 17:0.33095 18:-0.0207685 19:-0.309734 20:0.121426 21:0.0902453 22:-0.146237 23:-0.0755007 24:0.0766215 25:-0.198473 26:-0.143176 
1 1:-0.0663304 2:0.20251 3:0.183877 4:-0.142133 5:0.276559 6:0.109083 7:0.583045 8:0.113625 9:0.0442071 10:-0.0878995 11:-0.0431391 12:-0.501885 13:-0.607202 14:0.743752 15:0.0743113 16:-0.0687263 17:0.278351 18:0.63207 19:-0.101975 20:0.0180238 21:0.15703 22:-0.112818 23:0.246336 24:0.330287 25:0.260561 26:0.123122 
1 1:0.277042 2:0.279049 3:0.391049 4:0.169623 5:0.341453 6:0.307799 7:0.529686 8:0.632271 9:0.221942 10:-0.108588 11:0.0357242 12:-0.266116 13:-0.69565 14:-0.0935906 15:0.21847 16:-0.0689051 17:0.00415511 18:0.649716 19:-0.349812 20:0.25628 21:0.476583 22:-0.113007 23:0.185969 24:0.596479 25:0.1705 26:0.074549 
1 1:-0.0534996 2:0.152429 3:0.175768 4:0.14093 5:-0.35523 6:0.0478868 7:0.104023 8:0.597665 9:-0.173832 10:-0.255337 11:-0.110425 12:-0.519203 13:-0.356868 14:-0.533011 15:0.246387 16:0.04726 17:-0.0949737 18:0.327268 19:0.108378 20:0.314464 21:-0.270402 22:-0.388143 23:-0.0376632 24:-0.173114 25:0.0116478 26:-0.155271 
1 1:0.235433 2:0.2642 3:0.0379594 4:0.473889 5:0.413808 6:0.039555 7:0.303183 8:0.469278 9:-0.11157 10:-0.0412154 11:-0.110597 12:-0.447258 13:0.0645773 14:0.0456191 15:0.251208 16:-0.321315 17:-0.153823 18:0.242875 19:-0.0467644 20:0.129009 21:-0.880822 22:-0.246567 23:-0.458616 24:-0.147453 25:-0.00213396 26:-0.208735 
1 1:-0.0404433 2:-0.104029 3:-0.261704 4:0.178754 5:-0.0366075 6:-0.0783767 7:0.162096 8:0.562145 9:0.085541 10:-0.381198 11:-0.180094 12:-0.387884 13:-0.503499 14:-0.0959163 15:0.17304 16:0.0125091 17:0.113854 18:0.914163 19:-0.3162 20:-0.107072 21:-0.218122 22:-0.334345 23:0.0141061 24:0.172751 25:0.427435 26:0.29547 
1 1:0.223422 2:0.112123 3:0.295318 4:0.12407 5:0.0490447 6:-0.184113 7:0.411556 8:0.305712 9:0.171015 10:-0.153719 11:0.0573494 12:-0.218384 13:-0.400459 14:0.195714 15:0.0451751 16:-0.00345051 17:-0.0209024 18:0.408617 19:-0.457484 20:0.559673 21:-0.16753 22:-0.219744 23:-0.206423 24:0.139526 25:0.0624275 26:-0.148749 
1 1:0.0765446 2:0.314937 3:0.400045 4:0.23262 5:-0.178981 6:-0.105112 7:0.00642056 8:0.305078 9:-0.105279 10:-0.0437408 11:-0.326671 12:-0.673508 13:0.064793 14:0.261054 15:0.149794 16:-0.325999 17:0.258042 18:0.2945 19:-0.254239 20:-0.166628 21:0.0797862 22:0.392082 23:-0.635885 24:-0.0587057 25:-0.397502 26:-0.772451 
1 1:-0.122162 2:0.788531 3:0.496244 4:0.921906 5:0.343435 6:0.582485 7:0.737564 8:0.31649 9:-0.134024 10:-0.0983928 11:-0.089737 12:-0.380468 13:0.424043 14:-0.202296 15:-0.0704642 16:0.0283503 17:-0.0511212 18:-0.215634 19:0.175296 20:0.252054 21:-0.162705 22:-0.0101906 23:-0.572957 24:-0.0587057 25:-0.336269 26:-0.249885 
1 1:0.699227 2:0.333997 3:0.24558 4:-0.201108 5:0.194192 6:0.101409 7:0.0957508 8:-1 9:0.213122 10:-0.591592 11:0.249051 12:-0.266504 13:-0.28549 14:-0.365062 15:0.497119 16:0.032773 17:0.889009 18:-0.416494 19:-0.164562 20:0.615243 21:-0.0190931 22:-0.332719 23:-0.383214 24:-0.160027 25:-0.0355716 26:-0.195863 
1 1:0.401215 2:-0.238377 3:-0.493887 4:0.100808 5:0.391683 6:0.0682323 7:0.2552 8:0.706312 9:0.304137 10:0.234277 11:-0.2401 12:-0.79336 13:-0.161673 14:0.00951405 15:-0.515889 16:-0.0577526 17:-0.271917 18:0.0187559 19:0.148816 20:-0.127607 21:0.450461 22:-0.256604 23:-0.0181406 24:-0.0587057 25:-0.250565 26:-0.23302 
1 1:0.307203 2:0.252959 3:0.285076 4:0.865224 5:-0.178666 6:0.226539 7:0.0388611 8:0.402431 9:0.161587 10:0.201385 11:-0.359843 12:-0.655249 13:-0.462124 14:-0.319166 15:0.336546 16:0.0124173 17:0.333176 18:-0.000793874 19:0.185896 20:0.361949 21:-0.0329019 22:0.25419 23:-0.43086 24:-0.0587057 25:-0.450018 26:-0.370084 
1 1:0.482179 2:-0.160457 3:0.495923 4:0.341333 5:0.136593 6:0.241516 7:0.443288 8:0.953827 9:0.497634 10:0.0406333 11:-0.164608 12:-0.468029 13:-0.427453 14:-0.309102 15:0.235982 16:-0.301878 17:-0.173714 18:-0.0757336 19:-0.302049 20:0.348606 21:-0.195932 22:-0.476017 23:-0.122228 24:0.700612 25:-0.705982 26:-0.249885 
1 1:0.300871 2:0.176157 3:-0.158802 4:0.0636954 5:0.38933 6:-0.0415697 7:0.587888 8:0.515935 9:-0.00980633 10:-0.260445 11:-0.371013 12:-0.545323 13:-0.769427 14:-0.335011 15:0.497819 16:0.00288767 17:-0.0396213 18:0.21046 19:-0.0320886 20:0.277574 21:0.067826 22:-0.161862 23:0.322459 24:0.340214 25:-0.337239 26:-0.249885 
1 1:0.116136 2:-0.078607 3:0.268169 4:0.101305 5:0.476109 6:0.268746 7:0.0884231 8:0.220033 9:-0.0156254 10:-0.0801174 11:-0.278411 12:-0.324042 13:-0.172344 14:-0.563057 15:0.0915184 16:0.0725653 17:0.126245 18:0.33246 19:-0.119103 20:-0.559673 21:0.426592 22:0.0557236 23:-0.183028 24:0.164623 25:-0.221832 26:-0.389367 
1 1:0.116814 2:0.224748 3:0.217697 4:0.460203 5:0.30003 6:0.49868 7:0.259797 8:0.478274 9:0.0771788 10:-0.244786 11:-0.16975 12:-0.182783 13:-0.235379 14:0.183938 15:0.185716 16:-0.303403 17:-0.024102 18:0.15852 19:-0.291788 20:0.103571 21:-0.0336683 22:-0.5163 23:-0.248114 24:0.118293 25:-0.176995 26:-0.31051 
1 1:0.277458 2:-0.140164 3:0.0103421 4:0.155627 5:0.159101 6:0.246668 7:0.170035 8:0.189493 9:0.0858205 10:-0.330732 11:-0.0467271 12:-0.593131 13:-0.562881 14:0.224268 15:0.647554 16:-0.00477416 17:0.0869435 18:0.346182 19:0.0728042 20:-0.130292 21:-0.103213 22:0.00257783 23:-0.718977 24:0.350751 25:-0.394274 26:-0.31118 
1 1:-0.176737 2:0.194711 3:0.255921 4:0.214019 5:0.0663276 6:0.269235 7:0.52759 8:0.591702 9:0.0516291 10:-0.0100469 11:-0.0396032 12:-0.602098 13:-0.416692 14:0.422691 15:0.328307 16:-0.34583 17:0.222345 18:-0.0888414 19:-0.197389 20:0.323255 21:-0.312974 22:-0.160603 23:-0.0181406 24:-0.0978418 25:-0.295729 26:-0.375759 
1 1:0.0595354 2:-0.162757 3:-0.00864634 4:-0.226466 5:0.247042 6:-0.010906 7:0.17912 8:0.200458 9:-0.0584091 10:-0.364264 11:0.0202852 12:-0.605002 13:-0.452187 14:0.408597 15:0.179138 16:-0.166501 17:0.253369 18:0.787603 19:-0.422619 20:0.152028 21:-0.421269 22:0.11497 23:-0.00355244 24:0.340736 25:0.462321 26:0.280532 
1 1:0.200582 2:-0.27187 3:-0.0559082 4:0.231447 5:0.06005 6:0.160543 7:0.127511 8:0.47184 9:0.124366 10:-0.376541 11:-0.428233 12:-0.38487 13:-0.805033 14:-0.764288 15:0.308401 16:-0.109518 17:-0.0507198 18:0.576983 19:-0.579096 20:0.239541 21:-0.207525 22:-0.160603 23:-0.491457 24:-0.0417523 25:0.290895 26:0.0365158 
1 1:0.214408 2:-0.0524384 3:0.535943 4:-0.0592718 5:-0.316193 6:-0.371416 7:0.10994 8:0.395332 9:0.124572 10:-0.207379 11:-0.0520309 12:-0.346239 13:-0.217014 14:-0.0149947 15:0.0763564 16:-0.190796 17:0.0360947 18:0.212514 19:-0.0176916 20:0.0243522 21:0.119601 22:-0.0773611 23:-0.366969 24:-0.1426 25:-0.615516 26:-0.249885 
1 1:0.0400988 2:-0.301237 3:-0.451221 4:-0.931328 5:0.526212 6:0.281728 7:-0.203606 8:0.150712 9:-0.284562 10:-0.89207 11:-0.41104 12:-0.139839 13:-0.902559 14:0.187459 15:-0.236678 16:-0.221621 17:0.24341 18:0.63934 19:-0.799417 20:0.0204567 21:-0.81994 22:-0.160603 23:0.0907908 24:0.20755 25:0.417178 26:0.275647 
1 1:0.211524 2:0.297244 3:0.208657 4:0.295149 5:0.535343 6:0.132682 7:0.27924 8:0.468159 9:-0.0143226 10:0.0363208 11:-0.187966 12:-0.478693 13:-0.12321 14:0.33351 15:0.0343777 16:-0.0505327 17:0.10268 18:0.705919 19:-0.169471 20:0.534257 21:0.135395 22:-0.105013 23:-0.0248311 24:0.25797 25:0.308309 26:0.188259 
1 1:0.08043 2:0.189951 3:-0.0350177 4:0.0423031 5:0.719484 6:0.159163 7:0.304976 8:0.236367 9:-0.0970645 10:-0.0756085 11:-0.0902789 12:-0.412308 13:-0.366218 14:0.133613 15:-0.0714611 16:0.0928419 17:0.238494 18:0.800624 19:-0.157807 20:-0.0868653 21:-0.0350906 22:0.135219 23:-0.249522 24:0.387624 25:0.594168 26:0.37509 
1 1:-0.223198 2:0.197591 3:0.0113487 4:0.167053 5:0.128656 6:0.263871 7:0.587454 8:0.326122 9:0.0409263 10:-0.121747 11:-0.0697664 12:-0.498132 13:-0.185136 14:0.310406 15:0.0822277 16:-0.201198 17:0.163403 18:0.546417 19:-0.331737 20:0.0573576 21:0.0746068 22:0.00217602 23:-0.0909861 24:0.193394 25:0.175683 26:-0.0510982 
1 1:-0.0213519 2:0.56062 3:0.244616 4:0.279524 5:-0.0158451 6:0.195881 7:0.288089 8:0.44282 9:-0.117224 10:-0.116372 11:-0.0831775 12:-0.303678 13:-0.142549 14:-0.167809 15:0.613367 16:-0.226861 17:-0.0158056 18:0.423513 19:-0.0315497 20:0.270178 21:-0.251527 22:0.0292221 23:0.00622491 24:-0.0325661 25:-0.190035 26:-0.0444458 
0.8458648563443296 1:0.253608 2:-0.23182 3:0.0839372 4:0.21585 5:0.282808 6:0.105539 7:0.431133 8:0.3854 9:1 10:-0.171181 11:-0.0735511 12:-0.304418 13:-0.43071 14:-0.112761 15:-0.199427 16:-0.0461358 17:0.773062 18:-0.366738 19:-0.577635 20:0.469175 21:-0.118504 22:-0.842074 23:-0.132679 24:-0.0117506 25:-0.336269 26:-0.249885 
1 1:0.122366 2:0.396523 3:0.158693 4:0.166521 5:0.347187 6:0.229275 7:0.23604 8:0.497288 9:0.125641 10:-0.199083 11:-0.0561911 12:-0.318564 13:-0.112939 14:0.0404479 15:0.128514 16:-0.00964388 17:0.273343 18:0.952769 19:-0.348223 20:0.164512 21:0.0324149 22:0.0401768 23:0.262196 24:0.197907 25:0.453333 26:0.232303 
1 1:-0.0647868 2:0.519692 3:-0.119705 4:0.248211 5:-0.381464 6:-0.00600093 7:0.496614 8:0.436641 9:-0.0676454 10:0.192041 11:0.119079 12:-0.65479 13:0.0948373 14:0.130491 15:0.104735 16:0.0364486 17:-0.0399712 18:0.191434 19:-0.603806 20:-0.153661 21:-0.225087 22:0.0564295 23:-0.23822 24:-0.585133 25:-0.169075 26:-0.436056 
1 1:-0.206882 2:0.00866611 3:0.205378 4:-0.255962 5:0.623579 6:0.316409 7:-0.0620595 8:0.226208 9:-0.181433 10:-0.256702 11:-0.383477 12:-0.267551 13:-0.582337 14:0.473975 15:0.307435 16:-0.0386286 17:0.21854 18:0.906865 19:-0.0226659 20:0.0671978 21:-0.358642 22:-0.362223 23:0.0584634 24:0.143971 25:0.63701 26:0.564209 
1 1:0.173413 2:0.11288 3:0.183396 4:0.0828866 5:0.173925 6:0.212448 7:0.359744 8:0.00391594 9:0.368253 10:-0.122009 11:-0.031614 12:-0.332171 13:-0.119239 14:-0.181384 15:0.196765 16:-0.0859281 17:0.102223 18:-0.287685 19:-0.200163 20:0.0760682 21:0.340767 22:0.0137074 23:-0.0608403 24:-0.33891 25:-0.978648 26:-0.249885 
0.2521055332084879 1:-0.0272726 2:0.12128 3:0.358347 4:0.0256805 5:-0.56741 6:-0.654336 7:0.624484 8:0.459373 9:0.0742916 10:0.159915 11:0.438514 12:-0.0960234 13:-0.618201 14:0.0947805 15:0.162406 16:0.103865 17:0.180138 18:-0.189368 19:-0.0159258 20:0.247082 21:0.313405 22:0.0833958 23:0.00622198 24:0.193191 25:-0.148301 26:-0.340406 
1 1:-0.0785966 2:0.442537 3:0.0842093 4:0.495077 5:0.37504 6:-0.0269061 7:0.0136251 8:-0.213894 9:-0.130532 10:0.212362 11:-0.354295 12:-0.905874 13:0.405009 14:0.0847438 15:0.12831 16:-0.117368 17:0.15514 18:0.28873 19:-0.455668 20:-0.601356 21:0.283021 22:0.404498 23:-0.0468379 24:-0.839976 25:-0.311062 26:-0.503091 
-1 1:0.0145544 2:0.196004 3:0.186474 4:-0.116516 5:0.205342 6:0.116099 7:0.474513 8:0.710274 9:-0.0984811 10:-0.168602 11:0.357946 12:-0.612578 13:-0.227167 14:0.233249 15:0.119667 16:-0.286676 17:0.049855 18:0.346208 19:-0.246443 20:0.466516 21:-0.340182 22:-0.343228 23:-0.193884 24:-0.53757 25:0.209791 26:0.0593094 
-1 1:0.267244 2:0.17011 3:-0.101106 4:0.499201 5:0.424074 6:0.193971 7:0.219102 8:0.740558 9:0.422805 10:-0.253953 11:-0.335306 12:-0.514808 13:-0.614832 14:-0.0849903 15:0.784337 16:-0.000448409 17:0.289356 18:0.201806 19:-0.250858 20:0.0792183 21:0.258736 22:-0.486366 23:-0.331628 24:0.420038 25:-0.803868 26:-0.249885 
-1 1:0.45294 2:0.196336 3:0.463465 4:0.287813 5:-0.485947 6:-0.469767 7:0.465772 8:0.241403 9:0.128866 10:-0.0062409 11:-0.0128315 12:-0.579545 13:-0.387447 14:-0.418863 15:0.165447 16:0.140737 17:-0.125487 18:-0.525846 19:-0.237194 20:-0.559431 21:-0.196276 22:-0.195148 23:-0.269876 24:0.737438 25:-0.971079 26:-0.249885 
-1 1:0.0166748 2:0.362078 3:0.303139 4:-0.0754376 5:0.577275 6:0.91271 7:0.119733 8:-0.000141427 9:-0.274247 10:-0.250059 11:-0.117914 12:-0.129351 13:0.374774 14:-0.638382 15:-0.0114676 16:0.00332369 17:-0.146835 18:-0.552612 19:-0.766876 20:0.236105 21:0.171299 22:-0.000290568 23:-0.194682 24:-0.708256 25:-0.820969 26:-0.249885 
-1 1:0.338857 2:0.326771 3:0.190398 4:0.466972 5:0.590587 6:0.399174 7:0.474024 8:0.369638 9:0.450042 10:-0.165787 11:-0.240124 12:-0.396702 13:-0.218334 14:0.0128723 15:0.487644 16:-0.219831 17:0.128015 18:-0.443422 19:0.212513 20:0.471044 21:0.115217 22:-0.155843 23:-0.284187 24:0.49983 25:-0.982536 26:-0.249885 
-1 1:-0.0974849 2:0.168843 3:0.129899 4:0.160832 5:0.632224 6:0.126688 7:0.0299552 8:0.386662 9:-0.0590595 10:-0.731855 11:-0.230436 12:-0.328404 13:-0.424184 14:-0.122317 15:0.128131 16:-0.548061 17:0.135363 18:1 19:-0.357455 20:-0.132651 21:-0.52074 22:-0.810247 23:0.116441 24:-0.0552602 25:0.323954 26:0.115678 
-1 1:-0.485934 2:0.162162 3:0.227295 4:-0.0910107 5:0.0390577 6:0.0733006 7:0.237879 8:0.293491 9:-0.309525 10:0.00950642 11:0.133885 12:-0.52788 13:-0.432887 14:0.0783839 15:0.825318 16:-0.181012 17:0.121178 18:0.412189 19:-0.341816 20:0.210957 21:-0.400159 22:-0.0611792 23:-0.0949691 24:0.577123 25:-0.198993 26:-0.677721 
-1 1:0.202842 2:0.274374 3:0.195612 4:0.310961 5:-0.0509692 6:-0.128932 7:0.0678105 8:0.135405 9:0.0882376 10:0.0490862 11:-0.24462 12:-0.791 13:-0.232318 14:0.0285219 15:-0.0246419 16:-0.0453414 17:0.218616 18:-0.2946 19:0.26664 20:0.144023 21:0.0948296 22:0.253595 23:-0.620989 24:-0.124784 25:-0.336269 26:-0.301989 
-1 1:0.230275 2:0.117925 3:0.131537 4:0.541764 5:0.418136 6:0.695171 7:0.356801 8:0.658711 9:0.107499 10:-0.161138 11:-0.0992465 12:-0.580101 13:-0.128461 14:-0.151204 15:0.316735 16:-0.157665 17:-0.502777 18:-0.567216 19:-0.513917 20:0.343726 21:-0.392955 22:0.255451 23:-0.246141 24:-0.0587057 25:-0.336269 26:-0.249885 
-1 1:-0.16423 2:0.13917 3:0.155587 4:-0.0409008 5:0.376868 6:0.199652 7:0.26677 8:0.161481 9:-0.107739 10:-0.0818979 11:0.0309112 12:-0.329706 13:-0.24005 14:-0.0375496 15:0.632679 16:0.157385 17:0.264985 18:0.799754 19:-0.394767 20:0.303628 21:-0.106859 22:0.216756 23:0.26665 24:0.290947 25:0.463099 26:0.430009 
-1 1:0.114169 2:0.284669 3:-0.308617 4:-0.121853 5:0.679411 6:0.471608 7:0.199375 8:0.32493 9:0.0625407 10:-0.0941757 11:-0.165566 12:-0.303038 13:-0.553643 14:-0.214816 15:0.248516 16:-0.492446 17:0.0834606 18:0.64025 19:0.107461 20:-0.123319 21:0.0111037 22:-0.470229 23:0.0668483 24:0.34819 25:0.396019 26:0.309466 
-1 1:0.378643 2:0.253914 3:0.409632 4:0.0230573 5:0.266103 6:0.207152 7:0.00874555 8:0.66662 9:0.171069 10:-0.405796 11:-0.129121 12:-0.574833 13:-0.425099 14:0.258967 15:0.343314 16:-0.183233 17:-0.0959739 18:0.384472 19:-0.257499 20:0.504598 21:-0.271487 22:-0.27254 23:-0.396486 24:0.209525 25:-0.00938385 26:-0.267308 
-1 1:-0.0743976 2:0.461663 3:0.266315 4:0.110902 5:0.45287 6:0.387033 7:0.150036 8:0.502404 9:-0.128346 10:-0.155106 11:-0.0129955 12:-0.37409 13:-0.167234 14:-0.180039 15:0.336607 16:0.0119757 17:0.200195 18:0.780998 19:-0.9435 20:0.159377 21:-0.162705 22:-0.265978 23:-0.390172 24:0.216299 25:0.167589 26:0.227372 
-1 1:0.406492 2:0.116674 3:0.278715 4:-0.169697 5:0.181169 6:-0.0033573 7:0.207725 8:0.0730714 9:0.227865 10:0.182016 11:0.0971568 12:-0.587043 13:-0.668327 14:0.58597 15:0.140234 16:-0.158806 17:0.115887 18:0.0197141 19:0.15234 20:0.104286 21:0.198906 22:0.0469922 23:-0.247302 24:0.220175 25:-0.0864298 26:-0.443739 
-1 1:0.332705 2:-0.0197768 3:0.00716845 4:0.212027 5:0.252974 6:-0.0451496 7:-0.0445292 8:0.686868 9:0.148443 10:-0.11556 11:-0.19032 12:-0.289767 13:-0.285348 14:0.10829 15:0.212256 16:-0.0645645 17:0.275094 18:0.18131 19:-0.285089 20:0.424215 21:-0.162705 22:-0.628119 23:-0.197413 24:-0.251028 25:-0.353052 26:-0.249885 
-1 1:0.0717349 2:0.316562 3:0.0741401 4:0.0924841 5:0.267711 6:0.137997 7:0.279004 8:0.41586 9:0.0141267 10:-0.443342 11:-0.0810675 12:-0.229719 13:-0.16825 14:0.254446 15:0.26335 16:-0.146814 17:0.0600202 18:0.709197 19:-0.264563 20:-0.00603259 21:-0.602454 22:-0.0506591 23:-0.0181406 24:0.345124 25:0.28125 26:-0.160386 
-1 1:-0.266035 2:0.825035 3:-0.884425 4:-0.548854 5:0.966574 6:0.891786 7:-0.365576 8:0.0763885 9:0.124257 10:0.235379 11:-0.721998 12:-0.723681 13:-0.68977 14:0.233998 15:-0.565592 16:0.414357 17:0.224786 18:0.0853989 19:0.908529 20:0.364546 21:0.421582 22:-0.684264 23:0.106308 24:-0.13916 25:0.211894 26:0.344728 
-1 1:0.260789 2:0.20434 3:0.0365315 4:-0.122816 5:-0.449337 6:-0.613877 7:0.392086 8:0.284337 9:0.108324 10:-0.278099 11:-0.330414 12:-0.402082 13:-0.438793 14:-0.00560775 15:0.0430976 16:-0.0832532 17:0.002888 18:0.508864 19:-0.961203 20:0.199181 21:-0.189711 22:-0.149723 23:-0.315509 24:0.449129 25:0.207508 26:0.00258359 
-1 1:0.0349704 2:0.109371 3:0.524345 4:0.697595 5:-0.0851903 6:0.132544 7:0.822181 8:0.502673 9:0.124162 10:0.518485 11:0.580338 12:0.0260504 13:-0.24389 14:0.352132 15:-0.124363 16:0.445614 17:-0.0536321 18:0.0932795 19:0.4322 20:-0.0508526 21:0.166059 22:-0.268032 23:0.149105 24:0.580872 25:-0.202384 26:-0.337338 
-1 1:0.314764 2:0.440337 3:-0.16695 4:-0.328021 5:0.831369 6:0.436919 7:0.0385815 8:0.121389 9:-0.0903917 10:-0.323974 11:-0.099726 12:-0.45272 13:-0.349278 14:0.128915 15:0.372223 16:0.120383 17:0.2055 18:0.814181 19:-0.721457 20:0.0118087 21:-0.195278 22:-0.0296149 23:-0.0181406 24:0.366849 25:0.554061 26:0.353507 
-1 1:0.2477 2:0.474301 3:0.370736 4:0.0432928 5:-0.0212641 6:-0.264095 7:0.39126 8:0.256037 9:0.524414 10:-0.148123 11:-0.125626 12:-0.347946 13:-0.34985 14:-0.0429255 15:0.0627699 16:-0.187597 17:0.0682235 18:-0.0822087 19:-0.172659 20:-0.211197 21:0.332105 22:0.0905263 23:-0.363715 24:0.200553 25:-0.221357 26:-0.771145 
-1 1:0.320924 2:0.201032 3:-0.295384 4:0.196131 5:0.204944 6:0.0588559 7:0.248805 8:0.29649 9:-0.465617 10:-0.0643207 11:-0.417266 12:-0.529017 13:0.0761067 14:0.131137 15:-0.326916 16:0.0371473 17:0.294837 18:-0.413657 19:-0.515698 20:0.175625 21:0.240355 22:-0.0550671 23:-0.135074 24:-0.18415 25:-0.360133 26:-0.0809706 
-1 1:-0.32463 2:-0.273969 3:-0.416545 4:1 5:0.0734359 6:-0.214037 7:0.722293 8:-0.124497 9:-0.549099 10:1 11:0.989056 12:0.727092 13:0.190126 14:0.751558 15:-0.127113 16:0.779259 17:-0.29048 18:0.188275 19:1 20:0.0286999 21:0.496239 22:0.107028 23:0.804329 24:-0.0727394 25:-0.220012 26:0.19691 
-1 1:-0.299375 2:0.299472 3:0.203081 4:0.124615 5:-0.202472 6:0.0504003 7:0.381741 8:0.511408 9:-0.109074 10:-0.216996 11:0.154202 12:-0.611945 13:-0.408831 14:-0.152612 15:-0.00219769 16:-0.147377 17:0.042575 18:0.594359 19:-0.776852 20:-0.08525 21:-0.348078 22:-0.160603 23:-0.00225962 24:0.288579 25:0.109733 26:-0.0812199 
-1 1:0.13813 2:0.0792025 3:0.836289 4:0.418353 5:-0.429965 6:-0.0883902 7:0.612121 8:0.526493 9:-0.025116 10:0.0442035 11:0.512569 12:-0.335252 13:-0.309761 14:-0.105991 15:0.48037 16:-0.374803 17:-0.309074 18:-0.579949 19:0.0267749 20:-0.494715 21:-0.182871 22:-0.34586 23:-0.0381101 24:-0.0801288 25:-0.336269 26:-0.249885 
-1 1:0.0967826 2:-0.146972 3:-0.278622 4:-0.682643 5:0.595283 6:0.0171454 7:-0.290718 8:0.10434 9:-0.293404 10:-0.266526 11:-0.273532 12:-0.455502 13:-0.637072 14:0.341247 15:0.1397 16:-0.267749 17:0.230027 18:0.902476 19:-0.554564 20:-0.312325 21:-0.054545 22:-0.178509 23:0.0106147 24:-0.0771913 25:0.555492 26:0.283212 
-1 1:0.391194 2:0.249207 3:-0.0203467 4:0.417555 5:0.379229 6:0.0780192 7:0.260045 8:0.168285 9:0.167636 10:-0.381003 11:-0.23372 12:-0.432909 13:-0.499311 14:0.488624 15:0.350109 16:-0.358113 17:0.0924058 18:0.318388 19:-0.48448 20:0.172782 21:0.0611324 22:-0.211497 23:0.20351 24:0.348911 25:-0.158831 26:-0.749175 
-1 1:0.127602 2:0.225459 3:0.326828 4:0.338657 5:-0.24633 6:0.0795483 7:-0.0476033 8:0.551906 9:0.188621 10:0.268015 11:-0.193341 12:-0.764896 13:-0.0954364 14:-0.245061 15:-0.148608 16:0.272903 17:0.0815876 18:0.247066 19:0.0343927 20:-0.0758698 21:0.465784 22:0.363475 23:-0.349363 24:0.166616 25:-0.474692 26:-0.759004 
-1 1:-0.0298516 2:-0.172893 3:0.92196 4:0.100337 5:0.0926346 6:0.266412 7:-0.493143 8:0.350559 9:0.0224883 10:-0.647714 11:-0.605917 12:-0.467345 13:-0.073503 14:-0.288354 15:0.0873656 16:-0.109883 17:0.0278119 18:0.230486 19:-0.568639 20:-0.29352 21:0.274615 22:-1 23:-0.555281 24:-0.251155 25:-0.0973825 26:-0.401636 
-1 1:-0.217569 2:0.137239 3:0.392527 4:-0.237396 5:-0.416496 6:-0.0792072 7:0.049084 8:0.209324 9:-0.275057 10:-0.0127636 11:0.0903546 12:-0.148896 13:-0.562575 14:-0.0463507 15:0.522547 16:-0.154722 17:0.326556 18:0.320229 19:-0.275994 20:-0.297467 21:0.156662 22:0.137961 23:-0.303332 24:-0.0743307 25:0.0720586 26:-0.396121 
-1 1:0.372613 2:-0.159659 3:-0.330765 4:0.192855 5:0.242087 6:0.284345 7:0.0096686 8:0.467567 9:0.207193 10:-0.162394 11:-0.112266 12:-0.562791 13:-0.357095 14:-0.246743 15:0.227675 16:-0.416553 17:-1 18:0.405294 19:-0.0964441 20:-0.0147869 21:-0.225764 22:-0.160603 23:0.0317364 24:0.164633 25:0.333421 26:0.250168 
-1 1:0.012112 2:0.151964 3:-0.142022 4:0.428897 5:-0.106181 6:-0.0825563 7:0.164322 8:0.365876 9:-0.0854868 10:-0.0857511 11:-0.112922 12:-0.20996 13:-0.223648 14:-0.0666892 15:0.106458 16:-0.372752 17:0.176063 18:0.0599589 19:-0.15692 20:-0.134656 21:-0.412519 22:-0.0624679 23:-0.464957 24:0.212437 25:-0.350585 26:-0.761773 
-1 1:0.288393 2:-0.0799853 3:0.458251 4:0.28706 5:-0.720747 6:-0.659111 7:-0.203365 8:0.672726 9:0.00290331 10:0.0819237 11:0.176599 12:-0.692517 13:0.322067 14:-0.833714 15:-0.0566738 16:0.00693327 17:0.130174 18:-0.212351 19:0.391916 20:-0.205605 21:0.261963 22:-0.00484058 23:-0.0181406 24:-0.358059 25:-0.43292 26:-0.249885 
-1 1:-0.23442 2:-0.0343199 3:0.35328 4:-0.238909 5:0.0368936 6:-0.155627 7:0.361295 8:0.189164 9:-0.373338 10:-0.107444 11:0.31939 12:-0.239342 13:-0.590699 14:0.0650151 15:0.145862 16:0.121276 17:0.118026 18:0.267137 19:-0.241388 20:0.212894 21:-0.152817 22:-0.596158 23:0.191093 24:0.434601 25:0.0915557 26:-0.241603 
-1 1:0.347577 2:-0.276406 3:0.289958 4:-0.211763 5:0.722104 6:0.143137 7:0.0626622 8:0.184612 9:0.24344 10:-0.202869 11:-0.871163 12:-0.479628 13:-0.421062 14:0.324374 15:-0.125133 16:0.114426 17:0.205644 18:0.207461 19:-0.042346 20:0.846999 21:0.33152 22:-0.148553 23:0.0646393 24:-0.260227 25:-0.326986 26:-0.771635 
-1 1:-0.0866653 2:0.30465 3:-0.0463328 4:-0.170313 5:0.751474 6:0.623053 7:0.242234 8:0.19754 9:0.0577367 10:-0.278732 11:-0.231539 12:-0.418289 13:-0.330024 14:0.398411 15:-0.0181496 16:-0.193769 17:0.218984 18:0.789069 19:-0.341174 20:0.450832 21:-0.703344 22:-0.063942 23:-0.124565 24:0.041084 25:0.298213 26:0.397791 
-1 1:0.365885 2:-0.170715 3:0.0466144 4:-0.0666882 5:-0.000732663 6:0.178094 7:-0.308183 8:0.452373 9:-0.153474 10:-0.293826 11:0.090354 12:-0.00252674 13:-0.605639 14:0.0233153 15:0.584825 16:-0.0794112 17:0.209007 18:0.277758 19:-0.466142 20:0.992938 21:0.162148 22:-0.135543 23:-0.0542103 24:0.313423 25:0.093163 26:-0.509328 
-1 1:-0.111464 2:0.5261 3:0.410751 4:0.28471 5:-0.426141 6:-0.113018 7:0.311391 8:0.455723 9:-0.135161 10:0.370245 11:0.0786632 12:-0.463134 13:-0.184237 14:0.103278 15:0.859722 16:-0.117859 17:0.213248 18:0.196724 19:0.128851 20:-0.530377 21:-0.110322 22:0.100552 23:-0.0374531 24:0.351835 25:-0.638117 26:-0.797781 
-1 1:0.00793797 2:0.302186 3:-0.0152823 4:0.192767 5:0.515036 6:0.143761 7:0.0736765 8:0.512851 9:-0.0777108 10:-0.207556 11:-0.0768642 12:-0.737032 13:-0.241174 14:-0.725847 15:0.343374 16:-0.271606 17:0.179901 18:0.31421 19:-0.0816292 20:0.313026 21:0.221893 22:-0.327297 23:0.0920735 24:0.0595314 25:0.0681386 26:0.0281758 
-1 1:0.217062 2:0.446393 3:0.245582 4:0.47975 5:-0.0589118 6:0.296019 7:0.372487 8:0.64451 9:0.236565 10:0.131295 11:0.223311 12:-0.313737 13:0.265361 14:-0.187239 15:0.337954 16:0.033502 17:-0.196327 18:-0.603683 19:-0.0462843 20:-0.38804 21:-0.132476 22:0.00701634 23:-0.0753293 24:-0.240554 25:0.164666 26:0.0358456 
-1 1:-0.271462 2:0.183743 3:0.158325 4:0.102451 5:0.173299 6:0.0435292 7:0.0448183 8:0.363486 9:-0.188317 10:-0.264148 11:-0.138427 12:-0.424897 13:-0.332631 14:0.105007 15:0.56446 16:-0.171477 17:0.0926978 18:0.84701 19:-0.412565 20:0.360097 21:-0.293717 22:-0.385948 23:-0.147872 24:0.403209 25:0.109299 26:0.0245328 
-1 1:0.260737 2:0.0949309 3:-0.0685949 4:-0.390367 5:0.0547888 6:-0.152428 7:0.020224 8:0.492137 9:0.0176727 10:-0.556003 11:-0.300572 12:-0.512414 13:-0.549068 14:0.0445861 15:-0.0957387 16:-0.285854 17:0.178228 18:0.586546 19:-0.298129 20:0.0458385 21:0.0562481 22:-0.153981 23:-0.011768 24:-0.0518691 25:0.0539417 26:-0.0952142 
-1 1:0.489856 2:0.231534 3:0.616391 4:0.147326 5:0.611067 6:0.529546 7:-0.0263207 8:0.345287 9:0.563928 10:0.0746874 11:0.382671 12:-0.338351 13:-0.315082 14:-0.0378625 15:-5.27267e-05 16:-0.193581 17:-0.00936192 18:0.609614 19:-0.370439 20:0.0953181 21:-0.316425 22:-0.318782 23:-0.257482 24:-0.315469 25:0.0689632 26:-0.0895038 
-1 1:-0.0825623 2:0.15145 3:-0.280437 4:-0.47654 5:0.483307 6:0.153812 7:-0.216791 8:0.157732 9:0.137311 10:0.225157 11:0.259567 12:-0.590185 13:-0.351941 14:0.245428 15:-0.386014 16:0.129979 17:0.329713 18:0.754728 19:-0.237545 20:-0.0619627 21:0.0767708 22:-0.0506944 23:0.358253 24:-0.038704 25:0.763098 26:0.467807 
-1 1:0.463986 2:0.0897566 3:0.14901 4:0.232445 5:0.229169 6:0.480665 7:0.26911 8:0.657672 9:0.327766 10:0.0557617 11:0.278761 12:-0.239547 13:-0.624837 14:-0.466424 15:0.429053 16:-0.0768016 17:0.0115153 18:0.423449 19:-0.0778448 20:0.203273 21:0.324697 22:0.133685 23:0.035567 24:0.535435 25:-0.363018 26:-0.736012 
-1 1:0.0936084 2:0.176893 3:0.426649 4:0.0148101 5:0.0956032 6:0.359051 7:0.483125 8:0.309371 9:0.151738 10:0.0178066 11:0.172478 12:-0.196506 13:-0.561514 14:-0.26016 15:-0.00924124 16:-0.581899 17:0.424093 18:0.285885 19:-0.358098 20:0.504517 21:-0.0807981 22:-0.283572 23:0.0629665 24:0.274502 25:0.191738 26:-0.0701458 
-1 1:-0.162338 2:0.047939 3:0.26631 4:0.226396 5:0.259494 6:0.135223 7:0.315691 8:0.409183 9:0.0524051 10:-0.403618 11:-0.0661715 12:-0.264401 13:-0.351297 14:0.222608 15:0.143374 16:-0.0374325 17:0.127847 18:0.353179 19:-0.340122 20:0.576803 21:-0.490077 22:-0.270425 23:-0.123824 24:0.267639 25:0.0010508 26:-0.0875682 
-1 1:-0.0857614 2:-0.0253706 3:0.524197 4:0.253806 5:0.577273 6:0.324635 7:-0.0864416 8:0.346726 9:-0.218038 10:0.136425 11:0.0401654 12:-0.422287 13:0.21263 14:-0.0738791 15:0.603367 16:-0.0364716 17:-0.18246 18:-0.032509 19:-0.0779969 20:-0.0298208 21:0.227747 22:-0.169253 23:-0.297091 24:-0.938618 25:-0.489833 26:-0.714786 
-1 1:0.20933 2:0.51387 3:-0.106025 4:0.311787 5:0.537497 6:0.42355 7:0.332544 8:0.410044 9:0.0947664 10:0.175144 11:0.042771 12:-0.785914 13:-0.898494 14:-0.543137 15:-0.228262 16:0.137004 17:-0.319027 18:0.655669 19:0.0272154 20:0.112167 21:0.352928 22:-0.564219 23:-0.0487989 24:0.819307 25:0.209455 26:-0.0468894 
-1 1:-0.206442 2:0.174841 3:0.144795 4:0.00849629 5:0.315751 6:0.430178 7:0.615707 8:0.197951 9:0.0336337 10:-0.0950204 11:-0.130923 12:-0.642384 13:-0.491366 14:-0.317403 15:0.0423203 16:0.0509011 17:0.220156 18:0.00338866 19:-0.253115 20:0.741539 21:-0.10283 22:-0.306243 23:0.0783614 24:0.227155 25:-0.141905 26:-0.234529 
-1 1:0.0547033 2:0.0902124 3:-0.0920175 4:-0.0979784 5:0.467723 6:-0.201105 7:0.283365 8:0.405323 9:-0.154236 10:-0.248196 11:-0.130079 12:-0.054859 13:-0.429266 14:0.201596 15:0.0961407 16:0.158517 17:0.572348 18:0.692136 19:-0.421226 20:-0.394607 21:0.432035 22:-0.111059 23:0.187843 24:0.376233 25:0.204931 26:-0.0756387 
-1 1:-0.0217513 2:0.64355 3:0.0849552 4:-0.20467 5:0.514084 6:0.31339 7:0.286764 8:0.384448 9:0.18683 10:-0.129398 11:-0.0194696 12:-0.338755 13:-0.108863 14:0.330389 15:0.418893 16:-0.048706 17:0.168354 18:0.808597 19:-0.136246 20:0.544379 21:-0.199145 22:0.107722 23:0.164268 24:0.0724143 25:0.473339 26:0.480081 
-1 1:-0.0156038 2:0.054956 3:-0.176343 4:0.00560705 5:0.805912 6:0.350847 7:0.372433 8:0.186336 9:0.280948 10:-0.596211 11:-0.197698 12:-0.519419 13:-0.615663 14:0.0229025 15:0.459072 16:-0.345872 17:0.074902 18:0.353872 19:-0.750169 20:0.263246 21:0.0929452 22:-0.687033 23:-0.0958004 24:0.608466 25:0.403243 26:0.294054 
-1 1:-0.23203 2:-0.131351 3:-0.198826 4:-0.290312 5:0.330151 6:0.391673 7:0.22766 8:0.228674 9:0.122665 10:-0.253759 11:-0.0949593 12:-0.374443 13:-0.440965 14:0.0424066 15:0.20141 16:-0.0025097 17:0.284387 18:0.476739 19:-0.466303 20:0.439251 21:-0.0393768 22:-0.272174 23:-0.753884 24:0.156359 25:0.148047 26:0.0221359 
-1 1:0.11341 2:0.178288 3:-0.277538 4:-0.236183 5:-0.0221247 6:0.276312 7:0.24745 8:0.302478 9:0.0887754 10:-0.444549 11:-0.141882 12:-0.470804 13:-0.635885 14:0.133108 15:0.141713 16:-0.363621 17:0.0580889 18:0.274866 19:-0.353026 20:0.114823 21:0.0411338 22:-0.0528146 23:-0.245227 24:-0.302322 25:-0.0365884 26:-0.804829 
-1 1:-0.0855109 2:0.0410225 3:-0.106917 4:-0.51251 5:0.511382 6:0.562903 7:-0.585076 8:0.259645 9:-0.418105 10:-0.0548602 11:0.0879576 12:-0.0743943 13:-0.256008 14:0.0947308 15:0.622353 16:0.0834285 17:0.516213 18:0.572427 19:-0.514139 20:-0.0213118 21:0.31335 22:0.361735 23:0.111453 24:-0.13364 25:0.257748 26:0.222587 
-1 1:-0.0155295 2:-0.403228 3:-1 4:0.243306 5:-0.460951 6:-0.307122 7:-0.0746295 8:0.431488 9:0.0383944 10:-0.565371 11:-0.312117 12:-0.530864 13:-0.0582796 14:-0.164203 15:-0.226451 16:0.0753894 17:-0.25038 18:-0.0513732 19:-0.679776 20:-0.38616 21:-0.279081 22:-0.280355 23:0.0249258 24:-0.0587057 25:-0.380342 26:-0.710214 
-1 1:0.0701405 2:0.466681 3:0.207224 4:0.291734 5:-0.283928 6:0.146991 7:0.267079 8:0.184491 9:-0.0299343 10:0.132958 11:0.21492 12:-0.533823 13:-0.100354 14:-0.387389 15:0.415789 16:-0.135162 17:0.110186 18:0.434549 19:-0.113934 20:0.0651628 21:0.0976369 22:0.107291 23:-0.61821 24:0.168525 25:-0.166707 26:-0.225939 
-1 1:-0.34128 2:0.0886759 3:-0.0701417 4:-0.165427 5:0.408331 6:0.287454 7:0.151402 8:0.274441 9:-0.0306025 10:0.0427699 11:-0.210306 12:-0.182877 13:-0.389983 14:0.682883 15:0.259893 16:-0.0540405 17:0.327882 18:0.964646 19:-0.204536 20:0.198183 21:-0.126626 22:0.0410287 23:0.0777718 24:0.48391 25:0.698398 26:0.540827 
-1 1:0.253804 2:0.137709 3:0.336676 4:0.373838 5:-0.570459 6:0.293804 7:0.13724 8:1 9:0.285446 10:0.223065 11:0.402382 12:-0.517306 13:0.267455 14:-0.517292 15:0.41996 16:-0.0461543 17:-0.0788779 18:-0.422305 19:-0.00647777 20:-0.893214 21:-0.162705 22:0.118297 23:-0.219819 24:-0.735223 25:-0.624447 26:-0.19156 
-1 1:-0.0385667 2:0.0721475 3:-0.392142 4:-0.0666412 5:0.783583 6:0.432029 7:-0.0899703 8:0.2527 9:-0.124815 10:-0.284115 11:-0.319858 12:-0.237803 13:-0.707393 14:0.0627725 15:-0.0262568 16:0.0332143 17:0.463096 18:0.666047 19:-0.761944 20:0.19742 21:0.0764459 22:-0.641469 23:0.106354 24:0.259914 25:0.496662 26:0.253072 
-1 1:0.462164 2:0.156039 3:0.40187 4:0.394029 5:-0.0771503 6:-0.0691658 7:0.175028 8:0.533722 9:0.318481 10:-0.195043 11:-0.21734 12:-0.494111 13:-0.163909 14:0.000397192 15:0.199781 16:-0.318955 17:-0.00418392 18:0.212271 19:-0.58747 20:-0.0967077 21:-0.285363 22:-0.0597708 23:-0.25192 24:0.335717 25:-0.433501 26:-0.249885 
-1 1:0.333096 2:0.274662 3:0.21701 4:0.706451 5:0.733719 6:0.387055 7:0.169772 8:0.74464 9:0.224077 10:0.258515 11:-0.134213 12:-0.326314 13:-0.604856 14:-0.0474119 15:-0.0542651 16:0.0588996 17:0.150301 18:0.414322 19:0.329876 20:0.205871 21:-0.117813 22:-0.395633 23:-0.244315 24:0.242866 25:-0.111233 26:-0.249885 
-1 1:0.145092 2:0.306425 3:0.057598 4:-0.372221 5:0.570672 6:0.169382 7:-0.15428 8:0.550315 9:-0.17777 10:-0.249953 11:0.120327 12:-0.403135 13:-0.442384 14:0.369804 15:0.594765 16:-0.0383665 17:-0.019478 18:0.710028 19:-0.610808 20:-0.0122263 21:-0.10054 22:0.0940555 23:-0.156026 24:-0.0861312 25:0.605806 26:0.291527 
-1 1:0.14804 2:0.0563864 3:0.454051 4:-0.329255 5:-0.112948 6:0.11667 7:0.148886 8:0.270783 9:-0.168213 10:-0.165152 11:0.186636 12:-0.241284 13:-0.4916 14:-0.400244 15:-0.205745 16:-0.47813 17:-0.224725 18:0.243865 19:-0.134023 20:0.253466 21:-0.364687 22:-0.436221 23:-0.218148 24:0.290953 25:0.665474 26:0.56651 
-1 1:-0.0334096 2:-0.0636306 3:-0.0764706 4:0.0186782 5:-0.101114 6:0.402565 7:0.3705 8:0.263541 9:0.151079 10:0.278886 11:-0.614672 12:-0.807307 13:0.193135 14:-0.212816 15:-0.0104964 16:-0.289472 17:0.166631 18:-1 19:-0.0243454 20:-0.381997 21:0.333062 22:0.142292 23:-0.0181406 24:-0.496491 25:-0.662948 26:-0.595089 
-1 1:-0.0378254 2:0.443366 3:0.218471 4:0.6863 5:-0.00178663 6:0.172824 7:0.15601 8:0.328021 9:0.278059 10:0.258414 11:-0.42262 12:-0.660429 13:0.189788 14:-0.0530411 15:-0.372031 16:-0.0590004 17:0.0946587 18:-0.351799 19:0.248932 20:-0.192016 21:0.0833651 22:0.190449 23:-0.169436 24:-0.801668 25:-0.336269 26:-0.249885 
-1 1:0.276935 2:0.34575 3:0.431417 4:0.0348293 5:0.587198 6:0.246903 7:-0.0074342 8:0.243812 9:0.0552366 10:0.0374939 11:-0.0911438 12:-0.45119 13:-0.549024 14:-0.215707 15:-0.0114213 16:0.136843 17:0.187133 18:0.700573 19:-0.0479472 20:0.190988 21:0.355298 22:0.181735 23:-0.746013 24:0.41521 25:0.164272 26:-0.222922 
-1 1:0.136703 2:0.267583 3:0.411432 4:0.448842 5:0.472598 6:0.275429 7:0.372977 8:0.467171 9:0.435206 10:0.145706 11:-0.344789 12:-0.394273 13:-0.186536 14:-0.0108584 15:0.375842 16:-0.135078 17:0.246238 18:0.578616 19:-0.11555 20:0.205466 21:0.214423 22:-0.373653 23:-0.85154 24:0.471832 25:-0.0671057 26:-0.229187 
-1 1:0.426616 2:0.241429 3:0.372726 4:-0.0857736 5:0.0949477 6:0.240589 7:0.15722 8:0.556591 9:0.371266 10:0.254803 11:0.00678832 12:-0.551119 13:-0.580083 14:-0.293105 15:0.0805668 16:-0.155454 17:0.00329185 18:0.490506 19:-0.16447 20:0.486932 21:-0.205368 22:-0.0399982 23:-0.0181406 24:0.13037 25:-0.586733 26:-0.380637 
-1 1:-0.104039 2:-0.12098 3:-0.0450802 4:-0.363843 5:0.10753 6:0.353347 7:-0.464094 8:0.21329 9:-0.201296 10:-0.188185 11:0.542443 12:-0.629725 13:-0.197309 14:0.377904 15:0.636668 16:0.0191688 17:0.109624 18:0.708428 19:-0.382093 20:0.236265 21:-0.299262 22:-0.0740731 23:-0.0662414 24:-0.203773 25:0.491803 26:0.290004 
-1 1:-0.350544 2:-0.00807626 3:-0.0661311 4:-0.0714046 5:0.469091 6:0.309945 7:0.258464 8:0.458289 9:0.0325318 10:-0.237261 11:-0.255787 12:-0.436833 13:-0.426504 14:-0.112299 15:0.438778 16:-0.101123 17:-0.0635465 18:0.478222 19:-0.497526 20:0.36687 21:-0.160657 22:-0.295009 23:-0.147483 24:0.289727 25:-0.0394525 26:-0.130368 
-1 1:0.387051 2:0.341312 3:0.0260328 4:0.402326 5:0.0843817 6:-0.165618 7:0.352438 8:0.663154 9:0.216532 10:-0.0979433 11:-0.136958 12:-0.349726 13:-0.0305486 14:-0.0027918 15:0.232677 16:-0.21804 17:-0.374262 18:-0.0831588 19:0.0479104 20:-0.145727 21:-0.888146 22:-0.461358 23:-0.465868 24:-0.829353 25:-0.911332 26:-0.857559 
-1 1:0.227456 2:0.236997 3:0.347239 4:0.351353 5:0.142519 6:-0.147422 7:-0.0435897 8:0.437106 9:-0.155525 10:0.0814598 11:-0.212742 12:-0.491078 13:-0.174527 14:-0.461678 15:-0.0658476 16:0.114657 17:0.0341128 18:0.713048 19:0.154504 20:0.140211 21:-0.0313099 22:-0.216087 23:-0.270976 24:-0.329947 25:0.210796 26:0.0677943 
-1 1:0.212129 2:0.385439 3:0.157117 4:0.0742895 5:0.235641 6:0.228344 7:-0.0282538 8:0.195842 9:0.22769 10:0.0688389 11:-0.0199187 12:-0.535875 13:-0.244102 14:0.307843 15:0.130274 16:-0.46558 17:-0.0710062 18:0.700592 19:-0.464506 20:-0.0310511 21:-0.0845392 22:0.0843354 23:0.0592612 24:0.194161 25:0.429339 26:0.433803 
-1 1:0.49166 2:0.150176 3:0.245643 4:0.437188 5:0.105302 6:0.410827 7:0.273776 8:0.79537 9:0.1589 10:-0.0149683 11:-0.225597 12:-0.792795 13:-0.371228 14:-0.628054 15:0.031027 16:0.0596894 17:-0.258581 18:-0.54537 19:0.0183098 20:-0.1053 21:0.330503 22:-0.0510315 23:-0.183325 24:0.268374 25:-0.595232 26:-0.249885 
-1 1:-0.875922 2:-0.0967006 3:-0.103267 4:-0.376795 5:0.0277524 6:0.311708 7:0.0555467 8:0.719784 9:-0.258687 10:-0.413396 11:-0.0434312 12:-0.886832 13:-0.816514 14:-0.0861668 15:-0.205104 16:-0.0421552 17:-0.288774 18:0.203508 19:-0.0277634 20:0.14079 21:-0.162705 22:-0.158699 23:-0.0181406 24:0.403418 25:-0.336269 26:-0.248335 
-1 1:-0.420154 2:0.0863193 3:-0.145335 4:-0.197006 5:0.0805796 6:0.0102851 7:-0.268881 8:0.29473 9:-0.434333 10:-0.405911 11:0.0437472 12:-0.40442 13:-0.465671 14:-0.144028 15:0.319384 16:-0.126641 17:-0.0149163 18:0.754722 19:-0.343111 20:0.172762 21:-0.225116 22:-0.298796 23:-0.350569 24:-0.201372 25:0.333935 26:0.169179 
-1 1:0.120245 2:-0.128348 3:-0.422022 4:-0.0584575 5:-0.112256 6:-0.358386 7:0.174185 8:0.526118 9:0.114389 10:-0.134732 11:-0.285771 12:-0.910236 13:0.182491 14:0.0760155 15:-0.293141 16:0.0324783 17:-0.218076 18:-0.47224 19:-0.0436702 20:-0.153419 21:-0.0122918 22:-0.00582649 23:-0.0181406 24:-0.359077 25:-0.43368 26:-0.715666 
-1 1:0.156846 2:0.0575314 3:0.558967 4:0.523552 5:-0.0170113 6:0.228909 7:0.350122 8:0.872015 9:0.219283 10:0.173153 11:-0.361161 12:-0.550543 13:-0.0832244 14:0.0853196 15:0.103275 16:0.136433 17:0.138818 18:-0.0878813 19:0.0707941 20:0.341364 21:0.554876 22:0.0580919 23:-0.0181406 24:-0.216723 25:-0.887472 26:-0.832346 
-1 1:-0.1827 2:0.108539 3:-0.106335 4:-0.234428 5:0.445356 6:0.347605 7:0.120444 8:0.110346 9:-0.231326 10:-0.111461 11:-0.0550382 12:-0.478495 13:-0.503558 14:0.488618 15:0.569984 16:0.0900748 17:0.191302 18:0.760795 19:-0.473416 20:0.0868885 21:-0.329861 22:-0.332607 23:0.0869629 24:0.147513 25:0.635686 26:0.444283 
-1 1:-0.0756775 2:0.0387555 3:-0.281882 4:-0.136547 5:0.535619 6:0.391221 7:-0.209099 8:0.124516 9:-0.195382 10:-0.453156 11:-0.217539 12:-0.268923 13:-0.406499 14:-0.0219929 15:-0.0578711 16:-0.0179843 17:0.189552 18:0.970956 19:-0.585211 20:-0.174915 21:-0.0480402 22:-0.976818 23:0.0542676 24:0.232935 25:0.65975 26:0.586219 
-1 1:-0.14293 2:0.00119872 3:0.0153921 4:-0.392023 5:0.629174 6:0.282916 7:0.0742686 8:0.375973 9:0.0112115 10:-0.233774 11:-0.0096716 12:-0.221717 13:-0.500182 14:-0.0171568 15:0.718077 16:-0.337931 17:0.0824245 18:0.641351 19:-0.106586 20:-0.461669 21:0.05642 22:-0.160603 23:0.330214 24:0.370937 25:0.5633 26:0.194076 
-1 1:-0.228488 2:0.447828 3:0.536545 4:-0.0412563 5:0.757168 6:0.435496 7:0.164571 8:0.566077 9:-0.028229 10:-0.334879 11:-0.0845632 12:-0.0802772 13:-0.353285 14:0.430244 15:0.0808585 16:0.033751 17:0.297345 18:0.817658 19:-0.077633 20:0.259024 21:0.109423 22:0.0235108 23:-0.0404077 24:0.2723 25:0.347719 26:0.304177 
-1 1:0.164993 2:0.16768 3:0.310684 4:0.224643 5:0.44883 6:0.138858 7:0.161579 8:0.619965 9:-0.111015 10:-0.435021 11:-0.00306743 12:-0.233764 13:-0.474434 14:-0.520147 15:0.245868 16:-0.245284 17:0.103905 18:0.771945 19:-0.235871 20:0.134441 21:0.105163 22:-0.537946 23:0.318295 24:0.0764605 25:0.229695 26:0.129729 
-1 1:-0.254708 2:-0.236307 3:-0.163597 4:-0.015667 5:0.227897 6:0.346886 7:0.389117 8:0.0322191 9:-0.0970765 10:-0.618688 11:-0.228263 12:-0.479023 13:-0.710744 14:-0.295826 15:0.284905 16:-0.158395 17:0.162749 18:0.685971 19:-0.231592 20:0.606978 21:-0.507133 22:-0.515022 23:-0.788138 24:-0.13427 25:0.208011 26:0.134335 
-1 1:-0.193164 2:-0.216123 3:-0.127097 4:-0.744543 5:0.6028 6:0.392912 7:-0.474799 8:0.040563 9:-0.0128751 10:-0.220821 11:-0.300133 12:-0.0261889 13:-0.400961 14:0.467016 15:-0.195446 16:0.324319 17:0.515424 18:0.923473 19:0.0383984 20:0.14246 21:0.308531 22:-0.169214 23:0.219001 24:0.102235 25:0.705484 26:0.546145 
-1 1:0.263641 2:0.105399 3:0.0841755 4:-0.312111 5:0.14286 6:0.0169757 7:0.109078 8:0.339984 9:-0.263944 10:-0.0863193 11:-0.0677824 12:-0.274307 13:-0.499472 14:-0.107642 15:0.284308 16:-0.798212 17:0.126927 18:0.7706 19:-0.771923 20:-0.0494103 21:-0.231146 22:-0.347747 23:-0.0859127 24:0.158916 25:0.627802 26:0.189546 
