svm_type c_svc
kernel_type rbf
gamma 0.0769231
nr_class 2
total_sv 68
rho -0.327681
label 0 1
probA -2.20418
probB -0.00423725
nr_sv 34 34
SV
0.882064858410696 1:-0.19315 2:0.311497 3:-0.925834 4:-0.860966 5:0.0902278 6:-0.156198 7:0.330672 8:0.19792 9:-0.211147 10:-0.319836 11:-0.853467 12:-0.516424 13:0.542994 
1 1:-0.0936428 2:0.133518 3:-0.170527 4:0.581359 5:0.202936 6:0.216673 7:0.906391 8:0.0120798 9:0.21938 10:0.20385 11:-0.398088 12:-0.358019 13:-0.387887 
1 1:-0.0705347 2:-0.101719 3:-0.144641 4:0.197097 5:0.10561 6:-0.292188 7:0.514065 8:-0.426222 9:0.0308608 10:-0.25255 11:-0.628823 12:1 13:0.239282 
1 1:0.135336 2:-0.0716206 3:0.592496 4:0.0993526 5:0.377775 6:0.402111 7:0.664652 8:-0.0641395 9:-0.809695 10:-0.16168 11:-0.0958727 12:0.202988 13:0.239282 
1 1:0.49808 2:-0.21558 3:0.0533816 4:0.411648 5:-0.039011 6:-0.501448 7:-0.236482 8:0.63406 9:-0.160418 10:-0.116696 11:-0.550736 12:-0.501276 13:0.472158 
0.6475915111823832 1:0.00581099 2:0.174312 3:-0.306547 4:1 5:0.269442 6:0.400337 7:0.76655 8:0.879145 9:0.351472 10:0.642938 11:-0.0154443 12:0.202988 13:0.378596 
1 1:0.75198 2:0.11923 3:0.330833 4:0.591239 5:0.290373 6:0.294688 7:-0.169939 8:0.672343 9:0.401867 10:0.0845639 11:-0.4745 12:0.0713615 13:0.717664 
1 1:-0.513747 2:0.517759 3:-0.189746 4:0.508693 5:0.132689 6:0.814157 7:0.935815 8:0.297231 9:-0.0688789 10:0.0159353 11:0.771353 12:0.193845 13:-0.0617943 
1 1:0.538134 2:0.201299 3:-0.655933 4:0.332596 5:0.130255 6:-0.0591877 7:0.566795 8:0.773291 9:0.0913073 10:0.329147 11:0.514584 12:-0.0684529 13:0.226684 
1 1:0.130309 2:0.00613274 3:-0.0155663 4:-0.663005 5:-1 6:-0.91792 7:0.161384 8:-0.315247 9:-0.0215919 10:0.0225642 11:0.758518 12:-0.349321 13:-0.378163 
1 1:0.106016 2:0.0233892 3:-0.067145 4:0.142128 5:0.465814 6:0.0677643 7:0.708704 8:0.653898 9:-0.277792 10:-0.190917 11:-0.4745 12:0.183789 13:0.239282 
1 1:0.382387 2:0.0856052 3:0.457663 4:-0.573922 5:0.131216 6:0.406832 7:0.61321 8:-0.399737 9:-0.384835 10:-0.421317 11:-0.539861 12:0.0789082 13:0.239282 
1 1:-0.0057133 2:0.430228 3:-0.616934 4:0.124069 5:0.255082 6:0.026796 7:0.766308 8:0.0535786 9:-0.504246 10:0.765728 11:-0.524244 12:0.202988 13:0.133713 
1 1:-0.170384 2:-0.0520894 3:-0.323896 4:0.720192 5:0.3986 6:0.0641106 7:0.435761 8:0.160405 9:-0.263429 10:0.201297 11:-0.925859 12:-0.0943075 13:0.301592 
1 1:0.523978 2:0.382743 3:-0.121725 4:0.131764 5:0.38065 6:-0.23241 7:0.544705 8:0.457528 9:-0.076159 10:-0.460145 11:-0.207559 12:0.321562 13:0.053205 
1 1:0.433857 2:0.170543 3:0.188434 4:0.320059 5:0.637821 6:-0.580446 7:0.737121 8:-0.342206 9:-0.41474 10:0.459527 11:-0.126078 12:-0.578588 13:0.154862 
1 1:0.717894 2:0.398109 3:0.343811 4:0.452708 5:-0.219386 6:0.54168 7:-0.238121 8:0.884714 9:0.176539 10:-0.0548076 11:0.0958161 12:0.538816 13:-0.0108151 
1 1:0.00367605 2:1 3:-0.235357 4:0.402759 5:0.136627 6:0.498598 7:0.785802 8:0.490543 9:-0.282719 10:-0.740525 11:-0.477504 12:-0.269398 13:0.239282 
0.5454420214289142 1:-0.652519 2:0.646367 3:-1 4:0.300382 5:0.191622 6:0.402734 7:0.773898 8:0.61911 9:0.243191 10:0.192719 11:-0.786179 12:-0.388688 13:-0.258373 
1 1:0.220666 2:0.0596764 3:0.196396 4:-0.572217 5:-0.103636 6:-0.478885 7:0.461376 8:-0.305029 9:-1 10:0.0159353 11:-0.616287 12:0.193998 13:0.239282 
0.3773361905153418 1:0.467362 2:-0.106643 3:0.290926 4:0.489202 5:-0.122653 6:-0.230008 7:-0.238121 8:0.616883 9:0.0411315 10:0.0226029 11:-0.361883 12:0.0637415 13:1 
1 1:-0.604755 2:0.285464 3:0.134233 4:-0.136843 5:0.317243 6:0.806957 7:0.71944 8:-0.799078 9:-0.0159609 10:0.106067 11:-0.0398055 12:0.202988 13:0.239282 
1 1:-0.200778 2:0.134882 3:-0.574379 4:0.0462144 5:0.41632 6:-0.3062 7:0.871873 8:-0.860661 9:0.382608 10:0.0584227 11:-0.341294 12:-0.103683 13:0.291109 
1 1:0.0704551 2:0.0281192 3:-0.0984688 4:-0.295111 5:0.447431 6:-0.961331 7:0.731207 8:-0.230944 9:-0.464289 10:-0.0163705 11:0.332145 12:-0.0387733 13:0.199874 
1 1:-0.140475 2:0.154084 3:-0.816136 4:0.615392 5:0.105681 6:0.257466 7:0.637764 8:0.544869 9:0.498274 10:0.364459 11:-0.814758 12:0.116599 13:-0.877492 
1 1:-0.797421 2:-0.0776341 3:1 4:0.759479 5:0.68463 6:0.123388 7:0.540313 8:0.0555594 9:-0.556125 10:0.0159353 11:-0.192786 12:0.384748 13:0.0478119 
1 1:-0.418901 2:-0.248266 3:0.547589 4:0.347361 5:-0.66407 6:-0.0464526 7:-0.0490052 8:-0.141338 9:0.176455 10:0.425671 11:0.466652 12:0.150521 13:0.239282 
0.8757043234170853 1:-0.323526 2:0.298305 3:-0.45921 4:-0.10623 5:-0.906302 6:0.62235 7:0.815471 8:0.920846 9:0.104434 10:-1 11:-0.556258 12:0.702355 13:-1 
1 1:-0.311582 2:0.358095 3:0.0284363 4:0.36633 5:-0.172735 6:-0.751549 7:-0.914184 8:0.399506 9:0.581826 10:0.68458 11:-0.307736 12:0.166532 13:-0.590806 
0.5420692391927753 1:-0.242209 2:0.420709 3:-0.130223 4:-0.698124 5:-0.225351 6:0.344986 7:0.250936 8:-0.350364 9:0.286967 10:0.318935 11:-0.409122 12:-0.0259336 13:0.239282 
1 1:-0.032953 2:0.146132 3:-0.310304 4:-0.339945 5:0.929501 6:-1 7:0.441674 8:0.0788533 9:-0.314181 10:0.730304 11:0.0764989 12:0.129893 13:-0.0732988 
1 1:0.473012 2:0.549356 3:-0.682338 4:0.21388 5:-0.152309 6:-0.266017 7:0.456259 8:1 9:-0.423139 10:0.0159353 11:-0.724115 12:-0.27087 13:-0.290461 
1 1:-0.454078 2:0.0972603 3:-0.431363 4:0.63746 5:0.322045 6:-0.188513 7:0.473039 8:0.664988 9:0.613836 10:-0.0554071 11:-0.280623 12:0.202988 13:-0.764131 
1 1:0.767341 2:0.0235362 3:0.1699 4:-0.772282 5:-0.22834 6:-0.229422 7:0.540446 8:0.0302525 9:-0.637314 10:-0.574769 11:-1 12:0.196489 13:-0.0866198 
-1 1:-0.299657 2:0.366445 3:0.101092 4:-0.0365226 5:0.336337 6:0.235834 7:0.732919 8:-0.943393 9:-0.694697 10:0.466599 11:0.690477 12:0.179507 13:0.0492312 
-1 1:0.335806 2:0.21491 3:-0.489931 4:0.223114 5:0.0931179 6:-0.279125 7:0.14965 8:0.591984 9:-0.424073 10:-0.389476 11:-0.371418 12:-0.0328695 13:-0.419058 
-1 1:-0.0361007 2:0.292031 3:-0.564391 4:0.969642 5:0.699403 6:0.298909 7:0.476693 8:0.606175 9:0.0268729 10:0.0883499 11:-0.169725 12:-0.277538 13:0.327616 
-1 1:0.469234 2:0.20171 3:-0.127233 4:0.763382 5:0.0178247 6:0.386849 7:-0.324704 8:0.818124 9:-0.126909 10:-0.58401 11:-0.261441 12:0.202988 13:0.239282 
-1 1:-0.0689898 2:0.177025 3:0.0908226 4:0.714057 5:0.150309 6:0.780276 7:0.668739 8:0.225333 9:0.424413 10:-0.365423 11:0.236136 12:0.202988 13:-0.225917 
-1 1:-0.110179 2:0.25716 3:-0.129343 4:0.407639 5:0.818773 6:-0.35519 7:0.506784 8:0.0925011 9:-0.440489 10:0.0144824 11:-0.1034 12:0.632945 13:-0.388023 
-1 1:-0.066038 2:-0.459948 3:0.0389522 4:0.3654 5:0.0628672 6:0.134836 7:0.784015 8:0.255956 9:0.709631 10:-0.66527 11:0.437809 12:-0.540315 13:-0.197016 
-1 1:-1 2:-0.0637282 3:0.0829698 4:0.190145 5:1 6:-0.542784 7:0.339625 8:-0.497383 9:-0.565513 10:0.169768 11:-0.4745 12:0.0178116 13:0.032267 
-1 1:-0.195657 2:-0.196356 3:-0.645238 4:0.0528162 5:0.0184023 6:-0.450221 7:0.787738 8:-0.191236 9:-0.405426 10:-0.0707511 11:0.163836 12:-0.451143 13:0.133537 
-1 1:-0.169264 2:-0.185414 3:-0.269093 4:0.744654 5:0.247546 6:0.156613 7:0.481069 8:0.138788 9:-0.130906 10:0.184573 11:-0.341742 12:0.202988 13:-0.26831 
-0.7546049756670055 1:0.454697 2:-0.0729154 3:-0.704289 4:0.40869 5:-0.00720955 6:-0.795235 7:0.114673 8:0.506337 9:0.0922484 10:-0.89299 11:0.14671 12:-0.435762 13:-0.474799 
-0.5063565079807837 1:0.453493 2:0.234431 3:0.356793 4:-0.046033 5:0.616705 6:0.0362596 7:-0.588244 8:-0.400078 9:-0.461762 10:-0.336479 11:-0.863032 12:-0.534583 13:-0.190608 
-1 1:0.404844 2:0.281273 3:0.0735533 4:-0.34726 5:0.586832 6:0.367111 7:0.144546 8:0.00047745 9:-0.440489 10:0.266826 11:-0.0355376 12:-0.435824 13:-0.0802022 
-1 1:-0.130169 2:0.511483 3:-0.141389 4:0.175348 5:0.478375 6:-0.486054 7:0.593408 8:-0.406345 9:-0.097238 10:0.324805 11:-0.356832 12:-0.2797 13:-0.695 
-1 1:0.41154 2:-0.059066 3:-0.430786 4:-0.718732 5:0.344774 6:-0.0335162 7:0.283957 8:-0.789166 9:-0.0205768 10:0.113735 11:-0.172449 12:0.869244 13:-0.430751 
-1 1:-0.0949538 2:0.702445 3:-0.858072 4:0.403126 5:-0.16562 6:0.220854 7:0.120589 8:0.89116 9:-0.174494 10:-0.335321 11:0.113578 12:-1 13:0.00238618 
-1 1:-0.0783484 2:0.182827 3:-0.860647 4:-0.121191 5:0.202219 6:-0.56672 7:-0.561459 8:0.729049 9:-0.126813 10:-0.822316 11:-0.770353 12:-0.00561303 13:0.467809 
-1 1:1 2:-0.241362 3:-0.119565 4:0.622894 5:-0.0637722 6:-0.845701 7:-0.118324 8:0.0131045 9:0.234561 10:-0.425459 11:0.225671 12:0.468187 13:0.259318 
-1 1:0.340179 2:-0.108609 3:-0.293836 4:0.0684329 5:-0.215027 6:0.839657 7:0.777115 8:0.182192 9:0.286376 10:0.516454 11:1 12:-0.722982 13:-0.170361 
-1 1:0.961756 2:-0.556664 3:-0.132752 4:0.426449 5:0.220983 6:0.810902 7:-0.0916996 8:0.790665 9:-0.394608 10:0.401752 11:-0.498571 12:-0.548771 13:-0.206469 
-0.6976520544421185 1:-0.308886 2:0.308414 3:0.0640083 4:-0.266712 5:0.763797 6:1 7:0.367974 8:-1 9:-0.965314 10:0.0159353 11:0.165598 12:-0.22131 13:0.239282 
-1 1:0.449735 2:-0.121799 3:-0.44638 4:0.266551 5:-0.179279 6:0.0948586 7:0.294869 8:-0.0300118 9:-0.243112 10:-0.228944 11:-0.0463994 12:0.0823058 13:-0.290299 
-1 1:0.493794 2:0.34642 3:0.100889 4:-0.203167 5:0.299815 6:-0.521297 7:0.170744 8:0.237564 9:-0.690744 10:-0.134499 11:-0.167558 12:0.18536 13:-0.569756 
-1 1:-0.339577 2:0.802712 3:-0.366625 4:0.578471 5:0.911302 6:0.605151 7:0.0915005 8:-0.203165 9:-0.163289 10:0.775409 11:-0.193522 12:-0.254704 13:-0.667054 
-1 1:0.509808 2:0.15184 3:0.384269 4:0.579416 5:0.397315 6:-0.0319208 7:0.48647 8:-0.217496 9:-0.280964 10:-0.280324 11:0.417877 12:0.0862314 13:0.108757 
-1 1:-0.479086 2:0.565609 3:-0.339402 4:0.221489 5:0.695181 6:0.435646 7:0.594377 8:0.243996 9:-0.21037 10:0.490874 11:-0.343873 12:-0.0157189 13:-0.794551 
-1 1:0.0723229 2:-0.231945 3:-0.609777 4:0.86117 5:0.542132 6:0.363134 7:0.485063 8:0.372436 9:-0.142579 10:0.717172 11:0.275718 12:0.437718 13:-0.518502 
-0.05615103500077062 1:-0.281905 2:-1 3:-0.992223 4:-1 5:-0.314015 6:-0.445474 7:-1 8:-0.497383 9:-0.180878 10:-0.355441 11:0.148225 12:-0.373611 13:-0.696176 
-1 1:0.492898 2:-0.467265 3:-0.0939808 4:0.0424812 5:-0.958801 6:0.201024 7:0.19414 8:-0.556198 9:0.185166 10:-0.457263 11:0.218649 12:-0.313346 13:0.682252 
-1 1:0.591564 2:0.123825 3:0.115508 4:0.105115 5:0.332595 6:-0.255396 7:0.274273 8:-0.383568 9:-0.183183 10:0.208145 11:-0.4745 12:0.299068 13:-0.44264 
-0.8554435710565176 1:0.45743 2:0.212217 3:0.268329 4:0.408535 5:0.333819 6:-0.0885731 7:0.154044 8:-0.324798 9:0.00573938 10:-0.497621 11:0.608219 12:0.202988 13:0.239282 
-1 1:0.577205 2:-0.0785568 3:0.298814 4:-0.137281 5:0.643233 6:-0.253457 7:0.493957 8:-0.625949 9:-0.513766 10:-0.407069 11:-0.4745 12:0.447487 13:0.239282 
-1 1:0.150158 2:0.169615 3:-0.464936 4:0.0522683 5:0.225914 6:0.175879 7:0.791978 8:0.191927 9:-0.230079 10:-0.449691 11:-0.633354 12:-0.305084 13:-0.328709 
-1 1:0.712713 2:-0.124961 3:0.00725875 4:-0.323935 5:0.322128 6:-0.0537221 7:-0.0554825 8:-0.567962 9:-0.440489 10:-0.551464 11:-0.800637 12:0.289928 13:-0.452857 
