svm_type c_svc
kernel_type rbf
gamma 0.25
nr_class 2
total_sv 285
rho -0.321369
label 1 0
probA -1.91612
probB -0.0121072
nr_sv 170 115
SV
0.1809590891882638 1:0.366263 2:0.445556 3:0.479285 4:0.602344 5:0.0386872 6:0.0987315 7:0.148347 8:-0.366627 9:0.719706 10:0.435018 11:0.209837 12:0.35741 13:0.0413529 14:-0.0276755 15:0.262405 16:0.0453853 17:0.242085 18:0.0757524 19:0.2734 20:0.281455 21:-0.141957 22:0.22344 23:-0.566154 24:-0.762766 25:0.125268 26:-0.0173354 27:0.110074 28:0.259051 29:-0.430209 30:-0.479344 31:-0.0938449 32:0.562079 33:0.432797 34:0.433957 35:0.0513991 
0.8513868706899125 1:-0.189657 2:0.616765 3:0.170302 4:-0.300164 5:-0.439371 6:-0.39542 7:-0.187222 8:-0.595744 9:0.74432 10:0.266657 11:-0.575211 12:0.674395 13:-0.387015 14:0.0547553 15:-0.541857 16:0.16198 17:-0.189057 18:-0.548124 19:-0.224187 20:0.0387309 21:-0.228949 22:-0.113155 23:-0.564524 24:-0.572023 25:0.0400377 26:-0.0642074 27:-0.447754 28:-0.529414 29:-0.409519 30:0.319366 31:-0.179613 32:-0.405797 33:-0.334562 34:0.24082 35:0.687826 
0.9611021668418823 1:-0.77823 2:-0.372494 3:-0.598635 4:-0.302379 5:-0.445075 6:-0.369008 7:-0.670346 8:-0.732466 9:0.0853138 10:-0.369162 11:-0.771624 12:0.210375 13:-0.559062 14:0.199098 15:-0.876677 16:-0.200146 17:-0.391517 18:-0.411984 19:-0.0532227 20:-0.165384 21:0.134827 22:-0.410375 23:-0.316213 24:-0.655082 25:-0.612461 26:-0.295635 27:-0.66938 28:0.0975394 29:0.118291 30:-0.187561 31:-0.0100076 32:-0.149928 33:-0.835396 34:0.0411466 35:0.0548857 
1.553644062363397 1:0.263948 2:0.459265 3:0.160129 4:0.42215 5:-0.0561058 6:-0.0425744 7:-0.458263 8:-0.0710865 9:0.210908 10:0.390387 11:-0.315593 12:0.127921 13:0.20478 14:0.12943 15:0.0894396 16:-0.345934 17:-0.031866 18:0.0830541 19:-0.0131512 20:-0.302432 21:-0.527647 22:0.349264 23:-0.615578 24:-0.755363 25:-0.176587 26:-0.338443 27:0.163251 28:-0.190301 29:-0.449342 30:0.0823569 31:-0.469386 32:0.42972 33:-0.405638 34:-0.443287 35:0.49436 
1.728578454630885 1:0.168214 2:-0.0576504 3:0.0980867 4:0.127277 5:0.431419 6:-0.0459044 7:0.413416 8:-0.166096 9:-0.475489 10:0.019565 11:0.274618 12:0.48897 13:0.411819 14:0.0920587 15:0.686536 16:-0.0488311 17:0.250054 18:0.562302 19:0.556607 20:0.249311 21:-0.445306 22:0.0440585 23:0.144375 24:-0.0120189 25:0.0722885 26:0.0408902 27:0.657712 28:-0.0907207 29:0.162938 30:-0.25787 31:-0.474904 32:0.353879 33:0.137129 34:0.508215 35:0.0548857 
0.7270863354135868 1:0.18465 2:0.121752 3:-0.0878681 4:-0.832464 5:0.290667 6:-0.499623 7:0.203537 8:-0.431681 9:0.553995 10:-0.867163 11:0.0876622 12:-0.255481 13:0.36361 14:-0.0344016 15:-0.00407759 16:-0.564115 17:-0.244562 18:-0.239029 19:-0.298558 20:-0.202032 21:-0.775154 22:-0.374493 23:-0.534586 24:-0.277877 25:-0.722147 26:-0.313075 27:-0.346622 28:0.391892 29:-0.121385 30:0.257954 31:-0.174518 32:-0.30656 33:-0.725833 34:0.377978 35:0.225127 
0.6225195665047046 1:-0.249924 2:0.44027 3:0.218818 4:0.420556 5:-0.245424 6:-0.382926 7:-0.290429 8:0.12077 9:0.433269 10:-0.157327 11:-0.300808 12:0.417297 13:-0.0438627 14:0.0728921 15:-0.263693 16:-0.123264 17:-0.173538 18:-0.28061 19:-0.269238 20:-0.0967151 21:0.326233 22:0.0552383 23:-0.534378 24:-0.663342 25:0.199703 26:-0.00331155 27:-0.21987 28:-0.744476 29:0.190616 30:0.0534192 31:0.222834 32:0.0544282 33:-0.188236 34:0.52471 35:-0.154966 
1.73058418836088 1:-0.408026 2:-0.0185293 3:0.235596 4:0.416807 5:-0.0517181 6:-0.0242294 7:-0.0223676 8:-0.034117 9:0.24711 10:0.113095 11:-0.0838387 12:-0.0391931 13:-0.35646 14:-0.979205 15:-0.25789 16:-0.295342 17:-0.109654 18:-0.538126 19:-0.068854 20:-0.313552 21:-0.732097 22:-0.290627 23:-0.604595 24:-0.345128 25:-0.64002 26:-0.43899 27:0.0323289 28:-0.0456261 29:-0.892444 30:-0.603282 31:-0.226742 32:0.165048 33:-0.471172 34:-0.125752 35:-0.705613 
1.993273011555355 1:0.223474 2:0.103796 3:0.0766818 4:-0.011417 5:0.239933 6:0.297074 7:0.134612 8:0.0137597 9:0.197582 10:0.0710667 11:0.455844 12:0.363944 13:0.0681654 14:-0.0274865 15:0.138955 16:0.0511792 17:0.350153 18:0.236878 19:0.345236 20:0.269563 21:0.460218 22:-0.360022 23:-0.604372 24:-0.728513 25:-0.391206 26:0.0155897 27:0.191503 28:0.243348 29:-0.794403 30:0.0200099 31:0.146226 32:0.406684 33:-0.495802 34:0.313999 35:0.0579473 
2 1:0.12337 2:0.4562 3:0.347364 4:0.429387 5:-0.0895992 6:-0.0577621 7:0.032999 8:-0.169074 9:0.550567 10:0.620075 11:0.0169605 12:0.239461 13:-0.0687316 14:0.0863846 15:0.0820516 16:-0.00473731 17:0.126581 18:-0.264913 19:0.246496 20:-0.0203562 21:-0.735271 22:-0.101906 23:-0.847591 24:-0.716198 25:-0.158067 26:-0.220571 27:0.181883 28:-0.313653 29:-0.222928 30:-0.0396926 31:-0.0237222 32:0.391645 33:-0.358897 34:-0.418193 35:0.634957 
2 1:0.283759 2:0.184375 3:0.142813 4:0.643751 5:0.292954 6:-0.506138 7:0.243469 8:-0.101711 9:0.544638 10:-0.0632328 11:-0.0531416 12:0.174311 13:0.222122 14:0.0357859 15:0.156065 16:-0.369404 17:-0.239729 18:-0.0890942 19:0.076923 20:-0.207073 21:-0.825977 22:-0.0251395 23:-0.538548 24:-0.572023 25:-0.441308 26:-0.237159 27:-0.0184959 28:0.13524 29:-0.472672 30:0.0222938 31:0.0044792 32:0.246315 33:-0.277281 34:0.512157 35:0.198791 
1.321384723294522 1:0.0592247 2:0.0497039 3:0.435254 4:0.274408 5:0.0415774 6:-0.159849 7:0.38512 8:-0.306783 9:-0.870191 10:0.214235 11:0.360611 12:0.148023 13:0.323677 14:-0.235786 15:0.299918 16:-0.246224 17:0.0334308 18:0.0757093 19:0.195758 20:-0.109154 21:-0.549548 22:-0.320095 23:-0.564524 24:-0.572023 25:0.289312 26:-0.379764 27:0.0736416 28:-0.277671 29:-0.469446 30:-0.307849 31:-0.197956 32:0.114839 33:-0.127636 34:0.132013 35:0.000763806 
0.3006481098560431 1:0.0595326 2:0.313951 3:-0.381308 4:0.0296605 5:-0.463482 6:-0.176919 7:0.102374 8:-0.672368 9:0.777795 10:0.306074 11:-0.216977 12:0.595963 13:-0.239183 14:0.363916 15:-0.393866 16:-0.0424889 17:-0.355777 18:-0.0852663 19:0.00284139 20:0.0619769 21:-0.152025 22:-0.289155 23:-0.617763 24:-0.740982 25:-0.486559 26:0.0560229 27:-0.258793 28:-0.605336 29:0.158128 30:-0.651281 31:-0.141652 32:0.223447 33:-0.054613 34:0.499482 35:-0.333384 
0.0367177328086446 1:-0.245778 2:-0.212771 3:0.0369194 4:-0.32338 5:0.0166863 6:0.114813 7:-0.169591 8:1 9:-0.834061 10:-0.0298443 11:-0.148634 12:0.21774 13:-0.0244604 14:-0.380528 15:-0.242354 16:-0.343712 17:-0.194641 18:0.26988 19:-0.33656 20:-0.138709 21:-0.821874 22:-0.233058 23:-0.716567 24:-0.713589 25:-0.221383 26:-0.391642 27:-0.0851256 28:0.0853417 29:-0.467001 30:0.159242 31:-0.144629 32:0.0150615 33:-0.470931 34:0.136452 35:-0.156568 
0.7329416294979949 1:0.239135 2:0.0181694 3:-0.321024 4:0.34937 5:-0.0134815 6:-0.111746 7:0.32549 8:-0.466825 9:0.35928 10:0.0825247 11:-0.0943016 12:0.374103 13:-0.0755337 14:0.106532 15:-0.111957 16:0.0349819 17:-0.156848 18:-0.337602 19:0.182689 20:0.288337 21:0.330746 22:-0.533777 23:-0.767687 24:-0.880575 25:-0.70382 26:0.101833 27:-0.177301 28:0.32276 29:-0.329726 30:-0.156142 31:0.0536116 32:0.0961162 33:-0.317486 34:0.208357 35:-0.291494 
0.05769314941626422 1:-0.169848 2:0.466306 3:0.228792 4:-0.400796 5:-0.192399 6:-0.385947 7:-0.108516 8:-0.267613 9:0.755534 10:0.289363 11:-0.0454713 12:0.40441 13:0.178507 14:-0.569834 15:-0.0737072 16:-0.365623 17:-0.318846 18:0.69082 19:-0.0168132 20:-0.253885 21:-0.729759 22:0.264063 23:-0.492055 24:-0.522694 25:-0.0591581 26:-0.453797 27:-0.173051 28:0.507549 29:0.0445654 30:0.271223 31:0.135133 32:0.446694 33:0.029746 34:-0.630155 35:0.0687721 
1.570968617502921 1:-0.292158 2:-0.240815 3:-0.0207681 4:0.127182 5:0.184591 6:0.0893075 7:-0.35369 8:-0.0709438 9:0.339591 10:-0.2246 11:0.302763 12:0.319812 13:0.302438 14:0.329195 15:-0.12101 16:-0.257068 17:0.0890285 18:0.168713 19:0.280064 20:-0.0124637 21:-0.431745 22:-0.0305713 23:-0.168585 24:-0.241799 25:-0.0422203 26:0.00178695 27:0.469737 28:0.446788 29:-0.10418 30:-0.233069 31:-0.250453 32:0.426636 33:0.033769 34:1 35:0.151169 
2 1:0.00839647 2:0.234346 3:-0.050551 4:0.239146 5:0.392839 6:-0.105642 7:0.0890557 8:-0.0831317 9:0.639986 10:-0.133568 11:-0.358558 12:0.560675 13:0.381602 14:-0.231002 15:-0.129775 16:-0.0543623 17:0.00242911 18:0.444882 19:0.377445 20:0.0606435 21:0.768662 22:0.22562 23:-0.616393 24:-0.572023 25:0.26043 26:-0.0796111 27:0.221577 28:-0.338864 29:-0.176554 30:0.227946 31:0.606112 32:0.566685 33:-0.0524871 34:0.433957 35:0.580937 
0.0256568449503991 1:-0.360232 2:-0.424664 3:-0.328391 4:-0.430358 5:-0.217485 6:-0.195338 7:0.16167 8:-0.646824 9:-0.394441 10:-0.132992 11:-0.130982 12:0.295148 13:-0.058264 14:-0.474939 15:-0.524361 16:-0.124851 17:-0.456078 18:-0.267307 19:0.206086 20:0.00683662 21:-0.328341 22:-0.625425 23:-0.611841 24:-0.66563 25:-0.0661633 26:-0.345793 27:0.0213247 28:-0.537265 29:-0.469833 30:-0.431256 31:0.117697 32:-0.14771 33:-0.235013 34:0.131309 35:0.0548857 
0.1533157931402676 1:0.0250424 2:0.0939372 3:-0.0348402 4:-0.199241 5:-0.132972 6:0.623365 7:0.286326 8:-0.525013 9:-0.325236 10:0.0905948 11:0.645357 12:0.780185 13:-0.200958 14:-0.081058 15:0.189778 16:0.498671 17:0.323046 18:-0.397985 19:0.349773 20:0.52819 21:-0.00452834 22:-0.391972 23:-0.833792 24:-0.583962 25:-0.332873 26:0.282447 27:0.351899 28:0.14508 29:-0.749596 30:-0.672278 31:-0.171093 32:0.438786 33:-0.652826 34:0.235149 35:-0.521264 
1.099509340887727 1:-0.212838 2:0.368092 3:-0.0289728 4:0.383944 5:-0.324168 6:-0.106419 7:-0.4157 8:-0.115584 9:0.0681984 10:0.458871 11:0.136042 12:0.350779 13:-0.337042 14:0.294709 15:-0.343251 16:-0.156238 17:-0.0512842 18:-0.286075 19:0.540286 20:-0.136006 21:-0.635401 22:0.0545909 23:-0.744836 24:-0.739911 25:-0.361747 26:-0.138155 27:0.208519 28:-0.148882 29:-0.19265 30:0.142538 31:-0.42159 32:-0.847655 33:-0.578846 34:-0.00732292 35:0.547464 
1.877249194812614 1:0.104946 2:0.166663 3:-0.0268572 4:0.191489 5:-0.287984 6:-0.407372 7:0.214673 8:-0.128391 9:0.486464 10:-0.0110491 11:-0.398855 12:-0.258592 13:0.180093 14:-0.564163 15:-0.159685 16:-0.45295 17:-0.390673 18:-0.0499709 19:0.424227 20:-0.258201 21:-0.549548 22:-0.0232486 23:-0.564524 24:-0.572023 25:-0.679466 26:-0.47109 27:0.0969306 28:0.00798363 29:-0.326696 30:0.153789 31:0.600787 32:0.446352 33:0.158268 34:0.00519686 35:0.184984 
0.1650087176813015 1:0.29455 2:0.443841 3:-0.0609273 4:-0.431019 5:0.0401792 6:0.128477 7:-0.20582 8:-0.255964 9:0.397219 10:0.279457 11:0.0102832 12:0.252173 13:-0.240785 14:0.311198 15:0.00930804 16:-0.0209592 17:0.227447 18:-0.222367 19:0.194197 20:0.103546 21:0.340754 22:-0.0861103 23:-0.496122 24:-0.572023 25:-0.45497 26:-0.14091 27:-0.0801805 28:0.153101 29:-0.683365 30:-0.139364 31:-0.369864 32:-0.30656 33:-0.275502 34:-0.256397 35:-0.161434 
1.425891704285719 1:0.180129 2:-0.142735 3:0.00823667 4:0.1511 5:0.161685 6:-0.468902 7:-0.260509 8:-0.51352 9:0.461871 10:0.0652965 11:0.447203 12:-0.206559 13:0.421505 14:0.303948 15:-0.0222506 16:-0.180174 17:-0.421878 18:0.191125 19:0.219885 20:0.0178151 21:-0.549548 22:0.0886253 23:0.612501 24:0.445851 25:0.302213 26:-0.335319 27:0.0432523 28:0.149316 29:0.177098 30:-0.468976 31:0.11686 32:0.625537 33:-0.145157 34:0.608287 35:0.178793 
0.01234100524991279 1:0.226815 2:0.159959 3:0.42126 4:0.69459 5:0.119418 6:0.135808 7:0.1733 8:-0.374041 9:0.696889 10:-0.0155124 11:0.187179 12:0.222696 13:0.174459 14:-0.177928 15:0.272228 16:0.0273151 17:0.105489 18:0.0701115 19:-0.353561 20:0.170503 21:-0.475219 22:0.132817 23:-0.564524 24:-0.633711 25:0.216854 26:-0.237045 27:-0.0167177 28:0.206657 29:-0.412995 30:-0.252004 31:0.174069 32:0.816665 33:0.259061 34:-0.151494 35:-0.0868738 
0.327827214924494 1:0.0502648 2:0.0367579 3:-0.448449 4:-0.749187 5:0.399174 6:-0.332765 7:0.200596 8:-0.301368 9:0.574061 10:-0.69575 11:0.175546 12:-0.153495 13:0.404145 14:-0.151789 15:0.0271659 16:-0.613965 17:-0.224541 18:-0.040329 19:-0.452366 20:-0.14367 21:-0.433949 22:-0.367624 23:-0.809598 24:-0.449378 25:-0.665633 26:-0.275429 27:-0.454905 28:0.0731982 29:-0.449608 30:0.006652 31:-0.136103 32:-1 33:-0.731668 34:0.366658 35:0.239705 
0.8850476771023973 1:-0.423155 2:0.269194 3:-0.29239 4:-0.306031 5:0.0451978 6:-0.0727176 7:-0.455411 8:-0.231352 9:0.540823 10:-0.0346543 11:0.00181533 12:0.236411 13:-0.00213504 14:0.15697 15:0.0242828 16:0.0827651 17:0.122114 18:0.0482477 19:0.0801278 20:0.140178 21:-0.0677254 22:-0.0997409 23:0.19243 24:0.138616 25:-0.0444458 26:-0.0393535 27:-0.0205242 28:-0.400697 29:0.229377 30:0.235296 31:-0.426823 32:-0.30656 33:0.0643994 34:-0.320501 35:0.0548857 
2 1:-0.182175 2:0.500201 3:0.112395 4:0.507437 5:-0.0567732 6:-0.163243 7:-0.0543241 8:-0.34902 9:0.522162 10:-0.081414 11:-0.269573 12:0.186301 13:-0.168811 14:0.3943 15:-0.13059 16:0.0876291 17:-0.0553971 18:-0.278771 19:-0.361741 20:0.0209915 21:0.422577 22:0.188011 23:-0.763188 24:-0.572023 25:-0.34675 26:-0.119326 27:-0.415339 28:-0.348817 29:-0.303148 30:0.4755 31:-0.0741914 32:0.0971745 33:-0.0813049 34:-0.164104 35:0.400022 
0.2325885044299026 1:-0.488009 2:-0.45812 3:0.0551084 4:0.437542 5:-0.328435 6:1 7:0.258359 8:0.150321 9:-0.782007 10:-0.349566 11:0.0351225 12:0.078224 13:0.106382 14:0.0607953 15:0.49179 16:-0.60927 17:-0.615179 18:0.0773885 19:-0.0146823 20:-0.285608 21:-0.479077 22:-0.122517 23:-0.803494 24:-0.636705 25:-0.0468108 26:-0.915407 27:0.224706 28:0.218369 29:0.0627798 30:0.286366 31:-0.247325 32:0.55729 33:-0.804771 34:-0.0596433 35:0.0394253 
0.5603415701302213 1:0.0753886 2:0.263979 3:-0.487367 4:0.258191 5:-0.000278873 6:-0.0592693 7:0.0430945 8:-0.298622 9:0.389946 10:-0.133986 11:-0.334077 12:0.0349918 13:0.228866 14:0.028853 15:-0.0493638 16:-0.447652 17:-0.169217 18:0.0548625 19:0.329407 20:-0.0368449 21:-0.549858 22:-0.257418 23:-0.244899 24:-0.372904 25:-0.272043 26:-0.397678 27:0.176512 28:-0.177769 29:-0.613843 30:-0.354073 31:0.162305 32:-0.30696 33:-0.608356 34:-0.290374 35:-0.459939 
0.04179241048028955 1:-0.12495 2:0.377151 3:-0.206383 4:-0.604429 5:-0.436163 6:-0.442385 7:-0.0518698 8:-0.381914 9:0.626358 10:-0.240378 11:-0.317507 12:0.526224 13:-0.186395 14:0.357199 15:-0.318842 16:-0.137808 17:-0.299561 18:-0.415519 19:-0.711305 20:-0.366668 21:-0.694956 22:0.210812 23:-0.685756 24:-0.572023 25:-0.228301 26:-0.281921 27:-0.484552 28:-0.496723 29:0.217035 30:0.01544 31:-0.213533 32:-0.0974084 33:-0.622082 34:0.766645 35:0.230333 
2 1:0.416962 2:0.112506 3:0.396737 4:0.268338 5:0.690414 6:0.039967 7:0.219502 8:-0.242305 9:0.915432 10:-0.0402513 11:0.0287281 12:0.12291 13:0.830472 14:-0.509963 15:-0.0253277 16:-0.263419 17:0.349148 18:0.774449 19:0.358587 20:0.246025 21:0.876375 22:-0.0221747 23:-0.564524 24:-0.572023 25:0.0378302 26:-0.106113 27:0.694412 28:0.784535 29:-0.405159 30:0.212106 31:-0.148419 32:-0.203392 33:-0.0151389 34:0.248737 35:-0.0767607 
2 1:0.245482 2:0.143669 3:0.60282 4:-0.0900489 5:0.0544734 6:0.0878753 7:0.079692 8:-0.31856 9:0.814533 10:0.211522 11:0.525729 12:0.337595 13:0.27659 14:-0.590881 15:0.418176 16:-0.166948 17:0.17216 18:0.328903 19:0.238797 20:0.0515528 21:-0.59889 22:0.301587 23:-0.733885 24:-0.572023 25:0.000403498 26:-0.242087 27:0.0565949 28:-0.175436 29:-0.246997 30:-0.421123 31:0.190062 32:0.242165 33:0.0990715 34:0.310113 35:0.241218 
1.64500483681729 1:-0.179009 2:0.0163135 3:-0.718622 4:0.555106 5:0.0518796 6:-0.743495 7:-0.209054 8:-0.0228266 9:-0.0799581 10:0.27491 11:-0.496103 12:0.183062 13:0.244222 14:0.292006 15:-0.432458 16:-0.277782 17:-0.290671 18:-0.0154833 19:0.460808 20:-0.314672 21:0.010668 22:-0.107788 23:-0.018382 24:-0.206971 25:0.188886 26:-0.189063 27:-0.0543652 28:0.129124 29:0.450098 30:0.528648 31:0.316527 32:0.101558 33:-0.0886249 34:0.331964 35:0.417237 
1.223260261248198 1:0.78984 2:0.696725 3:-0.53702 4:-0.436714 5:0.497491 6:-0.336808 7:-0.477965 8:-0.107464 9:0.780589 10:-0.623296 11:-0.481543 12:-0.12655 13:0.296851 14:0.606463 15:-0.101246 16:-0.435592 17:-0.221055 18:-0.0681402 19:-0.089954 20:-0.220374 21:0.566209 22:0.0161794 23:-0.570789 24:-0.431917 25:-0.674282 26:-0.449352 27:-0.00464346 28:-0.571171 29:-0.437894 30:0.308314 31:0.0139832 32:0.351995 33:-0.200486 34:0.575304 35:-0.667718 
0.7768856523520657 1:0.589796 2:-0.189349 3:-0.54614 4:0.188423 5:-0.103432 6:-0.00664347 7:0.347104 8:-0.498065 9:0.608335 10:0.160689 11:-0.282539 12:0.481325 13:0.496529 14:0.491258 15:-0.0981696 16:0.290768 17:0.0879572 18:0.00124415 19:-0.102369 20:0.311179 21:0.938227 22:0.0239309 23:-0.48451 24:-0.513938 25:0.229389 26:0.131656 27:-0.318686 28:-0.340893 29:0.477579 30:0.69065 31:0.48248 32:0.710985 33:-0.0629062 34:-0.274514 35:-0.0859886 
0.9269044822775463 1:0.0322774 2:0.580893 3:-0.0533881 4:0.42284 5:-0.317045 6:0.00297206 7:-0.218523 8:-0.324314 9:0.586335 10:0.920292 11:-0.0829961 12:0.762689 13:-0.244472 14:0.419181 15:-0.0405496 16:0.457798 17:0.130914 18:-0.0464935 19:0.391784 20:0.343266 21:-0.121692 22:-0.118265 23:-0.0923461 24:-0.251766 25:0.294025 26:0.311867 27:-0.25291 28:-0.162265 29:0.267133 30:0.210509 31:-0.407767 32:-0.30656 33:-0.235013 34:0.385758 35:0.294984 
0.7239121936911392 1:0.063315 2:0.142533 3:-0.0364836 4:0.422677 5:-0.0459349 6:0.0135003 7:0.107587 8:-0.349757 9:0.26531 10:-0.186434 11:-0.109804 12:0.0961791 13:0.0664844 14:-0.999471 15:0.0941106 16:-0.377965 17:0.0597298 18:-0.138531 19:0.0457795 20:-0.0282215 21:-0.661685 22:-0.383813 23:-0.568205 24:-0.238404 25:-0.420445 26:-0.356298 27:0.227833 28:-0.309981 29:-0.602314 30:-0.717305 31:-0.0468918 32:0.0300416 33:-0.219453 34:-0.00770189 35:-0.14516 
2 1:-0.000630967 2:0.577943 3:0.481563 4:0.831096 5:-0.248754 6:-0.00300322 7:-0.129875 8:-0.190391 9:0.578712 10:0.492439 11:0.0309415 12:0.635807 13:-0.219743 14:0.175982 15:0.0804488 16:0.250487 17:0.195224 18:-0.20749 19:0.339181 20:0.0620537 21:-0.327677 22:0.293937 23:-0.560983 24:-0.568726 25:0.00666151 26:0.0987172 27:-0.0868297 28:0.128452 29:0.327452 30:0.0970684 31:-0.0273965 32:0.255721 33:0.32903 34:0.433957 35:0.642857 
1.300050020390422 1:-0.227052 2:0.23256 3:-0.336857 4:0.560825 5:0.159442 6:-0.416102 7:-0.0729683 8:-0.686145 9:0.433018 10:-0.253803 11:-0.741388 12:0.0570551 13:0.774442 14:-0.553326 15:-0.0938685 16:-0.110937 17:-0.128529 18:0.490301 19:0.372468 20:-0.0744834 21:-0.549548 22:-0.344501 23:-0.564524 24:-0.572023 25:0.166954 26:-0.219504 27:0.358755 28:0.0442592 29:0.431011 30:0.509766 31:0.687046 32:0.562743 33:-0.0239124 34:0.0715096 35:0.434307 
0.206275538938112 1:-0.275784 2:0.313979 3:0.029422 4:0.361973 5:-0.17779 6:0.0986443 7:-0.417135 8:-0.285957 9:0.619235 10:-0.394774 11:-0.290225 12:0.56519 13:-0.489215 14:-0.354964 15:-0.266387 16:-0.216535 17:0.145387 18:-0.0495749 19:0.0947112 20:-0.0180504 21:-0.304162 22:0.0982991 23:-0.0412497 24:-0.0337212 25:-0.668949 26:-0.170107 27:-0.1431 28:-0.00418416 29:-0.794522 30:-0.018084 31:0.265008 32:0.235508 33:-0.136324 34:-0.458224 35:0.0577937 
2 1:0.391909 2:0.327489 3:-0.0537496 4:0.414237 5:0.127852 6:-0.12593 7:0.0947112 8:0.0259011 9:0.522039 10:0.279707 11:-0.0990296 12:0.290084 13:0.883749 14:0.418785 15:0.21475 16:-0.101324 17:0.0823412 18:0.0168497 19:0.506505 20:-0.033534 21:-0.354815 22:0.329995 23:-0.558908 24:-0.756018 25:0.346147 26:0.0903676 27:0.0938762 28:-0.181889 29:-0.0812415 30:0.215615 31:-0.181023 32:0.665646 33:-0.226297 34:0.433957 35:0.455128 
1.127709340243542 1:0.34566 2:0.384205 3:0.448272 4:0.615786 5:0.0453807 6:-0.322821 7:0.253648 8:-0.127887 9:0.667954 10:0.501998 11:-0.38346 12:-0.251451 13:0.124541 14:-0.610655 15:0.273727 16:-0.343441 17:-0.2129 18:0.0827138 19:0.502429 20:-0.317876 21:-0.51855 22:0.4606 23:0.0288669 24:-0.142958 25:0.0167628 26:-0.824125 27:0.163328 28:-0.398317 29:-0.303148 30:-0.353648 31:-0.12539 32:0.526765 33:0.506132 34:0.511759 35:0.110184 
1.359576571920072 1:-0.0972884 2:0.333958 3:-0.248446 4:0.163061 5:-0.337715 6:-0.0449941 7:0.134521 8:-0.270011 9:0.747479 10:-0.0197385 11:-0.133303 12:0.751704 13:-0.159762 14:-0.281703 15:-0.211461 16:-0.209484 17:0.0294226 18:-0.117288 19:0.337277 20:-0.0981068 21:-0.492962 22:-0.201344 23:-0.517347 24:-0.528096 25:-0.414137 26:-0.301235 27:-0.10344 28:-0.471378 29:-0.349286 30:-0.121275 31:-0.546954 32:-0.30656 33:-0.0151829 34:0.433957 35:0.2697 
0.5486448204998924 1:-0.0406679 2:0.448242 3:0.338929 4:0.134889 5:-0.238976 6:0.0352024 7:-0.105035 8:-0.130363 9:0.568691 10:0.0219618 11:0.0794025 12:0.460726 13:-0.156267 14:0.0906632 15:-0.125675 16:-0.287777 17:-0.23086 18:-0.296828 19:0.0642896 20:-0.231928 21:-0.526151 22:-0.0638362 23:-0.562648 24:-0.658261 25:-0.273767 26:-0.20722 27:0.126649 28:-0.610982 29:-0.669306 30:-0.321652 31:-0.260172 32:-0.96252 33:0.291611 34:-0.070665 35:-0.143291 
0.9093638038197269 1:-0.155309 2:-0.18401 3:-0.0330437 4:-1 5:0.512043 6:-0.169168 7:0.157765 8:0.312849 9:0.55555 10:-0.926611 11:0.223949 12:-0.0964068 13:0.229669 14:-0.241555 15:0.21079 16:-0.597668 17:-0.133165 18:0.304154 19:-0.120216 20:-0.111185 21:0.560245 22:-0.0894178 23:-0.549691 24:-1 25:-0.257252 26:-0.270298 27:0.0854136 28:0.49885 29:-0.178745 30:-0.353604 31:0.188825 32:0.319533 33:-0.749272 34:0.385581 35:0.0205027 
0.6390831164136984 1:-0.320407 2:-0.335933 3:0.318644 4:-0.804172 5:-0.155302 6:-0.367639 7:-0.34761 8:-0.0963283 9:-0.588128 10:-1 11:0.330556 12:-0.213049 13:0.227016 14:-0.418588 15:-0.185135 16:-0.463602 17:-0.424637 18:-0.196039 19:0.183618 20:-0.108084 21:0.28005 22:-0.660904 23:-0.564524 24:-0.84401 25:0.113697 26:-0.474018 27:0.365107 28:0.344597 29:-0.237928 30:0.335417 31:-0.048631 32:0.304194 33:-0.235013 34:0.433957 35:0.37897 
2 1:0.0920255 2:0.126847 3:-0.199617 4:-0.271717 5:0.251911 6:-0.215072 7:0.259697 8:-0.291603 9:0.644843 10:-0.386385 11:-0.306117 12:0.136468 13:0.234827 14:0.108178 15:-0.093179 16:-0.341517 17:-0.0875882 18:0.328323 19:0.216449 20:-0.0151709 21:-0.710649 22:-0.305429 23:-0.495612 24:-0.697084 25:-0.248008 26:-0.269021 27:-0.0573705 28:0.619279 29:-0.313251 30:-0.0856259 31:-0.0408175 32:0.0806895 33:-0.235013 34:0.641412 35:0.202336 
1.010228409075556 1:-0.542019 2:-0.00393597 3:-0.395856 4:0.0703418 5:-0.607661 6:-0.156229 7:-0.486947 8:-0.459045 9:0.122057 10:0.133499 11:-0.411897 12:0.379716 13:-0.513676 14:-0.0340084 15:-0.711333 16:-0.022118 17:-0.358286 18:-0.455732 19:0.119039 20:-0.084186 21:-0.695826 22:-0.567006 23:-0.564524 24:-0.924353 25:-0.408068 26:-0.166172 27:-0.460508 28:-0.113311 29:-0.436914 30:-0.307634 31:-0.683385 32:-0.335077 33:-0.623208 34:-0.31919 35:-0.206064 
2 1:-0.318296 2:-0.173451 3:-0.24073 4:0.290276 5:0.265551 6:-0.0617185 7:-0.162762 8:-0.282562 9:0.47827 10:-0.90868 11:0.239201 12:-0.0681909 13:0.342501 14:-0.233564 15:0.0718542 16:-0.415084 17:0.0979111 18:-0.0166365 19:-0.0103198 20:0.0135211 21:-0.950222 22:-0.239572 23:-0.89858 24:-0.547897 25:-0.595726 26:-0.307813 27:0.220208 28:-0.47581 29:-0.307467 30:-0.413239 31:-0.641972 32:0.0611882 33:-0.554397 34:0.651913 35:-0.385532 
2 1:0.55175 2:0.611685 3:0.370143 4:0.0790618 5:-0.211577 6:0.0171849 7:-0.254664 8:-0.387288 9:0.712125 10:0.764838 11:-0.143444 12:0.496185 13:-0.0433647 14:-0.0808682 15:0.113663 16:0.386813 17:0.320356 18:-0.0800308 19:0.284063 20:0.245233 21:-0.549548 22:-0.0473113 23:-0.564524 24:-0.572023 25:0.227343 26:0.303371 27:0.38657 28:-0.143274 29:-0.303148 30:0.312487 31:-0.151265 32:0.599034 33:0.221182 34:0.321224 35:0.923875 
0.9296036950981195 1:0.212522 2:0.40622 3:0.041444 4:0.359651 5:-0.501586 6:0.0545183 7:-0.278453 8:-0.111415 9:0.608222 10:-0.190148 11:0.444406 12:0.280042 13:0.134744 14:-0.973859 15:-0.127301 16:-0.210241 17:0.166865 18:0.131398 19:0.370291 20:-0.0576454 21:-0.605329 22:-0.224207 23:-0.814259 24:-0.804551 25:-0.348336 26:-0.0524823 27:0.281339 28:-0.112867 29:-0.504616 30:-0.429929 31:-0.30915 32:0.117841 33:-0.307176 34:0.454157 35:0.290746 
0.8253073954301123 1:0.240468 2:-0.0573282 3:-0.43611 4:0.331846 5:0.444146 6:-0.269492 7:0.596313 8:-0.20951 9:0.674726 10:-0.0485258 11:-0.086415 12:-0.0375505 13:0.788438 14:0.184167 15:0.237107 16:-0.335558 17:-0.105008 18:0.33418 19:0.473603 20:0.0278604 21:0.538929 22:0.183168 23:0.0155333 24:-0.239305 25:0.260582 26:-0.346166 27:0.302522 28:0.45672 29:0.0294502 30:0.319748 31:0.722108 32:0.272211 33:0.158829 34:0.586256 35:0.163134 
1.325302695714158 1:0.1323 2:-0.228327 3:-0.38311 4:-0.0280073 5:0.287027 6:-0.328303 7:0.204243 8:-0.300971 9:0.486747 10:-0.370193 11:0.10369 12:0.168621 13:0.508017 14:-0.0971157 15:-0.163431 16:-0.334339 17:-0.417822 18:0.423055 19:-0.183249 20:-0.0140045 21:-0.614366 22:-0.575671 23:-0.564524 24:-0.741728 25:0.516455 26:-0.182333 27:-0.526609 28:-0.231477 29:0.100879 30:0.335956 31:0.849214 32:-0.390151 33:-0.318866 34:-0.114732 35:0.0997433 
1.721337970064028 1:0.0469375 2:0.297634 3:-0.317213 4:-0.0797125 5:0.265174 6:-0.505021 7:0.373985 8:-0.30777 9:0.454604 10:-0.574221 11:-0.0664343 12:0.185091 13:0.191399 14:0.148919 15:-0.184898 16:-0.253929 17:-0.41373 18:-0.0809893 19:-0.546137 20:0.00245481 21:0.44432 22:-0.318465 23:-0.564524 24:-0.725534 25:-0.436105 26:-0.259289 27:-0.74149 28:0.297667 29:-0.178005 30:0.00686309 31:-0.345815 32:-0.120802 33:-0.806179 34:-0.674174 35:0.136958 
0.1080705798345104 1:-0.0497526 2:-0.431213 3:-0.11513 4:0.225175 5:0.602347 6:-0.18947 7:0.0167927 8:0.0719644 9:0.264489 10:-0.19615 11:0.15042 12:0.703494 13:0.759006 14:0.285521 15:0.29958 16:-0.310117 17:0.0119061 18:0.561902 19:0.59196 20:-0.0520594 21:-0.59334 22:0.153559 23:-0.126556 24:-0.168705 25:0.453039 26:-0.3464 27:0.626733 28:0.370528 29:0.352595 30:0.241685 31:1 32:0.441993 33:-0.14504 34:0.48425 35:0.364988 
0.02108461646246302 1:-0.0779835 2:0.56838 3:-0.426541 4:-0.085745 5:0.380617 6:-0.31148 7:0.0388471 8:-0.0931278 9:0.358868 10:0.0518922 11:-0.348536 12:0.245063 13:0.277539 14:0.387074 15:-0.0115727 16:-0.0368534 17:-0.126847 18:-0.325666 19:0.0850695 20:0.0205534 21:0.662817 22:0.0482138 23:-0.322542 24:-0.424564 25:0.152756 26:-0.339853 27:-0.0333039 28:0.837328 29:0.425575 30:0.253562 31:0.0856953 32:0.0926399 33:0.0107264 34:0.433957 35:0.0548857 
0.2837856294003589 1:0.196474 2:-0.449298 3:-0.402798 4:0.305859 5:0.520186 6:-0.351482 7:0.0726367 8:-0.176441 9:0.079886 10:-0.678464 11:0.395599 12:-0.0481464 13:0.702625 14:-0.175214 15:0.231649 16:-0.377816 17:-0.138827 18:0.609992 19:0.16349 20:-0.128693 21:-0.650022 22:0.0125036 23:0.943624 24:0.887559 25:0.225219 26:-0.324189 27:0.555835 28:0.998094 29:0.0751947 30:0.188818 31:0.526559 32:0.538985 33:-0.511619 34:0.509107 35:0.222168 
0.6864814166587334 1:-0.171567 2:-0.27222 3:-0.200013 4:-0.412599 5:-0.134717 6:0.0425504 7:-0.448602 8:-0.259113 9:0.311588 10:-0.222887 11:0.0855162 12:0.466123 13:0.18717 14:-0.179087 15:-0.421889 16:-0.0737865 17:-0.144286 18:0.241882 19:0.109935 20:-0.0209338 21:0.0997602 22:-0.171922 23:-0.284687 24:-0.515679 25:-0.334511 26:-0.13647 27:-0.00530145 28:-0.066384 29:-0.202817 30:-0.00529677 31:0.00442616 32:0.556674 33:-0.270853 34:0.278578 35:0.14664 
2 1:0.199907 2:0.37472 3:0.328996 4:0.684731 5:0.104208 6:-0.26741 7:0.288849 8:-0.293478 9:0.718753 10:-0.0443723 11:-0.0228271 12:0.175527 13:0.237288 14:-0.358627 15:0.0989571 16:-0.241033 17:-0.265161 18:-0.280941 19:0.137987 20:-0.114756 21:-0.417054 22:0.124729 23:-0.436429 24:-0.557154 25:-0.392906 26:-0.246668 27:-0.0718951 28:-0.492556 29:-0.613624 30:0.0378472 31:0.264255 32:-0.30656 33:0.251733 34:-0.12977 35:-0.0714335 
2 1:0.19318 2:0.13729 3:0.154497 4:-0.447174 5:0.245266 6:0.0721711 7:-0.198453 8:-0.00805559 9:0.541795 10:0.00602786 11:-0.248741 12:0.266722 13:0.0318136 14:-0.289029 15:-0.0127417 16:-0.074686 17:0.0543437 18:0.167462 19:0.19864 20:0.0716892 21:-0.469762 22:0.120633 23:-0.564524 24:-0.572023 25:-0.0415145 26:-0.0941864 27:0.289549 28:-0.468136 29:-0.405452 30:0.243785 31:-0.161884 32:0.462262 33:-0.0677454 34:-0.137798 35:0.0833498 
0.2291721491198544 1:-0.0952162 2:0.0581946 3:-0.113877 4:0.25324 5:-0.111348 6:-0.131334 7:0.381713 8:-0.454969 9:-0.753706 10:0.407584 11:0.482116 12:0.745277 13:-0.175092 14:-0.217633 15:-0.162242 16:-0.0391205 17:-0.320823 18:0.10914 19:0.0378614 20:-0.106994 21:-0.676871 22:-0.32451 23:-0.564524 24:-0.572023 25:0.0211908 26:-0.227279 27:-0.255263 28:-0.571354 29:-0.00668462 30:-0.31745 31:-0.211488 32:0.0993537 33:-0.235013 34:0.398861 35:0.215974 
0.164924425347409 1:-0.181934 2:0.0254779 3:0.319093 4:0.261755 5:-0.203299 6:0.156052 7:0.416034 8:0.246686 9:-0.0652711 10:-0.335025 11:-0.132309 12:-0.0638557 13:0.097503 14:-0.831875 15:0.171642 16:0.11654 17:0.162061 18:-0.343051 19:-0.220141 20:0.236014 21:-0.239476 22:-0.655248 23:-0.656948 24:-0.727916 25:-0.357277 26:-0.0991629 27:-0.0203915 28:0.259945 29:-0.196514 30:-0.111019 31:0.148593 32:0.291657 33:-0.0054812 34:-0.0700741 35:-0.303359 
1.194051802977321 1:-0.0976767 2:-0.20521 3:-0.12161 4:-0.158377 5:-0.05618 6:0.23488 7:0.225087 8:0.103555 9:0.516647 10:-0.161296 11:-0.258619 12:0.259722 13:0.31854 14:-0.28775 15:-0.250074 16:0.0813215 17:0.197273 18:-0.0975225 19:0.375033 20:0.283319 21:1 22:-0.186355 23:-0.739123 24:-0.734592 25:-0.0709495 26:0.014758 27:0.250009 28:-0.130433 29:-0.0185379 30:-0.0720942 31:-0.147601 32:0.702881 33:-0.146344 34:0.294343 35:0.390498 
0.9465111314197787 1:0.579515 2:0.414333 3:-0.312255 4:-0.788783 5:0.432438 6:-1 7:0.586702 8:-1 9:0.567218 10:-0.424481 11:-0.592388 12:0.122436 13:0.65782 14:-0.044033 15:-0.334019 16:-0.74978 17:-1 18:0.6447 19:-0.7689 20:-0.4808 21:-0.549548 22:-0.919308 23:-0.564524 24:-0.831752 25:-0.40697 26:-0.644553 27:-0.731309 28:-1 29:-0.216099 30:0.140175 31:0.132316 32:-0.109328 33:-0.667848 34:0.978015 35:-0.541976 
2 1:-0.0364316 2:0.403441 3:-0.254549 4:0.460925 5:-0.146338 6:-0.242685 7:-0.202273 8:-0.0553946 9:0.451309 10:0.112315 11:0.00037789 12:0.198252 13:0.130608 14:0.137601 15:-0.0849561 16:-0.202171 17:-0.107977 18:-0.0634272 19:-0.0334473 20:-0.0881091 21:-0.43239 22:0.307625 23:-0.316835 24:-0.600463 25:0.0916918 26:-0.250241 27:-0.142751 28:0.224496 29:0.220306 30:0.279328 31:0.295788 32:0.439542 33:0.418636 34:0.342006 35:0.263887 
1.554899292516583 1:0.522905 2:0.661029 3:0.26437 4:0.495144 5:-0.0642979 6:0.0178083 7:-0.181094 8:-0.23811 9:0.655544 10:0.139919 11:0.334223 12:0.498889 13:0.159759 14:-0.116606 15:-0.00789507 16:-0.102896 17:0.00651763 18:-0.283986 19:0.31367 20:-0.0607792 21:-0.287997 22:0.213148 23:-0.790038 24:-0.781998 25:-0.252853 26:-0.031818 27:0.0357001 28:0.0428846 29:-0.340098 30:-0.3902 31:-0.0100299 32:0.13796 33:-0.122967 34:-0.244933 35:0.00720198 
0.7361535620674803 1:0.175427 2:-0.33361 3:-0.337101 4:0.00903902 5:0.376423 6:-0.161689 7:-0.0722744 8:-0.676327 9:-0.755171 10:0.278651 11:0.118326 12:0.387381 13:0.432303 14:0.468063 15:-0.159182 16:0.102354 17:-0.106174 18:-0.0192704 19:0.1563 20:0.222428 21:-0.604122 22:-0.151308 23:0.273007 24:0.169972 25:-0.13357 26:-0.0662273 27:0.0672726 28:-0.766875 29:0.458733 30:0.548375 31:-0.114255 32:0.428088 33:-0.421998 34:0.581452 35:0.159719 
1.807131881215944 1:0.358441 2:0.277957 3:-0.125886 4:-0.392061 5:0.485025 6:-0.541654 7:0.478812 8:-0.508486 9:0.596844 10:-0.263341 11:-0.316303 12:-0.225066 13:0.561493 14:-0.155608 15:0.256798 16:-0.452455 17:-0.236662 18:0.261072 19:-0.224187 20:-0.122752 21:0.646931 22:-0.53737 23:-0.632295 24:-0.515736 25:-0.0311225 26:-0.471609 27:-0.229469 28:0.647137 29:-0.202918 30:-0.0441832 31:0.225704 32:0.0491362 33:0.121798 34:0.615943 35:0.0548857 
1.764956511461454 1:0.273625 2:0.233985 3:-0.0686361 4:-0.323637 5:0.210972 6:0.0910622 7:0.226972 8:0.0767864 9:0.462366 10:0.0259456 11:0.480082 12:0.222237 13:-0.0281025 14:0.213222 15:0.386036 16:-0.129496 17:0.111186 18:0.114098 19:0.0396004 20:0.19037 21:0.215782 22:0.183193 23:0.127028 24:-0.0158678 25:-0.406014 26:-0.135281 27:0.0720146 28:-0.182363 29:-0.291768 30:-0.187398 31:-0.211806 32:0.511933 33:-0.224363 34:0.228822 35:0.0695719 
1.03050360992551 1:0.180797 2:0.280655 3:-0.311112 4:0.0200021 5:-0.0281612 6:-0.113711 7:0.0625458 8:-0.40479 9:0.567146 10:0.528812 11:-0.0522296 12:0.428921 13:0.23121 14:0.500056 15:-0.372457 16:-0.00878135 17:-0.302702 18:-0.0874163 19:0.215106 20:0.0992778 21:-0.575928 22:-0.193292 23:-0.261339 24:-0.799874 25:-0.164469 26:-0.196015 27:-0.344594 28:-0.35697 29:-0.0977879 30:0.0528425 31:0.178846 32:-0.0900735 33:-0.614725 34:-0.30273 35:-0.26653 
0.1015963459295356 1:-0.237224 2:0.141608 3:-0.911836 4:0.0655189 5:0.0609449 6:-0.0855392 7:0.195611 8:-0.351632 9:0.560642 10:-0.0243621 11:-0.521789 12:0.296049 13:0.325507 14:0.128639 15:-0.737722 16:-0.225021 17:-0.522 18:-0.185225 19:-0.0614342 20:0.0112675 21:-0.3723 22:-0.302716 23:-0.940851 24:-0.572023 25:-0.590222 26:-0.152127 27:-0.573442 28:-0.481685 29:-0.714507 30:-0.192657 31:0.021921 32:-0.30656 33:-0.260399 34:0.073063 35:0.0548857 
0.06283377200075883 1:-0.146391 2:0.281571 3:0.738806 4:0.544831 5:-0.15803 6:-0.147864 7:-0.163919 8:0.158184 9:0.160005 10:-0.0708479 11:-0.461331 12:0.0376614 13:0.264031 14:-0.718296 15:0.0792377 16:-0.395612 17:0.131055 18:-0.264473 19:-0.00861387 20:-0.131084 21:-0.605133 22:-0.0904215 23:-0.429427 24:-0.349846 25:-0.508954 26:-0.384829 27:0.0246101 28:-0.41726 29:-0.120112 30:0.0782493 31:0.26818 32:-0.0337388 33:0.301672 34:0.433957 35:0.343951 
0.249488174599424 1:0.0870306 2:0.0696483 3:-0.382807 4:0.333265 5:0.0258576 6:-0.811504 7:0.553279 8:-0.233252 9:0.616522 10:-0.490697 11:-0.44751 12:0.0714275 13:0.41904 14:-0.176923 15:-0.128948 16:-0.58204 17:-0.631972 18:-0.0752147 19:-1 20:-0.181235 21:-0.782316 22:-0.51846 23:-0.564524 24:-0.941944 25:-0.491281 26:-0.42649 27:-0.773065 28:-0.260224 29:-0.36504 30:-0.374359 31:0.253612 32:-0.921103 33:-0.235013 34:-0.376064 35:-0.360357 
0.8161288591537813 1:-0.0389619 2:-0.0368902 3:-0.460556 4:0.0815765 5:-0.147378 6:-0.113755 7:0.0923821 8:-0.51515 9:0.0373482 10:-0.266616 11:0.692985 12:0.224249 13:-0.0220588 14:0.401518 15:0.54921 16:-0.218099 17:-0.0247134 18:0.0573805 19:0.240029 20:0.0356975 21:-0.298616 22:-0.127491 23:1 24:0.768255 25:-0.238757 26:-0.0767452 27:0.129924 28:-0.197598 29:-0.505823 30:-0.0105008 31:-0.492752 32:0.0993682 33:-0.109347 34:0.0659624 35:0.067686 
2 1:0.254263 2:-0.259648 3:0.236809 4:0.587419 5:0.560861 6:-0.179933 7:0.231145 8:-0.199465 9:0.0824351 10:-0.00234268 11:0.360908 12:-0.149183 13:0.776859 14:-0.443481 15:0.306673 16:-0.331977 17:-0.101309 18:0.860667 19:0.355575 20:0.196962 21:-0.411066 22:-0.107181 23:-0.0131192 24:-0.0365198 25:0.474684 26:-0.343498 27:0.473142 28:-0.326024 29:0.100875 30:-0.132306 31:0.507839 32:0.917043 33:-0.0256189 34:-0.44207 35:-0.019047 
1.746171147501082 1:0.431901 2:0.126643 3:0.0650036 4:0.140671 5:0.377668 6:0.17843 7:0.0677621 8:-0.0295037 9:0.709468 10:-0.042844 11:-0.113455 12:0.475809 13:0.266939 14:0.445542 15:-0.116027 16:-0.369973 17:0.0394545 18:0.323227 19:0.182931 20:-0.0854682 21:-0.254961 22:-0.125594 23:-0.0425619 24:-0.0482945 25:-0.53057 26:-0.308347 27:0.214134 28:-0.356718 29:-0.108524 30:-0.298252 31:0.364879 32:0.449818 33:-0.279187 34:-0.548019 35:-0.208219 
0.7460751527498675 1:-0.365699 2:-0.290081 3:-0.100295 4:0.0487719 5:0.102405 6:0.0226573 7:-0.315517 8:-0.379208 9:0.127219 10:-0.128411 11:-0.222598 12:0.126027 13:-0.145439 14:0.0702901 15:-0.196219 16:-0.256821 17:-0.0845285 18:-0.306033 19:-0.0458373 20:-0.0454069 21:-0.747586 22:-0.160025 23:-0.564524 24:-0.637773 25:-0.388198 26:-0.268083 27:-0.159167 28:0.184386 29:-0.0634823 30:-0.291129 31:-0.207418 32:0.488769 33:-0.175869 34:0.483111 35:0.0548857 
0.1167902139299334 1:-0.00221643 2:-0.0856862 3:-0.148273 4:0.180457 5:0.0465691 6:0.150079 7:-0.24969 8:-0.176402 9:0.324193 10:-0.0204767 11:-0.211684 12:0.186764 13:0.341468 14:0.0348605 15:-0.185501 16:-0.466711 17:0.0708614 18:-0.0472379 19:0.145047 20:-0.0708315 21:-0.521071 22:-0.268884 23:0.24513 24:0.13961 25:-0.375962 26:-0.447143 27:0.0261611 28:0.190056 29:-0.12827 30:-0.560753 31:-0.151966 32:0.118778 33:-0.513515 34:-0.106372 35:0.00621312 
0.5130329356385511 1:-0.08355 2:0.0316663 3:-0.26803 4:-0.355562 5:0.291731 6:-0.0644551 7:-0.530077 8:-0.495571 9:0.734522 10:-0.254021 11:-0.0534952 12:0.310873 13:0.324988 14:-0.244903 15:-0.0795625 16:-0.167281 17:0.108841 18:0.527231 19:-0.29555 20:-0.0114597 21:0.137888 22:-0.0554244 23:-0.0335223 24:-0.154601 25:0.205086 26:-0.193013 27:-0.208711 28:0.267868 29:-0.0534735 30:0.0254274 31:0.273102 32:-0.363088 33:0.296045 34:0.709945 35:0.746906 
0.5369225639753494 1:-0.160572 2:-0.456157 3:-0.0669792 4:0.430356 5:0.31337 6:0.0295394 7:0.354138 8:0.0504626 9:-1 10:0.0335294 11:0.52761 12:-0.122418 13:0.224165 14:-0.468942 15:0.300371 16:-0.358462 17:-0.251774 18:0.41618 19:0.513299 20:-0.187948 21:-0.366453 22:0.184708 23:-0.436574 24:-0.668664 25:0.56465 26:-0.826222 27:0.452145 28:-0.145963 29:-0.475237 30:0.0197565 31:0.384768 32:-0.30656 33:-0.197106 34:0.121497 35:0.195481 
0.7071476344183721 1:0.517542 2:0.744107 3:0.277632 4:0.253562 5:0.446638 6:0.116473 7:0.383274 8:0.0707633 9:0.792073 10:0.419131 11:-0.362147 12:0.151353 13:0.650169 14:0.203965 15:0.24448 16:-0.145293 17:0.123321 18:0.087822 19:0.636657 20:0.0899545 21:-0.404023 22:0.226749 23:0.37057 24:0.189276 25:-0.121039 26:-0.112453 27:0.255209 28:-0.0852315 29:-0.527172 30:-0.154644 31:0.110594 32:0.563977 33:0.641532 34:0.433957 35:-0.508576 
0.9904888889507387 1:0.115973 2:0.678315 3:0.48066 4:0.625657 5:-0.252709 6:-0.124402 7:-0.313465 8:-0.17381 9:0.698362 10:0.279601 11:-0.469386 12:0.541058 13:-0.218803 14:0.391162 15:-0.22478 16:-0.186563 17:0.154637 18:-0.324403 19:0.170676 20:-0.324333 21:-0.370842 22:0.691936 23:0.235887 24:0.0415431 25:-0.0594153 26:-0.121438 27:0.275477 28:0.618265 29:-0.112036 30:-0.0849832 31:-0.0604165 32:0.628912 33:0.341759 34:-0.501321 35:0.878856 
0.9164923869515682 1:-0.123343 2:-0.162614 3:-0.0221083 4:0.191345 5:0.098382 6:0.0896852 7:0.0152766 8:-0.375381 9:0.173498 10:0.0318486 11:0.124787 12:0.138822 13:-0.342708 14:-0.366118 15:-0.115915 16:-0.0176561 17:0.0955861 18:-0.152718 19:0.196854 20:0.111263 21:-0.809097 22:-0.390842 23:-0.564524 24:-0.843346 25:-0.524922 26:-0.141486 27:0.0991714 28:-0.0198871 29:-0.786293 30:-0.70858 31:-0.334848 32:0.120588 33:-0.886129 34:-0.217484 35:0.0548857 
1.44727970476025 1:-0.109402 2:0.0927514 3:-0.1581 4:0.221477 5:0.0582568 6:-0.00265797 7:0.130644 8:-0.29353 9:0.169303 10:0.0463511 11:0.0163871 12:0.433819 13:-0.0752707 14:0.157132 15:-0.131111 16:0.0797718 17:0.080764 18:0.0935672 19:0.0802557 20:0.242084 21:-0.550546 22:-0.513434 23:-0.362129 24:-0.572798 25:-0.298653 26:0.135298 27:-0.0430831 28:-0.466178 29:0.256173 30:3.31576e-06 31:-0.1868 32:-0.181421 33:-0.469072 34:0.205653 35:0.0548857 
0.6610119911906058 1:-0.0490184 2:0.256672 3:-0.0276906 4:0.138098 5:0.620503 6:0.257965 7:-0.234354 8:-0.30334 9:0.441182 10:-0.0861407 11:-0.362419 12:0.414163 13:0.522172 14:0.197528 15:-0.26491 16:-0.119713 17:0.102564 18:-0.3469 19:0.206282 20:0.0181111 21:-0.357346 22:-0.0169478 23:-0.675531 24:-0.468008 25:-0.231502 26:-0.133648 27:-0.0397346 28:-0.25307 29:-0.611556 30:-0.202386 31:0.505925 32:0.0180719 33:-0.235013 34:-0.126015 35:-0.0687647 
1.686717237808061 1:0.523837 2:0.326964 3:0.17496 4:0.226753 5:-0.0812289 6:0.0881213 7:-0.0275985 8:-0.12766 9:0.520251 10:0.631489 11:-0.0411521 12:0.380884 13:0.0279432 14:0.33708 15:-0.0834091 16:-0.0433173 17:0.1381 18:-0.101794 19:0.148842 20:0.189035 21:-0.698666 22:-0.241506 23:-0.817072 24:-0.572023 25:-0.396744 26:0.0666002 27:0.0156367 28:-0.0594505 29:-0.721874 30:-0.279551 31:-0.338736 32:0.159993 33:-0.0683355 34:0.0596847 35:-0.0506436 
1.983887711506488 1:-0.458743 2:-0.436995 3:-0.424346 4:-0.224808 5:-0.10935 6:-0.00153087 7:-0.278693 8:-0.661294 9:-0.268504 10:-0.728464 11:0.0323184 12:0.283946 13:-0.580696 14:-0.343515 15:-0.438817 16:-0.21873 17:-0.346242 18:-0.795102 19:-0.212463 20:-0.062733 21:-0.398875 22:-0.430313 23:-0.704374 24:-0.572023 25:-0.753506 26:-0.116062 27:-0.124931 28:0.0900192 29:-0.691694 30:-0.861045 31:-0.425467 32:-0.190058 33:-0.235013 34:-0.271521 35:-0.446538 
0.3839744532457885 1:-0.151327 2:0.0751167 3:-0.279171 4:0.0445632 5:0.016168 6:0.103382 7:0.163159 8:-0.280538 9:0.310442 10:-0.282848 11:0.176663 12:0.455083 13:0.0937107 14:-0.259738 15:-0.200978 16:-0.104654 17:-0.0963852 18:-0.177424 19:-0.0679847 20:0.0525459 21:0.182154 22:-0.319128 23:-0.564524 24:-0.572023 25:-0.286464 26:-0.0159663 27:0.0374773 28:0.349989 29:-0.631835 30:-0.258182 31:0.348167 32:-0.298847 33:-0.144701 34:-0.548838 35:-0.208801 
2 1:0.138962 2:0.0526968 3:-0.031002 4:-0.157289 5:-0.0261146 6:-0.00721253 7:0.261875 8:-0.26394 9:0.842847 10:-0.23651 11:-0.0734046 12:0.164083 13:-0.155376 14:-0.62271 15:0.0703388 16:-0.0984017 17:0.18893 18:0.0219308 19:0.00125429 20:0.0860492 21:0.539657 22:-0.629206 23:-0.590061 24:-0.811576 25:-0.484051 26:-0.188122 27:0.217116 28:0.60752 29:0.173363 30:0.0140546 31:0.177672 32:0.40908 33:-0.119925 34:-0.114767 35:0.179147 
2 1:0.319655 2:0.436233 3:0.344951 4:0.610042 5:-0.160429 6:0.317901 7:0.0635557 8:-0.378301 9:0.653345 10:0.339919 11:0.153052 12:0.474616 13:0.0870913 14:-0.193667 15:0.196773 16:0.263955 17:0.233762 18:-0.309653 19:0.358788 20:0.317194 21:-0.0273541 22:0.0731647 23:-0.625948 24:-0.81844 25:0.176871 26:0.0579563 27:0.26735 28:0.51135 29:-0.10416 30:0.0719084 31:0.00323321 32:0.871885 33:0.214222 34:0.433957 35:0.472171 
1.148199889202024 1:0.0599694 2:-0.332857 3:-0.307499 4:0.260873 5:0.273157 6:-0.179132 7:0.509294 8:-0.487634 9:0.38509 10:-0.124123 11:0.15807 12:0.386497 13:-0.0956344 14:-0.0551006 15:-0.336292 16:0.0120307 17:-0.258399 18:-0.281485 19:-0.20292 20:0.341128 21:-0.780241 22:-0.646047 23:-0.703644 24:-0.63172 25:-0.518694 26:0.0801 27:-0.450428 28:-0.267598 29:-0.622044 30:-0.514127 31:-0.409624 32:-0.207396 33:-0.235013 34:-0.370856 35:-0.791499 
0.9439849552198194 1:-0.284386 2:0.314532 3:-0.186874 4:-0.000472836 5:-0.434745 6:-0.11042 7:-0.546367 8:-0.332036 9:0.307208 10:0.548529 11:-0.272071 12:0.438517 13:-0.225924 14:0.219919 15:-0.320733 16:0.0665286 17:-0.0389394 18:-0.457257 19:0.105981 20:0.0298912 21:-0.500542 22:0.221657 23:-0.82139 24:-0.811191 25:-0.0429867 26:0.0914414 27:-0.213189 28:0.238462 29:0.0576566 30:0.336617 31:0.0283346 32:0.437522 33:-0.235013 34:-0.339317 35:0.488828 
0.5041776299923296 1:0.300161 2:0.139998 3:0.295027 4:-0.319592 5:0.138175 6:0.376112 7:-0.0945087 8:-0.100075 9:-0.824583 10:0.601733 11:0.0591793 12:0.23956 13:0.0332363 14:-0.448708 15:0.0214432 16:-0.110864 17:0.247506 18:0.097653 19:0.236398 20:0.073122 21:-0.307097 22:-0.208161 23:-0.564524 24:-0.899797 25:-0.335002 26:-0.219337 27:0.137186 28:-0.19806 29:-0.393186 30:-0.232408 31:-0.095957 32:0.537275 33:-0.00393445 34:-0.0139974 35:-0.149633 
0.9957415349186841 1:0.26424 2:0.791115 3:0.168389 4:0.618108 5:-0.349619 6:-0.244087 7:-0.114978 8:-0.364426 9:0.866554 10:0.78431 11:-0.141108 12:0.310125 13:0.0667891 14:0.29726 15:-0.144263 16:-0.0718714 17:-0.367821 18:-0.596432 19:0.0493508 20:-0.0239186 21:-0.584837 22:0.253882 23:-0.465723 24:-0.599417 25:0.084721 26:-0.0778903 27:-0.464035 28:0.0783686 29:-0.139336 30:-0.23211 31:-0.0231408 32:0.108455 33:-0.235013 34:0.345385 35:-0.00806707 
2 1:0.345042 2:0.307847 3:0.128392 4:0.501639 5:-0.0799114 6:-0.00997233 7:0.141479 8:-0.176632 9:0.570588 10:0.324899 11:0.0150931 12:0.0713819 13:0.182473 14:-0.631525 15:0.150713 16:-0.445151 17:0.00490979 18:0.719061 19:0.39763 20:-0.126167 21:-0.549852 22:-0.21423 23:-0.564778 24:-0.222931 25:-0.261686 26:-0.580503 27:0.18327 28:-0.328542 29:-0.303569 30:-0.00114763 31:0.293937 32:0.205741 33:0.03886 34:0.308926 35:0.622366 
0.9957559657360543 1:-0.0113895 2:0.152475 3:0.0262725 4:-0.462723 5:0.286629 6:-0.304375 7:0.221623 8:-0.150448 9:0.522782 10:-0.104497 11:-0.0595262 12:0.441481 13:0.421302 14:-0.942465 15:0.110548 16:-0.30732 17:-0.110139 18:0.296684 19:0.144779 20:-0.17493 21:-0.526222 22:0.248849 23:-0.545077 24:-0.572023 25:0.551791 26:-0.342337 27:0.404248 28:-0.144053 29:-0.0583105 30:0.195495 31:-0.165829 32:-0.474815 33:-0.0884536 34:0.106498 35:0.370853 
0.1362757097604398 1:-0.634553 2:-0.35259 3:-0.227573 4:0.10474 5:-0.184329 6:0.0872301 7:-0.404942 8:-0.419445 9:-0.998765 10:-0.334779 11:-0.256668 12:0.0778642 13:-0.47677 14:-0.574845 15:-0.445922 16:-0.388524 17:-0.116875 18:-0.420245 19:-0.113919 20:-0.168273 21:-0.789404 22:-0.572396 23:-0.564524 24:-0.572023 25:-0.297323 26:-0.398636 27:-0.118468 28:-0.0940376 29:-0.546476 30:-0.681649 31:-0.571658 32:-0.0457731 33:-0.661693 34:0.116414 35:-0.807846 
1.383427772033244 1:-0.110236 2:0.273125 3:0.903882 4:0.548328 5:-0.142189 6:-0.39042 7:-0.135818 8:0.183736 9:0.582135 10:-0.0347366 11:-0.56385 12:0.293554 13:0.260479 14:-0.535292 15:0.157538 16:-0.313088 17:-0.144199 18:0.168406 19:-0.15656 20:-0.295209 21:-0.186972 22:0.258399 23:-0.564524 24:-0.659165 25:0.0216779 26:-0.398708 27:-0.0685127 28:-0.363723 29:0.17946 30:0.378138 31:0.258839 32:0.391194 33:0.0176833 34:0.662479 35:0.701695 
0.1205898320429935 1:-0.04159 2:-0.185109 3:-0.18887 4:0.517806 5:-0.0519951 6:0.0789648 7:-0.33652 8:-0.101185 9:0.0498974 10:-0.239581 11:-0.0285592 12:0.726427 13:0.307985 14:-0.0620815 15:0.245327 16:0.0622378 17:0.144941 18:0.236573 19:0.530803 20:0.18823 21:-0.0249215 22:0.243592 23:-0.722572 24:-0.719181 25:0.725333 26:0.0602303 27:0.635899 28:0.347078 29:0.382855 30:0.408807 31:0.546745 32:1 33:0.393639 34:-0.0418338 35:0.665828 
0.3854441274190327 1:-0.299059 2:0.22678 3:0.00293969 4:0.189399 5:-0.280628 6:0.089541 7:-0.20418 8:-0.247006 9:0.061872 10:0.0593755 11:-0.199297 12:0.206496 13:-0.438218 14:0.127144 15:-0.301234 16:-0.0880468 17:-0.082671 18:-0.684408 19:0.0864393 20:-0.123973 21:-0.49324 22:-0.247526 23:-0.645801 24:-0.836925 25:-0.385404 26:-0.560534 27:-0.164774 28:0.122191 29:-0.303148 30:-0.153623 31:-0.6135 32:0.0282445 33:-0.47751 34:-0.0365174 35:-0.553864 
0.98012312057394 1:-0.692589 2:-0.241703 3:-0.327384 4:-0.201038 5:-0.00960275 6:-0.624648 7:-0.0435474 8:0.756232 9:-0.02153 10:-0.379298 11:-0.537142 12:-0.249871 13:0.432203 14:-0.644676 15:-0.0876039 16:-0.735693 17:-0.500489 18:0.132702 19:-0.109892 20:-0.43427 21:-0.813063 22:0.314045 23:-0.912449 24:-0.776588 25:-0.228227 26:-0.886848 27:-0.178858 28:0.62439 29:-0.0110404 30:-0.380669 31:0.181451 32:0.331549 33:-0.0386414 34:-0.00164114 35:-0.052529 
1.596311767857545 1:0.0976308 2:-0.0300891 3:-0.168904 4:0.275383 5:-0.0392908 6:-0.342523 7:0.279875 8:-0.154776 9:0.418874 10:0.0709779 11:-0.266011 12:0.107946 13:-0.118845 14:-0.0460596 15:0.152222 16:-0.186186 17:-0.0666845 18:-0.436428 19:-0.0361543 20:-0.0426371 21:0.110131 22:-0.480077 23:-0.903204 24:-0.518762 25:-0.729801 26:-0.232826 27:-0.139501 28:-0.229427 29:-0.226899 30:-0.318733 31:0.0749012 32:-0.830434 33:-0.0855994 34:-0.359812 35:-0.032747 
0.451239842738295 1:-0.0318551 2:0.306978 3:-0.539092 4:0.0721078 5:-0.236679 6:0.178093 7:0.0379749 8:-0.111887 9:0.0542974 10:0.263261 11:0.325879 12:0.761971 13:-0.102716 14:-0.0148043 15:-0.0390026 16:0.343371 17:0.356123 18:-0.187921 19:0.262549 20:0.296144 21:-0.302415 22:-0.377365 23:-0.605438 24:-0.76794 25:0.0627303 26:0.26578 27:0.0219468 28:-0.0180315 29:0.434024 30:0.224982 31:-0.280044 32:0.401195 33:-0.561506 34:0.992293 35:-0.234847 
1.151284644606532 1:0.209267 2:0.241277 3:0.573411 4:0.758796 5:0.0101398 6:-0.0580354 7:-0.242629 8:-0.240561 9:0.538799 10:0.679555 11:0.109106 12:0.379052 13:0.00412399 14:-0.205361 15:-0.0115254 16:0.170516 17:0.234444 18:-0.0282268 19:-0.0649508 20:-0.0571604 21:-0.549548 22:-0.0117753 23:-0.482979 24:-0.464693 25:0.218364 26:0.044763 27:0.146781 28:-0.214648 29:-0.32462 30:0.459966 31:-0.674591 32:0.846549 33:-0.172532 34:0.679442 35:0.362547 
2 1:0.0481659 2:-0.297632 3:-0.0528305 4:0.644197 5:0.782674 6:-0.684345 7:1 8:-0.811044 9:0.516339 10:-0.80542 11:-0.781832 12:-0.622251 13:0.318613 14:-0.695999 15:-0.29285 16:-0.742381 17:-0.353811 18:0.270084 19:-0.241334 20:-0.395621 21:0.747137 22:-0.323442 23:-0.564524 24:-0.572023 25:-0.727405 26:-0.606519 27:-0.341444 28:0.448291 29:-0.303148 30:-0.491073 31:-0.177726 32:0.0243627 33:-0.563979 34:-0.204278 35:0.0548857 
1.664418492414432 1:0.264886 2:0.458121 3:0.00479021 4:-0.672078 5:0.556199 6:-0.378284 7:0.226556 8:-0.59167 9:0.632266 10:-0.235582 11:-0.273623 12:-0.268395 13:0.339245 14:-0.338531 15:-0.202584 16:-0.294414 17:0.0396658 18:0.616378 19:0.00744184 20:-0.00172627 21:0.622779 22:-0.0292269 23:-0.564524 24:-0.572023 25:-0.3384 26:-0.214265 27:0.00374785 28:0.0511387 29:-0.8127 30:-0.437107 31:-0.300554 32:0.171536 33:-0.396542 34:0.937152 35:-0.167856 
1.159059848659361 1:0.0308124 2:-0.304766 3:-0.455674 4:0.558655 5:0.60638 6:-0.377767 7:-0.176522 8:0.312708 9:0.339303 10:-0.0729336 11:-0.142221 12:0.607716 13:1 14:-0.182766 15:0.157963 16:-0.487247 17:-0.0954888 18:1 19:0.744235 20:-0.0566863 21:-0.667426 22:-0.333967 23:0.329106 24:0.31315 25:-0.0171118 26:-0.437951 27:0.855061 28:-0.535014 29:0.213439 30:-0.18151 31:0.751159 32:0.560107 33:-0.144303 34:0.22394 35:0.279444 
2 1:0.0786376 2:-0.0239787 3:0.0884206 4:0.0801683 5:0.590806 6:-0.200079 7:0.0907405 8:-0.0898075 9:0.588367 10:0.134925 11:0.216515 12:0.20643 13:0.661472 14:-0.188493 15:0.253414 16:-0.243772 17:0.00505453 18:0.169982 19:0.0142725 20:-0.00401188 21:0.524047 22:-0.382213 23:-0.322792 24:-0.4049 25:0.147183 26:-0.14436 27:-0.107741 28:0.143513 29:-0.0739924 30:-0.153353 31:-0.0878401 32:0.196688 33:-0.733814 34:0.0780245 35:-0.63294 
0.1786345363249957 1:0.757861 2:0.146921 3:-0.0555081 4:-0.462723 5:0.229958 6:0.108459 7:0.216023 8:-0.276453 9:0.667851 10:-0.244485 11:-0.0734279 12:0.376399 13:0.691755 14:0.0527736 15:0.148776 16:-0.18068 17:0.0672717 18:-0.0670199 19:0.205416 20:0.11209 21:0.696095 22:0.0674813 23:-0.729191 24:-0.572023 25:-0.501636 26:-0.156252 27:-0.0264493 28:0.649127 29:0.130055 30:0.130222 31:0.197588 32:0.323201 33:-0.0926035 34:0.324244 35:-0.0230933 
0.4524197524500461 1:-0.832973 2:-1 3:-1 4:-0.973947 5:-0.406916 6:-0.535949 7:-0.75109 8:0.252049 9:-0.488886 10:-0.195849 11:-0.463451 12:-0.262154 13:0.4902 14:-0.549068 15:-0.305325 16:-0.538465 17:-0.361851 18:-0.0432154 19:0.355952 20:-0.398065 21:-0.984162 22:-0.21551 23:-0.606 24:-0.591483 25:-0.31498 26:-0.663164 27:0.478255 28:-0.261153 29:0.0953536 30:0.080603 31:0.0568527 32:0.106165 33:0.0673665 34:0.566726 35:-0.28559 
1.083407341053837 1:-0.211929 2:0.0871853 3:0.249787 4:0.527378 5:-0.236177 6:-0.0810845 7:-0.226239 8:-0.188472 9:0.33801 10:0.213219 11:-0.116306 12:0.365826 13:-0.0639508 14:-0.241963 15:-0.437124 16:-0.204023 17:-0.0265184 18:-0.500011 19:0.118376 20:-0.423666 21:-0.635341 22:0.117938 23:-0.549109 24:-0.796445 25:-0.302353 26:-0.0793865 27:-0.0674365 28:0.371687 29:-0.318545 30:0.0826248 31:-0.174953 32:0.0954919 33:-0.60901 34:0.545955 35:0.450548 
0.7828885335968967 1:0.170242 2:0.427653 3:0.510388 4:-0.553057 5:-0.29704 6:-0.0273041 7:-0.0128498 8:-0.386311 9:-0.799728 10:0.0434803 11:0.367801 12:0.299392 13:0.0193718 14:0.369904 15:0.336106 16:-0.827869 17:-0.259314 18:-0.159218 19:0.404971 20:-0.465342 21:-0.732204 22:-0.420743 23:-0.588589 24:-0.475041 25:-0.342923 26:-0.518 27:0.323999 28:-0.0722845 29:-0.768234 30:-0.603428 31:-0.25756 32:0.520482 33:-0.0395853 34:0.673156 35:-0.27096 
0.1584725618693201 1:0.320127 2:0.386968 3:0.569782 4:0.418673 5:0.0240501 6:0.248632 7:0.170312 8:-0.474114 9:0.68218 10:0.636506 11:-0.198671 12:0.193006 13:-0.00547518 14:0.189038 15:0.244264 16:0.0896306 17:0.181035 18:0.164495 19:0.0783608 20:0.166752 21:-0.183788 22:-0.0381438 23:0.0684145 24:-0.200103 25:-0.0328827 26:-0.141519 27:-0.0725465 28:0.283072 29:-0.303148 30:-0.0318176 31:0.0177656 32:0.584714 33:0.00539544 34:0.433957 35:0.707375 
1.316277603779508 1:0.240221 2:0.406942 3:-0.220716 4:0.431871 5:0.356724 6:-0.576535 7:-0.170439 8:-0.21412 9:0.659124 10:-0.446046 11:0.298176 12:-0.143267 13:0.67163 14:0.261904 15:0.0326979 16:-0.337644 17:-0.166584 18:0.357631 19:0.250832 20:-0.0981467 21:0.701373 22:0.000681966 23:0.183304 24:-0.0536476 25:-0.0087229 26:-0.265245 27:0.0376725 28:0.700654 29:-0.148543 30:-0.287989 31:-0.37866 32:0.182183 33:-0.341615 34:0.666216 35:-0.454792 
0.9552705979070703 1:-0.832522 2:-0.0511024 3:-0.560372 4:0.0972702 5:-0.692153 6:-0.0248859 7:-0.510206 8:-0.543508 9:-0.172397 10:-0.20725 11:-1 12:0.571939 13:-1 14:-0.305294 15:-0.920641 16:0.0325969 17:-0.181257 18:-1 19:-0.360636 20:0.0458478 21:-0.308013 22:-0.511189 23:-0.6344 24:-0.657371 25:-0.921537 26:0.0631236 27:-1 28:-0.230766 29:-0.667721 30:-0.356685 31:-0.429266 32:-0.729001 33:-0.235013 34:-1 35:-0.689957 
1.817789746793193 1:0.216314 2:0.00168103 3:-0.184773 4:0.221167 5:0.353387 6:-0.1622 7:0.237318 8:0.0119455 9:0.635588 10:-0.623162 11:0.210475 12:0.135764 13:0.656266 14:0.0735833 15:0.320545 16:-0.342205 17:-0.0867311 18:0.353862 19:-0.0284819 20:-0.0147163 21:0.0487288 22:-0.22783 23:0.880796 24:0.691666 25:-0.240095 26:-0.211423 27:-0.19437 28:-0.546453 29:-0.349575 30:-0.153528 31:-0.118144 32:0.162821 33:-0.235013 34:-0.422347 35:-0.118896 
0.3855271257607727 1:-0.0951728 2:0.23401 3:0.415573 4:-0.316956 5:0.115263 6:-0.151149 7:0.457398 8:-0.573942 9:-0.453099 10:0.36063 11:0.695213 12:0.429114 13:0.818442 14:-0.182109 15:1 16:0.147573 17:-0.0397441 18:0.212215 19:0.0999357 20:0.225731 21:-0.707559 22:0.172482 23:-0.39854 24:-0.162284 25:0.229807 26:-0.334108 27:0.363192 28:0.0418732 29:-0.18462 30:-0.0260816 31:0.123154 32:-0.30656 33:-0.124087 34:0.433957 35:-0.226995 
0.8056009798175694 1:-0.670197 2:0.230099 3:-0.559489 4:0.361251 5:-0.61227 6:-0.275757 7:-0.439428 8:-0.523144 9:0.505132 10:0.00895657 11:-0.743455 12:0.532092 13:-0.946883 14:-0.301026 15:-0.802501 16:-0.0526912 17:-0.277081 18:-0.486629 19:-0.35418 20:-0.130704 21:-0.351434 22:-0.147648 23:-0.887539 24:-0.572023 25:-0.352815 26:-0.073109 27:-0.690403 28:-0.232218 29:-0.132487 30:-0.0617958 31:-0.190628 32:-0.0128568 33:-0.235013 34:0.0733483 35:0.13395 
1.693888635190026 1:-0.333206 2:0.805456 3:0.0315316 4:0.652839 5:-0.475211 6:-0.757911 7:-0.46471 8:-0.510029 9:0.675371 10:0.000169728 11:-0.245807 12:0.371768 13:-0.359648 14:-0.149164 15:-0.504616 16:-0.269307 17:-0.69256 18:-0.337049 19:0.31344 20:-0.295313 21:-0.651074 22:0.56759 23:-0.564524 24:-0.572023 25:-0.210009 26:-0.166513 27:0.0443568 28:0.0859692 29:0.291962 30:-0.353648 31:-0.127148 32:0.075202 33:0.446881 34:0.56514 35:0.582969 
2 1:-0.255723 2:-0.556227 3:-0.327286 4:0.486689 5:0.139846 6:-0.19933 7:0.231133 8:-0.322639 9:0.497778 10:-0.324865 11:-0.690908 12:-0.122494 13:0.435891 14:-0.359984 15:-0.0422959 16:-0.624506 17:-0.378506 18:0.00813185 19:-0.281194 20:-0.258435 21:-0.738356 22:-0.13016 23:-0.183867 24:-0.599205 25:0.14824 26:-0.636774 27:0.0127865 28:-0.197188 29:-0.351551 30:-0.0681958 31:0.181101 32:-0.467736 33:-0.595653 34:0.431917 35:0.506693 
2 1:0.0151773 2:-0.0485583 3:-0.0311951 4:0.130584 5:0.1488 6:0.0490479 7:-0.0439601 8:-0.262581 9:0.357812 10:-0.201541 11:0.184365 12:0.371239 13:0.00959057 14:-0.0553547 15:-0.219689 16:-0.0949705 17:-0.0236877 18:-0.261118 19:0.251471 20:0.122356 21:-0.297839 22:-0.283011 23:-0.577384 24:-0.572023 25:-0.183661 26:0.074408 27:0.508692 28:-0.302865 29:-0.448829 30:-0.219748 31:0.117445 32:0.201714 33:-0.570309 34:0.867092 35:0.229561 
0.5004212773553739 1:-0.841235 2:-0.437816 3:-0.964615 4:0.380085 5:0.892575 6:-0.631586 7:-0.279988 8:-0.309535 9:-0.0287118 10:0.461445 11:0.206982 12:-0.304127 13:0.800724 14:0.14175 15:-0.443565 16:-0.327334 17:-0.379717 18:0.159121 19:-0.10731 20:-0.218957 21:-0.477759 22:1 23:-0.025508 24:0.028686 25:0.820505 26:-0.69484 27:-0.294039 28:-0.330675 29:1 30:1 31:0.212735 32:0.670493 33:0.203444 34:0.433957 35:0.182953 
0.2977067000791437 1:0.258449 2:0.296908 3:0.382706 4:0.106529 5:-0.0944416 6:0.0149667 7:-0.20914 8:-0.249789 9:0.584981 10:0.330377 11:0.144207 12:0.0859045 13:0.104603 14:-0.646667 15:0.197315 16:0.00977331 17:0.257068 18:0.132454 19:0.455769 20:0.101822 21:-0.914317 22:0.140723 23:-0.408972 24:-0.520025 25:-0.247327 26:-0.0560734 27:0.303621 28:-0.31001 29:-0.169601 30:-0.0112237 31:-0.17517 32:-0.30656 33:0.0293278 34:-0.09557 35:-0.32148 
0.6627906273361563 1:0.289109 2:-0.0978824 3:-0.0362287 4:0.365396 5:-0.076049 6:-0.545905 7:0.215399 8:-0.526603 9:0.536356 10:0.0474824 11:-0.23602 12:0.515527 13:0.0664335 14:0.419839 15:-0.370598 16:-0.294319 17:-0.554129 18:-0.435503 19:-0.0940711 20:-0.134245 21:-0.68725 22:-0.287011 23:-0.027004 24:-0.151818 25:-0.217637 26:-0.296256 27:-0.433568 28:0.228727 29:-0.0210321 30:-0.284872 31:0.183654 32:0.110866 33:-0.214196 34:-0.523461 35:0.144606 
1.275504600464639 1:1 2:0.525043 3:0.333571 4:-0.185105 5:1 6:-0.467412 7:0.575126 8:-0.537707 9:1 10:-0.0808335 11:-0.608983 12:-0.488535 13:0.684009 14:0.300621 15:0.219125 16:-0.554058 17:-0.0913936 18:0.363885 19:0.158993 20:-0.211702 21:0.754197 22:-0.118926 23:-0.752965 24:-0.74748 25:-0.684433 26:-0.650464 27:-0.0404282 28:-0.0267681 29:-0.615583 30:-0.662727 31:0.0251102 32:0.0880912 33:0.268426 34:0.252676 35:0.0548857 
2 1:0.580791 2:0.299688 3:0.357878 4:0.686922 5:0.39965 6:0.320536 7:0.357701 8:-0.0729094 9:0.692546 10:0.189232 11:0.00950602 12:0.311482 13:0.59122 14:-0.173365 15:0.346309 16:0.0148504 17:0.338075 18:0.649779 19:0.267497 20:0.418188 21:0.833627 22:0.233403 23:-0.380756 24:-0.382769 25:0.327741 26:-0.0199053 27:0.076949 28:0.150572 29:0.00154112 30:-0.0202626 31:-0.348443 32:0.61339 33:0.448052 34:0.433957 35:0.127117 
1.921512750220359 1:-0.0873972 2:0.585477 3:-0.0429693 4:0.673214 5:-0.445226 6:-0.122974 7:-0.129584 8:-0.448128 9:0.567087 10:0.358954 11:-0.377544 12:0.637545 13:-0.220375 14:0.230343 15:-0.312471 16:0.134222 17:0.0308844 18:-0.282046 19:0.443386 20:0.0637734 21:-0.487545 22:-0.125051 23:-0.810554 24:-0.681713 25:0.0422934 26:0.107503 27:-0.253807 28:-0.338823 29:-0.114241 30:-0.268859 31:-0.196637 32:0.222245 33:-0.154801 34:0.305105 35:0.398147 
0.5322021162838582 1:0.323701 2:0.103823 3:-0.215006 4:0.234801 5:0.343354 6:-0.262096 7:0.387493 8:-0.263565 9:0.178525 10:0.36388 11:0.574578 12:0.124007 13:0.0484447 14:-0.042716 15:0.207076 16:-0.221403 17:-0.356028 18:0.128884 19:-0.0122139 20:0.174439 21:-0.753068 22:-0.345883 23:0.790735 24:0.788041 25:-0.550737 26:-0.123878 27:-0.553341 28:-0.207142 29:-0.303148 30:-0.84227 31:-0.139717 32:-0.30656 33:-0.235013 34:-0.462859 35:-0.582535 
1.041975776042048 1:0.0996193 2:0.311004 3:0.341499 4:0.542223 5:0.0558425 6:0.495928 7:0.0713729 8:-0.447136 9:0.703557 10:0.310308 11:-0.167771 12:0.33849 13:-0.0748584 14:-0.558923 15:-0.288868 16:-0.0417616 17:0.192216 18:0.696699 19:0.0619653 20:0.270197 21:-0.260445 22:-0.0289204 23:-0.67443 24:-0.572023 25:-0.512474 26:-0.194962 27:-0.198785 28:-0.348129 29:-0.822326 30:-0.0890076 31:-0.418911 32:0.420626 33:-0.322975 34:-0.122702 35:0.0219129 
0.3112066276569914 1:-0.228044 2:-0.246334 3:0.320781 4:0.451655 5:0.0392056 6:0.133273 7:-0.14415 8:-0.522809 9:0.116461 10:-0.363068 11:-0.147672 12:0.0660177 13:-0.388382 14:-0.488187 15:-0.314482 16:-0.085445 17:-0.147489 18:-0.579118 19:0.0986847 20:0.00198331 21:-0.563237 22:-0.241331 23:-0.670433 24:-0.859859 25:-0.494583 26:-0.295822 27:0.138464 28:0.067183 29:-0.815698 30:-0.527359 31:-0.0271958 32:0.0864216 33:-0.316772 34:0.433957 35:-0.171724 
0.6434395303638953 1:0.0275967 2:0.172042 3:0.333823 4:0.451727 5:-0.0711781 6:-0.37909 7:-0.108014 8:-0.131176 9:-0.189131 10:0.0881553 11:0.364759 12:0.185973 13:-0.179516 14:-0.148191 15:-0.098293 16:-0.185709 17:-0.0588782 18:-0.387583 19:-0.188809 20:-0.29481 21:-0.527818 22:0.200966 23:-0.0755195 24:-0.339378 25:-0.0012491 26:-0.322362 27:0.198975 28:0.556871 29:-0.485703 30:-0.256227 31:-0.0773996 32:0.307391 33:1 34:-0.283509 35:-0.45506 
1.387133971038154 1:0.334279 2:0.463573 3:0.175472 4:-0.346509 5:-0.293766 6:0.279511 7:-0.026656 8:-0.281859 9:0.406096 10:0.476288 11:0.0449283 12:0.464981 13:-0.212691 14:0.296163 15:0.0261201 16:0.153408 17:0.282252 18:-0.422201 19:0.388065 20:0.231343 21:-0.474822 22:-0.231947 23:-0.196455 24:-0.331289 25:-0.426121 26:-0.0598812 27:0.126698 28:-0.0364737 29:-0.661164 30:-0.584795 31:-0.748723 32:0.230593 33:-0.138341 34:-0.602092 35:-0.132783 
0.5928352372738371 1:0.821196 2:0.105824 3:0.116484 4:-0.517466 5:0.14981 6:0.201872 7:0.0842433 8:-0.0278314 9:0.685711 10:0.126695 11:0.00961514 12:0.258763 13:0.900867 14:-0.78979 15:0.0387529 16:-0.0714301 17:0.258401 18:0.587311 19:0.58198 20:0.272613 21:0.966659 22:0.129603 23:-0.279907 24:-0.307016 25:-0.182215 26:0.0183997 27:0.544919 28:0.61303 29:-0.168204 30:0.391198 31:0.2448 32:0.728703 33:-0.307682 34:0.433957 35:-0.0453219 
0.6201412186612734 1:0.37434 2:0.262375 3:0.0295106 4:0.0234161 5:0.217956 6:0.375658 7:0.135263 8:-0.21001 9:0.51537 10:0.342795 11:0.149259 12:0.431471 13:0.209358 14:0.265674 15:0.183387 16:0.196515 17:0.2539 18:-0.0298071 19:0.0633572 20:0.35095 21:-0.116119 22:-0.206362 23:-0.122943 24:-0.0564662 25:-0.366933 26:0.0287054 27:0.0624283 28:0.00114446 29:-0.12055 30:-0.208748 31:-0.123549 32:0.532037 33:-0.296893 34:0.153696 35:-0.3048 
1.819461779193378 1:0.107074 2:-0.106785 3:-0.144608 4:0.443451 5:0.467215 6:0.0814277 7:0.00238987 8:-0.217945 9:0.661645 10:-0.390704 11:-0.505476 12:-0.102661 13:0.423755 14:-0.326592 15:-0.0945315 16:-0.322861 17:-0.111121 18:0.369871 19:-0.81486 20:0.11431 21:-0.00391646 22:0.224791 23:0.120361 24:0.185474 25:-0.532549 26:-0.343901 27:-0.435579 28:0.336365 29:-0.311042 30:0.261793 31:-0.0142944 32:-0.30656 33:-0.190068 34:-0.0906457 35:0.0548857 
1.976866694120065 1:0.129449 2:-0.197753 3:-0.152903 4:-0.249972 5:0.224054 6:0.316632 7:0.331602 8:-0.00931105 9:0.437557 10:0.256251 11:0.0728134 12:0.110076 13:0.357975 14:-0.541777 15:-0.196617 16:-0.0767105 17:0.143718 18:-0.237638 19:0.179468 20:0.0694768 21:-0.16966 22:-0.0714724 23:-0.382513 24:-0.579894 25:-0.575653 26:-0.101387 27:0.0452233 28:0.40113 29:-0.317164 30:-0.0775977 31:0.195209 32:0.327544 33:0.189904 34:0.408507 35:-0.0515251 
2 1:0.342191 2:0.743102 3:0.439472 4:0.370535 5:-0.294733 6:-0.601671 7:-0.148885 8:-0.150589 9:0.745347 10:0.384816 11:0.151568 12:0.260109 13:0.138496 14:-0.200869 15:-0.171656 16:-0.412537 17:-0.498463 18:-0.286015 19:0.332303 20:-0.379706 21:-0.707245 22:0.367437 23:-0.526501 24:-0.359278 25:0.0114845 26:-0.487157 27:-0.117568 28:-0.195953 29:-0.0959511 30:-0.0256518 31:-0.397373 32:0.347267 33:0.207181 34:0.424158 35:-0.0659461 
0.58557644868187 1:0.760853 2:0.897914 3:0.641333 4:0.591024 5:0.163379 6:-0.474206 7:-0.0771968 8:-0.469436 9:0.741969 10:0.109089 11:-0.459883 12:-0.37299 13:0.504232 14:0.551864 15:0.0603271 16:-0.238711 17:-0.15341 18:0.42845 19:0.356507 20:-0.16561 21:0.798265 22:0.624599 23:-0.020193 24:-0.0894962 25:-0.200165 26:-0.421667 27:0.535851 28:1 29:-0.0911324 30:0.467441 31:0.286008 32:-0.30656 33:0.378724 34:0.046904 35:-0.220216 
1.890453921644324 1:0.51259 2:0.435253 3:0.377415 4:0.497762 5:-0.0970418 6:-0.0904559 7:0.221285 8:-0.302564 9:0.56559 10:0.609759 11:-0.172663 12:0.206803 13:0.0955516 14:-0.420389 15:0.197519 16:0.0319151 17:-0.0242992 18:-0.161887 19:0.506702 20:-0.0644684 21:-0.425962 22:-0.292115 23:-0.536492 24:-0.545922 25:0.0696006 26:-0.329612 27:-0.0162051 28:0.0674671 29:-0.303148 30:-0.184645 31:0.203915 32:0.447832 33:0.240209 34:0.518346 35:-0.15949 
0.7736573558507698 1:-0.37715 2:0.1244 3:0.124068 4:0.567633 5:0.103684 6:0.410511 7:-0.130301 8:0.015261 9:0.615924 10:0.390362 11:-0.318624 12:0.471404 13:0.543892 14:-0.674952 15:-0.0243261 16:0.0512022 17:0.268352 18:-0.121856 19:-0.475044 20:0.255098 21:0.666802 22:0.0815236 23:0.0256809 24:0.0587647 25:-0.479378 26:-0.12645 27:-0.196131 28:0.0767111 29:0.157763 30:0.453823 31:0.263936 32:0.4378 33:-0.749689 34:-0.178572 35:-0.380475 
0.09618077886310322 1:-0.233424 2:-0.211399 3:0.0316601 4:0.193558 5:-0.0491822 6:0.186064 7:-0.69777 8:-0.0278942 9:0.477081 10:-0.341315 11:-0.319951 12:0.374544 13:-0.131974 14:-0.331438 15:-0.491397 16:-0.404144 17:-0.120278 18:-0.190477 19:-0.441811 20:0.0166523 21:-0.633708 22:-0.236203 23:0.103899 24:0.0235819 25:-0.731654 26:-0.00280833 27:-0.639808 28:-0.253508 29:-0.487925 30:0.217515 31:0.568777 32:-0.00446039 33:-0.407938 34:-0.673547 35:-0.29744 
0.4103607729647032 1:-0.417876 2:-0.382149 3:-0.639993 4:-0.0910219 5:-0.206493 6:0.0385577 7:-0.208872 8:-0.468496 9:0.0579518 10:-0.46245 11:0.102819 12:0.388794 13:-0.535106 14:-0.206605 15:-0.476066 16:-0.145074 17:-0.320485 18:-0.915665 19:-0.190573 20:0.113552 21:0.242935 22:-0.479642 23:-0.803756 24:-0.983997 25:-0.879621 26:-0.0344546 27:-0.406803 28:0.128027 29:-0.699796 30:-0.380732 31:-0.281813 32:-0.133765 33:-0.921563 34:-0.00175681 35:-0.343125 
0.06493633026412869 1:-0.25594 2:-0.185943 3:-0.0739932 4:-0.587695 5:-0.104215 6:0.0902731 7:0.120071 8:-0.327194 9:0.285291 10:-0.0672527 11:0.25928 12:0.163917 13:-0.280028 14:-0.0914954 15:-0.164735 16:0.0132251 17:-0.107195 18:-0.429107 19:0.391499 20:0.0436196 21:-0.449336 22:-0.506401 23:-0.671439 24:-0.710006 25:-0.406154 26:-0.154138 27:0.208994 28:-0.105535 29:-0.974042 30:-0.529009 31:-0.123248 32:0.224416 33:-0.547534 34:0.299475 35:-0.173878 
0.3575354742078283 1:-0.0144017 2:-0.0604792 3:-0.150895 4:0.688488 5:0.135797 6:-0.58269 7:0.615553 8:-0.239162 9:0.15746 10:0.189494 11:-0.896198 12:1 13:0.421824 14:0.181036 15:0.308781 16:-0.146191 17:-0.251475 18:-0.219333 19:0.349579 20:-0.00167468 21:-0.391371 22:0.224234 23:-0.473926 24:-0.607054 25:0.610775 26:-0.194612 27:0.273101 28:-0.428017 29:0.840394 30:0.325685 31:-0.357103 32:0.192046 33:0.641801 34:0.320694 35:0.248739 
2 1:0.426225 2:0.051448 3:-0.216299 4:-0.0774349 5:0.212739 6:-0.112337 7:0.288904 8:-0.118408 9:0.722623 10:-0.336918 11:-0.208477 12:0.129198 13:0.426788 14:-0.259228 15:-0.146417 16:-0.390824 17:0.0189313 18:0.0448136 19:0.229998 20:-0.0483914 21:-0.585947 22:-0.335429 23:-0.826615 24:-0.572023 25:-0.552644 26:-0.318347 27:-0.119141 28:0.18629 29:-0.613336 30:-0.573218 31:0.227975 32:0.336325 33:-0.442732 34:0.416962 35:0.317162 
1.416589468756858 1:-0.265465 2:0.299706 3:0.415198 4:0.362392 5:-0.220892 6:-0.105409 7:0.210864 8:-0.306632 9:0.572813 10:-0.140791 11:-0.464018 12:0.0643967 13:0.00941166 14:0.034934 15:0.0418541 16:-0.108168 17:0.0561449 18:-0.266265 19:-0.0468558 20:-0.0214102 21:0.362937 22:0.112451 23:-0.771436 24:-0.575453 25:-0.352881 26:-0.347733 27:-0.301396 28:-0.374661 29:-0.303148 30:0.183955 31:-0.422935 32:0.0322469 33:-0.235013 34:0.433957 35:0.0470039 
0.8326109336631107 1:0.199605 2:0.220749 3:0.200537 4:0.163662 5:0.0118518 6:0.632277 7:0.283756 8:-0.393689 9:-0.20833 10:0.0207886 11:0.355352 12:0.483413 13:0.099005 14:-0.174567 15:0.281281 16:-0.422971 17:-0.0539685 18:-0.21889 19:0.0154077 20:0.0287725 21:0.0293695 22:-0.599221 23:-0.441827 24:-0.369795 25:-0.365656 26:-0.32433 27:0.0633116 28:-0.0424539 29:-0.861856 30:-0.239686 31:-0.295921 32:0.624409 33:-0.161011 34:0.0313202 35:-0.231292 
2 1:0.157605 2:0.226066 3:-0.000962324 4:0.431152 5:0.456457 6:-0.37871 7:-0.180161 8:-0.0917308 9:0.609793 10:-0.520385 11:-0.0394811 12:-0.147242 13:0.372586 14:0.065982 15:-0.0628408 16:-0.455563 17:-0.278839 18:0.148639 19:-0.313803 20:-0.154512 21:0.478366 22:-0.129921 23:-0.564524 24:-0.853529 25:-0.195703 26:-0.260802 27:0.00749618 28:0.107247 29:-0.379239 30:-0.0488142 31:-0.150334 32:0.135147 33:-0.242172 34:0.295801 35:0.117178 
0.5115193211739385 1:0.0652506 2:-0.214998 3:-0.4382 4:-0.0779551 5:0.122278 6:-0.470086 7:-0.0939325 8:-0.626964 9:0.282989 10:0.0335437 11:-0.10473 12:0.0829427 13:-0.0143341 14:0.389897 15:-0.00126361 16:-0.00977136 17:-0.468101 18:-0.554539 19:-0.0466076 20:-0.103316 21:0.454138 22:-0.0521198 23:-0.304084 24:-0.845514 25:0.0106807 26:-0.22518 27:-0.381031 28:0.354156 29:0.291411 30:0.175617 31:0.0233082 32:0.328333 33:-0.491823 34:-0.45029 35:-0.138757 
0.5979156649169213 1:0.0724575 2:0.0135267 3:-0.171246 4:-0.550621 5:0.47051 6:0.294513 7:0.286407 8:-0.147747 9:0.617492 10:-0.228584 11:-0.217156 12:-0.203184 13:0.56403 14:-0.990398 15:0.103762 16:-0.146787 17:-0.147793 18:-0.00662478 19:0.422672 20:-0.0707627 21:-0.639742 22:0.00987196 23:-0.564524 24:-0.572023 25:0.353456 26:-0.361475 27:0.322801 28:-0.476098 29:-0.427827 30:0.370512 31:0.875545 32:0.742248 33:-0.26912 34:0.367785 35:0.556566 
1.069113593512158 1:-0.0386343 2:0.261905 3:0.460422 4:0.768211 5:-0.141288 6:-0.198868 7:-0.173373 8:-0.38595 9:0.72918 10:0.108438 11:-0.780628 12:0.439159 13:-0.136977 14:-0.654394 15:-0.107561 16:-0.366785 17:-0.230826 18:-0.510497 19:-0.224187 20:-0.282348 21:-0.743137 22:0.215564 23:-0.725926 24:-0.722304 25:-0.103121 26:-0.531511 27:-0.0606398 28:0.360807 29:-0.35816 30:-0.618379 31:-0.00504146 32:0.270831 33:0.227804 34:0.433957 35:0.532604 
0.1101929088657132 1:0.543539 2:0.654432 3:0.278681 4:-0.462723 5:0.213215 6:0.102465 7:0.164154 8:-0.312062 9:0.725544 10:0.506109 11:0.0264439 12:0.193539 13:0.135233 14:0.197045 15:0.306379 16:-0.0144959 17:0.185692 18:-0.0460723 19:0.264032 20:0.147565 21:-0.223537 22:0.264858 23:-0.699174 24:-0.578007 25:-0.112657 26:-0.240628 27:-0.0721253 28:0.199599 29:-0.526398 30:-0.241165 31:0.170194 32:0.240301 33:-0.0460268 34:0.433957 35:0.0548857 
0.7105941573497123 1:-0.251517 2:0.28848 3:-0.306027 4:-0.154638 5:-0.132364 6:-0.0454398 7:-0.116801 8:-0.0584101 9:0.377054 10:0.140591 11:-0.100421 12:0.373789 13:0.102459 14:0.0745643 15:-0.407817 16:-0.0735382 17:-0.276528 18:0.0418868 19:0.118761 20:0.0692202 21:0.29029 22:-0.246394 23:-0.0772379 24:-0.22956 25:-0.321201 26:-0.106909 27:-0.318141 28:-0.169085 29:0.287195 30:-0.139962 31:0.00470204 32:0.137406 33:-0.400536 34:-0.17165 35:-0.375555 
1.539600905881251 1:-0.419257 2:-0.526638 3:-0.00127784 4:0.569942 5:0.0852901 6:-0.103117 7:-0.112327 8:0.0251493 9:0.0941919 10:-0.131122 11:-0.242596 12:-0.0707967 13:0.748255 14:-0.236189 15:0.137159 16:-0.420988 17:0.00586732 18:0.191341 19:0.373336 20:-0.0170363 21:-0.592078 22:0.108687 23:-0.803211 24:-0.605039 25:0.31988 26:-0.646061 27:0.401213 28:-0.436414 29:0.219922 30:0.219124 31:0.563924 32:0.605379 33:-0.00849977 34:-0.284591 35:0.181205 
1.297809742067973 1:-0.102078 2:0.211417 3:-0.347851 4:-0.294998 5:0.109358 6:-0.157627 7:-0.265486 8:-0.439217 9:0.501443 10:0.0373429 11:0.021071 12:0.390402 13:-0.0650258 14:0.271063 15:-0.477963 16:-0.0986691 17:-0.44558 18:-0.471352 19:0.174212 20:0.148461 21:-0.463855 22:-0.490229 23:-0.928051 24:-0.910502 25:-0.423141 26:-0.0583385 27:-0.421196 28:-0.203171 29:-0.156789 30:-0.381972 31:-0.108824 32:0.0220324 33:-0.600125 34:-0.66041 35:-0.360266 
1.963312673999193 1:0.977514 2:0.796148 3:0.407288 4:0.372845 5:0.426102 6:-0.0449149 7:0.189013 8:0.025976 9:0.79618 10:0.543175 11:0.193675 12:0.203262 13:0.506153 14:0.316785 15:0.436944 16:0.229328 17:0.255645 18:0.554226 19:0.333974 20:0.27928 21:-0.326301 22:-0.179902 23:-0.278689 24:-0.116657 25:-0.0752556 26:0.0600112 27:0.13764 28:0.54934 29:-0.591372 30:0.0278929 31:0.0694612 32:0.367615 33:0.125933 34:-0.0893672 35:0.117772 
0.0122085213091617 1:-0.515275 2:-0.283332 3:-0.587039 4:-0.671416 5:-0.00692841 6:-0.0741751 7:0.0835667 8:-0.0829088 9:0.0934288 10:-0.426079 11:0.0890954 12:0.204729 13:-0.458445 14:-0.428631 15:-0.303413 16:-0.211434 17:-0.12204 18:-0.303889 19:-0.120293 20:0.0329498 21:-0.178147 22:-0.562316 23:-0.743064 24:-0.857649 25:-0.490652 26:-0.244498 27:-0.0290342 28:-0.0758061 29:-0.474808 30:-0.266382 31:-0.211495 32:-0.122203 33:-0.395663 34:-0.103521 35:-0.166644 
1.286988098034705 1:0.38214 2:0.174192 3:0.244476 4:0.231283 5:0.630746 6:0.0866411 7:-0.0681716 8:0.0742379 9:0.799116 10:0.420353 11:0.101992 12:0.150493 13:0.521243 14:0.221875 15:0.50778 16:-0.10099 17:0.152783 18:0.467593 19:0.493151 20:0.0313763 21:0.362205 22:0.158795 23:-0.124652 24:-0.29641 25:0.0247339 26:-0.0968295 27:0.306389 28:0.392538 29:-0.681334 30:-0.239446 31:0.334078 32:0.349648 33:0.270942 34:0.433957 35:0.115542 
1.644256064387035 1:-0.324706 2:0.462133 3:0.0176783 4:0.544997 5:0.153757 6:0.15307 7:-0.249525 8:-0.37831 9:0.848624 10:-0.135087 11:-0.175518 12:0.513871 13:-0.173485 14:-0.608209 15:-0.168857 16:-0.0981064 17:0.146093 18:-0.434064 19:-0.151135 20:-0.0782399 21:-0.748433 22:-0.100127 23:-0.161367 24:-0.0910422 25:-0.564784 26:-0.222011 27:0.00340754 28:-0.262873 29:-0.48984 30:0.251358 31:0.732913 32:0.230299 33:-0.210772 34:0.433957 35:0.21436 
1.34908433825767 1:0.341788 2:-0.0710583 3:-0.350604 4:-0.462723 5:0.253665 6:-0.326896 7:0.38141 8:0.0297515 9:0.66292 10:-0.627107 11:-0.362286 12:0.159565 13:0.439738 14:0.113017 15:-0.139141 16:-0.549971 17:-0.493413 18:0.161511 19:-0.0920141 20:-0.237957 21:-0.671667 22:-0.304119 23:-0.591334 24:-0.666823 25:-0.276573 26:-0.443192 27:-0.627513 28:-0.066762 29:-0.684551 30:-0.18731 31:0.119169 32:0.269886 33:-0.276612 34:0.433957 35:0.0548857 
0.2379800997111013 1:0.185428 2:0.463521 3:0.189925 4:0.822893 5:-0.457188 6:-0.180171 7:0.0992203 8:-0.734181 9:0.508716 10:0.0353606 11:-0.244104 12:0.640914 13:0.341474 14:0.251403 15:-0.118721 16:0.138588 17:-0.263078 18:-0.786098 19:0.287023 20:0.129703 21:-0.592645 22:-0.0320678 23:-0.0557759 24:-0.346416 25:0.467296 26:0.137024 27:-0.390373 28:-0.160857 29:-0.238363 30:-0.242787 31:-0.608141 32:0.336714 33:-0.688684 34:0.165582 35:0.50117 
1.113889524498866 1:0.0563625 2:0.0641328 3:-0.0171573 4:-0.0236071 5:-0.0434762 6:0.0892251 7:-0.0506791 8:-0.333542 9:0.339435 10:-0.0876891 11:-0.174859 12:0.223892 13:-0.129466 14:-0.155946 15:0.0934828 16:-0.129644 17:0.12657 18:-0.11479 19:0.0689712 20:0.12727 21:-0.0989613 22:-0.305924 23:-0.19746 24:-0.407592 25:-0.433796 26:-0.128326 27:0.120745 28:-0.292097 29:-0.503974 30:-0.342006 31:0.202554 32:0.42329 33:0.0390096 34:-0.156477 35:-0.0904147 
1.396246601122783 1:0.129612 2:-0.212517 3:-0.117219 4:0.0793893 5:0.156177 6:-0.205929 7:0.2428 8:-0.15872 9:0.21169 10:-0.393606 11:0.477236 12:-0.0480781 13:0.480449 14:0.354815 15:0.335096 16:-0.408247 17:0.167607 18:0.545889 19:0.494613 20:0.0632045 21:0.320621 22:0.605015 23:-0.296987 24:-0.313606 25:0.207061 26:-0.233577 27:0.424013 28:0.602949 29:0.361429 30:0.295479 31:-0.0112561 32:0.832517 33:-0.0188418 34:0.401759 35:0.555167 
2 1:-0.0158802 2:-0.0553869 3:-0.402695 4:0.153345 5:0.134298 6:-0.211053 7:0.649521 8:-0.358508 9:0.492018 10:-0.196858 11:0.0789457 12:0.318006 13:0.25677 14:0.269435 15:-0.0917126 16:-0.0799147 17:-0.167956 18:-0.324184 19:0.175931 20:0.250399 21:-0.549548 22:-0.554513 23:-0.564524 24:-0.869233 25:-0.406608 26:0.0725994 27:-0.345039 28:-0.912155 29:-0.303148 30:-0.38888 31:0.412042 32:0.208722 33:-0.235013 34:-0.140977 35:0.0548857 
0.09378219174853693 1:-0.0556949 2:0.393581 3:-0.373993 4:0.272596 5:-0.235159 6:0.0771872 7:-0.471912 8:-0.431733 9:0.579085 10:0.257615 11:-0.510502 12:0.302549 13:-0.00901301 14:0.200644 15:-0.176865 16:-0.0672482 17:0.14308 18:-0.272763 19:-0.112343 20:0.119083 21:-0.209323 22:0.350669 23:-0.473522 24:-0.518694 25:-0.012093 26:-0.0619018 27:-0.046754 28:-0.208308 29:-0.489218 30:-0.414696 31:0.106656 32:0.330543 33:-0.0938074 34:-0.289892 35:-0.459597 
0.308495021738849 1:0.222222 2:0.483119 3:0.052276 4:0.505582 5:-0.040123 6:0.165966 7:-0.163623 8:-0.222983 9:0.307983 10:0.427454 11:-0.4116 12:0.481195 13:0.216574 14:0.37451 15:-0.00625947 16:0.0958085 17:0.263432 18:0.281058 19:0.250865 20:0.100867 21:0.803281 22:0.270205 23:-0.0972144 24:-0.089203 25:0.288272 26:-0.152827 27:0.406059 28:-0.130701 29:-0.00299477 30:0.208912 31:0.387762 32:0.433989 33:-0.217119 34:0.0826682 35:0.240048 
0.995804436115443 1:0.292827 2:-0.0346604 3:0.093398 4:0.176522 5:0.499084 6:0.42226 7:0.26869 8:-0.122213 9:0.815343 10:-0.0154979 11:0.181719 12:0.237321 13:0.149668 14:0.338151 15:0.155345 16:-0.0177437 17:-0.0108311 18:-0.0313328 19:0.165064 20:0.132696 21:0.194295 22:0.122259 23:0.0467903 24:-0.0676732 25:-0.491355 26:-0.213012 27:0.336733 28:0.456215 29:-0.371148 30:0.324492 31:-0.235776 32:0.606381 33:-0.152025 34:0.0846936 35:-0.0328685 
0.2702669899431278 1:-0.282923 2:-0.364428 3:-0.727079 4:-0.291957 5:-0.166699 6:-0.150001 7:-0.340234 8:-0.512301 9:-0.113218 10:-0.599099 11:0.0376617 12:0.0766301 13:-0.454996 14:-0.418126 15:-0.59672 16:-0.465363 17:-0.391879 18:-0.632738 19:-0.263269 20:-0.133866 21:0.151657 22:-0.327141 23:-0.668149 24:-0.884284 25:-0.548037 26:-0.0633387 27:-0.341922 28:-0.359399 29:-0.241204 30:-0.114026 31:-0.339857 32:-0.337517 33:-0.235013 34:0.422162 35:-0.300018 
1.449224868831813 1:0.00335238 2:0.211787 3:0.269557 4:0.261489 5:-0.000959526 6:0.0520629 7:-0.158253 8:-0.118924 9:0.413748 10:0.482734 11:-0.0406603 12:0.290955 13:0.188443 14:-0.157432 15:0.203114 16:-0.0925855 17:0.146027 18:-0.0760498 19:0.223405 20:-0.257757 21:-0.631721 22:0.150223 23:-0.55803 24:-0.572023 25:-0.332027 26:-0.212485 27:0.113879 28:0.531676 29:-0.29238 30:0.192103 31:-0.437863 32:-0.30656 33:0.227302 34:-0.158292 35:0.343138 
-0.68574691481745 1:0.0838711 2:-0.481995 3:-0.276548 4:0.518834 5:0.788567 6:-0.725013 7:-0.247172 8:-0.868784 9:0.634293 10:-0.657332 11:-0.64491 12:-1 13:0.779051 14:-0.447487 15:-0.270468 16:-0.940964 17:-0.754745 18:0.638457 19:-0.772292 20:-0.501852 21:-0.642452 22:-0.525158 23:-0.588765 24:-0.12251 25:-0.421132 26:-0.672382 27:-0.59904 28:-0.542697 29:-0.0946199 30:-0.147359 31:0.374106 32:0.348509 33:-0.235013 34:0.200778 35:0.0030196 
-2 1:0.214782 2:0.254106 3:0.332293 4:0.510855 5:0.0034671 6:-0.337245 7:0.177079 8:-0.450934 9:0.686406 10:0.393237 11:0.208169 12:0.180667 13:0.254302 14:-0.251931 15:-0.169491 16:-0.225605 17:-0.213169 18:-0.0316792 19:0.085557 20:-0.269165 21:-0.637253 22:0.301266 23:-0.564524 24:-0.759496 25:-0.0471202 26:-0.339483 27:-0.0357463 28:0.283677 29:-0.63698 30:0.316109 31:-0.0510971 32:0.0107088 33:0.188801 34:0.433957 35:0.261104 
-2 1:0.110665 2:0.0895793 3:0.244913 4:0.227889 5:0.043214 6:0.117491 7:0.00645359 8:0.23272 9:0.503752 10:0.394993 11:0.113262 12:0.0771024 13:0.265663 14:-0.215289 15:0.137555 16:-0.100823 17:0.208923 18:0.471395 19:0.631974 20:0.00733486 21:-0.347303 22:-0.0582865 23:-0.69363 24:-0.692232 25:-0.0366481 26:-0.150126 27:0.593118 28:-0.26717 29:-0.180252 30:-0.232071 31:-0.00640843 32:0.258919 33:0.0789599 34:0.555566 35:-0.221359 
-0.3593442513354184 1:0.13405 2:0.116995 3:-0.145453 4:0.589777 5:0.839843 6:-0.167446 7:0.157402 8:0.232992 9:0.585723 10:-0.457686 11:-0.0160382 12:0.0931805 13:0.700979 14:0.109541 15:-0.0475979 16:-0.547675 17:-0.240754 18:0.302432 19:-0.543311 20:-0.189478 21:0.41569 22:-0.0974957 23:-0.727948 24:-0.534961 25:-0.457625 26:-0.57112 27:-0.0963648 28:0.373302 29:-0.361511 30:-0.288361 31:0.221721 32:0.361702 33:-0.68755 34:-0.44402 35:-0.0204339 
-2 1:0.277504 2:0.159575 3:-0.0828777 4:-0.66211 5:0.223553 6:-0.169435 7:0.127422 8:0.0122667 9:0.58128 10:0.381722 11:-0.220073 12:0.587346 13:0.204443 14:0.314573 15:-0.362757 16:0.196584 17:-0.148129 18:0.270954 19:0.193873 20:0.172962 21:-0.382727 22:-0.215477 23:-0.60688 24:-0.920074 25:-0.301772 26:0.0884938 27:-0.11951 28:0.128939 29:-0.497733 30:-0.212808 31:0.100491 32:-0.289759 33:-0.815036 34:0.433957 35:-0.470585 
-0.2150166445674254 1:0.356045 2:0.256826 3:0.120545 4:0.478678 5:0.285286 6:-0.163856 7:-0.249819 8:-0.173733 9:0.520419 10:0.291613 11:0.257807 12:0.303189 13:0.465336 14:-0.0701197 15:0.188124 16:-0.150886 17:0.00370812 18:0.0994139 19:0.327008 20:0.0288997 21:0.807743 22:0.205006 23:-0.725833 24:-0.722218 25:-0.290954 26:-0.0900927 27:0.0868433 28:-0.47663 29:-0.233647 30:0.0804101 31:-0.239641 32:0.25462 33:-0.023343 34:0.334353 35:0.532803 
-0.5271435366407486 1:-0.328031 2:-0.47675 3:-0.325056 4:-0.0311346 5:0.394917 6:-0.458425 7:-0.183487 8:0.263051 9:0.506263 10:-0.19987 11:0.335455 12:0.0824062 13:0.47091 14:-0.141207 15:-0.191209 16:-0.709615 17:-0.284017 18:0.69813 19:-0.224187 20:-0.314763 21:-0.549548 22:0.018648 23:-0.248512 24:-0.298071 25:-0.0696464 26:-0.695264 27:0.476562 28:-0.196197 29:0.253117 30:0.196644 31:0.285076 32:0.574927 33:-0.57431 34:0.933692 35:0.456697 
-1.396413327829325 1:0.162138 2:0.220278 3:-0.055646 4:-0.462723 5:0.339268 6:-0.810106 7:-0.0113606 8:-0.569807 9:0.559771 10:-0.333713 11:0.0757168 12:0.36101 13:0.237063 14:-0.231963 15:-0.385276 16:-0.251657 17:-0.334574 18:0.0789027 19:-0.166632 20:-0.338058 21:-0.360403 22:-0.203468 23:0.335312 24:0.0842107 25:0.186786 26:-0.28521 27:-0.0333705 28:-0.489057 29:0.532411 30:0.211941 31:-0.0157174 32:0.0974971 33:-0.235013 34:0.748484 35:0.713283 
-1.68231959342162 1:0.100955 2:0.119891 3:-0.0261033 4:0.688438 5:0.765944 6:-0.0532403 7:0.0991687 8:-0.280825 9:0.641564 10:-0.26115 11:0.0417224 12:0.0843883 13:0.481828 14:-0.683884 15:0.0779753 16:-0.227413 17:0.186016 18:0.448471 19:0.0186488 20:0.0849242 21:0.776011 22:-0.375467 23:-0.564524 24:-0.572023 25:-0.442035 26:-0.125659 27:0.0233175 28:0.631315 29:-0.303148 30:0.0963704 31:0.0023526 32:-0.114202 33:-0.241011 34:0.932588 35:-0.227741 
-2 1:-0.136784 2:0.19523 3:-0.377544 4:0.313423 5:-0.0604233 6:-0.141781 7:0.446187 8:-0.162924 9:0.196181 10:-0.434684 11:1 12:0.252209 13:-0.102455 14:-0.101412 15:0.174893 16:0.0147981 17:-0.0623051 18:-0.669084 19:0.0310354 20:0.177485 21:0.376644 22:-0.662569 23:-0.564524 24:-0.639554 25:-0.59256 26:0.0651258 27:-0.213966 28:0.118213 29:-0.917028 30:-0.540313 31:-0.229024 32:-0.168241 33:-0.80952 34:-0.294652 35:-0.737336 
-2 1:-0.029336 2:0.294025 3:-0.471342 4:0.28973 5:-0.155776 6:0.334255 7:0.253414 8:0.0734314 9:0.87064 10:0.492031 11:-0.202947 12:0.601695 13:0.261006 14:-0.384828 15:-0.433477 16:0.100707 17:0.033004 18:-0.319959 19:0.071051 20:0.159968 21:-0.214412 22:0.00670235 23:-0.564524 24:-0.572023 25:0.316916 26:-0.118179 27:0.143371 28:0.334784 29:0.460951 30:-0.0183753 31:0.852661 32:0.522318 33:-0.116796 34:0.277307 35:0.378389 
-2 1:-0.0291556 2:-0.085142 3:-0.0562596 4:0.376443 5:0.221931 6:-0.115934 7:0.329461 8:-0.195859 9:0.330355 10:0.137553 11:0.311488 12:-0.13752 13:0.357436 14:-0.241532 15:0.315531 16:-0.259707 17:-0.022848 18:0.52491 19:0.154277 20:0.0242016 21:0.04549 22:-0.0342888 23:-0.585879 24:-0.63034 25:0.183114 26:-0.285614 27:0.110758 28:0.356982 29:0.0543189 30:0.45257 31:0.29079 32:0.464291 33:0.314005 34:0.245406 35:0.41673 
-2 1:0.463101 2:0.040518 3:0.287199 4:-0.564568 5:0.5668 6:0.172134 7:0.378278 8:-0.563842 9:0.636799 10:0.38783 11:0.0471594 12:0.101984 13:0.52956 14:-0.155285 15:0.241243 16:-0.0523827 17:0.14405 18:0.319567 19:0.187048 20:0.31764 21:0.694178 22:-0.164115 23:-0.336299 24:-0.306102 25:-0.201042 26:-0.267988 27:-0.0476381 28:0.620684 29:0.126488 30:-0.0401989 31:-0.209464 32:0.638204 33:-0.17125 34:-0.214343 35:-0.4059 
-1.382473515188788 1:0.164895 2:0.418949 3:-0.242483 4:0.0665854 5:0.130853 6:-0.327747 7:0.227905 8:0.15762 9:0.679889 10:-0.461088 11:0.0396323 12:-0.288869 13:0.286903 14:-0.0506146 15:0.294693 16:-0.478742 17:-0.0699728 18:0.0564199 19:-0.022959 20:-0.0982163 21:0.350683 22:-0.305314 23:-0.846143 24:-0.71485 25:-0.552049 26:-0.458462 27:-0.176731 28:0.114903 29:-0.557479 30:0.0256848 31:-0.352354 32:0.190099 33:-0.473032 34:-0.0278284 35:0.0010233 
-2 1:0.375406 2:0.813221 3:0.50016 4:0.717736 5:-0.250411 6:-0.202239 7:-0.237548 8:-0.165864 9:0.0233413 10:0.754944 11:0.0126931 12:0.490421 13:-0.0818909 14:0.747411 15:-0.107579 16:0.243329 17:-0.0600122 18:-0.0143969 19:0.330822 20:0.0608477 21:-0.58689 22:0.189239 23:-0.72388 24:-0.572023 25:0.490052 26:0.128984 27:-0.0440665 28:-0.380314 29:0.644517 30:0.488672 31:0.43273 32:0.133079 33:-0.283321 34:0.433957 35:0.918972 
-2 1:0.216704 2:0.371155 3:-0.256118 4:-0.748484 5:-0.028455 6:-0.290583 7:0.275944 8:-0.392464 9:0.506597 10:-0.156087 11:0.269464 12:0.140115 13:0.255204 14:0.317313 15:0.0607533 16:-0.107892 17:-0.02348 18:0.286747 19:0.0495779 20:0.0772406 21:-0.842773 22:-0.219414 23:-0.808997 24:-0.572023 25:-0.281975 26:-0.141419 27:-0.252159 28:-0.0906521 29:0.0406032 30:-0.374525 31:-0.229769 32:0.0804671 33:-0.415394 34:0.208263 35:0.378856 
-2 1:-0.218995 2:-0.147798 3:-0.170294 4:0.100025 5:0.302895 6:-0.163045 7:0.225815 8:-0.15091 9:0.233639 10:-0.0202039 11:0.898824 12:-0.000514426 13:0.399385 14:0.0113759 15:0.762245 16:0.109922 17:0.309039 18:0.644457 19:-0.210599 20:0.270161 21:-0.784958 22:-0.045973 23:0.89505 24:1 25:0.117293 26:-0.0400336 27:0.0381484 28:0.410343 29:-0.291611 30:0.0783873 31:-0.583165 32:0.232369 33:-0.340599 34:0.229107 35:0.584047 
-0.1581407427056922 1:0.213159 2:0.00121966 3:-0.193894 4:0.568755 5:0.644523 6:-0.645081 7:0.561098 8:0.00737988 9:0.566452 10:-0.854942 11:-0.260377 12:-0.150935 13:0.4119 14:-0.31947 15:-0.431709 16:-0.988619 17:-0.434077 18:0.301137 19:-0.20331 20:-0.359071 21:0.65558 22:-0.375515 23:-0.832066 24:-0.940519 25:-0.727935 26:-0.601515 27:-0.29222 28:0.4582 29:-0.746735 30:-0.0261286 31:-0.399891 32:-0.125388 33:-0.533766 34:0.524815 35:-0.51757 
-2 1:0.160786 2:0.345572 3:0.203123 4:-0.112367 5:0.0604258 6:0.320242 7:0.0152586 8:-0.475996 9:0.798369 10:0.259474 11:-0.162048 12:0.24879 13:-0.10502 14:-0.183093 15:0.0816433 16:0.018098 17:0.00181279 18:-0.134411 19:-0.0456327 20:0.174592 21:-0.529838 22:0.0827444 23:-0.548091 24:-0.448451 25:-0.396398 26:-0.335612 27:0.0376306 28:0.192548 29:-0.913684 30:-0.413982 31:-0.428174 32:-0.30656 33:-0.145464 34:-0.28858 35:-0.458665 
-2 1:0.803347 2:0.49351 3:-0.208342 4:-0.126379 5:0.281165 6:0.115917 7:0.257715 8:0.0906641 9:0.652805 10:-0.115814 11:-0.136414 12:0.109349 13:0.595032 14:0.276822 15:0.12229 16:-0.378617 17:-0.116637 18:0.32628 19:0.423097 20:-0.0619372 21:0.669119 22:-0.0884973 23:-0.649507 24:-0.572023 25:-0.324928 26:-0.307071 27:0.211937 28:-0.550211 29:-0.107096 30:0.074896 31:-0.0657792 32:0.234811 33:-0.250493 34:0.564129 35:0.307895 
-2 1:0.2041 2:0.0653957 3:-0.334805 4:-0.12388 5:0.177369 6:0.0804635 7:-0.034143 8:0.221702 9:0.364224 10:-0.254825 11:0.18724 12:0.0944053 13:-0.176193 14:-0.0207332 15:-0.152175 16:-0.164076 17:0.0673156 18:0.16785 19:0.266876 20:0.0510092 21:-0.385274 22:-0.367602 23:0.00866221 24:-0.0660484 25:-0.142613 26:-0.279332 27:0.246047 28:-0.31583 29:-0.460298 30:-0.0884889 31:-0.113214 32:0.381719 33:0.0798838 34:0.374419 35:-0.147919 
-0.2824701299785805 1:0.480289 2:0.494997 3:-0.291078 4:0.312766 5:0.397545 6:-0.240396 7:-0.223777 8:0.0696483 9:0.699528 10:0.643178 11:-0.177134 12:0.410805 13:0.659289 14:0.72552 15:-0.0983387 16:0.134275 17:0.0104436 18:0.811906 19:0.582037 20:0.215058 21:0.211399 22:0.0885399 23:-0.4081 24:-0.665152 25:0.217794 26:0.161909 27:0.134871 28:-0.287381 29:0.479064 30:0.341935 31:0.20098 32:0.481796 33:0.0717558 34:0.132852 35:0.115229 
-2 1:0.661905 2:0.59571 3:0.305887 4:0.0929173 5:-0.024113 6:0.0418962 7:-0.0787881 8:-0.416767 9:0.526309 10:0.480897 11:0.32078 12:0.283032 13:0.0666177 14:-0.081078 15:0.266587 16:0.0984766 17:0.405413 18:0.242993 19:0.496223 20:0.25116 21:-0.197016 22:-0.392784 23:-0.602057 24:-0.60697 25:-0.488879 26:0.0933668 27:0.266071 28:0.399523 29:-0.152784 30:0.0054128 31:-0.0412128 32:0.644417 33:-0.235013 34:0.320968 35:0.611612 
-0.1451809069633197 1:0.306758 2:-0.574832 3:0.0123692 4:0.452465 5:0.642639 6:-0.163354 7:0.49616 8:-0.347789 9:0.219052 10:-0.453316 11:0.25162 12:-0.443101 13:0.523753 14:-0.211046 15:0.533036 16:-0.327668 17:-0.0131999 18:0.511559 19:0.0946354 20:0.0819141 21:-0.631677 22:-0.348957 23:-0.0811567 24:-0.145271 25:-0.153503 26:-0.294272 27:0.130146 28:-0.558393 29:-0.504913 30:-0.342935 31:0.100335 32:0.462069 33:-0.277212 34:-0.158183 35:0.182729 
-0.9115144656064548 1:0.297665 2:0.127329 3:-0.00340709 4:0.370539 5:0.348415 6:-0.0625057 7:0.0390106 8:-0.274987 9:0.7042 10:-0.0895673 11:0.452076 12:0.189562 13:0.435591 14:0.0838726 15:0.130118 16:-0.0654637 17:0.0776381 18:0.0426916 19:0.331308 20:0.171221 21:-0.655407 22:-0.185294 23:-0.200983 24:-0.464975 25:-0.303263 26:0.0315585 27:0.0851146 28:-0.578151 29:0.147344 30:0.132522 31:-0.39683 32:0.229742 33:-0.57092 34:0.394058 35:-0.13396 
-2 1:0.0943935 2:0.683865 3:0.099231 4:0.145825 5:-0.262432 6:0.0458199 7:-0.067528 8:0.00344864 9:0.412016 10:0.254718 11:0.408908 12:0.706219 13:0.0680952 14:0.111197 15:0.220879 16:0.0050192 17:-0.0323515 18:0.0610076 19:0.321385 20:0.0730904 21:-0.298643 22:-0.025934 23:-0.285136 24:-0.294646 25:0.15769 26:0.135885 27:-0.0222968 28:-0.242758 29:0.0191374 30:0.289964 31:-0.0607615 32:0.204131 33:0.277278 34:0.021322 35:0.035957 
-1.201034805771785 1:0.194151 2:-0.00835178 3:0.028234 4:0.123804 5:0.628938 6:-0.134561 7:-0.0475791 8:0.0686252 9:0.802489 10:-0.0983128 11:-0.0886394 12:-0.120717 13:0.501338 14:0.346531 15:-0.144656 16:-0.41119 17:-0.0966856 18:0.261578 19:0.443198 20:-0.0565933 21:-0.844757 22:-0.216478 23:-0.554206 24:-0.562415 25:-0.175235 26:-0.215807 27:0.350215 28:-0.0843746 29:-0.0734456 30:-0.42401 31:0.15744 32:0.285946 33:-0.616918 34:0.304815 35:-0.197391 
-2 1:-0.229787 2:0.181327 3:-0.0239694 4:0.0616484 5:-0.262288 6:0.0583206 7:-0.382192 8:-0.16087 9:0.22694 10:0.110099 11:-0.110841 12:0.408171 13:-0.355689 14:-0.266913 15:-0.0983418 16:-0.0737439 17:-0.136774 18:-0.436477 19:0.0503744 20:-0.13175 21:-0.534698 22:-0.17924 23:-0.614386 24:-0.895659 25:-0.227322 26:-0.0604349 27:0.0488986 28:-0.0688472 29:-0.542494 30:-0.590422 31:0.282035 32:0.173116 33:0.137869 34:-0.226416 35:0.0203628 
-1.102836443474291 1:0.0491045 2:-0.0109841 3:-0.976136 4:-0.548634 5:0.39725 6:-0.619611 7:0.714087 8:-0.360415 9:0.561699 10:-0.549908 11:-0.100968 12:0.0451751 13:0.224462 14:0.0830158 15:-0.117412 16:-0.65626 17:-0.616183 18:-0.171088 19:0.25888 20:-0.324043 21:-0.393946 22:-0.572996 23:-0.543526 24:-0.710294 25:-0.287702 26:-0.340038 27:-0.176383 28:-0.794833 29:-0.088054 30:-0.108895 31:-0.395473 32:0.238615 33:-0.235013 34:0.372905 35:0.232995 
-2 1:0.752883 2:0.684191 3:0.195316 4:0.00510666 5:0.367327 6:0.0581957 7:-0.284084 8:0.107784 9:0.710192 10:-0.0452128 11:-0.0968293 12:0.205536 13:0.518482 14:-0.0924283 15:0.120501 16:-0.0662107 17:0.296072 18:0.566119 19:0.299827 20:0.183883 21:0.138114 22:0.0169614 23:-0.635178 24:-0.369433 25:-0.505579 26:-0.0634897 27:0.0538515 28:0.536482 29:-0.248653 30:-0.162599 31:0.55097 32:0.25008 33:-0.111876 34:0.345526 35:-0.09629 
-1.095398264988322 1:-0.171305 2:0.273407 3:0.425463 4:0.266589 5:-0.0501001 6:0.618468 7:-0.496014 8:0.248704 9:-0.125036 10:0.980241 11:0.942288 12:0.973091 13:-0.197637 14:1 15:-0.626679 16:0.945932 17:0.733806 18:0.111232 19:0.389507 20:0.714205 21:0.22902 22:0.0385002 23:-0.656706 24:-0.657853 25:0.101456 26:0.691391 27:0.245029 28:0.611189 29:0.638818 30:0.446509 31:0.589628 32:0.630389 33:0.335211 34:0.542454 35:0.132002 
-2 1:-0.0502433 2:-0.163123 3:-0.0662408 4:0.437429 5:0.22722 6:-0.393028 7:0.225717 8:0.0642273 9:0.0384425 10:-0.341288 11:0.20667 12:0.38181 13:0.552586 14:-0.125261 15:0.452255 16:-0.451218 17:-0.187244 18:0.124806 19:-0.00812037 20:-0.0897209 21:-0.270563 22:-0.2775 23:0.430402 24:0.330178 25:-0.29072 26:-0.379514 27:-0.132584 28:0.0415669 29:0.165404 30:-0.15258 31:0.524625 32:0.214764 33:0.0593686 34:0.416991 35:0.0428276 
-1.282224283053727 1:0.344368 2:0.391951 3:0.265152 4:0.528011 5:0.428045 6:-0.250864 7:0.546236 8:0.121295 9:0.813695 10:-0.389536 11:-0.485039 12:0.371037 13:-0.0226768 14:-0.236541 15:-0.210372 16:-0.237527 17:0.345362 18:0.725573 19:-0.458704 20:-0.202062 21:-0.549548 22:-0.848957 23:-0.564524 24:-0.572023 25:-0.544526 26:-0.192925 27:-0.287742 28:-0.841368 29:-0.303148 30:-0.0623033 31:0.20229 32:-0.0318024 33:-0.235013 34:0.0724164 35:0.0548857 
-1.854409566306155 1:-0.258853 2:-0.154802 3:0.0501033 4:0.347975 5:0.245443 6:-0.15242 7:0.168945 8:-0.218024 9:0.565192 10:-0.57324 11:-0.291678 12:-0.145055 13:-0.113479 14:-0.207144 15:-0.219027 16:-0.352118 17:-0.213579 18:-0.115457 19:-0.435414 20:-0.168044 21:-0.272682 22:-0.544565 23:-0.597689 24:-0.576351 25:-0.507239 26:-0.555345 27:-0.370069 28:-0.209015 29:-0.695088 30:-0.531068 31:-0.111674 32:0.0725181 33:-0.601815 34:-0.277683 35:0.0449397 
-2 1:-0.422387 2:-0.174836 3:-0.224737 4:0.303386 5:-0.126987 6:0.0143559 7:-0.222298 8:-0.39503 9:0.0377354 10:-0.0549353 11:-0.216927 12:0.180224 13:-0.403531 14:0.100023 15:-0.45116 16:0.00268408 17:-0.277407 18:-0.882796 19:-0.16194 20:0.0550823 21:-0.470861 22:-0.438078 23:-0.830371 24:-0.819552 25:-0.543916 26:-0.107732 27:-0.120007 28:-0.10799 29:-0.743923 30:-1 31:-0.517415 32:0.208939 33:-0.332176 34:-0.140555 35:-0.151263 
-2 1:0.105561 2:0.457929 3:-0.189646 4:0.407485 5:-0.408749 6:0.192765 7:-0.314479 8:-0.28107 9:0.591325 10:-0.0121372 11:0.24267 12:0.564146 13:0.0748529 14:0.556307 15:-0.0335208 16:0.116785 17:0.218711 18:-0.312687 19:0.281468 20:0.334527 21:0.656795 22:0.285319 23:-0.678306 24:-0.797353 25:-0.0362112 26:0.353508 27:0.193284 28:0.808053 29:-0.279205 30:-0.0519463 31:0.0594826 32:0.495388 33:-0.148555 34:0.317223 35:0.448463 
-0.2561377276665885 1:0.373734 2:0.571163 3:0.48103 4:0.900771 5:-0.143738 6:-0.33931 7:0.147914 8:-0.22693 9:0.921863 10:1 11:0.138645 12:0.484921 13:0.0808303 14:0.912767 15:-0.461765 16:-0.248179 17:-0.33871 18:-0.365546 19:0.312976 20:-0.574166 21:0.384912 22:-0.136497 23:-0.417665 24:-0.458282 25:0.121923 26:-0.26466 27:-0.0586146 28:-0.0447306 29:0.189065 30:0.390362 31:-0.259587 32:0.616332 33:0.109248 34:0.104059 35:0.0548857 
-2 1:-0.27851 2:-0.420006 3:-0.274426 4:-0.0958707 5:0.409254 6:-0.0703439 7:-0.281589 8:-0.0769915 9:0.377841 10:0.16006 11:-0.0326128 12:0.147228 13:0.352748 14:-0.229674 15:-0.0791737 16:-0.482334 17:0.00971443 18:0.619851 19:0.284754 20:-0.0760421 21:-0.536459 22:0.131714 23:-0.913578 24:-0.381041 25:-0.136817 26:-0.192379 27:0.144116 28:-0.061458 29:-0.456694 30:0.0738378 31:0.0922173 32:0.343539 33:-0.31466 34:0.380963 35:0.823442 
-1.029614815035555 1:0.263102 2:-0.666215 3:-0.167396 4:0.475482 5:0.223833 6:-0.724655 7:-0.0818789 8:-0.860919 9:0.680537 10:-0.38622 11:-0.501069 12:-0.404607 13:0.530399 14:-0.354564 15:-0.13961 16:-0.616307 17:-0.590694 18:0.489423 19:-0.0133784 20:-0.401353 21:0.878721 22:-0.476218 23:-0.584791 24:-0.572023 25:-0.635168 26:-0.45119 27:-0.0305606 28:0.605061 29:-0.549344 30:-0.00678349 31:-0.457028 32:-0.536246 33:-0.235013 34:0.433957 35:0.285877 
-0.9602565000461963 1:0.000280748 2:0.0740825 3:-0.730366 4:-0.462723 5:-0.214481 6:-0.303456 7:-0.154395 8:-0.644395 9:0.0652166 10:0.346596 11:0.243438 12:0.509538 13:-0.0673086 14:0.559616 15:-0.16127 16:-0.0881775 17:-0.268104 18:0.68478 19:0.493146 20:0.0289563 21:-0.442662 22:-0.329837 23:-0.603632 24:-0.572023 25:-0.194148 26:-0.0728848 27:0.121045 28:-0.721437 29:0.482386 30:0.21314 31:-0.425656 32:0.586424 33:-0.235013 34:0.433957 35:0.608242 
-0.8030142277932991 1:0.236173 2:0.136303 3:-0.00651716 4:0.0205503 5:0.243957 6:-0.191327 7:0.32776 8:-0.228453 9:0.598546 10:0.115892 11:0.176799 12:0.0531354 13:0.426414 14:0.0687726 15:0.351962 16:-0.1384 17:0.154298 18:0.10797 19:0.397253 20:0.110313 21:-0.687433 22:-0.450786 23:-0.166595 24:-0.32526 25:-0.295372 26:-0.211444 27:0.0229141 28:-0.279178 29:-0.562193 30:-0.121584 31:-0.663814 32:-0.0238579 33:0.217291 34:0.0878791 35:-0.279415 
-1.270641575796722 1:0.641456 2:0.476869 3:0.792902 4:1 5:0.171894 6:-0.977585 7:-0.12129 8:-0.420738 9:0.14768 10:0.308122 11:0.498719 12:0.231888 13:0.519472 14:-0.116339 15:0.0531268 16:-0.787786 17:-0.993051 18:0.0624505 19:0.430228 20:-0.724932 21:-0.481308 22:0.342942 23:-0.764076 24:-0.757825 25:0.0631924 26:-0.778104 27:0.243742 28:-0.36731 29:-0.303148 30:-0.26033 31:-0.151512 32:0.417998 33:0.251185 34:0.219228 35:-0.372091 
-1.361973979718247 1:0.0922846 2:-0.355642 3:0.404041 4:-0.0680979 5:0.18779 6:-0.467873 7:0.268717 8:-0.584103 9:-0.401336 10:-0.187011 11:0.256121 12:-0.00496547 13:0.589146 14:-0.844054 15:0.345497 16:-0.581875 17:-0.346001 18:0.281107 19:0.392524 20:-0.327737 21:-0.549548 22:-0.192577 23:-0.564524 24:-0.572023 25:0.255117 26:-0.774428 27:0.196757 28:-0.246264 29:-0.0803466 30:-0.466573 31:-0.40716 32:0.297975 33:0.532046 34:0.433957 35:0.0548857 
-2 1:-0.0766023 2:0.853206 3:-0.307342 4:0.306617 5:-0.464888 6:-0.341255 7:-0.403367 8:-0.900642 9:0.821371 10:0.217925 11:-0.511427 12:0.687121 13:-0.629969 14:0.306034 15:-0.434371 16:-0.0183282 17:-0.23837 18:-0.598376 19:0.251657 20:-0.118011 21:-0.549548 22:0.257948 23:-0.618567 24:-0.622342 25:0.0907713 26:-0.150042 27:-0.0638389 28:0.0677677 29:0.032436 30:0.417348 31:0.162397 32:-0.191817 33:-0.318869 34:0.433957 35:0.576285 
-2 1:0.273059 2:0.442207 3:0.382955 4:0.530113 5:-0.073046 6:0.112164 7:-0.0373008 8:-0.36251 9:0.772499 10:0.696517 11:-0.128838 12:0.166094 13:0.138346 14:-0.389074 15:0.154269 16:0.0153312 17:0.0910542 18:-0.135591 19:0.223299 20:0.0610809 21:-0.518446 22:0.127617 23:-0.666816 24:-0.667267 25:-0.239279 26:-0.221556 27:0.158603 28:0.105686 29:-0.0885167 30:-0.188093 31:-0.432509 32:0.722991 33:0.281195 34:0.433957 35:0.198691 
-1.824681346223342 1:0.234041 2:0.848945 3:-0.253346 4:0.619384 5:-0.222545 6:-0.655171 7:0.0505237 8:-0.500499 9:0.706939 10:0.584365 11:-0.284158 12:0.697248 13:-0.183097 14:0.511073 15:-0.521868 16:-0.0721006 17:-0.200341 18:-0.502568 19:0.273667 20:-0.309746 21:-0.829297 22:0.0841607 23:-0.413093 24:-0.599964 25:0.163474 26:-0.210766 27:-0.306543 28:0.130406 29:-0.352902 30:0.215151 31:0.00916696 32:0.305884 33:-0.235013 34:0.11782 35:0.467223 
-2 1:-0.287226 2:-0.157719 3:-0.603797 4:0.0967161 5:-0.139917 6:0.204416 7:-0.619592 8:-0.340226 9:-0.635809 10:-0.561862 11:0.209807 12:0.172461 13:-0.324848 14:-0.130973 15:-0.670324 16:-0.441448 17:-0.151065 18:-0.411522 19:-0.0309396 20:-0.10594 21:-0.0971306 22:-0.276108 23:-0.953751 24:-0.934432 25:-0.466825 26:-0.266746 27:0.161721 28:-0.0152428 29:-0.611534 30:-0.361125 31:-0.394393 32:0.0124267 33:-0.235013 34:-0.125977 35:-0.140901 
-0.933087845445923 1:-0.176693 2:0.727363 3:-0.775448 4:0.645147 5:-0.77618 6:-0.636574 7:-0.30311 8:-0.705877 9:0.71398 10:-0.141601 11:-0.627162 12:0.356162 13:-0.470516 14:-0.174093 15:-0.622981 16:-0.0966249 17:-0.252651 18:-0.609507 19:-0.137589 20:-0.163566 21:-0.549548 22:0.0310184 23:-0.564524 24:-0.746508 25:0.112758 26:-0.226554 27:-0.295918 28:0.457865 29:-0.826447 30:0.462012 31:0.197861 32:-0.237963 33:-0.262781 34:0.255818 35:0.603031 
-0.8700568263413028 1:0.112436 2:0.30029 3:-0.253146 4:0.748222 5:0.592267 6:-0.103692 7:-0.204498 8:-0.303283 9:0.65744 10:-0.302806 11:0.174225 12:-0.209576 13:0.309545 14:0.0611927 15:0.217313 16:-0.344961 17:0.000234783 18:0.201942 19:0.00220152 20:-0.0235525 21:0.499952 22:-0.210274 23:-0.119964 24:-0.166232 25:-0.546321 26:-0.434424 27:-0.175951 28:0.627203 29:-0.249556 30:0.0468183 31:-0.253566 32:0.227494 33:-0.235013 34:-0.166383 35:-0.097455 
-1.090767006130707 1:0.0493507 2:-0.205634 3:-0.317761 4:0.621225 5:0.434271 6:-0.566147 7:0.940861 8:0.0248463 9:0.486612 10:-0.704299 11:-0.193213 12:-0.545212 13:0.287899 14:-0.455901 15:-0.150074 16:-0.595857 17:-0.329912 18:-0.0798515 19:-0.493179 20:-0.229818 21:0.718808 22:-0.500718 23:-1 24:-0.738718 25:-0.814923 26:-0.575334 27:-0.462521 28:0.520514 29:-0.688216 30:-0.436982 31:0.244392 32:-0.294027 33:-0.197466 34:0.1208 35:-0.602537 
-0.1884710510994969 1:0.776684 2:0.317478 3:0.229399 4:0.0351988 5:-0.17092 6:-0.00685493 7:0.121567 8:0.255878 9:0.474716 10:0.476841 11:0.0830921 12:0.301404 13:0.417032 14:0.438584 15:0.08713 16:0.404063 17:0.486683 18:0.350066 19:1 20:0.40097 21:-0.0152423 22:-0.121451 23:-0.748229 24:-0.743071 25:-0.0359734 26:0.479154 27:1 28:0.110605 29:0.242643 30:0.500035 31:0.679842 32:0.55594 33:0.465618 34:0.492729 35:0.0966588 
-1.144780460497556 1:0.977482 2:0.693112 3:0.281336 4:0.415917 5:0.601407 6:0.126722 7:-0.135468 8:-0.016788 9:0.801904 10:0.406761 11:-0.0859508 12:0.232982 13:0.893921 14:0.387807 15:0.00404064 16:-0.185914 17:0.293688 18:0.345046 19:0.540743 20:0.103205 21:0.105631 22:0.181206 23:0.0483678 24:-0.0572994 25:-0.524217 26:-0.151063 27:0.472696 28:-0.0547031 29:0.166051 30:0.0949491 31:0.350326 32:0.801258 33:0.347834 34:0.701244 35:0.244863 
