svm_type c_svc
kernel_type rbf
gamma 0.0833333
nr_class 2
total_sv 163
rho 0.51407
label 0 1
probA -1.90089
probB 0.399535
nr_sv 84 79
SV
1 1:-0.272959 2:-0.0106929 3:0.0661623 4:0.285245 5:-0.360405 6:-0.195464 7:0.174952 8:0.116503 9:-0.124403 10:-0.456852 11:-0.19019 12:-0.42003 
1 1:-0.127519 2:-0.178561 3:-0.114429 4:-0.053499 5:-0.189107 6:-0.124989 7:0.385393 8:0.141398 9:-0.180759 10:-0.351194 11:-0.557923 12:-0.0155777 
1 1:0.413032 2:0.870953 3:0.386927 4:0.450956 5:1 6:0.0816503 7:0.290974 8:-0.0308803 9:0.244421 10:-0.363775 11:0.0183788 12:0.217411 
0.4253129862261188 1:0.299748 2:-0.0710798 3:0.305528 4:-0.237195 5:0.131614 6:-0.285878 7:-0.0942665 8:-0.557591 9:-0.0228974 10:-0.306633 11:-0.374782 12:-0.402422 
1 1:-0.819505 2:-0.684059 3:-0.430226 4:-0.0407194 5:-0.379378 6:-0.211807 7:0.0359848 8:-0.46493 9:-0.402455 10:0.0501527 11:0.357792 12:-0.306457 
1 1:0.270684 2:0.897195 3:0.32186 4:0.246012 5:0.296433 6:0.081657 7:-0.389223 8:0.0891382 9:-0.143899 10:-0.0306862 11:0.140065 12:0.0388207 
1 1:-0.520727 2:-0.185107 3:-0.310318 4:-0.291784 5:0.163445 6:-0.35446 7:-0.394453 8:-0.264957 9:-0.639111 10:-0.199534 11:-0.370908 12:0.122905 
1 1:0.055172 2:0.249986 3:0.339944 4:-0.0383929 5:0.0538526 6:0.0904372 7:-0.0690353 8:-0.165521 9:0.315636 10:0.215953 11:-0.0548049 12:0.365441 
1 1:0.186376 2:0.286867 3:-0.00989277 4:0.519263 5:0.0368457 6:-0.623782 7:0.380327 8:-0.506391 9:0.166448 10:-0.111138 11:0.314851 12:0.122905 
1 1:0.0244864 2:0.224353 3:0.348773 4:-0.498707 5:-0.263379 6:-0.229051 7:-0.706373 8:-0.110856 9:-0.109271 10:-0.492825 11:-0.0842395 12:0.122905 
1 1:-0.0451107 2:0.491292 3:0.120826 4:0.0676581 5:-0.215683 6:0.00847827 7:0.0327639 8:0.499271 9:-0.0964168 10:0.148651 11:-0.287339 12:0.554636 
1 1:-0.0835966 2:-0.543396 3:0.0351787 4:0.228289 5:-0.355845 6:-0.333017 7:0.264661 8:-0.512543 9:-0.112025 10:0.109428 11:0.356282 12:0.252551 
1 1:-0.157221 2:-0.0122005 3:0.0298599 4:-0.0169471 5:0.804927 6:-0.555273 7:0.0188551 8:-0.61569 9:-0.156383 10:-0.199669 11:0.449116 12:-0.70137 
1 1:-0.244464 2:0.129402 3:-0.484423 4:0.0580909 5:0.548231 6:-0.146091 7:0.0321767 8:-0.390357 9:-0.869829 10:-0.893548 11:-0.441272 12:-0.659854 
1 1:0.58253 2:0.860808 3:0.189082 4:-0.0381246 5:0.361605 6:-0.0745672 7:0.224957 8:-0.0280972 9:0.0946817 10:-0.184843 11:-0.277935 12:-0.383724 
1 1:0.299052 2:0.435991 3:0.553524 4:0.479772 5:0.370895 6:-0.0909535 7:0.023185 8:-0.0328148 9:0.44773 10:0.301037 11:0.00362937 12:0.355845 
1 1:0.0771412 2:0.234169 3:0.293582 4:-0.260871 5:-0.388631 6:0.227194 7:-0.146264 8:-0.395581 9:-0.129446 10:-0.587423 11:-0.264265 12:-0.67077 
1 1:0.348598 2:0.939264 3:0.575603 4:-0.367473 5:0.270811 6:0.00449958 7:-0.982279 8:0.24213 9:-0.221944 10:0.194094 11:0.227255 12:0.122905 
1 1:-0.275538 2:-0.214071 3:-0.0585902 4:-0.0730145 5:-0.123073 6:-0.112164 7:0.19162 8:-0.111263 9:-0.00317706 10:-0.0268198 11:-0.060725 12:-0.202497 
0.3947010259797548 1:0.0964795 2:0.0708574 3:0.139637 4:0.483458 5:-0.0282882 6:0.0364495 7:0.488722 8:-0.434343 9:-0.260175 10:-0.0982742 11:-0.517762 12:-0.0471339 
1 1:-0.201453 2:0.0409359 3:0.0367579 4:-0.00438696 5:0.252612 6:0.00783124 7:0.15657 8:0.0850786 9:0.0157636 10:0.327557 11:0.267764 12:0.649622 
1 1:0.137272 2:0.290915 3:0.229662 4:-0.119838 5:0.456135 6:-0.172856 7:0.0602073 8:-0.399078 9:-0.0438052 10:0.331381 11:0.470619 12:0.425794 
1 1:-0.380314 2:-0.436804 3:-0.535888 4:-0.03463 5:-0.130884 6:-0.101776 7:-0.0952455 8:-0.316855 9:-0.148823 10:-0.437611 11:0.21939 12:-0.92877 
0.4218094292419071 1:0.000164358 2:-0.479915 3:-0.032324 4:0.144557 5:0.319215 6:-0.627143 7:0.51939 8:-0.906651 9:-0.171421 10:-0.178531 11:0.515766 12:-0.828484 
1 1:0.0100837 2:0.308311 3:-0.0956597 4:0.0672387 5:0.696769 6:-0.388173 7:-0.213783 8:-0.605964 9:0.0692519 10:0.00735263 11:-0.311194 12:0.122905 
0.0605972772587685 1:0.437096 2:0.735309 3:0.305795 4:0.152636 5:0.169621 6:-0.0857054 7:0.153078 8:-0.527496 9:0.299626 10:0.178956 11:0.0348638 12:-0.517045 
1 1:-0.268936 2:0.0153767 3:-0.0296519 4:-0.147097 5:0.49344 6:-0.252746 7:-0.0230078 8:-0.0643397 9:-0.0713315 10:0.00161105 11:-0.486979 12:0.122905 
1 1:-0.447157 2:-0.334719 3:-0.0598373 4:-0.075575 5:-0.14525 6:0.292862 7:0.232613 8:-0.26568 9:-0.088204 10:-0.171549 11:-0.267364 12:-0.518336 
1 1:-0.175185 2:0.456606 3:0.324499 4:-0.116217 5:0.260017 6:0.11056 7:0.0313481 8:0.399834 9:0.322636 10:-0.553366 11:-0.0230541 12:0.146253 
1 1:-0.165828 2:-0.314634 3:-0.0150895 4:0.0982219 5:0.173197 6:-0.199322 7:-0.462087 8:-0.2542 9:-0.0514771 10:0.264923 11:-0.215704 12:0.0922415 
1 1:-0.55645 2:-0.211086 3:-0.531103 4:-0.519775 5:-0.093859 6:-0.185555 7:-0.324228 8:-0.333742 9:-0.180759 10:0.182904 11:-0.19019 12:-0.680953 
1 1:-0.236795 2:-0.0850193 3:-0.179773 4:0.109426 5:-0.111297 6:-0.0398392 7:0.150806 8:-0.124679 9:-0.36125 10:-0.391261 11:-0.360787 12:-0.786775 
1 1:0.387158 2:0.474291 3:0.642466 4:0.193548 5:0.387865 6:-0.2917 7:0.382091 8:-0.294182 9:0.461737 10:-0.233881 11:0.139444 12:0.148106 
1 1:-0.238685 2:-0.124223 3:0.1061 4:0.104235 5:-0.342877 6:0.195259 7:0.170108 8:0.0734608 9:0.187358 10:-0.396615 11:-0.298626 12:0.331103 
1 1:-0.413411 2:-0.142629 3:-0.105815 4:0.0248307 5:-0.29291 6:0.174159 7:0.264501 8:0.128569 9:-0.148695 10:-0.407891 11:0.0926249 12:-0.0181944 
1 1:0.104881 2:0.0908191 3:0.0949465 4:0.331841 5:0.702081 6:-0.412294 7:0.362152 8:0.00635359 9:-0.149454 10:0.495577 11:-0.346692 12:0.158465 
1 1:0.115842 2:0.58943 3:0.918877 4:-0.784738 5:0.460406 6:0.0737733 7:-0.429715 8:0.102144 9:0.0363037 10:0.267035 11:0.58641 12:0.516795 
0.05359901404552053 1:0.0729627 2:0.309001 3:0.64032 4:-0.51927 5:0.365698 6:-0.404919 7:-0.0348605 8:0.118139 9:0.0697687 10:0.0375337 11:0.536118 12:-0.680456 
1 1:0.376668 2:-0.201275 3:0.401168 4:0.918475 5:0.518605 6:-0.710592 7:0.388878 8:-0.832067 9:-0.260741 10:-0.0860419 11:0.386937 12:-0.672603 
1 1:-0.565854 2:-0.0881379 3:-0.431507 4:-0.370957 5:0.192599 6:-0.28921 7:0.0601917 8:0.475382 9:-0.310972 10:0.0270989 11:-0.818284 12:0.122905 
1 1:0.570627 2:0.772291 3:0.583934 4:0.24636 5:0.210299 6:0.374835 7:-0.310939 8:0.449122 9:0.282117 10:0.695393 11:0.218153 12:1 
1 1:0.0119911 2:-0.0206415 3:0.38986 4:-0.0499197 5:-0.0394693 6:-0.100192 7:0.0670634 8:-0.0771569 9:0.320751 10:-0.61678 11:-0.621406 12:-0.0918745 
1 1:0.0217415 2:-0.0158074 3:0.498588 4:-0.0991195 5:0.100869 6:-0.216547 7:-0.479158 8:-0.0259358 9:0.155321 10:-0.0537438 11:-0.377551 12:-0.405751 
1 1:-0.0990576 2:0.213596 3:0.130863 4:0.285176 5:0.2982 6:-0.688716 7:-0.0781756 8:-0.16603 9:0.34436 10:-0.231309 11:-0.419686 12:0.122905 
1 1:0.673201 2:0.4338 3:0.804532 4:0.364511 5:0.43549 6:-0.15868 7:0.342433 8:-0.116641 9:0.168077 10:1 11:0.496833 12:-0.442828 
1 1:-0.0378898 2:-0.289662 3:0.00919046 4:-0.414998 5:0.212447 6:-0.358887 7:-0.0150724 8:-0.351039 9:-0.106908 10:-0.255995 11:0.38463 12:-0.451725 
1 1:0.412387 2:0.561612 3:0.537982 4:0.777925 5:0.66411 6:0.824586 7:0.683539 8:0.539961 9:0.569154 10:0.533274 11:-0.415779 12:0.733954 
1 1:-0.23178 2:-0.300344 3:-0.302186 4:0.0214279 5:-0.285509 6:0.0679942 7:0.232122 8:-0.375356 9:-0.307922 10:0.194125 11:0.293698 12:0.333496 
1 1:0.164529 2:0.387844 3:-0.0889983 4:-0.108262 5:0.306908 6:-0.151813 7:-0.162888 8:0.767909 9:-0.0899753 10:0.307292 11:-0.104384 12:0.635093 
1 1:-0.246328 2:-0.0450226 3:-0.0504081 4:-0.081822 5:0.0235758 6:0.0174267 7:-0.056518 8:0.0801661 9:-0.594395 10:-0.0744978 11:-0.0761348 12:0.122905 
1 1:0.394216 2:0.523828 3:1 4:0.622918 5:0.832566 6:0.542741 7:1 8:0.00347448 9:0.232798 10:0.160695 11:-0.00316783 12:0.592689 
1 1:-0.106435 2:0.326849 3:-0.0658023 4:-0.151803 5:0.638166 6:0.00450772 7:0.273103 8:-0.602257 9:-0.0348071 10:-0.404314 11:0.452778 12:0.178668 
0.2613723063585138 1:-0.585252 2:-0.447994 3:-0.209172 4:-0.144735 5:-0.140068 6:-0.0246078 7:0.00311097 8:0.0363458 9:-0.366098 10:0.0664127 11:-0.951679 12:-0.792285 
1 1:0.683825 2:1 3:0.517735 4:0.561014 5:0.150219 6:0.31903 7:-0.151828 8:-0.275828 9:0.260049 10:-0.0744978 11:-0.137303 12:-0.184501 
1 1:-0.135457 2:-0.428969 3:-0.0484534 4:-0.118953 5:-0.277148 6:-0.0935312 7:0.107863 8:0.173868 9:0.17081 10:-0.114061 11:-0.0252976 12:-0.463396 
1 1:-0.0861462 2:0.0551117 3:-0.103901 4:-0.00402523 5:0.126956 6:-0.117775 7:-0.1344 8:-0.185191 9:-0.284612 10:-0.383694 11:-0.436058 12:-0.476067 
1 1:0.626768 2:0.396266 3:0.137444 4:-0.198339 5:0.210133 6:0.00772983 7:0.14204 8:-0.0152553 9:-0.00491594 10:-0.112413 11:-0.676713 12:-0.158343 
1 1:0.187618 2:0.783276 3:0.343643 4:0.00803835 5:-0.0891828 6:0.0502165 7:-0.143914 8:0.0115897 9:0.103888 10:-0.0537049 11:-0.0090009 12:0.0752855 
1 1:-0.399921 2:-0.72071 3:-0.189074 4:-0.131685 5:0.00196338 6:-0.239156 7:0.378176 8:-0.507831 9:-0.110299 10:-0.197813 11:0.298059 12:-0.0624363 
1 1:-0.099154 2:0.244259 3:0.456615 4:-0.231134 5:0.0700817 6:0.210712 7:-0.462886 8:-0.204061 9:-0.103642 10:0.0171647 11:-0.0125007 12:0.336459 
1 1:-0.117994 2:-0.0867565 3:0.0499596 4:-0.0073459 5:-0.0219769 6:0.1212 7:0.13915 8:0.149283 9:-0.0251278 10:-0.0529114 11:0.0524868 12:-0.0499104 
1 1:0.402062 2:0.140342 3:0.150388 4:0.0978139 5:-0.00833794 6:-0.223143 7:-0.65682 8:-0.349076 9:0.00758174 10:-0.107004 11:0.184179 12:-0.211637 
1 1:-0.21537 2:-0.370051 3:-0.169705 4:-0.925612 5:-0.0871471 6:-0.25515 7:-0.13235 8:0.295125 9:-0.43909 10:-0.381559 11:-0.19019 12:0.122905 
1 1:-0.0509297 2:0.68419 3:-0.156507 4:-0.0818526 5:0.535784 6:-0.0989366 7:-0.00678539 8:-0.147178 9:-0.241264 10:-0.146417 11:0.356702 12:0.122905 
1 1:-0.506219 2:-0.835943 3:0.142282 4:-0.12509 5:-0.0960996 6:0.127882 7:-0.00613181 8:-0.252508 9:-0.0667822 10:-0.796538 11:0.0557839 12:-0.870617 
1 1:0.162309 2:-0.0147519 3:0.378974 4:-0.393236 5:0.121667 6:0.0171736 7:-0.113537 8:0.0742123 9:0.179129 10:-0.150024 11:0.00226114 12:-0.0752293 
1 1:-0.167226 2:0.0389845 3:0.196994 4:0.0467137 5:0.301691 6:0.0268481 7:0.236698 8:-0.35321 9:0.174181 10:-0.116043 11:0.145293 12:-0.0427541 
1 1:0.967208 2:0.104617 3:0.215834 4:-0.335577 5:0.105336 6:0.00246132 7:-0.336167 8:-0.228644 9:-0.180759 10:-0.0905555 11:-0.455468 12:0.107558 
1 1:0.0084128 2:-0.0851268 3:0.267702 4:-0.230207 5:0.238581 6:-0.0888614 7:0.031111 8:-0.681271 9:-0.00989008 10:-0.259564 11:0.524975 12:-0.357438 
1 1:1 2:0.877512 3:0.63368 4:1 5:0.279457 6:0.0902999 7:0.137893 8:0.305972 9:1 10:0.651835 11:-0.0419953 12:0.398709 
1 1:0.137664 2:0.525969 3:0.492334 4:0.196243 5:-0.0598142 6:0.218287 7:-0.403299 8:0.449242 9:-0.156235 10:-0.106522 11:-0.271812 12:0.505807 
1 1:-0.372573 2:-0.379976 3:-0.249628 4:-0.0766412 5:-0.174147 6:0.473039 7:-0.159963 8:0.219879 9:-0.307013 10:0.176505 11:0.330852 12:-0.725165 
1 1:-0.558346 2:0.229029 3:0.00303871 4:0.335321 5:0.1148 6:0.0529972 7:-0.281581 8:-0.262911 9:-0.413588 10:-0.668793 11:0.210772 12:-0.141581 
1 1:0.0243656 2:-0.087004 3:0.231644 4:0.0205526 5:0.577196 6:0.23463 7:-0.101993 8:0.386074 9:-0.0664027 10:-0.101972 11:0.846643 12:0.252808 
0.3979214589255192 1:-0.375796 2:-0.002226 3:-0.274826 4:-0.157789 5:-0.0584326 6:-0.158334 7:0.0586447 8:-0.449656 9:-0.236884 10:-0.458756 11:-0.243239 12:0.122905 
1 1:0.642827 2:0.677032 3:0.117287 4:0.225765 5:0.483673 6:0.325005 7:-0.137003 8:-0.148987 9:-0.0603473 10:0.11229 11:-0.26247 12:0.301416 
0.3255518642096126 1:-0.295081 2:-0.489071 3:0.0859966 4:0.0414345 5:-0.0622833 6:-0.31426 7:0.402767 8:-0.543416 9:0.257269 10:-0.14384 11:-0.497839 12:0.154333 
1 1:-0.0481913 2:-0.0508311 3:0.0128013 4:0.230092 5:0.131039 6:-0.0343981 7:0.239274 8:-0.196514 9:0.0211219 10:-0.0619652 11:-0.109494 12:0.405912 
0.2123851001209575 1:-0.673285 2:-0.622108 3:-0.740844 4:-0.17547 5:-1 6:-0.225398 7:0.0933819 8:-0.205782 9:-0.745924 10:-0.358104 11:-0.619575 12:-0.215626 
1 1:-0.596857 2:-0.357815 3:-0.293316 4:-0.130418 5:0.0964347 6:-0.232802 7:-0.066837 8:0.0106115 9:-0.581407 10:-0.101381 11:-0.316368 12:-0.206264 
1 1:0.31385 2:0.0167766 3:0.453518 4:0.0880872 5:0.188161 6:-0.00635433 7:-0.0949958 8:0.124271 9:-0.280932 10:-0.00781391 11:-0.0810079 12:-0.294365 
1 1:-0.0345933 2:0.399051 3:0.483525 4:-0.137516 5:0.0955228 6:0.201133 7:-0.224448 8:0.370681 9:-0.0224098 10:0.0431004 11:0.323236 12:0.361246 
1 1:-0.118887 2:0.499835 3:-0.677952 4:-0.441348 5:0.492734 6:-0.101617 7:-0.0578879 8:-0.211816 9:-0.337511 10:-0.517191 11:-0.0371969 12:-0.60365 
1 1:-0.079926 2:0.182408 3:0.325857 4:-0.284549 5:0.293769 6:-0.102526 7:-0.123906 8:0.269466 9:0.203166 10:-0.223679 11:0.0597021 12:0.157855 
-1 1:0.244774 2:-0.260079 3:0.288171 4:0.25325 5:0.247706 6:1 7:0.554606 8:-0.22176 9:0.379296 10:-0.0744978 11:-0.351943 12:-0.24902 
-1 1:-0.278338 2:0.100279 3:0.210643 4:-0.0146743 5:0.195684 6:-0.634563 7:-0.046439 8:-0.767727 9:0.161522 10:-0.766182 11:-0.4877 12:-0.538132 
-1 1:0.230469 2:0.198076 3:0.132589 4:0.216969 5:0.455975 6:0.512151 7:0.0715686 8:-0.0309231 9:0.41179 10:-0.0239714 11:0.0360783 12:0.122905 
-1 1:0.0544087 2:0.152201 3:-0.230864 4:0.330524 5:0.416495 6:-0.370971 7:0.404185 8:-0.604927 9:-0.352268 10:-0.913452 11:-0.604807 12:-0.678877 
-1 1:-0.140799 2:0.19442 3:0.176019 4:0.106473 5:0.281667 6:-0.076008 7:0.0977678 8:0.0144142 9:-0.108703 10:0.142943 11:-0.522301 12:0.122905 
-1 1:-0.148113 2:-0.056287 3:-0.345387 4:0.238982 5:0.124865 6:-0.437963 7:-0.302248 8:-0.502896 9:0.0777333 10:0.0693531 11:-0.19019 12:0.122905 
-1 1:-0.0957595 2:0.220686 3:0.503668 4:-0.199373 5:0.1328 6:0.116527 7:-0.253104 8:0.384403 9:0.105066 10:0.265242 11:0.754777 12:0.321636 
-1 1:0.208938 2:0.222264 3:0.105101 4:-0.291742 5:0.0977447 6:-0.316278 7:0.0473049 8:0.252312 9:0.059455 10:-0.177138 11:-0.419517 12:-0.456187 
-1 1:0.00786469 2:-0.594299 3:-0.480167 4:-0.121631 5:0.156456 6:0.766843 7:-0.0418108 8:-0.127744 9:-0.75862 10:-0.761362 11:-0.0274937 12:0.122905 
-1 1:0.555183 2:0.450175 3:0.861934 4:0.183987 5:0.866668 6:0.0602891 7:0.132912 8:0.424026 9:0.181727 10:-0.115329 11:0.552642 12:0.122905 
-1 1:-0.330423 2:-0.290073 3:-0.254996 4:-0.595456 5:0.00923893 6:-0.128984 7:-0.378704 8:-0.145739 9:-0.180759 10:0.0295779 11:-0.816313 12:-0.629598 
-1 1:0.401517 2:0.455537 3:0.987181 4:0.0891419 5:0.341924 6:0.225915 7:-0.741946 8:0.786219 9:0.219657 10:0.0839022 11:0.00887077 12:0.362144 
-1 1:0.674755 2:0.163649 3:0.496059 4:-0.152302 5:0.234986 6:-0.116659 7:0.200491 8:-0.439062 9:0.265449 10:0.270125 11:0.146454 12:-0.761646 
-1 1:-0.166404 2:-0.23355 3:-0.124312 4:0.0018148 5:0.572993 6:-0.448226 7:0.260855 8:-0.451443 9:-0.558557 10:0.111532 11:-0.799789 12:-0.12874 
-1 1:0.285856 2:-0.0527877 3:0.482651 4:-0.826201 5:0.172041 6:-0.0441404 7:-0.47077 8:0.170991 9:0.130011 10:0.294891 11:1 12:-0.376039 
-1 1:0.0221432 2:-0.783412 3:-1 4:-0.486726 5:-0.306715 6:0.0845986 7:-0.498222 8:-0.159136 9:-0.859729 10:-0.695787 11:-0.684232 12:0.0562711 
-1 1:0.0209603 2:0.318862 3:0.282238 4:0.260396 5:0.133808 6:0.386814 7:-0.190972 8:0.750127 9:0.304929 10:0.283102 11:-0.00140919 12:0.193629 
-1 1:-0.0722853 2:0.0751283 3:-0.15377 4:-0.00509184 5:-0.0254611 6:0.0862697 7:-0.0868662 8:0.689515 9:-0.275779 10:-0.607217 11:0.0389253 12:0.36017 
-1 1:0.255185 2:-0.0926607 3:0.827009 4:0.221452 5:0.0776426 6:0.523894 7:-0.640465 8:0.245063 9:-0.0374992 10:-0.0899685 11:0.543469 12:0.205817 
-1 1:0.299534 2:0.10661 3:0.319715 4:0.170895 5:0.236676 6:0.197731 7:-0.167554 8:0.139296 9:0.41549 10:0.431808 11:0.464927 12:0.125778 
-1 1:-0.284309 2:0.244726 3:0.000258896 4:0.174294 5:0.341798 6:-0.228141 7:0.250242 8:0.0764018 9:-0.0190053 10:0.188387 11:-0.19019 12:0.129128 
-1 1:0.126213 2:0.258941 3:0.264287 4:-0.450872 5:0.0102127 6:-0.195218 7:-0.288596 8:-0.266252 9:0.0588469 10:-0.107242 11:0.0710019 12:-0.309562 
-1 1:-0.387525 2:-0.60029 3:0.0209126 4:-0.223943 5:0.387936 6:-0.650818 7:0.105578 8:0.0143942 9:-0.409952 10:-0.346924 11:0.0495528 12:-0.744402 
-1 1:0.460733 2:0.110255 3:0.255465 4:-0.0982885 5:-0.181992 6:-0.043856 7:0.0432754 8:0.295017 9:0.122506 10:-0.092748 11:0.325449 12:-0.443026 
-1 1:0.489259 2:0.353671 3:-0.415948 4:0.709014 5:0.622273 6:0.704794 7:-0.0066577 8:0.0132361 9:-0.200213 10:0.639699 11:-0.103777 12:0.581804 
-1 1:0.0225224 2:-0.180029 3:0.156921 4:0.221251 5:0.411784 6:-0.209589 7:-0.0765387 8:-0.205923 9:0.0217398 10:-0.614785 11:0.506226 12:-0.215921 
-0.9475069289098924 1:-0.306381 2:-0.591166 3:-0.986244 4:0.280075 5:0.342414 6:0.442407 7:-0.112146 8:0.11022 9:-0.280377 10:-0.0824246 11:-0.449002 12:-0.335463 
-1 1:0.820331 2:0.745022 3:0.73542 4:0.750806 5:0.518615 6:0.231853 7:0.0780202 8:0.177393 9:0.368435 10:0.373836 11:0.698741 12:-0.181533 
-1 1:-0.0744738 2:-0.0972481 3:0.0739378 4:0.470046 5:0.220052 6:0.391735 7:-0.267782 8:-0.196073 9:0.126741 10:-0.600459 11:-0.355919 12:0.324897 
-1 1:0.0291826 2:0.0506456 3:0.123528 4:-0.717002 5:-0.136499 6:-0.023515 7:-0.738986 8:0.41306 9:0.0544705 10:-0.227576 11:0.664048 12:0.0866402 
-1 1:0.364789 2:0.416849 3:0.187717 4:-0.130148 5:0.126605 6:-0.210245 7:0.114771 8:-0.291417 9:-0.480053 10:-0.430248 11:-0.115769 12:0.122905 
-1 1:-0.455491 2:-0.294787 3:-0.273025 4:0.280899 5:-0.176904 6:0.343256 7:-0.345353 8:0.503443 9:0.184375 10:-0.192056 11:-0.350089 12:0.598874 
-1 1:-0.060138 2:-0.23115 3:0.382497 4:0.190514 5:0.184887 6:-0.0530804 7:-0.328782 8:0.114996 9:0.207068 10:0.309954 11:0.612164 12:0.145116 
-1 1:-0.120686 2:0.0517463 3:0.189765 4:0.266188 5:-0.14156 6:0.51619 7:-0.00304203 8:-0.074048 9:-0.0440774 10:-0.0438282 11:0.432451 12:0.219706 
-1 1:-0.242046 2:-0.0440269 3:0.162102 4:-0.0175047 5:0.36591 6:-0.0996219 7:-0.19101 8:0.346982 9:0.198229 10:-0.168997 11:0.288328 12:0.366275 
-1 1:-0.355696 2:-0.0860368 3:0.0614315 4:-0.213007 5:0.344168 6:-0.582512 7:-0.0388011 8:-0.326263 9:0.20583 10:0.0970332 11:-0.306299 12:-0.623593 
-1 1:0.233798 2:-0.161864 3:0.327147 4:0.393495 5:0.190964 6:0.152198 7:-0.0718919 8:0.171393 9:-0.0494639 10:-0.196122 11:0.261021 12:0.407843 
-1 1:-0.149795 2:-0.0059552 3:-0.507019 4:0.000136478 5:-0.688054 6:-0.212632 7:0.228848 8:-0.235487 9:-0.0771732 10:-0.339539 11:-0.0922833 12:-0.130393 
-1 1:-0.450365 2:-0.325812 3:-0.616969 4:0.684769 5:0.118087 6:0.299144 7:-0.520884 8:-0.106448 9:-0.347476 10:-0.118518 11:-0.281351 12:0.0808349 
-1 1:0.054372 2:-0.456108 3:-0.503084 4:0.667392 5:0.0889758 6:0.349698 7:0.0695893 8:0.000993075 9:-0.133396 10:0.336014 11:-0.145424 12:0.122905 
-0.5945988145612285 1:0.455148 2:0.0127167 3:0.65377 4:0.24666 5:0.551828 6:-0.0890644 7:-0.539164 8:0.29568 9:0.373579 10:-0.788008 11:0.252471 12:-0.0779929 
-0.5077515475088474 1:0.0515868 2:0.477479 3:-0.52248 4:0.286792 5:0.180806 6:0.436644 7:-0.653706 8:0.540126 9:-0.219394 10:-0.306174 11:-0.374416 12:0.783666 
-1 1:-0.293269 2:0.17444 3:-0.0276795 4:-0.145661 5:0.0305726 6:-0.264024 7:0.14575 8:-0.0367755 9:0.215645 10:0.153587 11:-0.847637 12:-0.186245 
-1 1:0.108431 2:0.0324179 3:0.272859 4:0.35803 5:0.130852 6:0.345141 7:-0.128823 8:-0.331835 9:0.130412 10:0.0848466 11:0.723204 12:-0.331764 
-1 1:-0.0638789 2:-0.429073 3:-0.0323726 4:-0.118182 5:0.14624 6:-0.27857 7:-0.341159 8:-0.0965644 9:-0.128373 10:-0.0734037 11:0.561642 12:0.122905 
-1 1:0.391934 2:0.529843 3:0.119644 4:0.526426 5:0.27743 6:-0.0245085 7:0.499232 8:-0.106265 9:0.209198 10:-0.0744978 11:0.339347 12:0.122905 
-1 1:0.222503 2:0.663115 3:0.318779 4:0.575213 5:-0.201915 6:0.272935 7:0.166069 8:-0.16032 9:-0.00676207 10:-0.239186 11:-0.826166 12:-0.16044 
-1 1:0.192716 2:-0.0147086 3:0.264909 4:0.580504 5:0.720133 6:0.509916 7:-0.0906098 8:-0.487033 9:0.0209153 10:-0.338082 11:-0.399788 12:-0.432476 
-1 1:-0.00972432 2:-0.238442 3:-0.0121971 4:-0.0299601 5:0.101908 6:0.0853284 7:-0.406213 8:0.271697 9:-0.522803 10:-0.481062 11:0.420908 12:0.0378307 
-1 1:-0.467252 2:-0.127958 3:-0.558731 4:0.0187277 5:-0.142238 6:0.214666 7:-0.112729 8:-0.26098 9:-0.0974864 10:-0.570749 11:0.0015045 12:0.880419 
-1 1:0.0184965 2:0.260901 3:-0.135629 4:-0.046188 5:0.666084 6:-0.0751625 7:-0.320891 8:-0.451443 9:0.375454 10:0.137293 11:0.357618 12:0.0218354 
-1 1:-0.0606333 2:0.142401 3:0.0128035 4:-0.158398 5:0.364915 6:-0.380495 7:0.107765 8:-0.347253 9:-0.0999424 10:-0.0619634 11:-0.366313 12:-0.569765 
-1 1:0.83891 2:0.522901 3:0.479626 4:0.214066 5:0.482801 6:-0.235132 7:0.104472 8:-0.122534 9:-0.564197 10:0.207055 11:0.0336972 12:-0.312668 
-1 1:0.358065 2:0.438584 3:0.250366 4:-0.412809 5:0.209077 6:-0.0697369 7:-0.107779 8:-0.289742 9:0.116748 10:-0.673511 11:-0.666518 12:-0.146091 
-1 1:-0.0155755 2:-0.0443193 3:0.371714 4:-0.21768 5:-0.399954 6:-0.225328 7:0.131775 8:-0.548387 9:-0.0325563 10:-0.0524859 11:0.367052 12:-0.560709 
-1 1:0.219355 2:0.879103 3:0.38362 4:0.20345 5:-0.451217 6:-0.0910039 7:-0.515765 8:-0.37445 9:0.0469014 10:0.0938788 11:-0.308808 12:0.122905 
-1 1:0.0144259 2:-0.0907341 3:-0.160559 4:0.21612 5:0.408405 6:-0.17875 7:0.0995788 8:0.0428696 9:-0.295262 10:-0.845692 11:-0.217127 12:0.237846 
-1 1:-0.51639 2:0.127 3:-0.162846 4:-0.0671127 5:0.311011 6:-0.441507 7:0.0628051 8:-0.834495 9:-0.462092 10:0.0944006 11:-0.19019 12:-0.196679 
-1 1:-0.292039 2:0.0855973 3:0.165063 4:0.210187 5:-0.0924529 6:-0.0855241 7:-0.45729 8:-0.256357 9:-0.285864 10:0.188737 11:-0.437242 12:-0.174013 
-1 1:0.433504 2:-0.264323 3:0.138675 4:0.595908 5:0.377312 6:0.501218 7:0.472318 8:-0.0367126 9:0.452604 10:0.501655 11:-0.111435 12:-0.566918 
-1 1:-0.139402 2:-0.138596 3:-0.474781 4:-0.0798475 5:0.32114 6:-0.418744 7:0.462099 8:-0.538345 9:-0.1141 10:-0.684318 11:-0.341312 12:0.122905 
-1 1:0.0727513 2:0.375045 3:-0.0645104 4:-0.15708 5:0.603669 6:0.0747068 7:-0.607414 8:0.292235 9:0.529458 10:0.239433 11:0.511054 12:0.225035 
-1 1:0.793015 2:0.163688 3:0.395845 4:0.423095 5:0.245954 6:0.0083722 7:0.259448 8:0.618071 9:0.489455 10:0.133359 11:0.402309 12:0.384205 
-1 1:0.128553 2:0.0728356 3:0.009939 4:-0.455511 5:-0.124103 6:0.245735 7:-0.394162 8:0.2844 9:0.334613 10:-0.5318 11:-0.301323 12:0.122905 
-1 1:-0.153334 2:-0.232794 3:-0.830019 4:-0.152245 5:0.301313 6:-0.450793 7:0.487208 8:-0.227121 9:-0.112533 10:-1 11:0.379313 12:0.122905 
-1 1:0.183135 2:0.0203267 3:0.652631 4:0.821582 5:0.893561 6:-0.0311338 7:0.743404 8:0.2515 9:0.0205783 10:-0.470275 11:0.000110098 12:0.351616 
-1 1:0.592258 2:0.380265 3:0.222866 4:-0.118185 5:0.229946 6:0.117648 7:0.197698 8:0.455316 9:0.261517 10:-0.254509 11:0.712801 12:0.3803 
-1 1:0.649284 2:0.549444 3:0.119726 4:0.481811 5:0.446885 6:0.222685 7:0.272466 8:0.248126 9:0.756713 10:-0.00476133 11:0.408663 12:0.580885 
-1 1:-0.389537 2:-0.384834 3:-0.165427 4:-0.189305 5:0.468479 6:0.21043 7:-0.933049 8:0.263975 9:-0.0673478 10:-0.76054 11:-0.735722 12:-0.0517412 
-1 1:0.277947 2:0.289173 3:0.25072 4:-0.12733 5:-0.383232 6:0.241855 7:-0.61316 8:0.258977 9:0.173553 10:-0.510866 11:0.55414 12:-0.294128 
-1 1:-0.535736 2:-0.204747 3:-0.210869 4:-0.626766 5:-0.215275 6:-0.260188 7:-0.218245 8:-0.390647 9:-0.446934 10:-0.390882 11:-0.0844654 12:-0.660459 
-1 1:-0.277535 2:-0.139264 3:-0.307585 4:-1 5:0.0456851 6:-0.639774 7:-0.0794782 8:-0.772137 9:-0.0802088 10:-0.0744978 11:-0.747878 12:0.122905 
-1 1:-0.145278 2:0.113729 3:-0.271566 4:0.25251 5:-0.117176 6:-0.265107 7:0.561073 8:-0.556781 9:-0.0214077 10:-0.622408 11:-0.00485329 12:-0.704205 
-1 1:0.0862712 2:-0.0238983 3:-0.119974 4:0.221523 5:0.334582 6:0.141348 7:-0.339997 8:-0.19605 9:-0.100763 10:0.338134 11:0.180837 12:0.0878225 
-0.5033931713867041 1:0.870664 2:-0.109761 3:0.476354 4:0.735658 5:0.342364 6:-0.0104528 7:-0.106053 8:0.421024 9:0.319931 10:-0.432001 11:-0.474473 12:0.122905 
-1 1:-0.245607 2:0.124008 3:0.235477 4:-0.0913422 5:-0.122777 6:-0.686292 7:0.0999986 8:-0.6663 9:-0.112028 10:0.127392 11:0.27499 12:0.122905 
-1 1:-0.220983 2:-0.227087 3:-0.505585 4:-0.123352 5:0.0976535 6:0.6314 7:-0.0796859 8:0.220236 9:0.270558 10:0.335392 11:-0.337571 12:0.570601 
-1 1:-0.189828 2:0.0740251 3:-0.102187 4:-0.231856 5:0.439859 6:-0.0942408 7:-0.391337 8:0.0553424 9:-0.0294379 10:0.243848 11:0.598348 12:-0.093683 
-1 1:0.268581 2:0.376702 3:0.0999519 4:0.528354 5:0.143304 6:0.419848 7:0.370778 8:0.479949 9:0.645407 10:0.272414 11:0.407119 12:0.41635 
