svm_type c_svc
kernel_type rbf
gamma 0.0344828
nr_class 2
total_sv 405
rho 0.315653
label 0 1
probA -1.23769
probB 0.234332
nr_sv 206 199
SV
1 1:0.659324 2:0.377856 3:0.478828 4:0.093573 5:0.0213769 6:0.29873 7:0.431752 8:0.26722 9:-0.500966 10:0.498453 11:-0.13453 12:-0.0296399 13:0.269436 14:-0.397834 15:0.656889 16:0.497116 17:-0.263669 18:0.251021 19:0.053786 20:-0.279871 21:-0.207865 22:0.514934 23:-0.315736 24:0.345107 25:-0.301215 26:-0.322134 27:0.564813 28:-0.827683 29:-0.678672 
1 1:0.221548 2:0.0979144 3:0.116015 4:0.226679 5:-0.140833 6:0.208025 7:0.123017 8:-0.441706 9:-0.40577 10:0.239601 11:0.0911413 12:0.169904 13:-0.346147 14:-0.0821642 15:-0.175294 16:0.255114 17:0.132222 18:-0.224005 19:-0.505508 20:-0.0883328 21:0.116669 22:-0.358474 23:-0.36565 24:0.510087 25:0.117658 26:-0.142123 27:-0.043267 28:-0.628187 29:-0.453376 
1 1:0.312604 2:0.558793 3:0.618033 4:0.463884 5:0.505094 6:0.592828 7:-0.249322 8:0.51544 9:-0.487983 10:-0.0825147 11:0.377654 12:-0.572943 13:0.130289 14:0.186893 15:0.418643 16:0.636274 17:0.27105 18:0.370592 19:-0.100548 20:-0.456334 21:0.451507 22:0.514344 23:0.268833 24:0.399307 25:0.456166 26:-0.175434 27:-0.043267 28:0.536037 29:-0.177169 
1 1:0.464872 2:0.49122 3:0.77233 4:0.463895 5:0.181366 6:0.080191 7:0.540965 8:0.163699 9:-0.455735 10:0.533192 11:0.221073 12:0.193366 13:0.666365 14:-0.142636 15:0.174324 16:0.841854 17:-0.0684378 18:0.15184 19:-0.0123295 20:-0.025359 21:0.30503 22:0.934052 23:-0.113372 24:0.0882823 25:0.15343 26:-0.240865 27:-0.0624991 28:0.305287 29:-0.0894552 
1 1:0.166581 2:0.534225 3:0.241262 4:0.0395907 5:-0.0225355 6:-0.162551 7:0.115116 8:-0.0839535 9:-0.429792 10:0.326503 11:-0.0420653 12:0.496111 13:0.165271 14:-0.0943464 15:0.0903212 16:0.0167993 17:-0.13602 18:-0.168117 19:-0.240077 20:-0.163755 21:-0.29603 22:-0.485381 23:-0.560555 24:0.331326 25:-0.00454995 26:-0.293989 27:-0.0276639 28:-0.13943 29:0.156614 
1 1:-0.0771818 2:0.426979 3:0.0713788 4:0.299172 5:-0.068077 6:0.521787 7:0.111324 8:0.00138017 9:-0.133184 10:-0.169228 11:0.00285042 12:0.137272 13:0.239566 14:-0.539302 15:0.00258478 16:-0.0449909 17:0.0657251 18:-0.00393019 19:-0.28809 20:-0.542622 21:-0.356848 22:-0.199529 23:-0.0236038 24:-0.22066 25:-0.216012 26:-0.175434 27:0.518433 28:-0.0880494 29:-0.609149 
1 1:0.231947 2:0.207991 3:0.309356 4:0.183672 5:0.240808 6:0.0114095 7:-0.129041 8:0.273151 9:-0.614103 10:0.174063 11:0.188925 12:-0.404289 13:0.479517 14:-0.674647 15:0.333187 16:0.260374 17:-0.052065 18:0.301932 19:-0.0802316 20:0.00659007 21:-0.0337477 22:0.204613 23:-0.219805 24:-0.465849 25:-0.305744 26:-0.266101 27:-0.270374 28:-0.0880494 29:-0.237525 
1 1:-0.0868082 2:0.446412 3:-0.0264038 4:0.335887 5:-0.417844 6:0.539727 7:-0.266742 8:0.784893 9:-0.407086 10:-0.281598 11:0.604779 12:0.76688 13:-0.646518 14:-0.203683 15:0.284866 16:0.43861 17:0.144013 18:0.486953 19:-0.354951 20:0.255046 21:0.345605 22:-0.298873 23:0.405922 24:-0.32155 25:-0.311677 26:0.102952 27:0.321336 28:-0.137548 29:0.82622 
0.4428658548093568 1:0.539766 2:0.23661 3:0.0580867 4:0.39837 5:-0.0856383 6:-0.170502 7:0.489734 8:-0.618323 9:-0.574813 10:0.768923 11:0.32679 12:0.266532 13:-0.107166 14:0.246689 15:0.0232125 16:0.610214 17:-0.369623 18:0.0779527 19:-0.447592 20:-0.270605 21:0.109936 22:-0.272418 23:0.152596 24:0.18485 25:0.311262 26:-0.608789 27:-0.301726 28:-0.0712646 29:0.156614 
1 1:0.304493 2:0.239728 3:0.000456382 4:0.225904 5:-0.0641948 6:-0.0269814 7:0.525926 8:-0.377091 9:-0.504313 10:0.621399 11:0.287949 12:0.312625 13:0.00741223 14:0.115279 15:0.118385 16:0.445196 17:0.0287001 18:0.215712 19:-0.311495 20:-0.321813 21:0.184299 22:-0.279144 23:-0.228004 24:-0.301513 25:-0.149918 26:-0.0923174 27:-0.043267 28:-0.572991 29:-0.391042 
1 1:0.140638 2:0.275118 3:0.55208 4:-0.156673 5:0.418924 6:-0.0967079 7:0.146965 8:0.323496 9:-0.534334 10:0.0723925 11:0.293012 12:0.228261 13:0.0567308 14:-0.432551 15:0.0616065 16:0.588502 17:-0.179397 18:0.0139984 19:-0.00605506 20:-0.0137533 21:-0.215946 22:-0.00910613 23:-0.240997 24:0.104252 25:0.377597 26:-0.176026 27:-0.598358 28:-0.136583 29:-0.241277 
1 1:0.0981855 2:0.180107 3:0.274482 4:0.00614973 5:0.141892 6:-0.301182 7:-0.232092 8:0.499255 9:-0.398102 10:-0.453407 11:-0.167748 12:0.0501588 13:0.335919 14:-0.356112 15:0.148136 16:-0.252306 17:-0.335701 18:0.218681 19:-0.101222 20:0.156515 21:0.0481135 22:-0.021002 23:-0.126603 24:-0.25155 25:-0.102542 26:-0.226696 27:-0.545947 28:-0.0880494 29:0.0924567 
1 1:-0.0216717 2:0.26259 3:0.33077 4:0.114644 5:0.129942 6:-0.0611939 7:-0.00381442 8:0.0335724 9:-0.586627 10:-0.358621 11:-0.255867 12:-0.278057 13:-0.059283 14:-0.124166 15:-0.0962016 16:0.205644 17:-0.227083 18:0.0985376 19:-0.303554 20:-0.347068 21:-0.512691 22:0.244499 23:0.166474 24:0.0987576 25:-0.736018 26:-0.250175 27:-0.779238 28:-0.10551 29:0.156614 
1 1:-0.0703953 2:0.248942 3:0.0332924 4:0.443404 5:0.427943 6:0.0117538 7:0.576838 8:0.256341 9:-0.450311 10:0.123156 11:0.0765191 12:0.379506 13:0.113952 14:0.130841 15:0.206881 16:0.395505 17:-0.00863608 18:0.443531 19:-0.00278767 20:-0.152251 21:-0.279526 22:0.518002 23:0.389427 24:0.613061 25:0.326034 26:-0.599159 27:-0.289822 28:0.230162 29:0.156614 
1 1:-0.122518 2:0.584376 3:0.473002 4:-0.00451316 5:0.445259 6:0.104152 7:-0.544154 8:0.427903 9:-0.492257 10:-0.392149 11:-0.363618 12:-0.105759 13:0.251602 14:-0.364949 15:-0.096293 16:-0.602388 17:0.122294 18:-0.655134 19:-0.23263 20:-0.0957205 21:-0.42285 22:0.0114307 23:-0.66593 24:0.0634665 25:-0.147806 26:-0.480456 27:-0.582422 28:-0.322941 29:-0.669982 
1 1:0.446647 2:-0.0503404 3:0.276215 4:0.52515 5:-0.00342212 6:0.564745 7:0.228476 8:-0.346592 9:-0.377585 10:0.0595476 11:0.0877616 12:0.334999 13:0.0739577 14:-0.179047 15:-0.0958971 16:0.0994556 17:0.484217 18:-0.221224 19:-0.439529 20:-0.154248 21:-0.156009 22:-0.469384 23:-0.362759 24:0.160909 25:0.0108547 26:-0.102895 27:-0.043267 28:-0.0880494 29:-0.259859 
1 1:-0.075485 2:0.368272 3:0.159767 4:-0.0892265 5:0.147654 6:-0.0831149 7:-0.734225 8:-0.120459 9:-0.518062 10:-0.317817 11:-0.317596 12:-0.334866 13:0.410993 14:-0.543078 15:-0.152786 16:-0.640761 17:0.10699 18:-0.542975 19:-0.720855 20:-0.40268 21:-0.236208 22:-0.206265 23:-0.444297 24:-0.344281 25:-0.53444 26:-0.508272 27:-0.043267 28:-0.0880494 29:0.184889 
1 1:-0.160987 2:0.476472 3:-0.321653 4:-0.0874015 5:0.0163469 6:-0.0999184 7:-0.267195 8:0.130127 9:-0.0225287 10:0.0104169 11:-0.159967 12:0.187756 13:-0.199068 14:-0.469333 15:0.232417 16:0.0530794 17:-0.63733 18:-0.494709 19:-0.151531 20:-0.0398136 21:-0.40022 22:-0.0414603 23:-0.321781 24:-0.0601299 25:0.280176 26:-0.463791 27:-0.043267 28:-0.262241 29:-0.0401043 
1 1:-0.34094 2:0.581994 3:-0.388747 4:0.314781 5:0.286874 6:-0.3769 7:0.034202 8:0.158535 9:-0.376181 10:-0.203088 11:-0.26821 12:0.0722407 13:-0.0955582 14:0.0163047 15:0.0933586 16:0.215058 17:-0.0916815 18:0.0346987 19:-0.436861 20:-0.0960533 21:-0.00866071 22:-0.0726734 23:-0.128414 24:0.215784 25:-0.204585 26:-0.259136 27:0.203362 28:0.188352 29:-0.599825 
1 1:-0.00865947 2:-0.0385486 3:0.202087 4:-0.0010433 5:-0.0179537 6:0.0484871 7:-0.0239253 8:-0.618348 9:-0.753767 10:-0.0366823 11:-0.224612 12:0.165913 13:-0.164045 14:-0.515717 15:-0.212922 16:0.281821 17:-0.110922 18:-0.0870657 19:-0.533228 20:0.353679 21:-0.0965696 22:-0.871843 23:-0.581288 24:-0.0611543 25:-0.0327373 26:0.389379 27:-0.043267 28:-0.0880494 29:0.156614 
1 1:-0.201805 2:0.515587 3:0.533257 4:-0.0650063 5:0.124079 6:-0.208716 7:-0.193463 8:0.453902 9:-0.384655 10:0.0191454 11:-0.106469 12:-0.424554 13:0.0117316 14:-0.585812 15:0.337977 16:0.0540902 17:-0.469514 18:-0.351573 19:-0.337679 20:-0.392146 21:0.00331501 22:-0.754678 23:-0.899315 24:0.420589 25:0.080091 26:-0.175434 27:0.379363 28:-0.0880494 29:-0.484029 
1 1:0.184847 2:0.186625 3:-0.154937 4:0.0958594 5:0.0247162 6:0.0830069 7:-0.403429 8:-0.567882 9:-0.633515 10:-0.0760394 11:-0.387392 12:0.060643 13:0.173754 14:-0.533653 15:0.256555 16:-0.00745913 17:0.175377 18:-0.181815 19:-0.0881271 20:-0.248742 21:-0.0153958 22:0.409941 23:-0.327378 24:-0.327207 25:0.370898 26:-0.180394 27:-0.043267 28:0.0518305 29:0.156614 
1 1:0.064555 2:0.54925 3:-0.189623 4:-0.248183 5:-0.255682 6:0.378485 7:0.0762131 8:-0.411497 9:-0.456032 10:0.175291 11:0.303908 12:0.323802 13:-0.30084 14:-0.179188 15:-0.242515 16:0.392378 17:0.106885 18:-0.221395 19:-0.58032 20:-0.559206 21:-0.282605 22:0.0606496 23:-0.109921 24:-0.015436 25:0.211823 26:-0.152924 27:-0.043267 28:-0.00783393 29:-0.260055 
1 1:0.398302 2:-0.0364247 3:-0.221723 4:0.552936 5:-0.251406 6:-0.00975337 7:0.279834 8:0.140432 9:-0.666152 10:-0.0119593 11:0.220364 12:0.783272 13:0.0549163 14:0.0329457 15:0.718927 16:0.213103 17:-1 18:0.0682962 19:-0.163274 20:-0.190923 21:-0.0802752 22:0.218847 23:0.537736 24:0.134347 25:-0.358302 26:-0.119315 27:0.445904 28:-0.329651 29:0.000254268 
1 1:0.0863855 2:0.649944 3:0.352683 4:-0.00764216 5:-0.100395 6:-0.0263923 7:-0.411521 8:0.242299 9:-0.357077 10:-0.134114 11:-0.195103 12:0.366854 13:0.0572836 14:-0.117515 15:0.279161 16:-0.0120761 17:0.372117 18:-0.47551 19:-0.513582 20:-0.163803 21:-0.0716845 22:-0.727663 23:-0.479158 24:-0.182065 25:-0.237864 26:-0.175434 27:-0.377813 28:-0.636533 29:-0.01796 
1 1:0.209942 2:0.749892 3:0.646933 4:0.0853239 5:0.383061 6:0.0108693 7:-0.305731 8:0.0614752 9:-0.325918 10:0.110979 11:-0.280797 12:0.372371 13:-0.148671 14:-0.207865 15:0.187891 16:0.174763 17:-0.0572429 18:-0.223199 19:-0.645335 20:-0.828906 21:-0.416703 22:-0.417989 23:-0.364813 24:-0.149649 25:-0.426382 26:-0.924432 27:-0.0904084 28:-0.918119 29:-0.219476 
1 1:0.479846 2:0.459693 3:0.258119 4:0.412886 5:-0.0563881 6:0.193286 7:-0.0137276 8:0.613448 9:-0.0637489 10:-0.37037 11:0.0118001 12:0.325847 13:0.199674 14:0.137109 15:0.0140432 16:0.340648 17:0.30725 18:-0.138723 19:0.136925 20:-0.911656 21:-0.661785 22:0.530213 23:-0.611443 24:0.415423 25:0.405183 26:-0.432164 27:-0.198453 28:-0.372568 29:0.115964 
0.9825994132223924 1:0.0507797 2:0.605309 3:0.0979793 4:0.315562 5:0.124272 6:0.0300127 7:0.217041 8:0.0533481 9:-0.603393 10:0.154036 11:-0.123224 12:0.114798 13:0.105077 14:0.0941651 15:0.0508861 16:0.302544 17:-0.381551 18:-0.00511384 19:-0.139857 20:0.00114773 21:0.355427 22:-0.644546 23:-0.673299 24:0.84005 25:-0.0470895 26:0.0337073 27:-0.0895329 28:-0.578703 29:0.156614 
0.7206727368469777 1:0.704761 2:0.13079 3:0.567682 4:0.600163 5:0.0386287 6:0.0552842 7:0.388473 8:-0.267727 9:-0.636942 10:0.486304 11:0.121784 12:-0.0331414 13:0.264044 14:0.172677 15:0.15716 16:0.521495 17:-0.129265 18:0.127856 19:-0.398291 20:-0.398461 21:-0.103773 22:-0.199166 23:0.105222 24:0.459679 25:-0.27411 26:-0.245477 27:-0.684201 28:-0.0880494 29:-0.492377 
1 1:-0.0321411 2:0.628891 3:0.416061 4:0.444396 5:0.362297 6:0.133173 7:-0.319632 8:0.442464 9:-0.583212 10:-0.0559681 11:-0.175429 12:0.0259525 13:0.283796 14:-0.343578 15:-0.0487323 16:-0.232941 17:-0.00599094 18:-0.442884 19:-0.48135 20:-0.896382 21:-0.00866071 22:0.391806 23:-0.321781 24:0.832571 25:0.177297 26:-0.175434 27:-0.0634704 28:-0.354688 29:0.300335 
1 1:0.0958349 2:0.377302 3:0.266143 4:0.240488 5:-0.143295 6:0.585301 7:-0.306965 8:-0.0363698 9:-0.704046 10:-0.298276 11:-0.248878 12:-0.178826 13:0.482009 14:-0.176855 15:-0.274485 16:-0.715468 17:0.0930571 18:-0.500743 19:-0.778905 20:-0.734572 21:-0.00866071 22:0.515819 23:-0.6534 24:0.65638 25:0.177297 26:-0.469351 27:-0.043267 28:-0.413781 29:0.156614 
1 1:0.730717 2:-0.375054 3:0.546412 4:0.416476 5:0.438292 6:0.337182 7:0.419492 8:0.633922 9:-0.062518 10:0.159121 11:0.387455 12:-0.160723 13:0.337517 14:-0.467393 15:0.754423 16:0.797017 17:0.298176 18:1 19:-0.188506 20:-0.322442 21:0.340089 22:0.826929 23:-0.872506 24:0.191688 25:0.618537 26:-0.308119 27:-0.043267 28:-0.0880494 29:-0.173627 
0.0617548623838468 1:-0.582855 2:-0.121903 3:0.105435 4:-0.311973 5:-0.654911 6:-0.131018 7:-0.344865 8:0.791698 9:0.325275 10:1 11:-0.263781 12:-0.0986385 13:0.873196 14:-0.718227 15:0.67359 16:0.116343 17:-0.270486 18:0.153511 19:0.782721 20:-0.0396107 21:-0.00866071 22:0.195687 23:-0.321781 24:0.0435696 25:0.177297 26:-0.175434 27:0.61588 28:1 29:0.824048 
1 1:-0.0238463 2:0.635857 3:0.216619 4:-0.0647723 5:0.534219 6:-0.00732038 7:-0.105322 8:0.0831135 9:-0.297211 10:-0.0966181 11:-0.221459 12:0.300943 13:0.0533999 14:-0.0442493 15:0.156584 16:0.481834 17:-0.24195 18:0.164194 19:-0.463827 20:0.497333 21:-0.00866071 22:0.305322 23:-0.296473 24:0.559387 25:0.555672 26:0.367691 27:-0.292721 28:-0.311714 29:-0.0959759 
1 1:0.684629 2:0.157605 3:-0.0933953 4:0.0494545 5:0.179535 6:-0.503563 7:0.119168 8:0.0387818 9:0.0254724 10:0.504848 11:0.78199 12:0.199336 13:0.043804 14:-0.664155 15:0.650159 16:0.509254 17:-0.0855935 18:0.462552 19:-0.30803 20:-0.456334 21:0.493197 22:0.858278 23:-0.321781 24:0.0435696 25:0.744189 26:-0.175434 27:-0.043267 28:0.321539 29:0.156614 
1 1:-0.281048 2:0.0932533 3:-0.0867901 4:0.550445 5:-0.178127 6:0.108693 7:0.707166 8:-0.0727147 9:-0.614732 10:0.437406 11:0.153719 12:0.126838 13:0.51351 14:0.476871 15:0.37958 16:0.519091 17:0.259645 18:-0.0163764 19:-0.191605 20:-0.124902 21:0.440902 22:0.503322 23:0.224702 24:0.0915973 25:0.384326 26:-0.264712 27:-0.254114 28:0.0993088 29:0.0448774 
1 1:0.103627 2:-0.20988 3:0.296825 4:0.306797 5:-0.0249138 6:-0.273204 7:-0.123546 8:0.713965 9:-0.66674 10:-0.208858 11:0.526817 12:-0.800105 13:-0.228847 14:0.690966 15:0.842429 16:0.774823 17:0.110826 18:0.735439 19:-0.179061 20:-0.665511 21:-0.00419893 22:0.274827 23:1 24:0.528418 25:0.526306 26:-0.620649 27:0.432121 28:0.510139 29:0.44139 
1 1:0.74545 2:0.247594 3:0.469574 4:-0.128692 5:-0.00858818 6:-0.359447 7:0.149936 8:-0.121911 9:-0.588434 10:0.358381 11:0.340375 12:0.0368734 13:0.213904 14:0.586765 15:-0.337995 16:0.612022 17:0.127581 18:0.378387 19:-0.228174 20:0.0882328 21:0.916794 22:0.0536025 23:0.327264 24:0.186969 25:-0.0306987 26:-0.535287 27:-0.210875 28:0.300948 29:-0.293764 
1 1:0.285576 2:0.452961 3:-0.00735417 4:0.499548 5:0.394313 6:0.289703 7:0.396043 8:0.489722 9:-0.0791515 10:0.54543 11:0.609288 12:0.234772 13:0.0193928 14:0.00976869 15:0.217986 16:0.441377 17:-0.187415 18:0.704326 19:0.00957177 20:-0.338681 21:-0.322533 22:0.570964 23:-0.181556 24:0.757921 25:0.0239605 26:-0.175434 27:0.171992 28:0.195063 29:0.238338 
1 1:0.121795 2:0.397716 3:0.246774 4:-0.31125 5:0.407803 6:-0.249957 7:-0.095243 8:0.202688 9:-0.63295 10:-0.098084 11:-0.0267564 12:-0.126374 13:0.0325506 14:-0.224078 15:0.203086 16:0.143956 17:-0.0621264 18:0.329082 19:0.0927615 20:-0.102039 21:-0.17087 22:0.112579 23:-0.136993 24:0.157948 25:-0.116667 26:-0.142832 27:-0.00297028 28:-0.155065 29:-0.644573 
1 1:0.26092 2:0.791674 3:-0.448346 4:0.580194 5:0.0198398 6:-0.364206 7:-0.20171 8:0.588165 9:-0.0397525 10:0.0558236 11:-0.0740967 12:0.600731 13:-0.195178 14:-0.207077 15:-0.119431 16:0.125348 17:0.0125568 18:0.160594 19:-0.0847029 20:-0.301558 21:0.213354 22:0.206085 23:-0.323773 24:0.484139 25:-0.026621 26:-0.308378 27:0.393869 28:-0.0900063 29:-0.290437 
1 1:0.0233371 2:0.615746 3:0.00460764 4:-0.240869 5:-0.29139 6:0.466337 7:-0.519943 8:0.155379 9:-0.290618 10:-0.134124 11:-0.0931437 12:-0.0172016 13:0.00930581 14:-0.183422 15:0.0247926 16:0.13471 17:0.203041 18:-0.603389 19:-0.499295 20:0.57853 21:0.124539 22:-0.0860037 23:-0.359111 24:-0.947653 25:-0.418631 26:0.612903 27:-0.0225192 28:-0.76714 29:0.322045 
1 1:-0.00504623 2:0.557288 3:-0.0774558 4:0.868467 5:-0.117038 6:0.299627 7:-0.0100117 8:0.447713 9:0.00699612 10:-0.301314 11:-0.0213429 12:0.340294 13:0.248678 14:-0.100977 15:0.170167 16:0.254884 17:0.271527 18:-0.0880588 19:-0.665061 20:-0.421751 21:-0.0391507 22:-0.447298 23:-0.9346 24:0.41988 25:0.309828 26:-0.175434 27:-0.71461 28:-0.296087 29:0.447768 
1 1:-0.0153821 2:0.127203 3:0.466514 4:0.106934 5:0.408691 6:0.503462 7:0.538538 8:0.129344 9:-0.578486 10:-0.147937 11:-0.16788 12:-0.013022 13:0.423311 14:-0.266782 15:0.105903 16:0.102986 17:0.143285 18:-0.130873 19:-0.142928 20:-0.338032 21:-0.0848134 22:0.0320177 23:-0.268813 24:0.119511 25:0.292485 26:-0.455766 27:-0.300532 28:0.159938 29:0.156614 
1 1:0.238134 2:-0.0174155 3:-0.208541 4:0.665447 5:-0.539203 6:-0.000549789 7:0.467898 8:-0.299725 9:-0.636258 10:0.00845274 11:0.155715 12:-0.248515 13:0.0955649 14:-0.101381 15:-0.0611004 16:0.149293 17:-0.195692 18:-0.11802 19:-0.347341 20:-0.612966 21:-0.106955 22:0.0603403 23:-0.0689842 24:0.219345 25:-0.0764948 26:-0.340893 27:-0.687097 28:-0.0880494 29:0.156614 
1 1:-0.0923407 2:0.190462 3:-0.181121 4:0.47184 5:-0.000887024 6:-0.215829 7:-0.163194 8:0.0406548 9:-0.69439 10:-0.0455373 11:-0.0501766 12:-0.143415 13:0.369997 14:-0.253494 15:0.186708 16:-0.107496 17:0.0080855 18:0.173909 19:-0.646652 20:-0.358283 21:-0.418371 22:0.355136 23:0.274062 24:0.342641 25:-0.0842969 26:-0.252907 27:0.185253 28:0.154622 29:0.156614 
1 1:0.213997 2:0.156826 3:0.292467 4:0.284966 5:-0.0888065 6:0.0914336 7:-0.362749 8:0.189372 9:-0.412749 10:-0.098148 11:-0.162397 12:0.124584 13:-0.0489957 14:-0.217997 15:0.357072 16:0.270452 17:-0.639574 18:-0.110949 19:-0.0999597 20:-0.0580423 21:0.0800215 22:-0.0442699 23:-0.649116 24:0.29977 25:0.177297 26:-0.465554 27:-0.124684 28:-0.161049 29:0.156614 
1 1:0.341521 2:0.162636 3:-0.101451 4:-0.0436293 5:-0.146033 6:0.333051 7:-0.0554827 8:-0.59348 9:-0.205534 10:0.461055 11:0.113794 12:-0.0673568 13:-0.228646 14:-0.118519 15:0.138311 16:0.390229 17:-0.0662569 18:0.0183953 19:-0.41927 20:-0.222205 21:0.35229 22:-0.43928 23:-0.489441 24:-0.196807 25:-0.304127 26:-0.133868 27:-0.043267 28:-0.435885 29:-0.681046 
0.1936678004779257 1:0.136314 2:0.139988 3:-0.0434089 4:-0.259231 5:-0.211268 6:0.167637 7:-0.371244 8:-0.0313242 9:-0.467984 10:-0.152136 11:-0.188166 12:0.325296 13:-0.147521 14:-0.0980328 15:0.257754 16:-0.169867 17:0.235859 18:-0.314937 19:-0.835738 20:-0.572472 21:-0.301635 22:-0.849148 23:-0.713217 24:0.137985 25:-0.354852 26:-0.746618 27:-0.043267 28:-0.0880494 29:0.229664 
1 1:0.340884 2:0.382683 3:0.139012 4:0.545336 5:-0.160369 6:0.166245 7:-0.104162 8:0.252269 9:-0.153564 10:0.33165 11:0.547442 12:0.0904157 13:-0.0764921 14:-0.34451 15:0.407898 16:0.156365 17:-0.292607 18:0.184991 19:-0.209018 20:-0.328849 21:0.450363 22:-0.439231 23:-0.169838 24:-0.251895 25:0.0398915 26:-0.0026586 27:0.469087 28:-0.435851 29:0.271093 
1 1:-0.480946 2:0.179456 3:0.134569 4:0.557761 5:0.0442017 6:0.407205 7:0.37475 8:0.132971 9:-0.835095 10:-0.223328 11:0.253435 12:0.308317 13:-0.0951213 14:0.351688 15:-0.0314891 16:0.329807 17:-0.0711211 18:0.167559 19:-0.101751 20:0.209446 21:0.0260089 22:0.389698 23:0.59052 24:0.0435696 25:-0.0167777 26:0.0311483 27:-0.199657 28:0.140893 29:0.0720835 
1 1:0.385892 2:0.114923 3:0.182106 4:-0.236588 5:0.087163 6:-0.477713 7:-0.72223 8:0.327857 9:-0.607396 10:-0.544607 11:-0.334272 12:-0.172381 13:0.326403 14:-0.646788 15:-0.0486572 16:-0.0138553 17:0.473914 18:-0.632017 19:-0.527577 20:0.036125 21:-0.267539 22:0.229166 23:-0.321781 24:-0.627577 25:0.0860813 26:-0.0696369 27:0.526819 28:-0.547855 29:-0.362655 
1 1:-0.2808 2:0.292177 3:0.229082 4:-0.518096 5:-0.0884217 6:0.286002 7:-0.456459 8:0.374962 9:-0.566317 10:-0.212089 11:-0.350701 12:-0.174155 13:-0.146549 14:-0.425066 15:-0.295042 16:-0.25457 17:0.184312 18:0.159221 19:-0.243603 20:0.064225 21:-0.132241 22:-0.798696 23:-0.321781 24:-0.466401 25:0.238911 26:-0.0040861 27:-0.432935 28:-0.685956 29:-0.237952 
1 1:0.0277074 2:0.668421 3:0.0813642 4:0.293037 5:-0.0721446 6:0.312992 7:-0.290117 8:0.0283175 9:-0.406169 10:-0.161383 11:-0.296457 12:-0.137003 13:-0.0781388 14:-0.330037 15:-0.0222143 16:-0.25456 17:-0.219373 18:-0.459888 19:-0.597922 20:-0.362462 21:-0.356644 22:-0.347538 23:-0.863935 24:-0.158776 25:-0.0145711 26:-0.300522 27:0.0793003 28:-0.372054 29:5.88134e-05 
1 1:0.238057 2:0.228541 3:-0.0181243 4:0.0950662 5:-0.191442 6:0.371099 7:0.537738 8:-0.198882 9:-0.395171 10:0.195935 11:0.227559 12:0.318097 13:0.0518894 14:0.0198201 15:0.0770129 16:0.156932 17:0.375449 18:0.0844444 19:-0.264015 20:0.443164 21:0.198156 22:0.000348944 23:-0.192932 24:0.757716 25:-0.335474 26:0.544343 27:-0.73365 28:-0.210011 29:0.156614 
1 1:0.269278 2:0.271245 3:-0.399822 4:0.288921 5:-0.444019 6:-0.031353 7:0.0324459 8:-0.304426 9:-0.589602 10:0.153693 11:-0.107669 12:-0.478797 13:-0.230324 14:0.154592 15:0.206454 16:0.0021597 17:-0.267926 18:-0.666297 19:-0.561444 20:-0.173801 21:0.0921015 22:-0.293337 23:-0.238058 24:0.0435696 25:0.0376228 26:-0.266494 27:-0.595138 28:-0.0858194 29:0.156614 
1 1:-0.179152 2:-0.372138 3:0.278312 4:-0.299544 5:-0.483286 6:-0.0555738 7:-0.243011 8:0.61533 9:0.619747 10:0.982696 11:-0.547398 12:-0.278175 13:0.750791 14:-0.584706 15:0.919032 16:-0.309987 17:-0.270486 18:0.315766 19:1 20:-0.0222376 21:-0.00866071 22:1 23:-0.321781 24:0.0435696 25:0.177297 26:-0.175434 27:0.246345 28:0.668668 29:0.449867 
0.6661559423669987 1:0.602112 2:0.246566 3:0.36597 4:0.326337 5:0.299463 6:-0.0380375 7:0.122584 8:-0.510752 9:-0.457535 10:0.475523 11:0.335217 12:0.605384 13:0.00430101 14:-0.524769 15:-0.385744 16:0.888729 17:-0.220774 18:0.300376 19:-0.181543 20:0.736125 21:0.34891 22:-0.591493 23:-0.129688 24:0.22356 25:0.347968 26:0.574501 27:-0.549326 28:-0.293267 29:-0.355807 
1 1:0.209314 2:0.519319 3:0.259312 4:-0.189043 5:0.00605943 6:-0.27671 7:-0.595529 8:0.398112 9:-0.358593 10:-0.398898 11:-0.237936 12:0.211842 13:0.44569 14:-0.145281 15:0.0603205 16:-0.235945 17:-0.320613 18:0.0187631 19:-0.646689 20:-0.000718479 21:0.0642182 22:0.503329 23:-0.366238 24:0.130388 25:0.116859 26:-0.346015 27:0.462389 28:-0.0880494 29:0.1073 
1 1:-0.148818 2:0.0931473 3:-0.129311 4:0.111516 5:-0.095664 6:0.338688 7:0.147073 8:0.156446 9:-0.0468495 10:-0.0873326 11:0.0611885 12:-0.054593 13:-0.101571 14:-0.249008 15:-0.347332 16:-0.201062 17:-0.336923 18:-0.0420253 19:-0.619583 20:-0.225142 21:-0.205957 22:-0.379725 23:-0.633719 24:0.321846 25:-0.246776 26:-0.320729 27:-0.107816 28:-0.642972 29:0.41961 
1 1:-0.309132 2:0.246285 3:0.310508 4:-0.0279748 5:0.375434 6:0.120178 7:0.297134 8:-0.0757701 9:-0.249241 10:0.357338 11:0.219936 12:0.0306652 13:-0.356819 14:0.116784 15:-0.0730085 16:0.273212 17:0.125385 18:0.0616618 19:-0.632068 20:0.20335 21:-0.123742 22:-0.189332 23:-0.35085 24:-0.573056 25:0.047303 26:0.13574 27:-0.51443 28:-0.116602 29:-0.156294 
1 1:0.0371234 2:0.679804 3:0.0468154 4:0.104399 5:0.469858 6:0.00527249 7:0.259993 8:0.125249 9:-0.228575 10:0.196403 11:-0.10538 12:0.352896 13:-0.183143 14:-0.0204301 15:-0.2559 16:0.0294857 17:0.0425618 18:0.328528 19:-0.136809 20:-0.37984 21:-0.381571 22:-0.376778 23:0.0786737 24:0.441618 25:-0.243938 26:-0.0946284 27:-0.105529 28:0.305295 29:-0.187094 
1 1:0.0930365 2:0.718652 3:0.352681 4:0.212649 5:0.218194 6:-0.182801 7:0.236427 8:-0.0638681 9:-0.446163 10:-0.0999922 11:-0.148943 12:-0.110824 13:0.167909 14:-0.311201 15:0.0724005 16:-0.0214414 17:0.12129 18:0.187479 19:0.0781713 20:0.467996 21:-0.275006 22:-0.0428311 23:-0.247077 24:0.0191516 25:0.53235 26:0.509892 27:0.185619 28:-0.802472 29:-0.6502 
1 1:0.0377397 2:0.136292 3:-0.0988942 4:0.601527 5:-0.37033 6:0.22562 7:0.0445127 8:-0.304123 9:-0.483611 10:-0.244662 11:-0.528239 12:0.207379 13:0.213207 14:-0.416577 15:-0.20738 16:0.144617 17:-0.0931929 18:-0.352264 19:-0.632219 20:-0.221358 21:-0.526473 22:0.167636 23:-0.499013 24:0.364419 25:0.177297 26:-0.332517 27:-0.043267 28:-0.0880494 29:-0.320648 
1 1:0.254826 2:0.248107 3:0.569401 4:0.415879 5:0.446335 6:0.316296 7:-0.0254728 8:-0.133276 9:-0.0868255 10:0.439792 11:0.494942 12:0.259507 13:0.0238252 14:-0.00302184 15:0.188835 16:0.528025 17:0.502295 18:0.0211966 19:-0.403889 20:-0.279224 21:0.067263 22:0.0606496 23:0.363579 24:0.496768 25:0.464269 26:-0.175434 27:0.303022 28:-0.0260847 29:0.156614 
1 1:0.085461 2:0.559698 3:0.309589 4:-0.709945 5:-0.480597 6:-0.249399 7:-1 8:1 9:-0.885349 10:-1 11:-0.225014 12:-0.527844 13:-0.0621826 14:0.380488 15:0.179928 16:0.283569 17:0.740317 18:0.0417085 19:-0.215242 20:-0.137149 21:-0.0334506 22:0.503753 23:-0.089363 24:0.0435696 25:-0.739856 26:-0.549118 27:-0.043267 28:-0.0880494 29:0.297944 
1 1:-0.359104 2:0.494521 3:0.283527 4:0.651632 5:0.00512258 6:0.0774511 7:-0.304232 8:0.344952 9:-0.493137 10:-0.526323 11:-0.0359864 12:-0.331944 13:0.197997 14:-0.383757 15:-0.0289618 16:-0.0544487 17:-0.138276 18:-0.123164 19:-0.786902 20:-0.248718 21:-0.0153606 22:-0.776584 23:-0.321781 24:0.0435696 25:-0.284975 26:-0.701062 27:-0.0493655 28:-0.276671 29:-0.501242 
1 1:0.143311 2:0.18559 3:0.158493 4:0.158398 5:-0.0334242 6:0.115413 7:0.16639 8:-0.0399678 9:-0.61527 10:0.119413 11:0.445366 12:-0.27067 13:-0.0468699 14:-0.14139 15:0.162946 16:0.810347 17:-0.0666633 18:0.357641 19:-0.238617 20:-0.516954 21:0.128797 22:0.106899 23:0.458437 24:0.0435696 25:0.0790734 26:-0.594899 27:-0.043267 28:-0.552917 29:-0.368372 
1 1:0.569248 2:0.163262 3:-0.0608552 4:0.550951 5:-0.497683 6:-0.19807 7:0.409398 8:-0.303077 9:-0.883535 10:0.154104 11:0.302102 12:-0.232035 13:0.212333 14:-0.0822797 15:0.155396 16:0.95674 17:-0.0500718 18:0.148525 19:-0.518494 20:-0.716896 21:0.167941 22:-0.377769 23:0.225977 24:-0.189477 25:0.443048 26:0.0359282 27:-0.383477 28:-0.641611 29:0.156614 
1 1:0.100372 2:-0.173184 3:-0.236312 4:0.670082 5:-0.776731 6:-0.27479 7:-0.36507 8:0.404807 9:-0.591478 10:-0.0860527 11:1 12:-0.965087 13:-0.723682 14:1 15:0.591131 16:0.357071 17:0.0201309 18:0.272408 19:-0.396106 20:-0.608818 21:0.627479 22:-0.404862 23:0.484985 24:-0.429189 25:0.183721 26:-0.46769 27:-0.68168 28:-0.411938 29:0.442519 
1 1:0.58744 2:0.270939 3:0.355552 4:-0.0682839 5:0.0482285 6:0.000752862 7:0.0250807 8:-0.2606 9:-0.621361 10:0.455366 11:0.172045 12:0.0765569 13:0.155725 14:0.0448615 15:0.767632 16:0.527327 17:0.375095 18:0.233435 19:-0.414785 20:0.812421 21:0.0534609 22:0.0606496 23:0.0391201 24:0.117573 25:0.390229 26:0.65096 27:0.0749216 28:-0.43125 29:-0.23097 
1 1:-0.0699298 2:-0.0641497 3:0.0554441 4:0.335304 5:-0.0238044 6:-0.243761 7:-0.154764 8:-0.368937 9:-0.762841 10:0.0822367 11:0.434139 12:0.177586 13:-0.472748 14:-0.307896 15:-0.0972828 16:0.321195 17:-0.00666858 18:-0.0577881 19:-0.304758 20:-0.15335 21:0.399313 22:0.0606496 23:-0.00635544 24:-0.921435 25:-0.73774 26:-0.14244 27:-0.780626 28:-0.749178 29:0.156614 
1 1:0.348846 2:0.255723 3:0.0777884 4:0.643945 5:-0.0230066 6:0.152876 7:0.437286 8:0.131882 9:-0.5329 10:0.0397263 11:0.0797099 12:0.00188034 13:0.332825 14:-0.205203 15:0.292032 16:0.134758 17:-0.249086 18:0.283319 19:-0.181472 20:-0.824089 21:-0.840686 22:0.0874424 23:-0.00104439 24:0.0707795 25:-0.418578 26:-0.563914 27:-0.800616 28:-0.021531 29:-0.165415 
1 1:-0.340725 2:0.529005 3:-0.0438965 4:0.299325 5:0.0356287 6:-0.0700013 7:0.102001 8:-0.0700715 9:-0.702368 10:-0.185388 11:0.00644702 12:-0.30147 13:-0.239741 14:-0.0254362 15:-0.35095 16:0.138852 17:-0.91228 18:0.171215 19:-0.115059 20:-0.385147 21:0.0133551 22:0.259865 23:0.12109 24:0.432549 25:0.676332 26:-0.679915 27:-0.389638 28:0.0984354 29:-0.474775 
1 1:0.678974 2:0.0990503 3:0.478183 4:-0.151724 5:0.32849 6:0.13611 7:-0.124452 8:-0.139804 9:-0.0472165 10:0.283906 11:0.0259528 12:0.161741 13:-0.0190937 14:-0.0636041 15:0.490785 16:0.454266 17:0.091464 18:0.219009 19:-0.12578 20:-0.219271 21:0.220982 22:0.0606496 23:-0.440257 24:0.236462 25:0.158992 26:-0.0561891 27:-0.173058 28:-0.349799 29:0.156614 
1 1:0.0106898 2:-0.147667 3:0.376236 4:0.38897 5:0.438139 6:-0.0515699 7:0.159497 8:0.283698 9:-0.701589 10:-0.404526 11:0.261149 12:-0.235923 13:0.0313261 14:-0.574143 15:0.0297069 16:0.129175 17:-0.124235 18:0.613283 19:-0.172208 20:-0.279166 21:0.0887811 22:0.304457 23:0.469488 24:-0.283778 25:-0.133101 26:-0.284724 27:0.0454289 28:-0.457694 29:0.110183 
1 1:0.0853828 2:0.260584 3:0.0756208 4:-0.0439494 5:-0.0308451 6:0.292644 7:-0.077036 8:0.31141 9:-0.441258 10:-0.111766 11:0.109094 12:0.0678589 13:0.0274437 14:0.0411044 15:-0.423338 16:-0.000550686 17:0.181747 18:-0.425096 19:-0.463777 20:-0.244002 21:-0.00859658 22:-0.296468 23:-0.321728 24:0.255843 25:0.177297 26:-0.175434 27:-0.320388 28:-0.0879971 29:0.663933 
1 1:-0.172794 2:0.139534 3:0.0342112 4:0.276718 5:-0.308551 6:0.0221132 7:-0.210146 8:-0.361261 9:-0.544596 10:-0.594111 11:-0.588906 12:-0.0969661 13:0.054205 14:-0.432781 15:-0.401109 16:-0.278084 17:0.0442226 18:-0.400055 19:-0.679433 20:-0.029634 21:0.0227412 22:0.212474 23:-0.295689 24:-0.644528 25:0.0700071 26:-0.245381 27:-0.569042 28:-0.0880494 29:0.156614 
1 1:0.287898 2:0.286677 3:-0.0802583 4:-0.101241 5:-0.0128834 6:0.562487 7:0.465388 8:0.606566 9:0.00666841 10:0.125604 11:0.026602 12:0.164365 13:0.169791 14:-0.0670403 15:0.23437 16:0.484682 17:-0.165776 18:0.376155 19:-0.171741 20:-0.446759 21:0.00507322 22:-0.0714886 23:-0.563386 24:-0.665575 25:-0.495129 26:-0.613821 27:0.335645 28:0.345759 29:-0.392055 
1 1:0.361476 2:0.704819 3:-0.251624 4:0.299924 5:-0.317392 6:0.366845 7:-0.187313 8:0.276562 9:-0.336165 10:-0.00520682 11:-0.174391 12:-0.0268137 13:-0.228664 14:-0.163065 15:-0.077708 16:-0.274441 17:0.155567 18:-0.718859 19:-0.273202 20:0.00757419 21:-0.680724 22:-0.370494 23:-0.479175 24:-0.182089 25:-0.237887 26:0.00238985 27:-0.215692 28:-0.0880494 29:-0.182156 
1 1:0.321937 2:0.0220046 3:-0.124493 4:-0.121668 5:-0.23279 6:0.809251 7:0.325194 8:-0.52791 9:-0.51235 10:0.317959 11:0.372282 12:0.127786 13:-0.242209 14:-0.150915 15:0.0487279 16:0.168991 17:0.638349 18:0.106696 19:-0.295494 20:-0.278493 21:0.530511 22:-0.161414 23:-0.0488411 24:0.0302456 25:-0.0365466 26:-0.407921 27:-0.126355 28:-0.739602 29:-0.5792 
1 1:0.665606 2:0.618136 3:0.227454 4:0.172096 5:-0.353442 6:0.0148407 7:-0.213904 8:0.338969 9:-0.361356 10:0.088998 11:-0.056052 12:-0.355543 13:-0.135798 14:-0.0125294 15:0.245134 16:0.476555 17:-0.94505 18:0.143265 19:-0.311055 20:-0.621819 21:-0.246036 22:0.218835 23:-0.66702 24:-0.451405 25:-0.636018 26:-0.175434 27:0.179981 28:0.184068 29:-0.22635 
1 1:-0.275155 2:0.705385 3:-0.193407 4:0.508824 5:-0.602468 6:-0.151084 7:-0.272658 8:0.0175711 9:-0.370467 10:-0.303829 11:-0.195871 12:0.0490014 13:0.39282 14:-0.0163314 15:-0.0983426 16:-0.381815 17:0.11545 18:-0.623984 19:-0.179473 20:0.228772 21:-0.00866071 22:-0.0222806 23:-0.528529 24:0.472657 25:0.0974361 26:-0.227499 27:0.00741909 28:-0.291127 29:-0.0727264 
1 1:0.292118 2:0.503102 3:-0.0557294 4:0.184598 5:0.0244871 6:0.0394978 7:-0.128515 8:-0.396057 9:-0.351733 10:0.332552 11:-0.111497 12:0.709201 13:0.343653 14:-0.105824 15:0.0417692 16:0.309201 17:-0.0332629 18:-0.0100245 19:-0.186544 20:0.912118 21:0.397561 22:0.209413 23:-0.512416 24:0.0631253 25:0.0288683 26:0.821637 27:-0.529286 28:-0.523823 29:0.225814 
1 1:-0.260519 2:0.830118 3:-0.0225284 4:0.362565 5:0.230213 6:0.11413 7:0.692544 8:0.176136 9:-0.316928 10:0.505938 11:0.414776 12:0.28627 13:0.284785 14:0.334787 15:-0.12847 16:0.486572 17:0.0335631 18:0.0494201 19:-0.298617 20:0.0818656 21:0.482588 22:0.306128 23:0.200888 24:0.46896 25:-0.0410144 26:-0.0213183 27:-0.043267 28:0.542018 29:0.156614 
1 1:0.13734 2:0.491297 3:-0.294601 4:-0.025855 5:-0.102692 6:0.139148 7:0.375021 8:0.128542 9:-0.303542 10:0.406887 11:0.171341 12:0.245635 13:0.0662025 14:-0.262937 15:0.391761 16:0.37315 17:-0.302945 18:0.294294 19:-0.110161 20:-0.0881812 21:-0.0433071 22:-0.243229 23:-0.350569 24:-0.26504 25:0.138161 26:-0.0488902 27:0.275283 28:-0.299479 29:0.314991 
1 1:0.11562 2:0.189248 3:0.515372 4:0.432195 5:0.74936 6:-0.389094 7:0.395671 8:-0.000548613 9:-0.399759 10:0.183726 11:0.0650256 12:0.313377 13:0.00864895 14:-0.0803641 15:-0.270983 16:0.398629 17:-0.925069 18:0.311536 19:-0.457223 20:-0.73113 21:0.147522 22:-0.758913 23:-0.19201 24:0.299508 25:0.277223 26:-0.689967 27:-0.679242 28:0.087295 29:0.156614 
1 1:-0.145286 2:0.610061 3:0.0969385 4:-0.0556415 5:0.271008 6:0.337826 7:-0.11723 8:0.074191 9:-0.443442 10:0.0744907 11:-0.436763 12:-0.0666598 13:-0.0402106 14:-0.0275031 15:0.00051125 16:0.0744216 17:-0.0593577 18:-0.00173639 19:-0.766714 20:0.300359 21:-0.265945 22:-0.0322031 23:-0.535558 24:0.0998275 25:-0.256088 26:0.121701 27:-0.188228 28:0.124569 29:0.156614 
1 1:0.438962 2:0.207916 3:0.101274 4:0.395739 5:-0.296237 6:0.325346 7:0.369173 8:-0.133822 9:-0.308248 10:0.00835144 11:0.465301 12:0.0756169 13:-0.0778322 14:0.266512 15:-0.29478 16:0.742718 17:0.384485 18:0.318188 19:-0.320702 20:-0.41805 21:0.690437 22:0.0606496 23:0.512112 24:0.471741 25:0.0381184 26:-0.490421 27:-0.043267 28:-0.0432309 29:0.207229 
1 1:0.544483 2:0.174287 3:0.758077 4:0.198012 5:0.609153 6:-0.101494 7:-0.434344 8:-0.466988 9:-0.474593 10:0.147259 11:0.0111489 12:-0.28732 13:0.0316936 14:-0.718012 15:-0.251841 16:0.297644 17:-0.329209 18:-0.231902 19:-0.372688 20:-0.836498 21:-0.0713398 22:-0.221818 23:-0.317593 24:0.412328 25:0.307704 26:-0.801272 27:-0.3775 28:-0.533105 29:0.156614 
1 1:0.329774 2:0.114351 3:0.0704326 4:0.698511 5:-0.190227 6:-0.338616 7:-0.172852 8:0.322249 9:-0.174503 10:0.348346 11:0.134401 12:0.435071 13:0.390676 14:-0.580785 15:0.873295 16:1 17:-0.418986 18:0.563864 19:0.159987 20:-0.117746 21:-0.0407835 22:0.231913 23:0.374643 24:-0.720204 25:0.418717 26:-0.0679115 27:0.626972 28:-0.0342593 29:-0.434321 
1 1:0.21307 2:0.22231 3:-0.401532 4:0.541279 5:-0.301226 6:0.217797 7:-0.0358092 8:0.0671044 9:-0.0183201 10:0.0199879 11:0.108635 12:0.234631 13:-0.3104 14:-0.0901158 15:-0.0760634 16:0.507853 17:-0.24385 18:0.0582204 19:-0.284628 20:-0.0721856 21:0.176461 22:0.277799 23:-0.101412 24:0.401406 25:0.177297 26:0.0457778 27:-0.356211 28:0.183677 29:0.32724 
1 1:0.152863 2:0.57732 3:0.324385 4:0.262011 5:-0.366353 6:0.334201 7:-0.553994 8:0.0632788 9:-0.357084 10:-0.583112 11:-0.490272 12:0.0780824 13:0.906812 14:0.178098 15:-0.500102 16:0.0704736 17:0.143806 18:-0.181815 19:-0.408587 20:-0.407553 21:-0.421324 22:0.405967 23:-0.321781 24:0.126926 25:0.177297 26:-0.479332 27:-0.141714 28:-0.424842 29:0.156614 
1 1:-1 2:-0.333768 3:0.0368208 4:-0.391026 5:-0.959853 6:0.0748256 7:-0.415797 8:0.875849 9:0.0369371 10:0.424781 11:-0.597881 12:-0.330987 13:0.364528 14:-0.41719 15:0.325369 16:-0.309987 17:-0.270486 18:0.418338 19:0.803956 20:-0.269219 21:-0.00866071 22:0.375487 23:-0.321781 24:0.0435696 25:0.177297 26:-0.175434 27:0.201045 28:0.628052 29:0.156614 
1 1:0.246744 2:0.534667 3:-0.209874 4:-0.0218005 5:0.0127377 6:0.431668 7:0.147924 8:0.296937 9:-0.26341 10:0.206661 11:-0.0662341 12:-0.142395 13:0.172533 14:-0.0660594 15:0.25554 16:-0.394113 17:0.000671285 18:-0.247984 19:-0.23534 20:0.135303 21:0.0349172 22:-0.036481 23:-0.791603 24:0.212263 25:0.177297 26:0.153102 27:-0.118639 28:-0.301007 29:-0.364547 
1 1:0.551623 2:0.0622732 3:-0.0487863 4:-0.087485 5:-0.38211 6:-0.151109 7:0.161702 8:0.291674 9:-0.267417 10:-0.173961 11:0.637235 12:0.456634 13:0.0203716 14:0.241201 15:0.735549 16:0.550178 17:0.00710516 18:0.133288 19:-0.416852 20:0.00972327 21:0.533479 22:0.587693 23:-0.476613 24:0.0435696 25:0.168015 26:-0.181485 27:0.111393 28:0.0506212 29:0.313219 
1 1:0.471929 2:0.0822131 3:0.499282 4:0.16906 5:0.13422 6:0.331952 7:-0.103174 8:-0.232472 9:-0.809916 10:0.238659 11:0.200407 12:-0.146385 13:0.490234 14:-0.0498873 15:0.372063 16:0.359239 17:0.237288 18:0.0228909 19:-0.16182 20:0.0832357 21:-0.0569991 22:0.00394764 23:-0.256935 24:0.253321 25:0.19919 26:0.0391146 27:-0.803765 28:-0.769924 29:-0.33278 
1 1:0.490008 2:0.77131 3:0.774079 4:0.289831 5:0.580371 6:0.489257 7:0.188941 8:0.156887 9:-0.183455 10:0.0361531 11:-0.32428 12:0.497493 13:-0.116876 14:-0.155281 15:0.270155 16:0.0375308 17:0.120712 18:-0.00947016 19:-0.0390101 20:-0.642446 21:-0.275623 22:0.0606496 23:0.00542628 24:-0.0622575 25:-0.468229 26:-0.820536 27:-0.197037 28:-0.554453 29:-0.370107 
1 1:0.394322 2:0.312808 3:0.0320742 4:0.181925 5:0.0894599 6:0.411393 7:-0.0685696 8:0.171926 9:-0.000741122 10:0.473606 11:0.132361 12:0.225625 13:-0.144614 14:-0.208517 15:0.0935171 16:0.391507 17:0.190372 18:0.0931471 19:-0.573203 20:-0.0855419 21:0.00061046 22:0.201032 23:-0.623362 24:0.54889 25:-0.433906 26:0.0988453 27:-0.535789 28:0.277533 29:0.415816 
1 1:0.67468 2:0.359116 3:-0.393738 4:0.191482 5:-0.427927 6:0.387123 7:-0.133002 8:-0.109598 9:-0.342615 10:-0.157601 11:-0.164348 12:0.0967792 13:0.0974232 14:0.194872 15:-0.066406 16:0.300888 17:-0.176136 18:-0.266337 19:-0.19024 20:-0.317786 21:-0.212464 22:-0.0634229 23:-0.321781 24:-0.199215 25:-0.740855 26:-0.325521 27:-0.043267 28:-0.0880494 29:0.0591245 
1 1:0.0180009 2:0.414691 3:0.202286 4:0.2585 5:0.112783 6:-0.191714 7:0.19395 8:0.232487 9:-0.595236 10:0.102292 11:0.20599 12:0.917144 13:-0.303148 14:0.182984 15:0.29243 16:0.791937 17:-0.255976 18:0.216235 19:-0.0481998 20:0.0593908 21:0.26505 22:0.436009 23:0.31994 24:0.23811 25:-0.0587022 26:-0.164028 27:-0.043267 28:0.0452315 29:-0.200127 
1 1:0.19536 2:0.401596 3:0.362325 4:0.148122 5:0.415674 6:0.155244 7:-0.241212 8:0.140822 9:-0.545949 10:-0.122784 11:-0.219695 12:-0.196249 13:0.212911 14:-0.299672 15:0.358617 16:-0.217676 17:-0.47065 18:0.134124 19:-0.251476 20:-0.180704 21:-0.22231 22:-0.189963 23:-0.499302 24:-0.210945 25:0.279931 26:-0.175434 27:-0.043267 28:-0.0138946 29:0.156614 
1 1:0.087738 2:-1 3:-0.601762 4:0.24232 5:-0.818077 6:0.243547 7:-0.227002 8:0.191737 9:-0.887132 10:-0.304333 11:-0.0316816 12:-0.658984 13:0.0610482 14:-0.650876 15:0.365678 16:0.671903 17:-0.00322936 18:0.621029 19:-0.0239336 20:-0.516963 21:-0.0956288 22:0.464076 23:0.952489 24:-0.272229 25:0.332553 26:-0.23948 27:-0.284568 28:-0.552928 29:0.156614 
1 1:0.383268 2:0.584143 3:0.0173831 4:0.119631 5:-0.0821649 6:-0.0626172 7:-0.301948 8:-0.433336 9:-0.423457 10:-0.0865311 11:-0.297028 12:0.276799 13:0.401945 14:-0.188137 15:-0.0642258 16:0.264014 17:0.140429 18:-0.138669 19:-0.217348 20:0.247359 21:0.251811 22:0.00899376 23:0.0426491 24:-0.00889039 25:0.127553 26:-0.300936 27:-0.043267 28:-0.621037 29:0.156614 
1 1:-0.113819 2:0.580514 3:-0.723868 4:-0.0852078 5:-0.490313 6:-0.888471 7:-0.659349 8:-0.131793 9:-0.251823 10:-0.135791 11:-0.469743 12:0.191362 13:-0.239336 14:-0.458573 15:-0.0865726 16:-0.627303 17:0.0559548 18:-0.181815 19:-0.710396 20:-0.125318 21:-0.6255 22:-0.662909 23:-0.328278 24:0.0435696 25:-0.519477 26:-0.175434 27:-0.327565 28:-0.0880494 29:0.156614 
1 1:0.288136 2:0.351304 3:0.0697573 4:-0.0680253 5:0.00305862 6:-0.147506 7:-0.0708664 8:-0.231442 9:-0.492874 10:0.401089 11:0.278717 12:-0.0602431 13:-0.0898038 14:-0.0187414 15:0.56888 16:0.909446 17:0.338407 18:0.51686 19:-0.572164 20:0.1532 21:0.336745 22:0.108621 23:0.247449 24:-0.119909 25:-0.321686 26:0.210113 27:-0.00604113 28:-0.448573 29:-0.250533 
0.6424716395756331 1:-0.0518814 2:0.107002 3:0.354789 4:0.578299 5:-0.0627251 6:0.241174 7:0.782038 8:0.21045 9:-0.56259 10:0.386023 11:0.262132 12:0.0159584 13:0.256924 14:-0.517562 15:1 16:0.259131 17:0.360876 18:0.0224876 19:0.113731 20:-0.292345 21:-0.057504 22:0.257139 23:0.328468 24:0.756427 25:0.393343 26:-0.314431 27:1 28:-0.289969 29:-0.207661 
1 1:-0.0618193 2:0.225463 3:0.0455829 4:-0.116743 5:-0.0141943 6:0.284544 7:-0.346336 8:0.311681 9:-0.249226 10:0.180685 11:0.0817552 12:-0.0435754 13:0.197815 14:-0.262215 15:0.36619 16:-0.166834 17:-0.138476 18:-0.509008 19:-0.22889 20:-0.405315 21:-0.113605 22:-0.0624509 23:-0.915011 24:-0.0814473 25:-0.629186 26:-0.34579 27:-0.253832 28:-0.0880494 29:0.156614 
1 1:0.238137 2:0.464924 3:-0.523899 4:-0.0800267 5:-0.321871 6:0.106886 7:-0.311575 8:-0.0939969 9:-0.322013 10:0.242159 11:-0.144479 12:0.0803104 13:0.122494 14:0.190762 15:-0.40692 16:-0.286407 17:0.154953 18:-0.305608 19:-0.6859 20:-0.315973 21:0.0145489 22:-0.478261 23:-0.302496 24:-0.866483 25:0.00230501 26:-0.0652689 27:-0.461458 28:0.0762702 29:0.240424 
1 1:0.247044 2:0.127581 3:0.445689 4:0.469873 5:0.0696578 6:0.387519 7:0.455144 8:-0.332454 9:-0.551563 10:-0.0879835 11:0.183679 12:0.297596 13:-0.0721628 14:-0.0542389 15:0.0106752 16:0.513426 17:0.164314 18:0.110706 19:-0.415234 20:-0.289242 21:0.052893 22:0.0606496 23:-0.270636 24:0.116897 25:0.104067 26:-0.578605 27:-0.541596 28:-0.0880494 29:-0.0673158 
1 1:-0.336953 2:0.464677 3:-0.0810459 4:-0.104031 5:-0.301324 6:-0.274123 7:0.169734 8:0.138171 9:-0.664068 10:0.223416 11:-0.0061465 12:0.241383 13:0.155386 14:0.0349611 15:-0.140065 16:0.467546 17:-0.391827 18:-0.0419779 19:0.0740902 20:-0.0153768 21:-0.00866071 22:0.171964 23:-0.071369 24:0.0435696 25:0.173758 26:0.00330872 27:0.177662 28:-0.0106003 29:-0.407601 
1 1:-0.426587 2:0.218319 3:-0.0671671 4:-0.618221 5:-0.577294 6:0.0865877 7:-0.0561041 8:0.133943 9:-0.715988 10:-0.375604 11:0.273265 12:-0.404719 13:-0.0985396 14:-0.00057226 15:-0.381518 16:0.50059 17:-0.500481 18:-0.235645 19:-0.22315 20:-0.243798 21:-0.00830326 22:-0.584506 23:-0.156498 24:-0.974382 25:-0.443976 26:-0.449294 27:-0.821083 28:-0.536929 29:0.516224 
1 1:0.314108 2:0.136797 3:-0.280735 4:0.366014 5:-0.421285 6:-0.0161443 7:0.11684 8:0.11211 9:-0.423707 10:0.28638 11:-0.160679 12:-0.135258 13:0.114067 14:-0.323114 15:0.622999 16:0.364848 17:-0.100353 18:0.227913 19:-0.179845 20:-0.205556 21:0.368994 22:-0.0228348 23:-0.275906 24:-0.828361 25:-0.104306 26:-0.134774 27:-0.709508 28:-0.236242 29:0.0433249 
1 1:0.430472 2:-0.470317 3:-0.737583 4:0.191974 5:-0.669908 6:0.21106 7:-0.373703 8:-0.344697 9:-0.642114 10:0.257445 11:0.339162 12:-0.283358 13:-0.0730478 14:-0.275749 15:-0.12284 16:0.234696 17:0.00805454 18:0.0557622 19:-0.399918 20:-0.538325 21:-0.0676082 22:0.0606496 23:0.393947 24:-0.0965354 25:-0.122525 26:-0.891597 27:-0.0969238 28:-0.487829 29:-0.739708 
1 1:0.186987 2:0.173084 3:0.300744 4:-0.592485 5:0.176137 6:0.757887 7:0.0460121 8:0.197574 9:0.114759 10:0.429502 11:0.349002 12:0.227247 13:-0.270614 14:-0.305539 15:0.254749 16:0.31617 17:0.323732 18:0.0673507 19:-0.117897 20:-1 21:0.176764 22:0.21746 23:-0.716737 24:0.264461 25:-0.0156681 26:-0.175434 27:-0.75312 28:-0.475993 29:0.0895169 
1 1:0.39335 2:0.525339 3:-0.154325 4:0.46654 5:-0.0616032 6:-0.0336874 7:-0.549145 8:0.435332 9:0.0466636 10:0.0744856 11:0.0412739 12:-0.0678364 13:-0.279129 14:-0.211475 15:0.429957 16:-0.184302 17:0.0948923 18:0.0963697 19:-0.098009 20:0.0278356 21:-0.367587 22:-0.360374 23:-0.366996 24:-0.746762 25:0.177297 26:-0.30858 27:0.311724 28:-0.0880494 29:0.333054 
1 1:0.0551536 2:0.662064 3:-0.241204 4:-0.383322 5:-0.233287 6:0.0986788 7:-0.488846 8:0.292589 9:-0.452861 10:-0.302805 11:0.0950127 12:-0.0429475 13:-0.225214 14:0.122588 15:0.324332 16:0.270585 17:0.0125498 18:0.132489 19:-0.199629 20:-0.0709854 21:-0.35074 22:-0.340612 23:0.246456 24:0.14937 25:-0.75429 26:-0.262087 27:-0.354644 28:-0.264089 29:0.328826 
1 1:0.404657 2:0.28545 3:-0.223664 4:0.211878 5:-0.177784 6:-0.467095 7:0.280342 8:0.206977 9:-0.658628 10:0.493051 11:-0.015501 12:-0.264003 13:-0.00322968 14:-0.161347 15:0.763493 16:0.855345 17:-0.170137 18:0.28945 19:-0.169052 20:0.10087 21:0.224831 22:0.395234 23:0.224505 24:-0.191587 25:-0.0456837 26:-0.0466833 27:-0.662268 28:-0.394534 29:-0.0253276 
1 1:-0.0977929 2:-0.00839371 3:0.501592 4:0.0442391 5:0.518189 6:-0.0612078 7:0.329685 8:0.435886 9:-0.681817 10:-0.0426371 11:0.0203881 12:0.0400123 13:0.769947 14:-0.21664 15:0.497564 16:0.146946 17:-0.0264251 18:0.255918 19:-0.0313798 20:0.019722 21:-0.39234 22:0.561781 23:-0.0530946 24:0.0998124 25:0.471558 26:-0.589166 27:-0.277471 28:-0.00728681 29:-0.0805339 
0.2998788171726638 1:0.175006 2:0.277242 3:-0.0845235 4:-0.0333951 5:-0.0888375 6:0.558733 7:-0.106893 8:0.206042 9:-0.100631 10:-0.0800906 11:-0.0374418 12:0.459321 13:0.117171 14:-0.142715 15:-0.165637 16:-0.0692305 17:0.486295 18:-0.277131 19:-0.657767 20:-0.134681 21:-0.254324 22:-0.793652 23:-0.216617 24:0.476425 25:-0.30141 26:-0.175434 27:-0.429021 28:-0.682446 29:0.210853 
1 1:0.179636 2:0.724635 3:-0.0465755 4:0.255434 5:-0.0992542 6:0.255212 7:-0.0922706 8:0.434111 9:-0.0959031 10:-0.0383998 11:0.239371 12:-0.0522855 13:0.172876 14:0.0786066 15:0.28294 16:0.585471 17:0.302068 18:0.0262157 19:-0.779949 20:0.0380517 21:-0.230966 22:0.366021 23:-0.654498 24:0.353695 25:-0.275025 26:0.016283 27:-0.684938 28:-0.0863286 29:0.348868 
1 1:0.0500582 2:0.561451 3:0.447571 4:-0.539448 5:0.177733 6:-0.0892513 7:0.259633 8:0.336701 9:-0.230566 10:0.467717 11:0.12944 12:0.155857 13:0.203975 14:-0.0803532 15:0.631905 16:0.354709 17:0.0901248 18:0.441989 19:0.262891 20:0.163785 21:0.162954 22:0.550337 23:-0.432203 24:-0.477496 25:0.228391 26:0.1752 27:-0.164234 28:-0.116504 29:-0.527201 
1 1:0.0812227 2:0.549847 3:-0.205295 4:0.26424 5:-0.153209 6:-0.244856 7:-0.49197 8:-0.0591775 9:-0.197575 10:0.0081182 11:-0.70154 12:0.102832 13:-0.326547 14:-0.256612 15:-0.20738 16:0.318429 17:-0.114762 18:-0.613994 19:-0.650394 20:0.0157749 21:0.0595233 22:0.0606496 23:-0.771158 24:0.549189 25:0.177297 26:-0.573722 27:-0.258381 28:-0.280925 29:0.156614 
1 1:0.360527 2:0.148616 3:0.271065 4:0.422272 5:-0.173185 6:-0.168824 7:0.0795833 8:-0.300121 9:-0.35368 10:0.352128 11:0.58339 12:0.10162 13:0.00092566 14:-0.213582 15:-0.355715 16:0.376867 17:-0.299517 18:0.249544 19:-0.388517 20:-0.602117 21:0.332582 22:-0.541836 23:-0.161065 24:-0.205542 25:0.285054 26:-0.198254 27:0.0435663 28:-0.258716 29:-0.316788 
0.630310579815877 1:0.0145688 2:0.521025 3:0.348448 4:0.0894143 5:0.321737 6:-0.0149082 7:0.804364 8:0.211675 9:-0.391601 10:0.370363 11:0.150643 12:0.595927 13:0.537666 14:0.232596 15:0.237975 16:0.537646 17:-0.177817 18:0.0523334 19:0.180062 20:-0.23093 21:0.482918 22:0.176674 23:0.234675 24:0.161401 25:0.709493 26:-0.292755 27:0.578269 28:-0.0495532 29:-0.361238 
0.05874646395705232 1:-0.0630682 2:0.0855927 3:0.0093477 4:0.350359 5:-0.0180181 6:-0.236384 7:0.533165 8:-0.0423427 9:-0.405681 10:0.209909 11:-0.0187489 12:0.270264 13:0.342857 14:0.0359783 15:0.387984 16:0.23335 17:0.230558 18:0.265609 19:0.118817 20:-0.314356 21:-0.235897 22:0.151292 23:-0.00455868 24:0.648933 25:0.836594 26:-0.177512 27:0.088714 28:0.158171 29:0.156614 
1 1:0.469813 2:0.306645 3:0.428684 4:0.383347 5:0.289045 6:0.10288 7:-0.330799 8:-0.0399763 9:-0.426808 10:-0.0357745 11:0.224096 12:-0.175455 13:-0.116037 14:-0.292743 15:0.324479 16:0.352171 17:-0.175489 18:0.163827 19:-0.189695 20:-0.137286 21:-0.113743 22:0.110778 23:-0.0895262 24:-0.561145 25:0.225569 26:-0.418085 27:0.350451 28:-0.502342 29:0.133585 
0.4156183154378742 1:0.0298774 2:0.567874 3:0.351422 4:0.338773 5:0.231114 6:0.0568495 7:0.356394 8:0.00527598 9:-0.662695 10:0.129978 11:-0.0564538 12:0.0951102 13:0.0934563 14:-0.0971933 15:0.216207 16:0.0844986 17:0.11081 18:0.20984 19:0.0831015 20:0.337672 21:0.128977 22:-0.533531 23:-0.0501714 24:-0.197109 25:0.369547 26:0.174154 27:-0.504347 28:0.178738 29:-0.47444 
1 1:0.125317 2:0.171514 3:0.605938 4:0.340391 5:0.353822 6:0.148655 7:0.0154095 8:0.217591 9:-0.74031 10:0.189342 11:0.00140338 12:-0.405258 13:-0.206293 14:-0.532562 15:0.544077 16:0.461491 17:-0.121323 18:0.689179 19:-0.0908739 20:-0.133053 21:-0.4764 22:0.226371 23:-0.175176 24:0.0613153 25:0.194123 26:0.0597868 27:-0.226642 28:-0.075892 29:-1 
1 1:-0.302635 2:0.236545 3:-0.479326 4:0.252541 5:-0.710054 6:0.0200062 7:-0.090959 8:0.120731 9:-0.578588 10:-0.679412 11:-0.112325 12:0.468668 13:-0.0235191 14:-0.061509 15:-0.153013 16:0.287026 17:1 18:-0.299897 19:-0.721107 20:-0.347064 21:-0.0300474 22:-0.32163 23:-0.845583 24:0.497626 25:-0.534801 26:-0.175434 27:-0.339913 28:-0.602551 29:0.227256 
1 1:0.0551844 2:0.194695 3:0.23936 4:0.115124 5:0.0811973 6:0.258894 7:-0.145197 8:0.259218 9:-0.172653 10:0.165596 11:0.0357532 12:0.408682 13:-0.299987 14:0.0673582 15:-0.0201866 16:0.0794914 17:0.143635 18:0.0893914 19:-0.277879 20:-0.696936 21:-0.658294 22:-0.344185 23:-0.52709 24:0.92187 25:0.332627 26:-0.175434 27:-0.357416 28:-0.618245 29:0.156614 
1 1:0.223584 2:0.148599 3:-0.0618356 4:-0.0999625 5:-0.0424368 6:-0.0355755 7:-0.0990983 8:0.27804 9:-0.423802 10:-0.00699161 11:0.0211734 12:-0.288067 13:-0.277746 14:-0.25306 15:0.187176 16:0.775421 17:-0.153068 18:0.141603 19:-0.124491 20:-0.192747 21:-0.239585 22:0.35591 23:0.055106 24:0.29789 25:-0.0835518 26:-0.345494 27:-0.807824 28:-0.196511 29:-0.056227 
1 1:0.0644774 2:-0.0511384 3:-0.137728 4:0.587928 5:-0.197119 6:-0.335304 7:0.0864454 8:-0.164507 9:-0.527344 10:0.231525 11:0.140332 12:0.180384 13:-0.6079 14:0.124162 15:-0.176711 16:0.514654 17:-0.0630968 18:-0.390599 19:-0.670091 20:0.229236 21:0.0345734 22:0.0606496 23:-0.791889 24:0.211854 25:0.177297 26:0.0374556 27:-0.558271 28:0.147883 29:0.196463 
1 1:0.154325 2:0.642947 3:0.158091 4:0.641297 5:0.392394 6:-0.0927909 7:0.243767 8:0.222933 9:-0.500766 10:0.16836 11:0.104581 12:0.0151039 13:0.374167 14:0.257474 15:0.31817 16:0.13336 17:-0.357187 18:0.331893 19:-0.0862713 20:-0.308562 21:0.203307 22:0.309289 23:-0.0893896 24:-0.27887 25:0.559492 26:-0.374763 27:-0.127503 28:0.188093 29:-0.373522 
1 1:0.173281 2:0.246267 3:-0.0258457 4:-0.448215 5:0.00512174 6:-0.314249 7:-0.128422 8:-0.0226273 9:0.00422135 10:0.162188 11:0.202016 12:-0.0892 13:-0.113107 14:-0.0496086 15:0.459875 16:0.631952 17:0.0275535 18:0.315726 19:-0.453084 20:-0.378505 21:-0.121434 22:0.0606496 23:0.277011 24:-0.302972 25:0.177297 26:-0.258484 27:-0.585237 28:-0.573989 29:-0.392169 
0.9520154237443251 1:0.309466 2:0.611348 3:-0.154492 4:-0.145181 5:0.0672431 6:0.156907 7:0.405913 8:0.328325 9:-0.405424 10:0.40927 11:0.270537 12:0.0547197 13:-0.244617 14:-0.245146 15:-0.0341425 16:0.300072 17:0.207795 18:0.560336 19:-0.193638 20:-0.0377174 21:0.197333 22:0.0693658 23:-0.185412 24:0.183945 25:-0.0920153 26:-0.0886548 27:-0.260285 28:-0.0341081 29:-0.343796 
0.2516535733705079 1:0.326843 2:-0.312956 3:0.286078 4:-0.0568143 5:0.219285 6:-0.52609 7:-0.464991 8:-0.103779 9:-0.548753 10:0.145054 11:0.0607659 12:-0.388205 13:-0.0335259 14:-0.723701 15:0.258772 16:0.176687 17:-0.337314 18:0.343316 19:-0.442749 20:-0.718348 21:0.322549 22:-0.023022 23:-0.299596 24:0.251467 25:-0.247247 26:-0.676466 27:-0.662554 28:-0.0880494 29:-0.470458 
1 1:0.437026 2:0.452714 3:0.257911 4:-0.198677 5:0.0760506 6:0.192642 7:-0.0279936 8:-0.275516 9:-0.270502 10:0.237761 11:0.123098 12:0.00911596 13:-0.263011 14:-0.150059 15:0.0617278 16:0.578012 17:0.0491281 18:-0.264333 19:-0.264105 20:0.356898 21:0.0662017 22:-0.774866 23:-0.32613 24:0.344948 25:-0.0821093 26:0.300049 27:-0.137263 28:-0.420851 29:-0.499891 
1 1:-0.178956 2:0.638249 3:0.401781 4:0.51757 5:0.290876 6:0.165668 7:0.575078 8:0.0564363 9:-0.554742 10:0.31251 11:0.297842 12:0.166211 13:0.101312 14:0.221798 15:0.101217 16:0.323472 17:-0.0225029 18:0.0477058 19:-0.336851 20:-0.084706 21:-0.0722325 22:0.249318 23:0.323926 24:0.268951 25:-0.186198 26:0.0518725 27:0.352728 28:-0.182164 29:-0.0661573 
1 1:0.326144 2:0.38501 3:0.215994 4:0.331404 5:0.171014 6:0.549697 7:0.393507 8:0.119186 9:-0.275692 10:0.425489 11:-0.0619737 12:0.526136 13:0.216317 14:-0.139458 15:-0.158991 16:-0.0239873 17:0.103665 18:-0.0859555 19:-0.65037 20:0.176049 21:-0.549463 22:-0.00758024 23:-0.623128 24:0.417703 25:0.188088 26:-0.168399 27:0.0188258 28:-0.384046 29:0.156614 
1 1:-0.191425 2:0.550639 3:-0.196757 4:0.0726806 5:-0.0986978 6:0.335839 7:-0.18086 8:0.129233 9:-0.416953 10:0.0925841 11:-0.0519914 12:-0.171805 13:-0.299812 14:-0.26356 15:0.108898 16:-0.208909 17:0.108013 18:-0.102313 19:-0.943466 20:0.0375992 21:-0.61622 22:-0.294831 23:-0.425579 24:0.162089 25:-0.165024 26:0.00669128 27:0.0472934 28:-0.583905 29:-0.403368 
1 1:0.275981 2:0.112361 3:0.514214 4:-0.0728808 5:-0.0758453 6:0.00761319 7:-0.0767902 8:-0.0821605 9:-0.626043 10:0.362654 11:0.348949 12:-0.129352 13:-0.0642991 14:-0.0206498 15:0.185173 16:0.366476 17:0.21217 18:0.260405 19:-0.297519 20:-0.447899 21:0.113845 22:-0.927925 23:-0.367997 24:0.189507 25:-0.0867409 26:-0.347573 27:-0.810395 28:-0.527346 29:0.156614 
1 1:0.789597 2:0.0206703 3:0.410881 4:-0.101941 5:0.0912563 6:0.159424 7:0.112026 8:-0.163962 9:-0.209628 10:0.343088 11:-0.139224 12:-0.758354 13:-0.239437 14:-0.564882 15:0.471705 16:0.00505252 17:-0.165999 18:0.275851 19:-0.0680513 20:-0.549976 21:0.102865 22:0.424387 23:-0.5384 24:0.0435696 25:0.226779 26:-0.175434 27:0.457546 28:0.379379 29:-0.247853 
1 1:0.0108521 2:0.674867 3:0.157325 4:0.176078 5:0.117733 6:0.194081 7:-0.135344 8:0.436986 9:-0.297505 10:0.115267 11:-0.0828789 12:0.232976 13:-0.13417 14:0.268772 15:0.0575984 16:0.197928 17:0.0436739 18:0.0526837 19:-0.409323 20:-0.0717351 21:-0.244129 22:-0.0673089 23:-0.665435 24:0.206489 25:-0.633864 26:-0.0747179 27:-0.257602 28:-0.0317025 29:-0.060415 
1 1:-0.0919916 2:0.799927 3:0.22115 4:-0.242153 5:0.516589 6:0.365292 7:-0.340656 8:0.391426 9:-0.360578 10:-0.0810409 11:-0.181484 12:0.133763 13:0.308914 14:-0.246334 15:-0.189538 16:-0.12524 17:0.0078658 18:-0.114839 19:-0.203576 20:-0.822478 21:-0.533865 22:-0.346477 23:-0.321781 24:-0.00714156 25:-0.0719976 26:-0.265769 27:0.399435 28:-0.765215 29:-0.327462 
1 1:-0.677461 2:0.110647 3:-0.469075 4:-0.0116933 5:-1 6:-0.377422 7:-0.972259 8:0.273282 9:1 10:0.230684 11:-0.0595926 12:-0.554066 13:0.615476 14:-0.438291 15:0.557615 16:-0.478867 17:-0.270486 18:0.17202 19:0.492388 20:-0.572218 21:-0.00866071 22:0.431801 23:-0.321781 24:0.0435696 25:0.177297 26:-0.175434 27:0.764308 28:0.636036 29:0.00340484 
1 1:0.470139 2:-0.00686542 3:0.331219 4:-0.69714 5:0.397592 6:-0.386154 7:0.329619 8:0.40609 9:-0.71961 10:0.180764 11:0.265039 12:-0.467893 13:0.285824 14:-0.0874495 15:0.493412 16:0.321969 17:-0.119813 18:0.393581 19:0.451658 20:0.245434 21:0.456673 22:0.60649 23:-0.645442 24:-0.208272 25:0.191989 26:0.0583959 27:0.968859 28:-0.405964 29:-0.483078 
1 1:0.222309 2:0.560756 3:0.0672153 4:-0.136552 5:-0.121984 6:0.163161 7:0.0747362 8:0.180061 9:-0.263555 10:0.302162 11:0.0228198 12:-0.349138 13:-0.439046 14:-0.318102 15:0.156454 16:0.274983 17:0.102066 18:-0.107385 19:-0.206265 20:-0.3914 21:0.038195 22:0.305108 23:-0.24439 24:0.154527 25:0.282509 26:-0.496356 27:-0.235663 28:-0.443709 29:-0.128554 
1 1:-0.00572744 2:0.618957 3:-0.596361 4:-0.581375 5:-0.676084 6:-0.159339 7:-0.49975 8:0.0823504 9:-0.27551 10:-0.442884 11:-0.265235 12:0.269642 13:0.269953 14:-0.417414 15:-0.0172305 16:-0.399587 17:0.217467 18:-0.173953 19:-0.18261 20:-0.393637 21:-0.705872 22:0.0721893 23:-0.247055 24:-0.424245 25:-0.0650841 26:-0.688883 27:-0.043267 28:-0.657075 29:-0.205336 
1 1:0.417418 2:0.367467 3:0.366833 4:0.613495 5:0.307007 6:0.644882 7:0.531698 8:0.377501 9:-0.475756 10:0.0911873 11:-0.0284444 12:0.0756879 13:0.32382 14:0.0305036 15:0.650762 16:0.782783 17:0.221603 18:0.136913 19:0.0914478 20:0.0340159 21:0.516581 22:0.528515 23:-0.138375 24:-0.0562314 25:0.627843 26:-0.23713 27:-0.043267 28:-0.156423 29:0.156614 
1 1:-0.620267 2:-0.384847 3:0.0943074 4:-0.259279 5:-0.29131 6:-0.20714 7:-0.235295 8:0.763526 9:0.293381 10:0.548501 11:-0.19521 12:-0.421913 13:0.62562 14:-0.793928 15:0.480593 16:-0.309987 17:-0.270486 18:0.106536 19:0.697008 20:-0.456334 21:-0.00866071 22:0.0606496 23:-0.321781 24:0.11068 25:0.177297 26:-0.175434 27:0.447331 28:0.745729 29:0.156614 
1 1:-0.178347 2:0.728629 3:0.130649 4:0.0129369 5:-0.106529 6:0.238601 7:-0.327461 8:0.218535 9:-0.301713 10:0.0554028 11:-0.135466 12:0.28101 13:-0.0263237 14:0.052373 15:-0.195178 16:-0.192917 17:0.230746 18:-0.16807 19:-0.550022 20:-0.107875 21:0.00853951 22:0.0606496 23:-0.560505 24:-0.298694 25:-0.147243 26:-0.162767 27:-0.30479 28:-0.0880494 29:-0.108196 
0.8612914064878369 1:0.104781 2:0.214984 3:-0.0566187 4:-0.00748385 5:-0.168636 6:0.443315 7:-0.667292 8:-0.507724 9:-0.37224 10:-0.450553 11:-0.383027 12:0.125215 13:0.446303 14:-0.299321 15:-0.00443424 16:-1 17:0.365438 18:-0.181815 19:-1 20:-0.0445932 21:-0.0788138 22:-0.169888 23:-0.633086 24:-0.190557 25:0.177297 26:-0.451347 27:-0.661481 28:-0.0880494 29:-0.188709 
1 1:0.0709254 2:0.239706 3:-0.0456466 4:0.167499 5:0.258883 6:-0.174906 7:0.0662406 8:0.264543 9:-0.365504 10:0.583323 11:0.356019 12:0.486439 13:-0.436891 14:0.282267 15:-0.250669 16:0.556124 17:-0.0423715 18:0.553534 19:-0.130987 20:-0.198484 21:0.412949 22:0.252303 23:-0.773509 24:0.414297 25:0.251122 26:-0.220376 27:0.517184 28:0.165937 29:0.156614 
1 1:-0.345246 2:-0.0308413 3:-0.326317 4:0.0714849 5:-0.152942 6:0.268057 7:0.200778 8:-0.220527 9:-0.328345 10:-0.131806 11:-0.143352 12:-0.205705 13:-0.348922 14:-0.566079 15:-1 16:0.0420379 17:0.0685801 18:-0.445713 19:-0.865161 20:0.379621 21:0.0919859 22:-0.420686 23:-0.539913 24:-0.269168 25:0.148226 26:0.267321 27:-0.783189 28:-1 29:-0.311949 
0.3306825658323856 1:0.364528 2:0.724158 3:0.505324 4:-0.0382375 5:0.46468 6:0.171078 7:-0.136283 8:0.26913 9:-0.396172 10:-0.0467227 11:-0.152996 12:0.945089 13:0.089054 14:-0.0387254 15:0.34323 16:-0.178954 17:0.249338 18:0.0740685 19:0.0190084 20:-0.552059 21:-0.145971 22:0.162821 23:0.0214172 24:0.242748 25:-0.522987 26:-0.175434 27:0.271065 28:-0.345492 29:-0.695449 
1 1:-0.261556 2:0.445695 3:-0.172663 4:0.664677 5:-0.162129 6:-0.0938413 7:0.413414 8:0.150499 9:-0.677987 10:-0.199468 11:0.0835927 12:-0.112983 13:0.0708202 14:-0.103673 15:0.292422 16:0.309842 17:-0.286284 18:0.305707 19:-0.183282 20:-0.46809 21:-0.025524 22:-0.168076 23:-0.00132375 24:-0.188717 25:0.359458 26:-0.0566737 27:-0.775115 28:-0.744237 29:-0.584434 
1 1:0.0620551 2:0.0848748 3:0.0140795 4:0.224773 5:0.273969 6:-0.0103791 7:0.393808 8:0.362363 9:-0.398041 10:0.0407185 11:0.142778 12:0.163945 13:0.50514 14:-0.0201677 15:0.24332 16:0.413345 17:0.0586383 18:0.387116 19:-0.078928 20:-0.116439 21:-0.101773 22:0.0664171 23:-0.194875 24:0.357041 25:-0.271852 26:-0.171812 27:0.400527 28:-0.164043 29:-0.209871 
1 1:-0.252048 2:0.505655 3:-0.0137026 4:0.0734883 5:-0.0317706 6:-0.142356 7:-0.403308 8:-0.0901978 9:-0.266541 10:-0.0496244 11:-0.348058 12:0.191251 13:0.0269475 14:-0.0602077 15:-0.195985 16:0.125108 17:-0.0735846 18:-0.375324 19:-0.297911 20:0.537961 21:-0.170724 22:-0.695589 23:-0.174206 24:-0.361689 25:-0.550947 26:0.256747 27:-0.630103 28:-0.86274 29:-0.0665822 
1 1:-0.17685 2:0.197512 3:0.0998352 4:0.277264 5:0.278059 6:0.0736461 7:0.57633 8:0.24714 9:-0.453696 10:0.369581 11:0.224341 12:0.245717 13:0.263864 14:0.28293 15:-0.159577 16:0.196249 17:-0.28239 18:0.216361 19:-0.0296096 20:0.0512932 21:0.185111 22:0.0457438 23:-0.0445334 24:0.668884 25:0.554209 26:0.0394588 27:0.260458 28:0.0700961 29:0.156614 
0.7005191300805097 1:0.367337 2:-0.00961529 3:0.0390361 4:0.26056 5:0.0420133 6:0.329636 7:0.10729 8:-0.178188 9:-0.28964 10:0.412046 11:-0.154328 12:0.246286 13:-0.0238984 14:-0.271273 15:0.00763535 16:0.0746692 17:0.0134974 18:-0.182929 19:-0.464928 20:0.127522 21:-0.0100547 22:-0.65537 23:-0.680966 24:0.404662 25:-0.168247 26:-0.104268 27:-0.321715 28:-0.257704 29:-0.405998 
1 1:0.113495 2:-0.00982717 3:0.0978471 4:-0.188242 5:-0.0247209 6:-0.153007 7:0.239271 8:-0.00883675 9:-0.330096 10:0.00560213 11:0.0326099 12:-0.0251398 13:0.366178 14:-0.325851 15:-0.308855 16:0.572383 17:-0.174181 18:0.268873 19:-0.295517 20:-0.0203434 21:-0.0536847 22:0.365028 23:-0.69366 24:-0.277403 25:-0.127055 26:-0.0184268 27:-0.0113423 28:-0.0594252 29:0.502014 
1 1:-0.263906 2:0.339313 3:0.280718 4:0.060421 5:0.113317 6:0.794661 7:0.412946 8:0.288175 9:-0.45913 10:0.234299 11:0.328553 12:-0.164451 13:0.106358 14:0.0517563 15:0.452511 16:0.643891 17:0.406809 18:0.236405 19:0.148347 20:-0.0914734 21:0.271593 22:0.263074 23:-0.199259 24:-0.688557 25:0.591484 26:-0.0483489 27:-0.210466 28:-0.0373162 29:-0.574014 
1 1:0.120161 2:0.290333 3:0.349301 4:-0.304958 5:0.402959 6:-0.296627 7:0.0504928 8:0.383908 9:-0.534062 10:-0.28161 11:0.0247548 12:0.461865 13:0.0288134 14:-0.158082 15:0.411704 16:0.71706 17:0.160996 18:0.353638 19:-0.120068 20:0.751844 21:-0.110842 22:-0.0592102 23:0.0993487 24:-0.0781555 25:-0.0488593 26:0.979429 27:0.245817 28:-0.748498 29:-0.589247 
1 1:0.344892 2:0.185543 3:-0.134913 4:0.647757 5:-0.299783 6:0.0606807 7:0.397226 8:-0.462252 9:-0.456816 10:0.0606117 11:0.0806094 12:-0.316608 13:0.116053 14:0.567789 15:-0.133732 16:0.542637 17:0.301211 18:0.00214352 19:-0.522485 20:0.108963 21:0.015067 22:-0.383701 23:0.122513 24:0.484469 25:0.294576 26:0.19747 27:-0.665259 28:-0.148691 29:-0.192533 
1 1:-0.330837 2:0.454166 3:0.113915 4:0.487129 5:-0.25173 6:0.0831835 7:0.111047 8:0.119274 9:-0.761635 10:0.274332 11:-0.0362251 12:-0.147948 13:0.0523189 14:0.376788 15:-0.545878 16:0.383084 17:0.0977895 18:-0.0764748 19:-0.153505 20:-0.193043 21:0.0319434 22:-0.210724 23:-0.321781 24:-0.524899 25:0.0406822 26:-0.302605 27:-0.253852 28:-0.114806 29:0.161628 
1 1:0.547381 2:0.2122 3:0.21306 4:-0.386487 5:0.102252 6:-0.112042 7:-0.126371 8:0.0847205 9:-0.197854 10:0.342228 11:-0.0928173 12:0.115816 13:-0.363056 14:-0.47976 15:0.242669 16:0.377134 17:0.130474 18:0.461616 19:-0.0866592 20:-0.0297381 21:-0.690277 22:0.0904827 23:-0.0298233 24:0.249957 25:0.253323 26:0.0509525 27:-0.663707 28:-0.644347 29:-0.190961 
1 1:0.0355712 2:-0.0203805 3:0.379158 4:0.243933 5:0.30281 6:-0.216515 7:0.120541 8:0.448558 9:-0.505449 10:0.193925 11:0.382913 12:0.387327 13:-0.309779 14:0.0927289 15:0.233977 16:0.474677 17:-0.306615 18:0.302135 19:-0.154103 20:-0.270931 21:-0.351734 22:0.452043 23:-0.420375 24:0.441056 25:0.210232 26:-0.428084 27:-0.355549 28:0.129 29:0.0472465 
1 1:0.443695 2:0.24435 3:-0.106725 4:0.779541 5:-0.0405246 6:-0.171434 7:0.141198 8:-0.0613855 9:-0.18865 10:0.463632 11:0.123362 12:0.0381272 13:-0.0926869 14:0.0635873 15:0.370594 16:0.14301 17:-0.20877 18:-0.0508399 19:-0.243441 20:-0.162051 21:-0.0691705 22:-0.0103289 23:-0.185594 24:0.238822 25:-0.780204 26:-0.444246 27:0.105926 28:0.111089 29:-0.179821 
1 1:-0.088188 2:0.437252 3:0.0733339 4:0.614957 5:-0.118147 6:0.136116 7:0.375623 8:0.0703286 9:-0.23876 10:-0.570395 11:-0.109403 12:-0.0321267 13:0.341793 14:0.160417 15:0.053776 16:-0.0530478 17:-0.0335472 18:-0.159049 19:-0.341564 20:-0.436474 21:0.244241 22:-0.829261 23:-0.0768557 24:0.394724 25:0.00826772 26:-0.285632 27:-0.733832 28:-0.0880494 29:0.389711 
1 1:0.374284 2:0.0307532 3:0.397576 4:0.523508 5:-0.5213 6:-0.12933 7:-0.0169383 8:0.237782 9:-0.306677 10:-0.249961 11:0.140156 12:0.255431 13:0.00115949 14:-0.621198 15:0.351732 16:0.480297 17:-0.342626 18:0.297436 19:-0.471153 20:-0.112088 21:0.180623 22:0.233566 23:0.0885101 24:-0.0481581 25:-0.798831 26:-0.139066 27:0.163823 28:0.0664339 29:0.292483 
1 1:-0.280642 2:0.0876021 3:0.41499 4:0.218182 5:0.177278 6:-0.115959 7:-0.300987 8:0.378292 9:-0.391365 10:-0.239623 11:0.050266 12:-0.223466 13:0.137321 14:-0.23343 15:-0.141009 16:-0.274527 17:-0.237786 18:-0.272044 19:-0.24934 20:-0.479213 21:-0.0414784 22:0.0221542 23:-0.415601 24:0.216672 25:-0.748923 26:-0.555031 27:-0.0114966 28:-0.508734 29:-0.154297 
1 1:0.471994 2:0.175398 3:0.521081 4:0.328294 5:0.600499 6:0.186387 7:0.559464 8:0.542271 9:-0.203608 10:0.425528 11:0.290717 12:0.166543 13:0.37665 14:-0.214108 15:0.372398 16:0.443696 17:-0.339495 18:0.680729 19:-0.248526 20:-0.192347 21:-0.484859 22:-0.0257522 23:-0.260163 24:0.201796 25:0.32733 26:-0.00542694 27:0.204978 28:-0.148165 29:0.162549 
1 1:0.115774 2:0.494092 3:-0.219606 4:0.187685 5:-0.679138 6:0.297573 7:-0.318151 8:-0.0704972 9:-0.443156 10:-0.484417 11:0.041262 12:-0.0705052 13:0.412532 14:0.0891297 15:0.402833 16:0.112483 17:0.0641396 18:0.191824 19:-0.475717 20:-0.466833 21:0.200692 22:0.548424 23:0.139976 24:-0.186568 25:-0.040925 26:-0.541954 27:-0.0569754 28:-0.100341 29:0.142734 
1 1:0.0484486 2:0.366974 3:-0.223417 4:-0.310576 5:-0.584474 6:-0.417536 7:-0.133114 8:-0.0887863 9:-0.711033 10:-0.125427 11:-0.0303778 12:-0.47112 13:0.230793 14:-0.0416037 15:0.379853 16:0.3736 17:-0.410516 18:0.327756 19:-0.173044 20:-0.436352 21:0.087723 22:0.599712 23:0.0600617 24:-0.285038 25:-0.679476 26:-0.734006 27:-0.043267 28:-0.458558 29:-0.26181 
1 1:0.00530195 2:0.740731 3:0.225099 4:0.39946 5:0.592085 6:0.142904 7:0.189018 8:0.249363 9:-0.289379 10:0.347609 11:0.0295019 12:0.226136 13:-0.187018 14:-0.0532231 15:0.0194189 16:0.153275 17:-0.220416 18:0.0736788 19:-0.181241 20:-0.371865 21:-0.133344 22:0.271588 23:-0.172365 24:0.469987 25:-0.307514 26:-0.491505 27:0.37179 28:0.259361 29:-0.519632 
1 1:-0.395988 2:0.266723 3:-0.0893655 4:-0.247699 5:-0.214102 6:-0.197966 7:-0.0637605 8:0.123464 9:-0.873238 10:-0.139481 11:0.227821 12:-0.74282 13:-0.165295 14:0.0531039 15:0.00204322 16:0.280334 17:-0.215731 18:0.0822044 19:-0.202996 20:-0.586982 21:0.108445 22:-0.873562 23:0.0506668 24:-0.179679 25:-0.177152 26:-0.761946 27:-0.043267 28:0.152903 29:-0.296778 
1 1:0.321369 2:0.245929 3:0.308674 4:-0.274515 5:0.206676 6:0.285344 7:0.122003 8:0.225372 9:-0.249483 10:0.140988 11:0.56453 12:-0.202766 13:0.0218377 14:-0.103469 15:0.248627 16:0.652498 17:0.0242471 18:0.514891 19:-0.0159282 20:-0.417038 21:-0.00866071 22:0.0117775 23:-0.0219308 24:-0.368816 25:-0.213736 26:-0.299189 27:-0.63555 28:0.168701 29:-0.16245 
1 1:-0.0433331 2:0.51543 3:0.29872 4:-0.441936 5:-0.169123 6:-0.129782 7:-0.271272 8:0.281685 9:-0.233695 10:-0.341955 11:-0.0274452 12:0.879363 13:0.166635 14:-0.22176 15:-0.0917164 16:-0.0847297 17:0.293257 18:0.0367079 19:-0.178347 20:0.047205 21:0.154395 22:-0.184714 23:0.196912 24:0.0435696 25:-0.604163 26:-0.236404 27:-0.233668 28:-0.652667 29:-0.0361801 
1 1:-0.467176 2:0.522781 3:0.0472943 4:0.272687 5:0.622467 6:0.317758 7:0.331604 8:0.234718 9:-0.622457 10:0.260077 11:0.104884 12:0.00445127 13:0.526539 14:-0.0722662 15:0.267737 16:0.343439 17:0.213671 18:-0.0761985 19:-0.296254 20:0.353022 21:0.123509 22:0.389076 23:-0.211962 24:0.446991 25:-0.47208 26:0.317823 27:-0.012192 28:0.230567 29:0.156614 
1 1:0.567214 2:0.525586 3:0.0774999 4:0.348464 5:-0.0431213 6:0.422101 7:-0.0339944 8:0.0613931 9:-0.375622 10:0.208148 11:-0.12011 12:0.246203 13:0.159006 14:-0.186599 15:0.101101 16:0.260234 17:0.200389 18:0.193795 19:-0.120512 20:0.357119 21:0.0416119 22:-0.237572 23:-0.28001 24:-0.259295 25:0.181799 26:0.170721 27:0.075401 28:-0.478696 29:-0.284553 
1 1:0.163563 2:0.0883694 3:-0.431481 4:0.400473 5:-0.325274 6:0.167842 7:0.293458 8:-0.122534 9:-0.243139 10:0.659308 11:0.497826 12:0.461748 13:-1 14:0.179843 15:0.182313 16:0.593245 17:0.169164 18:0.257183 19:-0.200929 20:0.0831021 21:0.832839 22:0.21836 23:-0.210067 24:0.726308 25:-0.636476 26:0.191032 27:0.221745 28:-0.0335884 29:0.0539406 
1 1:0.128532 2:0.439669 3:-0.552084 4:0.443558 5:-0.403762 6:0.0250561 7:-0.447187 8:0.201776 9:-0.590488 10:-0.133265 11:0.34854 12:-0.131794 13:-0.222669 14:-0.0112306 15:0.611987 16:0.408933 17:0.192645 18:0.112213 19:-0.119887 20:-0.0141809 21:-0.123347 22:-0.0738789 23:-0.417073 24:0.0435696 25:0.391719 26:-0.484143 27:-0.424839 28:-0.0362733 29:0.8929 
0.08067539662703688 1:0.431988 2:0.140077 3:0.380658 4:0.141463 5:0.318504 6:0.548826 7:0.639939 8:0.0697854 9:-0.283049 10:0.10068 11:0.396165 12:0.189338 13:0.0715162 14:-0.314111 15:0.51399 16:0.659323 17:0.213296 18:0.353095 19:-0.26881 20:-0.122994 21:0.203205 22:-0.256967 23:0.0755116 24:0.0837612 25:0.326141 26:-0.24366 27:0.114788 28:-0.0880494 29:0.133643 
1 1:0.297965 2:0.370105 3:-0.267259 4:0.470068 5:0.0353523 6:0.105512 7:0.249175 8:0.849429 9:-0.47016 10:0.274329 11:0.396989 12:-0.0386768 13:0.388873 14:0.165867 15:0.473761 16:0.45787 17:0.0680217 18:0.713969 19:-0.0486382 20:-0.0896906 21:-0.218141 22:0.484473 23:-0.0563579 24:-0.055422 25:0.083431 26:-0.236629 27:0.0432331 28:-0.155869 29:0.0800241 
1 1:0.453067 2:-0.310938 3:-0.0534285 4:0.245383 5:-0.120156 6:0.274875 7:-0.121076 8:-0.181896 9:-0.358314 10:0.33046 11:0.343997 12:0.0767893 13:-0.59564 14:-0.438683 15:0.134219 16:0.624937 17:0.0687594 18:0.234939 19:-0.418362 20:-0.151265 21:-0.255578 22:-0.943374 23:-0.0967066 24:0.112177 25:-0.244379 26:-0.357272 27:-0.545204 28:-0.0880494 29:0.156614 
1 1:-0.151342 2:0.376594 3:0.427939 4:0.477368 5:0.608605 6:0.0836179 7:0.209576 8:0.124064 9:-0.577988 10:-0.0598117 11:-0.142309 12:0.701024 13:0.120033 14:0.278615 15:0.155115 16:0.668743 17:-0.270486 18:0.047216 19:0.143456 20:-0.256524 21:0.0998238 22:0.545096 23:0.0213742 24:0.0435696 25:0.29984 26:0.128709 27:0.0554812 28:0.44966 29:0.156614 
1 1:0.115583 2:0.27907 3:0.21156 4:-0.341507 5:0.227434 6:-0.31013 7:-0.412027 8:0.271903 9:-0.507452 10:-0.36633 11:-0.494867 12:-0.251484 13:0.304611 14:-0.534141 15:0.221481 16:0.0388129 17:-0.142283 18:-0.0390073 19:-0.215177 20:-0.0455997 21:-0.57887 22:-0.136029 23:-0.542551 24:-0.998457 25:-0.810774 26:-0.298911 27:-0.40016 28:-0.408046 29:-0.0882792 
1 1:0.395281 2:0.47552 3:0.317139 4:0.0442587 5:0.207173 6:0.294507 7:-0.0625654 8:0.159505 9:-0.138996 10:0.255685 11:-0.0258319 12:0.0525143 13:-0.112391 14:-0.316981 15:0.422531 16:0.426892 17:0.212739 18:0.14212 19:-0.316863 20:-0.292488 21:-0.280025 22:0.178965 23:-0.399252 24:0.124943 25:-0.129234 26:-0.434261 27:-0.363185 28:-0.126369 29:-0.538343 
1 1:0.196368 2:0.36262 3:-0.111144 4:0.324253 5:0.0143484 6:0.508441 7:-0.000881848 8:-0.0148796 9:-0.230361 10:0.244716 11:-0.0438073 12:0.100181 13:-0.11873 14:0.10738 15:-0.160785 16:0.496861 17:-0.327351 18:-0.230317 19:-0.217887 20:-0.410541 21:0.0570257 22:-0.0105478 23:-0.520219 24:0.0435696 25:-0.436445 26:-0.351311 27:-0.260656 28:-0.282964 29:0.100671 
1 1:0.212156 2:0.208495 3:-0.0738982 4:0.0521066 5:-0.114327 6:0.0472781 7:0.0362331 8:-0.193319 9:-0.151616 10:0.677331 11:0.463804 12:0.0023737 13:0.0126733 14:-0.140073 15:-0.00359907 16:0.85829 17:0.12973 18:0.291082 19:-0.0964133 20:-0.131879 21:0.278617 22:0.328818 23:-0.44111 24:0.139823 25:0.157833 26:0.0742331 27:-0.043267 28:0.0985338 29:-0.420595 
1 1:0.420563 2:-0.330052 3:0.212918 4:0.113983 5:0.136947 6:0.136118 7:0.0843547 8:-0.0508491 9:-0.678992 10:0.313973 11:0.511627 12:0.169492 13:0.0197879 14:0.202925 15:0.60871 16:0.441847 17:0.216713 18:0.468179 19:-0.260636 20:-0.050999 21:0.160565 22:-0.158735 23:0.334861 24:-0.0624498 25:0.167243 26:0.252744 27:-0.124276 28:-0.343837 29:0.156614 
1 1:0.81275 2:0.0440654 3:0.276999 4:0.119488 5:-0.00267094 6:-0.0643113 7:0.0852665 8:-1 9:-0.540292 10:0.652651 11:0.179938 12:0.534153 13:0.291636 14:0.0357993 15:0.176674 16:-0.0362219 17:0.128771 18:-0.649609 19:-0.685579 20:0.187268 21:-0.594063 22:-0.626033 23:-0.302159 24:-0.29105 25:0.314707 26:0.0230079 27:-0.043267 28:-0.0880494 29:-0.382946 
1 1:0.377261 2:0.182722 3:0.0372956 4:0.614305 5:-0.099279 6:0.135762 7:0.326296 8:-0.238112 9:-0.569562 10:0.240704 11:0.237601 12:0.142232 13:0.0336074 14:-0.229583 15:-0.0758598 16:0.524182 17:0.034291 18:0.270007 19:-0.0174601 20:-0.327077 21:0.354875 22:0.278136 23:0.0365479 24:-0.0983113 25:-0.0999978 26:-0.487394 27:0.172601 28:-0.288399 29:-0.514487 
1 1:0.616217 2:0.0599467 3:0.273566 4:0.258229 5:0.193552 6:0.743484 7:0.746873 8:-0.0158163 9:-0.0319493 10:0.430074 11:0.52585 12:0.489268 13:0.186647 14:0.195573 15:0.0512604 16:0.41236 17:0.395633 18:0.173554 19:0.0278733 20:0.0393334 21:0.562434 22:-0.341028 23:0.195733 24:0.361144 25:-0.209511 26:-0.427613 27:-0.043267 28:-0.119001 29:0.12166 
1 1:0.0896904 2:0.312676 3:0.0998325 4:-0.113124 5:0.0123329 6:-0.126006 7:-0.682328 8:0.0486418 9:-0.0939028 10:-0.309482 11:-0.212374 12:0.420651 13:0.0291615 14:-0.37402 15:-0.501666 16:-0.0360356 17:0.308623 18:-1 19:-0.47356 20:0.0154842 21:-0.177682 22:-0.217051 23:-0.413478 24:-0.813402 25:-0.434093 26:0.00565075 27:-0.535938 28:-0.225994 29:-0.061589 
1 1:-0.0168468 2:0.132057 3:-0.0412668 4:0.244618 5:-0.0267787 6:-0.21476 7:-0.0337836 8:-0.0824587 9:-0.477422 10:-0.0359425 11:-0.0309454 12:-0.00312997 13:-0.108754 14:0.202853 15:-0.226944 16:0.614236 17:-0.177919 18:0.272922 19:-0.226454 20:-0.387454 21:-0.214367 22:-0.0323982 23:-0.344697 24:0.115733 25:-0.256276 26:-0.551174 27:-0.392651 28:-0.401313 29:-0.313647 
1 1:0.28867 2:0.081859 3:-0.113734 4:0.336823 5:-0.556087 6:0.466796 7:0.277345 8:-0.299661 9:-0.555865 10:0.128402 11:0.337015 12:-0.212613 13:-0.118137 14:0.513481 15:0.248996 16:0.653026 17:0.456691 18:-0.0333059 19:-0.457734 20:-0.326773 21:0.355311 22:0.278648 23:0.476391 24:-0.097792 25:-0.501924 26:-0.618251 27:-0.31342 28:-0.0817499 29:0.156614 
1 1:0.00569762 2:0.722375 3:-0.133889 4:0.0937236 5:-0.299293 6:-0.12857 7:-0.424411 8:0.0687447 9:-0.237797 10:-0.231022 11:-0.276759 12:0.596324 13:0.154302 14:-0.110297 15:-0.213111 16:-0.386996 17:0.360148 18:-0.306391 19:-0.423894 20:-0.456334 21:-0.38897 22:-0.594401 23:-0.637779 24:0.498308 25:-0.252295 26:-0.455506 27:0.00277632 28:-0.792337 29:-0.358091 
1 1:0.521004 2:0.295895 3:-0.14102 4:0.190839 5:-0.289528 6:0.51094 7:0.190697 8:0.175069 9:-0.498918 10:0.128482 11:0.0257176 12:-0.049873 13:-0.197634 14:-0.192688 15:0.184183 16:-0.186944 17:0.128268 18:-0.32837 19:-0.555151 20:-0.53698 21:0.112448 22:-0.00623192 23:0.518371 24:-0.387107 25:0.223624 26:-0.175434 27:-0.649524 28:-0.880155 29:0.26824 
1 1:-0.439012 2:0.346169 3:-0.0311722 4:-0.0323182 5:-0.0836843 6:-0.186287 7:-0.634865 8:0.064914 9:-0.329724 10:-0.431584 11:-0.446613 12:-0.243245 13:-0.269021 14:-0.164056 15:-0.612777 16:0.0645564 17:0.265312 18:-0.39517 19:-0.597216 20:0.255257 21:-0.177625 22:0.0358435 23:-0.321781 24:-1 25:-0.0135626 26:0.193854 27:0.153021 28:-0.409103 29:-0.0894723 
1 1:-0.108053 2:0.2424 3:-0.036775 4:0.104062 5:-0.0738169 6:0.0778507 7:0.0868797 8:-0.0842608 9:-0.389773 10:0.0724914 11:-0.0361077 12:-0.0857927 13:0.699376 14:-0.256808 15:0.352166 16:-0.0826501 17:-0.0809264 18:-0.506799 19:-0.13042 20:-0.365054 21:-0.267532 22:-0.0592076 23:-0.212989 24:-0.194934 25:-0.191617 26:-0.415947 27:-0.502686 28:-0.419966 29:-0.0819853 
1 1:-0.413788 2:0.648918 3:-0.411765 4:0.018027 5:-0.351324 6:-0.22561 7:-0.400756 8:-0.160326 9:-0.622813 10:-0.138232 11:-0.405484 12:0.0044016 13:0.00640663 14:-0.0206315 15:-0.188104 16:-0.282379 17:-0.697199 18:-0.30244 19:-0.201979 20:0.0116992 21:-0.159613 22:0.449718 23:-0.321781 24:-0.499008 25:-0.337187 26:-0.175434 27:-0.45785 28:-0.0880494 29:0.0174829 
1 1:0.442395 2:0.504812 3:0.450378 4:0.217689 5:-0.244431 6:0.364804 7:-0.403229 8:0.557741 9:-0.721795 10:-0.343028 11:0.810546 12:-0.614987 13:-0.199349 14:-0.09596 15:0.105829 16:0.710321 17:-0.00361441 18:-0.072311 19:-0.11525 20:-0.304963 21:-0.578676 22:0.627699 23:-0.542389 24:-0.272719 25:0.332089 26:-0.370961 27:-0.043267 28:-0.0562166 29:0.282917 
1 1:0.158532 2:0.135637 3:-0.239301 4:0.324594 5:-0.17473 6:0.291579 7:0.050723 8:0.37604 9:-0.201401 10:0.207028 11:0.472897 12:-0.16122 13:-0.0342613 14:-0.607133 15:0.0837695 16:0.387576 17:-0.00435325 18:0.342627 19:-0.463827 20:-0.134121 21:0.195305 22:-0.17228 23:-0.0857549 24:-0.555739 25:-0.04701 26:0.0836308 27:0.419572 28:0.537687 29:0.254254 
1 1:0.277175 2:0.620243 3:0.0410501 4:-0.178934 5:-0.208425 6:0.553188 7:-0.389569 8:0.0565709 9:-0.245557 10:-0.0234618 11:0.00636124 12:0.558699 13:0.145162 14:-0.155188 15:-0.109553 16:-0.169875 17:0.511891 18:-0.277956 19:-0.495576 20:0.348397 21:-0.0488769 22:-0.343717 23:-0.756217 24:-0.0997553 25:0.43266 26:0.0913932 27:0.124398 28:-0.763296 29:0.283725 
-1 1:0.255103 2:0.379392 3:0.185211 4:0.427304 5:0.456032 6:0.306859 7:0.40351 8:-0.0427573 9:-0.517534 10:-0.29246 11:0.210092 12:-0.101946 13:-0.0791755 14:0.18237 15:0.187313 16:0.621737 17:0.00133227 18:0.371697 19:-0.475179 20:-0.378251 21:0.201374 22:0.480413 23:-0.147264 24:-0.548509 25:-0.384124 26:-0.541452 27:-0.218495 28:0.204009 29:-0.020816 
-0.8678853295521677 1:0.459836 2:-0.0216607 3:-0.0224495 4:0.0638747 5:-0.526908 6:-0.126129 7:-0.581519 8:0.026257 9:-0.0814036 10:-0.407209 11:0.23215 12:-0.420299 13:0.0683661 14:-0.575573 15:-0.578235 16:0.367535 17:-0.475007 18:-0.599592 19:-0.636165 20:-0.327892 21:-0.226961 22:0.769158 23:-0.355162 24:0.0435696 25:-0.413263 26:-0.560448 27:-0.519154 28:-0.514738 29:0.462668 
-1 1:0.79528 2:0.0204953 3:0.213694 4:0.305852 5:0.165635 6:0.697046 7:0.505315 8:-0.0712728 9:-0.197829 10:0.527191 11:0.441287 12:0.343205 13:0.439642 14:-0.180519 15:0.47741 16:0.253793 17:0.7258 18:0.228163 19:-0.299195 20:-0.803867 21:0.406359 22:-0.524105 23:-0.0256848 24:0.0246613 25:0.302128 26:-0.542552 27:0.057325 28:-0.24638 29:0.156614 
-1 1:0.308405 2:0.309849 3:0.0444564 4:0.659746 5:-0.108902 6:-0.0572103 7:-0.061063 8:-0.0442509 9:-0.134708 10:0.0697034 11:-0.00785675 12:0.00144761 13:0.335754 14:-0.0816582 15:0.0869653 16:0.190093 17:0.252212 18:-0.264001 19:-0.4044 20:-0.155495 21:0.483561 22:0.357895 23:-0.512249 24:0.0877083 25:0.262329 26:-0.0269247 27:-0.529104 28:-0.219866 29:0.258407 
-1 1:0.308418 2:0.614091 3:-0.0633434 4:0.0875698 5:-0.00892642 6:0.115378 7:-0.268527 8:0.382994 9:-0.490427 10:-0.0159462 11:-0.446408 12:0.0267466 13:0.250305 14:0.0955789 15:0.479328 16:0.114405 17:0.120871 18:-0.0273404 19:-0.134055 20:-0.533856 21:-0.602495 22:0.435653 23:-0.414176 24:0.0616582 25:0.0516879 26:-0.175434 27:0.132694 28:0.12499 29:0.397205 
-0.3075532341763659 1:-0.31049 2:0.675519 3:0.295318 4:-0.327412 5:-0.421018 6:-0.307162 7:-0.540167 8:0.35552 9:-0.623862 10:-0.696777 11:-0.0247649 12:-0.0931305 13:0.00903866 14:0.548093 15:-0.222622 16:0.205549 17:0.312905 18:-0.584659 19:-0.303628 20:-0.807781 21:-0.208275 22:0.392637 23:-0.339635 24:-0.556977 25:0.177297 26:-0.322436 27:-0.043267 28:-0.499487 29:0.417473 
-1 1:0.0691613 2:0.549344 3:0.328615 4:0.210024 5:-0.169823 6:0.00711816 7:0.311213 8:0.134393 9:-0.405164 10:0.271453 11:0.347507 12:-0.0319564 13:-0.752895 14:0.716773 15:0.134859 16:0.396878 17:-0.0119178 18:0.40018 19:-0.0420938 20:-0.0224528 21:0.169297 22:0.269396 23:-0.173917 24:-0.107188 25:-0.309624 26:-0.492881 27:0.395898 28:-0.0459567 29:0.156614 
-1 1:-0.0322565 2:0.331868 3:1 4:-0.041491 5:1 6:-0.052876 7:-0.00508964 8:0.235829 9:-0.64269 10:-0.110597 11:0.121379 12:0.38557 13:0.00514232 14:-0.113602 15:0.407656 16:0.261525 17:-0.0921957 18:0.267704 19:0.152437 20:0.100909 21:-0.300996 22:0.432123 23:0.435794 24:0.0580731 25:0.878989 26:-0.0942748 27:0.716321 28:-0.57516 29:-0.112827 
-1 1:-0.231105 2:0.376278 3:-0.0132989 4:0.255622 5:-0.269387 6:-0.0279757 7:0.0739429 8:-0.31389 9:-0.656873 10:-0.0797274 11:0.266527 12:0.132986 13:-0.0531095 14:0.1055 15:-0.814793 16:0.199664 17:-0.787444 18:0.00625951 19:-0.3082 20:-0.245044 21:0.100315 22:0.336727 23:-0.0212118 24:-0.97651 25:-0.244785 26:-0.285345 27:-0.822708 28:0.22892 29:-0.632626 
-1 1:0.364259 2:0.42903 3:0.0836814 4:0.295745 5:0.194723 6:0.300741 7:0.711542 8:0.132524 9:-0.181269 10:0.377461 11:0.1701 12:0.629691 13:0.0573583 14:-0.00967841 15:0.024215 16:0.310321 17:0.16305 18:0.0456227 19:-0.316526 20:-0.62665 21:0.177927 22:0.037316 23:-0.419762 24:0.594823 25:0.446512 26:-0.175434 27:-0.704964 28:0.106463 29:0.13828 
-1 1:-0.367171 2:0.0472889 3:-0.504342 4:0.350407 5:-0.611686 6:-0.238764 7:-0.463673 8:0.108697 9:-0.45809 10:-0.550104 11:0.174365 12:-0.438552 13:-0.350055 14:0.361491 15:-0.00414857 16:0.182824 17:0.252721 18:0.0940063 19:-0.531505 20:-0.215704 21:0.210122 22:-0.606046 23:-0.206548 24:0.092002 25:-0.464719 26:-0.369745 27:-0.1213 28:-0.551916 29:0.603696 
-1 1:0.0741089 2:-0.00865353 3:-0.631418 4:0.243845 5:-0.631564 6:-0.0199139 7:-0.206081 8:0.227681 9:-0.327974 10:-0.599224 11:-0.166324 12:-0.100277 13:-0.257347 14:0.427954 15:0.0152318 16:-0.0199577 17:0.190414 18:-0.417704 19:-0.696868 20:0.0191987 21:-0.205825 22:-1 23:-0.136819 24:-0.191306 25:-0.045417 26:-0.211775 27:0.159359 28:-0.577493 29:0.592808 
-1 1:-0.0767227 2:-0.171094 3:0.284543 4:0.512341 5:0.0721019 6:-0.187939 7:0.0965614 8:-0.10952 9:-0.625142 10:0.172799 11:0.525089 12:-0.436993 13:0.195505 14:0.164433 15:-0.37339 16:0.542332 17:-0.112614 18:0.159186 19:-0.267566 20:-0.0235221 21:0.307664 22:-0.571064 23:0.472268 24:-0.597978 25:-0.0870621 26:0.0575187 27:0.244667 28:0.170117 29:-0.0590905 
-1 1:-0.00192108 2:0.339523 3:-0.101004 4:0.0629236 5:0.252733 6:-0.251461 7:0.436555 8:0.485635 9:-0.0392934 10:0.0422509 11:0.0664309 12:0.231764 13:-0.312708 14:-0.245955 15:-0.0779801 16:0.227256 17:-0.309828 18:0.372287 19:-0.319816 20:-0.226111 21:-0.228781 22:0.274629 23:-0.757694 24:0.568494 25:0.383356 26:-0.337537 27:0.0335484 28:-0.267699 29:-0.326932 
-1 1:0.203512 2:0.274326 3:0.216047 4:0.0463106 5:0.0546673 6:0.0641882 7:-0.0775779 8:0.0784536 9:-0.347212 10:-0.311112 11:-0.378447 12:0.123201 13:0.475461 14:-0.386963 15:-0.00123134 16:-0.277077 17:0.0451514 18:-0.234266 19:-0.164805 20:-0.433752 21:-0.200681 22:-0.164593 23:-0.481331 24:-0.185179 25:-0.240817 26:-0.672273 27:0.174165 28:-0.390143 29:-0.184547 
-1 1:0.284706 2:0.334761 3:0.0904168 4:-0.276489 5:-0.238757 6:0.463104 7:0.0696694 8:0.379429 9:-0.356808 10:-0.284086 11:0.124057 12:-0.031342 13:-0.163906 14:0.0161953 15:-0.58228 16:-0.0472247 17:0.375517 18:0.125851 19:-0.322881 20:0.591687 21:-0.232664 22:0.364028 23:-0.106884 24:0.351671 25:0.177297 26:0.713681 27:-0.043267 28:-0.519392 29:0.675658 
-1 1:-0.016632 2:-0.307535 3:0.444746 4:0.416896 5:-0.107662 6:-0.0759348 7:-0.00621105 8:-0.388039 9:-0.582709 10:-0.475251 11:0.211894 12:-0.362966 13:0.390485 14:-0.865024 15:0.0136926 16:-0.579022 17:-0.582024 18:0.161404 19:-0.326573 20:-0.743993 21:-0.421285 22:-0.423364 23:-0.345062 24:-0.564759 25:-0.288798 26:-1 27:-0.785271 28:-0.0880494 29:0.221144 
-1 1:-0.227067 2:0.643965 3:0.0392527 4:0.222537 5:-0.230976 6:0.144125 7:-0.328931 8:0.117922 9:-0.34939 10:-0.342305 11:-0.132012 12:0.602713 13:0.222472 14:0.598172 15:-0.502288 16:-0.732368 17:0.440651 18:-0.371694 19:-0.270397 20:-0.224062 21:-0.119895 22:0.644555 23:-0.332753 24:0.0278394 25:-0.292322 26:-0.350423 27:-0.698876 28:-0.28198 29:0.4637 
-1 1:0.213238 2:-0.146602 3:0.19772 4:0.421829 5:-0.200303 6:0.595279 7:0.531952 8:0.00955419 9:-0.331566 10:0.330246 11:0.56762 12:0.304237 13:0.139767 14:0.500009 15:0.191619 16:0.670444 17:0.515222 18:0.309015 19:-0.260168 20:-0.276487 21:0.495162 22:0.00606542 23:0.398602 24:0.200333 25:0.325943 26:-0.433953 27:0.191555 28:-0.0880494 29:-0.166939 
-1 1:0.182002 2:-0.268315 3:-0.0217958 4:0.0866199 5:0.142417 6:0.0210928 7:0.013666 8:0.0875803 9:-0.274388 10:-0.171467 11:0.0465996 12:-0.091788 13:0.12695 14:0.0146875 15:0.2299 16:0.77092 17:-0.371508 18:0.26775 19:-0.385948 20:-0.195039 21:0.0313277 22:-0.329072 23:-0.745844 24:0.22273 25:-0.399208 26:-0.420107 27:-0.00686721 28:0.371105 29:-0.594451 
-1 1:0.159462 2:0.481031 3:0.197597 4:0.0111299 5:0.309967 6:0.25957 7:0.226302 8:0.39899 9:-0.240384 10:-0.125025 11:0.0291394 12:0.493907 13:-0.47884 14:0.0476977 15:-0.069509 16:0.196848 17:-0.0249458 18:-0.0905053 19:-0.169766 20:0.191846 21:-0.601444 22:0.079694 23:-0.321781 24:0.592323 25:-0.148334 26:0.163801 27:-0.305668 28:-0.571846 29:0.156614 
-1 1:0.277108 2:0.261905 3:0.536055 4:-0.0424742 5:0.103471 6:0.0186362 7:0.19566 8:-0.114985 9:-0.302861 10:0.677709 11:0.471062 12:0.839698 13:0.241693 14:-0.169265 15:0.312987 16:0.723914 17:-0.117973 18:0.37093 19:0.32264 20:-0.456334 21:-0.00866071 22:0.0606496 23:0.540765 24:-0.337456 25:0.90636 26:-0.186729 27:0.443732 28:0.0448092 29:-0.138187 
-1 1:-0.0601562 2:0.198642 3:0.358109 4:0.348979 5:0.424429 6:-0.0296604 7:0.336229 8:0.197886 9:-0.351775 10:-0.244925 11:0.0137703 12:0.245736 13:0.191926 14:0.0120503 15:-0.160359 16:0.143431 17:0.24379 18:0.135771 19:-0.193485 20:-0.554068 21:-0.551392 22:-0.009843 23:-0.371714 24:0.739375 25:0.310623 26:-0.278675 27:-0.537288 28:-0.282473 29:-0.179439 
-1 1:-0.562564 2:0.600107 3:0.279876 4:0.637093 5:0.222201 6:-0.178186 7:-0.0252894 8:0.493749 9:-0.470722 10:0.171242 11:0.342064 12:-0.183002 13:0.0686849 14:0.287197 15:0.010093 16:0.553489 17:-0.0866941 18:0.192265 19:-0.0446343 20:-0.422622 21:0.187513 22:0.474565 23:0.0942351 24:0.277266 25:-0.566753 26:-0.0808364 27:0.000749729 28:0.162164 29:-0.169833 
-1 1:-0.232438 2:0.399593 3:-0.145003 4:-0.707196 5:-0.183954 6:0.0540509 7:0.168661 8:0.162611 9:-0.447003 10:0.368353 11:0.162591 12:-0.0423417 13:0.233029 14:0.0137719 15:0.30579 16:0.213235 17:-0.211768 18:0.308057 19:-0.351117 20:-0.309591 21:0.419922 22:0.464926 23:-0.709186 24:0.063091 25:0.378289 26:-0.874224 27:-0.263398 28:0.344847 29:-0.717965 
-1 1:-0.253679 2:0.221307 3:-0.385338 4:-0.675639 5:-0.333394 6:-0.194777 7:-0.357818 8:0.497435 9:-0.00952795 10:-0.301328 11:0.434808 12:-0.0600729 13:-0.467922 14:0.241742 15:0.344452 16:-0.180908 17:0.398012 18:0.0378313 19:-0.363528 20:-0.0524245 21:0.376612 22:-0.262502 23:-0.550684 24:0.65309 25:-0.477862 26:-0.378313 27:0.20693 28:-0.0880494 29:0.592971 
-1 1:0.550024 2:0.149582 3:-0.176817 4:0.559515 5:-0.228707 6:0.326463 7:-0.134114 8:-0.0861448 9:-0.434331 10:-0.101815 11:-0.200444 12:0.151865 13:-0.138858 14:0.416269 15:0.140091 16:0.08217 17:0.0911453 18:-0.0940432 19:-0.236493 20:-0.114842 21:0.481183 22:-0.167701 23:-0.149064 24:-0.913841 25:-0.38657 26:-0.187618 27:-0.497644 28:-0.350076 29:-0.139298 
-1 1:0.108318 2:0.341156 3:-0.192851 4:-0.321351 5:-0.124226 6:0.192314 7:-0.225003 8:0.251212 9:-0.437175 10:-0.228934 11:-0.209484 12:-0.0254776 13:-0.210724 14:-0.328083 15:0.055453 16:0.0423228 17:-0.020641 18:-0.0775946 19:-0.430462 20:0.448751 21:-0.62716 22:-0.307662 23:-0.582673 24:-0.693227 25:-0.320141 26:0.0614498 27:0.171886 28:-0.592832 29:-0.413451 
-1 1:0.318153 2:-0.0174166 3:0.375161 4:0.530569 5:0.0858095 6:-0.219596 7:-0.0954051 8:-0.422127 9:-0.502109 10:0.201942 11:0.0167509 12:0.0884189 13:0.250349 14:-0.21086 15:0.253621 16:0.445604 17:-0.344116 18:0.141057 19:-0.175031 20:-0.442783 21:-0.0872517 22:-0.0315384 23:-0.387083 24:-0.0500541 25:-0.255448 26:-0.457562 27:-0.391984 28:-0.400715 29:0.156614 
-1 1:0.516052 2:0.359851 3:0.499518 4:0.419938 5:0.4023 6:0.0321418 7:0.552874 8:0.186956 9:-0.175457 10:0.434097 11:0.208459 12:0.347029 13:0.444363 14:0.0927892 15:-0.000931557 16:0.581545 17:-0.493355 18:0.215751 19:-0.41123 20:-0.253438 21:0.0579647 22:0.347746 23:-0.332974 24:0.122938 25:-0.292623 26:-0.350619 27:-0.043267 28:-0.282198 29:0.3822 
-1 1:-0.0694349 2:0.402724 3:0.122033 4:0.291309 5:-0.188714 6:0.134128 7:-0.349719 8:0.082698 9:-0.405392 10:-0.280202 11:-0.30578 12:-0.0758614 13:0.32036 14:0.0232172 15:-0.221643 16:-0.171221 17:-0.0674813 18:-0.197882 19:-0.673786 20:-0.198601 21:-0.400998 22:0.356066 23:-0.647773 24:-0.42381 25:-0.811061 26:-0.147041 27:-0.19612 28:-0.55363 29:-0.649841 
-1 1:0.0745509 2:0.944386 3:-0.0895838 4:0.366449 5:-0.452901 6:-0.206037 7:-0.173303 8:0.237006 9:-0.39826 10:-0.581745 11:-0.317577 12:-0.34698 13:0.044654 14:0.436622 15:0.0925031 16:0.200894 17:-0.143559 18:-0.730659 19:-0.090777 20:-0.386401 21:-1 22:-0.536064 23:-0.0171762 24:-0.562433 25:0.200134 26:-0.175434 27:-0.506314 28:-0.503226 29:0.175249 
-1 1:0.335647 2:0.580464 3:0.266597 4:-0.133879 5:0.175495 6:0.203904 7:-0.0583101 8:0.291924 9:-0.379044 10:0.41098 11:0.289392 12:-0.150981 13:0.586218 14:0.0788052 15:0.695237 16:0.42364 17:0.120746 18:0.66857 19:0.183625 20:-0.212425 21:-0.445937 22:0.471049 23:0.504173 24:0.0435696 25:0.429744 26:-0.142029 27:-0.279157 28:0.252764 29:0.124598 
-1 1:0.0397906 2:0.331744 3:0.269796 4:0.101594 5:-0.0505395 6:-0.0659279 7:-0.165406 8:0.00486732 9:-0.554311 10:-0.249551 11:-0.149739 12:-0.302481 13:0.200263 14:-0.220694 15:0.272403 16:0.0305935 17:-0.132346 18:-0.385659 19:-0.284193 20:0.162944 21:-0.746388 22:-0.159139 23:-0.280722 24:-0.260316 25:-1 26:-0.00786339 27:-0.714784 28:-0.690141 29:-0.523343 
-1 1:-0.161674 2:0.588168 3:0.204939 4:0.201335 5:0.396605 6:0.0957266 7:0.45649 8:0.475753 9:-0.374803 10:0.323191 11:0.339569 12:0.0922346 13:0.113542 14:-0.062402 15:0.304728 16:0.211283 17:-0.224447 18:0.354922 19:-0.163613 20:-0.353735 21:-0.56854 22:0.282397 23:0.0535178 24:-0.260644 25:0.0900445 26:-0.456569 27:0.645053 28:-0.216461 29:-0.359421 
-1 1:0.300758 2:0.452667 3:0.428053 4:-0.0188992 5:0.487633 6:-0.319023 7:-0.0981006 8:0.420458 9:-0.320633 10:0.021421 11:-0.0977339 12:-0.265031 13:-0.0187712 14:-0.364527 15:0.377995 16:0.419678 17:-0.412969 18:0.496103 19:-0.0820727 20:0.229032 21:-0.465253 22:0.0911995 23:-0.701162 24:0.0435696 25:0.283212 26:0.14019 27:0.184711 28:-0.0667937 29:-0.100045 
-1 1:0.0114847 2:-0.127238 3:0.144912 4:0.15691 5:0.0778435 6:-0.044749 7:-0.440039 8:0.644613 9:-0.0288564 10:0.167128 11:0.372746 12:-0.226356 13:-0.753853 14:-0.760752 15:0.170767 16:0.300414 17:-0.104812 18:0.101835 19:-0.283375 20:0.00341336 21:0.346301 22:0.328775 23:-0.321781 24:-0.471278 25:0.0330781 26:-0.00710028 27:-0.0702505 28:-0.192249 29:0.409956 
-1 1:0.340603 2:0.603964 3:0.25434 4:0.149013 5:0.351457 6:-0.125497 7:-0.429318 8:0.0828009 9:-0.208817 10:-0.0979718 11:0.042652 12:-0.485747 13:0.193446 14:-0.0424239 15:0.272911 16:0.440654 17:-0.0171696 18:0.192919 19:-0.218823 20:-0.414715 21:0.0835953 22:-0.624954 23:-0.174255 24:-0.289954 25:0.00380171 26:-0.440602 27:-0.043267 28:-0.565071 29:0.0150508 
-1 1:-0.215385 2:0.562078 3:0.368947 4:0.114414 5:0.330266 6:-0.228042 7:0.307585 8:0.196012 9:-0.482645 10:-0.0676376 11:0.101268 12:0.162265 13:0.0892566 14:0.268813 15:0.370867 16:0.236451 17:0.233418 18:0.247982 19:0.0353849 20:-0.471239 21:-0.177858 22:-0.401059 23:0.287439 24:-0.274771 25:0.21941 26:-0.24105 27:0.446311 28:-0.160769 29:0.156614 
-1 1:-0.35041 2:0.404702 3:0.126244 4:0.099027 5:0.068725 6:-0.0718709 7:-0.367231 8:0.439038 9:-0.388155 10:-0.391445 11:-0.206211 12:0.0465848 13:-0.581761 14:-0.327374 15:0.160244 16:0.324178 17:-0.319709 18:-0.609473 19:-0.26491 20:-0.124226 21:0.0651825 22:0.147268 23:-0.178972 24:-0.231216 25:0.177297 26:-0.0488604 27:0.625407 28:-0.130929 29:0.224675 
-1 1:0.202623 2:-0.0107659 3:0.25207 4:0.414968 5:0.485963 6:0.351098 7:0.306091 8:0.400868 9:-0.415967 10:-0.325372 11:0.0152052 12:0.0258761 13:0.247977 14:-0.230903 15:0.433996 16:0.0863866 17:0.331845 18:0.41027 19:-0.296449 20:-0.261315 21:-0.583788 22:0.215395 23:-0.293621 24:0.200724 25:-0.12839 26:-0.243547 27:0.0768144 28:-0.0603891 29:-0.373476 
-1 1:0.352701 2:0.166024 3:0.0751824 4:0.437382 5:-0.108403 6:0.266968 7:-0.225096 8:-0.143978 9:-0.40032 10:0.167195 11:-0.320656 12:-0.0777027 13:-0.478031 14:-0.465255 15:-0.228025 16:0.26019 17:0.0204803 18:-0.448405 19:-0.486804 20:-0.107888 21:-0.00866071 22:0.0265097 23:-1 24:-0.566051 25:-0.744728 26:0.14007 27:-0.509077 28:-0.360326 29:0.156614 
-1 1:0.16081 2:0.332016 3:-0.13732 4:0.134353 5:0.16211 6:-0.407055 7:-0.271224 8:-0.202623 9:-0.497899 10:-0.254876 11:-0.353077 12:0.0592254 13:0.0505255 14:-0.151682 15:0.316647 16:0.347873 17:0.0179327 18:0.276975 19:-0.284027 20:0.00664209 21:-0.00866071 22:0.0645681 23:-0.572022 24:-0.315203 25:0.257566 26:0.144349 27:0.326185 28:-0.479223 29:0.156614 
-1 1:0.571086 2:0.138157 3:0.249342 4:0.176695 5:-0.114708 6:0.352991 7:0.405081 8:-0.291127 9:-0.433373 10:0.372861 11:0.167268 12:0.18589 13:0.0569241 14:0.169146 15:-0.0963286 16:0.567402 17:0.0553563 18:0.135154 19:-0.550455 20:0.140102 21:0.253838 22:0.0801825 23:0.162153 24:0.788912 25:-0.147863 26:0.149058 27:-0.582468 28:0.0709177 29:-0.389365 
-1 1:-0.0101629 2:0.676546 3:0.450994 4:0.524132 5:0.29933 6:0.00863563 7:0.405763 8:0.381186 9:-0.173991 10:0.511547 11:0.515411 12:-0.0518362 13:0.185439 14:-0.314476 15:0.53252 16:0.449758 17:-0.140458 18:0.0714308 19:0.320614 20:-0.571866 21:0.434636 22:0.371696 23:-0.101452 24:0.4211 25:0.410565 26:-0.204404 27:-0.079076 28:-0.36868 29:-0.160309 
-1 1:0.129824 2:0.297797 3:0.148112 4:0.286934 5:-0.256346 6:0.0291984 7:-0.0868858 8:0.0237844 9:-0.796878 10:-0.283644 11:0.104716 12:-0.565414 13:-0.402049 14:0.184804 15:0.345172 16:-0.0600024 17:-0.122553 18:0.316787 19:-0.269578 20:-0.313987 21:-0.333398 22:-0.0570306 23:0.118701 24:0.424115 25:-0.39073 26:-0.19033 27:-0.338858 28:-0.498458 29:0.156614 
-1 1:0.772257 2:0.444763 3:0.398219 4:0.236304 5:-0.156975 6:-0.709675 7:-0.639594 8:0.586112 9:-0.251106 10:0.226582 11:0.0648447 12:-0.130833 13:0.14231 14:0.24935 15:0.140786 16:0.278237 17:-0.144409 18:0.412386 19:-0.280201 20:-0.574806 21:0.371757 22:0.333492 23:-0.462983 24:0.0533232 25:0.177297 26:-0.524833 27:-0.043267 28:-0.475268 29:0.507242 
-1 1:0.304501 2:1 3:0.105299 4:-0.157395 5:-0.235144 6:0.0463108 7:-0.400285 8:0.312012 9:-0.484532 10:-0.210753 11:-0.0240067 12:0.0397659 13:0.605907 14:0.0554436 15:-0.174054 16:8.9464e-05 17:-0.318313 18:-0.222608 19:-0.310044 20:-0.491923 21:-0.0597101 22:0.681895 23:-0.282745 24:0.462289 25:-0.568307 26:-0.437279 27:0.072405 28:-0.23286 29:-0.00692347 
-1 1:0.375965 2:-0.00862828 3:0.245721 4:0.370915 5:0.156574 6:0.460759 7:0.543465 8:-0.0312137 9:-0.222311 10:0.665759 11:0.256495 12:0.320432 13:0.171285 14:0.126054 15:0.13991 16:0.606193 17:0.188201 18:0.209415 19:-0.59896 20:0.158726 21:0.251057 22:-0.706274 23:-0.316004 24:0.586525 25:0.237435 26:-0.00504841 27:-0.915574 28:-0.293122 29:-0.726659 
-1 1:0.262197 2:0.261448 3:0.274706 4:-0.187034 5:-0.205558 6:0.0220025 7:-0.280299 8:0.114138 9:-0.0746927 10:0.283872 11:0.208536 12:-0.0508268 13:0.175633 14:-0.220979 15:0.303801 16:0.575215 17:-0.582278 18:0.150708 19:-0.345538 20:-0.476055 21:0.141177 22:0.384659 23:-0.197281 24:0.126651 25:0.00258241 26:-0.0650878 27:-0.623375 28:-0.35966 29:0.156614 
-1 1:-0.37736 2:0.180837 3:0.420553 4:0.254996 5:0.344586 6:-0.229833 7:0.296385 8:0.179415 9:-0.523529 10:0.314012 11:0.251231 12:0.0305492 13:0.327023 14:0.389836 15:0.0983235 16:0.420994 17:0.0340159 18:0.287779 19:9.74094e-05 20:0.15788 21:-0.128055 22:0.486736 23:-0.525996 24:0.476289 25:0.153164 26:-0.132181 27:-0.266985 28:-0.185492 29:0.156614 
-1 1:0.616888 2:0.257578 3:-0.0572435 4:0.123498 5:0.0568803 6:0.224618 7:0.0605253 8:0.607873 9:-0.109554 10:0.072458 11:-0.0161593 12:-0.125693 13:0.00964318 14:-0.690459 15:0.753289 16:0.159243 17:-0.12307 18:-0.157071 19:-0.0992144 20:-0.0982803 21:-0.00866071 22:0.245218 23:-0.0430376 24:0.347792 25:-0.332906 26:-0.50806 27:0.832779 28:-0.208156 29:0.30164 
-1 1:0.0660929 2:0.0884004 3:0.422189 4:0.198491 5:0.198738 6:-0.272468 7:-0.0278804 8:-0.082171 9:-0.444673 10:0.290719 11:0.0660258 12:0.156697 13:-0.200459 14:-0.290094 15:-0.0958921 16:0.159062 17:0.0235647 18:0.10245 19:-0.25259 20:0.118706 21:-0.223722 22:-0.757756 23:-0.901495 24:0.0547098 25:0.421097 26:0.140586 27:-0.043267 28:-0.408947 29:0.156614 
-1 1:0.037112 2:0.414907 3:-0.14773 4:-0.336424 5:0.0508491 6:0.397961 7:0.874215 8:0.00425861 9:-0.123637 10:0.357299 11:0.413502 12:0.374544 13:-0.231133 14:0.113048 15:0.184282 16:0.92228 17:0.108318 18:0.669295 19:0.0779729 20:0.398808 21:-0.311385 22:0.670127 23:-0.573314 24:-0.317058 25:0.380522 26:0.32998 27:0.459319 28:0.336006 29:0.438923 
-1 1:0.338503 2:0.296191 3:0.469414 4:-0.195365 5:0.208021 6:-0.0610798 7:-0.227168 8:0.386586 9:-0.422291 10:0.11274 11:0.423924 12:-0.305902 13:-0.198051 14:0.106559 15:0.290078 16:0.578934 17:0.549241 18:0.184776 19:-0.161264 20:0.894772 21:0.20999 22:0.403215 23:0.412588 24:0.531861 25:0.0330144 26:1 27:-0.043267 28:0.056228 29:0.358143 
-1 1:0.275877 2:0.411727 3:-0.086449 4:-0.0899815 5:0.296138 6:-0.0859925 7:0.2429 8:0.420696 9:-0.237383 10:-0.152254 11:0.131667 12:-0.0216085 13:0.342251 14:-0.579012 15:-0.045083 16:-0.0249683 17:-0.911999 18:0.171456 19:0.0167921 20:-0.456334 21:-0.388884 22:0.0868271 23:-0.0502222 24:0.377768 25:0.369478 26:-0.679694 27:0.254226 28:-0.149842 29:-0.193834 
-1 1:0.0513394 2:-0.273325 3:0.19789 4:0.193361 5:0.108659 6:0.0298536 7:-0.0522308 8:-0.225607 9:-0.519899 10:0.486344 11:0.358674 12:0.401162 13:-0.15 14:0.0238866 15:-0.150054 16:0.437884 17:0.11277 18:0.281205 19:-0.123092 20:0.205542 21:0.2337 22:0.0947486 23:-0.297627 24:0.0781994 25:0.0673741 26:0.142418 27:-0.409026 28:-0.415994 29:-0.0972556 
-1 1:0.0119583 2:0.513992 3:0.988241 4:0.232764 5:0.553671 6:-0.179964 7:-0.535613 8:0.959678 9:-0.136897 10:-0.158151 11:0.268537 12:-0.10189 13:0.264632 14:-0.34424 15:0.535323 16:0.363001 17:0.172813 18:0.222306 19:-0.148225 20:-0.0628771 21:0.52737 22:0.529589 23:0.0103905 24:0.0435696 25:0.177297 26:-0.175434 27:-0.638255 28:-0.621526 29:0.805747 
-1 1:-0.241869 2:0.598689 3:-0.33483 4:0.351254 5:-0.407305 6:0.0196712 7:-0.365536 8:0.083705 9:-0.556469 10:-0.217965 11:-0.0938956 12:-0.169036 13:0.0724134 14:0.125377 15:-0.475634 16:-0.13505 17:-0.109166 18:-0.240676 19:-0.521978 20:-0.336294 21:-0.38683 22:0.0892362 23:-0.321781 24:-0.769686 25:0.204826 26:-0.322751 27:-0.387494 28:-0.251313 29:-0.19194 
-1 1:0.169755 2:0.286983 3:-0.000817508 4:0.401426 5:-0.0514268 6:-0.432232 7:-0.254966 8:0.0114049 9:-0.431944 10:0.270019 11:0.152518 12:-0.0394961 13:0.0790092 14:-0.245188 15:-0.273043 16:0.376682 17:-0.190328 18:0.129887 19:-0.342822 20:-0.396688 21:-0.10123 22:0.424248 23:-0.651712 24:-0.0667051 25:-0.0700283 26:-0.467856 27:-0.404707 28:-0.266746 29:-0.209369 
-1 1:0.166887 2:0.419101 3:-0.00454728 4:0.267024 5:0.0837344 6:0.430815 7:0.127915 8:-0.179394 9:-0.816301 10:0.295003 11:-0.155609 12:-0.514603 13:-0.647091 14:0.134216 15:0.133094 16:0.177655 17:-0.181132 18:0.0593955 19:-0.0571468 20:-0.286795 21:-0.1377 22:0.475422 23:-0.429 24:-0.322348 25:0.0315355 26:-0.401641 27:-0.043267 28:-0.338741 29:0.156614 
-1 1:-0.373638 2:0.558762 3:0.431308 4:0.230462 5:0.0437341 6:-0.166013 7:-0.366888 8:0.0597531 9:-0.386584 10:-0.156822 11:-0.351005 12:-0.261751 13:0.231196 14:-0.77477 15:-0.313067 16:0.157385 17:-0.528479 18:-0.222537 19:-0.387365 20:-0.250384 21:-0.284035 22:0.452018 23:-0.951609 24:0.521704 25:-0.334971 26:-0.285156 27:0.375472 28:-0.209647 29:0.183468 
-1 1:0.270096 2:0.242768 3:-0.608267 4:-0.313302 5:-0.461143 6:0.819015 7:-0.0752074 8:-0.0620881 9:0.184544 10:-0.199539 11:-0.159264 12:0.451006 13:-0.478806 14:-0.201147 15:0.119408 16:-0.421853 17:0.808297 18:-0.412143 19:-0.691375 20:0.379248 21:0.105644 22:-0.634645 23:-0.81429 24:-0.299796 25:0.177297 26:0.304667 27:-0.582811 28:-0.571814 29:-0.109049 
-1 1:0.819995 2:0.238967 3:0.379767 4:0.470771 5:0.288218 6:0.155325 7:0.189545 8:-0.0168348 9:0.0646805 10:0.588985 11:0.0234935 12:0.0648647 13:0.295866 14:-0.202332 15:0.187667 16:0.423054 17:-0.0732408 18:0.229755 19:-0.180927 20:-0.377903 21:0.201873 22:0.307607 23:-0.481318 24:0.470461 25:0.582085 26:-0.541084 27:-0.21804 28:-0.493277 29:0.156614 
-1 1:0.647872 2:0.391543 3:0.277892 4:0.286343 5:0.23465 6:0.251218 7:-0.0248648 8:-0.35453 9:-0.348845 10:0.124201 11:0.204311 12:0.398879 13:0.0946647 14:-0.232213 15:0.156199 16:0.210748 17:-0.504221 18:0.041485 19:-0.561009 20:-0.542153 21:0.477258 22:-0.231997 23:-0.128055 24:0.73921 25:0.148978 26:-0.175434 27:-0.043267 28:-0.685564 29:0.156614 
-1 1:0.121731 2:0.198646 3:0.238372 4:0.25344 5:0.159549 6:-0.3279 7:-0.414478 8:0.211971 9:-0.376153 10:0.0181678 11:0.212968 12:-0.210583 13:0.660172 14:-0.72655 15:0.207661 16:-0.0249174 17:0.174246 18:-0.728944 19:-0.283165 20:-0.933657 21:-0.388834 22:0.0606496 23:-0.0886399 24:0.528384 25:-0.596112 26:-0.175434 27:-0.043267 28:-0.646849 29:-0.0296097 
-1 1:0.138349 2:0.330689 3:0.315174 4:0.397042 5:-0.185208 6:-0.301074 7:0.340385 8:0.0103645 9:-0.343919 10:-0.191838 11:0.297697 12:0.123338 13:-0.0442698 14:-0.214358 15:0.150609 16:0.671305 17:-0.0279984 18:0.380139 19:0.187152 20:-0.456334 21:0.191501 22:0.752686 23:0.00951827 24:0.351899 25:0.326901 26:-0.175434 27:0.13893 28:-0.373859 29:-0.446821 
-1 1:-0.374477 2:0.0938749 3:-0.222985 4:-0.336258 5:-0.0628505 6:0.0642299 7:-0.562498 8:0.0306734 9:-0.324802 10:-0.490602 11:-0.256079 12:-0.363277 13:-0.167391 14:-0.568567 15:-0.495525 16:-0.10394 17:-0.198883 18:-0.749749 19:-0.466725 20:-0.278873 21:-0.110361 22:-0.206894 23:-0.912315 24:-0.0775832 25:-0.080343 26:-0.343402 27:-0.043267 28:-0.419575 29:0.156614 
-1 1:-0.259153 2:0.243599 3:-0.949481 4:-0.490479 5:-0.747939 6:0.189392 7:-0.14283 8:-0.15156 9:-0.679162 10:-0.31152 11:-0.209659 12:0.789313 13:-0.0713301 14:-0.444325 15:0.268983 16:0.351518 17:-0.112645 18:-0.486975 19:-0.158652 20:-0.412742 21:-0.390542 22:-0.387301 23:-0.434812 24:-0.774106 25:-0.143338 26:-0.456664 27:-0.113694 28:-0.199073 29:0.156614 
-0.1161413584806677 1:-0.091059 2:0.0588496 3:0.0510148 4:0.548265 5:-0.232117 6:-0.044081 7:-0.0769658 8:0.158501 9:-0.635559 10:-0.487838 11:0.317923 12:-0.258127 13:-0.148761 14:0.49732 15:-0.194508 16:0.658337 17:-0.0115615 18:0.168123 19:-0.38627 20:-0.512025 21:0.00948435 22:0.384832 23:0.541024 24:-0.7771 25:-0.256909 26:-0.162071 27:-0.043267 28:0.0473998 29:-0.197678 
