svm_type c_svc
kernel_type rbf
gamma 0.05
nr_class 2
total_sv 221
rho -1.39564
label 1 0
probA -9.43355
probB 8.07947
nr_sv 121 100
SV
0.09607474420447071 1:0.15532 2:0.134253 3:0.259126 4:-0.0841257 5:0.66223 6:0.537726 7:-0.288044 8:-0.187338 9:0.588303 10:-0.0199264 11:0.129457 12:-0.176181 13:0.59387 14:0.174517 15:-0.229183 16:-0.353324 17:-0.276258 18:-0.0315886 19:-0.104186 20:0.0428977 
1 1:-0.60618 2:-0.710851 3:-0.0365631 4:-0.42922 5:-0.0922639 6:0.53034 7:0.258648 8:0.0883651 9:-0.630737 10:0.0339083 11:0.33445 12:0.159345 13:0.486088 14:0.372824 15:-0.21063 16:-0.105173 17:-0.716445 18:-0.482907 19:-0.629781 20:-0.464566 
0.509813244809603 1:-0.498618 2:-0.841241 3:0.114488 4:-0.384033 5:-0.365701 6:0.13681 7:-0.345391 8:0.0343845 9:-0.450025 10:0.022944 11:0.285084 12:-0.30406 13:0.653102 14:0.235263 15:0.231373 16:-0.667359 17:-0.323054 18:-0.121067 19:0.0478158 20:-0.654756 
1 1:-0.352408 2:-0.437249 3:0.400876 4:-0.128296 5:-0.11814 6:0.511361 7:-4.51771e-05 8:0.0920343 9:-0.367334 10:0.452924 11:0.391459 12:-0.514452 13:0.847023 14:0.423503 15:-0.0418927 16:0.0443877 17:0.0655978 18:-0.0368646 19:-0.275065 20:0.189655 
0.5887887962902711 1:0.439754 2:0.273154 3:-0.857075 4:0.384065 5:0.493254 6:0.220477 7:0.257487 8:0.320301 9:0.886292 10:-0.185317 11:0.906345 12:0.252597 13:0.578265 14:0.721133 15:0.650674 16:0.160753 17:0.179972 18:0.467166 19:0.484796 20:0.38439 
1 1:0.237829 2:0.0857698 3:0.169857 4:0.00602475 5:0.19754 6:0.205519 7:0.0273574 8:0.421377 9:0.295067 10:-0.0816196 11:0.642444 12:0.0673491 13:-0.544178 14:0.383604 15:0.603972 16:0.113882 17:0.464348 18:0.0566275 19:0.17221 20:0.189655 
1 1:0.445613 2:-0.083998 3:-0.00598118 4:-0.328612 5:-0.142898 6:0.308561 7:-0.00969388 8:0.389671 9:0.452131 10:-0.168678 11:0.24834 12:0.0971811 13:-0.728728 14:-0.0610298 15:0.47619 16:0.674291 17:0.824911 18:-0.120793 19:0.0478158 20:-0.076116 
1 1:-0.170847 2:-0.400537 3:0.601278 4:-0.514597 5:-0.424384 6:0.451619 7:0.0554321 8:0.134129 9:-0.515561 10:0.28668 11:0.134238 12:-0.604638 13:0.786126 14:0.368285 15:0.07418 16:-0.351895 17:0.246925 18:-0.189794 19:-0.608629 20:-0.162767 
1 1:0.664487 2:0.105854 3:-0.176967 4:0.0897899 5:0.251317 6:0.296821 7:-0.0571776 8:0.438309 9:0.241199 10:0.41249 11:-0.0337037 12:0.210142 13:0.395614 14:-0.011759 15:0.527719 16:0.21976 17:0.539109 18:0.109298 19:0.566728 20:-0.582156 
1 1:-0.656828 2:-0.296484 3:0.280011 4:-0.388655 5:0.249148 6:0.475161 7:-0.0482062 8:0.187783 9:-0.100984 10:0.1105 11:0.366061 12:0.229832 13:0.924553 14:0.240049 15:0.478445 16:-0.00775753 17:0.157729 18:-0.0655427 19:0.171548 20:0.246543 
1 1:0.299915 2:0.143852 3:0.696505 4:-0.107869 5:0.110336 6:0.215729 7:0.381934 8:0.557176 9:0.461388 10:0.319088 11:0.210475 12:-0.197153 13:0.819794 14:0.0898106 15:0.399431 16:-0.0348798 17:0.566906 18:-0.48357 19:0.584752 20:0.189655 
1 1:0.298015 2:0.168025 3:0.325402 4:-0.74158 5:-0.456103 6:0.23508 7:-0.0423765 8:-0.227828 9:-0.0656656 10:-0.310551 11:0.0215917 12:-0.337259 13:0.0730856 14:-0.135135 15:0.574152 16:-0.380453 17:-0.0256497 18:-0.120793 19:0.692387 20:0.189655 
0.1650061467688245 1:-0.28295 2:0.372388 3:0.0157363 4:-0.467918 5:0.208947 6:0.254053 7:0.102728 8:0.173359 9:0.202251 10:-0.406808 11:0.339202 12:-0.18725 13:-0.529563 14:0.211829 15:-0.138249 16:-0.576481 17:0.030946 18:-0.562645 19:-0.0381371 20:0.180679 
0.378575596280501 1:-0.353491 2:0.0325643 3:0.308935 4:-0.460761 5:-0.418806 6:0.0534098 7:-0.375745 8:-0.461836 9:-0.444149 10:-0.245227 11:0.465555 12:-0.108267 13:0.812618 14:0.422305 15:-0.288693 16:-0.0991319 17:-0.656308 18:-0.974147 19:-0.108886 20:0.189655 
1 1:-0.269368 2:-0.0498539 3:0.421914 4:0.0593485 5:-0.0564908 6:0.5567 7:0.109134 8:0.86398 9:0.0345296 10:-0.279956 11:0.441321 12:0.333196 13:0.421735 14:0.295409 15:0.437279 16:0.244317 17:0.505735 18:-0.577412 19:0.0478158 20:0.189655 
1 1:-0.10764 2:0.00963121 3:0.102442 4:-0.00566485 5:-0.163522 6:0.403284 7:-0.335757 8:-0.011463 9:-0.178248 10:-0.0863481 11:-0.395994 12:0.344884 13:0.561321 14:-0.344463 15:0.30029 16:0.202852 17:0.137197 18:0.188849 19:-0.204833 20:0.289674 
1 1:-0.239025 2:-0.623206 3:0.268836 4:-0.237043 5:0.0682756 6:0.379834 7:-0.292616 8:-0.0263914 9:0.0493119 10:0.105872 11:0.108492 12:0.0307299 13:0.918997 14:0.0108482 15:0.000718265 16:-0.00260522 17:0.0653892 18:0.201916 19:0.201927 20:-0.451472 
1 1:-0.61679 2:0.0606011 3:0.463524 4:-0.970407 5:-0.339428 6:0.334737 7:0.24384 8:0.134953 9:0.0765395 10:-0.378008 11:0.177528 12:-0.555641 13:0.587442 14:0.104994 15:0.443549 16:-0.550349 17:-0.00230968 18:-0.120793 19:0.0707099 20:0.525628 
1 1:0.33352 2:0.275684 3:-0.114955 4:-0.192624 5:0.189996 6:0.227656 7:0.093403 8:0.0612778 9:0.666389 10:-0.257405 11:-0.156968 12:0.143914 13:0.691075 14:-0.265463 15:0.635718 16:-0.0631265 17:-0.294928 18:-0.208617 19:0.366542 20:-0.0653664 
1 1:0.516049 2:0.382426 3:0.168408 4:0.388592 5:-0.599504 6:-0.198633 7:0.20858 8:0.459085 9:0.691873 10:0.187754 11:0.282841 12:0.51289 13:0.268838 14:0.318248 15:0.779049 16:-0.0178552 17:0.666436 18:-0.278603 19:0.049999 20:0.589921 
1 1:-0.100978 2:-0.085318 3:0.454484 4:-0.0453073 5:-0.229235 6:-0.0839767 7:0.358661 8:0.54679 9:0.125375 10:0.151258 11:0.43465 12:-0.0776591 13:-0.447923 14:0.426753 15:0.0204475 16:-0.142529 17:0.0389584 18:-0.120793 19:-0.27406 20:0.16026 
0.06919937525345911 1:-0.187418 2:0.0915278 3:0.561256 4:0.0157529 5:-0.0889811 6:0.287584 7:0.41242 8:0.508552 9:0.309591 10:-0.490528 11:-0.696772 12:0.0610074 13:-0.505774 14:-0.792802 15:0.277647 16:-0.231024 17:0.129281 18:0.341425 19:0.0478158 20:-0.226369 
0.6582162289595107 1:-0.616815 2:-0.367114 3:-0.337618 4:-0.321779 5:-0.31893 6:0.570579 7:-0.251642 8:0.216545 9:0.0159857 10:-0.520064 11:-0.127115 12:0.0727827 13:-0.451719 14:-0.175749 15:0.401181 16:-0.419757 17:-0.846181 18:-0.169103 19:-0.080359 20:-0.0246806 
1 1:0.0066917 2:0.0485795 3:-0.366469 4:0.174835 5:-0.114672 6:0.220688 7:0.07901 8:0.480684 9:0.260816 10:-1 11:0.216934 12:0.21469 13:-0.516374 14:0.308584 15:-0.581591 16:0.154809 17:0.142935 18:-0.239007 19:-0.369681 20:0.189655 
0.1136368602157766 1:-0.282581 2:0.176334 3:0.0230134 4:-0.209303 5:0.0403846 6:0.4011 7:0.150393 8:-0.16761 9:-0.0393077 10:0.060166 11:-0.364228 12:1 13:-0.283941 14:-0.355165 15:0.612009 16:0.0866389 17:-0.0256497 18:0.237661 19:-0.323255 20:0.277356 
0.4029167039268585 1:0.320783 2:0.148 3:0.179136 4:-0.173952 5:0.21882 6:0.0157418 7:0.0642666 8:0.288604 9:0.461014 10:0.086795 11:-0.377569 12:0.316407 13:0.125181 14:-0.111874 15:0.370718 16:0.235624 17:0.423978 18:-0.228337 19:0.318378 20:0.0789238 
1 1:-0.497973 2:-0.27704 3:0.580645 4:-0.0505024 5:0.415777 6:0.486517 7:0.431826 8:0.511872 9:-0.123812 10:0.0124645 11:0.456764 12:0.0199756 13:0.768034 14:0.325738 15:-0.0818165 16:-0.0202221 17:-0.0473097 18:-0.68727 19:-0.0943843 20:0.259725 
0.02979895288682483 1:-0.684164 2:-1 3:-0.13873 4:-0.579179 5:-0.32892 6:0.342821 7:-0.143773 8:0.348118 9:-0.386117 10:-0.293354 11:0.243673 12:-0.592975 13:0.23633 14:0.22691 15:0.271596 16:-0.266662 17:0.432116 18:0.277723 19:-0.426975 20:0.189655 
1 1:-0.169747 2:-0.142705 3:0.251111 4:-0.321668 5:0.243426 6:0.327271 7:-0.0473129 8:0.0713188 9:0.518191 10:-0.266536 11:0.387414 12:0.310552 13:0.586599 14:0.458581 15:-0.347848 16:0.28279 17:0.221865 18:-0.471241 19:0.135994 20:0.226978 
1 1:0.166448 2:-0.106738 3:0.0093798 4:0.237298 5:0.282261 6:0.391263 7:-0.0329986 8:0.367031 9:0.348247 10:-0.168513 11:0.123379 12:0.404065 13:-0.253605 14:0.045136 15:0.451403 16:0.287841 17:0.352004 18:0.025175 19:0.49491 20:-0.106021 
1 1:-0.311152 2:-0.00847236 3:0.218558 4:-0.173346 5:0.0777211 6:0.551043 7:-0.619379 8:0.000157421 9:-0.22088 10:-0.365593 11:0.092439 12:0.0128861 13:0.664417 14:-0.241108 15:0.612956 16:-0.246434 17:-0.562435 18:-0.120793 19:-0.0168081 20:0.189655 
0.5592574991895402 1:0.306165 2:0.233473 3:-0.400704 4:-0.193926 5:-0.556998 6:0.220114 7:0.117725 8:0.117424 9:0.324523 10:-0.443312 11:-0.457674 12:0.332128 13:-0.538004 14:-0.371925 15:-0.480193 16:0.381598 17:0.22038 18:-0.32763 19:-0.293714 20:-0.586064 
0.1913692733726408 1:0.57415 2:0.561551 3:0.278049 4:0.107028 5:0.152178 6:0.100308 7:0.219635 8:0.00598689 9:-0.245035 10:0.29394 11:-0.654367 12:0.423845 13:-0.364598 14:-0.65851 15:0.206673 16:0.0137759 17:0.428994 18:-0.0134675 19:-0.0525033 20:0.189655 
1 1:-0.269669 2:-0.257837 3:0.339636 4:-0.471649 5:-0.758703 6:0.00294698 7:0.254662 8:0.073143 9:-0.281125 10:0.150464 11:-0.37087 12:-0.439476 13:-0.343005 14:-0.0515468 15:-0.337357 16:-0.223402 17:-0.0626067 18:0.479744 19:0.0478158 20:0.189655 
1 1:-0.0447107 2:-0.299372 3:0.0564033 4:-0.0410914 5:0.113806 6:0.283395 7:-0.199475 8:-0.120224 9:-0.0980836 10:-0.479679 11:0.413552 12:0.570013 13:0.545825 14:0.456876 15:0.374613 16:0.0287804 17:0.141644 18:-0.601448 19:0.353381 20:0.484679 
1 1:0.100957 2:0.36441 3:0.171353 4:-0.292193 5:-0.894943 6:0.123931 7:0.26481 8:-0.0796739 9:0.0205327 10:0.289241 11:-0.72524 12:0.540162 13:-0.241608 14:-0.519916 15:0.384499 16:-0.341901 17:-0.60418 18:-0.0183933 19:0.525104 20:0.485883 
1 1:0.119715 2:0.350435 3:0.680525 4:-0.152789 5:-0.131256 6:0.0982538 7:0.487012 8:0.569595 9:0.150106 10:0.244124 11:0.142453 12:-0.41781 13:-0.280758 14:0.140475 15:-0.665605 16:-0.206546 17:0.306154 18:0.51845 19:0.126148 20:-0.388049 
1 1:0.0206599 2:0.0553027 3:0.297061 4:-0.0143237 5:-0.0390764 6:0.523214 7:-0.344815 8:-0.271539 9:-0.375406 10:-0.0417111 11:0.295244 12:0.31289 13:0.830192 14:0.495231 15:0.229459 16:0.229578 17:-0.458702 18:-0.120793 19:0.0478158 20:-0.220469 
1 1:-0.0500974 2:0.0368811 3:0.72439 4:-0.210922 5:0.289569 6:0.447046 7:1 8:0.775697 9:0.0475779 10:0.0737347 11:-0.332861 12:0.128143 13:-0.594839 14:-0.0979828 15:0.325161 16:-0.0753963 17:0.379523 18:-0.222791 19:0.153817 20:0.573376 
0.1632896960765891 1:-0.491033 2:-0.181039 3:0.542027 4:-0.441439 5:-0.243242 6:0.198625 7:0.016594 8:0.148991 9:0.212403 10:0.0327573 11:0.19264 12:0.0902894 13:0.807235 14:0.407952 15:0.569894 16:-0.396523 17:-0.627617 18:-0.241346 19:-0.157401 20:0.488298 
1 1:0.319084 2:-0.228173 3:-0.298884 4:-0.0762887 5:-0.576838 6:0.391259 7:-0.0202292 8:0.833395 9:-0.220589 10:0.0025013 11:-0.49924 12:-0.374125 13:-0.288642 14:-0.409232 15:0.69678 16:0.12624 17:0.655363 18:0.280659 19:-0.602485 20:0.189655 
1 1:0.0950633 2:0.643873 3:0.205431 4:0.218792 5:-0.0888684 6:0.52429 7:0.31108 8:0.0303946 9:0.892708 10:-0.0698976 11:0.122933 12:0.380117 13:0.532627 14:0.433821 15:-0.428225 16:0.12995 17:-0.308703 18:-0.120793 19:-0.229828 20:0.648935 
1 1:-0.733427 2:-0.576267 3:-0.190429 4:-0.20289 5:-0.0916359 6:0.313278 7:-0.378377 8:-0.155536 9:-0.314039 10:0.173601 11:-0.0051579 12:-0.0980807 13:0.579586 14:0.0199851 15:-0.0568342 16:0.0421964 17:-0.418909 18:-0.121259 19:0.188787 20:0.189655 
1 1:-0.383938 2:-0.205024 3:0.00243771 4:0.130862 5:-0.54328 6:-0.0985511 7:0.111177 8:0.489706 9:-0.255634 10:-0.0899649 11:-0.629078 12:0.441889 13:0.00770967 14:-0.471596 15:0.204339 16:-0.180301 17:0.0487584 18:-0.598908 19:0.214622 20:0.260124 
1 1:-0.402085 2:-0.57512 3:0.176029 4:-0.111142 5:0.107655 6:0.244973 7:0.0804719 8:0.274059 9:-0.618023 10:0.207864 11:-0.19103 12:-0.168372 13:-0.0908536 14:0.0342496 15:-0.027266 16:-0.134223 17:-0.19048 18:-0.272404 19:0.0478158 20:0.0335516 
0.4107535433273627 1:-0.0479052 2:-0.215969 3:0.170057 4:-0.432677 5:0.458008 6:0.148912 7:0.104901 8:0.490552 9:0.296266 10:-0.233219 11:0.0595128 12:0.015209 13:0.124501 14:-0.0626268 15:0.572726 16:-0.0166939 17:0.555436 18:0.052434 19:-0.229355 20:-0.0779537 
0.6769894006700932 1:-0.0701573 2:0.452578 3:0.347986 4:0.415719 5:-0.140112 6:0.732927 7:-0.190376 8:0.162582 9:0.452351 10:-0.145182 11:0.294658 12:0.709293 13:0.524736 14:0.15096 15:0.388632 16:0.234103 17:-0.761259 18:-0.0302176 19:-0.382309 20:0.282915 
1 1:-0.156395 2:-0.0733321 3:0.0554294 4:-0.455429 5:-0.323967 6:-0.138353 7:-0.12201 8:-0.0115029 9:-0.284477 10:-0.223489 11:0.124252 12:-0.129918 13:0.262042 14:0.139252 15:0.248425 16:-0.646718 17:-0.123336 18:-0.643779 19:-0.048004 20:-0.34883 
1 1:-0.40052 2:-0.616314 3:-0.288249 4:-0.463856 5:-0.28096 6:0.655446 7:-0.355846 8:-0.0274904 9:0.0281304 10:-0.526055 11:0.749845 12:0.0613863 13:0.458138 14:0.756151 15:-0.512467 16:0.361662 17:-0.13016 18:-0.216922 19:0.0478158 20:0.20746 
0.4527369828621054 1:0.352044 2:0.268317 3:0.287628 4:0.0519213 5:0.0602984 6:0.281723 7:0.0319319 8:0.024118 9:0.068684 10:0.0948764 11:-0.0811553 12:0.0457499 13:0.679015 14:-0.0716888 15:0.670009 16:0.312563 17:0.0735197 18:-0.120793 19:0.476593 20:-0.0883848 
0.6120990072927045 1:0.34929 2:0.115315 3:0.300811 4:0.996486 5:0.156196 6:0.311153 7:0.0588086 8:0.0561949 9:0.61845 10:0.353857 11:0.0450704 12:0.77346 13:-0.353481 14:0.349202 15:-0.160785 16:-0.800048 17:-0.192588 18:-0.120793 19:0.0545426 20:0.19615 
0.1588407106277555 1:0.162393 2:0.430831 3:0.665417 4:-0.358801 5:-0.0140438 6:0.415909 7:0.11367 8:0.00121418 9:0.270911 10:-0.140646 11:0.10255 12:0.23092 13:-0.494272 14:0.258967 15:-0.185273 16:0.0282547 17:-0.329919 18:-0.602055 19:0.0407898 20:0.765429 
1 1:0.15285 2:0.000970082 3:0.672726 4:-0.10957 5:-0.093781 6:0.641329 7:0.00667212 8:-0.00628361 9:0.320996 10:0.520932 11:0.140671 12:0.0152852 13:0.864976 14:0.257012 15:0.495465 16:0.332059 17:0.357214 18:-0.120793 19:0.370741 20:0.189655 
1 1:0.35663 2:0.204993 3:0.0560735 4:-0.031648 5:-0.343105 6:0.205121 7:0.000778088 8:-0.172691 9:0.645927 10:-0.450986 11:0.177272 12:0.392542 13:-0.332131 14:0.100493 15:-0.124432 16:0.445454 17:-0.296562 18:0.496291 19:0.243985 20:0.379057 
1 1:0.431239 2:0.219167 3:0.428707 4:-0.121522 5:-0.0184382 6:0.648628 7:0.256365 8:0.457494 9:0.463761 10:0.560253 11:-0.188846 12:0.0985048 13:0.714652 14:-0.172278 15:0.606718 16:0.369483 17:1 18:-0.377725 19:0.0478158 20:-0.0748912 
1 1:0.453094 2:-0.607875 3:-0.419503 4:0.0514981 5:0.13507 6:0.481223 7:-0.588656 8:0.396959 9:0.301118 10:0.206837 11:-0.112176 12:0.158638 13:0.586006 14:-0.0957071 15:0.0969209 16:0.190883 17:0.382289 18:0.424265 19:-0.630458 20:-0.465219 
0.4459886161100226 1:-0.251128 2:-0.744318 3:-0.215855 4:-0.536848 5:-0.300736 6:0.534915 7:-0.324987 8:0.291417 9:-0.224826 10:-0.343309 11:0.190556 12:0.389186 13:-0.49359 14:0.125706 15:0.106293 16:1 17:0.297042 18:-0.591169 19:0.299531 20:-0.294661 
0.3303169221996567 1:0.130337 2:-0.18326 3:0.104513 4:-0.330519 5:0.262356 6:0.243417 7:-0.287764 8:0.264672 9:0.0174939 10:-0.319936 11:-0.0620172 12:0.103496 13:0.562616 14:0.100526 15:0.567001 16:-0.0901669 17:0.278515 18:-0.434015 19:0.175694 20:-0.414225 
0.914334201450363 1:-0.137633 2:-0.10619 3:0.116574 4:0.110104 5:-0.161176 6:0.154583 7:0.0295412 8:-0.0196905 9:0.395647 10:0.106823 11:-0.544039 12:0.243223 13:-0.0208812 14:-0.328627 15:-0.296239 16:0.615166 17:-0.0256497 18:0.267328 19:0.59561 20:0.189655 
1 1:-0.917292 2:-0.0170606 3:-0.151249 4:0.118091 5:0.195353 6:0.493642 7:0.077649 8:0.569788 9:-0.288343 10:-0.0904271 11:0.192794 12:0.291188 13:0.292292 14:-0.316204 15:0.0717741 16:-0.0423333 17:-0.479906 18:0.00793762 19:0.185098 20:0.189655 
1 1:0.1832 2:-0.122358 3:-1 4:-0.363851 5:-0.196854 6:0.0840229 7:0.0664266 8:0.309834 9:-0.10675 10:-0.2123 11:-0.072304 12:0.0351977 13:0.177892 14:0.0495178 15:0.447407 16:0.126376 17:-0.540636 18:0.522535 19:-0.165901 20:0.147905 
1 1:-0.193114 2:0.0366927 3:0.495993 4:-0.49613 5:0.0162474 6:0.0824303 7:0.384347 8:0.409345 9:0.151133 10:0.020762 11:-0.179263 12:-0.14468 13:0.675417 14:-0.313412 15:-0.355471 16:-0.507405 17:-0.245482 18:-0.48285 19:-0.629722 20:0.0982439 
1 1:-0.427566 2:-0.322182 3:-0.270397 4:-0.0744445 5:-0.385993 6:0.0171735 7:-0.0823452 8:0.20858 9:-0.244805 10:-0.403989 11:0.0670967 12:-0.00244094 13:-0.241546 14:0.179114 15:0.186379 16:-0.152501 17:-0.192522 18:-0.160861 19:0.240374 20:0.031618 
1 1:-0.239648 2:-0.407354 3:0.473285 4:-0.00510449 5:-0.108822 6:0.362357 7:-0.0379514 8:0.575316 9:-0.0373595 10:-0.105072 11:0.0401401 12:-0.0390266 13:0.653466 14:0.17136 15:-0.222723 16:-0.210661 17:0.502446 18:0.0452328 19:-0.187514 20:-0.483527 
1 1:0.035008 2:-0.604027 3:0.436247 4:0.175138 5:-0.181047 6:0.338379 7:-0.0685166 8:-0.305351 9:-0.976611 10:-0.0852133 11:0.0593686 12:0.229642 13:-0.269246 14:0.164778 15:0.155932 16:0.00797162 17:0.227969 18:0.0134019 19:-0.165317 20:0.265252 
1 1:0.306927 2:0.231022 3:0.665063 4:0.60975 5:-0.254576 6:0.414681 7:0.0894455 8:0.513485 9:0.315146 10:0.483564 11:0.383874 12:0.361325 13:0.881348 14:0.356476 15:0.900777 16:-0.324048 17:0.47128 18:-0.430905 19:0.00853469 20:0.151729 
1 1:0.391706 2:0.162296 3:-0.173845 4:-0.0842481 5:-0.175815 6:0.217873 7:0.0214845 8:0.0545004 9:0.0526661 10:0.215199 11:-0.364541 12:0.324722 13:0.100294 14:-0.199581 15:0.545395 16:-0.0222851 17:0.31328 18:-0.628879 19:-0.032114 20:-0.0521121 
1 1:0.375452 2:-0.00490643 3:-0.698155 4:0.241824 5:-0.343289 6:0.123166 7:0.358981 8:0.550195 9:-0.0978625 10:-0.322713 11:-0.726236 12:0.283328 13:-0.311695 14:-0.390997 15:0.491304 16:-0.154914 17:0.119052 18:-0.120793 19:0.331221 20:-0.0452635 
0.1181835525987171 1:-0.318142 2:0.0219812 3:-0.708911 4:0.0385337 5:-0.296025 6:0.143398 7:-0.831291 8:-0.431251 9:-0.0131625 10:-0.0946094 11:-0.248757 12:0.492503 13:0.142829 14:-0.398823 15:-0.295817 16:0.0285114 17:-0.0256497 18:-0.357699 19:-0.204826 20:-0.335647 
1 1:-0.318829 2:-0.384718 3:-0.385971 4:-0.277698 5:-0.109993 6:0.142857 7:0.0972596 8:0.185089 9:-0.417083 10:0.0720768 11:-0.20017 12:-0.00125001 13:0.604263 14:-0.0623786 15:0.463197 16:0.328809 17:0.365559 18:0.178264 19:-0.0951675 20:-0.229771 
1 1:0.0567754 2:-0.164086 3:0.459069 4:-0.0124461 5:0.237929 6:0.883436 7:-0.0222791 8:0.0186511 9:0.105944 10:0.176317 11:0.854851 12:0.276801 13:0.842554 14:0.827017 15:0.485779 16:0.0418048 17:0.121163 18:-0.41889 19:0.312778 20:-0.117276 
1 1:-0.442014 2:-0.488949 3:-0.0640976 4:-0.377857 5:0.0529177 6:0.438854 7:0.068373 8:0.0798577 9:-0.218552 10:-0.283519 11:0.60802 12:0.0500282 13:-0.00407783 14:0.536527 15:-0.547514 16:-0.0920324 17:-0.0552428 18:-0.30787 19:-0.322163 20:-0.284342 
1 1:-0.0609838 2:-0.565499 3:-0.207691 4:-0.240137 5:-0.0872782 6:0.413285 7:0.157434 8:-0.0242341 9:-0.561352 10:-0.280913 11:-0.22885 12:0.32204 13:0.00704642 14:-0.056877 15:0.513166 16:-0.0916936 17:-0.0414216 18:-0.76983 19:-0.182429 20:0.0841358 
1 1:0.0993079 2:-0.379039 3:-0.210404 4:-0.255469 5:-0.094377 6:0.491357 7:-0.441426 8:0.181014 9:-0.174724 10:0.0817635 11:0.299667 12:0.361609 13:0.301843 14:0.482993 15:0.656536 16:0.106236 17:0.454746 18:-0.120793 19:-0.590543 20:0.189655 
1 1:-0.295838 2:-0.0809272 3:0.369203 4:-0.637274 5:-0.0331046 6:0.347747 7:-0.193769 8:0.0557565 9:-0.0164115 10:-0.140764 11:0.41158 12:-0.0334359 13:0.317455 14:0.369979 15:0.461013 16:-0.946619 17:-0.281015 18:-0.223021 19:-0.296489 20:0.303198 
1 1:0.378051 2:0.531253 3:-0.0263437 4:0.0738055 5:-0.474026 6:0.135804 7:0.577135 8:0.283496 9:0.327556 10:-0.106377 11:-0.503896 12:0.480732 13:-0.0662991 14:-0.677078 15:0.45844 16:-0.0294873 17:-0.0271801 18:0.037656 19:0.50822 20:0.278789 
0.8099597335298634 1:0.293807 2:0.194768 3:0.327791 4:-0.547772 5:-0.441128 6:-0.0734978 7:0.429705 8:-0.0262905 9:0.095595 10:-0.0264699 11:-0.367498 12:0.0402894 13:0.586463 14:-0.399237 15:0.885042 16:0.0516589 17:0.109038 18:0.00309172 19:0.0861108 20:-0.336123 
1 1:-0.294397 2:-0.563121 3:-0.177681 4:-0.071191 5:-0.271957 6:0.270572 7:-0.362196 8:-0.227009 9:0.061235 10:-0.809185 11:-0.175097 12:0.349203 13:0.264003 14:0.0483301 15:-0.632856 16:-0.596321 17:-0.0256497 18:-0.745419 19:0.0478158 20:-0.172106 
1 1:-0.689112 2:0.0714959 3:0.629365 4:-0.141031 5:-0.298957 6:-0.018555 7:0.0627668 8:0.100225 9:0.016953 10:-0.37646 11:0.221049 12:0.0327241 13:0.595902 14:0.291989 15:-0.118535 16:-0.605961 17:0.101646 18:0.31111 19:-0.459702 20:0.517576 
1 1:-0.0829497 2:-0.134451 3:0.51811 4:-3.42852e-05 5:-0.431622 6:0.131719 7:0.0690878 8:0.487639 9:-0.166511 10:-0.119923 11:0.242912 12:0.173765 13:0.547292 14:0.349308 15:0.313094 16:0.208112 17:0.536556 18:0.0279643 19:-0.510298 20:-0.18461 
1 1:-0.18008 2:-0.323702 3:0.419839 4:0.176967 5:-0.292486 6:0.315936 7:0.361138 8:0.36921 9:-0.372214 10:-0.0535691 11:0.351712 12:0.266549 13:-0.280336 14:0.365951 15:0.00924769 16:-0.0193924 17:-0.40061 18:-0.192403 19:-0.319981 20:0.189655 
1 1:-0.230958 2:-0.296076 3:-0.186499 4:-0.0171806 5:0.0549634 6:0.350539 7:-0.0144024 8:0.345763 9:0.206092 10:-0.368987 11:-0.516648 12:0.254434 13:-0.153742 14:-0.678843 15:0.092379 16:0.0798722 17:0.210545 18:-0.309476 19:-0.011932 20:0.189655 
1 1:-0.312488 2:-0.498755 3:-0.124675 4:-0.456914 5:-0.0771392 6:0.57379 7:-0.183497 8:0.206003 9:-0.404018 10:-0.341127 11:0.506175 12:0.129456 13:0.284393 14:0.413751 15:0.0527648 16:0.169179 17:0.110143 18:-0.155748 19:-0.742797 20:-0.127712 
0.9101693240580367 1:0.266827 2:0.289757 3:0.384983 4:-0.228918 5:0.176939 6:0.720315 7:-0.152417 8:-0.00589055 9:0.321373 10:0.0926829 11:0.715325 12:-0.283331 13:-0.0117751 14:0.540138 15:0.630127 16:-0.476885 17:-0.678056 18:-0.447597 19:-0.00926528 20:0.189655 
1 1:1 2:1 3:0.394519 4:0.635971 5:-0.49838 6:0.463592 7:0.337016 8:0.432268 9:0.859997 10:0.583252 11:0.0014701 12:0.379698 13:-0.369883 14:0.0709842 15:-0.581591 16:0.101165 17:0.0479014 18:-0.326419 19:0.119962 20:0.259312 
0.9465681691276452 1:0.235495 2:0.424335 3:0.146764 4:0.0252291 5:-0.377844 6:0.106189 7:-0.0208786 8:0.323076 9:0.291305 10:0.0421604 11:-0.367437 12:0.6023 13:-0.43137 14:-0.150349 15:0.679823 16:-0.435376 17:-0.328819 18:-0.120793 19:0.135688 20:-0.0974623 
1 1:0.279137 2:-0.161409 3:0.283432 4:0.259301 5:-0.19094 6:0.274975 7:-0.0255406 8:0.632736 9:0.322266 10:0.208439 11:0.351904 12:0.0550486 13:0.966943 14:0.208476 15:0.340063 16:0.418593 17:0.543875 18:-0.416778 19:-0.26783 20:0.0494934 
0.8687378362617085 1:-0.295036 2:-0.623143 3:0.0935401 4:-0.813343 5:-0.529954 6:0.545802 7:-0.17371 8:-0.140963 9:-0.817555 10:-0.175936 11:0.174369 12:0.271444 13:-0.449714 14:0.126156 15:0.698188 16:0.0589464 17:-0.0256497 18:0.19159 19:-0.29573 20:-0.423415 
1 1:0.523903 2:-0.0619011 3:-0.0629284 4:-0.11745 5:-0.066365 6:0.370906 7:-0.0373592 8:0.465875 9:0.182716 10:0.0244038 11:-0.313954 12:-0.452285 13:0.169732 14:-0.0474473 15:0.655227 16:0.0305255 17:-0.0751221 18:-0.599432 19:0.411673 20:0.189655 
0.2787479583134772 1:0.58201 2:0.423336 3:0.403577 4:0.0572507 5:-0.216004 6:0.236152 7:0.271836 8:0.150442 9:0.552949 10:0.212055 11:-0.214052 12:0.362569 13:-0.589617 14:-0.124118 15:-0.440306 16:-0.133218 17:0.297273 18:-0.916879 19:0.0731389 20:0.097323 
0.5408542177879901 1:-0.326769 2:0.0217546 3:0.171287 4:-0.0508329 5:-0.364014 6:0.278398 7:0.261271 8:0.353939 9:0.250112 10:0.264153 11:-0.350334 12:0.106347 13:-0.523127 14:-0.210116 15:-0.656402 16:-0.0158281 17:0.24324 18:-0.508 19:0.0967948 20:-0.490403 
1 1:-0.542829 2:-0.361642 3:-0.318261 4:-0.209599 5:-0.404527 6:0.382383 7:0.350966 8:0.14879 9:-0.238103 10:-0.0781201 11:-0.252643 12:-0.00759177 13:-0.0240164 14:-0.216031 15:0.0863362 16:0.250982 17:-0.23485 18:0.393196 19:0.0478158 20:0.189655 
0.7226176680894493 1:-0.28579 2:-0.169242 3:0.0497275 4:-0.399206 5:-0.0636353 6:0.46256 7:-0.292996 8:-0.234389 9:-0.169346 10:-0.0177904 11:0.295246 12:0.491968 13:-0.305191 14:0.470883 15:0.417442 16:-0.101426 17:0.0562698 18:-0.120793 19:-0.16326 20:0.189655 
0.350449164856187 1:0.327601 2:0.397971 3:0.794603 4:-0.577465 5:-0.149505 6:0.047621 7:0.361725 8:0.0486912 9:0.229872 10:0.643611 11:-0.129514 12:0.361246 13:-0.269266 14:-0.158423 15:0.729063 16:-0.264602 17:-0.585252 18:0.131673 19:0.0478158 20:0.105651 
1 1:-0.57407 2:-0.374703 3:-0.259369 4:-0.0566641 5:-0.0461044 6:0.312238 7:0.11207 8:0.528276 9:-0.279504 10:-0.0700622 11:-0.120827 12:0.384916 13:0.429797 14:-0.214718 15:0.494147 16:0.0363704 17:-0.356564 18:-0.26531 19:0.108473 20:-0.123739 
1 1:0.0195584 2:-0.396634 3:0.292026 4:-0.0390134 5:-0.0776987 6:0.252189 7:-0.095534 8:0.305225 9:-0.376335 10:0.0971267 11:0.188216 12:-0.0633805 13:0.813033 14:0.514039 15:0.321969 16:0.339586 17:-0.166048 18:0.271178 19:-0.0899004 20:0.189655 
0.05338616789429607 1:-0.47577 2:-0.250369 3:-0.180972 4:0.0333108 5:0.0125614 6:0.37159 7:-0.278328 8:-0.0142006 9:-0.0129358 10:-0.374221 11:0.578473 12:0.158486 13:0.488033 14:0.482955 15:-0.0385034 16:0.00522608 17:-0.0256497 18:-0.562795 19:0.03836 20:0.180526 
1 1:0.0490784 2:-0.213609 3:-0.253479 4:-0.453202 5:0.0653636 6:0.359671 7:-0.269159 8:0.451764 9:-0.0501913 10:-0.188116 11:0.00738944 12:-0.0547547 13:0.380251 14:0.150891 15:0.386633 16:-0.1932 17:0.384887 18:-0.120793 19:-0.0450499 20:-0.462759 
1 1:0.262963 2:-0.0708326 3:0.406191 4:0.0471687 5:0.572858 6:0.545911 7:-0.217286 8:0.444435 9:-0.0181763 10:0.15794 11:0.233883 12:-0.0452242 13:0.626731 14:0.368428 15:-0.191811 16:0.60204 17:0.83249 18:0.19952 19:-0.137311 20:0.189655 
0.116326467673535 1:-0.248157 2:0.858843 3:-0.343851 4:0.702787 5:0.126698 6:0.47941 7:0.0349065 8:0.563536 9:0.263669 10:0.373247 11:-0.08713 12:0.502885 13:-0.52618 14:0.171877 15:-0.183271 16:0.134776 17:0.0396259 18:0.159879 19:0.205664 20:0.189655 
0.2033867979824988 1:-0.0574963 2:0.449657 3:0.451674 4:-0.42013 5:-0.0825354 6:0.30206 7:0.377872 8:-0.189744 9:0.372232 10:0.0952507 11:-0.287348 12:0.717609 13:-0.472797 14:-0.366412 15:0.143065 16:-0.0785094 17:-0.417617 18:-0.120793 19:-0.0452329 20:0.545787 
1 1:0.293949 2:0.595111 3:0.137717 4:-0.14198 5:0.127909 6:0.635239 7:-0.0187233 8:0.0922491 9:0.329858 10:-0.0756935 11:0.121305 12:0.0424566 13:0.620513 14:-0.193004 15:0.697659 16:0.000732704 17:0.168392 18:-0.488869 19:-0.34471 20:0.373423 
1 1:-0.398181 2:-0.491163 3:0.257446 4:-0.0185084 5:-0.345739 6:0.290435 7:0.347947 8:0.536804 9:-0.148724 10:0.326689 11:0.26412 12:-0.202216 13:0.96716 14:0.28866 15:-0.257178 16:-0.101045 17:0.169206 18:0.0119973 19:0.0478158 20:-0.517746 
1 1:0.166192 2:-0.112675 3:-0.243969 4:-0.130141 5:-0.458625 6:-0.276338 7:0.11426 8:0.53253 9:0.048462 10:-0.0204647 11:-0.00305916 12:0.199359 13:-0.406418 14:-0.226274 15:0.573308 16:-0.169851 17:-0.466256 18:0.567047 19:-0.384373 20:-0.227623 
1 1:0.0520973 2:0.0244962 3:0.480005 4:0.0293266 5:-0.539183 6:-0.0538393 7:0.447804 8:0.347253 9:-0.284862 10:-0.245715 11:-0.405133 12:0.257216 13:0.247446 14:-0.480871 15:-0.108071 16:-0.189277 17:0.508389 18:-0.0162844 19:-0.764545 20:-0.14871 
1 1:-0.285623 2:-0.61286 3:1 4:-0.234717 5:-0.258127 6:0.198673 7:0.283687 8:0.234121 9:0.00504823 10:0.167129 11:0.208185 12:-0.135897 13:1 14:0.312742 15:-0.252611 16:-0.737146 17:0.300077 18:-0.474958 19:-0.621303 20:-0.0844224 
1 1:0.122577 2:-0.0841166 3:-0.0433983 4:-0.322371 5:-0.0184717 6:0.470852 7:-0.194179 8:0.201822 9:0.0596422 10:0.0935636 11:0.222197 12:-0.0345804 13:-0.00173048 14:0.149732 15:0.668918 16:-0.167002 17:0.243992 18:-0.337469 19:-0.0894334 20:0.0571404 
0.4913088171598656 1:-0.0208173 2:0.0419888 3:0.241976 4:0.0903921 5:-0.36396 6:0.0572174 7:0.217152 8:0.667638 9:0.0522467 10:-0.585794 11:0.376755 12:-0.108682 13:-0.448211 14:0.191621 15:0.412508 16:0.100215 17:0.116369 18:-0.624695 19:0.187122 20:0.11679 
1 1:0.161649 2:-0.00371704 3:-0.205269 4:0.179174 5:-0.257742 6:0.503783 7:-0.426388 8:-0.385197 9:0.08496 10:-0.245234 11:0.183736 12:0.455823 13:0.546845 14:0.257974 15:0.022996 16:-0.0639212 17:-0.308722 18:-0.541019 19:-0.108894 20:-0.0784296 
1 1:0.144577 2:0.0414957 3:0.0316926 4:0.33003 5:-0.20566 6:0.343602 7:-0.348329 8:-0.415567 9:0.155175 10:0.00577003 11:0.0906972 12:0.280847 13:0.517283 14:0.200678 15:-0.0266671 16:-0.448886 17:-0.519583 18:-0.301834 19:0.239999 20:0.00324959 
1 1:0.111248 2:0.277847 3:-0.00470221 4:0.118591 5:0.526345 6:0.471857 7:0.167301 8:0.237512 9:0.499084 10:0.264368 11:0.0168604 12:0.0183529 13:-0.386209 14:0.093429 15:-0.465986 16:-0.27814 17:-0.131352 18:-0.218018 19:0.235563 20:-0.0750455 
1 1:-0.070647 2:-0.27877 3:0.522234 4:-0.44832 5:-0.443314 6:0.230269 7:0.146428 8:0.57382 9:-0.228663 10:-0.147202 11:-0.0863161 12:0.181064 13:-0.541965 14:-0.124976 15:-1 16:-0.134048 17:0.565673 18:-0.757982 19:-0.631699 20:0.189655 
1 1:0.0395304 2:0.19974 3:0.320238 4:-0.339556 5:-0.106618 6:0.2682 7:0.468435 8:0.164405 9:0.124755 10:-0.148364 11:-0.473668 12:0.21457 13:-0.0379754 14:-0.526351 15:0.843371 16:-0.285902 17:-0.0177887 18:-0.38684 19:0.149346 20:0.42427 
1 1:-0.074438 2:0.298435 3:-0.021836 4:-0.387085 5:-0.280744 6:0.175675 7:0.121757 8:-0.0373925 9:-0.20717 10:-0.0258458 11:0.0455395 12:-0.183084 13:-0.387286 14:0.186174 15:0.357718 16:-0.151819 17:0.187898 18:-0.19765 19:-0.0341457 20:0.189655 
1 1:-0.342087 2:-0.0577527 3:0.452695 4:-0.0907118 5:-0.252489 6:0.385345 7:0.594167 8:0.260973 9:-0.0730121 10:0.1118 11:0.0326229 12:0.536584 13:-0.523055 14:0.0668752 15:0.600346 16:0.0516143 17:0.108982 18:0.00304046 19:0.0478158 20:-0.0548 
1 1:-0.48724 2:-0.215648 3:-0.193497 4:-0.422768 5:-0.0618404 6:-0.075555 7:0.106842 8:0.593437 9:0.263155 10:-0.452521 11:0.322982 12:0.409423 13:0.170011 14:0.33934 15:-0.130239 16:0.289996 17:0.547847 18:0.334825 19:0.0274951 20:0.451412 
0.7165743855899576 1:0.0174057 2:-0.331389 3:-0.329908 4:-0.435814 5:0.0243579 6:0.00466462 7:-0.421817 8:-0.0592962 9:-0.155187 10:-0.375761 11:0.147868 12:-0.109225 13:-0.354931 14:0.278812 15:-0.714165 16:-0.177755 17:-0.24515 18:-0.120793 19:-0.0736715 20:-0.580976 
0.7663122431464869 1:0.09793 2:0.483554 3:0.116614 4:-0.192262 5:-0.243306 6:0.263078 7:-0.0422884 8:0.549994 9:0.403703 10:-0.364372 11:0.130871 12:0.0819377 13:-0.275586 14:0.189906 15:0.270692 16:-0.429287 17:0.313893 18:-0.119337 19:-0.627311 20:-0.462181 
1 1:0.562606 2:0.806139 3:0.873924 4:-0.412276 5:-0.254077 6:0.0140976 7:0.416119 8:0.0269224 9:0.365916 10:0.324095 11:-0.158562 12:0.761084 13:-0.31026 14:-0.0853025 15:0.638644 16:-0.359547 17:0.129592 18:-0.120793 19:0.13528 20:0.853426 
0.178414993155352 1:-0.0759508 2:-0.221883 3:0.294967 4:-0.325845 5:-0.153027 6:0.857359 7:-0.213794 8:0.141897 9:-0.464106 10:-0.129272 11:0.279531 12:-0.108625 13:0.675113 14:0.436126 15:0.24441 16:0.154412 17:-0.070767 18:-0.120793 19:-0.458346 20:-0.580421 
1 1:-0.282125 2:0.170808 3:-0.186667 4:0.133294 5:-0.413826 6:0.0299789 7:0.387528 8:0.169782 9:0.292471 10:0.126804 11:-0.18854 12:0.369382 13:0.0483728 14:-0.097516 15:-0.371101 16:-0.0313141 17:-0.214123 18:-0.134293 19:-0.137056 20:0.457132 
-1 1:-0.299118 2:-0.192943 3:0.0626634 4:0.0605298 5:0.00175485 6:0.3758 7:0.152435 8:0.466781 9:0.0466662 10:0.121871 11:-0.326966 12:0.269566 13:-0.59535 14:-0.27922 15:0.585712 16:0.542764 17:0.254902 18:0.721388 19:0.108233 20:0.189655 
-1 1:-0.208567 2:-0.441385 3:0.00567486 4:-0.515496 5:-0.24898 6:0.647262 7:0.151215 8:0.163269 9:-0.340981 10:-0.163789 11:0.428338 12:0.315878 13:0.598465 14:0.311232 15:0.390745 16:0.37544 17:-0.485356 18:-0.543629 19:-0.111677 20:0.0356648 
-1 1:-0.585471 2:0.241846 3:0.0839303 4:0.176047 5:-0.0233313 6:0.303256 7:0.319987 8:0.384419 9:0.52276 10:-0.0161254 11:-0.616675 12:0.778991 13:-0.304452 14:-0.712696 15:0.472534 16:-0.189462 17:0.066032 18:0.0293972 19:0.268149 20:0.344297 
-1 1:0.129657 2:-0.273779 3:-0.138952 4:-0.546238 5:-0.206171 6:0.526642 7:0.789109 8:0.140966 9:-0.22452 10:0.582489 11:0.312189 12:0.154706 13:-0.22397 14:0.56543 15:-0.327753 16:0.347549 17:0.394624 18:0.105916 19:0.0478158 20:0.141707 
-1 1:-0.34814 2:-0.0104818 3:0.291734 4:-0.567339 5:-0.155075 6:0.251978 7:-0.248788 8:-0.0156101 9:0.102718 10:-0.444891 11:0.231653 12:-0.122226 13:0.255168 14:0.389895 15:0.63258 16:-0.502348 17:-0.586724 18:0.182965 19:-0.502539 20:-0.0603366 
-1 1:0.240554 2:-0.0141193 3:-0.117115 4:0.365426 5:-0.137736 6:0.269566 7:-0.0664262 8:0.59771 9:0.364957 10:0.103933 11:0.255778 12:0.174471 13:-0.294961 14:-0.0414389 15:0.0481431 16:0.254236 17:0.335786 18:0.170114 19:0.308526 20:0.189655 
-1 1:0.363819 2:0.0117321 3:0.34266 4:-0.217845 5:-0.157881 6:0.65172 7:0.191654 8:0.27424 9:0.116919 10:0.31263 11:0.325925 12:0.00752502 13:-0.338719 14:0.297868 15:0.389948 16:0.0621285 17:0.419293 18:-0.346067 19:0.43996 20:0.239082 
-1 1:0.267704 2:0.134603 3:0.109057 4:-0.36265 5:-0.478006 6:0.157019 7:0.422884 8:0.0464973 9:0.164489 10:-0.478448 11:-0.0506847 12:-0.228991 13:0.500156 14:-0.213858 15:0.638043 16:-0.157835 17:0.238693 18:-0.120793 19:0.092335 20:0.068044 
-1 1:-0.251726 2:-0.114496 3:-0.0338217 4:0.11292 5:-0.117141 6:0.296332 7:0.373393 8:0.531608 9:0.16103 10:-0.244668 11:-0.0236329 12:0.40907 13:-0.0367658 14:-0.0397479 15:-0.556017 16:-0.0218722 17:-0.280414 18:0.412062 19:-0.202081 20:0.189655 
-1 1:0.0854259 2:-0.408588 3:-0.027824 4:-0.290908 5:-0.384137 6:0.122017 7:0.0170979 8:-0.191717 9:-0.183246 10:0.160476 11:0.297733 12:-0.0487973 13:-0.248263 14:0.157372 15:-0.0889493 16:0.54285 17:-0.27511 18:-0.623523 19:0.0478158 20:-0.327973 
-1 1:-0.00664329 2:0.186425 3:-0.225162 4:-0.71671 5:-0.126302 6:0.275946 7:0.12317 8:-0.00167676 9:0.095392 10:-0.477095 11:-0.0490461 12:-0.227412 13:0.369216 14:-0.291287 15:-0.47877 16:-0.294994 17:0.144588 18:-0.120793 19:0.214801 20:0.796851 
-1 1:0.106674 2:-0.529341 3:0.237431 4:-0.251035 5:-0.0712983 6:0.508534 7:-0.180045 8:0.0167815 9:-0.531986 10:0.129433 11:-0.035627 12:0.0282851 13:0.704622 14:-0.0857288 15:-0.744542 16:-0.132027 17:0.0521478 18:-0.368949 19:-0.0463486 20:0.189655 
-1 1:0.132708 2:0.113435 3:0.279978 4:-0.619529 5:-0.374829 6:0.508469 7:0.124378 8:0.27903 9:0.0128814 10:0.0917157 11:0.0195489 12:0.309788 13:-0.174465 14:0.140575 15:0.389727 16:-0.113638 17:0.0752429 18:-0.120793 19:0.146781 20:0.492571 
-1 1:0.0376026 2:0.0310899 3:0.584681 4:-0.31411 5:0.0261498 6:0.545043 7:0.00512266 8:0.118591 9:0.15546 10:0.341554 11:0.434228 12:-0.0187618 13:0.782535 14:0.508369 15:0.252563 16:-0.538677 17:0.103894 18:-0.00163929 19:-0.903533 20:0.0610476 
-1 1:0.00987492 2:-0.21132 3:0.0987522 4:-0.487112 5:0.0492312 6:0.744848 7:-0.467258 8:-0.39688 9:-0.524106 10:0.187524 11:0.228558 12:-0.0018568 13:-0.118004 14:-0.00850045 15:-0.581591 16:0.590204 17:0.191169 18:-0.120793 19:0.0478158 20:-0.167757 
-1 1:0.740284 2:0.470064 3:0.521462 4:0.234147 5:-0.0880536 6:0.525548 7:0.181332 8:0.250923 9:0.406991 10:-0.0561096 11:0.377702 12:0.144287 13:0.445696 14:0.283591 15:0.187732 16:0.197156 17:0.855347 18:0.344385 19:0.543894 20:-0.430687 
-1 1:0.211172 2:0.0744547 3:0.257028 4:0.114941 5:-0.431656 6:-0.00102936 7:0.295271 8:0.393686 9:0.208722 10:0.151298 11:-0.139101 12:0.252215 13:-0.496944 14:-0.128787 15:0.575747 16:-0.395002 17:0.192788 18:0.168101 19:-0.106006 20:0.115152 
-1 1:0.231007 2:-0.185047 3:0.499627 4:-0.806665 5:0.907079 6:0.625922 7:0.41 8:0.501669 9:-0.594621 10:0.0311255 11:0.199163 12:-0.325867 13:0.64154 14:0.208746 15:-0.124558 16:-0.295431 17:0.519296 18:-0.397847 19:0.120444 20:0.467143 
-1 1:-0.181011 2:-0.147101 3:0.278219 4:-0.187806 5:-0.20684 6:0.246716 7:0.183244 8:0.261064 9:-0.0122085 10:-0.174776 11:0.124931 12:0.0846593 13:-0.291094 14:0.236629 15:0.000707916 16:0.582383 17:-0.332568 18:-0.0263796 19:-0.11177 20:-0.191596 
-1 1:-0.404308 2:-0.350339 3:-0.114831 4:-0.202602 5:-0.222089 6:0.499719 7:0.110091 8:0.419802 9:-0.542654 10:-0.257309 11:0.280767 12:0.176538 13:0.621636 14:0.0805475 15:0.235516 16:-0.332142 17:0.00228857 18:0.338038 19:0.0478158 20:-0.346638 
-1 1:-0.333297 2:-0.469657 3:0.0504945 4:-0.179868 5:-0.352232 6:0.3618 7:-0.0953823 8:0.0437317 9:-0.0115034 10:0.264502 11:-0.272545 12:0.022091 13:0.452029 14:-0.00733876 15:0.0230093 16:-0.0386587 17:0.358791 18:1 19:0.133481 20:-0.0715866 
-1 1:-0.0478532 2:-0.122146 3:0.129004 4:-0.237651 5:-0.662359 6:0.477574 7:-0.10536 8:0.364486 9:-0.30864 10:-0.202241 11:-0.00774701 12:0.229218 13:0.197567 14:-0.311656 15:0.497466 16:-0.154292 17:0.371779 18:0.0130219 19:-0.0242547 20:0.401448 
-1 1:0.445994 2:0.171963 3:-0.0286105 4:0.255489 5:-0.465168 6:0.0434136 7:0.0459836 8:0.087466 9:-0.0418795 10:-0.777433 11:-0.12844 12:0.315893 13:-0.115443 14:-0.148269 15:0.106786 16:0.024516 17:0.519867 18:-0.00572692 19:0.0938695 20:-0.137839 
-1 1:-0.208321 2:-0.643303 3:-0.422577 4:-0.257535 5:-0.50937 6:0.407724 7:-0.587687 8:-0.173443 9:-0.278684 10:0.127603 11:0.117616 12:0.0507936 13:0.666076 14:0.120727 15:0.339892 16:-0.227131 17:-0.20379 18:-0.831201 19:-0.418351 20:0.0209458 
-1 1:0.319321 2:0.0598954 3:0.154131 4:-0.100062 5:-0.568143 6:-0.0465602 7:-0.0462334 8:0.124898 9:-0.0102106 10:-0.218591 11:0.101525 12:0.251962 13:0.373528 14:-0.229071 15:0.543621 16:-0.0279082 17:0.142055 18:-0.0545149 19:0.288972 20:-0.0234779 
-1 1:-0.213688 2:-0.159576 3:0.115871 4:-0.514332 5:0.31391 6:0.418054 7:-0.302126 8:0.238749 9:0.0649346 10:-0.296369 11:0.0752261 12:0.196365 13:0.619217 14:0.0998618 15:0.42439 16:-0.0223204 17:0.487032 18:-0.321337 19:0.0478158 20:0.147762 
-1 1:-0.171599 2:0.239049 3:0.397153 4:-0.394451 5:0.300413 6:0.419562 7:0.0316556 8:0.0266003 9:0.165293 10:-0.0569785 11:0.253817 12:0.122865 13:0.786647 14:0.0318449 15:0.533985 16:-0.495634 17:-0.107388 18:-0.195976 19:0.0478158 20:0.276839 
-1 1:0.0561317 2:0.121197 3:0.750633 4:-0.269352 5:-0.0525045 6:0.0830028 7:0.741526 8:0.636764 9:0.0483579 10:-0.0433835 11:-0.147091 12:-0.0674724 13:0.604378 14:0.0445917 15:0.263204 16:0.0300494 17:0.502316 18:-0.455004 19:0.509552 20:0.29151 
-1 1:-0.450669 2:-0.464986 3:-0.0746771 4:-0.132795 5:-0.298828 6:0.233523 7:0.033827 8:0.364961 9:-0.299977 10:-0.175065 11:0.445837 12:-0.0530326 13:0.799343 14:0.359199 15:-0.555313 16:-0.632479 17:-0.0602918 18:-0.152657 19:-0.662844 20:-0.0505165 
-1 1:0.0731946 2:-0.0901776 3:0.0314608 4:0.224185 5:-0.200061 6:0.432185 7:-0.184643 8:0.359166 9:0.0729681 10:-0.372472 11:0.341755 12:-0.350896 13:0.893259 14:0.0756001 15:-0.162253 16:-0.0161021 17:0.119586 18:0.0127935 19:-0.486403 20:0.189655 
-1 1:-0.0357946 2:-0.40709 3:0.0913815 4:-0.33496 5:-0.341653 6:-0.153603 7:0.069088 8:0.478155 9:-0.0941591 10:-0.285266 11:-0.586309 12:0.0590988 13:-0.220887 14:-0.448417 15:0.41131 16:-0.0500677 17:0.844939 18:-0.0679803 19:0.104137 20:-0.037343 
-1 1:0.609017 2:0.0750619 3:0.38071 4:-0.0983009 5:-0.264131 6:0.274986 7:0.223604 8:0.601695 9:0.273876 10:0.239629 11:0.0493163 12:-0.0347824 13:-0.459979 14:-0.0349698 15:0.43709 16:-0.0469455 17:0.332796 18:-0.136255 19:0.362829 20:0.173735 
-1 1:-0.0775463 2:0.161163 3:-0.00206632 4:0.0369949 5:-0.397884 6:0.0321365 7:0.222147 8:0.206522 9:-0.0560631 10:-0.648621 11:0.396925 12:0.410262 13:-0.340644 14:0.385472 15:0.444131 16:-0.687205 17:0.341882 18:-0.143992 19:0.448398 20:0.392939 
-1 1:0.0818224 2:-0.0522823 3:0.827722 4:-0.575051 5:0.0418563 6:0.331787 7:0.50117 8:0.406964 9:0.138006 10:0.165634 11:0.246043 12:-0.121084 13:0.871798 14:0.194477 15:0.346255 16:0.0927904 17:0.611656 18:-0.301787 19:-0.0242477 20:0.284673 
-1 1:0.147164 2:-0.12192 3:-0.663613 4:-0.0747149 5:-0.0114628 6:0.0843297 7:-0.177613 8:0.532758 9:0.0831121 10:-0.0511874 11:-0.0143231 12:0.0190254 13:0.38999 14:0.0406657 15:0.632867 16:-0.192817 17:-0.0241961 18:-0.207432 19:0.246852 20:-0.462304 
-1 1:0.0394232 2:-0.261009 3:0.341198 4:-0.979087 5:-0.467783 6:0.84265 7:-0.234534 8:-0.0457775 9:0.00666142 10:-0.145777 11:0.00501021 12:0.159006 13:-0.541333 14:-0.187942 15:-0.535155 16:-0.271142 17:-0.122563 18:-0.120793 19:-0.0472459 20:0.189655 
-1 1:-0.363255 2:-0.506503 3:-0.848611 4:0.0891542 5:0.0954111 6:0.346516 7:-0.41801 8:0.129587 9:-0.478613 10:-0.35554 11:-0.127001 12:0.23985 13:0.574842 14:-0.058649 15:0.316125 16:0.0343668 17:-0.23296 18:-0.744611 19:0.135896 20:-0.171273 
-1 1:-0.445783 2:-0.800673 3:-0.29029 4:-0.463772 5:-0.257789 6:-0.0673567 7:-0.343235 8:-0.064526 9:-0.316899 10:-0.469655 11:-0.634035 12:0.373485 13:-0.382893 14:-0.583137 15:-0.294202 16:-0.104282 17:0.00884309 18:-0.0171852 19:0.0478158 20:-0.431013 
-1 1:-0.00288526 2:0.229468 3:0.273452 4:-0.118153 5:0.0106321 6:-0.32054 7:0.464513 8:0.788974 9:0.473443 10:0.0845077 11:-0.746731 12:0.359962 13:-0.521438 14:-0.631167 15:-0.474337 16:-0.387336 17:-0.0495309 18:0.0889793 19:-0.360858 20:0.167038 
-1 1:-0.447739 2:-0.340375 3:-0.376409 4:-0.398333 5:-0.397799 6:0.227792 7:-0.404682 8:0.29349 9:-0.145992 10:-0.225534 11:-0.765631 12:0.370072 13:-0.27229 14:-0.465642 15:-0.559556 16:0.136238 17:-0.0673156 18:-0.360513 19:0.148414 20:-0.503139 
-1 1:-0.0539864 2:-0.00088462 3:-0.332087 4:0.162942 5:-0.226701 6:0.114459 7:0.179526 8:0.596267 9:0.130446 10:-0.0888499 11:-0.138285 12:0.0777884 13:0.12774 14:-0.290392 15:0.377049 16:0.123551 17:0.616579 18:0.729837 19:0.00109441 20:-0.301425 
-1 1:-0.315638 2:0.173176 3:-0.123214 4:0.0272815 5:0.0388322 6:0.577332 7:0.191027 8:0.425485 9:0.314466 10:-0.0870228 11:-0.0799598 12:0.168951 13:0.0318321 14:0.135056 15:-0.359255 16:-0.275818 17:-0.302232 18:0.259338 19:0.0478158 20:-0.0722825 
-1 1:0.0455629 2:-0.0310338 3:0.301706 4:-0.579793 5:-0.131468 6:0.232259 7:0.251745 8:0.330374 9:0.451542 10:-0.0239097 11:-0.200808 12:-0.180826 13:0.706622 14:0.120313 15:0.278798 16:0.174196 17:0.487211 18:0.411709 19:0.153785 20:0.291968 
-1 1:-0.404572 2:-0.125337 3:0.451595 4:-0.246023 5:0.280807 6:0.442011 7:0.787495 8:0.485119 9:-0.242227 10:0.0481094 11:-0.334921 12:0.215022 13:-0.189672 14:-0.485136 15:0.365866 16:0.128944 17:-0.214318 18:-0.29433 19:0.0478158 20:-0.434995 
-1 1:-0.126795 2:-0.341996 3:0.549291 4:-0.467514 5:-0.000915916 6:0.477971 7:0.397627 8:0.376474 9:-0.308271 10:0.132778 11:0.279989 12:-0.557998 13:0.772136 14:0.207934 15:0.120426 16:0.168041 17:0.118699 18:-0.534577 19:-0.102024 20:0.0449849 
-1 1:-0.00659658 2:-0.36618 3:-0.245565 4:0.38048 5:-0.302882 6:0.561086 7:-0.0885025 8:-0.0378784 9:0.102851 10:0.0285247 11:0.643907 12:0.471022 13:0.0324028 14:0.497015 15:0.0965478 16:-0.094815 17:-0.0749143 18:-0.367503 19:-0.385757 20:0.052416 
-1 1:-0.449138 2:-0.496971 3:-0.0841488 4:-0.279151 5:-0.00586573 6:0.559647 7:-0.328782 8:-0.20818 9:-0.0109601 10:-0.106934 11:0.348392 12:0.382189 13:0.77154 14:0.126552 15:0.165383 16:-0.195698 17:-0.672513 18:-0.715775 19:-0.586688 20:0.023011 
-1 1:-0.249854 2:0.235209 3:0.236984 4:-0.215604 5:0.0618214 6:0.399971 7:-0.100341 8:0.534019 9:0.293302 10:-0.351294 11:-0.0149133 12:0.117599 13:-0.0840195 14:-0.173335 15:0.73713 16:-0.470032 17:0.287943 18:0.493571 19:-0.46273 20:0.350057 
-1 1:0.0750608 2:-0.231864 3:0.0334986 4:-0.0395618 5:-0.342835 6:0.061312 7:-0.124078 8:-0.0183389 9:-0.0684445 10:0.0144758 11:0.289564 12:0.184587 13:0.597199 14:0.250116 15:0.265376 16:-0.198629 17:-0.271366 18:0.0144513 19:-0.0993858 20:0.0475312 
-1 1:-0.258339 2:-0.0668069 3:-0.447083 4:0.025374 5:0.0319476 6:0.505533 7:0.0257585 8:0.478341 9:-0.125156 10:-0.388592 11:0.194825 12:0.425403 13:-0.36063 14:0.265604 15:0.579815 16:0.27239 17:0.464398 18:-0.30458 19:-0.439609 20:0.189655 
-1 1:0.468218 2:0.130714 3:0.137512 4:-0.0986255 5:-0.0888212 6:0.55389 7:-0.4329 8:-0.02032 9:0.593314 10:-0.00349179 11:-0.224075 12:0.643427 13:0.397256 14:0.00976739 15:0.81235 16:0.177454 17:0.414831 18:-0.535473 19:-0.10298 20:-0.237314 
-1 1:0.618929 2:0.535137 3:0.737513 4:-0.15404 5:-0.752808 6:0.399713 7:0.182858 8:0.0385478 9:0.378004 10:0.466084 11:-0.442128 12:0.328141 13:-0.306911 14:-0.0616352 15:0.909163 16:0.0768277 17:0.23905 18:-0.615291 19:0.0478158 20:-0.0381227 
-1 1:-0.0878592 2:0.251172 3:0.48324 4:-0.638319 5:0.0976542 6:0.444537 7:0.0679244 8:0.264363 9:-0.141299 10:-0.0391435 11:0.442933 12:0.0117976 13:0.553659 14:0.47857 15:0.346928 16:-0.460307 17:-0.455777 18:-0.516423 19:-0.374094 20:0.290848 
-1 1:-0.213051 2:-0.31563 3:0.162762 4:-0.4298 5:-0.442387 6:0.289958 7:-0.130105 8:0.0475631 9:-0.720257 10:-0.176042 11:-0.0916191 12:0.0356718 13:-0.133141 14:-0.12133 15:0.383251 16:-0.13052 17:0.0540408 18:-0.120793 19:0.0478158 20:0.148345 
-1 1:0.759145 2:0.358018 3:0.18396 4:0.482056 5:0.761217 6:0.459767 7:-0.0754804 8:0.193863 9:1 10:0.417395 11:-0.0329091 12:-0.123022 13:0.674192 14:-0.207366 15:0.60576 16:0.323956 17:-0.0256497 18:-0.576807 19:0.485322 20:0.189655 
-1 1:0.664023 2:0.361594 3:0.730142 4:-0.194122 5:-0.486345 6:0.284704 7:0.218549 8:-0.00475204 9:0.284463 10:0.642152 11:0.0395319 12:0.061593 13:0.657711 14:-0.256318 15:0.100936 16:-0.0701543 17:-0.407124 18:-0.471672 19:0.135535 20:0.109754 
-1 1:0.196528 2:-0.41072 3:0.0742074 4:-0.326803 5:-0.198324 6:0.621641 7:0.2596 8:0.273848 9:-0.251224 10:0.120798 11:0.184302 12:-0.0240727 13:-0.0769048 14:0.228952 15:0.696848 16:0.218652 17:0.305964 18:-0.76116 19:-0.0522285 20:0.189655 
-1 1:-0.211982 2:-0.12317 3:-0.254146 4:0.207602 5:0.274694 6:0.327647 7:-0.355594 8:-0.105655 9:0.161985 10:-0.160759 11:0.206764 12:0.438711 13:0.535808 14:0.202678 15:0.697371 16:0.329454 17:-0.386256 18:0.0122141 19:-0.305901 20:-0.26864 
-1 1:0.813613 2:0.815957 3:0.396618 4:0.235288 5:0.00579677 6:0.357665 7:0.383221 8:0.149222 9:0.704429 10:0.0510932 11:-0.458262 12:0.562298 13:0.507032 14:-0.0721178 15:0.214314 16:0.528639 17:-0.183255 18:-0.539034 19:0.646558 20:-0.0763864 
-1 1:-0.29243 2:-0.127088 3:-0.148346 4:-0.4583 5:0.079613 6:0.251544 7:-0.326038 8:0.371004 9:0.290132 10:-0.627981 11:0.201279 12:-0.157885 13:-0.419936 14:0.337227 15:0.186385 16:-0.431902 17:-0.324457 18:-0.395635 19:-0.151463 20:0.188044 
-1 1:0.181374 2:0.0743488 3:0.491917 4:-0.233299 5:-0.141402 6:0.0147952 7:0.426827 8:0.106189 9:0.000652509 10:0.331675 11:-0.0380373 12:-0.158229 13:-0.478604 14:0.18002 15:0.754062 16:-0.00459721 17:-0.0188484 18:-0.608447 19:-0.76366 20:0.340885 
-1 1:-0.102202 2:-0.0813915 3:0.0801557 4:0.142907 5:-0.273587 6:0.0885592 7:-0.00915614 8:0.299162 9:0.0806291 10:-0.163117 11:0.216694 12:-0.14935 13:0.710558 14:0.213293 15:0.556465 16:-0.661837 17:-0.0762479 18:-0.501386 19:0.103848 20:0.00514765 
-1 1:-0.214106 2:-0.132012 3:0.386655 4:-0.309646 5:-0.453698 6:0.291547 7:0.156738 8:0.336514 9:-0.0743265 10:0.378225 11:-0.132335 12:-0.125341 13:0.895299 14:-0.0905638 15:-0.0596419 16:0.433611 17:0.519437 18:0.12752 19:0.268326 20:0.300539 
-1 1:-0.00478767 2:0.414657 3:0.955433 4:-0.3911 5:0.383438 6:0.629988 7:0.268644 8:0.173827 9:0.0288603 10:0.424069 11:0.416311 12:-0.0300597 13:0.845704 14:0.237619 15:-0.117799 16:-0.256297 17:0.634517 18:0.152373 19:0.0476976 20:0.716972 
-1 1:0.206921 2:-0.0350479 3:-0.0803221 4:0.07779 5:-0.935606 6:0.302414 7:0.307007 8:0.545723 9:0.728972 10:-0.556837 11:0.699934 12:0.287758 13:-0.37137 14:0.684555 15:-0.459176 16:0.181957 17:0.569783 18:-0.207647 19:0.125668 20:0.608774 
-1 1:0.361053 2:0.412759 3:-0.0133105 4:0.0039208 5:0.655711 6:0.361693 7:0.304126 8:0.364464 9:0.315706 10:-0.204474 11:0.188836 12:0.356462 13:0.298449 14:0.0657842 15:-0.00671979 16:0.276296 17:0.417952 18:0.109032 19:0.519526 20:0.199121 
-1 1:-0.467711 2:-0.547295 3:0.459338 4:-0.0743297 5:-0.0735564 6:-0.0283543 7:0.0181307 8:0.415486 9:-0.243536 10:-0.193409 11:0.178888 12:-0.0820569 13:0.737661 14:0.06062 15:0.110779 16:-0.637552 17:0.349446 18:-0.0490589 19:0.0399437 20:0.189655 
-1 1:-0.588133 2:-0.432653 3:-0.218302 4:-0.159414 5:-0.315421 6:0.258801 7:-0.0533061 8:0.00511019 9:-0.221107 10:-0.0585293 11:-0.476536 12:0.319345 13:-0.111487 14:-0.197662 15:-0.245394 16:0.0506374 17:-0.683429 18:0.391195 19:-0.305966 20:0.189655 
-1 1:-0.122473 2:-0.171689 3:0.14934 4:-0.0266746 5:-0.199602 6:0.532755 7:-0.342298 8:-0.323167 9:-0.0786852 10:-0.329204 11:0.295652 12:0.593525 13:0.940583 14:0.252474 15:-0.0231156 16:0.11304 17:0.278806 18:0.340417 19:-0.115451 20:-0.0847606 
-1 1:0.162638 2:-0.0210366 3:0.276742 4:-0.183835 5:-0.039359 6:0.618316 7:0.452857 8:0.148663 9:0.018472 10:0.344466 11:0.462848 12:0.912212 13:-0.284706 14:0.41299 15:0.189532 16:0.69117 17:0.430825 18:-0.0206438 19:0.154618 20:0.292773 
-1 1:0.0414704 2:-0.166036 3:0.366796 4:-0.336213 5:0.00430694 6:0.53692 7:0.0714295 8:0.0586396 9:-0.33029 10:-0.217295 11:0.217569 12:0.440996 13:-0.12493 14:0.159604 15:0.430459 16:0.225013 17:0.0478848 18:-0.599711 19:-0.00100877 20:0.142515 
-1 1:0.3142 2:0.0979613 3:0.607608 4:-0.0915116 5:-0.439796 6:0.624906 7:-0.28946 8:0.0923769 9:-0.24112 10:0.202892 11:0.45605 12:-0.246207 13:0.692205 14:0.438805 15:0.0425285 16:-0.105573 17:0.229595 18:-0.653206 19:-0.349488 20:0.15001 
-1 1:-0.374983 2:0.0170159 3:0.402604 4:0.0822213 5:-0.450689 6:0.323338 7:-0.021227 8:0.26358 9:-0.196539 10:-0.241573 11:0.471437 12:0.258663 13:0.813112 14:0.256041 15:0.159237 16:-0.410676 17:-0.594906 18:-0.120793 19:0.0161526 20:-0.184867 
-1 1:0.203121 2:-0.112822 3:0.317759 4:-0.0350977 5:-0.169963 6:0.303463 7:0.194936 8:0.319735 9:0.17161 10:0.11826 11:0.390292 12:0.0526136 13:0.543538 14:0.368383 15:-0.268384 16:0.167465 17:0.301626 18:-0.0466075 19:-0.214022 20:-0.0631493 
-1 1:-0.0945517 2:0.0861104 3:-0.0899958 4:0.141429 5:-0.507485 6:-0.691239 7:0.220037 8:0.606594 9:0.47931 10:0.0806755 11:-0.445803 12:0.748611 13:0.235913 14:-0.257236 15:-0.690991 16:-0.0614279 17:0.387432 18:-0.287397 19:0.0478158 20:-0.263262 
-1 1:0.0247845 2:0.0948042 3:0.0907204 4:-0.230711 5:-0.173352 6:-0.0221353 7:0.304283 8:0.284563 9:0.290208 10:0.0287756 11:-0.223209 12:0.470124 13:-0.811192 14:0.00933428 15:0.366933 16:-0.349334 17:-0.0469658 18:0.193653 19:0.0478158 20:0.0048732 
-1 1:-0.191172 2:0.0909893 3:-0.0187644 4:0.354256 5:-0.270177 6:0.485839 7:0.054938 8:0.555156 9:-0.152102 10:0.180259 11:0.267339 12:0.686876 13:0.252934 14:0.292223 15:0.0302749 16:-0.333618 17:-0.267098 18:-0.00882441 19:-0.650926 20:0.168355 
-1 1:-0.324937 2:-0.434159 3:-0.173567 4:-0.0928977 5:0.149719 6:0.101199 7:-0.231131 8:0.379892 9:0.00315714 10:-0.159607 11:-0.0047184 12:-0.379001 13:0.70364 14:-0.223058 15:0.411455 16:-0.201647 17:0.190216 18:-0.233095 19:0.466616 20:0.189655 
-1 1:0.0475988 2:-0.16389 3:-0.182362 4:-0.0431753 5:0.0965258 6:0.779909 7:-0.237606 8:0.385392 9:0.46599 10:-0.011826 11:0.515484 12:0.0616281 13:-0.338415 14:0.376268 15:0.0849096 16:0.268323 17:0.148129 18:-0.0743725 19:-0.364585 20:-0.373113 
-1 1:0.00988037 2:0.377719 3:0.351575 4:0.577842 5:0.577123 6:0.376853 7:-0.0935009 8:0.0357836 9:-0.183919 10:0.62062 11:0.244006 12:0.562615 13:-0.358682 14:0.0206678 15:0.109117 16:-0.282289 17:-0.607464 18:0.323745 19:-0.231453 20:0.189655 
-1 1:-0.0433007 2:0.00130563 3:-0.121758 4:-0.157456 5:0.271517 6:0.600021 7:-0.235453 8:0.168772 9:0.442023 10:0.203129 11:0.473243 12:-0.133819 13:0.463602 14:0.477364 15:0.527741 16:-0.74794 17:-0.300943 18:0.298099 19:-0.128399 20:0.01952 
-1 1:-0.380103 2:-0.364936 3:0.335081 4:-0.174785 5:-0.250683 6:0.274367 7:0.168626 8:0.138675 9:-0.227548 10:0.0139329 11:0.302218 12:-0.0690634 13:0.524945 14:0.15917 15:0.145987 16:-0.3628 17:-0.53478 18:-0.315813 19:-0.160159 20:0.216026 
-1 1:-0.227906 2:-0.578428 3:-0.499103 4:-0.207126 5:-0.318969 6:0.360031 7:-0.635679 8:-0.390992 9:-0.35916 10:0.150475 11:0.00924021 12:0.0742311 13:0.104139 14:-0.00169819 15:0.404393 16:-0.175162 17:-0.394777 18:-0.620172 19:0.147647 20:-0.159927 
-1 1:0.321746 2:0.311342 3:0.306653 4:-0.242041 5:-0.295128 6:0.363348 7:0.103173 8:0.415075 9:0.157949 10:-0.325102 11:0.0333692 12:0.0601115 13:-0.229019 14:0.0106295 15:0.329375 16:0.339613 17:0.425511 18:-0.0255312 19:0.319881 20:0.00636412 
-1 1:0.0420969 2:-0.0114552 3:0.302501 4:0.232832 5:0.132281 6:0.331019 7:0.068766 8:0.364478 9:0.19595 10:-0.171509 11:0.0486901 12:0.0871813 13:0.766674 14:0.0109099 15:0.530712 16:-0.050247 17:0.382299 18:0.276971 19:-0.281333 20:-0.292732 
-1 1:0.24807 2:-0.0965728 3:-0.522143 4:0.466662 5:-0.138061 6:0.149556 7:0.156777 8:0.0512873 9:0.482705 10:-0.186117 11:0.152891 12:0.138554 13:0.619446 14:0.109526 15:-0.313072 16:0.236187 17:-0.415152 18:-0.752333 19:0.248615 20:0.192734 
-1 1:-0.226271 2:-0.0896303 3:0.408785 4:-0.0558687 5:-0.35622 6:0.472175 7:0.0929745 8:0.125566 9:-0.439938 10:0.0239505 11:0.248431 12:-0.0947393 13:0.709313 14:0.239988 15:-0.817141 16:-0.0769385 17:0.178568 18:-0.639367 19:-0.505204 20:0.101685 
-1 1:0.227933 2:0.281666 3:0.231936 4:0.0142057 5:-0.0462792 6:-0.023491 7:0.135197 8:0.231616 9:0.598759 10:-0.0847131 11:0.0501782 12:0.56458 13:0.271082 14:-0.0663865 15:0.382422 16:-0.428761 17:0.120817 18:-0.479982 19:0.381519 20:0.19178 
-1 1:0.127557 2:-0.443054 3:0.443536 4:-0.0882124 5:0.300534 6:0.431683 7:0.240831 8:0.149168 9:-0.445607 10:-0.134937 11:0.0585838 12:-0.0524529 13:0.727395 14:0.352681 15:0.386755 16:-0.0204928 17:-0.0256497 18:-0.120793 19:0.0910486 20:0.231396 
-1 1:-0.261896 2:-0.101738 3:0.2887 4:-0.395692 5:-0.413815 6:0.159722 7:-0.0163331 8:0.0764939 9:-0.137597 10:-0.112527 11:0.0544778 12:-0.173928 13:-0.343036 14:0.187892 15:-0.4777 16:-0.102585 17:0.354464 18:0.197277 19:-0.366321 20:-0.491571 
-1 1:-0.0941321 2:-0.133359 3:0.160304 4:-0.312865 5:-0.695922 6:-0.0484079 7:-0.0618567 8:0.442967 9:-0.184341 10:-0.0581641 11:-0.133563 12:-0.182605 13:0.498267 14:-0.176568 15:0.430348 16:-0.0235619 17:0.188367 18:-0.120793 19:0.351563 20:-0.170412 
-1 1:-0.0732633 2:-0.455621 3:0.262528 4:-0.63402 5:-0.0386118 6:0.601906 7:0.0433413 8:0.0383126 9:-0.684242 10:0.184912 11:0.345184 12:-0.148661 13:0.739479 14:0.296838 15:0.296798 16:0.124581 17:-0.612551 18:-0.387346 19:-0.527872 20:0.0797974 
-1 1:0.167975 2:0.213806 3:-0.206242 4:-0.274777 5:-0.549602 6:0.321411 7:0.393798 8:0.929327 9:0.200991 10:-0.309897 11:-0.251467 12:0.433002 13:-0.430692 14:-0.277521 15:0.628118 16:0.348316 17:0.554073 18:-0.108676 19:0.154557 20:-0.0792444 
-1 1:0.605957 2:0.352902 3:0.647403 4:0.82508 5:0.0376888 6:-0.241861 7:0.000400799 8:-0.0964971 9:0.309674 10:0.0112062 11:-0.0698064 12:0.342097 13:-0.575157 14:0.150871 15:0.476037 16:0.532784 17:-0.34585 18:-0.120793 19:-0.557697 20:0.258367 
-1 1:-0.0476576 2:-0.13522 3:-0.159509 4:0.152351 5:-0.0437923 6:0.186032 7:0.0541948 8:0.272161 9:0.305673 10:-0.117333 11:-0.0307608 12:-0.00360819 13:0.739864 14:0.11033 15:0.244511 16:-0.0121901 17:-0.0256497 18:-0.582913 19:0.271752 20:0.324406 
-1 1:-0.342416 2:-0.540987 3:-0.248643 4:-0.475563 5:-0.300736 6:0.151187 7:-0.289922 8:0.27306 9:-0.156611 10:-0.621882 11:-0.804214 12:0.165675 13:-0.355264 14:-0.505739 15:0.599429 16:-0.189795 17:0.276706 18:-0.20394 19:0.0478158 20:0.104043 
-1 1:-0.545232 2:-0.0463686 3:0.225652 4:-0.017479 5:-0.152485 6:0.304905 7:0.516039 8:0.761067 9:0.113144 10:0.384694 11:0.430288 12:0.555467 13:0.0977373 14:0.338079 15:0.0285785 16:-1 17:-0.269907 18:-0.120793 19:0.0229999 20:0.165695 
-1 1:-0.0638062 2:-0.305728 3:-0.570617 4:-0.146338 5:-0.044272 6:0.356984 7:-0.179651 8:0.916598 9:-0.413288 10:-0.223735 11:0.257762 12:-0.0581249 13:-0.287414 14:0.232264 15:0.29811 16:-0.301679 17:0.136193 18:-0.245208 19:0.206567 20:0.189655 
-1 1:-0.792643 2:-0.598611 3:-0.301522 4:0.12818 5:-0.142107 6:0.0440535 7:-0.402296 8:-0.308376 9:-0.594409 10:0.0152067 11:0.367646 12:0.0955951 13:-0.0964732 14:0.391394 15:-0.445079 16:-0.312805 17:-0.864746 18:-0.459456 19:0.0478158 20:-0.323638 
-1 1:0.147716 2:0.482696 3:0.583819 4:0.0849811 5:-0.40376 6:0.17913 7:0.27523 8:0.219021 9:0.575412 10:0.289803 11:0.208392 12:0.667026 13:0.510279 14:0.163522 15:-0.36761 16:-0.257137 17:-0.40208 18:-0.120793 19:0.0478158 20:0.279126 
