svm_type c_svc
kernel_type rbf
gamma 0.0454545
nr_class 2
total_sv 136
rho 0.40607
label 1 0
probA -2.54654
probB -1.20395
nr_sv 65 71
SV
1 1:0.420519 2:0.198569 3:0.429156 4:0.274227 5:0.141903 6:-0.651518 7:-0.244937 8:0.371788 9:0.472459 10:0.372239 11:0.620389 12:-0.900217 13:0.111842 14:-0.00333462 15:0.239888 16:-0.0498669 17:0.411736 18:0.212111 19:-0.417791 20:0.107501 21:-0.992285 22:0.102886 
1 1:0.581965 2:-0.532007 3:1 4:0.0661281 5:0.607765 6:-0.289688 7:-0.313588 8:0.424864 9:0.848158 10:-0.0814625 11:-0.0143837 12:-0.127818 13:-0.442761 14:-0.078362 15:-0.214495 16:0.0673107 17:0.386609 18:0.628398 19:0.173344 20:0.490024 21:-0.348662 22:-0.2735 
1 1:-0.0640735 2:0.379127 3:-0.198276 4:-0.679296 5:0.107997 6:-0.0730148 7:-0.447714 8:0.0401432 9:-0.0392933 10:0.423835 11:-0.0683649 12:0.71302 13:-0.322741 14:-0.183926 15:-0.365549 16:0.584645 17:-0.356577 18:0.0898715 19:0.353447 20:-0.191384 21:-0.622067 22:-0.934837 
1 1:-0.242065 2:-0.0548537 3:-0.0856009 4:0.414537 5:0.253386 6:-0.477354 7:-0.28879 8:0.0488467 9:0.491762 10:-0.757806 11:0.813037 12:0.254657 13:-0.463114 14:-0.0559331 15:0.329621 16:0.355885 17:-0.203779 18:-0.0188832 19:-0.24534 20:-0.0898138 21:-0.832051 22:-0.512907 
1 1:0.366544 2:-0.487451 3:0.0811101 4:-0.0297675 5:0.121722 6:-0.209547 7:-0.157981 8:0.710413 9:0.496615 10:0.141742 11:0.00706349 12:-0.0253283 13:-0.543803 14:-0.128054 15:-0.404308 16:0.256721 17:0.721675 18:0.516705 19:-0.063941 20:-0.0127067 21:-0.439444 22:-0.833168 
1 1:0.13495 2:0.357265 3:-0.146887 4:0.172306 5:-0.275394 6:-0.0695606 7:0.0445465 8:0.269671 9:0.319993 10:0.0552388 11:-0.0774171 12:-0.249454 13:-0.969643 14:0.170339 15:-0.0140342 16:-0.0659851 17:0.588333 18:0.268606 19:-0.292431 20:-0.021896 21:-0.382142 22:-0.859556 
1 1:0.425216 2:-0.710598 3:0.711971 4:0.438682 5:0.304851 6:-0.182393 7:-0.126537 8:0.506109 9:0.771711 10:0.221872 11:-0.137833 12:-0.155065 13:-0.537506 14:0.235265 15:-0.11757 16:0.508166 17:0.035705 18:0.670746 19:0.0527632 20:0.372607 21:-0.237859 22:-0.516585 
1 1:-0.94453 2:-0.714207 3:-0.114015 4:-0.268756 5:0.471024 6:0.00583093 7:-0.349113 8:-0.24369 9:0.124975 10:-0.287414 11:0.138618 12:0.199157 13:-0.639453 14:-0.478851 15:-0.537531 16:0.16976 17:0.418041 18:-0.0883082 19:0.0527632 20:-0.680441 21:-0.957369 22:-0.891302 
1 1:-0.398667 2:-0.173537 3:-0.0185106 4:-0.216558 5:0.224556 6:-0.44504 7:-0.474355 8:-0.172852 9:0.248144 10:-0.0347717 11:0.0366262 12:-0.140975 13:-0.657841 14:-0.0303058 15:-0.891461 16:-0.0617325 17:0.426277 18:0.309067 19:-0.466984 20:-0.22088 21:-0.855189 22:-0.535685 
1 1:-0.53215 2:0.376385 3:-0.165328 4:-0.0989904 5:0.307553 6:0.903593 7:0.103929 8:-0.371765 9:-0.383272 10:0.00758888 11:0.589187 12:0.164908 13:-0.816052 14:0.203578 15:0.0538621 16:-0.0123608 17:-0.0746707 18:0.4508 19:0.188505 20:0.269345 21:-0.546986 22:-0.516585 
1 1:0.260938 2:-0.130078 3:0.640197 4:-0.177369 5:0.560947 6:-0.233905 7:-0.161361 8:0.438741 9:0.639862 10:-0.150613 11:0.180799 12:-0.331005 13:-0.57305 14:-0.215878 15:-0.00819527 16:0.475721 17:0.585684 18:0.794176 19:-0.219754 20:0.00828402 21:-0.57672 22:-0.821224 
1 1:-0.29859 2:-0.328854 3:-0.158249 4:0.433523 5:0.160588 6:0.303698 7:-0.415731 8:0.224094 9:0.189821 10:-0.0235814 11:0.357584 12:-0.549608 13:-0.407423 14:-0.181416 15:-0.111924 16:-0.443453 17:0.0796901 18:0.417552 19:0.229801 20:-0.188631 21:-1 22:-0.559658 
1 1:0.0228189 2:0.289197 3:-0.340984 4:-0.275024 5:0.531901 6:0.714043 7:-0.466973 8:0.0457809 9:-0.313486 10:-0.131481 11:-0.357267 12:-0.151844 13:-0.653364 14:-0.227351 15:0.0013434 16:0.0548216 17:0.273987 18:0.385024 19:0.12358 20:-0.612857 21:-0.375325 22:-0.597816 
1 1:-0.898808 2:-0.50507 3:0.394662 4:-0.519149 5:0.143871 6:-0.204773 7:-0.639765 8:-0.187488 9:-0.190024 10:0.398786 11:-0.356462 12:0.482795 13:-0.603252 14:-0.484643 15:-0.761519 16:0.193226 17:0.0469947 18:0.0616609 19:0.429132 20:-0.12123 21:-0.634137 22:-0.734013 
1 1:-0.162135 2:-0.0164287 3:0.145839 4:-0.372813 5:0.444709 6:0.348402 7:-0.329652 8:0.0564777 9:-0.351453 10:0.519264 11:0.268983 12:-0.983087 13:-0.391622 14:-0.322505 15:-0.160771 16:-0.400077 17:0.187706 18:0.425015 19:0.137548 20:0.0566933 21:-0.599133 22:-0.420067 
1 1:0.206 2:-0.00491278 3:-0.0842042 4:0.593004 5:0.381082 6:-0.132094 7:0.061029 8:0.0477268 9:0.60017 10:-0.219686 11:0.337833 12:-0.284277 13:0.24419 14:0.110459 15:0.3472 16:-0.381587 17:-0.489651 18:-0.058739 19:0.027909 20:-0.044934 21:-0.590037 22:0.3011 
1 1:-0.531099 2:-0.451582 3:0.342122 4:-0.0881853 5:0.395116 6:-0.087465 7:-0.602009 8:-0.152952 9:0.288056 10:-0.185367 11:0.560516 12:-0.0829442 13:-0.294081 14:-0.0381145 15:-0.241279 16:0.150132 17:0.274225 18:0.341606 19:-0.234135 20:-0.0050471 21:-0.375754 22:-0.272167 
1 1:-0.500734 2:0.312828 3:-0.135319 4:0.514397 5:-0.305992 6:-0.3974 7:-0.102582 8:0.433875 9:0.439925 10:-0.460789 11:0.403425 12:-0.162626 13:-0.665112 14:-0.104509 15:0.0444127 16:0.0605576 17:0.355605 18:0.514606 19:0.00222948 20:-0.0687371 21:-0.258014 22:-0.476456 
1 1:0.0788782 2:-0.628815 3:-0.0365702 4:0.103953 5:0.19615 6:0.87416 7:-0.221385 8:0.399516 9:0.36279 10:0.678258 11:0.273539 12:-0.0565381 13:-0.0804334 14:-0.544864 15:-0.15751 16:0.0729709 17:-0.277623 18:0.99587 19:0.0527632 20:0.0591944 21:-0.693301 22:-0.148632 
1 1:0.702385 2:-0.243196 3:0.316507 4:0.350893 5:-0.264238 6:-0.564897 7:-0.0951279 8:0.520532 9:0.5906 10:-0.362981 11:0.790996 12:-0.153501 13:-0.262996 14:0.047557 15:0.071055 16:-0.191209 17:0.49197 18:-0.60388 19:0.122484 20:-0.165671 21:-0.57672 22:-0.276582 
1 1:-0.228979 2:-0.086509 3:0.00560134 4:-0.288132 5:0.743649 6:0.559506 7:-0.4039 8:-0.00106679 9:-0.538834 10:0.110811 11:-0.23006 12:0.372077 13:-0.0025678 14:-0.314457 15:-0.302296 16:0.418586 17:-0.515727 18:0.155404 19:0.16855 20:0.269826 21:-0.810101 22:-0.4913 
1 1:0.261078 2:-0.229175 3:0.598091 4:0.332358 5:0.378223 6:0.548561 7:-0.0491139 8:0.352791 9:0.873988 10:0.247617 11:0.140423 12:-0.039452 13:-0.589293 14:-0.203727 15:-0.35955 16:0.555387 17:-0.31944 18:0.478116 19:0.0527632 20:0.415342 21:-0.32399 22:-0.558607 
1 1:0.225221 2:0.288425 3:0.463548 4:-0.360555 5:0.358648 6:-0.3274 7:-0.105019 8:0.249695 9:-0.138721 10:0.488814 11:-0.0431602 12:-0.140406 13:-0.713815 14:-0.0702191 15:0.144182 16:0.677009 17:0.0101424 18:1 19:1 20:0.573341 21:-0.57672 22:-0.593826 
1 1:-0.436722 2:-0.167481 3:-0.550495 4:0.336606 5:0.238729 6:-0.0993817 7:0.106003 8:-0.19004 9:0.16324 10:-0.428071 11:0.240575 12:0.183752 13:-0.578621 14:0.235982 15:0.357047 16:0.204346 17:-0.149778 18:0.0219177 19:-0.794504 20:-0.021896 21:-0.651141 22:-0.708429 
1 1:0.373079 2:-0.443919 3:0.876293 4:0.109913 5:0.549313 6:-0.0918175 7:-0.0437366 8:-0.184771 9:0.900927 10:0.172925 11:0.252193 12:-0.0756512 13:-0.601451 14:0.241794 15:-0.541531 16:0.91799 17:0.0491466 18:0.195858 19:0.306062 20:0.613043 21:-0.373169 22:-0.516585 
1 1:-0.133634 2:-0.0497027 3:0.413516 4:-1 5:0.604356 6:-0.379859 7:-1 8:0.1839 9:-0.229701 10:0.0112557 11:-0.402029 12:-0.191923 13:-0.666824 14:-0.848091 15:-0.697145 16:0.665816 17:0.895372 18:0.510384 19:-0.611293 20:-0.0718621 21:-0.155307 22:-0.516585 
1 1:-0.195336 2:0.276176 3:0.69447 4:-0.377973 5:0.772109 6:0.041888 7:-0.329862 8:0.244911 9:-0.0464863 10:0.258758 11:-0.683401 12:0.357292 13:-0.370449 14:-0.580412 15:0.0546254 16:0.875822 17:0.559086 18:0.610147 19:-0.167779 20:0.147497 21:-0.694882 22:-0.311094 
1 1:0.215302 2:-0.00373236 3:0.159227 4:0.487265 5:-0.0263599 6:-0.25589 7:0.0460889 8:0.40614 9:0.545035 10:-0.014769 11:-0.039734 12:0.132467 13:-0.176886 14:0.0822367 15:0.0496427 16:-0.317453 17:0.697136 18:0.0150093 19:-0.396731 20:-0.438545 21:-0.438024 22:-0.270944 
1 1:-0.435498 2:-0.262946 3:0.542551 4:-0.228141 5:0.582901 6:0.132707 7:-0.20652 8:0.240934 9:0.117144 10:0.416763 11:-0.262885 12:0.794346 13:-0.0480946 14:0.0500063 15:-0.192099 16:0.985755 17:-0.0503677 18:0.651601 19:0.0527632 20:0.150034 21:-0.640795 22:-0.324632 
1 1:0.382015 2:-0.947807 3:0.0848771 4:-0.344203 5:-0.0368199 6:-0.365165 7:-0.261856 8:0.494758 9:0.429812 10:0.306328 11:-0.874605 12:-0.0837114 13:-0.808936 14:-0.311414 15:-0.0822417 16:0.741231 17:0.6929 18:0.383387 19:0.605806 20:0.628006 21:-0.755551 22:-0.692629 
1 1:0.473317 2:0.229745 3:0.502511 4:0.391448 5:0.423421 6:0.0807548 7:0.139733 8:0.130253 9:0.80112 10:0.226778 11:0.314966 12:0.18025 13:-0.275001 14:-0.0131958 15:0.52629 16:0.0948709 17:-0.720523 18:0.60202 19:0.377111 20:0.113333 21:-0.498555 22:-0.481962 
1 1:-0.0946566 2:0.232458 3:0.156484 4:0.0830974 5:0.622759 6:-0.062014 7:-0.257786 8:-0.0717187 9:0.284088 10:-0.266989 11:0.639245 12:0.35944 13:-0.381094 14:-0.20621 15:-0.460093 16:-0.112261 17:0.51737 18:0.474436 19:-0.110095 20:-0.0355832 21:-0.880048 22:-0.363467 
1 1:-0.0265838 2:-0.353417 3:-0.146564 4:0.148045 5:0.146649 6:-0.992764 7:-0.0429916 8:0.458583 9:0.427258 10:-0.394706 11:-0.10198 12:-0.248889 13:-0.814543 14:-0.0996435 15:-0.141876 16:-0.623072 17:0.484426 18:-1 19:-0.113599 20:-0.0587357 21:-0.92492 22:-0.516585 
1 1:-0.532248 2:0.300338 3:0.469246 4:-0.262258 5:0.88063 6:1 7:-0.0691979 8:0.125765 9:0.179006 10:0.709451 11:0.279143 12:0.949324 13:-0.150026 14:-0.13913 15:0.23532 16:0.64715 17:0.340112 18:0.330364 19:0.160176 20:0.42334 21:-0.778237 22:-0.263242 
1 1:0.699555 2:-0.0394385 3:0.258174 4:0.525308 5:0.314089 6:0.0696003 7:0.0970646 8:0.555888 9:0.513274 10:-0.0342089 11:0.160452 12:-0.846435 13:-0.796031 14:0.68449 15:0.399224 16:-0.0258763 17:0.319329 18:-0.190288 19:0.147689 20:-0.0249426 21:-0.266794 22:-0.84013 
1 1:0.046589 2:-0.0061111 3:-0.184047 4:0.039557 5:0.387543 6:0.866041 7:0.307041 8:0.298209 9:0.0421851 10:0.714343 11:-0.386661 12:-0.717773 13:-0.507293 14:0.234163 15:0.170047 16:0.197135 17:0.188791 18:0.139753 19:0.00795968 20:-0.021896 21:-0.384652 22:-0.540216 
1 1:-0.359441 2:0.578252 3:0.184908 4:0.220485 5:0.780372 6:-0.205289 7:0.0422977 8:-0.203041 9:0.27475 10:0.0546582 11:0.557758 12:0.901336 13:-0.522948 14:-0.0732606 15:0.249122 16:-0.0541615 17:0.226001 18:0.03623 19:0.103748 20:-0.0490186 21:-0.80847 22:-0.532018 
1 1:0.238981 2:-0.30267 3:0.0633431 4:0.479795 5:0.0434528 6:-0.453043 7:0.0419211 8:0.368424 9:0.688154 10:-0.219546 11:-0.161013 12:-0.36725 13:-0.544477 14:-0.00704573 15:-0.0998299 16:-0.34517 17:0.446135 18:-0.780922 19:-0.117108 20:0.103429 21:-0.667733 22:-0.767086 
1 1:-0.0362023 2:0.136376 3:0.0280518 4:0.13643 5:1 6:-0.650015 7:-0.124767 8:0.385477 9:0.269351 10:-0.209194 11:-0.0917845 12:-0.305264 13:-0.318879 14:-0.037234 15:0.334837 16:0.363925 17:0.115352 18:0.257951 19:0.200561 20:0.252373 21:-0.311605 22:-0.516585 
1 1:0.241551 2:0.119698 3:0.145841 4:0.0619751 5:-0.0634733 6:-0.785915 7:-0.555571 8:-1 9:0.0914577 10:-0.572355 11:0.766775 12:-0.954022 13:-0.43173 14:-0.607749 15:0.134216 16:-0.28296 17:0.150695 18:-0.156413 19:0.0301554 20:0.107169 21:-0.684447 22:-0.425943 
1 1:-0.0672494 2:-0.296556 3:-0.0457581 4:-0.36478 5:0.712582 6:0.737117 7:-0.351333 8:-0.293954 9:-0.36889 10:0.505613 11:-0.289875 12:0.170036 13:-0.0589115 14:-0.154468 15:-0.929554 16:0.343122 17:0.0666425 18:0.111044 19:-0.4985 20:-0.250094 21:-0.545169 22:-0.646432 
1 1:0.558962 2:0.0855052 3:0.247019 4:-0.206655 5:-0.0745544 6:-0.04204 7:-0.269359 8:0.563817 9:0.319166 10:0.51725 11:-0.290382 12:-0.213278 13:-0.492764 14:-0.709281 15:-0.498518 16:0.0979576 17:0.775253 18:0.33414 19:0.0527632 20:-0.202321 21:-0.517555 22:-0.364218 
1 1:-1 2:-0.41021 3:-0.13801 4:-0.0844304 5:0.342486 6:0.292514 7:-0.319619 8:-0.216712 9:-0.13344 10:0.0511756 11:-0.350065 12:-0.939858 13:-0.467719 14:-0.1914 15:-0.12621 16:-0.0367147 17:0.0386837 18:0.337835 19:-0.0123166 20:-0.647787 21:-0.775041 22:-0.55091 
1 1:0.700977 2:-0.227088 3:0.403357 4:-0.147846 5:-0.0586519 6:0.036562 7:-0.649927 8:0.270484 9:0.611191 10:0.449005 11:0.0026759 12:-0.650036 13:-0.36389 14:-0.387943 15:-0.77619 16:0.763023 17:0.571531 18:0.269935 19:0.0527632 20:0.998652 21:-0.804092 22:-0.740414 
1 1:0.489231 2:-0.311744 3:0.252543 4:-0.149907 5:0.566756 6:0.0073951 7:-0.212509 8:0.231435 9:0.549915 10:0.0244999 11:0.536869 12:-0.150356 13:-0.609979 14:0.112988 15:0.338109 16:0.299254 17:-1 18:0.407057 19:0.110809 20:0.284458 21:-0.677585 22:-0.682661 
1 1:-0.211048 2:0.0989081 3:0.20288 4:0.183235 5:0.497025 6:-0.318737 7:0.0252381 8:-0.361987 9:0.277586 10:0.0611545 11:0.231113 12:0.777766 13:0.235582 14:0.131404 15:0.463992 16:0.032477 17:-0.227582 18:0.258843 19:-0.328633 20:-0.375423 21:-0.660605 22:0.352834 
1 1:-0.398996 2:0.102459 3:-0.222778 4:0.231535 5:0.40647 6:0.152345 7:-0.0168062 8:0.0796812 9:0.136799 10:-0.290867 11:0.676908 12:0.312894 13:-0.194554 14:0.0842612 15:0.409588 16:-0.714053 17:-0.196501 18:-0.217576 19:-0.582466 20:-0.610707 21:-0.537536 22:-0.317106 
1 1:0.0963116 2:0.165819 3:0.517833 4:0.185394 5:0.190294 6:-0.0397211 7:0.0763153 8:0.170103 9:0.750212 10:0.125301 11:0.462316 12:0.39547 13:0.57018 14:-0.197178 15:0.429885 16:-0.188003 17:-0.0962819 18:0.572785 19:-0.0191571 20:0.477006 21:-0.0645425 22:0.641757 
1 1:-0.0432144 2:-0.351164 3:0.497503 4:-0.232162 5:0.634179 6:-0.449841 7:-0.211941 8:0.246038 9:0.69573 10:0.395454 11:0.126753 12:0.454218 13:-0.258184 14:0.0147802 15:-0.143874 16:0.846972 17:0.290939 18:0.196548 19:0.29962 20:-0.304168 21:-0.739877 22:-0.355388 
1 1:-0.447288 2:-0.311583 3:-0.699958 4:0.0746094 5:0.402622 6:0.107927 7:-0.425459 8:-0.240075 9:0.1576 10:-0.613345 11:0.477671 12:0.17885 13:-0.392594 14:-0.252603 15:0.236959 16:-0.397343 17:0.126006 18:-0.3584 19:-1 20:-0.549531 21:-0.881701 22:-0.620123 
1 1:-0.405203 2:-0.409018 3:-0.286976 4:0.174306 5:0.166467 6:0.707864 7:0.0590377 8:0.286711 9:-0.00973405 10:0.0404767 11:-0.303059 12:-0.270538 13:-0.587193 14:-0.332836 15:-0.0418593 16:-0.0811718 17:-0.589672 18:-0.180277 19:0.414386 20:-0.5831 21:-0.642037 22:-0.419978 
1 1:0.0920019 2:-0.714326 3:0.500839 4:-0.329251 5:0.346816 6:-0.43154 7:-0.507676 8:-0.352255 9:-0.029758 10:0.303494 11:-0.090061 12:-0.406296 13:-0.277615 14:-0.351375 15:-0.165379 16:0.523855 17:0.259862 18:0.0157121 19:-0.574628 20:0.244907 21:-0.585957 22:-0.525678 
1 1:0.36709 2:0.0749239 3:0.46911 4:-0.0902893 5:0.376961 6:-0.265846 7:-0.185718 8:0.555414 9:0.170882 10:0.351634 11:0.0954163 12:0.117202 13:-0.298031 14:-0.0540973 15:-0.341063 16:-0.0185209 17:-0.477977 18:0.582229 19:-0.190074 20:0.731281 21:0.0474608 22:-0.389635 
1 1:0.116811 2:-0.150958 3:0.256645 4:0.241299 5:0.482559 6:0.225129 7:-0.364601 8:0.860757 9:0.546102 10:0.673386 11:0.198495 12:-0.13421 13:-0.386496 14:0.0266753 15:0.0671307 16:-0.0568596 17:0.403788 18:0.156114 19:0.0527632 20:0.157087 21:-0.689338 22:-0.466543 
1 1:0.692816 2:-0.071463 3:0.179373 4:0.6985 5:-0.123714 6:-0.597112 7:0.0517929 8:0.725522 9:0.548139 10:-0.202618 11:0.507178 12:-0.471688 13:0.422655 14:0.153128 15:0.177039 16:0.162618 17:0.436912 18:-0.197007 19:0.0441102 20:-0.104298 21:-0.62435 22:0.539215 
1 1:0.324917 2:-1 3:0.348476 4:-0.017176 5:-0.254675 6:-1 7:-0.37068 8:0.637063 9:0.453008 10:-0.335724 11:-0.943265 12:-0.439192 13:-0.624805 14:-0.213159 15:-0.407379 16:0.073119 17:0.662379 18:-0.458481 19:-0.774845 20:-0.78903 21:-0.57672 22:-0.792184 
1 1:-0.198828 2:-0.702417 3:0.0460183 4:0.24277 5:0.838896 6:0.686804 7:0.183742 8:0.268368 9:-0.146024 10:1 11:-0.167823 12:-0.373347 13:-0.341746 14:-0.182225 15:-0.042046 16:0.723128 17:0.0379572 18:-0.339026 19:0.333987 20:-0.021896 21:1 22:-0.741871 
1 1:-0.39147 2:-0.343403 3:-1 4:0.310328 5:0.0103131 6:-0.120794 7:-0.0360227 8:-0.190935 9:0.311622 10:-0.430477 11:0.16942 12:0.111876 13:-0.605537 14:0.117265 15:-0.372262 16:0.275711 17:-0.366972 18:-0.384072 19:0.0731835 20:-0.616587 21:-0.704386 22:-0.599938 
1 1:0.18377 2:-0.259167 3:0.135328 4:0.284895 5:-0.00218716 6:-0.494912 7:0.0969871 8:0.367509 9:0.555975 10:-0.210288 11:0.433256 12:0.0389175 13:-0.528521 14:0.141542 15:0.287545 16:0.279612 17:-0.609412 18:0.160998 19:-0.280149 20:-0.330482 21:-0.659474 22:-0.598049 
1 1:-0.00103156 2:0.122266 3:-0.0364397 4:0.157766 5:0.384088 6:0.283491 7:0.0486097 8:0.385873 9:-0.156213 10:0.483994 11:0.0566853 12:0.750141 13:-0.554208 14:-0.184534 15:0.359109 16:0.41485 17:-0.158818 18:0.283097 19:-0.487721 20:-0.0746847 21:-0.171964 22:-0.546622 
1 1:-0.226167 2:0.0486446 3:0.0584325 4:-0.757484 5:0.345658 6:-0.401094 7:-0.505851 8:-0.104695 9:-0.23371 10:-0.0526264 11:0.268058 12:0.196786 13:-0.578199 14:-0.568059 15:-0.29644 16:0.280023 17:0.1265 18:0.59603 19:0.232166 20:-0.421169 21:-0.591433 22:-0.743774 
1 1:0.1745 2:-0.481195 3:0.0685604 4:0.488345 5:0.203944 6:0.127018 7:0.0335348 8:0.277965 9:0.702603 10:-0.114074 11:-0.123797 12:-0.0062223 13:-0.378376 14:0.179486 15:-0.332984 16:-0.0851255 17:0.588492 18:-0.0998632 19:-0.00493153 20:0.0419908 21:-0.212887 22:-0.641139 
1 1:0.148395 2:0.405945 3:0.19182 4:0.687739 5:0.336666 6:0.0290867 7:0.291006 8:0.23215 9:0.474392 10:0.150072 11:0.101617 12:0.510088 13:-0.684702 14:0.369746 15:-0.0992081 16:1 17:0.225475 18:0.0842672 19:-0.519882 20:0.103905 21:-0.365398 22:-0.516585 
1 1:0.297388 2:0.0916189 3:0.586696 4:0.438618 5:0.20942 6:-0.948997 7:0.186009 8:0.369073 9:0.806078 10:0.0806489 11:-0.0152893 12:-0.236772 13:-0.669113 14:0.206845 15:-0.0361465 16:0.289267 17:-0.736199 18:-0.25932 19:-0.00564966 20:0.297779 21:-0.639505 22:-0.869206 
1 1:0.680425 2:-0.142785 3:0.487711 4:0.435236 5:0.0413612 6:-0.477424 7:0.061778 8:0.499234 9:0.871316 10:0.320793 11:-0.737021 12:0.263373 13:-0.386574 14:0.0980658 15:0.0982485 16:0.187812 17:0.605952 18:0.103392 19:-0.0210767 20:0.118062 21:-0.548443 22:-0.3005 
-1 1:0.00529087 2:-0.100987 3:0.518325 4:0.0355775 5:0.555162 6:-0.0131636 7:0.115657 8:0.230176 9:0.126851 10:-0.0900839 11:0.285966 12:0.60536 13:0.0129018 14:0.170564 15:-0.136659 16:-0.240466 17:-0.197119 18:0.650969 19:0.237743 20:0.0751848 21:-0.641065 22:-0.352239 
-1 1:-0.336026 2:0.100335 3:-0.312234 4:0.221123 5:0.206617 6:-0.418949 7:-0.134068 8:-0.274074 9:0.145056 10:-0.59917 11:0.269091 12:0.444957 13:-0.505753 14:0.0921297 15:0.252671 16:-0.174735 17:-0.164386 18:-0.520019 19:-0.087219 20:-1 21:-0.815173 22:-0.590416 
-1 1:0.332932 2:-0.887687 3:0.13345 4:-0.264252 5:0.058321 6:0.16699 7:-0.192241 8:0.39405 9:0.542574 10:0.268543 11:-0.785476 12:-0.465142 13:-0.249648 14:-0.33461 15:-0.115433 16:0.754929 17:0.811665 18:-0.256502 19:-0.00340026 20:-0.356739 21:-0.770264 22:-0.0361477 
-1 1:0.173565 2:0.00780675 3:0.231714 4:0.0682311 5:0.602192 6:0.416879 7:-0.222709 8:-0.0846418 9:0.225985 10:0.160235 11:0.301207 12:0.391827 13:0.0121562 14:-0.17082 15:0.118938 16:0.234654 17:0.262632 18:0.368344 19:-0.114571 20:0.353066 21:-0.925441 22:-0.264449 
-1 1:0.768437 2:-0.387471 3:-0.189687 4:0.116781 5:0.197447 6:0.598021 7:-0.0754225 8:0.293213 9:0.201403 10:0.0602378 11:0.00151682 12:-0.594105 13:-0.340692 14:-0.0478694 15:0.581607 16:-0.646457 17:-0.158851 18:0.242184 19:0.0897577 20:-0.021896 21:-0.556899 22:-0.657979 
-1 1:-0.201225 2:-0.211449 3:-0.0666868 4:-0.444479 5:0.201496 6:0.262891 7:-0.386052 8:0.238521 9:-0.668364 10:0.193857 11:0.559235 12:-0.475217 13:-0.539992 14:-0.637103 15:-0.0264957 16:-1 17:0.280884 18:-0.164359 19:0.427098 20:-0.288534 21:-0.730841 22:-0.82921 
-0.7960430517582295 1:0.321041 2:-0.744447 3:0.877146 4:-0.0993937 5:-0.0116029 6:-0.507971 7:-0.119938 8:0.566648 9:0.816301 10:0.401202 11:-0.540418 12:0.0240815 13:-0.608701 14:0.0571151 15:-0.190049 16:0.795488 17:0.713836 18:-0.00984715 19:0.320188 20:0.965384 21:-0.38082 22:-0.858255 
-0.6399923404893123 1:0.301041 2:-0.0716045 3:0.0920527 4:-0.0634431 5:-0.0565382 6:-0.765824 7:0.174968 8:0.0598323 9:0.201625 10:-0.644727 11:0.415798 12:-0.0539951 13:-0.264027 14:0.152795 15:0.284301 16:0.212688 17:-0.719283 18:-0.101406 19:0.235929 20:-0.104664 21:-0.258911 22:-0.532683 
-1 1:0.103936 2:-0.0108874 3:0.0263078 4:-0.474233 5:0.200835 6:-0.629012 7:-0.217297 8:-0.404984 9:-0.412479 10:0.27687 11:0.0399377 12:0.323224 13:-0.902371 14:-0.258792 15:0.146098 16:0.272627 17:0.284605 18:0.869068 19:0.323587 20:0.0637208 21:-0.854138 22:-0.516585 
-1 1:0.148887 2:-0.164652 3:0.792184 4:0.888063 5:0.0194097 6:0.270048 7:0.634364 8:0.339738 9:0.47469 10:0.41669 11:0.390107 12:0.12621 13:-0.597947 14:0.562625 15:0.47604 16:0.472825 17:0.329105 18:0.765206 19:-0.0439543 20:0.652093 21:-0.791992 22:-0.516585 
-1 1:0.961354 2:-0.413336 3:0.976843 4:-0.00472491 5:0.315168 6:-0.17454 7:-0.0410219 8:0.360193 9:0.999787 10:0.35154 11:-0.480494 12:-0.383499 13:-0.485641 14:-0.395948 15:-0.265862 16:0.460207 17:0.973529 18:0.19315 19:-0.254474 20:0.424301 21:-0.250973 22:-0.516585 
-1 1:-0.517615 2:-0.465029 3:-0.0964781 4:0.289176 5:0.44652 6:0.186732 7:0.13258 8:-0.0367107 9:0.19827 10:0.0166232 11:-0.539149 12:0.146537 13:-0.55315 14:0.036897 15:0.157884 16:0.35713 17:0.134015 18:-0.355365 19:0.320939 20:0.363955 21:-0.485657 22:-0.587847 
-1 1:0.431596 2:-0.810218 3:0.255693 4:-0.802426 5:0.36522 6:-0.518274 7:-0.628095 8:0.011812 9:-0.828122 10:0.223836 11:-0.167091 12:-0.251371 13:-0.751084 14:-0.38991 15:-0.16023 16:0.177472 17:0.314897 18:0.144032 19:0.0113774 20:0.222526 21:-0.531054 22:-0.793443 
-0.1646595896371849 1:-0.350883 2:-0.046265 3:-0.0138524 4:-0.149955 5:0.293936 6:0.149232 7:1 8:-0.0182988 9:-0.246686 10:0.388376 11:-0.197222 12:0.355569 13:0.196324 14:1 15:0.305651 16:0.402877 17:-0.816812 18:0.338313 19:0.523439 20:-0.0338143 21:-0.51577 22:0.258311 
-1 1:0.150922 2:-0.180998 3:0.264083 4:0.179195 5:0.140709 6:-0.482705 7:-0.163754 8:0.551548 9:0.27144 10:0.367032 11:-0.184845 12:-0.0945832 13:-0.218278 14:-0.359621 15:0.251852 16:-0.0283165 17:0.889963 18:-0.0345375 19:-0.436298 20:-0.475221 21:-0.675295 22:-0.400918 
-1 1:0.708022 2:-0.323013 3:0.0956346 4:0.175071 5:0.522149 6:0.383959 7:-0.093359 8:1 9:0.642504 10:-0.283845 11:-0.344203 12:0.199767 13:-1 14:-0.191058 15:0.103448 16:-0.268976 17:0.257809 18:-0.0878036 19:0.199164 20:-0.397283 21:-0.1981 22:-0.516585 
-1 1:0.515753 2:-0.298954 3:0.223845 4:0.11632 5:0.144587 6:-0.417129 7:0.449964 8:0.567864 9:0.405072 10:-0.0176064 11:0.366258 12:-0.062374 13:-0.567149 14:0.113343 15:0.124561 16:0.285403 17:0.584632 18:0.115127 19:0.136386 20:-0.455474 21:-0.500428 22:-0.763294 
-0.700201565679705 1:0.798246 2:0.583132 3:-0.466612 4:-0.685495 5:-0.402613 6:-0.474021 7:0.68773 8:0.445191 9:0.606578 10:0.232051 11:-0.991974 12:-1 13:-0.511465 14:0.213192 15:-0.543033 16:0.622777 17:0.793287 18:0.195858 19:0.126361 20:-0.021896 21:-0.700741 22:-0.516585 
-0.4440948567710872 1:0.18001 2:-0.705581 3:0.131091 4:-0.371912 5:0.0284474 6:-0.331096 7:-0.599351 8:0.158326 9:0.485296 10:-0.0704941 11:-0.410451 12:-0.277839 13:0.276911 14:-0.253956 15:0.0343091 16:-0.418654 17:0.395772 18:0.345582 19:-0.61628 20:-0.359268 21:-0.476309 22:0.177684 
-1 1:-0.21146 2:0.377502 3:-0.242726 4:0.128373 5:0.320504 6:0.299465 7:-0.195104 8:-0.212503 9:-0.147076 10:-0.550877 11:0.901161 12:0.465877 13:-0.824617 14:-0.0683644 15:0.583582 16:-0.557292 17:0.166586 18:0.24423 19:0.13334 20:-0.477275 21:-0.839936 22:-0.496211 
-1 1:-0.174556 2:-0.128438 3:0.0596133 4:0.224152 5:0.391463 6:0.266556 7:0.143198 8:-0.0681361 9:0.382093 10:-0.0526835 11:0.0725277 12:1 13:-0.4335 14:0.254529 15:-0.510489 16:-0.107167 17:0.487946 18:0.60328 19:0.279905 20:-0.0941358 21:-0.686315 22:-0.50589 
-1 1:-0.0605448 2:1 3:0.305723 4:0.234975 5:0.747266 6:-0.0180028 7:-0.106503 8:-0.166971 9:0.132091 10:0.248342 11:0.505237 12:-0.0405117 13:0.28553 14:-0.24349 15:1 16:-0.160323 17:0.318327 18:0.0371393 19:0.536168 20:-0.304798 21:-0.385561 22:0.195559 
-1 1:0.301791 2:-0.307706 3:0.231582 4:0.0236478 5:-0.146609 6:-0.326429 7:-0.102237 8:0.649519 9:0.81882 10:-0.104647 11:0.0979466 12:0.0560464 13:-0.712128 14:-0.257325 15:0.230203 16:0.386767 17:0.852667 18:-0.365401 19:-0.0903632 20:-0.154564 21:-0.57672 22:-0.75298 
-0.4457781762902893 1:0.15593 2:-0.146499 3:-0.0332645 4:0.494412 5:0.215066 6:-0.610054 7:-0.218184 8:-0.0162284 9:0.394545 10:-0.220137 11:-0.13955 12:-0.134044 13:-0.186176 14:-0.0485252 15:0.415672 16:-0.189329 17:-0.521886 18:-0.263804 19:-0.440925 20:0.118712 21:-0.936841 22:-0.148329 
-1 1:0.155183 2:-0.23862 3:0.415406 4:0.106256 5:0.360552 6:0.0573597 7:-0.632169 8:0.286728 9:0.579629 10:0.255808 11:-0.0398089 12:-0.337102 13:-0.224533 14:-0.885415 15:0.105639 16:-0.793565 17:0.273188 18:0.195858 19:0.259747 20:0.169964 21:-0.792728 22:-0.407415 
-1 1:-0.744836 2:0.436571 3:-0.182696 4:-0.0947976 5:-0.0279359 6:-0.524058 7:-0.195328 8:-0.508834 9:0.0933446 10:-0.421981 11:0.0528081 12:0.332985 13:-0.5065 14:-0.152852 15:-0.0998139 16:-0.401609 17:0.313772 18:-0.240319 19:-0.295554 20:-0.136359 21:-0.695501 22:-0.503607 
-0.5047833633307192 1:-0.0907748 2:-0.445936 3:0.0522869 4:0.333996 5:-0.170799 6:-0.817681 7:0.0350303 8:0.454738 9:0.494809 10:-0.580562 11:-0.0402084 12:-0.0875191 13:-0.717353 14:0.249373 15:-0.107227 16:-0.853812 17:0.338823 18:-0.378286 19:-0.809015 20:-0.207085 21:-0.407845 22:-0.488395 
-1 1:0.413944 2:-0.316896 3:0.27508 4:-0.0966463 5:0.51789 6:-0.123666 7:-0.367812 8:0.717165 9:0.331174 10:-0.00333715 11:0.192021 12:0.321228 13:-0.192787 14:-0.317217 15:-0.521945 16:-0.255373 17:0.0773935 18:0.195858 19:0.0527632 20:0.436316 21:-0.57672 22:-0.0526294 
-1 1:-0.236843 2:0.0423677 3:-0.292634 4:0.387054 5:-1 6:-0.769583 7:-0.137427 8:0.0780758 9:0.745449 10:-0.49428 11:0.361119 12:-0.749019 13:0.134296 14:-0.342472 15:0.108364 16:-0.287932 17:-0.208582 18:-0.491629 19:-0.0127071 20:-0.365366 21:-0.57672 22:0.0749318 
-1 1:0.205488 2:0.230687 3:0.649449 4:0.194255 5:0.725227 6:-0.0562927 7:0.0285554 8:0.239617 9:0.579364 10:0.249688 11:0.68025 12:0.167402 13:-0.155219 14:0.0485539 15:0.662013 16:-0.0474516 17:0.539086 18:0.548961 19:0.593443 20:0.313858 21:-0.57672 22:-0.0978507 
-1 1:0.375785 2:-0.199181 3:0.535863 4:-0.247606 5:-0.229508 6:0.169684 7:-0.114028 8:-0.514827 9:0.152886 10:0.518772 11:0.253392 12:0.106374 13:-0.305694 14:-0.330305 15:-0.693714 16:0.819242 17:0.513206 18:-0.25012 19:0.0527632 20:0.441859 21:-0.767533 22:-0.516585 
-1 1:-0.312802 2:-0.193642 3:-0.993795 4:0.138758 5:-0.33287 6:-0.202209 7:0.0757408 8:-0.210417 9:-0.0113918 10:-1 11:-0.0506102 12:-0.587516 13:-0.618455 14:-0.147078 15:0.328593 16:-0.72178 17:-0.773856 18:-0.66102 19:0.0401545 20:-0.656169 21:-0.628528 22:-0.533554 
-0.3177451906014829 1:0.613673 2:-0.535385 3:0.565338 4:-0.190432 5:0.531949 6:-0.201522 7:-0.312143 8:0.0274851 9:0.400692 10:0.0244782 11:0.00296315 12:0.343381 13:-0.585782 14:-0.114928 15:-0.504235 16:0.361029 17:0.539757 18:-0.435842 19:0.158461 20:0.449898 21:-0.683542 22:-0.782649 
-1 1:-0.0270549 2:0.137449 3:0.234475 4:-0.567242 5:0.457467 6:-0.0360119 7:-0.165119 8:-0.220588 9:0.221638 10:0.225398 11:-0.944574 12:0.22602 13:-0.24421 14:-0.112716 15:-0.0136195 16:0.534835 17:0.45422 18:0.454483 19:0.385911 20:0.00412439 21:-0.57672 22:-0.501779 
-0.9982817778467735 1:0.255586 2:0.110613 3:0.356011 4:0.0758174 5:0.0736633 6:-0.193126 7:-0.178853 8:0.149407 9:0.855553 10:0.143102 11:0.20712 12:-0.101054 13:0.273069 14:-0.321103 15:0.35464 16:0.322631 17:-0.17001 18:-0.236479 19:0.415878 20:-0.341917 21:-0.598244 22:0.312679 
-1 1:0.801403 2:-0.490046 3:0.385648 4:0.263481 5:0.103439 6:-0.453437 7:-0.0902672 8:0.958781 9:0.527583 10:0.234708 11:0.23665 12:0.301558 13:-0.504604 14:-0.090398 15:-0.977448 16:-0.139204 17:0.794363 18:0.21998 19:-0.054591 20:-0.121406 21:-0.566399 22:-0.828236 
-1 1:0.212127 2:-0.0620469 3:0.17684 4:-0.106206 5:0.41764 6:-0.37251 7:0.0155833 8:0.212071 9:0.494529 10:-0.558953 11:0.298822 12:-0.0725661 13:-0.65905 14:-0.0101143 15:0.00279496 16:0.0969457 17:0.479452 18:0.332977 19:0.162262 20:-0.266071 21:-0.81347 22:-0.749646 
-1 1:-0.165541 2:-0.0949976 3:0.268616 4:-0.199743 5:0.553626 6:0.0230051 7:-0.1926 8:-0.012092 9:0.18407 10:0.387473 11:-1 12:0.907433 13:0.00409435 14:-0.208225 15:-0.053294 16:0.0794793 17:0.0365167 18:0.413379 19:0.0480102 20:0.256482 21:-0.363194 22:-0.519092 
-0.7532822788453635 1:0.53997 2:-0.459953 3:0.3427 4:-0.387941 5:0.682174 6:0.169698 7:-0.500942 8:0.640396 9:0.206422 10:-0.0187445 11:-0.0252072 12:0.258528 13:-0.193819 14:-0.21198 15:0.263786 16:0.616917 17:0.509353 18:0.689355 19:0.222023 20:1 21:-0.745101 22:-0.136498 
-1 1:-0.251423 2:0.16432 3:0.538599 4:-0.158111 5:0.117777 6:-0.576829 7:-0.43918 8:0.0356909 9:-0.385509 10:0.148706 11:0.284751 12:0.0318759 13:0.335002 14:-0.282269 15:-0.409279 16:-0.153865 17:0.172529 18:0.511555 19:0.156777 20:-0.0165186 21:-0.900517 22:0.382697 
-1 1:0.474059 2:-0.283605 3:0.383435 4:0.744041 5:-0.256126 6:-0.860167 7:0.0359364 8:0.353454 9:0.517328 10:-0.121654 11:0.342047 12:-0.0840524 13:-0.358747 14:-0.179002 15:0.292522 16:0.117154 17:-0.438056 18:-0.184371 19:-0.734408 20:-0.0205633 21:-0.835016 22:-0.480042 
-1 1:0.942612 2:-0.188153 3:0.923103 4:0.253939 5:0.398086 6:-0.0822902 7:-0.356084 8:0.380846 9:0.685315 10:0.194195 11:-0.564531 12:-0.639694 13:-0.700272 14:0.156803 15:0.176419 16:0.424328 17:0.627323 18:0.327409 19:0.305908 20:0.523681 21:-0.334507 22:-0.516585 
-1 1:0.802977 2:-0.647823 3:0.478649 4:0.115201 5:0.524975 6:0.17488 7:0.0854583 8:0.606587 9:0.0364335 10:0.358945 11:0.41538 12:-0.120968 13:-0.575924 14:-0.181488 15:0.0410144 16:0.113949 17:0.731093 18:-0.252973 19:-0.305658 20:0.542275 21:-0.346235 22:-0.544721 
-1 1:-0.106735 2:-0.00190134 3:0.324224 4:0.00644822 5:0.380846 6:-0.436165 7:-0.306314 8:-0.288287 9:0.33575 10:0.384812 11:0.0509793 12:0.521137 13:-0.310398 14:-0.080435 15:-0.0644192 16:-0.0879957 17:0.39168 18:0.278866 19:0.0527632 20:0.267855 21:-0.86811 22:-0.387499 
-1 1:0.15013 2:-0.809145 3:0.618464 4:-0.230299 5:0.630406 6:0.00617786 7:-0.092083 8:-0.290448 9:-0.0402245 10:0.458175 11:0.347549 12:0.834801 13:-0.51661 14:0.0831007 15:-0.22087 16:0.987971 17:0.150491 18:0.766395 19:0.508376 20:0.713441 21:-0.557935 22:-0.516585 
-1 1:0.609399 2:-0.601342 3:0.494911 4:-0.0419863 5:0.752201 6:0.647003 7:0.503537 8:0.132054 9:1 10:0.441571 11:0.134286 12:0.0885838 13:0.362127 14:0.320032 15:0.327252 16:0.972286 17:-0.481243 18:0.548594 19:0.109617 20:0.895807 21:-0.546259 22:0.384713 
-1 1:-0.119893 2:0.0952469 3:0.168135 4:-0.223163 5:0.333144 6:-0.559143 7:0.187088 8:0.264852 9:0.320351 10:-0.367343 11:0.0415328 12:-0.213059 13:-0.583307 14:0.285022 15:0.0860988 16:0.292454 17:0.299724 18:0.0752783 19:0.104564 20:0.0805972 21:-0.68093 22:-0.567371 
-1 1:-0.242575 2:0.416721 3:0.398329 4:0.0745997 5:0.36415 6:-0.0355147 7:0.204403 8:-0.0547597 9:-0.0733241 10:0.331654 11:0.386652 12:0.181014 13:-0.224874 14:0.177143 15:0.354858 16:0.317962 17:0.1254 18:0.502166 19:0.217126 20:-0.243363 21:-0.868184 22:-0.429895 
-1 1:0.0186444 2:-0.661959 3:0.416251 4:-0.270678 5:0.52323 6:0.71385 7:-0.202743 8:-0.118337 9:-0.440347 10:0.217491 11:-0.505326 12:0.822519 13:-0.648018 14:-0.559112 15:-0.263249 16:0.444192 17:-0.417716 18:0.174735 19:-0.269181 20:0.473558 21:-0.585758 22:-0.686388 
-1 1:0.0495805 2:0.0780251 3:0.139833 4:0.102273 5:0.540325 6:0.322475 7:0.0198444 8:-0.0370538 9:0.0419598 10:0.125657 11:0.0897856 12:0.889109 13:-0.469057 14:0.0684695 15:0.471673 16:0.407141 17:0.270113 18:0.149089 19:0.0154156 20:-0.504715 21:-0.692344 22:-0.469501 
-0.2536442345024794 1:0.583086 2:-0.342085 3:0.425453 4:-0.0227081 5:-0.575459 6:-0.400005 7:-0.0822921 8:0.584577 9:0.51995 10:-0.0851749 11:0.0242187 12:-0.228561 13:-0.325099 14:-0.0675116 15:0.0737049 16:0.582578 17:0.324048 18:0.162925 19:-0.151993 20:-0.0462731 21:-0.55446 22:-0.494671 
-1 1:-0.00839576 2:-0.202076 3:-0.504795 4:0.243762 5:0.287543 6:-0.116479 7:0.0509034 8:0.287422 9:0.185126 10:-0.499816 11:-0.0856313 12:-0.144302 13:-0.489044 14:0.0105634 15:-0.0746326 16:-0.654692 17:0.121235 18:-0.372787 19:-0.706414 20:-0.442814 21:-0.603944 22:-0.434279 
-1 1:0.377514 2:0.236256 3:0.447938 4:0.212936 5:0.285859 6:0.143052 7:-0.15139 8:0.259237 9:0.590125 10:0.304198 11:-0.852222 12:-0.18499 13:-0.0684049 14:-0.066516 15:-0.0101695 16:0.20572 17:-0.203684 18:0.458057 19:0.0527632 20:0.0548222 21:-0.532376 22:-0.056996 
-1 1:-0.230125 2:-0.363671 3:0.362703 4:-0.435413 5:0.428548 6:0.104705 7:0.377283 8:0.178589 9:0.00417965 10:0.277645 11:0.149357 12:0.557344 13:0.268872 14:0.619087 15:-0.265748 16:0.346039 17:0.146388 18:0.619413 19:0.229153 20:0.401069 21:-0.541477 22:-0.0301715 
-1 1:-0.0992101 2:0.174941 3:-0.369992 4:0.294988 5:0.538284 6:0.340856 7:-0.086168 8:-0.00316993 9:0.138728 10:-0.155446 11:0.444285 12:-0.178373 13:-0.337595 14:0.162527 15:0.363862 16:0.0726006 17:-0.184845 18:0.0815089 19:0.0527632 20:0.0588793 21:-0.693484 22:-0.631529 
-0.9435240297747925 1:0.0406452 2:0.0280741 3:0.215255 4:-0.0851801 5:0.501476 6:-0.210129 7:0.0967508 8:0.00250299 9:-0.0142163 10:-0.536015 11:0.0868111 12:0.415382 13:-0.617765 14:0.323262 15:0.219775 16:0.325505 17:0.134704 18:-0.514718 19:-0.33622 20:0.274148 21:-0.553837 22:-0.466716 
-1 1:0.470993 2:-0.216717 3:0.562549 4:0.155192 5:0.541095 6:-0.00268388 7:-0.0698079 8:0.197195 9:0.712792 10:0.2622 11:0.0474125 12:-0.392536 13:0.119314 14:-0.0995141 15:0.158313 16:-0.0620936 17:0.221583 18:0.250582 19:0.096464 20:0.0186115 21:-0.269394 22:0.0559637 
-1 1:-0.471069 2:0.172394 3:0.284131 4:-0.20996 5:0.407751 6:0.285147 7:0.108081 8:0.0907662 9:-0.0372888 10:-0.496811 11:-0.0442814 12:0.251766 13:-0.336575 14:0.100063 15:0.128393 16:-0.60211 17:0.356596 18:-0.47088 19:-0.479671 20:0.215561 21:-0.57672 22:-0.797406 
-1 1:-0.111734 2:-0.403075 3:-0.137298 4:0.301557 5:0.185691 6:-0.115019 7:0.00470883 8:0.200083 9:0.467456 10:-0.326287 11:-0.442533 12:-0.831222 13:0.0698335 14:-0.324509 15:-0.0393595 16:-0.332393 17:0.0018355 18:-0.4948 19:-0.0670792 20:-0.415766 21:-0.52644 22:0.0488485 
-1 1:-0.13222 2:-0.381413 3:0.132155 4:-0.31181 5:-0.417758 6:-0.159503 7:-0.164 8:-0.431445 9:-0.127101 10:0.168249 11:0.0879433 12:0.221672 13:0.207224 14:-0.287979 15:0.104334 16:0.273364 17:0.120343 18:0.491727 19:0.110576 20:-0.533874 21:-0.57672 22:-0.251261 
-1 1:-0.284242 2:-0.265495 3:0.387008 4:0.209141 5:0.596536 6:-0.400114 7:-0.0763507 8:-0.191349 9:0.313141 10:-0.0381269 11:0.0854908 12:0.542901 13:-0.0214023 14:-0.00586126 15:-0.0301301 16:0.187736 17:0.172568 18:0.437377 19:-0.669595 20:0.102403 21:-0.800291 22:-0.214061 
-1 1:0.195025 2:0.018466 3:0.12399 4:0.0396135 5:0.268793 6:0.102775 7:-0.00108608 8:0.350157 9:0.444754 10:0.0165809 11:0.313843 12:-0.379111 13:-0.428002 14:-0.135802 15:0.0243821 16:-0.565483 17:0.256334 18:-0.0467318 19:-0.319418 20:-0.0840981 21:-0.776127 22:-0.391073 
-1 1:-0.408811 2:-0.409169 3:0.54098 4:-0.210658 5:0.641652 6:0.53462 7:-0.147499 8:0.262797 9:-0.229667 10:0.341398 11:0.256721 12:0.25147 13:-0.550219 14:-0.177898 15:-0.538289 16:0.476716 17:0.0691915 18:0.516408 19:0.130286 20:0.423781 21:-0.698638 22:-0.797509 
-1 1:0.556838 2:-0.569895 3:0.501182 4:0.00236239 5:0.186403 6:-0.334104 7:0.0699763 8:0.782611 9:0.488573 10:0.0242696 11:-0.191965 12:0.144647 13:-0.708694 14:-0.10087 15:0.0593812 16:0.217883 17:0.653963 18:0.407128 19:-0.388675 20:0.299907 21:-0.247779 22:-0.588506 
-1 1:-0.556967 2:0.186791 3:-0.32497 4:0.425388 5:0.0875551 6:-0.0252024 7:-0.376685 8:0.118599 9:0.277016 10:-0.710482 11:0.634181 12:-0.52841 13:-0.460256 14:-0.219216 15:-0.0323189 16:-0.0959609 17:-0.0450159 18:-0.393864 19:-0.41817 20:-0.021896 21:-0.665583 22:-0.552263 
-0.9595818591269036 1:0.311152 2:0.0549299 3:0.0168548 4:-0.150889 5:-0.428235 6:-0.790765 7:-0.206163 8:0.130393 9:0.346965 10:-0.415697 11:0.090442 12:-0.681713 13:-0.460732 14:-0.304868 15:0.0801673 16:-0.182999 17:0.250491 18:-0.0538534 19:0.0996574 20:-0.324102 21:-0.847012 22:-0.943572 
-0.07838768534567682 1:0.607592 2:-0.0584707 3:0.194093 4:0.413188 5:-0.206924 6:-0.416632 7:0.00198772 8:0.531677 9:0.566435 10:0.0401042 11:-0.939219 12:-0.230421 13:-0.573719 14:-0.142386 15:-0.594228 16:-0.126159 17:0.559326 18:-0.529078 19:-0.22107 20:-0.27572 21:-0.233075 22:-0.821919 
-1 1:0.921369 2:-0.50252 3:0.336815 4:0.195653 5:0.22763 6:-0.576533 7:0.0556032 8:0.815234 9:0.552061 10:0.215143 11:-0.174489 12:0.273349 13:-0.413066 14:0.0721344 15:-1 16:0.1727 17:-0.330318 18:-0.185414 19:0.456657 20:0.3095 21:-0.337847 22:-0.422142 
-1 1:-0.0242046 2:-0.0989719 3:-0.0857627 4:0.239829 5:-0.463531 6:-0.697337 7:0.0752582 8:0.194724 9:0.556129 10:-0.0136135 11:0.199648 12:-0.173519 13:-0.63432 14:-0.486682 15:0.251404 16:0.24705 17:0.364549 18:0.0230681 19:0.426718 20:-0.021896 21:-0.650649 22:-0.707944 
-1 1:0.364492 2:-0.910113 3:0.104842 4:0.379469 5:-0.387639 6:-0.793766 7:0.0144092 8:0.345454 9:0.549686 10:-0.0921719 11:-0.841351 12:-0.245367 13:-0.159272 14:0.164268 15:-0.252421 16:0.148729 17:-0.646664 18:0.392522 19:-0.16311 20:0.226207 21:-0.202021 22:-0.308631 
-1 1:0.799314 2:0.275276 3:0.19414 4:-0.370374 5:0.438619 6:-0.257878 7:-0.230769 8:0.115403 9:-1 10:0.216195 11:-0.863182 12:0.476606 13:-0.49971 14:-0.312399 15:-0.0373621 16:0.865233 17:-0.988943 18:0.540484 19:0.187809 20:0.151334 21:-0.994724 22:-0.928075 
