svm_type c_svc
kernel_type rbf
gamma 0.0294118
nr_class 2
total_sv 353
rho 0.374178
label 0 1
probA -0.745665
probB -0.0191389
nr_sv 176 177
SV
1 1:0.0357876 2:-1 3:-0.747058 4:-0.0262382 5:-0.743765 6:0.20527 7:-0.237283 8:-0.207286 9:-0.81904 10:0.0945887 11:-0.397769 12:-1 13:-0.768459 14:-0.439261 15:-0.407782 16:-0.576298 17:-0.730703 18:-0.195443 19:-1 20:-0.466017 21:-1 22:0.0959325 23:-0.639052 24:-0.866075 25:-0.185498 26:-0.460688 27:0.0688948 28:-0.659152 29:-0.49814 30:-1 31:-0.62265 32:-0.76512 33:-0.63285 34:-0.179748 
1 1:-0.365181 2:-1 3:-0.249865 4:-0.404838 5:-1 6:-0.249554 7:-1 8:0.23891 9:-1 10:0.487042 11:-0.392066 12:-1 13:0.475159 14:-1 15:-0.163467 16:-0.291762 17:-0.0577183 18:-0.0718781 19:-1 20:-0.340954 21:-1 22:-0.24868 23:-0.352246 24:-1 25:-0.572469 26:-1 27:-0.237049 28:0.204791 29:0.0584696 30:0.154386 31:0.0280372 32:0.451421 33:-0.226791 34:-0.0154326 
1 1:0.430756 2:-1 3:0.0888755 4:-0.0646681 5:-1 6:0.165348 7:-0.17323 8:-0.0191926 9:-0.542298 10:0.397657 11:-0.795551 12:0.294015 13:0.00567683 14:-0.287486 15:-0.338156 16:0.192713 17:-0.394956 18:-0.321763 19:-1 20:-0.419732 21:-0.873756 22:-0.268649 23:-1 24:-0.823841 25:-0.473623 26:-0.480009 27:0.0703352 28:0.357381 29:0.107324 30:0.119062 31:-0.2073 32:0.160472 33:-0.146584 34:-0.137029 
1 1:0.0655326 2:-0.20405 3:-0.89002 4:-0.169108 5:-1 6:0.208966 7:-0.608868 8:0.292084 9:-0.850019 10:0.406164 11:-0.423302 12:0.205439 13:-0.0526972 14:-0.295198 15:-0.379947 16:-0.76244 17:-0.739231 18:0.579466 19:-0.74309 20:-0.740633 21:-1 22:0.10661 23:-0.361125 24:-0.891443 25:0.0137072 26:-0.179731 27:0.0115041 28:0.0853156 29:-0.340197 30:-0.554571 31:-0.687249 32:-0.660446 33:-0.695704 34:-0.146973 
1 1:-0.980416 2:-1 3:-0.724917 4:-0.563167 5:-0.802113 6:-0.025904 7:-1 8:-0.559796 9:-1 10:0.137299 11:-0.827666 12:-0.182241 13:0.0522171 14:-0.238862 15:-0.301577 16:-0.264978 17:-0.253686 18:-0.949596 19:-1 20:-0.42777 21:-1 22:-0.994517 23:-1 24:-1 25:-0.786987 26:-1 27:-0.547459 28:0.00963808 29:-0.0504405 30:0.478107 31:-0.708578 32:0.445818 33:-0.501637 34:-0.310168 
1 1:-0.0330802 2:-0.426442 3:-0.72991 4:-0.204129 5:-1 6:0.259235 7:-0.356084 8:0.0755878 9:-1 10:-0.573246 11:-0.12431 12:0.380838 13:-0.175253 14:-0.25124 15:-0.263948 16:0.179443 17:-0.400173 18:-0.0412003 19:-0.0334861 20:-0.582128 21:-0.808945 22:0.118749 23:-0.614582 24:-0.733404 25:0.106501 26:-0.0147172 27:-0.122157 28:0.00229661 29:0.271758 30:-0.495959 31:-0.320295 32:0.0344982 33:-0.721602 34:0.079624 
1 1:-0.00998804 2:-1 3:0.0854022 4:-0.384515 5:-1 6:0.3739 7:-0.538818 8:0.079341 9:-1 10:-0.380518 11:0.0749438 12:-0.471605 13:0.176519 14:-1 15:-0.201152 16:0.182054 17:0.308178 18:0.0270173 19:-1 20:0.185892 21:0.917225 22:0.203507 23:-1 24:-0.584594 25:-0.358168 26:-0.152262 27:-0.131257 28:-0.212714 29:-0.0776512 30:0.00191296 31:-0.0305811 32:-0.109917 33:-0.275611 34:-0.110171 
1 1:0.642931 2:-1 3:-0.700157 4:0.0809227 5:-1 6:0.350278 7:-0.273578 8:-0.465426 9:-0.570489 10:0.26796 11:-0.234307 12:-1 13:-0.260175 14:-0.743641 15:-0.365915 16:0.12032 17:-0.7356 18:-0.0148707 19:-1 20:-1 21:-1 22:-0.416472 23:-1 24:-1 25:-0.627527 26:-0.897726 27:-0.162533 28:-0.369743 29:-0.258847 30:0.0533448 31:-0.682346 32:0.127375 33:-0.569052 34:0.205567 
1 1:-0.297164 2:-0.499663 3:-0.874201 4:-0.458569 5:-1 6:0.742793 7:-0.61137 8:-0.327153 9:-1 10:0.167544 11:0.405361 12:-0.280661 13:0.572126 14:-1 15:-0.300956 16:-0.153745 17:-0.275441 18:0.204791 19:-1 20:-0.7074 21:-1 22:-0.061054 23:-0.820485 24:-1 25:-0.316449 26:-0.455942 27:-0.402138 28:-0.3507 29:-0.525722 30:-0.110881 31:-1 32:-0.917046 33:-0.656714 34:0.929709 
0.5710906652502939 1:-0.103439 2:-0.344422 3:-0.0914012 4:0.0259789 5:-0.84352 6:0.106396 7:-0.28445 8:-0.459761 9:-0.801253 10:0.473978 11:-0.430781 12:-0.726891 13:0.457671 14:-0.384146 15:0.116334 16:0.227719 17:0.0942277 18:-0.189079 19:-1 20:-0.420469 21:-0.918242 22:-0.337639 23:-0.689595 24:-0.785291 25:-0.397383 26:-0.663502 27:-0.202117 28:-0.341356 29:0.322452 30:0.59672 31:-0.432391 32:-0.115081 33:-0.596763 34:0.346257 
1 1:-0.0275366 2:-0.766068 3:-0.889841 4:-0.145607 5:-0.920755 6:0.218525 7:-0.197315 8:0.0772827 9:-0.849799 10:-0.0939068 11:-0.250274 12:-0.20114 13:-0.0933563 14:-0.18831 15:-0.108768 16:-0.225016 17:-0.424867 18:-0.00845409 19:-1 20:-1 21:-0.922076 22:0.0927764 23:-0.578109 24:-0.629514 25:-0.0197182 26:-0.286732 27:-0.0949655 28:-0.455938 29:0.281104 30:-0.62685 31:-0.602363 32:-0.392332 33:-0.537899 34:0.0430857 
1 1:0.294153 2:-1 3:-0.507281 4:-0.570728 5:-1 6:0.40196 7:-0.23984 8:-0.0966187 9:-0.749679 10:0.124194 11:-0.352494 12:-0.381371 13:0.305201 14:-1 15:-0.724571 16:-0.465357 17:-0.592474 18:-0.14265 19:-1 20:-0.567112 21:-0.430756 22:0.267492 23:-0.29689 24:-0.205686 25:-0.176478 26:-0.690549 27:-0.25463 28:-0.240101 29:-0.368171 30:-1 31:0.0949539 32:-1 33:-1 34:0.0151061 
1 1:-0.127158 2:-1 3:-0.610872 4:0.0952231 5:-1 6:0.248149 7:-0.30184 8:-0.0987064 9:-0.890134 10:0.549069 11:-0.044575 12:0.0805174 13:0.148392 14:-1 15:0.134273 16:0.517775 17:-0.16789 18:0.158129 19:-1 20:-0.0356886 21:-0.72474 22:-0.549733 23:-0.691405 24:-0.615906 25:-0.765109 26:-1 27:-0.195533 28:-0.102168 29:0.107392 30:-0.043401 31:-0.189994 32:-0.276226 33:-0.598903 34:0.760354 
1 1:0.151103 2:-1 3:-0.424356 4:0.0439599 5:-1 6:-0.177662 7:-0.0622964 8:0.575369 9:-1 10:-0.190896 11:-0.151926 12:-0.579606 13:-0.24293 14:-0.47289 15:-0.00695926 16:-0.639829 17:-0.830436 18:0.352966 19:-1 20:-0.19321 21:-1 22:-0.235608 23:-0.522196 24:-1 25:-0.487566 26:-0.638468 27:0.11045 28:-0.191109 29:-0.201459 30:-0.407194 31:-0.64528 32:-0.62041 33:-0.053453 34:0.20606 
1 1:0.628401 2:-1 3:0.488242 4:-0.148975 5:-1 6:0.152552 7:-0.207165 8:0.52524 9:-0.476212 10:0.0588939 11:0.0634769 12:0.0075694 13:0.407233 14:-0.226846 15:0.0161651 16:0.149348 17:0.0480578 18:0.515721 19:-1 20:0.195667 21:-1 22:-0.281473 23:-0.299167 24:-1 25:-0.466205 26:0.0661383 27:0.267196 28:-0.0728707 29:-0.0441027 30:0.584077 31:0.576641 32:0.591947 33:-0.493769 34:0.0815716 
1 1:-0.0376358 2:-0.194526 3:-0.357884 4:-0.417361 5:-1 6:-0.0516419 7:-0.838837 8:0.247091 9:-0.67378 10:-0.0273261 11:-0.369364 12:-1 13:-0.139454 14:0.0108533 15:-0.57431 16:-0.113918 17:-0.490224 18:-0.543174 19:-1 20:-0.666759 21:-1 22:0.0335415 23:-0.45874 24:-1 25:-0.496034 26:-0.470286 27:-0.172438 28:0.840503 29:-0.245833 30:0.133049 31:-0.598171 32:-0.336206 33:-0.609033 34:-0.0900356 
1 1:0.438367 2:-1 3:-0.666024 4:-0.552126 5:-1 6:0.169122 7:-0.506638 8:-0.275502 9:-0.907028 10:-0.160165 11:-0.272572 12:-0.770235 13:-0.321689 14:-1 15:-0.545904 16:-0.755781 17:-0.294399 18:-1 19:-1 20:-1 21:-0.178638 22:0.157881 23:-0.523417 24:-0.819366 25:-0.703321 26:-0.470655 27:-0.341179 28:-0.581842 29:-0.741114 30:-0.629231 31:-0.510048 32:-0.695031 33:-0.81137 34:-0.193002 
1 1:0.0720877 2:0.0813558 3:-1 4:-0.502764 5:-0.886349 6:0.255827 7:-0.353218 8:0.431231 9:-0.851889 10:0.048624 11:-0.221397 12:-0.360663 13:-0.363669 14:-0.0547274 15:-0.796446 16:-0.772967 17:-0.852362 18:0.170682 19:-0.804435 20:-0.642246 21:-1 22:0.423742 23:-0.774553 24:-1 25:0.0851411 26:0.144254 27:-0.0580612 28:-0.263876 29:-0.440498 30:-0.811801 31:-0.691149 32:-0.664215 33:-1 34:-0.437127 
1 1:0.093012 2:0.601261 3:-0.67051 4:-0.159057 5:-0.762974 6:0.243032 7:-0.335289 8:0.130689 9:-0.832606 10:0.38761 11:-0.431545 12:-0.0532759 13:-0.231462 14:-0.481299 15:-0.252561 16:-0.000503756 17:-0.540488 18:-0.0298504 19:-0.592138 20:-1 21:-0.46661 22:0.323714 23:0.294829 24:-0.439799 25:-0.112071 26:-0.0174756 27:0.164999 28:0.117723 29:0.116305 30:0.124633 31:-0.0387239 32:-0.502773 33:-1 34:-0.0106247 
1 1:0.455619 2:0.279074 3:-0.204085 4:-0.314079 5:-1 6:0.539521 7:0.0327329 8:0.561946 9:-0.693998 10:-0.123758 11:0.326903 12:0.639029 13:0.204864 14:0.252972 15:-0.220442 16:-0.379302 17:-0.212696 18:-0.0744312 19:-1 20:0.146917 21:-0.325148 22:0.545973 23:-0.496925 24:-0.65202 25:-0.00569557 26:0.0977748 27:0.508883 28:0.723028 29:-0.179276 30:0.0483586 31:0.0106855 32:-1 33:-0.0166359 34:0.25351 
1 1:0.544706 2:-1 3:-0.881919 4:-0.0651836 5:-1 6:0.208333 7:-0.135339 8:-0.649969 9:-0.94001 10:-0.0490573 11:-0.42268 12:-0.604874 13:-0.536804 14:-0.650568 15:-0.200973 16:-0.53934 17:-0.511772 18:0.33839 19:-1 20:-0.582836 21:-0.916472 22:0.0946139 23:-0.683254 24:-0.883447 25:-0.358051 26:-0.579048 27:-0.0298738 28:-0.798319 29:-0.602428 30:-0.648186 31:-0.874906 32:-0.853631 33:-0.771206 34:-0.2547 
1 1:-0.0799128 2:-0.650129 3:-0.696898 4:-0.248462 5:-1 6:0.328259 7:-0.516339 8:-0.280857 9:-0.0154448 10:0.53375 11:0.149884 12:-0.22082 13:-0.474248 14:-0.522841 15:-0.0711822 16:-0.0357547 17:-0.568354 18:-0.298071 19:-0.34748 20:-1 21:-1 22:-0.518488 23:-1 24:-0.837376 25:-0.568998 26:-0.464682 27:-0.191278 28:-0.700579 29:0.0285198 30:0.184882 31:-0.552564 32:-0.133521 33:0.00836767 34:-0.419399 
1 1:-0.208804 2:-1 3:-0.471122 4:-0.224831 5:-1 6:0.369826 7:-0.175125 8:0.274484 9:-1 10:0.00364856 11:-0.0236569 12:-0.335973 13:0.436493 14:-0.392705 15:0.129031 16:0.331013 17:0.314953 18:-0.557641 19:-1 20:0.255306 21:0.15672 22:-0.357547 23:-1 24:-0.788566 25:-0.766991 26:-0.523224 27:-0.320648 28:0.434839 29:0.0373918 30:0.524703 31:-0.439707 32:-0.436365 33:-0.779206 34:0.297694 
1 1:-0.190936 2:-1 3:-0.0755842 4:0.123394 5:-0.756969 6:-0.208228 7:-0.578226 8:0.0471103 9:-0.905859 10:0.51618 11:-0.883912 12:-0.767346 13:-0.213956 14:-0.708288 15:-0.0309773 16:-0.34405 17:-0.655684 18:0.412343 19:-1 20:-0.8372 21:-1 22:-0.641567 23:-0.517907 24:-1 25:-0.592727 26:-0.706406 27:0.0611535 28:-0.34054 29:-0.773377 30:-0.244698 31:-0.279709 32:-0.0234055 33:-1 34:-0.0712495 
1 1:0.508035 2:0.00489283 3:-0.526793 4:-0.367513 5:-1 6:0.370953 7:-0.191897 8:0.125625 9:-0.605055 10:0.287828 11:-0.168128 12:0.258065 13:0.105562 14:-1 15:-0.396626 16:-0.251256 17:-0.207962 18:0.164926 19:-0.414238 20:-0.584255 21:-1 22:-0.0311575 23:-1 24:-1 25:-0.310942 26:-0.166046 27:-0.199456 28:0.0859796 29:0.0344588 30:-1 31:-0.176434 32:-0.0412322 33:-0.198698 34:-0.0360237 
0.2438279898302105 1:-0.763078 2:-1 3:-0.278402 4:0.181655 5:-1 6:-0.0961587 7:-0.178715 8:0.169615 9:-1 10:0.722734 11:-0.613017 12:-0.748514 13:-0.272211 14:-0.428796 15:-0.0453928 16:-0.124157 17:-0.470985 18:1 19:-1 20:-0.561045 21:-1 22:-0.611282 23:-0.287035 24:-0.80229 25:-0.604322 26:-1 27:0.0235529 28:-0.0433335 29:-0.3579 30:-0.111456 31:-0.615607 32:0.402438 33:-0.625998 34:0.777605 
1 1:0.470075 2:-1 3:-0.530031 4:-0.483235 5:-1 6:0.552909 7:-0.242268 8:0.189476 9:-0.364308 10:0.0644613 11:-0.317045 12:-0.0296801 13:0.170034 14:-1 15:-0.249112 16:0.207525 17:-0.548274 18:-0.182747 19:-0.670104 20:-1 21:-0.55111 22:-0.0378498 23:-0.329355 24:-0.736942 25:-0.448727 26:-0.374003 27:-0.104126 28:0.1032 29:0.295636 30:-0.424169 31:-0.717664 32:-0.581544 33:-0.345897 34:-0.236921 
1 1:-0.46616 2:-1 3:-0.0899897 4:-0.124627 5:-0.497544 6:0.561155 7:-0.0128221 8:0.421659 9:-0.787705 10:0.320495 11:0.0707554 12:0.142554 13:0.0828898 14:-1 15:-0.0273579 16:-0.243902 17:0.157615 18:-0.201065 19:-1 20:0.433146 21:0.306305 22:-0.279492 23:-0.00329035 24:0.0658943 25:-0.599074 26:-0.56133 27:-0.0997896 28:0.451592 29:0.212871 30:-0.211279 31:0.144007 32:-0.113953 33:-0.280049 34:0.171325 
1 1:-0.579345 2:-1 3:-1 4:-0.406555 5:-1 6:0.681932 7:-0.556672 8:-0.779531 9:-0.236507 10:0.371535 11:0.178815 12:-0.748974 13:-0.0306218 14:-0.685252 15:-0.799552 16:-0.297303 17:-0.238945 18:0.167771 19:-1 20:-0.619374 21:-1 22:-0.391069 23:-0.714694 24:-1 25:-0.728252 26:-0.6867 27:0.213356 28:-0.878996 29:-0.327189 30:-0.284576 31:-0.78819 32:-0.761136 33:-0.891019 34:-0.0732214 
1 1:1 2:-1 3:-0.811138 4:-0.120607 5:-1 6:-0.167347 7:-0.364346 8:-1 9:-1 10:-0.254496 11:-0.702321 12:-1 13:-0.947531 14:-0.251976 15:-0.457188 16:-0.710431 17:0.0101028 18:-0.876226 19:-1 20:-0.582538 21:-1 22:0.00488502 23:-0.321946 24:-0.813581 25:-0.309235 26:-0.458727 27:-0.511747 28:-0.749744 29:-1 30:-0.878081 31:-1 32:-0.875461 33:-0.805329 34:-0.171576 
1 1:-0.262568 2:-1 3:0.255169 4:0.380791 5:-0.751851 6:-0.0246771 7:-0.318192 8:0.174423 9:-0.52305 10:0.512399 11:-0.382745 12:-0.0178804 13:-0.16597 14:-0.793987 15:0.244139 16:0.462609 17:0.461822 18:0.595236 19:-1 20:-0.785179 21:-1 22:-0.389394 23:0.405987 24:-0.870829 25:-0.655371 26:-0.628872 27:0.301501 28:0.163369 29:0.546996 30:0.361836 31:0.134978 32:0.85145 33:-0.865111 34:0.287169 
0.4813433672448953 1:-0.113941 2:-1 3:0.743828 4:0.496982 5:-1 6:-0.140215 7:-0.484827 8:0.0878112 9:-1 10:0.450336 11:-0.353591 12:-0.648111 13:-0.00233316 14:-0.558785 15:-0.0327724 16:0.687066 17:-0.164026 18:0.0514543 19:-0.653067 20:-0.753764 21:-0.532165 22:-0.183537 23:-0.0562333 24:-0.723357 25:-0.318666 26:-0.419034 27:-0.0347017 28:-0.0400722 29:0.123274 30:-0.333917 31:-0.149087 32:-0.017994 33:1 34:0.505321 
1 1:-0.256789 2:-1 3:0.410965 4:-0.0212399 5:-0.712634 6:0.467347 7:-0.626724 8:-0.46174 9:-0.797054 10:0.437631 11:0.0444774 12:-0.498452 13:0.172884 14:-0.371135 15:-0.250009 16:0.335831 17:-0.119767 18:-0.546312 19:-1 20:-0.649039 21:0.466305 22:-0.260254 23:-1 24:-0.336965 25:-0.299518 26:-0.578125 27:-0.130041 28:-0.445547 29:0.055241 30:-0.0284073 31:-0.576804 32:-0.0075296 33:-0.588244 34:0.510876 
1 1:-0.0628103 2:-1 3:-0.258198 4:-0.277087 5:-1 6:0.127227 7:-0.279064 8:-0.138969 9:-1 10:0.471453 11:0.00857403 12:-1 13:-0.10116 14:0.787173 15:-0.415383 16:0.0809282 17:0.248722 18:-0.220425 19:-1 20:-0.606341 21:0.398224 22:0.028156 23:-1 24:-1 25:-0.0573406 26:-0.534113 27:0.154491 28:0.217522 29:-0.0705991 30:-1 31:0.202683 32:0.410907 33:-0.538149 34:0.0698819 
1 1:0.14134 2:-1 3:-0.756971 4:-0.220887 5:-1 6:0.161748 7:-0.329865 8:0.248472 9:-1 10:0.0289853 11:-0.375968 12:-0.0964858 13:-0.251078 14:-1 15:-0.573049 16:-0.540638 17:-0.753117 18:0.350638 19:-0.790367 20:-0.851213 21:-1 22:-0.266327 23:-0.873265 24:-0.6931 25:-0.420964 26:-0.574237 27:0.150881 28:-0.541025 29:-0.0473185 30:-0.320031 31:-0.428794 32:-0.404901 33:-0.825439 34:-0.322882 
1 1:0.2177 2:0.226159 3:-0.234056 4:-0.685722 5:-1 6:0.432892 7:-0.423599 8:-0.465153 9:-1 10:-0.303518 11:-0.269662 12:-1 13:-0.414729 14:-0.0910237 15:-0.642806 16:-0.308129 17:-0.53376 18:-0.650587 19:-1 20:-0.704807 21:-0.348742 22:0.462403 23:-0.520539 24:-0.668354 25:-0.180053 26:0.137981 27:-0.147367 28:-0.389122 29:-0.535066 30:-0.783101 31:-1 32:-0.494922 33:-1 34:-0.297942 
1 1:0.112442 2:-1 3:-0.470189 4:0.560376 5:-1 6:0.43985 7:-0.100175 8:0.0903048 9:-1 10:0.246925 11:-0.254454 12:-1 13:-0.422939 14:0.114886 15:0.128202 16:-0.289976 17:-0.566495 18:0.343585 19:-0.622658 20:0.0455456 21:-1 22:0.0802023 23:-0.243961 24:-1 25:-0.401922 26:-0.667254 27:0.299859 28:-0.247049 29:-0.378586 30:-1 31:-1 32:-1 33:-1 34:0.056244 
1 1:-0.175671 2:0.504143 3:0.357649 4:0.250375 5:-1 6:0.00766874 7:-0.819552 8:0.574522 9:-0.784242 10:0.302475 11:-0.0822678 12:-1 13:-0.202081 14:-1 15:0.504722 16:0.260074 17:0.53637 18:0.175587 19:-1 20:-1 21:-0.699586 22:1 23:-0.393973 24:-1 25:1 26:1 27:-0.04503 28:0.101219 29:0.0375838 30:0.00725928 31:-0.249623 32:0.306438 33:-1 34:0.0125373 
1 1:0.117119 2:0.0700961 3:0.233718 4:-0.232291 5:-0.637501 6:-0.389829 7:-0.164887 8:0.796341 9:-0.583259 10:0.140496 11:-0.227101 12:0.320154 13:0.00206141 14:0.291349 15:0.172587 16:-0.664533 17:-0.467521 18:0.389255 19:-1 20:0.216101 21:-1 22:0.00764582 23:-1 24:-0.190319 25:-0.241009 26:-0.0501906 27:0.625284 28:0.353265 29:0.36128 30:-0.470462 31:0.466402 32:-0.306645 33:-0.480589 34:-0.234386 
1 1:0.103537 2:-1 3:-1 4:-0.561985 5:-0.733724 6:0.55558 7:-0.353405 8:-0.161866 9:-0.428519 10:0.306294 11:0.158456 12:-1 13:0.240834 14:-0.417287 15:-0.736486 16:-0.146448 17:-0.229349 18:-0.36065 19:-1 20:-0.447751 21:-0.0479519 22:0.446397 23:0.180575 24:-1 25:-0.296005 26:0.125991 27:-0.0220051 28:-0.291568 29:-0.867872 30:-0.131169 31:-1 32:-0.585504 33:-0.147239 34:0.708216 
1 1:-0.570946 2:-0.576977 3:0.975115 4:0.153536 5:-0.856699 6:0.124505 7:1 8:-0.213279 9:-1 10:0.803797 11:-0.140357 12:-1 13:0.367009 14:-1 15:0.612927 16:-0.19561 17:-0.328975 18:0.823125 19:-0.753416 20:-0.147031 21:-1 22:-0.836714 23:0.577802 24:-1 25:-0.438184 26:-0.874891 27:0.836809 28:0.51438 29:0.362943 30:-0.328054 31:0.171354 32:-0.672076 33:-0.366088 34:0.242127 
1 1:0.0254606 2:0.0909583 3:-0.916479 4:-0.679308 5:-0.83477 6:0.874998 7:-0.605339 8:0.242741 9:-0.957568 10:-0.495844 11:0.0763525 12:-0.0404362 13:-0.476654 14:-0.638415 15:-0.652334 16:-0.683204 17:-0.820377 18:0.0918456 19:-0.896613 20:-1 21:-1 22:0.752985 23:-0.413478 24:-0.917559 25:0.225857 26:0.496287 27:-0.348275 28:-0.331297 29:-0.250448 30:-0.851727 31:-0.624239 32:-1 33:-0.696498 34:-0.119503 
1 1:-0.397243 2:-0.519069 3:0.26032 4:0.169841 5:-0.837083 6:0.0939315 7:-0.464496 8:-0.76183 9:-0.359708 10:0.480515 11:-0.249614 12:-0.304097 13:-0.07052 14:-0.643476 15:0.284679 16:0.471197 17:0.499383 18:-0.117145 19:-1 20:-0.401737 21:-0.51831 22:-0.116835 23:-1 24:-0.776458 25:-0.293206 26:-0.290075 27:-0.0726125 28:-0.354755 29:0.206825 30:-0.113482 31:-0.570098 32:-0.254614 33:-0.766562 34:-0.02294 
1 1:0.546387 2:-1 3:-0.0259173 4:-0.266721 5:-1 6:0.186486 7:-0.367827 8:-0.274955 9:-0.315177 10:0.159676 11:-0.155523 12:0.222999 13:1 14:-0.174598 15:0.348363 16:0.177075 17:0.0506034 18:-0.277647 19:-1 20:-0.144201 21:-1 22:0.0174711 23:-0.570081 24:-1 25:-0.344501 26:-0.467118 27:-0.46933 28:0.185362 29:0.331521 30:-0.181099 31:-0.68083 32:-0.285356 33:-0.276937 34:-0.175118 
1 1:0.595094 2:-0.111716 3:-0.254247 4:-0.0909524 5:-0.802697 6:0.124323 7:-0.267099 8:-0.269869 9:-0.598629 10:0.27648 11:-0.429446 12:-0.184222 13:0.00712164 14:-0.147173 15:-0.134601 16:0.18419 17:0.421203 18:-0.152245 19:-1 20:-0.475123 21:-1 22:0.10048 23:-0.147479 24:-0.655242 25:-0.20316 26:-0.361508 27:-0.0664946 28:-0.249135 29:0.772465 30:0.317331 31:-0.311664 32:0.518047 33:-0.568838 34:0.0500982 
1 1:0.0651927 2:-0.236879 3:0.102155 4:-0.255344 5:-1 6:0.275038 7:-0.656632 8:0.137463 9:-0.240038 10:0.344494 11:-0.11482 12:-0.230968 13:-0.207533 14:-0.0357514 15:-0.517527 16:0.415545 17:-0.204143 18:0.393042 19:-1 20:-0.461867 21:-1 22:-0.215645 23:-0.125947 24:-0.395413 25:-0.340959 26:-0.392321 27:-0.164171 28:-0.0925189 29:-0.119466 30:0.139695 31:-0.143875 32:0.478977 33:-0.629591 34:-0.306222 
1 1:-0.0210602 2:0.0683811 3:-0.496897 4:-0.270169 5:0.607224 6:0.716362 7:0.00040075 8:0.296222 9:-0.583829 10:0.298656 11:0.106753 12:0.0285024 13:0.087966 14:0.0633913 15:-0.366071 16:-0.0311907 17:-0.522773 18:0.27083 19:-0.643978 20:-0.747314 21:-1 22:0.0577287 23:-0.282072 24:-0.33325 25:-0.334378 26:-0.575761 27:0.179391 28:-0.26894 29:0.673021 30:0.0124632 31:-0.467013 32:-0.18738 33:-0.703542 34:-0.26396 
1 1:0.422796 2:-0.0149459 3:0.435821 4:-0.575614 5:-1 6:-0.36523 7:-0.580735 8:0.463962 9:-0.611749 10:0.145818 11:-0.521235 12:-1 13:0.2497 14:-1 15:0.104451 16:-0.355163 17:-0.500294 18:-0.262211 19:-1 20:-0.328585 21:-1 22:-0.166056 23:-1 24:-0.542137 25:-0.367416 26:-0.380275 27:-0.143038 28:0.116535 29:0.224757 30:-0.363007 31:-0.190393 32:-0.135916 33:-1 34:-0.198429 
1 1:-0.149339 2:-1 3:-1 4:-0.423675 5:-0.747482 6:0.334119 7:-0.341041 8:0.473907 9:-0.597028 10:0.0793794 11:-0.404223 12:-0.246617 13:-0.099729 14:0.248682 15:-0.326112 16:-0.249231 17:-0.0619649 18:-0.0781429 19:-1 20:-0.303128 21:-1 22:0.300572 23:-1 24:-1 25:-0.316727 26:-0.402732 27:0.233346 28:0.197711 29:0.0384785 30:0.286537 31:0.00747832 32:-0.0269791 33:-0.0197565 34:0.102393 
1 1:-0.341889 2:-0.376469 3:-0.706378 4:-0.193093 5:-0.885472 6:0.315951 7:-0.390879 8:-0.531521 9:-0.919117 10:0.509343 11:-0.478688 12:-0.800111 13:-0.216499 14:-0.74937 15:-0.183888 16:-0.0936162 17:-0.460645 18:0.325369 19:-1 20:-0.549771 21:-1 22:-0.276483 23:-0.581001 24:-0.842854 25:-0.633386 26:-0.742539 27:-0.124679 28:-0.569973 29:-0.484962 30:0.0917642 31:-0.831338 32:-0.80638 33:-0.291897 34:-0.18056 
1 1:-0.435183 2:0.0145626 3:0.336312 4:0.245104 5:-1 6:0.100871 7:-0.331632 8:0.623508 9:-0.0659984 10:-0.010243 11:-0.0836277 12:0.677792 13:0.548179 14:-0.247884 15:0.591249 16:0.537946 17:0.475653 18:0.463036 19:-0.408601 20:-1 21:-1 22:-0.134339 23:0.118468 24:-1 25:-0.263881 26:-0.699944 27:0.0846624 28:0.440595 29:0.438378 30:-0.0557369 31:0.549616 32:0.454337 33:-0.507544 34:0.255121 
0.9298595580898641 1:-0.328553 2:-1 3:0.115911 4:0.251296 5:-1 6:0.372078 7:-0.113403 8:0.0385664 9:-0.481113 10:0.670663 11:-0.42666 12:-1 13:-0.427482 14:-0.565302 15:0.14318 16:0.322845 17:-0.252096 18:0.0945095 19:-1 20:0.480933 21:-0.0450859 22:0.048734 23:-0.0676679 24:1 25:-0.436624 26:-0.589664 27:0.290462 28:0.00223296 29:0.0932272 30:-0.128553 31:0.354689 32:-0.569167 33:-0.326551 34:0.383385 
1 1:-0.697954 2:-1 3:1 4:0.0833114 5:-1 6:0.0775976 7:-0.232342 8:0.523537 9:-0.693156 10:0.435936 11:-0.244553 12:-1 13:-0.0123049 14:-1 15:0.380691 16:0.392512 17:0.431814 18:-0.258866 19:-1 20:0.829664 21:1 22:-0.621309 23:-0.138125 24:-1 25:-0.733904 26:-1 27:0.340756 28:0.085579 29:0.336091 30:-0.610104 31:-0.360147 32:0.191372 33:-0.0143602 34:0.694 
1 1:-0.373603 2:-1 3:0.0630802 4:-0.380368 5:0.637722 6:0.28907 7:-0.351633 8:0.444514 9:-0.74028 10:0.444453 11:-0.219245 12:0.334739 13:0.125113 14:-0.19521 15:-0.348532 16:-0.30016 17:0.453577 18:-0.561012 19:-1 20:-1 21:0.348614 22:-0.121322 23:-1 24:-1 25:-0.32771 26:-0.0416344 27:-0.0159885 28:-0.033014 29:0.109344 30:-1 31:-0.458415 32:0.00623647 33:-0.144039 34:-0.453548 
1 1:0.126265 2:-0.0618247 3:-0.558211 4:-0.756591 5:-1 6:0.223682 7:-0.43382 8:0.0989798 9:-0.873606 10:-0.00114549 11:-0.24876 12:-0.247308 13:-0.148001 14:-0.304512 15:-0.376172 16:-0.141065 17:-0.518774 18:-0.504549 19:-1 20:-0.781423 21:-0.205002 22:0.461619 23:-0.369568 24:-1 25:-0.0860676 26:0.302833 27:-0.13713 28:0.0621083 29:-0.318369 30:0.000569857 31:-0.223626 32:-0.209261 33:-0.743559 34:-0.18059 
1 1:-0.0853351 2:-0.524915 3:-0.682933 4:-0.0730555 5:-1 6:0.254652 7:-0.158918 8:-0.396791 9:-0.886342 10:0.586532 11:-0.447633 12:-0.719113 13:0.0858421 14:-0.368223 15:-0.61529 16:-0.314212 17:-0.366414 18:0.00861388 19:-0.503225 20:-0.185922 21:-1 22:-0.0845544 23:-0.427319 24:-0.882471 25:-0.399176 26:-0.418054 27:-0.134561 28:0.247224 29:-0.0661292 30:-0.232581 31:-0.762993 32:-0.684739 33:-0.67318 34:-0.054561 
1 1:0.325098 2:-1 3:-0.471996 4:-0.00982146 5:-1 6:0.332486 7:-0.458354 8:-0.284276 9:-0.641327 10:0.19957 11:-0.256303 12:0.0716594 13:-0.223589 14:-0.521955 15:-0.133661 16:0.221197 17:-0.0177291 18:0.0278379 19:-1 20:-0.536112 21:-1 22:-0.128118 23:-0.566671 24:-1 25:-0.623951 26:-0.809284 27:-0.20334 28:-0.192937 29:0.154757 30:-0.448996 31:-1 32:0.453439 33:-1 34:0.0145923 
1 1:-0.483971 2:-0.471342 3:-0.557957 4:0.0690143 5:-0.682007 6:0.129462 7:-0.475277 8:0.0262673 9:-0.873525 10:0.664188 11:-0.347301 12:-0.444998 13:-0.0500609 14:-0.608095 15:-0.232858 16:-0.293688 17:-0.628692 18:0.743009 19:-0.834877 20:-0.882804 21:-1 22:-0.166464 23:-0.49931 24:-1 25:-0.258129 26:-0.345668 27:-0.111847 28:-0.331361 29:-0.264636 30:-0.0476946 31:-0.5317 32:-0.558797 33:-0.638338 34:0.177128 
1 1:-0.41811 2:-1 3:-0.291132 4:0.702107 5:-0.94946 6:0.274358 7:-0.44964 8:0.307036 9:-0.819567 10:0.737364 11:-0.220229 12:-0.385075 13:-0.326267 14:-0.440895 15:0.141774 16:-0.0450375 17:-0.168649 18:0.832736 19:-0.913033 20:-0.938275 21:-1 22:-0.173947 23:-0.720777 24:-0.476503 25:-0.43662 26:-0.596909 27:0.102561 28:-0.302716 29:-0.253762 30:0.0526206 31:-0.320062 32:-0.167891 33:-0.685422 34:-0.149965 
1 1:0.267203 2:-1 3:-0.510554 4:0.121218 5:-1 6:0.162459 7:0.343652 8:-0.649979 9:0.0934348 10:0.662747 11:0.752252 12:-1 13:0.570552 14:-1 15:0.119764 16:0.00585487 17:-0.312361 18:0.433793 19:-0.654791 20:-0.421311 21:-1 22:-0.213572 23:-0.602044 24:-1 25:-0.320516 26:-0.692605 27:0.704553 28:-0.608498 29:-0.84754 30:-0.219746 31:-1 32:-0.67725 33:-0.712546 34:0.327101 
1 1:0.185516 2:-0.690383 3:-0.854201 4:-0.010234 5:-0.895116 6:0.210024 7:0.0246999 8:0.0120059 9:-0.925928 10:0.814165 11:-0.401066 12:-0.660329 13:0.361756 14:-1 15:-0.553015 16:-0.651744 17:-0.862995 18:0.735881 19:-1 20:-0.581506 21:-1 22:-0.31805 23:-1 24:-0.856087 25:-0.477612 26:-0.908431 27:0.254646 28:-0.103586 29:-0.446826 30:-0.495317 31:-0.597915 32:-0.821602 33:-1 34:-0.126524 
1 1:0.135197 2:-1 3:-0.745546 4:-0.241311 5:-0.379571 6:0.473077 7:-0.313504 8:0.232593 9:-0.561837 10:-0.0905511 11:-0.459686 12:-0.433955 13:-0.0102268 14:-0.290267 15:-0.344701 16:-0.148137 17:-0.34889 18:-0.420291 19:-1 20:-1 21:-0.00244419 22:0.314835 23:-0.636895 24:-0.397109 25:-0.168189 26:-0.23627 27:0.0370752 28:-0.0302665 29:-0.383615 30:-0.443241 31:-1 32:-0.702709 33:-1 34:-0.209188 
1 1:-0.208439 2:0.627225 3:-1 4:-0.484783 5:-1 6:0.0485117 7:-0.342146 8:-0.420554 9:-0.610708 10:0.0579729 11:-0.380333 12:-1 13:0.551302 14:-1 15:0.0904571 16:-0.0387832 17:0.127565 18:-0.535544 19:-1 20:-0.326784 21:-0.300315 22:0.20475 23:-0.335996 24:-1 25:-0.2015 26:0.138282 27:-0.226437 28:-0.802358 29:-0.169343 30:-0.000516847 31:-1 32:-0.693162 33:-1 34:-0.385888 
1 1:-0.337631 2:-1 3:-0.380506 4:-0.0953036 5:-0.696771 6:0.415468 7:0.113491 8:-0.116025 9:-0.846335 10:0.233316 11:0.270267 12:-1 13:-0.256202 14:0.107861 15:0.237282 16:-0.505594 17:-0.569036 18:0.125813 19:-0.478219 20:-0.855579 21:-1 22:0.236832 23:-0.568379 24:-0.583933 25:-0.0182253 26:-0.286077 27:0.484034 28:0.391681 29:0.341642 30:-0.545704 31:-0.254462 32:-0.891603 33:-0.688228 34:-0.482469 
1 1:0.0809312 2:-0.412077 3:-0.204277 4:0.090695 5:-1 6:0.385363 7:-0.26362 8:0.211963 9:-0.279674 10:0.372982 11:-0.501496 12:-0.652398 13:-0.0309045 14:-0.564161 15:0.0392927 16:0.49325 17:0.17408 18:-0.146052 19:-0.657294 20:-0.756764 21:-0.437123 22:0.240148 23:0.460089 24:-0.520017 25:-0.323211 26:0.115434 27:0.0508479 28:-0.00586891 29:0.398461 30:0.0262561 31:0.0839646 32:-0.679342 33:-0.498768 34:0.568471 
1 1:0.216454 2:-0.294442 3:0.257455 4:-0.272504 5:-0.76099 6:0.365593 7:-0.305228 8:0.423715 9:0.576687 10:0.340419 11:0.314408 12:0.146343 13:0.0143416 14:0.195013 15:0.231878 16:0.194306 17:0.0973909 18:-0.124971 19:-1 20:-1 21:-1 22:0.531989 23:-0.184142 24:-1 25:0.203057 26:0.219225 27:-0.0245997 28:0.513244 29:0.624655 30:-0.509966 31:0.225879 32:0.188072 33:-0.410684 34:-0.0644808 
1 1:0.242306 2:-0.825187 3:-0.91768 4:-0.80325 5:-0.940782 6:0.273809 7:-0.572836 8:-0.36749 9:-0.793701 10:-0.284138 11:-0.321625 12:-0.195038 13:-0.108852 14:-0.75208 15:-0.444238 16:-0.404621 17:-0.201174 18:-0.235748 19:-1 20:-0.744624 21:-0.607682 22:0.169931 23:-0.676587 24:-0.918745 25:-0.387016 26:-0.319927 27:-0.289505 28:-0.348219 29:-0.361191 30:-0.42555 31:-0.461961 32:-0.605041 33:-0.638932 34:-0.0720743 
0.6893819813403956 1:-0.608758 2:-1 3:-0.200461 4:-0.0723679 5:-1 6:0.131771 7:-0.280511 8:-0.279393 9:-0.81987 10:0.512652 11:-0.31591 12:-1 13:0.719943 14:-1 15:-0.231644 16:0.332509 17:-0.210153 18:-0.282211 19:-1 20:0.540252 21:0.55323 22:-0.677689 23:1 24:-1 25:-0.518913 26:-0.77732 27:0.331901 28:0.407785 29:0.800299 30:0.370838 31:0.484793 32:-0.203488 33:-0.0124886 34:0.335571 
1 1:0.181727 2:-0.0592028 3:0.394676 4:-0.515003 5:-1 6:0.143064 7:-0.687869 8:0.194671 9:-0.873214 10:-0.237558 11:-0.294515 12:0.413875 13:0.0830392 14:-0.302568 15:-0.196271 16:0.100298 17:0.22521 18:-0.0414331 19:-1 20:-0.354597 21:-0.686615 22:0.242462 23:-1 24:-1 25:-0.0965667 26:-0.201896 27:-0.0492103 28:0.169097 29:0.544851 30:-0.179658 31:0.105553 32:-0.00886615 33:-0.0183936 34:-0.178409 
1 1:0.847771 2:-1 3:-0.474811 4:0.00105325 5:-1 6:0.360542 7:-0.146745 8:0.0669988 9:-0.733183 10:-0.131339 11:-0.320191 12:-1 13:0.0299652 14:-1 15:-0.0456687 16:-0.429519 17:-0.0615151 18:-0.150304 19:-1 20:-0.253499 21:-0.398956 22:-0.0896001 23:-1 24:-1 25:-0.316357 26:-0.670156 27:-0.0818807 28:0.038322 29:-0.302287 30:-0.451492 31:-1 32:-0.439706 33:-1 34:-0.14768 
1 1:-0.417665 2:-1 3:0.358202 4:-0.492732 5:-0.0878325 6:0.357901 7:-0.754239 8:0.388817 9:-0.828966 10:0.512317 11:-0.0979468 12:-0.0368087 13:-0.164405 14:0.207694 15:-0.0894334 16:-0.197336 17:0.884713 18:-0.401691 19:-0.284018 20:-0.0745841 21:0.629076 22:0.0548309 23:0.315712 24:-0.6677 25:-0.401613 26:-0.266877 27:0.0186105 28:0.207014 29:-0.271228 30:0.314118 31:0.744664 32:-0.230257 33:-1 34:-0.260822 
1 1:-0.205377 2:-0.0484504 3:0.0524014 4:-0.46494 5:-0.818194 6:-0.173256 7:-0.428581 8:0.164473 9:-0.42323 10:0.295345 11:-0.241383 12:0.0774818 13:-0.126872 14:-1 15:-0.509843 16:-0.177539 17:-0.184696 18:-0.150234 19:-1 20:-0.606325 21:-0.255555 22:-0.0419429 23:0.0585879 24:-1 25:-0.333227 26:-0.618548 27:-0.135603 28:-0.45612 29:0.205535 30:-0.26712 31:-0.525297 32:0.341576 33:-1 34:0.0317799 
1 1:-0.500928 2:-1 3:-0.0212058 4:0.363563 5:0.374407 6:0.331959 7:0.0882121 8:0.240841 9:-0.717913 10:0.77411 11:0.00613189 12:-1 13:-0.310259 14:-0.642724 15:0.0795845 16:-0.280572 17:-0.303713 18:0.253721 19:-0.155681 20:-0.512178 21:-1 22:0.0407012 23:-0.0266721 24:-0.775987 25:-0.394244 26:-0.440579 27:0.556399 28:-0.0747635 29:0.0196102 30:-0.853494 31:-0.75957 32:-0.850345 33:-0.182938 34:0.325811 
1 1:0.0526698 2:-1 3:-0.612493 4:-0.263864 5:-1 6:0.0797174 7:-0.676245 8:0.343099 9:-0.667638 10:-0.0596671 11:-0.102434 12:-0.0433235 13:0.116152 14:-0.661116 15:0.1697 16:0.316786 17:0.12887 18:-0.203295 19:-1 20:-0.533401 21:-0.393226 22:0.0353155 23:-0.447028 24:-1 25:-0.277758 26:-0.407102 27:-0.126476 28:0.438926 29:-0.0567998 30:-0.045771 31:-0.437364 32:0.600829 33:-0.452574 34:0.480452 
1 1:-0.308188 2:-1 3:0.00153783 4:0.126783 5:-0.60947 6:0.0151345 7:-0.485334 8:1 9:-1 10:0.825187 11:-0.00775138 12:-0.606601 13:-0.405745 14:-1 15:-0.281367 16:-0.308781 17:-0.633293 18:0.412016 19:-1 20:0.1419 21:-0.778357 22:-0.0796985 23:-0.552878 24:-0.285247 25:-0.302199 26:-0.0446907 27:0.519819 28:0.0349763 29:0.0845171 30:-0.218063 31:-1 32:-0.522501 33:-0.440424 34:-0.405699 
1 1:-0.00675775 2:-1 3:-0.692959 4:-0.150699 5:-0.616425 6:0.336312 7:-0.147651 8:-0.391114 9:-1 10:-0.336653 11:-0.100094 12:-1 13:-0.946417 14:-0.327017 15:-0.429583 16:-0.0904765 17:-0.41862 18:0.137681 19:-0.793193 20:-0.624418 21:-1 22:-0.06076 23:-0.239111 24:-0.835093 25:-0.226689 26:-0.60596 27:-0.254246 28:-0.773519 29:-0.73905 30:-0.724033 31:-0.674722 32:-0.889832 33:-1 34:-0.277823 
1 1:0.402274 2:0.592529 3:-0.54622 4:0.036922 5:-0.815625 6:0.456796 7:-0.341308 8:-0.625538 9:-0.81677 10:0.195795 11:0.0160235 12:-0.324715 13:-0.196521 14:-0.596518 15:-0.148582 16:0.155358 17:0.200473 18:0.0122 19:-0.682737 20:-0.527467 21:-0.248561 22:0.356369 23:-0.63426 24:-0.864175 25:-0.130234 26:-0.390697 27:-0.42261 28:-0.00560892 29:-0.201601 30:0.0757468 31:-0.617916 32:-0.393252 33:-0.858162 34:0.355969 
1 1:0.203166 2:-1 3:-0.857855 4:-0.34001 5:-0.897745 6:0.552423 7:-0.375675 8:-0.34421 9:-1 10:0.6233 11:0.0321977 12:-0.414514 13:-0.12268 14:-0.776228 15:-0.55074 16:-0.400905 17:-0.720429 18:0.489661 19:-0.672957 20:-1 21:-1 22:0.205166 23:-1 24:-0.859694 25:-0.209018 26:-0.241861 27:-0.0718199 28:-0.281128 29:-0.234449 30:-0.829446 31:-0.606805 32:-1 33:-1 34:-0.206114 
1 1:0.214157 2:-0.306489 3:0.0311526 4:-0.190823 5:-1 6:0.256577 7:-0.367576 8:0.459989 9:-0.32267 10:0.420063 11:-0.435297 12:0.673914 13:-0.113221 14:-1 15:0.051409 16:0.253411 17:-0.543521 18:-0.341131 19:-1 20:-1 21:-1 22:0.0408541 23:-0.533977 24:-0.444172 25:-0.171142 26:-0.433884 27:-0.0527814 28:0.301152 29:0.0904696 30:-0.516693 31:0.0924012 32:0.372757 33:-1 34:-0.102918 
1 1:0.0965071 2:0.803891 3:-0.231516 4:-0.226697 5:-0.866893 6:0.36669 7:-0.60761 8:-0.322311 9:-0.464062 10:0.0927383 11:-0.175524 12:-0.0351383 13:0.193025 14:-0.265001 15:-0.0628499 16:0.529401 17:0.381783 18:0.250172 19:-1 20:-0.589808 21:-1 22:0.242832 23:-0.518552 24:-1 25:0.0340994 26:0.035505 27:-0.175247 28:-0.118214 29:0.563101 30:0.00151339 31:-0.100087 32:0.615784 33:-0.652237 34:0.319245 
1 1:-0.0385373 2:-0.539726 3:0.0271075 4:-0.0371933 5:-1 6:0.0952476 7:-0.409362 8:-0.24815 9:-0.801901 10:0.0581131 11:-0.356538 12:0.289574 13:-0.19102 14:0.2057 15:-0.0722788 16:-0.0495904 17:0.122476 18:-0.377707 19:-1 20:-0.809575 21:-0.534716 22:-0.0563679 23:-0.0613795 24:-0.78606 25:-0.291822 26:-0.22908 27:-0.172732 28:-0.0750559 29:0.243014 30:0.107533 31:-0.434107 32:0.251851 33:-0.598078 34:-0.187088 
1 1:0.0965038 2:-0.764585 3:-0.790888 4:-0.382858 5:-1 6:0.155692 7:-0.346125 8:-0.223581 9:-0.84894 10:0.00592617 11:-0.446339 12:-0.27068 13:0.0115457 14:-0.670804 15:-0.679197 16:-0.441838 17:-0.94386 18:-0.0612443 19:-0.862774 20:-0.0869172 21:-1 22:-0.130347 23:-0.461454 24:-0.555158 25:-0.422067 26:-0.444953 27:-0.196925 28:-0.39143 29:-0.388179 30:-0.665462 31:-0.450995 32:-0.616956 33:-0.610994 34:-0.322453 
1 1:-0.770864 2:-1 3:-0.698502 4:-0.128435 5:-1 6:0.032083 7:-0.460756 8:-0.406814 9:-1 10:-0.179867 11:-0.468151 12:-0.621457 13:-0.357936 14:-0.822772 15:-0.642928 16:-0.530135 17:-0.768835 18:-0.509192 19:-1 20:-0.663991 21:-1 22:-0.475519 23:-0.0770713 24:-1 25:-0.76885 26:-0.630794 27:-0.120734 28:-0.0960264 29:-0.849813 30:-0.51342 31:-0.680593 32:-0.110726 33:-1 34:-0.433014 
0.4058605640516741 1:-0.475543 2:-1 3:-0.347088 4:-0.36165 5:-1 6:-0.0479289 7:-0.526111 8:-0.645858 9:-0.250045 10:0.245937 11:-0.223054 12:-1 13:-0.318621 14:-1 15:-0.342536 16:0.0223016 17:0.0985369 18:-0.0458477 19:-1 20:-0.247728 21:-0.39431 22:-0.744387 23:-0.606288 24:-0.618374 25:-0.786419 26:-0.906483 27:-0.333109 28:-0.348746 29:-0.241589 30:-0.128977 31:-0.308306 32:0.221869 33:-0.251536 34:-0.0453298 
1 1:-0.0069446 2:-1 3:0.104364 4:-0.102389 5:-1 6:0.188067 7:-0.331167 8:0.176411 9:-0.320578 10:0.594304 11:-0.206607 12:-0.190276 13:0.386426 14:-0.572127 15:-0.320991 16:-0.140359 17:0.0638492 18:0.202799 19:-1 20:-0.310701 21:-1 22:-0.614614 23:-0.0796981 24:-0.527873 25:-0.654339 26:-0.8293 27:0.232943 28:0.193589 29:-0.323769 30:0.440389 31:0.169961 32:0.366377 33:-0.719845 34:0.107403 
1 1:-0.152388 2:-0.467475 3:-1 4:-0.942407 5:-1 6:0.744444 7:-0.55516 8:-0.0158618 9:-0.944538 10:-0.0820586 11:0.00449073 12:-0.441342 13:-0.0833644 14:-0.675557 15:-0.689151 16:-0.671385 17:-0.639336 18:-0.0999704 19:-0.864866 20:-0.904088 21:-0.960172 22:0.215797 23:-0.642155 24:-0.84307 25:-0.289593 26:-0.364714 27:-0.520678 28:-0.453044 29:-0.694804 30:-0.838118 31:-0.492483 32:-0.834639 33:-0.787567 34:-0.103925 
1 1:-0.0330604 2:-1 3:0.00215146 4:-0.139535 5:-0.84975 6:0.31124 7:-0.314066 8:-0.183286 9:-0.530276 10:0.0238714 11:-0.212316 12:-0.350005 13:-0.3474 14:0.00547929 15:-0.233961 16:0.253461 17:-0.392184 18:-0.210575 19:-1 20:-0.816499 21:-0.473117 22:0.427136 23:-0.462038 24:-1 25:-0.101579 26:-0.115107 27:-0.175565 28:0.191368 29:0.530097 30:-0.756636 31:-0.451547 32:0.41409 33:-0.232249 34:0.0854154 
1 1:-0.229354 2:-0.296601 3:-0.0890512 4:-0.779666 5:-1 6:-0.0460847 7:-0.678254 8:-0.51248 9:-0.831721 10:0.252003 11:-1 12:-0.284106 13:0.174769 14:-0.102379 15:-0.147993 16:-0.2575 17:-0.364442 18:-0.0712874 19:-1 20:-0.334717 21:-1 22:0.0648221 23:-0.186343 24:-1 25:-0.598661 26:-0.211794 27:-0.0805345 28:-0.141856 29:0.253654 30:-0.131858 31:-0.649093 32:0.448428 33:-1 34:-0.10568 
1 1:-0.409981 2:0.0066851 3:-0.525949 4:-0.450079 5:-1 6:0.140974 7:-0.255978 8:0.142647 9:0.00131114 10:0.381179 11:-0.703017 12:0.25979 13:0.484724 14:-1 15:-0.172838 16:0.0210672 17:-0.157662 18:-0.163609 19:-1 20:-1 21:-0.664667 22:-0.310145 23:-1 24:-1 25:-0.414292 26:-0.257855 27:0.219409 28:0.436945 29:-0.0755742 30:0.916624 31:-0.175176 32:0.593356 33:-0.197473 34:-0.0536053 
1 1:-0.589409 2:-0.433418 3:-0.395363 4:0.116211 5:-0.84201 6:0.576163 7:-0.0296521 8:0.593126 9:-0.864453 10:0.380049 11:0.436277 12:-0.665016 13:-0.614334 14:0.0463438 15:0.086425 16:-0.0504267 17:-0.438642 18:0.48737 19:-0.789913 20:-0.586685 21:-1 22:-0.0649255 23:-0.328681 24:-0.572238 25:-0.190114 26:-0.326071 27:0.0686527 28:-0.238749 29:-0.378223 30:-0.4686 31:-0.669948 32:-0.689782 33:-0.515088 34:0.0548222 
1 1:0.295232 2:-0.0784972 3:-0.459191 4:0.0605273 5:-1 6:0.206236 7:-0.328615 8:-0.0199272 9:-0.779542 10:0.371973 11:-0.18791 12:-0.0939965 13:0.183762 14:-0.148629 15:-0.0458201 16:0.235708 17:-0.41249 18:-0.256125 19:-0.789594 20:-0.725901 21:-0.77931 22:0.306039 23:-1 24:-0.571676 25:-0.242431 26:0.0110628 27:-0.165161 28:-0.0845524 29:0.296775 30:-0.0418442 31:-0.0771825 32:0.116639 33:-0.552714 34:0.238747 
1 1:-0.141996 2:-1 3:-1 4:-0.65243 5:-1 6:0.339702 7:-0.569193 8:-0.190604 9:-0.67096 10:0.247902 11:-0.0802911 12:-0.186829 13:-0.534691 14:1 15:-0.552841 16:0.220572 17:-0.672011 18:-0.594693 19:-1 20:-1 21:0.469107 22:0.279535 23:-1 24:-1 25:-0.171059 26:-0.363215 27:0.109755 28:-0.46038 29:-0.207303 30:-0.0522988 31:-1 32:0.369504 33:-1 34:0.103514 
1 1:-0.145476 2:-1 3:0.42967 4:0.179376 5:-1 6:0.383942 7:-0.525332 8:0.259708 9:-0.432448 10:0.370086 11:-0.162088 12:0.0305115 13:-0.0535117 14:-0.0190907 15:0.196185 16:0.186622 17:0.0300434 18:-0.130551 19:-1 20:-0.67804 21:-0.740775 22:-0.208215 23:-1 24:-0.638281 25:-0.299954 26:-1 27:0.0476657 28:0.230204 29:0.167434 30:0.642667 31:-0.339895 32:-0.0023212 33:-0.153981 34:0.0921566 
1 1:-0.211977 2:-1 3:0.240812 4:-0.202585 5:-1 6:0.152204 7:-0.710411 8:-0.230002 9:-0.580351 10:0.290827 11:-1 12:-0.634913 13:-0.207761 14:-1 15:0.0171426 16:0.0327853 17:0.47496 18:-0.669656 19:-0.640055 20:-0.553652 21:-0.0666116 22:-0.300819 23:-1 24:-0.498532 25:-0.491473 26:-1 27:-0.0810684 28:0.182553 29:0.12563 30:0.338714 31:0.00619357 32:0.199883 33:-1 34:-0.241819 
1 1:0.0172035 2:-1 3:0.0070338 4:-0.341282 5:-1 6:-0.0755714 7:-0.496232 8:0.847122 9:-1 10:0.747697 11:-0.369114 12:0.26437 13:0.790057 14:-1 15:-0.219477 16:-0.247564 17:-0.490021 18:0.213449 19:-1 20:0.0416553 21:-1 22:-0.295692 23:-0.320329 24:-0.529868 25:-0.790158 26:-0.367535 27:0.561397 28:0.393412 29:-0.282786 30:-0.349912 31:0.256052 32:0.210297 33:-0.509055 34:0.299157 
0.9674120657517633 1:-0.0670492 2:-1 3:0.139584 4:0.483414 5:-0.766421 6:0.440563 7:-0.340688 8:0.598061 9:-1 10:0.337642 11:0.343829 12:-0.592328 13:0.032357 14:-1 15:0.202114 16:0.00987393 17:-0.327213 18:0.146702 19:-1 20:-0.0977187 21:-0.603688 22:-0.0329071 23:0.280763 24:-0.679502 25:-0.173478 26:-0.355002 27:-0.0133312 28:-0.0246873 29:0.332237 30:0.0805276 31:-1 32:-0.408157 33:-0.23186 34:-0.0330739 
1 1:-0.509041 2:-1 3:-0.334621 4:0.27371 5:-1 6:-0.0913097 7:-0.3462 8:0.187748 9:-0.725272 10:0.93325 11:-0.661224 12:-0.723878 13:0.0506513 14:-1 15:-0.198066 16:-0.0297053 17:-0.514852 18:0.787244 19:-1 20:-0.652853 21:-1 22:-0.438439 23:-1 24:-0.466235 25:-0.543108 26:-0.660377 27:0.274269 28:0.0921366 29:-0.605571 30:0.177713 31:-0.295099 32:0.766993 33:-1 34:0.333432 
1 1:-0.0501596 2:-1 3:-0.476392 4:-0.0400509 5:-1 6:0.132736 7:0.172756 8:-0.591161 9:0.271751 10:0.507448 11:0.233421 12:-0.342589 13:0.00836058 14:-1 15:-0.0271775 16:0.14084 17:-0.0630696 18:-0.412841 19:-0.62763 20:-0.539974 21:-0.787208 22:-0.0707447 23:-0.570733 24:-0.483165 25:-0.26807 26:-0.811072 27:-0.314045 28:-0.252078 29:-0.536235 30:-0.18187 31:-0.257761 32:-0.537996 33:0.002965 34:0.371982 
1 1:-0.0232807 2:-1 3:-0.6006 4:-0.60659 5:-0.712683 6:0.621164 7:-0.445418 8:-0.143554 9:-0.658788 10:0.321829 11:0.0888212 12:-1 13:0.486024 14:0.0573092 15:-0.0430159 16:0.141055 17:0.280895 18:-0.29743 19:-1 20:0.322173 21:-0.00201988 22:0.502169 23:-1 24:-1 25:0.0192461 26:0.206753 27:-0.130129 28:-0.360787 29:-0.260711 30:-0.325299 31:-0.288481 32:-0.557117 33:-0.307715 34:0.789438 
1 1:0.329298 2:0.463053 3:-0.311045 4:-0.419719 5:-0.864386 6:0.321814 7:-0.475492 8:0.229426 9:-0.825629 10:0.0867188 11:-0.00798624 12:0.260545 13:0.288244 14:-0.459679 15:-0.0807466 16:-0.0241509 17:-0.157284 18:0.00760002 19:-0.666616 20:-0.147495 21:-0.929699 22:0.375284 23:-0.730985 24:-0.734161 25:0.0533852 26:0.054702 27:0.0893675 28:0.320111 29:0.259531 30:-0.0351765 31:0.0979389 32:-0.337952 33:-0.510987 34:0.014149 
1 1:-0.836191 2:-1 3:-0.241779 4:-0.331143 5:-0.812978 6:0.058545 7:-0.735825 8:-0.0602608 9:-0.502226 10:0.438654 11:-0.227985 12:-0.21938 13:0.00619054 14:-1 15:-0.0604523 16:0.0956233 17:0.244667 18:-0.345028 19:-1 20:-0.0578262 21:0.658377 22:-0.219181 23:0.398163 24:-0.743384 25:-0.426201 26:-0.523801 27:-0.0809353 28:0.324658 29:-0.139725 30:-0.0784577 31:-0.0718825 32:-0.0586555 33:-0.218456 34:-0.217504 
1 1:-0.192715 2:-1 3:0.0879102 4:-0.0440742 5:-1 6:0.359363 7:0.0215605 8:0.121102 9:-1 10:0.00726715 11:-0.318446 12:-0.557218 13:-0.0569193 14:-1 15:-0.0622049 16:0.355109 17:0.0727746 18:-0.0758234 19:-0.563454 20:0.0574906 21:-1 22:-0.14219 23:-0.496751 24:-1 25:-0.469704 26:-0.49999 27:-0.0563483 28:-0.339531 29:0.145792 30:-0.157095 31:-1 32:0.152818 33:-0.636489 34:0.261979 
1 1:0.282218 2:-1 3:-0.484087 4:-0.308266 5:-1 6:0.317128 7:-0.840415 8:-0.654916 9:-0.456139 10:0.547737 11:-0.601165 12:0.0507639 13:0.031188 14:-0.672536 15:-0.14853 16:-0.338264 17:-0.184163 18:0.178715 19:-1 20:-1 21:-0.852857 22:-0.45098 23:-1 24:-1 25:-0.772702 26:-1 27:-0.0471048 28:-0.467248 29:0.00495654 30:0.859452 31:-0.453442 32:0.0859254 33:-0.78559 34:0.154063 
1 1:-0.123109 2:-1 3:-0.89759 4:-0.349089 5:-1 6:0.319617 7:-0.445539 8:-0.507182 9:0.868354 10:0.345519 11:0.0170513 12:-0.756461 13:-0.484792 14:-1 15:-0.36537 16:-0.128783 17:-0.419154 18:-0.495719 19:-1 20:-1 21:-1 22:-0.344416 23:-1 24:-0.726815 25:-0.482157 26:-0.588889 27:-0.385148 28:-0.579935 29:-0.258834 30:-0.545431 31:-0.421566 32:0.0814035 33:-0.32528 34:-0.442262 
1 1:0.73591 2:-1 3:-0.588176 4:-0.0488006 5:-1 6:0.326511 7:-0.235023 8:0.500523 9:-0.714546 10:0.170344 11:-0.742001 12:-0.482939 13:0.137661 14:-1 15:-0.0392453 16:-0.174308 17:-0.122939 18:-0.200229 19:-1 20:-0.638184 21:-0.837173 22:0.0655786 23:-1 24:-0.445396 25:-0.324876 26:-0.282727 27:-0.211251 28:0.260552 29:-0.391123 30:-0.637285 31:-0.563714 32:-0.406713 33:-0.762736 34:0.246357 
1 1:0.285847 2:-1 3:-1 4:-0.70954 5:-1 6:0.356909 7:-0.267757 8:0.488985 9:-0.0912472 10:0.313975 11:-0.584944 12:0.622227 13:-0.0350851 14:-0.381042 15:-0.569915 16:-0.425047 17:-0.406317 18:-0.123095 19:-1 20:-0.654568 21:-1 22:0.00482835 23:0.238106 24:-1 25:-0.617746 26:-0.753067 27:0.214279 28:0.0180143 29:-0.34099 30:-0.243211 31:0.0946948 32:-0.318611 33:-1 34:-0.162507 
1 1:0.225578 2:-1 3:-0.215974 4:-0.0495838 5:-1 6:0.184477 7:-0.237688 8:-0.317708 9:-0.784688 10:0.401863 11:-0.150584 12:-0.618041 13:0.0383484 14:-0.332817 15:0.119551 16:0.23078 17:0.45633 18:-0.127445 19:-0.795246 20:-0.311179 21:-0.445397 22:0.209235 23:-1 24:-0.699716 25:-0.104322 26:0.0153184 27:-0.268099 28:-0.136491 29:0.0609491 30:-0.295783 31:-0.169404 32:-0.158438 33:-0.686423 34:0.237933 
1 1:-0.180569 2:-1 3:0.196585 4:-0.0683563 5:-1 6:-0.186658 7:-0.551255 8:0.174154 9:-0.794142 10:0.624243 11:-0.0491307 12:-0.491254 13:0.091301 14:-1 15:0.0312057 16:0.0602924 17:-0.655595 18:0.215736 19:-1 20:-1 21:-1 22:-0.5958 23:-1 24:-0.600041 25:-0.821479 26:-0.572876 27:0.147933 28:0.498257 29:-0.32658 30:0.455608 31:-0.570731 32:-0.210949 33:-1 34:0.169873 
1 1:0.15379 2:-0.443751 3:-0.537261 4:-0.30184 5:-0.811569 6:0.0945276 7:-0.39086 8:0.239003 9:-0.552478 10:0.137056 11:-1 12:-0.419013 13:-0.195862 14:-1 15:-0.38864 16:-0.24742 17:-0.613795 18:0.066354 19:-0.675757 20:-0.593452 21:-1 22:-0.147016 23:-1 24:-1 25:-0.395002 26:-0.607089 27:-0.00708573 28:0.102724 29:-0.152294 30:-0.43135 31:-0.509775 32:0.262005 33:-0.355149 34:-0.14415 
1 1:-0.545092 2:-0.776706 3:0.00555859 4:-0.116658 5:-1 6:-0.0671802 7:-0.181303 8:-0.382199 9:-0.716802 10:0.354552 11:-0.25232 12:-1 13:0.20254 14:-0.834468 15:-0.210945 16:0.0160781 17:0.166021 18:0.44456 19:-1 20:-0.369411 21:-0.859306 22:-0.0874045 23:-0.716177 24:-0.57433 25:-0.556978 26:-0.346926 27:-0.199649 28:-0.33906 29:0.0666232 30:-0.679396 31:0.322136 32:-0.0810196 33:-0.891616 34:0.249636 
1 1:0.54963 2:-1 3:-1 4:-0.109387 5:-1 6:0.610374 7:0.176541 8:0.395994 9:-1 10:0.702783 11:0.117946 12:0.490116 13:0.24568 14:-0.0691287 15:-0.501901 16:-0.67885 17:-1 18:0.78022 19:-1 20:-1 21:-1 22:-0.146014 23:-1 24:-0.41634 25:0.0730645 26:-1 27:0.27123 28:-1 29:0.262519 30:-1 31:-0.373568 32:-0.21738 33:-1 34:0.000855901 
1 1:-0.25465 2:-0.766851 3:-0.552936 4:-0.452454 5:-0.850942 6:0.205848 7:-0.518409 8:0.185889 9:-0.772874 10:0.320118 11:-0.0281921 12:-0.438694 13:0.0241324 14:-0.827162 15:-0.394328 16:-0.465709 17:-0.600566 18:-0.104186 19:-0.864095 20:0.345532 21:-1 22:0.0355498 23:-0.579383 24:-0.492435 25:-0.10963 26:-0.231668 27:-0.0696067 28:-0.414155 29:-0.121571 30:-0.490827 31:-0.526382 32:-0.420984 33:-0.696177 34:-0.156441 
1 1:0.319099 2:-0.301547 3:0.626226 4:0.0230755 5:-0.592367 6:0.118912 7:-0.469138 8:0.334223 9:-0.240741 10:0.111812 11:-0.27993 12:-0.054629 13:0.383041 14:-1 15:0.865935 16:0.212782 17:0.377748 18:0.422945 19:-0.298565 20:0.923856 21:-0.186947 22:0.251575 23:0.293111 24:-1 25:0.113852 26:-0.215321 27:0.0742354 28:0.116973 29:0.252656 30:-0.634199 31:1 32:-0.0634634 33:0.0681763 34:0.558295 
1 1:0.231743 2:-0.410013 3:0.120405 4:0.0281098 5:-1 6:0.342593 7:-0.164306 8:-0.402544 9:-0.6664 10:0.624706 11:-0.1959 12:-0.175561 13:0.398762 14:-1 15:0.166775 16:0.599594 17:0.563641 18:0.0356379 19:-0.65609 20:-0.75591 21:-0.654941 22:-0.36938 23:-0.603542 24:-1 25:-0.468757 26:-0.587598 27:-0.0722754 28:-0.0138545 29:0.775227 30:0.603884 31:0.277423 32:0.833338 33:-0.713628 34:0.356897 
1 1:0.0409535 2:-1 3:-0.0227423 4:0.0588951 5:-1 6:0.149939 7:0.236992 8:-0.266789 9:-0.0161277 10:0.540571 11:-0.039144 12:0.226985 13:0.608233 14:-1 15:-0.532589 16:0.0370578 17:0.242882 18:-0.653503 19:-1 20:-0.597538 21:-0.0807761 22:-0.154241 23:0.0788647 24:-0.253743 25:-0.281553 26:-0.525172 27:0.119664 28:-0.0816246 29:-0.367835 30:-0.704283 31:-0.514702 32:-0.501454 33:0.00731795 34:0.116551 
1 1:-0.111833 2:-0.693748 3:-0.924891 4:-0.280304 5:-1 6:0.222583 7:-0.0476634 8:0.230272 9:-0.822125 10:0.477202 11:0.126071 12:-0.407379 13:-0.0422693 14:-0.578424 15:-0.0872259 16:-0.0443547 17:-0.727718 18:0.814374 19:-0.952505 20:-0.407941 21:-1 22:-0.0647164 23:-0.702887 24:-0.794485 25:-0.228093 26:-0.483471 27:-0.0285082 28:0.0443646 29:-0.270903 30:-0.564972 31:-0.575232 32:-0.499144 33:-0.490342 34:0.024365 
1 1:0.0679975 2:0.548873 3:0.19458 4:-0.396283 5:-0.822122 6:0.217908 7:-0.0889723 8:0.0748902 9:-0.519294 10:0.424904 11:-0.470902 12:-0.251126 13:-0.517864 14:-0.610736 15:-0.295992 16:0.126782 17:-0.0401536 18:0.274779 19:-0.456138 20:-0.475972 21:-0.266345 22:0.0977652 23:-0.647148 24:-0.75593 25:-0.0660906 26:-0.0936648 27:0.204197 28:0.122086 29:-0.192848 30:0.180597 31:0.265536 32:0.249842 33:-0.129464 34:0.02398 
1 1:0.422689 2:-0.0489892 3:-0.74743 4:-0.588441 5:-0.818309 6:0.494406 7:-0.428791 8:-0.0807122 9:-0.423464 10:-0.455701 11:-0.198115 12:-1 13:-0.173028 14:0.350375 15:-0.34256 16:-0.0258728 17:-0.624509 18:-0.50274 19:-0.687355 20:-1 21:-1 22:0.482654 23:-0.133747 24:-0.750698 25:0.00282568 26:0.0107898 27:-0.2725 28:0.298436 29:0.605835 30:-0.608123 31:-1 32:-0.511063 33:0.169733 34:-0.28746 
1 1:0.0128414 2:-0.716192 3:-0.750614 4:-0.388716 5:-0.820599 6:0.113478 7:-0.521735 8:0.430006 9:-0.873302 10:0.457867 11:-0.467582 12:0.0670282 13:-0.0621501 14:-0.446719 15:-0.562398 16:-0.516671 17:-0.628183 18:0.55685 19:-1 20:-0.538471 21:-0.905462 22:-0.178865 23:0.132986 24:-0.868083 25:-0.295633 26:-0.579192 27:0.0247478 28:-0.320931 29:-0.46473 30:-0.417487 31:-0.158875 32:-0.476445 33:-0.862243 34:-0.364162 
1 1:-0.669079 2:-0.751514 3:-0.334267 4:0.298818 5:-0.915825 6:0.0519627 7:-0.193626 8:0.047392 9:-0.888195 10:0.570238 11:0.214598 12:-0.363595 13:-0.320344 14:-0.653552 15:0.596742 16:-0.0429775 17:-0.21516 18:0.870787 19:-0.855155 20:-0.897196 21:-1 22:-0.108014 23:-0.435809 24:-0.691887 25:-0.428706 26:-0.212645 27:0.37492 28:-0.010705 29:-0.579056 30:-0.483627 31:-0.716785 32:-0.367985 33:0.00900531 34:0.559111 
1 1:-0.0517064 2:0.143561 3:-0.461494 4:-0.0714338 5:-1 6:0.494658 7:-0.552883 8:-0.0332373 9:-0.388219 10:0.158126 11:0.177051 12:-0.323885 13:0.0414154 14:0.366344 15:0.320704 16:0.558282 17:0.442618 18:0.0424318 19:-1 20:-0.620472 21:-1 22:0.0511888 23:-0.383559 24:-0.693533 25:-0.26769 26:-0.215295 27:-0.291974 28:0.116452 29:0.783889 30:0.417725 31:-0.15611 32:0.164013 33:-0.825705 34:0.00543187 
1 1:-0.71046 2:-1 3:-0.557071 4:0.303913 5:-0.820517 6:0.521855 7:0.0834981 8:0.867127 9:-0.774974 10:0.475852 11:0.377701 12:-1 13:0.135091 14:-0.607223 15:0.255483 16:0.244034 17:0.342146 18:0.532199 19:-0.451717 20:-0.472049 21:-1 22:0.0490846 23:0.606712 24:-0.562801 25:-0.239551 26:-0.202009 27:0.317914 28:-0.0204839 29:0.513125 30:-0.0997922 31:0.477318 32:-0.37213 33:-0.242934 34:0.193953 
1 1:0.282935 2:0.0868048 3:-0.627654 4:-0.367795 5:-1 6:0.370868 7:-0.275016 8:-0.13566 9:-0.679005 10:0.146818 11:0.0689405 12:0.14999 13:0.258626 14:-0.19433 15:-0.233356 16:0.0338005 17:-0.0892882 18:0.000952163 19:-1 20:-1 21:-1 22:0.192771 23:-0.468663 24:-0.0959166 25:-0.171035 26:-0.290647 27:-0.281908 28:-0.26176 29:0.177306 30:-0.194864 31:-0.330639 32:-0.109224 33:-0.472479 34:-0.104078 
1 1:-0.137505 2:-1 3:0.0853839 4:0.208658 5:-1 6:0.589776 7:-0.191433 8:0.42961 9:-0.516395 10:0.453113 11:-0.0748815 12:-0.00308722 13:-0.0118462 14:-0.0542946 15:0.0983597 16:0.592543 17:0.589168 18:0.118964 19:-1 20:-0.691199 21:-0.751369 22:0.0569908 23:-0.142756 24:-0.653065 25:-0.285698 26:-0.779252 27:0.0110859 28:0.532231 29:0.654411 30:-0.773102 31:-0.158826 32:0.73842 33:-1 34:0.190663 
1 1:-0.430368 2:-1 3:-0.667059 4:0.503067 5:-1 6:0.364799 7:-0.123254 8:0.186399 9:-0.709005 10:0.359086 11:0.129916 12:-0.581979 13:-0.0778465 14:-1 15:0.554994 16:-0.184097 17:-0.31682 18:0.401926 19:-1 20:-0.496773 21:-1 22:0.1122 23:-1 24:-0.43463 25:-0.306762 26:-0.343572 27:0.367801 28:0.0300478 29:0.296233 30:-0.630243 31:-1 32:-1 33:0.297849 34:0.497722 
1 1:-0.236242 2:-1 3:-0.401516 4:-0.110068 5:-1 6:-0.0549648 7:-0.332079 8:-0.44587 9:-0.873863 10:0.379189 11:-0.296844 12:-0.161744 13:0.264301 14:-0.449037 15:-0.091582 16:0.215816 17:-0.358451 18:0.057067 19:-0.835346 20:0.0832091 21:-0.75243 22:-0.293984 23:-0.645703 24:-0.868705 25:-0.35103 26:-0.580686 27:-0.259611 28:0.137814 29:0.609875 30:0.111525 31:-0.532827 32:0.483525 33:-0.639251 34:0.0460035 
1 1:0.387374 2:-0.286545 3:-0.664032 4:-0.755906 5:-1 6:-0.124412 7:-0.17074 8:-0.168531 9:-0.706677 10:0.129931 11:-0.638293 12:0.589971 13:0.378816 14:-0.0910831 15:-0.710858 16:-0.638169 17:-0.82986 18:-0.218256 19:-1 20:-1 21:-1 22:0.0591391 23:-0.520574 24:-0.668379 25:-0.366392 26:-0.26787 27:-0.138822 28:-0.276105 29:0.0488906 30:-0.182502 31:-0.388342 32:-0.619276 33:-1 34:-0.355513 
1 1:0.615616 2:-1 3:-0.223414 4:-0.312014 5:-1 6:-1 7:-0.527404 8:-0.440081 9:-0.798536 10:0.280767 11:-0.751568 12:-0.722782 13:0.327099 14:-0.375727 15:0.0206663 16:-0.764825 17:-0.725235 18:-0.24152 19:-1 20:-0.156046 21:-1 22:-1 23:-1 24:-1 25:-0.82529 26:-0.86133 27:-0.149554 28:0.26827 29:-0.104009 30:-0.198702 31:-0.425206 32:-0.854403 33:-1 34:-0.183606 
1 1:-0.42974 2:-0.0349087 3:-0.545536 4:0.154023 5:-1 6:0.623398 7:-0.548135 8:0.161423 9:-0.417391 10:0.106435 11:-0.149714 12:0.219483 13:0.0806202 14:0.182102 15:0.124498 16:0.615714 17:0.238667 18:0.537042 19:-0.682205 20:-0.600722 21:-1 22:0.0502915 23:0.386018 24:-1 25:-0.109946 26:-0.188176 27:-0.200274 28:-0.256378 29:0.295328 30:1 31:0.369394 32:-0.0653523 33:-0.226006 34:0.369144 
1 1:0.0100964 2:-0.532642 3:-0.334246 4:-0.437428 5:-1 6:0.2247 7:-0.499982 8:-0.370236 9:-0.157799 10:-0.322181 11:-0.153627 12:-0.16412 13:-0.0562359 14:-0.377566 15:-0.0549858 16:0.42216 17:-0.160489 18:0.311358 19:-1 20:-0.806645 21:-0.720315 22:0.246668 23:-0.435789 24:-0.782767 25:-0.170066 26:-0.119443 27:-0.106389 28:-0.176494 29:0.730004 30:0.0203636 31:0.0154006 32:0.670006 33:-0.201468 34:-0.276621 
1 1:-0.0300939 2:-0.438028 3:-0.36909 4:0.0119961 5:-0.732593 6:0.267366 7:-0.155485 8:0.386143 9:-0.609493 10:0.568472 11:-0.293231 12:0.517161 13:0.223965 14:-0.775835 15:-0.000714536 16:-0.222417 17:-0.61074 18:0.777946 19:-0.42191 20:-0.445703 21:-1 22:0.0727686 23:-0.622368 24:-0.539033 25:0.130944 26:-0.318519 27:0.349116 28:0.349146 29:0.197282 30:-0.0883603 31:-0.255752 32:-0.203175 33:-0.518627 34:-0.158771 
1 1:-0.232785 2:-0.740132 3:-0.254359 4:-0.00500497 5:-1 6:-0.0197682 7:-0.222286 8:0.294249 9:-0.5681 10:0.87515 11:-0.532871 12:0.00375654 13:-0.23376 14:-0.48848 15:-0.446385 16:-0.382557 17:-0.595139 18:0.493105 19:-0.84852 20:-0.892487 21:-0.913436 22:-0.723608 23:-0.200017 24:-0.679275 25:-0.584384 26:-0.741986 27:0.214607 28:-0.133312 29:-0.475956 30:-0.142003 31:-0.406096 32:0.0785583 33:-0.873863 34:-0.161259 
1 1:0.127913 2:-1 3:-0.232131 4:-0.46333 5:-0.88438 6:0.111999 7:-0.46665 8:-0.118089 9:-0.574418 10:0.202771 11:-0.814425 12:-0.351529 13:-0.126188 14:-1 15:-0.316699 16:-0.0632501 17:-0.19297 18:0.00439097 19:-1 20:-0.636849 21:-0.886308 22:-0.275352 23:-1 24:-1 25:-0.395834 26:-0.565447 27:-0.144354 28:-0.449654 29:-0.034969 30:0.185372 31:0.0791405 32:-0.049868 33:-0.834333 34:-0.397668 
1 1:-0.139121 2:-0.380951 3:-0.708488 4:-0.558906 5:-1 6:0.593857 7:-0.549679 8:-0.221252 9:-0.71753 10:-0.670393 11:-0.422301 12:-0.360707 13:-0.36418 14:-0.276352 15:-0.774121 16:-0.611082 17:-0.548401 18:-0.211147 19:-0.897769 20:-1 21:-0.94158 22:0.370334 23:-0.584013 24:-1 25:-0.226315 26:-0.124701 27:-0.527823 28:-0.480997 29:-0.545145 30:-0.671302 31:-0.513019 32:-0.768364 33:-0.699521 34:-0.22602 
1 1:0.181553 2:-1 3:0.166162 4:-0.025065 5:-1 6:0.166162 7:0.203796 8:-0.129214 9:-0.494704 10:0.426557 11:0.523999 12:-0.362013 13:0.112725 14:-1 15:0.274206 16:0.385522 17:0.173981 18:-0.231365 19:-1 20:0.0886506 21:0.202671 22:0.285157 23:-1 24:-1 25:-0.228838 26:-0.0665877 27:-0.0963269 28:0.426434 29:-0.721462 30:-0.213143 31:0.0726195 32:0.1848 33:-0.290274 34:0.430307 
1 1:0.38458 2:-0.526896 3:-0.425114 4:-0.225893 5:-0.900305 6:0.225061 7:-0.18931 8:-0.2928 9:-0.660745 10:0.022624 11:-0.0198687 12:0.239629 13:-0.520619 14:-0.822708 15:0.0900443 16:0.353941 17:-0.0121665 18:-0.23051 19:-0.915935 20:-0.879837 21:-0.914286 22:0.678926 23:-0.642346 24:-0.672717 25:0.543945 26:0.20435 27:-0.20424 28:-0.0996259 29:0.0968452 30:0.00557364 31:-0.296707 32:-0.052833 33:-0.649078 34:-0.414882 
1 1:-0.136019 2:-1 3:-1 4:-0.164193 5:-0.670812 6:-0.077108 7:-0.649293 8:-0.581448 9:-0.68057 10:0.199965 11:-0.288617 12:-1 13:0.0205192 14:-0.414592 15:0.0982745 16:0.69196 17:0.0336831 18:-0.830645 19:-1 20:-0.0325792 21:0.918675 22:0.268482 23:-1 24:-0.43519 25:-0.381251 26:0.054552 27:-0.528797 28:-0.576517 29:-0.841929 30:0.108319 31:-0.139375 32:-0.37658 33:-0.259272 34:0.213856 
1 1:0.357346 2:-1 3:-0.102717 4:0.063158 5:-1 6:0.0823837 7:-0.267934 8:0.02185 9:-0.61899 10:-0.491267 11:0.0573121 12:0.269301 13:0.108575 14:0.229235 15:0.145463 16:0.586424 17:-0.469211 18:-0.619045 19:-1 20:-0.23594 21:-0.755944 22:0.589597 23:-0.33932 24:-1 25:0.406866 26:0.634471 27:-0.197498 28:0.550725 29:-0.206974 30:0.342413 31:-0.37442 32:-0.113305 33:-0.116474 34:0.475087 
1 1:0.18481 2:-1 3:-0.167815 4:-0.020181 5:-1 6:-0.0886911 7:0.191255 8:-0.453873 9:-0.291822 10:0.305204 11:-0.253813 12:0.0757678 13:0.458114 14:-0.268514 15:0.298383 16:0.584536 17:0.721605 18:0.0973215 19:-1 20:-0.4102 21:1 22:0.0740832 23:-1 24:-1 25:-0.164033 26:-0.114065 27:-0.144417 28:0.097716 29:0.00420176 30:0.0383559 31:1 32:-0.598577 33:-0.474237 34:0.636432 
1 1:0.480051 2:-1 3:-0.558391 4:-0.836894 5:-1 6:0.0664798 7:-0.25783 8:-0.505142 9:-0.812435 10:-0.342331 11:-0.347587 12:-0.0772684 13:-0.501174 14:-1 15:-1 16:-0.18927 17:-0.738765 18:-1 19:-1 20:-1 21:-0.486777 22:0.566301 23:0.463366 24:-1 25:-0.477462 26:0.0777494 27:-0.349269 28:-0.475795 29:-1 30:0.0931868 31:-0.459753 32:-0.222168 33:-1 34:-0.249128 
1 1:0.344724 2:0.216833 3:-0.695747 4:-0.0611585 5:-1 6:0.424273 7:-0.00842154 8:0.01985 9:-0.565358 10:0.405428 11:0.57215 12:-0.527452 13:-0.141453 14:-1 15:-0.540216 16:0.542221 17:-0.459972 18:0.248936 19:-0.868747 20:-1 21:-1 22:0.687253 23:-0.620632 24:-1 25:0.337367 26:0.186585 27:-0.244767 28:-0.597009 29:-0.283485 30:-0.30587 31:-0.736445 32:-0.39432 33:-0.627773 34:-0.212443 
1 1:0.485852 2:-1 3:-0.710899 4:-0.322727 5:-1 6:0.184794 7:-0.235844 8:-0.0657758 9:-0.50471 10:0.392951 11:-0.280112 12:-0.376683 13:-0.488837 14:0.200436 15:-0.347629 16:-0.021725 17:-0.345085 18:-0.266342 19:-0.820016 20:-1 21:-1 22:0.471741 23:-1 24:-0.633773 25:-0.104775 26:0.0835768 27:-0.230043 28:-0.359966 29:-0.155031 30:-0.554091 31:-0.509033 32:-0.0320621 33:-1 34:-0.452773 
1 1:0.212724 2:-0.730192 3:0.0566331 4:1 5:-1 6:0.193166 7:0.605625 8:-0.0440626 9:-0.410317 10:-0.198546 11:0.15415 12:-0.287998 13:-0.288376 14:0.671742 15:0.699463 16:0.799865 17:-0.141652 18:-0.403627 19:-0.56018 20:-0.0734622 21:-0.865387 22:0.340634 23:-0.618541 24:-0.290674 25:0.385962 26:-0.157456 27:0.438222 28:0.440703 29:0.514329 30:0.290699 31:-0.357995 32:-0.295985 33:0.82564 34:1 
1 1:0.640011 2:-0.54251 3:-0.0718524 4:0.0101732 5:-1 6:-0.0102384 7:-0.295988 8:-0.583975 9:-0.389583 10:0.360161 11:-0.326975 12:0.493041 13:-0.152552 14:0.162051 15:0.0635991 16:0.611558 17:-0.648018 18:-0.310189 19:-0.881022 20:-0.699349 21:-0.771749 22:0.231346 23:-1 24:-0.544493 25:0.14199 26:-0.215243 27:-0.367103 28:-0.259494 29:0.139287 30:0.116119 31:-0.3379 32:0.140692 33:-0.0648959 34:-0.0948954 
0.7351363335796725 1:0.089547 2:0.572082 3:0.425288 4:0.311909 5:0.0276871 6:0.210652 7:0.0372603 8:-0.114524 9:-0.497141 10:-0.318092 11:-0.0335723 12:0.508728 13:0.701654 14:0.128735 15:0.853374 16:0.790722 17:0.0892549 18:-0.243306 19:-0.133431 20:-0.708635 21:-0.602344 22:0.539395 23:-0.173146 24:0.342816 25:0.718328 26:-0.0342154 27:0.147394 28:-0.789763 29:1 30:0.666711 31:0.260936 32:-0.481453 33:-1 34:0.206469 
1 1:-0.214594 2:-0.0771754 3:-1 4:-0.0362631 5:-1 6:-0.371513 7:-0.242087 8:-0.0948976 9:-1 10:0.338282 11:-1 12:-1 13:-0.145921 14:-1 15:-0.443596 16:0.606529 17:-0.495658 18:-0.288076 19:-1 20:-0.662651 21:-1 22:0.00948755 23:-0.30237 24:-1 25:-0.651553 26:-0.578241 27:0.157344 28:0.0564086 29:-0.84563 30:-0.134498 31:-1 32:0.0347739 33:-1 34:-0.228974 
1 1:-0.233978 2:-1 3:-0.521972 4:0.653886 5:-0.628035 6:0.436513 7:0.316242 8:-0.0815229 9:-1 10:0.406214 11:0.346029 12:-0.572613 13:0.991312 14:-1 15:0.562185 16:0.408262 17:0.0932144 18:0.0168371 19:-0.686351 20:-0.592947 21:-0.6802 22:0.380124 23:-0.158225 24:-0.361795 25:0.236291 26:-0.319976 27:-0.0339437 28:-0.80553 29:0.736982 30:0.180994 31:0.31219 32:-0.632715 33:0.103655 34:-0.205831 
1 1:0.283867 2:-0.54499 3:-0.648669 4:-0.531915 5:-1 6:0.24139 7:-0.268745 8:-0.638516 9:-0.00496667 10:-0.217717 11:-0.223044 12:0.326508 13:0.0171214 14:-0.530441 15:-0.335774 16:0.04901 17:-0.346295 18:-0.434079 19:-0.777352 20:-0.833666 21:-1 22:0.318863 23:-0.152634 24:-0.185172 25:-0.0280515 26:-0.173603 27:-0.529261 28:-0.02288 29:0.138735 30:-0.409767 31:-0.411316 32:-0.193634 33:0.191788 34:-0.359731 
1 1:0.231713 2:-1 3:-0.376561 4:0.189546 5:-0.440701 6:-0.128531 7:-0.175546 8:0.237466 9:-0.634825 10:0.133782 11:-0.104271 12:-0.130817 13:-0.444836 14:-1 15:-0.478749 16:0.0197674 17:-0.505189 18:-0.103518 19:-0.441366 20:-0.647669 21:-1 22:0.453725 23:-0.420479 24:-0.708208 25:0.495497 26:0.0273164 27:0.0830444 28:-0.10041 29:-0.0073662 30:0.379502 31:-0.23731 32:-0.322556 33:-0.431387 34:-0.973472 
1 1:0.824679 2:-0.597548 3:-0.0284365 4:0.376404 5:-1 6:0.0814876 7:-0.410674 8:0.30711 9:-0.130647 10:-0.212858 11:0.163362 12:0.743207 13:-0.156168 14:0.0422511 15:-0.0246429 16:0.276269 17:-0.30979 18:-0.0179147 19:-1 20:-0.852879 21:-1 22:0.221942 23:-0.446968 24:-0.599293 25:0.419479 26:-0.428152 27:0.325571 28:0.536786 29:-0.23031 30:-0.182405 31:-0.231065 32:0.358157 33:-0.457377 34:0.179145 
1 1:0.281529 2:-0.396068 3:-0.740731 4:-0.642817 5:-1 6:-0.566984 7:-0.485148 8:0.258701 9:-0.662191 10:-0.338039 11:-0.522206 12:-0.295834 13:-0.456697 14:-1 15:-0.457171 16:-1 17:-1 18:-0.221412 19:-1 20:-0.613934 21:-1 22:-0.0462929 23:-0.543444 24:-0.398686 25:-0.0240063 26:-0.352098 27:-0.0307005 28:0.0310718 29:-0.545024 30:0.266774 31:-0.682821 32:-0.433027 33:-0.552038 34:-0.47932 
1 1:0.0308318 2:-1 3:-0.272525 4:0.347852 5:-1 6:-0.207059 7:-0.334777 8:0.190479 9:-1 10:0.266634 11:-0.428875 12:-0.497366 13:0.210801 14:-1 15:0.538776 16:0.186895 17:0.601355 18:-0.248511 19:-1 20:-0.724426 21:-0.623896 22:0.324023 23:0.53361 24:-0.249432 25:0.483038 26:0.0560311 27:-0.245352 28:0.264172 29:-0.119355 30:0.166795 31:-0.110036 32:0.550191 33:-0.0471718 34:-0.092474 
1 1:0.551272 2:-1 3:-1 4:0.282515 5:-1 6:0.0652972 7:-0.0302201 8:0.0658815 9:-0.46584 10:0.296994 11:-0.437172 12:0.431403 13:0.0490943 14:0.723334 15:-0.0617441 16:0.671604 17:-0.454816 18:-0.096037 19:-1 20:-0.626787 21:-1 22:0.379177 23:-0.228205 24:-1 25:0.630246 26:0.617664 27:0.0134286 28:0.125513 29:0.0208659 30:-1 31:-0.122964 32:0.228396 33:-1 34:-0.383114 
1 1:0.539162 2:-1 3:-0.506244 4:-0.236017 5:-1 6:0.0852603 7:-0.571915 8:-0.469523 9:-0.203088 10:0.196629 11:-0.315294 12:-0.438947 13:0.0845599 14:-0.131643 15:0.129195 16:0.976406 17:-0.0550317 18:-0.0743361 19:-1 20:-0.828498 21:-1 22:0.0284376 23:-0.363886 24:-1 25:-0.379274 26:-0.474353 27:-0.104783 28:-0.206688 29:0.246991 30:-0.0321119 31:-1 32:-0.72245 33:-0.652014 34:-0.135364 
1 1:0.081797 2:-0.747782 3:-0.891722 4:-0.917479 5:-1 6:0.543258 7:-0.541461 8:-0.685522 9:-0.374696 10:0.176323 11:0.172769 12:0.174097 13:0.29521 14:-0.307744 15:-0.434147 16:-0.34227 17:-0.579583 18:0.100352 19:-0.876584 20:-1 21:-1 22:0.492043 23:-0.492889 24:-0.528479 25:0.0848688 26:-0.0655507 27:-0.338467 28:-0.839289 29:-0.440201 30:-0.576754 31:-0.391173 32:-1 33:-0.502434 34:0.416039 
1 1:0.287873 2:-0.648386 3:-0.849051 4:-0.331954 5:-1 6:0.797848 7:0.115501 8:-0.451868 9:-0.469157 10:0.103419 11:-0.0627279 12:0.537338 13:-0.139521 14:-1 15:-0.163652 16:-0.0185911 17:-0.50576 18:0.0381891 19:-1 20:-0.871463 21:-0.824573 22:0.695366 23:-0.734189 24:-0.356849 25:0.589368 26:-0.173446 27:-0.246985 28:-0.422158 29:-0.257744 30:-0.885225 31:-0.411183 32:-0.630192 33:-0.168395 34:-0.0541973 
1 1:0.685582 2:0.160402 3:-0.140566 4:0.00995643 5:-0.787191 6:0.194523 7:-0.355916 8:-0.243025 9:-0.785189 10:0.203035 11:-0.0695427 12:-0.0912779 13:-0.163593 14:-0.306965 15:0.126183 16:0.487169 17:0.331132 18:-0.526265 19:-1 20:-0.575801 21:0.332072 22:0.491846 23:-0.722769 24:-1 25:0.218347 26:-0.085056 27:-0.668139 28:0.181972 29:0.147838 30:-0.159684 31:-0.510301 32:0.255897 33:-1 34:-0.0404435 
1 1:0.291502 2:-0.60547 3:0.0295451 4:0.857865 5:-0.918019 6:-0.239278 7:-0.250939 8:-0.587318 9:0.0252385 10:0.488569 11:0.0455268 12:-0.521047 13:0.108835 14:-0.718968 15:0.408409 16:1 17:0.313751 18:-0.275311 19:-1 20:-0.449068 21:-1 22:-0.388789 23:-0.456969 24:-1 25:-0.0111711 26:-0.767366 27:-0.16509 28:0.0239293 29:0.454919 30:-0.230083 31:-0.434933 32:0.148951 33:0.117869 34:0.971782 
1 1:0.249606 2:0.154618 3:-0.339751 4:-0.0852271 5:-1 6:-0.177415 7:-0.447077 8:0.224954 9:-0.406906 10:0.20914 11:-0.375074 12:0.415767 13:-0.308663 14:-0.310871 15:0.0705123 16:0.348116 17:-0.529122 18:-0.156333 19:-1 20:-0.755886 21:-0.232681 22:0.184052 23:-0.495179 24:0.149613 25:0.310714 26:-0.297106 27:0.0878832 28:-0.0357 29:-0.24197 30:-0.101968 31:-1 32:0.104448 33:-1 34:-0.610553 
1 1:0.423658 2:-0.616259 3:-0.241607 4:-0.0165203 5:-0.882772 6:0.322013 7:-0.113751 8:-0.548411 9:-0.461302 10:0.40657 11:0.335032 12:0.50539 13:0.14105 14:-0.603988 15:0.15635 16:0.822171 17:0.142125 18:-0.089423 19:-0.901151 20:-0.152561 21:-1 22:0.345911 23:0.0670952 24:-0.798864 25:0.377215 26:-0.354877 27:-0.118721 28:0.260143 29:0.0404421 30:1 31:-0.311605 32:0.337417 33:-0.280822 34:0.264516 
1 1:-0.0827751 2:-0.519255 3:-0.49602 4:0.182106 5:-1 6:0.0293054 7:-0.217288 8:-0.556857 9:-0.846225 10:0.0689487 11:-0.103308 12:-1 13:-1 14:-1 15:0.336292 16:0.438508 17:-0.522461 18:-0.156354 19:-1 20:-1 21:-1 22:0.368355 23:-1 24:0.168862 25:0.954434 26:0.155873 27:-0.24477 28:-1 29:-0.497585 30:-0.719178 31:-0.383451 32:0.0568501 33:-0.129229 34:-0.277688 
0.6223003709872855 1:0.255567 2:-1 3:-0.355808 4:-0.411338 5:-0.624128 6:-0.381454 7:0.226599 8:-0.460088 9:0.146537 10:0.285324 11:-0.389208 12:-0.480595 13:-0.170559 14:-0.477629 15:-0.476524 16:-0.20768 17:-0.71459 18:-0.157825 19:-1 20:-0.155591 21:-1 22:-0.329813 23:-1 24:-0.815908 25:-0.239083 26:-1 27:-0.165631 28:-0.440753 29:-0.36085 30:0.417647 31:-0.35631 32:-0.00365903 33:-1 34:-1 
1 1:-0.071999 2:-1 3:0.0432813 4:0.105071 5:-0.487869 6:-0.334674 7:-0.50049 8:-0.438905 9:-1 10:0.376566 11:-0.233223 12:-0.198585 13:0.00766554 14:-1 15:0.582275 16:0.852866 17:0.630189 18:-0.300773 19:-1 20:-0.230343 21:-0.753295 22:-0.103636 23:-0.626188 24:-1 25:0.262843 26:-0.450677 27:-0.0797834 28:0.19557 29:0.299867 30:0.630304 31:0.194842 32:0.904654 33:-0.345393 34:0.0194283 
1 1:0.104782 2:-0.285058 3:-0.162492 4:-0.116918 5:-1 6:0.152796 7:-0.680684 8:-0.421786 9:-0.480362 10:0.178428 11:-0.0971593 12:0.485077 13:0.226345 14:-1 15:0.017228 16:0.797146 17:-0.271579 18:-0.310779 19:-1 20:-0.406131 21:-0.643301 22:0.328075 23:-0.459523 24:-0.288157 25:0.207002 26:-0.257537 27:-0.541012 28:0.0475509 29:0.0977753 30:0.40041 31:0.0245735 32:-0.464151 33:-1 34:-0.173423 
1 1:0.533805 2:-0.294171 3:0.0501572 4:0.0105424 5:-1 6:0.0029162 7:-0.816199 8:-0.161721 9:-0.612169 10:0.0251641 11:-0.348718 12:0.471853 13:0.306203 14:-0.271601 15:0.768695 16:0.756822 17:0.321397 18:-0.296225 19:-1 20:-0.412193 21:-1 22:0.270895 23:-1 24:-1 25:-0.542186 26:-1 27:-0.650397 28:0.976839 29:0.441581 30:-0.279441 31:-0.629305 32:-0.362609 33:-0.476456 34:0.0251549 
1 1:0.549649 2:0.192668 3:-1 4:-0.338847 5:-0.667024 6:0.265023 7:-0.0720953 8:0.470417 9:-0.742703 10:0.42562 11:-0.0516635 12:0.486084 13:-0.266756 14:0.402964 15:-0.300139 16:0.119243 17:-1 18:0.23911 19:-1 20:-1 21:-1 22:0.6989 23:-0.237293 24:-1 25:0.953833 26:0.434932 27:-0.00845583 28:0.312047 29:0.0859967 30:-0.737431 31:0.170539 32:-0.298294 33:-0.57439 34:-0.302367 
1 1:0.491654 2:0.308561 3:-0.115467 4:-0.115258 5:-1 6:0.0797888 7:0.00482052 8:0.387485 9:-0.250046 10:0.0541009 11:-0.305573 12:1 13:0.137458 14:-0.205438 15:-0.0925134 16:0.36722 17:-0.116345 18:0.0212008 19:-0.623248 20:0.218513 21:0.866424 22:0.225014 23:0.772432 24:-0.233395 25:-0.22202 26:-0.648113 27:0.36859 28:0.52713 29:-0.746112 30:-0.0208815 31:0.666996 32:0.14773 33:0.278175 34:0.0744846 
1 1:0.348607 2:-0.267353 3:-1 4:-0.330924 5:-0.766074 6:0.405622 7:-0.427202 8:-0.302532 9:-0.76565 10:-1 11:-0.330485 12:-0.325652 13:-0.324581 14:-0.584 15:-0.374898 16:-0.189375 17:-0.77719 18:-0.0169586 19:-1 20:-0.732172 21:-0.893858 22:0.428338 23:-0.0528635 24:-0.126441 25:0.0992184 26:-0.202555 27:-0.112305 28:-0.413675 29:-0.358393 30:-0.200358 31:-0.697826 32:-0.550572 33:-0.456564 34:-0.584974 
1 1:0.695447 2:-1 3:-1 4:-0.430181 5:-1 6:0.700479 7:-0.187603 8:0.00116871 9:-0.914752 10:0.176313 11:0.255386 12:0.0707026 13:-0.180553 14:-0.485257 15:-0.577646 16:0.0418806 17:-0.535709 18:-0.268456 19:-0.755928 20:-0.902574 21:-1 22:0.532472 23:-0.467301 24:-0.114366 25:0.17798 26:-0.382007 27:-0.664659 28:-0.878911 29:-0.321182 30:-0.709651 31:-0.444768 32:-0.912092 33:-0.802318 34:-0.260583 
1 1:0.0759615 2:-1 3:-0.308214 4:0.180082 5:-1 6:0.330074 7:-0.458582 8:0.497662 9:-1 10:0.0589883 11:-0.299253 12:0.386308 13:-0.0335099 14:0.662947 15:0.0987452 16:0.0884523 17:0.211037 18:-0.470873 19:-1 20:-1 21:0.0373283 22:0.365039 23:0.21819 24:-0.0249849 25:0.0416245 26:-0.263532 27:-0.0966472 28:0.276797 29:-0.140617 30:-0.0995206 31:-1 32:-0.468477 33:0.542194 34:-0.104454 
1 1:0.470076 2:-1 3:-0.685591 4:0.491783 5:-0.900147 6:0.16614 7:-0.608032 8:-0.245492 9:-0.765738 10:0.412657 11:-0.0568106 12:-0.226747 13:-0.26537 14:0.0959013 15:0.322304 16:0.273027 17:0.118136 18:-0.125293 19:-1 20:-0.879654 21:-0.835751 22:0.474665 23:-0.540601 24:-0.672219 25:0.299047 26:-0.34881 27:-0.364917 28:-0.207302 29:-0.0467842 30:-0.260691 31:-0.751167 32:0.125821 33:-0.872368 34:-0.269682 
1 1:-0.26954 2:-1 3:0.296754 4:0.717784 5:-0.34782 6:-0.404323 7:-0.213422 8:0.771258 9:-1 10:1 11:-0.221485 12:-1 13:0.109546 14:-1 15:0.705995 16:0.567287 17:-0.539772 18:-0.0544455 19:-1 20:-0.155593 21:0.507043 22:-0.169405 23:0.746213 24:0.11899 25:-0.575644 26:-0.486361 27:0.808199 28:0.542302 29:0.497631 30:-0.633146 31:-0.0482253 32:-1 33:0.713345 34:0.272932 
1 1:0.389591 2:-0.364019 3:-0.525285 4:0.0626214 5:-1 6:0.00816592 7:0.152789 8:0.0278717 9:-0.0928074 10:0.163847 11:-0.501691 12:-0.262699 13:0.217608 14:-1 15:0.111517 16:0.222921 17:-0.0591475 18:-0.170893 19:-0.458913 20:-1 21:-1 22:0.229436 23:-0.519216 24:0.472095 25:0.230979 26:-0.324278 27:0.0224122 28:-0.206063 29:-0.350118 30:-0.188542 31:-0.665989 32:-0.247411 33:0.0966714 34:-0.506097 
1 1:0.106603 2:-0.505435 3:0.0108126 4:0.566923 5:-0.391016 6:-0.0275489 7:0.0837185 8:0.64997 9:-0.915521 10:0.330723 11:-0.0464649 12:-0.198466 13:-0.211278 14:-0.278661 15:0.733203 16:0.116823 17:-0.625774 18:0.292704 19:-0.757998 20:-0.509073 21:-1 22:0.449282 23:0.0152238 24:-0.12116 25:0.643071 26:-0.0376483 27:0.878123 28:0.355852 29:-0.00867126 30:0.0301206 31:-0.448852 32:-0.836869 33:-0.221596 34:-0.0321659 
1 1:0.536768 2:-0.414587 3:-0.279363 4:0.0897484 5:-1 6:-0.1043 7:-0.386592 8:-0.506306 9:-0.812745 10:0.0571517 11:-0.273085 12:-0.31513 13:-0.197954 14:0.732299 15:0.166358 16:0.424613 17:0.173856 18:-0.293545 19:-1 20:-0.293209 21:-0.707925 22:0.180254 23:-1 24:0.0226956 25:0.263422 26:-0.0142816 27:-0.528648 28:0.43181 29:-0.383795 30:0.0164059 31:-1 32:-0.288589 33:-1 34:-0.27709 
1 1:0.0178834 2:0.0860349 3:0.268025 4:0.37003 5:0.306014 6:0.173523 7:0.249661 8:0.322823 9:-0.436934 10:0.756111 11:1 12:-0.275867 13:0.267924 14:-1 15:0.351161 16:0.333563 17:-0.181284 18:-0.217336 19:-0.468577 20:0.079756 21:0.922628 22:0.263027 23:-0.178987 24:-1 25:-0.335331 26:-1 27:0.218802 28:0.0166381 29:0.285619 30:0.0523439 31:-0.0755034 32:-0.419368 33:-1 34:-0.349777 
-1 1:0.126096 2:-1 3:0.0162416 4:-0.131224 5:-1 6:0.300735 7:-0.0590213 8:0.781345 9:-0.755138 10:-0.20992 11:0.0520418 12:0.501136 13:0.106495 14:-1 15:-0.153103 16:-0.178016 17:-0.394523 18:0.39426 19:-1 20:-0.107162 21:-0.154252 22:-0.0488703 23:-0.312225 24:-0.220514 25:-0.552271 26:-0.697298 27:0.427974 28:0.627398 29:-0.375082 30:-0.132315 31:0.266628 32:0.390434 33:-0.503201 34:0.362695 
-1 1:-0.0380499 2:-1 3:-0.753751 4:0.11746 5:-1 6:0.128263 7:-0.424355 8:0.465255 9:-0.630641 10:0.449349 11:-0.231485 12:-0.347611 13:-0.281947 14:-0.612342 15:-0.381769 16:-0.435577 17:-0.476224 18:-0.0308038 19:-0.836783 20:-0.884156 21:-1 22:-0.0555913 23:-0.811843 24:-1 25:-0.353974 26:-0.583442 27:0.142568 28:0.0778746 29:0.0526716 30:-0.360867 31:-0.536277 32:-0.711357 33:-0.864089 34:-0.267627 
-1 1:0.330317 2:-1 3:0.255083 4:-0.271363 5:-1 6:0.437483 7:-0.368504 8:-0.0847119 9:-1 10:0.275195 11:-0.136488 12:0.730581 13:0.32858 14:-1 15:0.0318311 16:0.336608 17:-0.779763 18:-0.750405 19:-1 20:-0.0236608 21:0.28668 22:0.0440097 23:-0.379408 24:-1 25:-0.447044 26:-0.302061 27:0.16862 28:0.363403 29:-0.325934 30:-0.282614 31:0.767588 32:-0.0910857 33:-1 34:0.383752 
-1 1:0.0633401 2:-1 3:-1 4:0.00804186 5:-1 6:0.262082 7:-0.644582 8:-0.0211009 9:-0.649028 10:0.174672 11:-0.397883 12:-1 13:-0.218142 14:-0.534566 15:-0.230583 16:0.170809 17:-0.738886 18:-0.419958 19:-1 20:-1 21:-0.635269 22:0.137144 23:-0.264225 24:-1 25:-0.13959 26:-0.32797 27:-0.347779 28:-0.126254 29:0.172704 30:-0.379556 31:0.133589 32:0.262939 33:-1 34:0.220281 
-1 1:0.358094 2:-1 3:-0.211176 4:-0.0776412 5:-1 6:0.422537 7:-0.256806 8:0.476385 9:-0.885453 10:-0.101003 11:0.275994 12:0.578181 13:-0.208478 14:-0.645055 15:0.00877338 16:0.229487 17:-0.363447 18:0.515674 19:-1 20:-0.403824 21:-0.51999 22:0.00820427 23:-0.423254 24:-0.454939 25:-0.313107 26:-0.573822 27:0.121171 28:0.574107 29:-0.491881 30:-0.490777 31:-1 32:0.0280939 33:-0.0861287 34:-0.0894264 
-1 1:0.367218 2:0.00501726 3:-0.686417 4:-0.70626 5:-1 6:0.113383 7:-0.512449 8:-0.0281952 9:-0.887656 10:0.289513 11:-0.512929 12:-0.236606 13:-0.172594 14:-0.651881 15:-0.964505 16:-1 17:-1 18:-0.183421 19:-1 20:-0.80572 21:-1 22:-0.12592 23:-0.832169 24:-0.883911 25:-0.320107 26:-0.702767 27:-0.286154 28:-0.353631 29:-0.548627 30:-1 31:-0.765732 32:-0.854181 33:-1 34:-0.643775 
-1 1:0.13199 2:-0.670544 3:-0.844858 4:-0.305778 5:-0.793791 6:0.697869 7:-0.514114 8:-0.180256 9:-0.11538 10:0.377701 11:0.270844 12:-0.370213 13:-0.361325 14:-1 15:-0.383249 16:-0.383587 17:-0.166821 18:-0.179311 19:-1 20:-1 21:-1 22:0.0492779 23:-1 24:-0.504882 25:-0.476723 26:-0.628261 27:-0.131777 28:-0.57711 29:-0.485862 30:0.0283114 31:-0.372946 32:-0.461193 33:-0.840086 34:0.165018 
-1 1:0.271991 2:-0.48848 3:-0.759124 4:-0.566339 5:-1 6:0.631626 7:-0.40346 8:-0.00633705 9:-0.877625 10:0.188551 11:-0.310472 12:-0.392672 13:-0.455656 14:-0.6208 15:-0.453502 16:-0.686101 17:-0.843888 18:-0.513174 19:-0.618408 20:-1 21:-1 22:0.26494 23:-0.874488 24:-0.913182 25:-0.27046 26:-0.479701 27:-0.135073 28:-0.490866 29:-0.276974 30:-0.760639 31:-0.673421 32:-0.755495 33:-0.909339 34:-0.453116 
-1 1:-0.279531 2:-1 3:-0.773577 4:-0.837895 5:-1 6:0.319767 7:-0.584771 8:0.0938408 9:-0.718462 10:-0.389019 11:-0.107578 12:-0.304222 13:-0.101006 14:-1 15:-0.586134 16:-0.137286 17:-0.1676 18:-0.58774 19:-1 20:-0.801072 21:-0.607995 22:0.232537 23:-0.421039 24:-1 25:-0.243144 26:-0.0748788 27:-0.219012 28:-0.0938788 29:-0.371501 30:-0.0194497 31:0.454674 32:-0.355583 33:-0.5818 34:-0.416264 
-1 1:0.201107 2:-0.742255 3:-0.258744 4:0.278117 5:-1 6:0.191931 7:-0.47569 8:-0.230751 9:-0.389292 10:0.335563 11:0.0329208 12:-0.0693241 13:0.763051 14:-0.235426 15:0.390673 16:0.357114 17:0.477983 18:0.691085 19:-1 20:-0.348756 21:-1 22:-0.0747885 23:-0.539715 24:-0.77515 25:-0.549637 26:-0.469061 27:0.155037 28:0.0949876 29:0.439029 30:0.540229 31:-0.485478 32:0.252531 33:-0.579499 34:0.420583 
-1 1:-0.132468 2:0.409751 3:-0.336145 4:-0.0682821 5:-1 6:0.445314 7:-0.40548 8:-0.343284 9:-1 10:0.231288 11:-0.0932398 12:-0.322711 13:-0.198139 14:-0.654788 15:-0.0540243 16:0.27197 17:0.0311529 18:-0.234928 19:-1 20:0.136858 21:-0.267825 22:-0.0363384 23:-0.0526797 24:-0.344733 25:-0.482692 26:-0.752495 27:0.0161873 28:-0.046066 29:-0.101734 30:-0.242017 31:-0.582506 32:-0.855399 33:-0.593792 34:0.546862 
-1 1:0.258417 2:-0.628051 3:-1 4:-0.37174 5:-0.874001 6:0.267906 7:-0.405445 8:-0.0995919 9:-0.260677 10:0.392407 11:-0.229707 12:0.116616 13:-0.0181616 14:-0.724267 15:-0.438565 16:-0.40946 17:-0.586287 18:0.225762 19:-0.886117 20:-0.608738 21:-0.934921 22:-0.0530055 23:-0.868716 24:-0.90919 25:-0.358857 26:-0.420058 27:0.18541 28:-0.0834642 29:-0.327713 30:0.315357 31:-0.6602 32:-0.461294 33:-0.602864 34:-0.279031 
-1 1:0.282521 2:-1 3:-1 4:-0.373277 5:-0.839234 6:0.276092 7:-0.399138 8:-0.403863 9:-0.796311 10:0.451733 11:-0.297803 12:0.71118 13:-0.210299 14:-0.648185 15:-0.725193 16:-0.318657 17:-0.135641 18:-0.630337 19:-0.723363 20:-0.518447 21:-0.0359117 22:0.0634897 23:-1 24:-1 25:-0.399541 26:-0.391691 27:-0.0140867 28:0.414879 29:-0.387222 30:-0.19286 31:-0.419332 32:0.56172 33:-0.769645 34:-0.129788 
-1 1:0.057062 2:1 3:0.189631 4:0.159253 5:-1 6:-0.000583968 7:-0.412771 8:0.795634 9:-0.521526 10:0.549419 11:-0.25472 12:0.182473 13:0.234689 14:-1 15:0.0668408 16:0.136575 17:0.525692 18:0.215917 19:-1 20:-0.17256 21:0.183054 22:-0.384149 23:-0.153552 24:-0.0703792 25:-0.585066 26:-1 27:0.278481 28:0.268347 29:-0.0373895 30:-0.39202 31:-0.3716 32:-0.378956 33:-0.388588 34:0.303054 
-1 1:-0.134629 2:-1 3:-0.05712 4:0.248009 5:-0.0936789 6:0.15582 7:-0.170316 8:0.147335 9:-0.242321 10:0.449855 11:0.325128 12:0.183823 13:0.552259 14:0.143736 15:0.59099 16:0.707425 17:0.69366 18:0.369787 19:0.167151 20:0.106891 21:-0.690613 22:-0.294401 23:-0.375871 24:-1 25:-0.390534 26:-0.299215 27:-0.0220192 28:0.377571 29:0.508295 30:0.910957 31:-0.23032 32:0.456481 33:-0.0281172 34:0.668041 
-1 1:-0.3427 2:0.355551 3:-0.161071 4:-0.0411324 5:-1 6:0.219014 7:-0.0272555 8:0.120295 9:-0.052127 10:0.739402 11:0.0549684 12:0.0533089 13:0.563476 14:-0.406919 15:0.340318 16:0.767874 17:0.236912 18:0.284087 19:-0.533652 20:-1 21:-1 22:-0.436426 23:-1 24:-1 25:-0.498369 26:-0.599097 27:-0.237107 28:-0.14375 29:0.992411 30:-0.0075637 31:0.628673 32:0.0641442 33:-1 34:0.411111 
-1 1:-0.288845 2:-0.473888 3:-0.477662 4:0.120091 5:-1 6:0.0702457 7:-0.618396 8:-0.303406 9:-0.734632 10:0.464707 11:-0.250717 12:-0.344184 13:0.294083 14:-0.609983 15:0.404224 16:0.418891 17:0.518678 18:-0.077887 19:-1 20:-0.210947 21:-1 22:0.240333 23:-0.810623 24:-0.755458 25:-0.0493249 26:-0.146125 27:-0.287289 28:0.281308 29:0.693247 30:0.38527 31:-0.533733 32:0.602413 33:-0.546338 34:0.36424 
-1 1:-0.312502 2:-1 3:-0.297373 4:-0.387963 5:-1 6:0.268787 7:-0.489776 8:-0.294091 9:-0.249879 10:0.544299 11:-0.320134 12:-0.245904 13:-0.0360766 14:-0.695511 15:-0.0291788 16:0.400349 17:0.0311598 18:-0.417666 19:-0.760576 20:-1 21:-1 22:-0.415626 23:-1 24:-1 25:-0.300742 26:-0.622785 27:-0.374467 28:-0.0164764 29:0.584369 30:0.701706 31:-0.158975 32:-0.000993823 33:-0.500133 34:0.0376663 
-1 1:0.0459213 2:-1 3:-1 4:-0.649042 5:-1 6:0.643245 7:-0.497802 8:-0.314051 9:-0.91674 10:0.301503 11:-0.0673052 12:-0.794237 13:-0.0665713 14:-0.253489 15:-0.75159 16:-0.415913 17:-0.553153 18:0.317694 19:-1 20:-1 21:-1 22:0.280165 23:-1 24:-1 25:-0.303623 26:-0.44583 27:-0.486988 28:-0.328633 29:-0.52941 30:-0.847981 31:-0.443983 32:-0.592466 33:-0.459014 34:-0.0210964 
-1 1:-0.496742 2:-0.493747 3:-1 4:-0.670899 5:-0.828505 6:0.734205 7:-0.608138 8:-0.353072 9:-0.853186 10:-0.213534 11:0.0507985 12:-0.00161254 13:-0.375176 14:-0.469832 15:-0.58882 16:0.0143576 17:-0.341955 18:0.247854 19:-1 20:-0.837756 21:-0.909893 22:0.323681 23:-0.818226 24:-0.874266 25:-0.322258 26:-0.11207 27:-0.395284 28:-0.588723 29:-0.368665 30:-0.404641 31:-0.549649 32:-0.642141 33:-0.809652 34:0.109688 
-1 1:-0.237951 2:-0.568409 3:0.475262 4:0.107494 5:-1 6:0.146793 7:-0.153354 8:0.028847 9:-0.896748 10:0.499137 11:-0.298499 12:-0.744828 13:0.817452 14:-0.680053 15:0.279945 16:0.565925 17:0.258718 18:0.501023 19:-0.748421 20:0.219172 21:-0.739895 22:-0.343949 23:-0.709981 24:-0.637054 25:-0.535396 26:-0.483131 27:0.222173 28:0.619732 29:0.491316 30:0.381276 31:0.250497 32:0.672206 33:0.275098 34:0.392268 
-1 1:-0.331479 2:-1 3:-0.599865 4:0.0120358 5:-0.888603 6:0.455069 7:-0.653277 8:-0.559921 9:-0.745557 10:0.315705 11:-0.0378596 12:-0.805576 13:-0.0460937 14:-0.211561 15:-0.0135633 16:0.114337 17:0.286431 18:0.336908 19:-1 20:-0.863951 21:-1 22:0.307066 23:-0.285311 24:-0.84715 25:-0.287155 26:-0.254881 27:-0.312785 28:-0.27083 29:0.236899 30:0.137543 31:-0.576098 32:-0.18996 33:-0.705042 34:-0.0861474 
-1 1:-0.560883 2:-1 3:0.305718 4:0.0873768 5:-1 6:0.653014 7:-0.129032 8:-0.285943 9:-1 10:0.12032 11:0.633966 12:0.404101 13:0.578387 14:-0.139713 15:0.259753 16:0.441939 17:0.63268 18:-0.0180785 19:-0.323545 20:0.397203 21:0.205234 22:-0.0788786 23:-0.220184 24:-1 25:-0.205153 26:-0.00120552 27:0.250892 28:-0.160938 29:0.176873 30:0.0266246 31:-0.421068 32:-0.262556 33:-0.436718 34:0.507971 
-1 1:0.169015 2:-0.58568 3:-0.118248 4:0.035311 5:-1 6:0.190172 7:-0.0786479 8:-0.260781 9:-0.820047 10:0.309208 11:-0.179738 12:0.408312 13:0.22111 14:0.562929 15:0.150217 16:0.179472 17:-0.269227 18:0.267818 19:-0.872453 20:0.415701 21:-1 22:0.247835 23:-0.494542 24:-0.725291 25:-0.0905862 26:-0.334496 27:0.239304 28:-0.0326962 29:0.720007 30:0.444128 31:-0.550827 32:0.174198 33:-0.56297 34:-0.17712 
-1 1:0.446523 2:-1 3:-0.650786 4:-0.467179 5:-1 6:0.206387 7:-0.409932 8:-0.460665 9:-0.822585 10:0.155661 11:-0.625785 12:-0.00821468 13:-0.0778002 14:-0.450248 15:-0.483133 16:-0.0358529 17:-0.0393647 18:-0.837437 19:-1 20:-1 21:-0.577462 22:0.1504 23:-1 24:-1 25:-0.473122 26:0.0146362 27:0.0262031 28:-0.286584 29:-0.139197 30:-0.490064 31:-0.630043 32:-0.211406 33:-1 34:-0.0662897 
-1 1:-0.578543 2:-1 3:-1 4:-0.120471 5:-1 6:0.302993 7:-0.421002 8:0.299463 9:-1 10:0.123754 11:-0.420051 12:-0.168924 13:0.0978002 14:-1 15:-0.204276 16:0.119984 17:-0.163572 18:-0.442661 19:-1 20:-0.418451 21:-0.801538 22:-0.238224 23:-0.599641 24:-0.723069 25:-0.545089 26:-0.584278 27:-0.00333749 28:0.201379 29:-0.179595 30:-0.166472 31:-0.478685 32:-0.814993 33:-0.71081 34:0.167498 
-1 1:0.0653496 2:-0.51131 3:-1 4:-0.514226 5:-1 6:0.726226 7:-0.249378 8:0.0856753 9:-0.751066 10:0.041813 11:0.338688 12:-1 13:-0.324343 14:-0.228633 15:-0.547229 16:-0.211605 17:-0.180836 18:0.0520189 19:-1 20:-0.713865 21:-0.602628 22:0.7429 23:-0.535251 24:-0.878897 25:-0.0946237 26:0.225241 27:-0.353664 28:-0.411366 29:-0.0696111 30:-0.920798 31:-0.334677 32:-0.676892 33:-0.575605 34:0.0862038 
-1 1:-0.0327326 2:-0.00376673 3:-0.530871 4:-0.50153 5:-1 6:0.458784 7:-0.468995 8:0.395374 9:-0.864875 10:-0.00210006 11:-0.0585763 12:-0.204565 13:-0.139161 14:-0.581289 15:-0.599423 16:-0.338709 17:-0.448659 18:-0.590673 19:-1 20:-0.443391 21:0.100604 22:0.184444 23:-0.330554 24:-1 25:-0.418337 26:-0.705365 27:-0.0452079 28:-0.181298 29:-0.169549 30:-0.59102 31:-0.718228 32:-0.226528 33:-0.725845 34:-0.411933 
-1 1:0.0901794 2:-1 3:0.204992 4:0.246626 5:-1 6:0.21385 7:-0.458516 8:0.406077 9:-0.69345 10:0.718359 11:-0.0249159 12:-0.242411 13:0.278617 14:-0.299596 15:0.349279 16:0.298745 17:0.474051 18:0.876154 19:-1 20:-0.0802569 21:-0.822632 22:-0.167843 23:-0.642194 24:-0.752504 25:-0.438537 26:-0.720574 27:0.214338 28:0.840575 29:0.144454 30:-0.324199 31:-0.734366 32:0.318152 33:-0.541403 34:0.419364 
-1 1:-0.17868 2:-0.579451 3:-0.505186 4:-0.00471048 5:0.203689 6:0.183935 7:-0.482477 8:0.960634 9:-0.899389 10:0.0275754 11:0.0482585 12:-0.751356 13:-0.214691 14:-1 15:-0.161887 16:-0.292101 17:-0.510277 18:0.721513 19:-1 20:-0.565272 21:-1 22:0.0628862 23:0.379959 24:-0.804525 25:-0.514671 26:-0.235038 27:0.340554 28:-0.00114834 29:-0.322953 30:-0.768193 31:-0.351532 32:0.0592697 33:-0.629868 34:-0.316933 
-1 1:-0.469716 2:-0.552896 3:-0.620249 4:-0.361873 5:-0.848542 6:0.748557 7:-0.910542 8:-0.193677 9:-0.735199 10:0.153877 11:0.119547 12:-0.735656 13:0.0990651 14:-0.668553 15:-0.176631 16:-0.207001 17:-0.179121 18:0.18291 19:-1 20:-0.815024 21:-1 22:0.220107 23:-0.458097 24:-0.792182 25:-0.443425 26:-0.206589 27:-0.255246 28:-0.641418 29:-0.548759 30:-0.260965 31:-0.776952 32:-0.861164 33:-0.782982 34:0.0910269 
-1 1:0.265298 2:-1 3:0.010002 4:-1 5:-1 6:0.552871 7:-0.625349 8:-0.721247 9:-0.62856 10:0.0533305 11:-0.17974 12:-0.311164 13:-0.0471806 14:-1 15:-0.780059 16:-0.280305 17:-0.19267 18:-0.726929 19:-1 20:-0.357657 21:0.0831956 22:0.0488052 23:-1 24:-1 25:-0.50582 26:-0.800852 27:-0.160594 28:-0.523568 29:-0.857824 30:-0.795303 31:-0.225448 32:-0.333986 33:-1 34:0.094798 
-1 1:-0.341739 2:-1 3:-0.587286 4:0.223248 5:-0.2301 6:0.37819 7:-0.433602 8:-0.347741 9:-0.322768 10:0.260772 11:-0.329516 12:-0.481821 13:0.240191 14:0.684831 15:0.308663 16:0.791494 17:-0.03983 18:0.0195301 19:-1 20:-1 21:-0.708055 22:-0.069046 23:-0.411058 24:-1 25:-0.11584 26:-1 27:-0.0946332 28:0.351239 29:1 30:-0.0095193 31:-0.267958 32:0.0117642 33:-1 34:0.306077 
-1 1:-0.62889 2:0.15616 3:-0.562981 4:0.176047 5:-0.876721 6:0.0903495 7:-0.464973 8:0.290731 9:-0.723404 10:-0.124597 11:-0.0877695 12:-1 13:0.0377519 14:-1 15:-0.219977 16:-0.161514 17:-0.299809 18:-0.481537 19:-1 20:0.106292 21:-1 22:-0.161659 23:-1 24:-1 25:-0.343261 26:-0.802574 27:-0.0214581 28:0.341328 29:0.31342 30:-0.531319 31:-0.537023 32:-1 33:-1 34:0.499903 
-1 1:0.619981 2:-0.360243 3:-0.298536 4:-0.659126 5:-1 6:-0.0227495 7:-0.777229 8:0.10634 9:-1 10:0.276931 11:-0.811265 12:0.360655 13:-0.322109 14:-1 15:-0.76993 16:-0.643256 17:-0.570331 18:-0.421487 19:-1 20:-1 21:-0.786893 22:-0.30249 23:-0.570098 24:-0.702634 25:-0.317079 26:-0.467133 27:-0.0298166 28:0.17921 29:-0.317345 30:-0.661542 31:-0.256871 32:-0.0631678 33:-0.68947 34:-0.413992 
-1 1:-0.0998527 2:-1 3:0.333488 4:0.120245 5:1 6:0.368658 7:-0.433407 8:0.0708696 9:-1 10:0.321713 11:0.149767 12:-0.292787 13:-0.187481 14:0.801287 15:2.96064e-05 16:0.209106 17:-0.42055 18:0.0130666 19:-1 20:0.171561 21:-1 22:0.236532 23:-1 24:-0.444013 25:-0.286158 26:0.0175997 27:0.149199 28:0.194215 29:0.333116 30:-0.417969 31:-1 32:-0.120673 33:-1 34:-0.115907 
-1 1:-0.481681 2:-1 3:-0.413791 4:0.199151 5:-0.919308 6:0.630064 7:-0.702554 8:0.203846 9:-0.526257 10:0.220928 11:0.27012 12:-0.263991 13:0.255351 14:-0.823415 15:0.438524 16:0.241503 17:0.2837 18:0.501694 19:-0.528063 20:-0.296592 21:-1 22:0.0632035 23:-0.839933 24:-0.309012 25:-0.309298 26:-0.123831 27:0.158575 28:-0.14877 29:0.0937518 30:-0.0994176 31:-0.51787 32:-0.504251 33:-0.174743 34:0.730299 
-1 1:0.127102 2:-0.435761 3:-0.531302 4:-0.437218 5:-1 6:0.421104 7:-0.46933 8:0.0999833 9:-0.865013 10:0.204065 11:-0.0591081 12:-0.0319307 13:-0.0698124 14:-0.581718 15:-0.599975 16:-0.208875 17:-0.549263 18:-0.196722 19:-1 20:-0.443861 21:0.0223222 22:0.169979 23:-0.620844 24:-0.537366 25:-0.389976 26:-0.316702 27:0.346894 28:0.0450772 29:-0.189159 30:0.377873 31:-0.503462 32:-0.413083 33:-0.726125 34:0.18283 
-0.58810860670133 1:0.342755 2:-0.407886 3:-0.609513 4:-0.438363 5:-0.891665 6:0.183926 7:-0.395098 8:0.522033 9:-0.665416 10:0.483935 11:-0.388221 12:0.517368 13:0.0385722 14:-0.0899177 15:-0.516459 16:-0.554039 17:-0.707239 18:0.577452 19:-0.813583 20:-0.2971 21:-1 22:-0.147324 23:-0.602113 24:-0.851352 25:-0.0284667 26:-0.458018 27:0.0564397 28:0.0238003 29:-0.326059 30:-0.820003 31:-0.586319 32:-0.517172 33:-0.597502 34:-0.497618 
-1 1:0.224401 2:-1 3:-0.80695 4:-0.340865 5:-1 6:0.564792 7:-0.490363 8:0.0323924 9:-0.821785 10:-0.0739431 11:-0.28356 12:-0.247062 13:-0.273113 14:-0.69609 15:-0.565855 16:-0.170548 17:-0.483568 18:-0.046501 19:-1 20:-1 21:-1 22:0.065737 23:-0.499424 24:-0.653749 25:-0.301424 26:-0.31926 27:0.101221 28:-0.427378 29:0.067289 30:-0.0738073 31:0.270685 32:-0.604551 33:-0.500947 34:-0.213339 
-1 1:-0.217135 2:-1 3:0.0675299 4:0.276392 5:0.182083 6:0.194662 7:0.0348134 8:0.354676 9:-0.809938 10:0.192254 11:-0.0163368 12:-0.0707399 13:0.325477 14:0.568822 15:0.347205 16:0.300853 17:0.29918 18:-0.00208182 19:-1 20:-0.818034 21:-0.636387 22:0.304308 23:0.785257 24:-1 25:-0.00946219 26:0.0320186 27:0.0754886 28:0.419104 29:0.540479 30:-0.35668 31:0.200433 32:0.00967227 33:-1 34:-0.0559202 
-1 1:0.052257 2:-0.0409277 3:-1 4:-0.20508 5:-1 6:0.483796 7:-0.177712 8:-0.196729 9:-0.770554 10:0.258344 11:-0.193578 12:0.111496 13:-0.376176 14:-0.530832 15:-0.548643 16:-0.353884 17:-0.621773 18:0.202641 19:-0.740522 20:-0.603212 21:-1 22:0.247812 23:-0.169438 24:-0.793093 25:-0.201244 26:-0.417868 27:0.0346502 28:-0.211791 29:-0.0648482 30:-0.428514 31:-0.208768 32:-0.577617 33:-0.783934 34:-0.331883 
-1 1:-0.0525246 2:-1 3:0.0181481 4:-0.0857985 5:-0.652434 6:-0.0540053 7:-0.663757 8:0.978285 9:0.174399 10:0.621788 11:0.108677 12:-0.393383 13:-0.00509008 14:-1 15:-0.133378 16:0.28416 17:0.213778 18:-0.12302 19:-1 20:-1 21:-0.440214 22:0.0572276 23:-1 24:-0.523098 25:0.106118 26:0.249931 27:0.465496 28:0.434948 29:0.299294 30:0.761949 31:0.677696 32:-0.112236 33:-0.501986 34:0.252115 
-1 1:-0.537676 2:-1 3:-0.849341 4:0.236506 5:-0.718993 6:0.770144 7:-0.0912867 8:0.214167 9:-0.923459 10:0.112327 11:-0.0336838 12:-0.273927 13:0.136177 14:-0.560883 15:0.167815 16:0.042153 17:-0.27888 18:0.0646116 19:-1 20:-0.421209 21:-0.893427 22:-0.116429 23:0.315504 24:-0.516793 25:-0.372639 26:-0.540001 27:0.250505 28:-0.0317981 29:0.0937568 30:-0.21964 31:-0.387355 32:-0.472275 33:-0.712484 34:0.18445 
-0.06981614133518346 1:0.894823 2:-1 3:-0.815352 4:-0.695799 5:-0.867169 6:0.165472 7:-0.481916 8:0.107429 9:-1 10:0.178295 11:-0.575209 12:0.322723 13:-0.0584669 14:-0.26631 15:-0.845094 16:-0.8831 17:-0.906491 18:0.0647529 19:-0.771432 20:-0.837774 21:-1 22:-0.125832 23:-0.51947 24:-1 25:-0.16876 26:-0.78851 27:0.0274106 28:-0.423015 29:-0.561325 30:-0.880801 31:-0.506261 32:-0.618504 33:-0.519608 34:-0.623994 
-1 1:0.659003 2:-0.371832 3:-0.704194 4:-0.627263 5:-0.787206 6:0.593424 7:-0.00785842 8:0.610111 9:-0.574868 10:0.00785585 11:-0.164771 12:-0.352335 13:0.0542039 14:-1 15:-0.153659 16:-0.264934 17:-0.45793 18:-0.152894 19:-1 20:-0.740114 21:-0.790754 22:0.168912 23:-0.577886 24:-1 25:-0.108186 26:-0.327736 27:-0.00834622 28:-0.0865685 29:0.113993 30:-0.666997 31:0.4124 32:0.210014 33:-0.00896106 34:-0.229522 
-1 1:0.515571 2:-0.285913 3:-0.663735 4:-0.239608 5:-0.584338 6:0.60102 7:-0.674343 8:0.33497 9:-0.829164 10:0.0062224 11:0.0681996 12:-1 13:0.197034 14:0.450234 15:-0.000109879 16:-0.151552 17:0.397593 18:-0.334507 19:-1 20:-0.492351 21:0.282248 22:0.176982 23:-0.52015 24:-1 25:-0.594135 26:-0.518638 27:-0.0122516 28:0.0831257 29:-0.0819467 30:0.231938 31:-0.387865 32:-0.00196865 33:-1 34:0.157125 
-1 1:-0.0470266 2:-0.286949 3:0.110218 4:0.329392 5:-1 6:0.158674 7:-0.170964 8:0.160437 9:-0.763858 10:0.197185 11:-0.206932 12:-0.150708 13:-0.110924 14:-0.268269 15:0.158628 16:0.399875 17:0.48228 18:-0.11329 19:-1 20:0.191378 21:-1 22:-0.250904 23:-0.176513 24:-0.541202 25:-0.594572 26:-0.422053 27:0.1947 28:0.225044 29:0.0124316 30:0.135669 31:-0.103387 32:0.487796 33:-1 34:0.416785 
-1 1:0.0491714 2:-1 3:-0.486585 4:0.0759008 5:-1 6:0.148927 7:-0.280626 8:-0.338607 9:-1 10:0.14477 11:-0.216894 12:-1 13:-0.690525 14:-1 15:-0.533456 16:-0.187814 17:-0.577926 18:0.175798 19:-1 20:-1 21:-1 22:-0.108466 23:-0.580121 24:-1 25:-0.212759 26:-0.567812 27:0.0432248 28:-0.593162 29:-0.945256 30:-0.55577 31:-1 32:-0.546224 33:-0.470792 34:-0.340985 
-1 1:-0.298205 2:0.496855 3:-0.763336 4:0.195952 5:-1 6:0.695371 7:-0.652555 8:-0.0127678 9:-0.584567 10:-0.100354 11:-0.152509 12:-0.277974 13:-0.503522 14:-0.627431 15:0.140916 16:0.386051 17:-0.0931487 18:0.108828 19:-1 20:-0.628974 21:-1 22:0.386831 23:-0.662281 24:-0.583157 25:-0.196208 26:0.166198 27:-0.289686 28:-0.225077 29:0.0122051 30:0.00394532 31:-1 32:-0.620786 33:-0.756057 34:-0.135215 
-1 1:-0.0563208 2:-0.322145 3:0.395294 4:0.0834519 5:-1 6:-0.037879 7:-0.375813 8:-0.124955 9:-0.719628 10:0.0727741 11:-0.654265 12:-0.307106 13:0.272667 14:0.395017 15:0.347054 16:0.318831 17:-0.160003 18:0.0304811 19:-0.604871 20:-0.0101418 21:-0.60962 22:-0.182687 23:-0.544497 24:-1 25:-0.352782 26:-0.538354 27:-0.0128672 28:-0.347166 29:0.715564 30:0.0707738 31:0.0750119 32:0.618689 33:-0.670978 34:0.363173 
-1 1:-0.265577 2:-1 3:0.0865475 4:-0.169865 5:-1 6:-0.0939342 7:-0.801206 8:-0.335165 9:-0.86528 10:0.250541 11:-0.443202 12:-1 13:-0.0186255 14:-0.582546 15:-0.725891 16:0.0578034 17:-0.549911 18:-0.594361 19:-1 20:-0.767025 21:0.361559 22:-0.163484 23:-0.332357 24:-1 25:-0.56238 26:-0.516489 27:-0.171802 28:0.292102 29:-0.335742 30:-0.03153 31:-0.719073 32:-0.825138 33:-0.726668 34:-0.168557 
-1 1:-0.0568983 2:0.279067 3:-1 4:-0.111607 5:-0.820015 6:0.746438 7:-0.0456497 8:-0.303021 9:-1 10:0.250489 11:0.517185 12:-0.0758407 13:-0.268816 14:-1 15:-0.515275 16:-0.389646 17:-0.355468 18:0.258249 19:-1 20:-0.780184 21:-0.823016 22:0.453279 23:0.215636 24:-1 25:-0.41098 26:0.00580582 27:-0.209025 28:-0.319772 29:-0.349258 30:-0.838485 31:-1 32:-0.707189 33:-0.379157 34:0.497892 
-1 1:0.00777758 2:-0.603547 3:-0.659835 4:-0.344112 5:-1 6:0.115269 7:-0.800097 8:0.134432 9:-0.565712 10:0.230069 11:-0.417916 12:-0.267134 13:-0.182892 14:-0.464495 15:-0.474588 16:0.0437994 17:-0.529471 18:-0.208365 19:-1 20:-0.701142 21:-0.667197 22:-0.0924926 23:-0.733593 24:-0.815724 25:-0.219729 26:-0.296558 27:-0.177395 28:0.0786904 29:-0.153142 30:-0.62319 31:-0.180509 32:0.0714113 33:-0.807567 34:-0.149196 
-1 1:-0.295428 2:-0.109068 3:-0.580458 4:0.146077 5:-1 6:0.323652 7:-0.4042 8:-0.328979 9:-0.709607 10:0.400288 11:-0.372216 12:-0.473249 13:0.273698 14:-0.630126 15:0.0315478 16:-0.201215 17:-0.132552 18:0.28341 19:-0.709163 20:-0.285427 21:-1 22:-0.0301176 23:-1 24:-0.768088 25:-0.406498 26:-0.641011 27:0.0318318 28:-0.323322 29:-0.0821851 30:-0.547549 31:-0.394454 32:-1 33:-1 34:-0.0200905 
-1 1:0.0599113 2:-1 3:-0.175499 4:-0.044062 5:-0.635318 6:0.226885 7:-0.551186 8:0.615732 9:-0.581121 10:0.480863 11:-0.0877187 12:-0.635796 13:-0.0928062 14:-1 15:0.125663 16:0.296276 17:0.332334 18:0.0892222 19:-0.640926 20:-0.166998 21:-0.641398 22:0.0866842 23:-1 24:-1 25:-0.147242 26:-0.404526 27:0.134057 28:0.333482 29:0.16953 30:-0.0599524 31:0.312524 32:-0.30346 33:-0.0227001 34:0.170041 
-1 1:-0.42784 2:0.158122 3:0.116604 4:-0.0342908 5:-1 6:0.363482 7:0.0177282 8:0.636768 9:-0.722934 10:0.565117 11:-0.450396 12:-0.315276 13:0.169402 14:-0.141461 15:0.422449 16:0.165413 17:-0.138198 18:0.812407 19:-0.324919 20:0.495117 21:0.44849 22:-0.20426 23:-1 24:-1 25:-0.206069 26:-0.657486 27:0.410746 28:0.191603 29:0.0658309 30:0.514565 31:0.381317 32:-0.0387443 33:-1 34:0.134639 
-1 1:0.0491033 2:-0.786562 3:0.0435981 4:-0.15242 5:-0.701299 6:0.283961 7:0.0228262 8:-0.204574 9:-0.726672 10:0.0424469 11:-0.346207 12:-0.324513 13:-0.122839 14:0.365268 15:0.18128 16:0.51569 17:0.263524 18:0.0284247 19:-1 20:-0.172255 21:-1 22:0.0528525 23:0.292161 24:-1 25:-0.256233 26:-0.36499 27:0.0939092 28:0.0224754 29:0.535185 30:0.220058 31:0.231712 32:0.261883 33:-0.506481 34:0.280579 
-0.7484570931144995 1:0.650414 2:-1 3:-1 4:-0.830131 5:-0.799117 6:0.7916 7:-0.368535 8:-0.131932 9:-0.561092 10:0.236644 11:-0.387575 12:0.292249 13:-0.197033 14:-0.76254 15:-0.677478 16:-0.86999 17:-0.923612 18:-0.34485 19:-0.813282 20:-0.867477 21:-1 22:0.386431 23:-0.784752 24:-0.851112 25:-0.0452453 26:-0.0855221 27:-0.168204 28:-0.608122 29:-0.316514 30:-0.902626 31:-0.840201 32:-1 33:-0.84452 34:-0.570852 
-1 1:0.169392 2:-1 3:-0.560793 4:-0.729164 5:-1 6:-0.0124232 7:-0.132394 8:0.0128309 9:-0.874426 10:0.308221 11:-0.583229 12:0.060079 13:-0.246606 14:-1 15:-0.855531 16:-0.769608 17:-0.777578 18:0.0473281 19:-1 20:-0.78284 21:-0.753474 22:-0.501734 23:-0.81109 24:-0.86933 25:-0.604971 26:-1 27:-0.0799559 28:-0.375881 29:-0.315175 30:-0.277527 31:-0.227537 32:-0.479948 33:-0.863545 34:-0.653036 
-1 1:0.514229 2:-0.0349772 3:-0.545568 4:-0.212543 5:-1 6:0.410604 7:-0.27334 8:-0.0322971 9:-1 10:0.00531878 11:-0.0437797 12:0.622852 13:-0.0935093 14:-0.284609 15:0.0420826 16:0.208937 17:-1 18:0.0706531 19:-1 20:-0.146708 21:-1 22:0.352848 23:-1 24:-1 25:-0.0297712 26:0.352796 27:-0.0537745 28:0.11955 29:-0.0457554 30:-0.373025 31:-1 32:-0.24383 33:-0.226053 34:-0.0145499 
-1 1:0.246129 2:-1 3:-0.761288 4:-0.0392745 5:-1 6:0.180548 7:-0.157291 8:0.537612 9:-0.878725 10:0.791892 11:-0.185306 12:0.553102 13:0.458184 14:-1 15:-0.398666 16:-0.37284 17:-0.784464 18:0.73124 19:-1 20:-0.376538 21:-0.831141 22:-0.236126 23:-1 24:-1 25:-0.273816 26:-0.312783 27:0.390389 28:-0.134707 29:-0.412075 30:0.262106 31:-0.248216 32:-0.719345 33:-1 34:-0.486106 
-1 1:-0.722078 2:-0.135046 3:-0.677978 4:-0.323701 5:-1 6:0.709668 7:-0.685462 8:-0.215525 9:-1 10:0.128723 11:0.523953 12:-0.0705602 13:-0.0227224 14:-1 15:-0.635597 16:-0.103865 17:-0.718344 18:0.0202421 19:-1 20:-0.893562 21:-1 22:0.241177 23:-0.675499 24:-0.880418 25:-0.183496 26:-0.358742 27:-0.508385 28:-0.212821 29:-0.137771 30:-0.315655 31:-0.41079 32:-0.633248 33:-1 34:0.179498 
-1 1:0.150128 2:-0.527099 3:-1 4:-0.825553 5:-0.839803 6:0.826664 7:-0.283665 8:0.0807201 9:-0.530762 10:0.0851879 11:-0.0710121 12:-0.402147 13:-0.0137146 14:-1 15:-1 16:-0.462245 17:-0.723253 18:0.2544 19:-0.853327 20:-1 21:-1 22:0.0943384 23:-0.830916 24:-0.780191 25:-0.378201 26:-0.36766 27:-0.3355 28:-0.626725 29:-0.571599 30:-0.647221 31:-0.352175 32:-0.736468 33:-0.588065 34:-0.196788 
-1 1:-0.121491 2:-1 3:-0.642971 4:-0.677993 5:-1 6:0.102428 7:-0.658399 8:0.260133 9:-0.591554 10:-0.15015 11:0.102293 12:-0.551736 13:0.0659136 14:0.265645 15:-0.29891 16:0.0367144 17:0.410644 18:-0.768797 19:-1 20:-0.293662 21:-0.431293 22:-0.246588 23:0.374135 24:-1 25:-0.379927 26:-0.775769 27:0.0635633 28:0.696657 29:-0.350569 30:-0.769521 31:-0.621764 32:0.0325192 33:-0.631989 34:0.174792 
-1 1:0.00860347 2:0.762161 3:-1 4:-0.482946 5:-1 6:0.30389 7:-0.262332 8:-0.031613 9:-0.496238 10:0.574541 11:-0.604898 12:-0.533489 13:0.444913 14:-0.415067 15:-0.435487 16:-0.00202944 17:-0.316805 18:-0.168881 19:-1 20:-0.445913 21:0.0197342 22:0.479235 23:-1 24:-0.633245 25:0.147911 26:-0.152716 27:0.237062 28:0.0656481 29:-0.121261 30:-0.464321 31:-0.606368 32:-0.584125 33:-0.617009 34:-0.00611737 
-1 1:-0.394777 2:-0.16014 3:0.177023 4:-0.0579378 5:-1 6:0.105089 7:-0.499888 8:-0.303325 9:1 10:0.548557 11:-0.399414 12:-0.503444 13:0.834561 14:-0.377395 15:0.377248 16:0.506829 17:0.690469 18:0.783285 19:-1 20:-1 21:-0.617151 22:-0.527162 23:-0.227675 24:-1 25:-0.615978 26:-0.861738 27:-0.274268 28:0.21237 29:0.702456 30:0.608431 31:0.0993741 32:0.614433 33:0.213228 34:0.122433 
-1 1:-0.332198 2:-1 3:0.220038 4:0.54791 5:-1 6:0.21426 7:0.693422 8:0.308831 9:-0.688329 10:0.624531 11:-0.235671 12:0.216431 13:0.408894 14:-1 15:0.477174 16:0.3848 17:0.545566 18:-0.303834 19:-1 20:0.0718871 21:-0.566039 22:-0.28543 23:-1 24:-1 25:-0.57315 26:-1 27:0.421668 28:0.23587 29:-0.173737 30:-0.374561 31:0.666582 32:-0.0672679 33:-0.367651 34:0.808307 
-1 1:-0.172663 2:-1 3:-0.409342 4:-0.282715 5:-1 6:0.630349 7:-0.496137 8:0.0602037 9:-0.699923 10:-0.106982 11:0.117226 12:-0.258406 13:0.495609 14:-1 15:0.169498 16:0.366848 17:1 18:-0.483342 19:-1 20:-0.481067 21:0.179992 22:0.301287 23:-0.157132 24:-0.416984 25:-0.214309 26:0.0476593 27:-0.20856 28:-0.064458 29:0.277369 30:-0.00897472 31:0.256288 32:-0.610509 33:-1 34:0.34278 
-1 1:-0.654141 2:0.42211 3:-1 4:-0.0303844 5:-1 6:-0.330732 7:-0.325801 8:0.121583 9:-0.797767 10:0.215346 11:0.0424437 12:-0.500214 13:0.408979 14:-0.373344 15:0.306967 16:0.144908 17:0.169868 18:0.314383 19:-0.171037 20:-0.0839798 21:-1 22:-0.289315 23:-1 24:-0.135244 25:-1 26:-0.449774 27:0.173114 28:0.0953574 29:0.021105 30:0.024316 31:-0.290547 32:-0.00959475 33:-0.58969 34:0.603922 
-1 1:0.0892018 2:-0.726327 3:-0.659717 4:-0.581078 5:-0.907292 6:0.0724926 7:-0.419131 8:0.106636 9:-0.320257 10:0.385862 11:-0.448355 12:0.0405896 13:-0.0849554 14:-0.620576 15:-0.859911 16:-0.736174 17:-1 18:-0.0205726 19:-1 20:-0.886776 21:-0.908838 22:0.0835601 23:-1 24:-0.66412 25:-0.0351844 26:-0.239676 27:0.019425 28:-0.184728 29:-0.725017 30:-0.722852 31:-0.863472 32:-0.841068 33:-0.867163 34:-0.596609 
-1 1:0.276161 2:-0.24859 3:-1 4:-0.713948 5:-1 6:0.486897 7:-0.405219 8:-0.0321743 9:-0.446021 10:-0.284867 11:0.0194522 12:0.201063 13:-0.361387 14:0.256648 15:-0.183711 16:-0.170771 17:-0.337374 18:-0.323775 19:-1 20:-1 21:-1 22:0.280432 23:-0.49507 24:-1 25:0.306775 26:-0.315161 27:-0.0774572 28:0.147985 29:0.569086 30:-0.484692 31:-0.154335 32:-0.0769262 33:-0.0139632 34:-0.451423 
-1 1:-0.31174 2:-0.271369 3:0.0673671 4:0.0219726 5:-1 6:0.276155 7:0.208945 8:0.416056 9:-0.348014 10:0.235834 11:0.114456 12:-0.0220616 13:0.176735 14:0.680307 15:0.343152 16:0.223999 17:0.129559 18:0.237184 19:-0.271949 20:0.838009 21:-1 22:0.310323 23:-0.160705 24:-1 25:-0.0034679 26:-0.137073 27:0.457875 28:0.513003 29:0.459503 30:-0.39635 31:0.130767 32:-0.220519 33:-1 34:0.950882 
-1 1:-0.273329 2:-1 3:-0.82066 4:-0.247433 5:-0.870988 6:0.215329 7:0.227449 8:-0.197854 9:-1 10:0.469468 11:0.0539353 12:-1 13:-0.960104 14:-1 15:-0.680825 16:-0.424638 17:-0.909179 18:0.151392 19:-1 20:-0.600683 21:-1 22:-0.0414441 23:-0.744083 24:-0.82298 25:-0.00308954 26:-0.350663 27:-0.0508903 28:-0.154375 29:-0.781606 30:-0.416463 31:-1 32:0.441881 33:-0.316641 34:-0.436319 
-1 1:-0.157594 2:0.00368425 3:0.660467 4:0.337148 5:-0.659998 6:0.16568 7:-0.382687 8:0.409049 9:-0.325938 10:0.772162 11:-0.372841 12:-0.406585 13:0.285556 14:-0.255949 15:0.308919 16:0.49331 17:0.326162 18:-0.15618 19:-1 20:0.035984 21:-0.450658 22:-0.203644 23:-0.325547 24:-1 25:-0.791769 26:-0.371271 27:0.127416 28:0.550082 29:-0.110756 30:-0.238789 31:-0.177283 32:0.253347 33:0.0318778 34:-0.055999 
